0.8118500267339267
-0.15023276256352772
-0.02906144749404267
-0.5096704574166419
-1.0186903066404875
0.5817676224143568
0.5391780812763202
-0.04711817225806691
0.06244446172397469
0.22683541906226837
-0.0001810398726161416
0.12319277741100089
-0.19973251416458396
-0.5902345052144404
-0.6685934017246413
0.4791609227643051
-0.03689350171579085
0.04522225342862954
-0.04724657361349062
-0.4188920659027919
0.21777618138037022
0.4748425836175765
0.12304974013334011
0.7716501317359596
0.9031299049511731
1.6263539661963047
0.6244373705945157
0.033777688146324376
0.25956500292152224
0.3991255181726016
-0.5649440264416123
-1.2414322513323033
0.7120145695022798
-0.5426583487759739
0.6827026652569865
-0.4936245316188096
0.6785380758251536
0.5499027863073598
-1.0133148807270997
0.3629867097371557
-0.4882423318757884
0.5855825881441681
-0.15843375270660345
0.19110575124534093
-0.41179938949896433
-0.09901925166680704
-0.2464224840997687
-0.5870586487085494
0.23771278640540655
-0.3959806427210631
-0.5483097016974886
-0.13566420461951503
-0.04819079361699977
1.2020798489775786
0.7119430298697154
0.6477827728995911
-0.87119781062414
-0.1485689841704371
-0.2820798256566484
-0.9062307507620269
0.46903063200178285
0.2086155149739682
-0.09548480860260573
-1.0207997560462105
0.04311776131819209
-0.23011458215255168
-0.15432799949371215
0.826339516333852
-0.14671134646773024
0.1748599694549328
-0.08529990421330338
-0.5286388863452202
-0.37418735124625285
0.11427072810677077
0.5061400739544
0.6412225214288818
-0.6184195170609634
0.032791551364668145
0.3661067653567849
0.4735795540331692
0.09623467318646282
0.29768988379418665
-0.37322809912382493
0.31111099895309485
0.014406882791130327
-0.7825394029125076
0.1850979790603075
-0.11603099615843766
0.14908573341892115
0.17354001571210734
-0.5709754910738898
0.04365238614165509
-0.7085558444355599
0.5757454813290992
0.1415259736588123
0.6683527242711887
0.31944945082857756
-0.2952232830146897
-0.00375266076167271
0.20230944553790597
0.4797284491011773
0.437578611722045
-0.7753811262745871
-0.2512621929401133
0.6614767752573902
0.7769521805796546
-0.5488989462586932
0.5945978996234834
-0.5977254281117417
-0.22626755692273046
0.32746101032812674
0.5729137562995299
-0.15018995159399168
-0.9091307787142615
-0.01381390000694743
0.0588821258323027
0.3935066851956948
-0.09539202207959252
-0.004617185147868076
-0.33179922955277336
0.17019697796116381
0.31412666071271567
0.2977130767668946
0.4017188457995772
0.48691930554870244
-1.2617138060656683
-0.8506106742134132
-0.8377587628125475
0.11910691673749756
0.35990637130879244
0.319586050793751
0.14809228903720725
-0.16844750563656027
0.4259896442196863
0.6562396525900028
0.42019943075477256
-0.09256214505320298
-0.06891770025312573
0.00585695278573199
0.08277644036627406
-0.17934003234534615
0.12498739181803792
-0.3653192149647233
0.36833822032704855
0.821223532305032
-0.4421842278497363
0.6326861975830682
0.024356836737062695
0.06329108311056668
0.2668933883140153
0.3820138616199332
-1.1654814247258172
0.6737374943139295
-0.36955993304024154
0.16103325213264832
0.0395660353926695
-0.00877420683796892
0.16519463087156966
0.4725211066434979
-0.1212375103632282
-0.4583697897555135
0.4337064669308429
-0.078103914701365
-0.4890380576766986
-0.28708515658037514
-0.12105617807202933
-0.19600342094124507
0.366645353836981
0.43513842467625624
-0.143520005342383
-0.5407647518495757
-0.06028822469350085
0.1678201638989545
-0.42199713772871983
0.4809662340387204
1.2073421530086146
0.019905496927440057
-0.6446198862766601
-0.48745499268460785
0.5481895051361857
0.014028244993610401
-0.014055020562527956
0.24608456092269088
-0.04423489585284373
-0.6539405045185196
-0.02892768255578985
-1.2182726265116721
0.06737892211525365
0.26362354716186687
1.1925761371993613
0.190870851017352
-0.6252732871182022
-0.49514953667498374
0.12431997637080414
-0.4027165601105145
0.6766941855961152
0.34418116679239796
0.07322278603444658
-0.10240092270395747
0.02722943340682773
0.055440939942611484
-0.0693265454498385
-0.40493590792721973
-0.18259155447420009
0.2936868575785585
1.1314279479056306
-0.25208912742839124
-0.3864791819228401
-0.5569285289367927
-1.340695947546374
-0.25250323300936367
-0.16198540682257734
0.2539155539829327
-1.064344093473473
1.1576352007042565
-0.3037010164192773
0.3742236796706209
-0.10263882202321169
-0.4677152065767966
1.0692646055826804
-0.47532530085138036
0.8217502126566784
0.20315942984805713
0.24175969309001966
1.3294350497103071
-0.37923715686241805
-0.5378407051573346
0.610446509675159
-0.7652377193587814
-0.16792731093723984
0.7591301136730689
0.03750769473775426
0.40249566216661603
-0.1773567978958
-0.6222125870924794
-0.27375469467813424
-0.8068692982731053
-0.3568893452185364
-0.29700374571269095
-0.16462743269768254
-0.10130502358402295
0.7090471468238128
0.1615379566099692
-0.7027684072311253
0.46047310155876386
-0.16861074690126973
0.15468699325478488
0.545790923543547
-0.4974962575975402
1.1132816184463181
1.0050083064237523
0.7186106458914634
0.59706487543808
0.5258749094755575
-0.11883901359175572
0.40238630287112226
0.29897416002117405
-0.4524356876542533
0.7903885220608811
-0.16843531475346502
0.014144659932289663
-0.3087766002704778
0.4276470096954137
0.03274637746329132
0.5413591982112042
0.40481540060978616
-0.26959743328401825
0.16853674410083613
-1.2110801985456077
-0.6144687657020282
0.21305203216404348
-0.45236006118490435
0.8819969477001253
-0.4664170191502904
-0.43064999130040615
0.6655798492324793
-0.12457702297723411
-0.33721824584466215
0.360455386815101
0.958138125322017
-0.46956361212121245
0.7479602739833981
-0.7387630468200309
-0.3455997657937915
-0.3846227904110372
-0.7424262517421623
0.35610331978139065
0.4484432659197905
-0.2179109943549435
0.43203466747334757
-0.2678037590507589
0.3785496299372523
0.4729435983859504
-0.7784817726294426
-0.5351780307247381
0.4624851183506533
-0.15335974747094325
0.030401849038097943
-0.7350904426305624
0.08957530841431269
0.4939566388382015
0.673509765310555
-0.8062361472895789
-0.12639104868565923
-0.10455958210659304
-0.90051586576066
0.45969650321319433
-0.0641083629556948
0.7535421955433524
-0.6083989560687318
0.22587645096271894
-0.10373265451369641
0.3809969182600515
0.19881685711705976
-0.5676589437075125
0.6238550602265988
-0.5508428638075429
-1.1790363413486338
-0.3077197461682015
-0.5422933460986348
0.5845104713407413
0.08266367807080352
-0.5125007346004313
0.18948057018358463
0.6301407529276628
-0.5999899927703465
0.730089996465496
0.3676562489022059
-0.2354365965381032
0.07665510679256284
-1.0126935777173962
-0.5885550038047761
0.3122403907374219
-0.28437127775769405
-0.1331008879660053
-1.5358186441972947
-0.24385890503115373
0.26626957037897403
-0.18849109867402744
0.03972012402534415
-0.16936088310232303
0.3424449748174173
-0.5522653773655859
-0.21874162074603354
-0.19718339062781257
-0.11701690069565494
0.04529569073869706
0.2639871149314218
-0.002391587897350127
-0.17105729873120626
-0.5030897378078389
0.5901708663779629
0.3186398509142186
0.8489461166879216
0.1514850504126774
-0.5483962252155022
-0.1542593194801686
0.7174265554355234
0.08507179342848634
0.06227765175019169
0.5090928222981939
-0.18829875010906344
-0.7690498561121947
0.1775553746221573
0.32196097015199543
-0.46799582526826683
-0.9232116327591867
0.13308341066233886
-0.42671121687159536
0.033136654179702546
0.6764056852949533
-0.8252417870275365
-0.45987386810354186
0.5481729594764628
0.11460815268024618
0.08295141257199429
-0.1471475002657387
-0.4399194493198599
1.0510742808255156
0.05206446892381253
-0.585909643659632
0.3068442888538166
0.6396873731492564
0.5028453822920133
0.2250521507580566
-0.255862330921985
0.2890848286728095
-0.09611177865841616
0.8280001686695532
0.039423076005192036
-0.3269404890836853
-0.01937160591606351
-0.1419707420979143
0.6108934684277422
0.6255616587233883
0.02939483487990644
-0.11178557035788741
-0.7285339443907853
0.3633784833396555
0.7112417160763238
0.6085745576282409
0.34320724505022543
0.2054620625769445
1.1503035810154765
0.41504349384040756
-0.8283206376963881
-0.13100566730007185
0.09381875442101298
0.006592164398920963
-0.30541816160991314
0.020137249533475114
-0.3225429763558028
0.6706871403647847
-0.6885820936866235
0.9094182934784942
-0.026905943483374654
-0.8067067253606583
-0.058119576947180646
-0.2077649788508249
0.14150113825892346
-0.7024498228098075
-0.21166744517742803
-0.15178282381787306
-0.05765029182818517
-0.6708964953180787
0.7087005520628693
-0.3691179537972427
-0.592545779130735
-0.1680302482858701
-0.27352429034603737
-0.27428602898266513
0.46785027653094385
1.1206471254945891
-0.1704067338586389
-0.20271654427884386
1.0894519378927996
-0.49477023292330924
-0.9538703439271259
0.49346968885769743
-1.1999434207748128
0.20104166970645973
0.14372649836944157
-0.009764705411744672
-0.6653938982304008
0.06206814924734892
0.10826345380971282
-0.5230665687123714
0.2161907487223178
-0.08485239313192194
0.5135965785347323
-0.5453281150475677
-0.013258749296994611
-0.7654662362800155
0.1667877683903078
-0.22951219739466744
0.3992489181956811
0.4730947427602903
-0.514667308564611
-0.5799667432439531
0.7313555690089245
0.696040161550135
-0.17005830283612683
-0.27706643061854197
-0.05829221360705143
0.8186027144218393
0.5168886915218873
-0.5691358880357201
-0.4545810361121143
0.29155485664709563
-0.2195865753322878
0.022662830422500422
0.016917404498534103
-0.03066490988634281
-0.27028704226195915
-0.724063875740405
-0.5532080790713165
0.4970902719157127
-0.32413888168614274
0.3053987197519269
-0.9178915293628689
0.28881260832111916
-0.9108005819893705
0.047964486367270145
0.1720024175428547
-0.03672770239328861
-0.8887674667113918
-0.10067078203142885
0.05791627018149337
0.7663017003841021
0.39738495570780336
-1.17041361665962
0.521709296819893
0.6835950484311868
-0.8911236805812882
0.46642857424839157
-0.09478178973932376
0.18991024377067597
-0.2456727201150848
-0.2551036771007053
-0.007657437730140099
0.8947564169644185
-0.08642600952029
-0.41965777544910216
-0.860383707098427
1.1218411382813098
-0.142869872206496
-0.39195946674703
0.08744184584690669
-0.627012829749711
0.25609935096959763
-0.01704012463943582
0.3335191633359049
0.4575320927195444
-0.5182858249238238
0.269810946234931
1.7888872828660767
0.1457243736415082
-0.4446846394369032
-0.0705388816688504
0.3922782698922646
-0.57416522605219
0.013637168782160826
0.36285403950569245
0.3956748755932955
-0.164720916277483
0.227645198124223
0.9008097228347259
0.3237763326595305
0.18856430336642438
0.13076790638847333
0.18354251490609513
0.28787626773461505
0.5798548997923674
-0.16131621988586436
-0.19116465355679527
0.4529208164326254
-0.5561215886076045
-0.5563279239662248
0.1937575863466305
-0.32670867165730494
0.07547329125806423
0.7229678011982517
-0.06571487313573324
-0.2936978171284318
-0.4245893155035469
0.2642638605587347
-0.21247213745914614
0.3876322642857955
0.09411441089067049
-0.9147692496174403
0.4950869459611461
0.3034279719267186
0.1266761742353151
0.2109323495938072
0.2867924876019227
0.31702912258288124
-0.1847617159110574
0.8620767160325029
-0.07479857263453171
0.3452755430564188
-0.74978858296964
-1.105943020032992
0.1979042076460746
-0.13585637494642572
-0.22966986098477557
0.33139812971084986
-0.30542217746262273
0.7066507342528067
0.5886359068194507
-0.18005066739737458
-0.759944146406687
0.41033503579051483
-0.5884078240716272
-0.19594137408364407
-0.2082339405387824
-0.10311243832286984
-0.25361531915521657
-0.331488287974443
-0.5250233767698275
0.10372104388553664
0.7249970474068679
-0.17873612952955467
-0.1081220077857218
0.32940565090076945
-0.8255831083033801
0.422328892162833
-0.09349279159252259
-0.13874091701779262
-0.05725503568572041
0.19616254356062637
0.18416739474176125
0.8380912628409309
0.6011092577164971
-0.477614536497457
-0.8840490017046236
0.23570909286521746
-0.3638914424855489
0.8372636918269546
0.8298725951975641
0.11900414075370769
0.36337777217513667
0.1839539077308558
-0.5536184560164151
0.5031168719983533
-0.030833292451990506
-0.36573359922198645
0.13018709952564286
-0.16290267966935068
0.13700129532306646
-0.46222208881694904
0.38186939484376814
-0.44922078607687915
-0.5821266351470064
-0.4227964443945972
-0.3378823332420196
0.24592658304308757
0.14446413961983107
1.6128163475558552
0.6038518308662978
0.29291127529681044
0.39294249565478756
0.28113269795533824
-0.6861463204356609
0.5180431762416308
-0.08103657368727776
-0.27053048246024874
0.5475003708880277
0.42723234814126787
0.13144294518263133
1.1067201060723724
-0.6956800592152553
0.06753007203841303
0.4183703357491138
0.3808947912787924
0.4902282081468272
-0.27924067079815995
-0.28267462244561803
-0.8922161850476753
-0.6476878902007318
-0.05131084528192423
0.0070075933241300434
0.11911439829872617
-0.6759227663789636
-0.5648497788447844
-1.051002247890542
-0.43399374342967917
0.40908450981400946
0.33918672898370805
-0.6964727521525418
0.3172242496061372
0.6046863216511827
0.10419658795718778
0.657432177560046
-0.9175368080576586
-0.4159014047819532
-0.205856752517285
0.43742560969994354
0.47638302001213506
0.2986661490401246
-0.20843886461224326
0.1466226795392153
0.4858552520926109
0.36029714635729776
0.43549501896907183
-0.3001409670038221
-0.7714044996885664
-0.4088297271146404
0.2033460359191507
-0.44241857445125166
-0.974567082663106
0.5464482576614816
-0.9071970499667046
-0.2783960307301351
0.19608024065447652
0.3480154847688575
0.17100464197506512
-0.0633223923476825
-0.060265702403177863
-0.32793604053642145
-1.1080409320836166
0.885556449329724
-0.42108728901994424
0.5240724065078415
-0.39729882982821974
-0.7383722488928818
-0.38614545162925523
-0.5182379034866329
-0.4583523569196264
0.11721096530288051
0.6322322402402362
0.17348738386676346
0.8790329320083854
-0.2576507718110941
-0.5944635203401157
0.06632821681390443
0.8545841588832546
-0.05101931859686926
0.937297977945869
0.5236427303618185
0.6846458213568869
-0.0025029452461414227
0.5602580185813604
-0.014564806116849136
-0.15821251627821484
0.7725479357725845
-0.07315622952950054
1.1403117095439868
-0.11961581311253937
1.8178053741650644
-0.6444599747690908
-0.4747136974885714
0.13703446470653427
0.45334965181987075
-0.2854506800881538
1.2088536260091516
0.461159165457221
0.7947613990239429
-0.7053636726303567
0.16938779362669137
-0.5102228579823618
-0.25354689186017426
-0.5766216245218876
0.3280579821743769
0.23850237958372378
0.2843479964160525
0.10666059701399407
0.7486714839395568
0.037480406058508636
-0.13402437756720958
0.4536765864713093
-0.6182300745504079
-0.7066411848229993
0.089558479577492
-0.6764747243597451
1.1562574129329937
-0.2578232699225351
-0.2395816865234202
-0.22990937490340657
-0.13576909208266683
0.1106888096676405
0.4347579041679526
0.36243269598463057
-0.3015378600068354
0.18758509121210032
0.3099223906251386
0.7590772705932021
-0.25296287180608135
0.4519311471730581
-0.3033942067739254
-0.720399115277602
0.17122901635893045
-0.343640469652287
-0.26996616474991225
0.1524025749015944
-0.19509833222981268
0.7400886244636693
0.055108776277656646
0.09877858254038277
0.22770035474266842
1.1622652540085985
-0.8806337053312788
0.1228448809696569
-0.34195531574434807
-0.901607885494765
-0.04639463117353659
0.32544676592425725
0.4811656419088941
0.18507969537547503
0.8987721848832914
0.4970918476330185
-0.5648414577903622
-0.10842550290430902
0.4086060668123056
0.004532745241311077
-0.09649205299956824
0.17250152408599187
0.6686431373163874
-0.2502673952253973
-0.5215985768880512
-0.2740176174961694
0.2414592896377119
-0.25230886351022996
-0.6595364368856277
0.4118858591627563
-0.5457535704160466
0.16859471870829826
-0.42370095062232543
0.8688927794698205
-0.2302733234905918
0.0007167825170079543
-0.529496189209479
0.12440004201886078
0.36513322820624833
-0.5421003837108292
0.054955777214453695
-0.3687870546346682
0.42361718221094646
-0.7267924520266696
-0.05661286651267262
-1.0179330968588127
0.7930496091764186
0.2673579618340742
0.009669566273962264
-0.30874539560443354
0.19793866750591738
0.45894008710861967
0.2804403635671215
-0.28571970342727226
0.43758817330707117
0.12353669716667527
0.3312127088453915
0.39879461378758907
-0.2282866462526224
0.19865664840064423
0.3756197441738363
0.3939738835570688
0.32095084252876693
-0.4241937883026941
-0.3055702582152823
0.23447499935806215
0.24638279650588443
0.7491593230396184
0.20371486264523703
0.023853460880083194
-0.36987406971922765
0.21020555150314363
0.19367337487287908
0.37293932742860575
0.4457404089755903
0.13170933673041268
-0.15208965764765786
0.7079536514747121
-0.6026240502437934
1.2693008013354439
0.8766911853550677
0.5826451671879644
-0.3692233599713533
0.48108083930741324
0.37244181696971995
0.1689929717551969
-0.471317483188168
0.5245203993921915
0.10180705452729352
-0.15973535322397278
-0.7736939341243932
0.3911218504496388
0.7333305386725788
0.1941951282729819
0.0465330066977804
-0.16723704658564062
1.4959472765396837
0.21260084104477073
-0.16222959211785776
-0.22932335506049453
0.25249319154580335
-0.3214717451041927
0.7756628750493059
-0.43368304697493804
-0.5604008705501176
0.31559178755955725
0.5137078456602074
-0.621672928241721
-0.35630334083048665
-0.5691188025880703
-0.16374524846389416
-0.305509177982689
1.01718843506785
0.2047096555062051
-0.08132055880516659
-0.12907687796177192
-0.5951833640897077
0.3053442953522921
-0.9550245239851421
0.15004384332794543
-0.3264402114995209
-0.573729245578285
-0.6392012966910846
0.6349937330171389
-0.7375185666441391
-0.40203016286271154
0.8053892286883935
-0.005195136270404306
-0.3263544289709889
0.49056306713315523
0.41054905414838966
0.4188356311448317
0.5535319321433818
-0.5129357568238878
-0.19045531871763
0.289745770064109
0.3491680993232834
0.26782752155500655
-0.06902835186779094
-0.7119888874202065
-0.22695451523639107
-0.22543653347003367
-0.9217717905734052
-0.6450400250240654
-0.061198218963060116
0.20928396291971466
0.16712641411893697
-0.3159449876431769
-0.37088121477247266
-0.496909577671134
-0.11858454494072743
0.2890737635902233
-0.550319890748688
-0.1563305468685081
-0.07642177651392461
0.49014459965158447
0.2110732689930709
-0.38495116666856866
0.4949019009581347
0.07947323113238573
0.6528675552047338
0.050296521082734136
-0.7173004525435649
-0.23436253861363254
0.26391511695244063
-0.24876649211341345
0.19264254211080245
-0.723063242044037
0.20534900631266773
-0.14549959108630264
-0.6346363551307469
-0.39104815874510646
-1.0702336286872585
-0.24778679532420755
-0.017525426025405504
0.017689274926944155
-0.7744597683283692
-0.4329164968934772
-0.15449023014224714
-0.3239727693338277
-0.19692569547682054
-1.527823691879814
0.09863189877724748
-0.015800976319509205
0.19829411818736203
-0.01785327155462635
0.30345812260068955
0.4094681144415248
0.029726406221683602
0.28299682102972173
0.24705829573489796
0.4002447948836506
0.16468188905302175
-0.3872712347773811
0.01012640759283636
-0.42129740984144554
-0.4857778592042782
-0.48493368981653023
0.012273132598108714
0.6490735279687516
-0.035899301319809326
0.09800616525088253
0.18690760839375162
-1.084596000723876
-1.1185735749036916
0.905547188095979
-0.2778948354353549
-0.17989526902144637
-0.38796063476131715
0.13927489257562442
-0.401070893952125
-0.0855240421099122
0.5795693896444066
0.6734522545841384
-0.07948060096381841
-0.7417436764003441
0.6228325189321026
-0.04751509820539631
0.25524538439328304
-0.3394907751060252
-0.3059482035176672
0.06862004689049472
1.6443855567374246
0.7725437589893872
-0.030568569881537014
-0.6233368850317011
0.4007071660737377
0.23047705856733483
-0.7231064390165844
-1.11788592200521
0.1699010956934355
0.375682572149744
-1.2584356607850837
-0.10755085693199083
-0.3628246159401143
-0.5456353814308241
0.02883066571572173
-0.2549537659146659
0.5000730768652543
-0.19192858602869356
0.8572257334973309
0.6669902764606036
0.8328607850208329
-0.1499029074215093
0.569654567217022
-0.4496974059880901
0.07021013796060946
-0.239530032710535
1.1530150966088926
-0.056954290310534526
-0.02374175082737451
-1.0740255905167562
0.5508309328343675
0.6729106608081633
0.4751931402821622
0.6315770368353578
0.34651575633951015
0.6304690121240812
0.1370936758153217
0.6905127857829022
-0.8252891240591249
-0.23061420657019613
-0.29740823683004597
-0.4498761135792509
-0.7457790088988202
-1.2069317963110104
-0.6406883744460286
-0.5652423664087849
-0.6593719295350075
0.17576729902582286
0.06897404595069809
-0.4263216581629702
0.09957610287915208
-0.12372717639546207
-1.021906800247081
0.21024310755105916
0.34375978606787383
-0.0837853202001854
-0.25100917638916076
0.3243330065682673
-0.3212492153938976
-0.7066923645853049
-0.436390384649415
-0.36874473876683345
-0.6202348736074029
-0.0732034042978936
-0.16772004031605134
0.34437450115182516
0.7403086332389555
1.1626462045962749
0.1441899024798152
0.6068157445938878
1.0381237637000857
-0.094242671764087
-0.524366831068837
-0.6302637817553947
0.17813404225717225
0.3010858720135283
-0.6601338323898893
-0.8808457294501546
-0.018710489392002587
-0.4539137694020104
-0.46264094886409557
-0.28691783024163386
-0.13498420697180655
0.2474375230636355
-0.482867700386906
1.5756118398347296
0.6904843840051239
-0.03793085494355887
0.43505428042032734
-0.5614861786760706
0.2602376721563268
0.5666664297451911
-0.24716695079237705
1.1091568464854582
0.5295634051268644
-0.7874354426618985
0.7462764032908749
0.1714533433184342
0.8377593299573001
-0.2157798879637719
-1.12909173928655
-0.4678067829331069
-0.2638829272947789
0.13502230760573317
-0.17447775410379848
0.6911758474502577
0.529842662437807
0.6875161003229873
-0.1361885078246254
0.3712638266958505
-0.5789134825802589
0.25427743961314914
0.3624464159725032
0.07039911865430973
-0.12705812239863323
0.15771026317362963
0.0851998600988564
-0.22756612764183468
-0.4893445854191374
-0.46128436105939713
-0.028074490195217027
0.130191536760512
-0.1634328895878969
-0.2395229500533862
-1.0360281982622177
-0.5124415143111543
0.620520230626158
0.7865351817402862
0.5015442049703236
1.2594766183057324
-0.12932021635379315
-0.5399069611337627
-0.03623224034518264
-0.17376316767805774
0.43553962859290607
1.2382415814478767
-0.16440030270872913
-0.0491461015277198
0.623984334773104
-0.8549210334763736
0.9273390975889633
0.2824401661316571
-0.6170838600040305
-0.12452610243511839
0.29639998641079546
-0.16028892834379038
0.8338874498133839
-0.7136329000586739
-0.596963386363558
-0.0442639642223633
0.29820703050943714
0.9040962680805078
-0.9313555435328098
-0.026628104067607662
-0.2775220517054313
1.3966681101266631
0.26647720071098974
-0.1422597364875568
0.505549999668721
0.07222831215174995
-0.3316825861881302
-0.482301031588887
0.756427618508364
0.7118093414259966
-0.8262939037506025
1.223689928870326
0.027510847272415477
-0.6124747112995017
-0.23760394944951996
-0.17884332400014066
0.5527375774652922
0.1042322124988578
-0.14416336050807796
0.5599116809402813
1.5973665461549
0.086279772527911
-0.3828656333902965
-0.038718628643259506
0.6552614390295147
0.9160420639530694
0.05774645143210263
0.18098047673326811
0.051996395316310035
1.6795771319441688
0.39386551320009383
0.4523508744398467
0.5047947812083247
0.23603765397420975
-0.2710318039576254
-0.23386975355098916
-0.20883162093079818
-0.3723741251163886
-0.2423430915274793
-0.1941765196308752
0.15726358648972652
-1.0975883009496716
-0.22495443430357248
-0.2778340446345903
-0.7183069533241185
0.6546424524876534
0.08371230430842953
0.6837642267336993
-1.064931902424605
-1.072765886085783
0.33239973268787
0.6477816167021831
0.13977483494168005
0.40143038053609614
0.2345204009055348
-0.9771670527287613
0.19642169902528941
-0.3246517411368945
-0.5881296446918965
0.09997969485878908
0.08353361007027589
0.4132870101114479
-0.34780556263349727
-0.2813611479531293
-0.26131167685553025
0.3898159762000813
0.6524819838064946
-0.1711683058996634
0.36651128121096677
-0.4510412847731656
-0.12850871373455205
0.04713239016569189
-0.5412442704871161
-0.6681753671026408
-0.4940181047371012
-0.10862419203136825
0.5424330766913694
-0.16321615062711575
0.4462280368853084
-0.3614382453963135
0.04459076865917169
-0.42455269737721185
-0.4969264845552331
-0.5713608188027194
-0.07690705019984116
0.31414481406973643
0.3071240749567268
-0.48934735520019906
0.08105849166358375
-0.3949359971870516
-0.3734030980065061
0.24319679760095217
0.4776630641163832
0.13968983296349058
0.08945626683083951
-0.25764970806943804
-0.36409027545316414
0.38525957791631243
-0.6635854299463543
-0.881913673081673
-0.48681761129873835
0.785882706911723
0.5184203645984403
-0.49785110316344994
-0.2019007951472324
0.11929219924823607
-0.03375722839363506
-0.36839423519259484
0.7927825071691068
1.1200970554249534
0.12281554821945682
0.2909766725823876
-0.24168379443321947
-0.30673167416497615
0.33109662834102754
-0.3517096792358106
0.5771490495681009
0.4560720379768005
-0.18289333481708656
-0.17296349948766437
-0.011762770356252068
-0.5804621560596784
-0.15297378601952827
0.4360087495739629
0.16004363984197478
-0.6619128705720031
-0.23162370531933318
0.2897053574841319
0.7487995196477158
-0.029387555643406373
-0.8702984470617815
-0.1041452158365247
0.28657033985503494
-0.2995920703212187
-1.0517558461193437
-0.8983454596021894
-0.45135002753565556
-1.210036130570847
-0.366368929369137
-0.13575906211705063
-0.6068098930798391
-0.16595928321474882
-0.042503592103426406
0.09475612683482063
-0.05362293495978156
-0.15502732271657033
-0.5450882847206946
0.3303349360550219
0.47721820344325566
0.5122400813936013
-0.1394373405733252
0.35665986372040165
-0.21413477587490087
0.30180059724181757
0.2345530147401856
-0.868814216808505
0.9420495867915462
-0.5622742769772023
-1.033656248236521
-0.2088541198039143
-0.07747176103687864
-0.0019623618586969895
-1.005127426421629
0.048456220155474496
0.05663756357522977
-0.003966018320516599
-0.014483356878816635
-0.08644623127302306
0.7067958521411941
0.37704769249437575
-0.8073422876437989
0.5641451542953105
0.3602670751067788
0.4184815819054122
-0.7489524471713545
0.3993792276003318
-0.054760034572587046
0.27016734047985463
0.3896741251297905
-0.2780367248327795
0.8505789740879597
-0.3679101785537081
0.4786871125868148
-0.5572530638072283
0.05170273291206916
0.2620072545510504
-0.21031242195853128
0.430195447367149
-0.01418878999411874
0.6029713568683983
0.4921588694848498
-0.906188289653839
0.2760561267283119
-0.4778794755200022
-0.3614766503582229
0.8294315498234959
-0.41987196475921346
-0.0009394168128250523
0.19684058219820022
0.8972515229334539
-0.23969012313110993
-0.12006942897958289
0.18036856838092635
0.9443285356011656
-1.5439979756118145
-0.6007719535168566
-0.6194088851690425
-0.4691263934681043
-0.22132546349356413
-0.25982888153442774
-0.5811053371930709
-0.5707282961661577
0.8456600214783974
0.3607496421224716
-0.34523407321952715
-0.5148630834775663
-0.07850339164508133
-0.4260409030241027
0.4456177258304684
0.8015639202011234
0.20563735844824346
-0.5773704689301098
0.13630805067418014
-0.45239450521058827
0.5219911084025243
0.2712724270277057
-0.2061587807236632
-0.29595112152149045
-0.542885787493037
-0.3832457998677123
0.24030852166947433
0.23883206967711454
-0.4384416540184865
0.21928161417973047
-0.17946207777698647
0.5767271433236464
0.08499296937671558
-0.476550881002558
-0.37376603247067786
-0.33125842664737654
0.023245934404597473
-0.14759724352197065
0.7046282472680527
-0.2596993436942178
0.36436049434908047
0.10950847127669744
0.04447664526229605
0.7141929218964538
-0.6941125842773461
0.24002377899084804
-0.5512202492256045
-0.3085518848721059
-0.6752994321892299
-0.46619205544296377
0.15788569849146217
0.05496217080791228
-1.1100178292724723
0.2712163736106265
-0.16519915996436102
0.30163745099432154
0.4130166267412299
-0.37620679320174677
-0.36281342531469934
-0.023802421957835787
0.0830269461673588
-0.7007834266390478
-0.5392900338258498
0.12145648703553688
0.6873011185593791
0.8910638140075402
0.15935874284718182
0.08864263192075093
-0.17804812396202419
0.3282717585048267
0.3506491401243524
-0.3802902474144739
-0.00575683588526006
-0.19358113376984065
-0.4575991894923671
-0.3999489683362231
0.35277365194908955
-0.4212581976439292
0.4716672688754873
-0.4773830340505436
-0.3704237126982494
0.5537980816385756
-0.008335669596408506
-0.2866521504514152
-0.444977428527384
0.34076955361608674
0.019737172097718737
-0.4469336876960361
-0.5324613261563198
1.3271193007439477
0.2821944676774452
0.656464379159309
-0.20625931981283482
0.33567905099667844
-1.5047015055199824
-0.7582988168323188
-0.22533441143160515
-0.14445010495070543
-0.42020351534970446
0.1319362006289042
-0.16022367587457614
-0.12495317757148995
-0.29489922447899414
-0.4825208834389227
0.6882110075774707
-0.22602101931952773
0.27618632846432156
0.029676269950917676
0.3201407819501957
0.6371783430334726
0.15566921286118898
0.3500454956290474
0.4364084173579518
-0.31746658720212195
-0.34144156641172774
-0.04181035058356813
-0.5547144229495534
0.3165317384648879
-0.5779085084174208
0.6485338833274374
-0.020156803314517052
0.014558857333004691
-0.5421287181133144
0.10957781275201658
0.7344800103721915
-0.6314198949699595
0.6172283827900358
-0.2467850691696195
0.019020939594155344
0.6874640076007248
-0.5825885590623268
0.7144489355287009
-0.8532635828354241
0.41777666198632235
-0.0744719895754197
0.357191607936932
0.6717504049653334
-0.7214550967671371
-0.3789049060141803
0.16124129681926627
0.28102354340776897
1.2348298258335413
0.25019868887458874
-0.8595864486204223
-0.09473816897174453
-0.8093918118131687
-0.7407852863841282
-0.620971633933026
-0.5437434541822151
0.4362686748795443
-0.7441420300620075
0.8678481636151373
-0.15113652192077945
0.3596376441362115
0.7100290930803128
0.578143686179183
0.6094760953028044
0.8375381721461498
0.17238312054266067
0.5552394643870014
1.5445940875136308
0.0617177842410644
-0.07829844891427895
0.7317116502153138
-0.02749976154622466
0.2519793828944159
-0.12651095503257337
1.0899912897201154
0.32251683877151544
1.174470960300274
-0.17543946941473965
-1.4115565333290643
0.47092540694086416
-0.10929836009340717
-0.33255566146464827
0.16033965737450054
0.40943860474209326
-0.1912289314504623
-0.35198469968521423
-0.496667009539518
-0.4061968338066983
0.46355596613905775
0.2717502464270338
0.04822479999817915
-1.2332259921158975
-0.07424085945350391
0.973046203926624
0.46770575719767593
-0.6158793642674941
-0.22041160005198637
-0.019672006207957136
0.4776261847321101
0.2424179393827916
0.05665868103942504
0.26430061154668444
-0.282323305852033
0.08413770539290741
0.10574030677213136
-0.3876726445663035
-0.3721102217912009
0.47811041597816234
-0.10324287324702294
1.1276591918584575
0.13141403580546895
-0.6951899079944257
1.3610177761177056
0.17151184431937314
-0.03956449262036351
0.7690765259510443
0.21964849247492735
-0.03314095822650411
0.02059740328683895
0.4409313548691153
0.24190286146731288
0.5636005545854509
-0.19419016375490628
-0.2948663053071695
-0.1851462828354981
-0.31069362711504667
-0.16675325680059766
-0.06337715861692052
0.14715025287644182
-0.8188463734153156
-0.17804888409462252
1.0879992015088067
-0.07114407107375618
-0.3463465200072278
0.19892717039713945
0.9433400192012023
-0.11040121874119008
0.6285303299622479
1.0450493982137852
0.019545976611793442
-0.4745571217722465
0.4968081409592203
-0.46576671137719355
-0.19316740533973464
0.9983415074355165
-0.020116151959963344
0.2935868760599699
-0.2820679720498066
0.08422966778854761
-0.0811084674578464
0.5545382975802916
-0.08200762910031145
-0.42771045208969316
0.06435452789423889
0.43891704302678747
0.3022962835694776
-0.20790543911715342
0.9895344750251355
0.2544241016048259
0.9055684411956711
-0.1279214837777332
-0.9827698518541893
0.13111824164589314
-0.23439926540769407
-0.10577143900877349
-0.26359399996340477
-0.04747343181460624
0.5831161770221897
-0.34217931750983344
0.4396830744813935
0.6709080918515872
-0.8816235405372763
-0.21747438300488092
-0.0790855500764132
0.29999393150617387
0.1372682414202994
0.06406678392952168
-1.3043273772228245
0.23287147651287216
-0.4728211853890074
0.10543057114243094
1.0328191753723934
-0.0008697328987307064
-0.7003560493417936
0.7781736214962001
0.5707682247712409
-0.56791693441416
0.25545795245365766
0.18926616374041108
-0.5021440902071077
0.15979398815603996
-0.08577329405525644
0.12131588165014537
0.3254662563490439
0.4448639655706528
0.6359217965300005
-0.0055095721706621935
-0.02012273241965878
-0.26690548300666145
0.19344764299049996
0.4091391504702515
-0.923965030146166
1.106833106832855
0.5705423143284122
-0.41333001400948155
0.024944188880929752
-0.05767430282630989
-0.2477821392248309
0.49439292947046326
0.6572126158833818
0.8348474363582119
-0.9350287107096257
0.5545148559364251
-0.12439766020372392
-0.5918821684830519
-0.05017968199903203
0.7327382953810182
-0.5841399634322761
-0.7768582118984351
-0.07288101192672296
0.05980363796561614
-0.1661268189258099
0.173641259372975
-0.45455477343594247
0.734556321415046
-0.4167859997279648
-0.07219587322670763
0.1401826865573917
-0.8502832929377449
-0.02530261254623757
-0.13528311814813787
0.150785334421092
-0.6129517634475671
-0.3020445279281992
0.2999265804358733
-0.31168611689865844
-0.500503726827309
-0.09776119639236464
-0.21443813412272603
-0.30863132249973824
-0.15152967174454132
0.016940765873556064
0.8095039298369815
-0.07034115377229086
0.3952772064722762
0.2948754725123608
0.7056274981194302
0.45241412685723525
-0.000691022041017746
-0.7807295031165369
0.1064618774092981
-0.44538103550723224
-0.09068029606041565
0.8193144037014557
0.22665556246653865
0.44820045535872305
0.5716565401150397
-0.3681199951976547
0.4233054851469226
-0.8468400949569286
0.7770488211037537
-0.030811424689523022
-0.11809772749510716
1.0269263743044412
0.3277667861796439
0.3808017634951847
0.361953899454982
0.6819419534868972
-0.16996283955060867
0.4062359843511111
0.2677108492562188
-1.1257026804859434
0.9475569273795844
-0.4689332405153892
-0.2456425232784956
-0.13502323721411225
-0.2729109102772356
0.020360512876236726
0.1095806500170931
-1.0661637500589765
0.2313975741751179
0.43713378503013994
-1.0037650305855377
0.5180896278536301
0.6687934749503662
0.4470435943205589
1.351368222977164
-0.5894526424953694
-0.4224618934869051
0.8318298878949516
-0.09256519287520959
-0.6884872327870667
-0.1551744943750377
-0.18581868660298115
0.13052630688322409
0.21322215271067382
-0.389893935557304
0.23050261467977318
-1.448938729310684
0.12045557958565052
0.3127797396226976
0.5169863612258927
-0.24471955084378982
-0.03814425326210673
0.46572780436799277
-0.7946754343012017
-0.9100170968620361
0.6282694464006822
0.3396975435024955
-0.6851042678103028
0.12627152072918688
0.09955991721280538
0.5107202581114569
-0.22110220683996146
-0.16458751819854645
0.055520260936182335
-0.033624897598014104
-0.056828086020611554
0.6370144699512659
-0.26307938560961375
0.3009119859681573
0.18424388241537887
-0.06852889570630234
-0.16588647994722816
0.24942704358256867
-0.47486309027346096
0.3128001045353698
-0.5167217913453082
-0.19763129426337775
0.39336914410809065
-0.18805649509481612
0.9914224212141267
0.1302499756626382
0.13502095741305972
0.2902041758795048
-0.39497127267965
-0.2702517229852739
0.45506208509935686
-0.13900457245152592
-0.48847561956641095
0.3973984853322661
0.29596796869740877
0.30566639332623874
0.3123323713259679
0.6476675863596376
0.07370328958182176
-1.1500899117423395
0.11179214156881052
-0.8497484612534624
0.21860626430054472
0.2472635867633892
-0.0307990016726723
0.5495182294039642
0.10738015638484509
0.5845103855506133
-0.8552095543928836
-0.2293305734031825
-0.42575661240597473
-0.5625170918972354
-0.4067490490743395
0.2512817397001944
0.49721386750380436
-0.43498704353098605
0.7664938222343872
-0.2476857963242689
0.4391668015194549
0.2343015665055927
-0.40511391659044627
0.4900629456898238
-1.1613221360869161
0.14383265414918583
0.05092181048506497
-0.06092498647133196
-1.0106871294278814
0.23241913386185395
0.37941125168225315
-0.6670371858054612
0.10991798194613857
0.2951662728917791
-0.6179012248404767
-0.6403107671485815
-0.1792235417079427
-0.8826681668755991
-0.049072545774833956
-0.17493936072111943
0.09998113782047943
0.29389664594665427
-0.02284275742046212
0.3781380469286326
1.4827608721724994
0.12280587027618572
-0.09635675247309101
0.3917587439463021
-0.7635179686955798
-0.5579626118401222
-0.10963686081662204
-0.6123220891011453
0.6766632735439954
-0.6715421973696565
0.2602263985633234
-0.39525858005254016
-0.15992741705073565
-0.030077127842865134
-0.9501053725145215
0.3239188562721538
-0.3599110105936201
-0.06516052274760917
0.12252563652756779
-0.5131882201868334
0.48512438787360296
-0.02169311437949104
-0.007848683270679757
-0.2409607042211627
-0.328711800032583
-1.0380053100373436
-0.16187267765257518
-0.09474735195673689
-0.48257533259979685
-0.14238955835167474
0.24689689525243183
-0.2844596157026184
-0.5652908417906267
-0.006221270890329139
0.22958990718159805
0.3519136272662348
0.10821964187415305
0.8586613074277486
-0.5728055559136565
-0.18267670893575216
-0.8190718398836733
-0.42438394120544676
1.1476285253126535
0.4500982795270191
-0.5078141102379393
-0.03829528583436197
-0.1282623342146074
0.17547628421525746
0.16453372180361633
-0.1812092097239563
0.267296280445864
0.729874211844813
-0.08326327136876882
0.13910092283658543
0.18558378319260638
1.081425402489462
-0.45239791456637507
-0.8540780232343647
0.5330294792705392
-0.04574144426511172
0.15479880931092443
-0.23114752096820743
-0.5544215537252206
-0.18229845687940827
-0.14860910165478966
-0.35788781398600655
-0.4315851187107531
0.255497823996377
-0.845034295427652
-0.08653609827625171
-0.469952237482292
-0.9086631439370144
-0.5586338900999314
0.7278150718114645
-0.10526865583295757
-0.4931686314030255
-0.24759747417897032
-0.27146959367432916
-0.2620120093108816
-0.2639861762470812
0.09327084863730385
-0.489336572060717
-0.5976060857497958
0.7481683884152237
0.07721400263417239
-0.06406346071607615
0.04675338173330134
0.1586920601451906
0.13788079531561617
-0.31927729068481275
0.3803776960005594
-0.20648801718639664
0.7766482260857475
-0.6585669579021954
-0.4635163715970456
-0.37277445001278336
0.54152413665471
1.0185091763728193
0.1775785419663548
0.6019376606433158
0.5894872333253169
0.3619305723783585
-0.13067852570246452
-0.4088600264180837
0.8589704647614275
0.7292355093203017
0.9960285224372896
-0.3608963145592738
-0.46923192058040625
-0.3942289611173155
-0.27191357630168295
-0.3622339425121364
0.47766293041428215
-0.13816331170719504
0.19440768667996378
-0.6930078860442356
-0.48604126200732234
0.027451785071374794
-0.9926105219306509
-0.549232994944862
0.20379848348898805
-1.0931688917841635
-0.2824889979514412
-0.06040086714566212
-0.10157870354802433
-0.692948668646928
0.3226873129352287
-0.02862692921164152
0.3082464193269302
-0.49139934937260543
0.4418480650452635
0.41503196021768457
0.4497332779906662
-0.09744549932152459
0.2354271931417491
0.2605924452501803
-0.46300943576971815
0.5735949961148651
0.3978223495728574
1.0070911590558205
-0.47565114805923286
0.33483746722500574
-0.36522444255201736
0.7277872297095807
0.15940070638917472
-0.09802475055774992
-0.5009465162658411
-0.4513368174903528
-0.19653757454408424
0.39262860280916495
-0.9943390599289904
0.387531199157368
0.5170821634708163
1.2110914575147895
-0.035693018717118594
-0.786404641585629
0.5141871529772974
-0.1710278183876169
0.03944170949724226
-0.6688887548724705
-0.30870803400472085
-0.417004779545779
-0.7410860778165681
-0.18262014293345466
0.1162516488428796
-0.05835585005763119
0.4062652426828309
-0.13004557931793187
0.06615084031151663
-0.02541164168863333
-0.27808740144767485
1.069648347392921
0.11356639120373221
-0.13236256003913116
0.10761535619454683
-1.1599449751258595
0.1129121282852761
0.9638708401608972
0.6517385552873308
0.26636246844045786
-0.09172697573086479
-0.0014497441881765622
1.0334626168665246
-0.26616665941531714
-0.018865469083981266
0.01854124091580689
-0.9142218061485079
0.10775000366518703
0.11887650405555536
0.24658120410678644
-0.1775101729565889
-0.13897426548515415
-0.1040118445471141
-0.807195648946427
0.36571051009173505
1.1244738133920833
-0.5892178241830863
0.35378179284770983
-0.13007437375480452
-0.06759449309461582
0.24148848058794595
-0.03893320671292021
-0.5965089322846442
-0.003667633796905552
0.17094272848954375
-0.5991412456769809
1.1966808723787508
-0.32101939481217323
-0.4334662327667961
-1.5612169384418908
0.606395210318918
0.2554029600170263
1.0499380471669593
-0.004590165219729684
0.023481940882303497
0.36832136946380634
-0.21889817800331265
-0.37529102283913407
0.5432775244163264
0.5944776611761173
-0.5055658135381071
0.4168498763217334
-0.03890878437818829
0.2546881617959085
-0.526362474821622
0.2433109348653825
-0.17508929436025092
0.3141524109527543
0.016481145717530975
-0.45054777921513506
0.2053262556697308
-0.3930623529215726
0.29715150874841145
-0.06933831278039784
0.39322785227507145
-0.3045865841389778
0.0870786972707361
-0.41846604737330295
0.6046140392221689
0.6489204205394354
-0.5669308366330887
0.07554443457352589
0.32172170153460644
-0.5113403896152471
0.02258354762105836
-0.04982555222079672
-0.2014566365948912
0.008364179895835933
0.058049822425972716
-0.3537289302906679
-0.38129541004880657
0.7655794549916023
-1.2088362169288098
-0.4537078007025721
0.03503007192156017
0.25785023632587356
-0.20760457661230092
0.022258376673809945
-0.5146297660581302
0.1190689870700018
-0.18919054352983167
-0.6091988691231944
0.7956337164068522
-0.34663739909661884
-0.1349430645040005
-0.24507123340257653
0.7219920897654111
-0.07185813017764212
-0.3292549664869547
-0.20431973016519636
-0.16423193139239348
-0.703544272284582
0.7284607765013369
0.1538131755933563
-0.5541166954710705
-0.45257345112253566
-0.0017725098286581475
-0.309209573439841
-1.1093676091718048
-0.14896142876488755
-0.28959465883850166
-0.6022503982874423
-0.01750395792202866
-0.5325694143232756
0.8920171560228433
-0.1048341072336646
-0.41052385592541135
0.6110502260968671
-0.7927655565068309
0.013771493620250222
-0.5583693921062602
0.06328279814368037
0.5554253387393306
-0.3008010520252499
0.48524753734571874
-0.1328361408637298
-0.14140376860044784
0.6777468597847518
-0.9622379958472471
-0.46750817620873864
-0.01405203673060975
0.021468650515723532
0.16243314343552476
0.3740143836007662
-0.7767550383383459
-0.6080615096807211
0.4674770289198371
-0.5358619443413287
-0.04801031230964059
-0.42295271145600516
0.1071246625777157
0.4217659455333168
-0.8183144329191375
-0.21535179434778212
0.401713665652583
-0.25534778201862157
0.5867838042359081
0.43564209290724576
0.47573365688639646
0.7938243883887132
-0.1803465205691365
-0.46957342140560693
0.6785786838351705
0.3533246639337567
0.29266643581537044
-0.011881008710811455
-0.23009340329906103
0.010248111512195568
0.9126387540929903
-0.7013460241187519
-0.894412043842777
-0.25886590774918705
0.030453123313552974
0.23845343801279512
0.20421950328626326
-0.5834330476168256
-0.17723761801511728
-0.4312160081191569
0.30278506770374225
0.0665296311443799
0.40619399211196805
-0.3657937911710667
0.6531969008234121
-0.04160592430375134
-0.42330038868274045
-0.060513180242205644
0.2800751020455253
0.4336163875231722
-0.16709221104069763
-0.13411042527362232
0.02587960183262305
0.384203898844111
0.009955900150843515
-0.044392379025619294
0.05935576776244085
0.5468620077315638
0.7567991341892568
0.09111840120316608
0.23836487104529003
0.32102950003959835
-0.5151382472576904
0.7874676556866734
-0.6240162912486975
0.4087257187291218
0.18984590784828406
-0.796988795009082
0.21433560137131924
-0.30861276462380943
0.3016872984451011
0.2901015621948225
-0.4267331394718857
-0.18248799002488414
0.21449705219217113
0.954191778909773
0.41876069801707433
-0.8686053074884335
0.011113271367170665
-0.9922537750482172
0.3420822765331658
0.104164641701596
0.32350220396848206
-0.756014524023054
0.24894574310319978
0.5865902513973676
0.15893874765002847
-0.26191928050817
0.768341176297145
-0.35882584248956717
-0.27972571253451606
-0.4542293802032458
0.2398503628509935
-0.881635199663155
-0.03669506929687706
0.3334277904323687
-0.32953475020722617
-0.010732614858065726
0.497064680628219
0.1280224823118015
0.4583014544770781
-0.11506213601862891
-0.5719342731252597
0.085032696692925
0.33661738887406334
-0.627710511543847
0.24515236991319705
-0.9679513538980145
-0.5767172350554061
-0.2679994853070945
-0.0947017127318837
0.7866651061178775
-0.006441574177038227
-0.2959398680431965
0.4298067089470474
-0.113494571032212
0.9122254372367026
0.06937419913629768
-0.507160337187006
-0.3726086325145699
-0.38296000330003727
0.3176061650720191
-0.3332016070910204
-0.38604004779464124
-0.16496352755817237
-0.45251006852779574
-0.2891004554680305
0.5803252807757017
-0.3821436132835342
0.610319383182077
-0.7991042489613405
0.44120304502830315
0.29849322895941716
-0.2520759961294662
0.31303021290911476
-0.008428591406998313
-1.0404393853086173
-0.34132965721312625
0.19049904407042423
-0.22570704990687157
-0.001246966512964509
-0.6762983928187705
0.05642621360865814
-0.5010173056626108
-0.4368600077370201
-0.5494376524626289
-0.37819413945302016
0.07341822416538543
0.5541109421580547
0.3338953860974656
0.8776349691303441
-0.23386817264300624
0.22154263442890312
0.41097517177066845
0.17531094609161466
-0.8218695522158284
0.5103543009053453
0.5083787093992074
0.3930750545517007
0.17877330277949835
-0.2291394446675756
0.17183458020882011
0.8946084971341492
0.7518945882454164
-0.6207288100816156
0.12743759254867876
0.2667063545408964
0.1694481960715573
-0.47330214759478384
0.21982379726304604
0.6138290043859962
-0.7404305393316616
0.17644371426495786
-0.3160685020977845
-0.7981725131088233
0.20554131482479202
0.17474107047565532
-0.04480684304599588
0.47966569289202265
-0.08815655649095985
-0.7195124533805521
0.20743895005971302
0.13612864150071416
0.8652893009627668
-0.37078737154963
0.053691673407681884
0.36683968875577844
-0.42963095897149484
-0.6264093679030363
-0.5521785380950572
-0.06367341914197516
-0.6958192347870028
-0.8484876207098481
0.12370034584501804
0.39370289213725324
0.17097866912719525
0.2944277602067234
0.023729377362276788
0.543452124821985
-0.044726576232621135
0.2250688011865199
-0.03998009996001985
-0.3335279131407724
0.764274259578735
-0.1847100571686502
0.6507104271884107
-0.8294262026308823
-0.22062009750865358
-1.1349095091105512
-0.1622362071304134
0.5348261278444263
0.4768204511158926
-0.5866134213889967
0.19093194762459972
-1.1803860903659174
0.027578600264520536
0.1316973707413907
0.04416651689198328
0.04346888579463744
0.29481636253916305
-0.6279688185079368
-0.07902018555652747
0.8699211353962906
0.45270004334484715
0.03501322277712485
0.9910723847345979
0.6876142274619571
-0.1916172494939944
-0.3790871283475511
0.5933980772888703
0.3384642673857845
0.22911623053597407
-0.20619072434584101
0.4336048233865635
0.15176318793140336
0.573389777453361
-0.2882364921387068
0.2365010278606422
0.5132908693130007
0.8635988167774592
-0.2897215905410158
0.13045508551286883
-0.5049658190711704
0.24347934250121797
0.3109689930821562
0.058066210447367414
-0.22017937927792902
-0.21478901832820646
-0.13345503584391813
0.08943907459799477
0.96599663553131
-0.08076178136266085
-0.6931183939501155
0.23519473491488
0.35150329934633606
0.0015411717295676132
0.031735410605234965
-0.34661697020320104
0.06661917140723171
0.5250041391496594
0.21082639783323048
0.30084081343676145
0.8545776795635356
-0.5930813402536825
0.09683647370853825
-0.05587188792309291
-0.03030904840586556
0.09036144722849783
0.47059385969469886
0.19883709804622768
0.5503224347815238
0.19399102801035045
-0.4161391528634206
0.4446894744367569
-0.4170775957511731
0.1679994160124016
0.017587341651997462
-0.5832699931230094
-0.8553211045889882
0.7252658934052859
-0.5901483751523172
0.042650998904727594
0.6963317507214583
-0.10158610168461728
0.07659275038373066
-0.11862735408727985
-0.44619212674728126
0.35993732637094134
0.042532815339484595
0.15568682524302088
-0.3862023599142445
0.9756010872752892
-0.29299875499966044
-0.39200274685940356
-0.6371729179300467
0.027201291627107264
-0.5413633439804485
-0.07692970698301708
0.2257724431851027
-0.10642687961813432
0.29947892058788794
-0.9182101706217904
-0.4622395094260845
-0.3624626605335824
0.33763083986733217
-0.03771740519857476
0.5224486787965491
-0.09719910371693519
0.022910259171003054
-0.20029496012495238
0.12507418748576887
-0.5495204560621171
0.3555750178051601
0.24865752333517946
-0.39070622021712076
1.042295515565054
0.07798929542342425
-0.24540145791577497
0.36747837852948234
-0.027425564185546758
-0.0828644607953779
0.18260806176932806
0.46603076518058284
-0.4158177641218705
-0.42327284714133634
-0.21337956776830572
-0.1486145237720982
-0.03906980873415739
-0.9544772418044484
0.1892011004438607
0.9699859041407142
-1.1999041555073313
-0.40640163046133215
0.8072397835017939
-0.6424931954267264
-0.557912960373281
0.2661873466154423
-0.0406016089249023
0.392778713521788
-0.20292244104809612
0.026071866650660677
0.8444977182235075
-0.20542163869208618
-0.4606542189170614
-0.3295592390257891
-0.08603583961854361
0.1824576906970114
0.11450311589248069
-0.402798156705593
-0.8252631419016928
0.6847143462576512
0.4417196737995773
-0.0953598839289489
0.11636171690548644
1.0116040408212874
-0.6770380151044645
0.0371589228701419
-0.9376900469484434
-0.17571113269166336
0.3256027790101311
-0.19087183205767505
-0.5564970811665803
-0.16637818571793836
0.3952920109880229
0.11007221953832245
0.8782310903627176
0.0799083069861128
-0.05078110625696654
-0.3255027175215652
-0.4152433072124408
0.012161376756180604
-0.04485775972778135
-0.31125938647402596
-0.025238771195863312
0.1173165379354644
0.13154596804652208
0.2768138988437459
-0.5295693429426009
-0.7491772227734139
0.5370881429647485
0.0895426428179944
0.9040915926043703
-0.6623195903043616
0.08121004394132329
1.2897196851721189
0.3931485923110997
-0.10897107824719147
0.5483832850307983
0.25545152614936734
0.3795049923250772
0.9564785158132003
0.02547072870307449
0.16526506876994243
-0.45191638065572487
0.05815704269688003
0.0517231628351385
-0.3235782984387814
0.056291280131072596
-0.20673354156093096
-0.674882786524991
0.2048629405129069
0.416214312095904
0.8618997499634115
-0.004980391238852649
-0.6323534391233396
0.2958749103219001
-1.2049002307656937
-0.37382369532906284
0.23583557378149117
0.6010554217058109
-0.49180527550168424
0.0691501180290046
0.08779963368024755
-0.6838321134179466
-0.24800532737257386
0.8919377447319119
-0.3527106251669671
-0.06438242791022283
-0.5545867244243613
0.8746583281811406
0.7567829512284161
-0.4081165406479131
1.4155300957128083
-0.3658161971745306
0.47014552300855184
-0.1262671070990152
0.5906535490586169
0.8819826295991141
-0.0502670168365863
-0.14711125420817953
0.4816752367105712
0.36858746297252315
0.44573370221896375
0.27173534517171877
-0.5903834120665954
-0.5164590696347703
-0.2756206123761232
-0.0521161620857031
-0.3337583924323143
-0.11418214093682968
0.11731243521196874
-0.04056215124999541
0.880063927421075
-0.0163256416423556
0.36487895300893913
0.07094197920866761
-0.11024264830679073
-0.017234808917828665
-0.022504902971922484
0.32292635834862765
0.48238864741409665
0.04213473456230414
-0.8032194264096844
-0.033245334050289496
-0.28086874002122353
-0.037014555297154285
-0.11646393517342374
0.45215719872833016
0.429647398300935
0.9311695592060715
-0.2925495425717741
0.3222460697752915
-0.04626287224654871
-0.7092415186181863
-0.6543914851029743
-0.11797634499286293
0.4617290111712121
0.48938954977977084
0.35062474560901724
-0.4447595561287575
-0.18982002830266112
0.6478519216943259
-0.2441269893865912
-0.22938328448682757
-0.40794767184774217
0.007683420028191887
-0.0015848985438763237
0.6685904298589188
0.3760788362617153
-0.401341606216044
0.7980510230395621
-0.46041819830067593
0.43119040942869613
-0.07184355591013158
0.38119697965073585
-0.3775310439995914
-0.35018505182980253
0.011833139020156742
0.5154735838614883
-0.3954479119799378
0.4752631695018468
0.7173846987304239
0.10137339569513781
0.4854161480966682
0.5864317025185295
0.015728472065909254
0.9907167223138975
-0.10468853222947966
0.3242911166069831
-0.08007824422665269
-0.13342465072786078
-0.4471961083674735
-0.42489391678148813
0.4658856112524963
-0.5028376811292753
0.2561420376701329
0.7809287050309323
-0.2370969519537969
0.4850457110855127
-0.24809999442921055
0.29374031931476674
0.1793533798001422
0.2921608690350706
0.18294286340713176
-0.519889239933674
-0.499797439095283
-0.41832822843014483
-0.9744522112438886
-0.07023681649874775
0.29126595281335876
-1.121163324187664
0.021187357244713913
0.7280712989970461
-0.2754414201536492
0.4740654287437241
0.706169550424924
-0.07461491819562974
1.1406414475040636
-0.8355034597759479
0.12807849172194918
-0.140978263633601
0.5435377965999271
-0.4385503975960367
0.2513602119825565
0.23251526962611507
-0.6112520422505304
0.7082717240487385
-1.057689319948266
0.05636957561183592
0.6403198516682255
0.021262627623904337
0.850792527799522
-0.6419735792372377
-0.7261115617226139
0.46037728743833345
-0.30168839714738416
-0.3576451642153568
-0.008040299402605188
0.2902228615329965
0.7839347790256596
-0.35291228619286136
-0.6651878593077404
0.7123610688455814
-0.2079736633696316
-0.43961523735439073
-0.7505176053836093
0.13232166046324464
-0.22127342406980502
0.2831381763266801
-1.0592988874788822
-0.39200579382295025
-0.02001464177958633
0.26341940026119404
-0.8468088505441201
-0.823554293813942
-0.5226248653384262
-0.20716798550069782
-0.5072665143000373
-0.2909874678468509
0.10223417973017362
0.3282855398282754
0.5812133634913641
-0.25074551243594156
-0.2658423973731843
0.24948157345420605
0.3933144093552822
-0.17696402420439272
1.2772550224983483
-0.45222734360720357
0.3937682088673198
0.3760644101118613
-0.07761298717525084
-0.5472735787937862
-0.25749294318718213
0.24543081495073596
0.14705899479566478
0.9015110268190388
-0.1452619117417568
-1.1721807552665113
0.10350251316339924
0.9306869239834802
1.0716696060289619
0.3905602255259496
-0.16520642723254023
-0.20595227621242643
0.3420059291125913
0.407506686797136
-0.39054152529840047
0.5911640384721191
-0.31483522222811033
-0.11318145678080076
-0.02049546064372553
0.12014674714488019
-1.0840992870489745
0.6440553523825834
0.026171692043676226
-0.19803770883345556
0.03412600616682632
-0.2674083680074978
-0.266736820336267
0.40401342672422036
0.3342495022708309
0.14576747366701753
-0.029904444618349398
0.9776121104412034
-0.7131520728383649
-0.04965512229649802
0.689903870931755
-0.43268660631591277
-0.6828256390038622
0.10643383476001386
-0.10088293962934491
-0.5168041244432416
-0.5280992602833228
-0.40188214829298885
0.03131080389422067
-0.29873424574080504
-0.10803795906941578
0.3181887285604205
-0.4623286595016432
9.048487573755804e-05
-0.04095523917274606
0.4478197918023757
-0.21586948681648252
0.24171555396973515
-0.4438715687983572
0.49975821749171834
0.03716649417637722
-0.10718152284417558
0.18383141104905482
0.28083548995619995
-0.8692421856355205
0.051335585211287935
0.598282333595399
0.0897051550405881
0.8725091131354137
0.524291254074297
-0.6577973709424335
-0.5385548961373805
1.1750722730656062
-0.1543624385984077
-0.09939875176444991
-0.4269697871942328
-0.4405417076441399
-0.6906723954585846
0.2665347489662702
0.12348258901894887
-0.06638359902544873
-0.0484460122569839
0.7653785620086307
0.33151468095135744
-0.028259588534445983
1.0143563826878645
-0.1504447218363074
0.4716297257267651
0.903195159595212
0.04314578672682991
-0.5865392392621875
0.1291343690122722
-0.6910907696642845
-0.28243173686768785
-0.0675392521395627
-0.5413053889324922
0.3412062422558708
0.7045524120308615
-0.15196432608988847
0.16751601786245005
0.08917091874965764
0.9143390229987055
-0.06468974811506324
-0.14031672052393637
-0.27919154589526374
0.010149015004005953
0.03554735734672238
0.7776952024343433
0.2501283632082012
0.26199880981769574
0.25950947369705013
0.19116299132868436
-0.7465904119872808
-0.24693812455454084
-0.358448530405657
1.241509404463429
0.14465127474635275
-0.2576833939688974
-0.18393843102885885
-0.1294543291182069
-0.07413784894235108
0.2870656950609455
0.32762791960519744
-0.6116128201367791
-0.14932217040585805
-0.49544935975150406
0.16510303875693338
-0.3145955654991589
-0.19849049140749664
0.0031361353060219317
0.46298567070642027
0.19210828190334436
-0.5629550938032811
0.22579832737029631
-0.47958301585781843
-0.25681595003676566
0.685096953994269
0.06667806395917812
-0.3018675670133116
-0.29906838672632424
-0.3169106350925949
-0.5557944641017815
0.7915169672361223
-0.14243181527751053
-0.14623140532582996
0.22645188146109377
-0.6870440574430979
1.2777252842264775
-0.16977002563120783
-0.1945338659078342
0.23388324326127352
0.40003414424421807
0.16044933017183596
-0.601870224979699
-0.05003262215029626
-0.6313441227037638
0.33333843118693546
0.4226050441261421
-0.21336834845223296
-0.12631275662546956
-0.010336802107150895
-0.21355157782671974
-0.24343312589555566
0.8644770653183245
0.7108823570257062
-0.29001386210025953
0.7392508229055088
-0.2730800434481207
0.5572124384492168
-0.5896553785877138
-0.17770952399495957
0.11924326156899238
0.9737982244304365
-0.5292923312695477
-0.5545493395006297
-0.12649188879407935
-0.04762616225105626
-0.06571158244819678
-0.5470128368189996
-0.6963525414664253
0.39625893993564293
-0.7024018547559486
0.279302879966259
-0.08364223147878762
-0.896355640395658
-0.1134889738481893
-0.0015237965129042113
0.6595838468389372
0.0795465810746668
0.27234998416397355
0.014788701866767418
0.6450913675732542
-0.6092809439964363
0.8460927533118114
-0.10305276402864082
0.13932892991883367
0.1507328124299935
0.1971649188139457
-0.05187577568036748
0.5616431881908016
0.3175085450968872
-0.9135951272558516
-0.3505758151279856
-0.18597243056050702
0.23482791937390787
0.7216538764573847
0.15121936220009216
0.7953583054539195
0.8040838644483218
0.8815139281660598
-0.19812675969742513
-0.21135076907183667
0.2911676310404941
-0.601579009895865
0.06396069331171236
0.878756046270776
-0.04693387394855353
-0.43010971465157505
-0.510929237251142
0.48823655215817063
-0.34017269689112617
0.1509444244556635
-0.572863623375394
0.4171191899753611
0.24335285404436155
-0.8066890797555568
0.6805734035390087
0.4113416371055638
-0.14104128550948558
0.38290696019762116
-0.18104383639849048
0.30725846495083387
0.6899425997606478
0.0700638360302986
-0.8179559306951109
0.16984749797252185
0.8672182698732376
-0.1408498232385192
0.5801710323530159
0.03929359306377788
-0.3099228932801324
0.251268216345907
0.1754348046826642
-0.44088814342089816
-0.21303000297861463
0.7157939238505369
0.3237505385024564
0.6237828156084294
-0.06484495965219994
0.39072178243449457
0.04261108995753383
0.09997789711971439
0.6043037112899399
-0.16388973231496964
0.4454168581450164
-0.5988692052902004
0.5862459448279982
-0.32693547741304396
-0.009166431789724082
0.37046513960273614
-0.2552563788882774
0.18243278641231578
-0.02634074522709772
-0.47852944351042975
0.6855107469744876
-0.7486437217486532
-0.07020840051721983
-0.21762260433700345
0.1532609199441386
0.1945950310159384
0.07348180866209643
0.31444816874027953
-0.19533126680716545
0.24280730016262494
0.48752350389394156
-0.1546055737466412
0.2689261894107875
-0.637823834161123
0.5935237844776938
-0.07848915735823912
-0.5591738532456875
-0.21463717153634584
0.2662400321101713
-0.018976139514179455
-0.19920946744874657
-0.5095611789505179
0.008903637676023693
0.1549253664906313
0.35883761244580353
0.443064481149982
-0.24731539130130833
-0.03815432105955127
0.24679712610881183
-0.003044176555050666
0.19359364947609678
-0.43842571489368093
-0.24875550773585134
-0.2247368865187535
-0.15235357821379006
0.8605103514975723
0.21946154157627634
0.5639366312395316
-0.36915065870560115
0.18020790246754725
-0.09063327552238293
0.02810622281172612
0.11495414573645225
-0.450869275877638
-1.3526311219073017
0.4634984327215551
-0.3363935248320067
-0.07985743660896598
-0.7786724758794695
-0.03481175893031435
0.3613528988279601
-0.2087303231703521
0.13906085941958551
-0.14976673527409953
-0.2030450078027957
0.15712407282541327
0.6842349164663765
0.8405192073829718
-0.21268272454089818
-0.16426724054773434
0.17826282499309704
0.5022751049411371
0.29230108834246055
-0.05928991747998649
0.019646459733519722
0.13373160269672787
-0.016156145180873382
-0.35218806276688813
-0.013427158768801503
-0.2206304855287166
-0.2191331642010526
0.18961122648872225
-0.8315568205383663
-0.34221587483884564
0.33105031837863624
0.12280645089596287
0.45900355250841046
-0.09983625214747316
0.5342618132865997
-0.24089217809768262
-0.10916531352282709
0.5913280965556281
-0.7764713879863553
-0.00692518510156686
0.014246990617295969
-0.17249936378302388
0.1919645825087466
-0.09083362692733692
-0.407615538845507
-0.10269110050703717
-0.4821942021342321
0.003078852060290441
-0.6577660579409822
0.4334394366348897
1.422816953564737
0.0839786800444695
0.29224635755809153
-0.05469434802652888
-0.45135666867015817
-0.8029715851740789
0.11437916611800107
0.2084454298507867
-0.6305484154346018
0.04483803493789473
0.04123920008240299
0.48419770885349434
0.37353257223244224
1.0277989105611114
-0.09774847504702454
-0.7741722461940791
0.4023178329101389
0.33170483761402353
0.1540932859417214
-0.05201162955731399
-0.252555590439976
0.006053521025141946
0.44905051396212364
-0.920583782510175
0.3117707109014243
0.18429857203334912
0.10119620713982734
0.28353581621073104
0.4477554639483682
-0.1742448916933362
0.1193464344659783
-0.47374227102769806
-0.2818502611814486
0.2569856122640647
0.1581799614320984
0.24740995210604633
0.4647214488183739
0.2751229210246212
1.07215990107218
-0.4470542144671048
0.3471461965940849
0.7049522510364904
1.0277181270167828
-0.06043798092635001
1.0845667922644893
0.4693356555331648
0.16331119724001353
0.7976357501299103
0.27592632419266
-0.410285618788623
0.4067232975745799
-0.6987245019044575
0.33788944308431396
-0.022526796990017063
-0.9159761386260217
0.7418089320542598
-0.46273866826093746
-0.16660916905454812
-0.7847314817937188
0.059992442583650364
0.9700187821254149
-0.53209019543461
1.0734284111318642
0.1850548802423922
-0.055884710854688394
1.0103647050563997
1.0056467203576736
0.21108841139666823
0.3565176632351934
0.16277779812396526
0.32635382954883513
-0.9434628374148102
0.3759149090509006
0.11430071809522842
0.4399185916576547
0.17705998815008234
-0.015171460811321761
-0.3172248315452671
-1.0656896336718722
0.3561295157755566
-0.8981980796963769
-0.41683266196142504
0.10717364544923036
-0.2643101342674767
0.4273827706745826
0.2937405497942342
-0.19665594407357148
0.8780818371114656
0.7590665470522958
0.145308111825576
0.6209270043883223
0.1409733856966731
-0.0839324644162184
0.7016688086850891
0.37270340293831294
-0.4390238301663548
-0.6205571258718794
0.04324132731908201
0.787696928857693
-0.15961037173271952
0.7117531773291879
-1.278510816665397
-0.1837452851048495
0.21869302142569813
-0.2118765133927622
-0.5112642103632336
-0.15418553241237512
0.08320235437585533
-0.22707444405260171
-0.4772564487918051
-0.08139305963824217
0.6933781912469003
-0.2074376913066065
0.24451186278731754
-0.10832455568263603
0.24217912420524687
-0.7765747512571601
-0.324013735818022
-0.09122842115060184
-0.6739866885233617
-0.423313264169798
-0.015385269217360931
-0.10370538221682898
0.4506044138159707
-0.11400742845074703
-0.15691209876121034
0.6843285308958905
0.024690988385178782
0.2649569612793311
-0.3514335490557726
0.043219831827150855
0.4992114663975704
-0.17165555723363804
0.06304857759551602
0.4772213840458887
-1.4099504459563272
-0.4453913061051664
-0.14633827569290372
-0.7759826168067707
0.48682532523109234
-0.3736154557134235
-0.2677084695309686
-0.41188132163299607
-0.12207242733703245
-0.13886342459060888
-0.46628926217626226
-0.6039525318174335
0.005050696642549559
-0.4999915832128944
0.5335365897972254
-0.13774579718756375
-0.10136817645666671
0.27806818453441196
0.230972918708522
1.1603694221254202
-0.2673935870910054
0.6190114042740893
-0.10275290883782143
0.5816678475905932
0.27313867269042974
-0.5664950027110137
-0.011005144448183861
-0.9870936616920531
1.166287949939735
-0.556786313122157
-0.452800093910518
-1.1226801246280196
-0.17538962527938576
0.0992275199188237
-0.14677459933266382
0.3720725468729706
-0.5443316281542893
-0.7888626369368613
0.14893773899341406
-0.523877757588874
0.18298803395798482
-0.5360878530769563
-0.08315478902383655
0.2261573277751864
-0.9003815529319751
0.3119317996293341
0.5183316141636594
0.18212003850171735
-0.3795913886617693
0.02666631507630291
-0.021856783176337904
-0.5452873275297838
0.39964300571476064
0.4718044588492249
0.31220015197591733
-0.058265187194524184
-0.020095537360042683
-0.7327085623063126
-0.2523074596816573
0.12727326572623715
-0.10907601090995445
-0.3148490465766002
-0.3559651585243623
0.48555350190231455
0.5743046336073828
-0.44148342164487164
0.31723251979440065
-0.38806699391404886
0.22625570401870523
-0.4206715445986135
-0.1017691951115185
0.20398140647535473
0.5541156556848904
-0.2872548129188466
0.4249831583002045
-0.18151782642433498
0.14255450134421022
-0.15954166692724642
-0.1962753820830305
0.01673774649917962
-0.26424669101128173
-0.19553776057329364
0.21276150160661134
0.8253084668920757
0.13289949481031144
0.8849793667381933
-0.09086776715366032
-0.6283399334532701
-1.1156991089070576
0.4606505742242799
0.2404534630832839
0.2191696147496483
0.36096581225157415
0.126910928807177
0.18338374845445468
0.5894473060041486
-0.46932152213985223
-0.14319275240180163
-0.22386474389821973
0.25128996601809933
-0.3447224842812511
0.5286724231850466
-0.49216181376189494
0.48799145307471964
0.39671518695101804
-0.41399143555903023
-0.9387784407415658
0.7459978437824016
-0.687543703182204
-0.004495029471587015
-0.2980070895219871
0.7563380091738423
0.36473517386304266
0.1423070250562973
-0.2620239934765298
0.04232018729644289
0.35479836203987836
0.8903761665103684
-0.04231011279639822
-0.2822956504871355
0.373301068245497
0.13585177793651393
0.009391454618094132
-0.6916331258623233
0.7073126470512222
0.3152272996335319
0.3808497224475855
-1.065838715099318
0.28579785129825314
-0.5012217237654572
-0.2048881770124133
0.13865436107203005
-0.054506301637874635
-0.16432475756127932
-0.03374764151282586
0.23702895668388635
0.024050823087844217
-0.44544349497374347
-0.06805476795450754
0.4957891496182406
-0.12711098387992747
-0.8458520227647081
0.14336025678710276
-0.03189853441873278
0.39919229421438907
0.23895290271055147
0.8925696540555191
0.3985908958659174
0.13157637388154386
0.5702851268096276
-0.43963617500564944
-0.5501601129700476
-0.23831752258195446
0.4676807869044671
-0.2792191574865348
-0.5857397296733039
-0.26258671777456105
0.2639646417033643
0.37431206903258535
-0.26316835244571946
-0.1782957410005443
0.10083000506910238
-0.6782639168570483
1.3517895941200264
0.05059717863932674
0.6629947679895317
0.29343465792675666
0.02645936327747101
-0.16669992239063072
-0.4366354267771791
-0.7080985651132679
-0.583035717776953
0.880058334872087
0.6759979145276596
0.2404924962335987
0.6368485629181299
-0.761349553699698
0.20907590360413675
0.062200663719697374
-0.3539076517912645
-0.4610076349412073
1.0088060326271686
-0.6095797202239674
-0.104173194417269
-0.13337951529583467
0.05919491254766106
-0.07196232261995021
-0.056844643095487826
0.9125778528621298
1.0200762891037911
-0.5425189141531604
-0.8906730022897766
0.5415421071361604
0.27067541522992844
0.3521561530296906
0.311813299079352
-0.2227411307925869
0.48174034706442054
0.07401258633597489
0.6007283300789024
-1.4378187150880473
0.5159969052293308
-1.0015491874285867
0.18376902755246313
-0.12654851652018578
-0.1384279806561458
0.11183873166124622
-0.06365443828690771
0.2194765343292832
0.41107487168239154
0.5160949994717807
-0.0005708356018732826
-0.2669074579510643
0.30345501256199675
-0.45799375517990193
0.09168241573767716
-0.3599733140093112
-0.34799291230520946
0.6311675107937231
0.3659825797738155
0.550561884194068
-0.0784363555237238
0.6461664812875698
-0.7447813842260337
0.5351484593036556
0.023715623082862406
0.432623449115218
-0.42325388308447626
-0.7118693954525752
-0.64269266600109
-0.38590435596890227
0.16880411293471273
0.6290329760606115
-0.05265410787693691
-0.2676916980091102
0.34021954010762867
-0.9761021749496486
0.15787301261592998
-0.05367693533333787
-0.10790200146703405
-1.1025449940544743
0.799885451696169
-0.2572059315274172
0.046261883288623566
-0.5095914331815906
-0.14304257908579265
0.16943321605308578
-1.1762309158276063
0.4594012229515468
1.3039223760203786
-0.07583941715779484
-0.8635279578161614
-0.1904493305956175
-0.4860366850309412
-0.8075756422257568
-0.1461807468390956
0.23237025368413913
0.29868466451325093
0.049018810945100286
0.7396856552676419
0.20724727363408013
-0.14504686046556498
0.5516377790065173
-0.06450131254397723
-0.10613220125404205
-0.004467298087389201
-0.2544700569599667
0.7401145014218724
0.4297875551672762
0.38055864197377376
-0.2419186680764527
-0.23557013419932352
-0.13210059337981314
0.12830024928161235
0.467068468773233
-0.3348861901391821
-0.07553211660029989
-0.3571388479611939
0.034139150287602844
-0.9093324569818455
-0.6860667480127606
0.39753366189667766
-0.5554534771243774
-0.3270652328205153
-0.0914754769816427
-0.2510975726894757
0.26132656769149004
0.4511379784636687
-0.6162842736701962
-0.3777413142465958
1.005490851006297
-0.6504695901762839
-0.038045764515013604
1.1610010221463167
-0.43424083556728776
0.5035528340705895
0.05876594703482549
-0.2564442658045729
-0.051215595835251426
1.4014063335825069
0.825605574471915
0.07856450340038307
-0.07394011689792136
-0.878558923402526
-0.6221043130541449
0.011372988166500324
0.23586870338314364
0.4650314553836102
1.1367332234272056
0.8048120144995907
0.1897975508844168
1.1155299270322885
0.7321033817753075
0.1343141661105245
-0.07652631209940991
0.5758600965803714
-0.43325450834567536
-0.765004634161862
-0.15729436900045474
0.7918361724656913
-0.24441016768701657
-0.6416636507390605
-0.8750362033556971
0.3960209565511431
0.08037805708153635
0.27630688272673887
-0.0355159266807747
0.2928257642442476
0.042396626950321176
-0.14217548105555056
-0.4269224417028231
0.5802241973086109
0.5809365585722572
-0.1452109998463579
0.501428978344971
0.6949491652111284
0.48876708048105283
-0.623323491421295
0.4595336167879369
0.0420904814595681
-0.05016970907376357
0.8284487440042189
0.5421248840503085
0.11340967540897584
-0.7339334068065351
-0.2705081026262394
-0.9839400674298456
0.12892380335128828
-0.712590093828431
-0.6573516496071194
0.4437043505936085
-0.8717405568078834
-0.33051329810643476
0.26157065243193667
-0.09417902702822323
-0.031409793571888237
-0.05811814814928821
0.14796951058121763
-0.16418898958388833
0.09585515551079503
0.34259489309674335
0.20842655300379784
-0.45859372780543417
0.9561422496312865
-0.040150636318748434
-0.9514042116624339
-0.417340344609367
-0.0010149173464835178
0.11720880130209939
-0.10925615894118007
0.31664577963237134
0.46035331067232277
-0.2726302699643769
0.5760770089155725
0.3860282523656902
-0.5801279723112479
0.2948739457368926
0.21234438858750487
-0.3635738976175623
0.08301232489140228
-0.006425059319163949
-0.0011422783733809373
0.19735040779422885
-0.28135633770066415
0.004878401567511761
-0.6115454751392823
0.44570069410299584
0.13652164156537633
-0.46831347602132817
-0.5665834753394244
0.4283360663919719
1.1807982135612847
0.3879222610812523
0.003812173229298648
0.7851165318406901
-0.10767513044391358
0.0013798640135049443
-0.9263051431023201
0.27357916243691255
0.5199579303117817
-0.44662463889055537
-0.573491324652541
-0.32933918608042884
0.1905579472807904
0.1837759828582921
-0.30561285519624065
0.4478532873718966
-0.3842527894208871
0.19580340843196525
-0.39887950323579424
0.9586112390952466
-0.14138100894975947
1.292080497181722
0.26525775523894923
0.30684596603325665
0.7951816041165047
0.5914559928198531
0.5352166552743657
0.3784088377422535
0.0031419879435889437
1.2657197518260899
0.5334636778938681
0.5146429530790945
0.20009261942955422
-0.5117761597529419
-0.11580252174830558
-0.07072073908322973
-0.7972772545917434
-0.6578565591127397
-0.2004331200976656
0.266494897917233
-0.17439461829303615
-0.31252134456950253
-0.2823249834478109
0.09003124613455259
1.4376020440902837
-0.6442676567343464
0.17263892841507858
0.1562428538674565
0.23717687935189027
0.3400194027326984
0.5119031865648054
-0.3238473397995686
0.7954494603577422
-0.22167288333592014
0.08224137785788063
0.07267199749212058
-0.7329105692775372
-0.7164560500542099
-0.966807396208521
0.44621863362647357
0.22111465880130196
-0.30968979832992405
0.8041970981074785
-0.22840573068833114
-0.7131507467808167
0.13959976022150108
0.017112558721833235
0.5707014025054711
-0.08664302238788914
0.3742073139040936
-0.41972764576751154
-0.3901788118783894
-0.7145399596921803
0.0690607897459902
-0.12077646851485328
0.22232769311539716
-0.1743113376026086
-0.4493161572536252
0.7527803377537334
-0.517649712444135
0.025130134557746497
-0.24349011628834047
0.21448583406142255
0.09417278668537837
0.7422025929314444
-0.1348926730194395
-0.46105218108795915
-0.11575204593813591
-0.5255946887871166
-0.7550971067137722
0.30415085569524725
-0.4281878548004806
0.4215778658274713
0.8533087912526343
-0.3479230262778691
-0.3437003301676932
-0.19810742920816257
-0.22182246793847676
-0.2669504590673197
-0.16203953074977553
-0.2986992551771142
-0.8663522366977705
0.6361329050720265
-0.17729703841515368
0.2941726933444779
0.03556844942200588
-0.2782697733567438
0.0002587887252876184
0.0016158606580803803
-0.2372508859213487
-0.14791744784522085
-0.0686313356852244
-0.4947895771901481
0.588354357523679
0.7601067119041829
-0.29421333264389893
-0.007586336700104448
-0.490009573984925
0.04790830518108227
-0.3939790432922429
0.10872928155747995
-0.13302239464424148
-0.6929247520088854
0.2258502881106403
-0.21656578496098391
0.15113391916641486
-0.14527550389897567
-0.4816701028793773
0.23218482985140187
-0.7019710629164037
-0.143885306121969
1.1781556033562435
0.7066345334490005
-0.2651551305878868
-0.6428585874429684
1.03034189909928
0.2859234867939483
0.6842457144717338
-0.11262612558055943
0.3611813598277552
0.9492663341258922
-0.12073435910078287
-0.4545360390959243
0.9927002101136051
0.8937070658356497
0.9938057227012953
-0.5151093332908945
0.022939399875277468
0.8848033876197245
0.6199671355675765
-0.06965394353866255
0.17862513709390473
0.17816078461170248
0.7091366690541039
0.28645704622677204
-0.2352363904602687
-0.5977100714997633
-0.06900864577345633
-0.5172828746748733
0.6947080057554189
-0.043068538241153684
0.07703352256310357
0.4281210347121566
-0.14686046651134155
-0.10988249815787561
0.8717635767908304
-0.6770541507703305
0.18419497612943436
-0.748462376628212
0.47758284071243484
-0.4801831054468522
-0.2924130109663228
-0.10951157010451877
-0.19656482958201685
0.4731396322641007
0.07491901950786302
-0.18510184214981795
-0.16371245367485057
0.8993533442919283
-0.5328099690393798
-0.6042107174986184
-0.2390116618278548
-0.034846650005079284
0.40263199588146925
-0.8088758209198247
0.09120854754983343
-0.21581551502179397
-0.18988051161068265
0.15801916222112994
0.6201365047125049
-1.1528156888706922
0.6020673033856608
0.3883118226355303
-0.8677309365276142
-0.10368728443854683
0.2989285892024828
0.04391425478207629
0.4193722664268069
0.08081077660940755
0.030119075800975812
0.14765173510331733
0.021551471223963364
0.20821514868734803
-0.5492568493994506
0.0697612464848945
-0.4708628386142923
-0.05541126584452615
-0.06975879192659402
-0.0940558602485506
0.6168830756446493
-0.16780203767121277
0.019952075543833755
-0.7388187142799159
-0.016204377528671637
-0.3768538708923218
-0.407124426932449
-0.10675261884900245
-0.312644341472797
0.9642045368574053
-0.23785313446592626
0.5244164262104283
-0.44638784470011683
0.05088346473619097
-0.7977405830647798
0.3683861414077868
-0.25894168984391125
0.033189019674333686
0.36292224181057603
-0.4887469456961276
0.05395306103087312
0.46148109750406163
-0.3299111416987534
-0.21098559088015284
-0.004267586852098254
-0.22124604668985273
-0.21580529360608594
-0.4969076261529653
-0.526513621384205
0.9357819321547312
0.565786868677311
-0.9223064712528916
0.7877416524577274
0.5616594556559461
0.3176524561886613
0.3662516590793941
0.010580565969940874
0.531992347904009
0.4033588040975602
-1.0963044248853133
0.7861637539235756
-0.5386437203858689
-0.1507279998288866
-0.1446931479282036
-0.10747326056671093
-0.05115558166655643
-0.8159555908420288
-0.20921033093546462
-0.03102363768130132
0.20973332577289003
-0.24691359158718088
-0.2931294180561149
-0.011304501749474595
0.2228652098114322
0.7185270096783191
0.03523595561424066
-0.49459526022483025
0.12271075202310125
1.1222184970329239
0.4458957827261763
-0.4206615213365644
0.5074021478209392
-0.3201676221036184
-0.24094724022682665
-1.0901194660896678
0.4521679271051765
0.27314685764762536
-0.5454558040125851
-0.7866168734807437
0.20712527829296662
-0.19660111197880908
-0.09609316620589278
0.3848328084511085
-0.3184142278080535
-0.5395744213973317
0.1388015967048109
0.4189906753888453
0.13376558521354873
-6.259026446856462e-05
0.511382909020778
-0.37612129859177174
-0.0928831863795479
-0.04574235992481541
-0.7766416706091003
-0.29287031644813655
0.37356194800129305
0.7522489349727655
-0.27043720869690213
-0.25425090938042477
-0.5338378529433483
-1.272294662078605
-0.22347018591695508
0.17385306871648043
0.4817783594538792
0.12208507878124164
0.23389536913861472
0.6810214419988555
-0.07665563367920104
0.022515464779971423
-0.2116928148620605
-1.135737181759477
0.13842788458321584
0.34912708602068165
-0.6770958765694267
0.4108272418910061
-0.4841183345005381
-0.14618818980462234
0.533215786067854
0.5534095458623302
0.08791126375411043
-0.22526978261230102
0.5177016566100159
0.43376902578933146
-0.49719982193146006
-0.013392304909713335
-0.027798655592656776
0.23374507158076951
0.30421353794844475
-0.3672722873097797
0.17222628954266697
0.22774568537082635
0.8329465456220627
-0.7102925925530116
0.04344377960487446
0.5893714015556408
-0.22846955844334813
0.635503444209846
0.25128167413981745
0.3726447393576338
-0.41196586636759225
-0.12987749214040512
0.0619482900397296
-0.9690568414077844
0.13196201501373284
0.6341715020996607
0.7437925551674684
-0.846898221454231
0.8396580666611672
-0.7059196706263043
1.0918779880443827
-0.2607719699487099
-0.8493976273728484
0.5405670682391749
0.12622137658207647
-0.178538081797843
0.9424538019743527
-0.11001949855719273
0.5385852682285577
-0.651804965272924
0.11951377485211856
-0.2200885133029925
0.1882861239771067
0.8243096218149673
-0.5848084805841108
0.0205611797717251
0.01619095017807675
-0.2608775820102701
1.3097003137031973
-0.21638812692979623
0.1187739149209896
-0.2821722865600187
-0.3909976043888046
-0.30075759530829765
-0.044963618438514215
-0.40469769402938377
-0.7647264114562983
-0.35945038331604223
-0.17112229050267846
0.053352379252974313
-0.9826841045647251
-0.24094373987025158
0.7116073994510771
-0.29111181641275624
-0.4350987845281529
-0.004104129038776027
-0.0592210010421883
0.5070220834433302
-0.3241138344113745
-0.4519941443983682
-0.2297138948688967
-0.07434317064161428
0.2556254442987583
1.183521807342057
-0.21819335420875954
-0.08374569088966596
0.24607808396394573
-0.9927245844577459
0.19808779744551508
0.3128542209537029
-0.5385246121345921
-0.9275910673270655
0.1290580469991613
0.02461921425313428
0.14357945148961274
-0.2724082613066295
0.6691926201057689
0.3588178525310771
-0.0356025788609578
-0.2668599077389436
0.4454696222528539
0.04401448275604355
0.5494895984649539
0.13988428055177168
-0.42326671746903327
-0.029224738641626127
-0.46103576309499283
0.4033029033173752
0.7874761919220604
-0.6867845574963578
-0.8199609925064333
-0.04077763809517342
-0.25384650520737556
0.38612004501356373
-0.5398275523284357
-0.26566676709965686
-0.09058415739613934
-0.2188929506579139
-0.1999068832459694
-0.29165458102681274
-0.02591719641020536
-0.0027513873579780193
-0.6717803913396608
-0.2636684085198129
-0.9643625605417715
0.06646602239173027
-0.758172111942301
-0.520642585254214
-0.0050879039152974745
0.18662391202352077
0.07702346164500223
0.2664678206687363
0.0447556054384613
0.1279904995767576
-0.6486981927121989
0.39385382755211323
-1.7664408505999996
1.127493558680275
0.17107462439078255
-0.8139066935200121
0.14877710410069792
-0.13797232144578073
-0.4922349705382518
-0.47154680877354205
-0.6201106810218724
-0.10447650837985852
0.0805384485956264
-0.7471398203763489
-0.054677750739774565
0.433081580278097
-0.2172602706472756
-0.051213196231996515
-0.4145235987302945
-0.6479367369611608
-0.8968386210236845
-0.24806844669858694
-0.3000703314657336
-0.6395284447118659
-0.5689380548935143
-0.13560976451298856
0.46226111011668686
0.04070696484469773
-0.887980328705011
0.3773471773129735
-0.5397978321851759
0.41654063924555457
-0.142248234699753
-0.5027599512349065
1.0149158066996007
0.38088825120883574
-0.1451195250113066
-0.3016141530896599
0.08742869791968999
-0.04399498239113218
0.2901414854400639
0.35782229442796415
0.5350293249082029
-0.5828036938774752
0.8072616117416739
-0.5950511957757026
0.9785802998395776
-0.395931406680879
-0.28459584199439364
-0.47897974580902
0.1413441807734335
0.742983803960775
0.4779534140669421
-0.21007929922458415
-0.17814467238387038
0.5343665173237903
-0.03491887042983186
-0.042722942687915426
-0.5364230801733292
0.2999648548989264
0.14132951880099742
0.048776648256890424
0.3608426670874353
0.04282234850184009
0.03143119724780416
0.3534978563453936
0.22221795493962818
0.3304649323211891
-0.11789223639612259
0.050690638415535894
-0.04184520472589557
-0.19570067750462244
-0.7865439890760573
0.10610243445818504
-0.03849961486864549
0.3765130295039535
-0.746003772729316
0.5846573272349552
0.19933981661353534
0.2531056820042394
-0.17499064375428428
-0.3635409222664375
-0.256428392655308
-0.6344596551173336
-0.148769278315589
-0.6471725855671352
-1.3374392993680173
-0.23247386507239706
0.14013532593043543
-0.06454494685876754
0.25458724605437144
-0.503129312048597
-0.29972507365815704
-0.6007896021070872
0.19913600695311126
-0.31074074784060934
-0.2983730040025522
-0.9978923660210525
-0.4089858324031314
-0.0696180836983274
0.4450032389857661
0.7463881982090684
0.5705974002936283
-0.2929598500333976
0.46319485036307867
-0.211432706200397
0.1287321405704689
-0.01337211188022609
-0.1465774704666969
1.3117581721751774
0.8197951841487564
-0.5526495980440708
-0.3714838120341728
-0.3215485762918758
-0.254155095059411
0.20301362683189195
-0.9688421335369095
-0.37828542540761756
0.04364192977391705
-0.2601522381304966
0.2263636947578077
0.14831900997202815
0.3546708939483856
-0.26554692861510637
0.29106192647068896
-1.0658397752891653
-1.4817087492493692
-0.5587595951308229
0.6737373831198478
0.0915850312830311
0.033225787372266204
-0.2897862508791651
-0.7636750521827002
-0.5293278771995952
0.29807518061945776
-0.9265456507133024
-0.5187172183139398
0.20361847664763158
-0.07228168534872355
-0.31254544105883053
-0.21191293825489835
0.06609915836832525
-0.10504181553131792
0.3307239430880604
0.689337360841914
0.31361166425243764
-0.61798663888604
-0.3194420577105885
0.39617647650060656
0.2000034495528521
-0.07271999879047128
0.4737750359686485
-0.4198519818454248
-0.726554614485042
-0.09312208843275382
0.44629519160438547
-0.2734885035647179
-0.18107216067894172
-0.4454535844493517
-1.0918974682164309
-0.3912822037406975
0.05589901955284843
0.32587534404027774
-0.3630520540593115
-0.06747866357649716
-0.020138695401998516
0.6710706660517896
0.32005823543953327
-0.642918517738881
-0.46437089754628336
-0.20688877355896643
-0.42019573437743135
0.13331680668730933
0.1383807689519716
0.3733829112581665
0.491517712579802
-0.5108526983567903
0.22985871835676572
0.02938716994431819
0.27501972431580735
0.5897050404801782
0.5134552818384613
-0.09625803129813779
-0.020260373423103804
-0.14004374928475705
-0.2648796193102303
0.005608443047847531
-0.45150082241683653
-0.02330690984684392
-1.0557059889094578
0.4065260667712896
0.11008281989793404
0.3926089952342185
-0.5771913261350818
-0.3287234383678597
-1.0185485772782032
0.07008877488253643
0.2972739520716318
-0.4049829012665591
-0.541517450230445
-0.023192268984648594
0.13725588525916999
-0.14609806409128984
0.0746148954246073
0.0467870305762936
0.6926519097586581
0.9699030078287593
-0.23498691802974941
-0.05945240162397457
0.1747881478459188
0.4415504106453291
-0.33580118832846106
0.28004982759232905
-0.4309339065600323
0.41858647023674556
0.20557291060763735
-0.0037550518536964973
-0.20577113605164377
-0.8197667816858569
-0.08397536909243494
-0.1597204750733075
0.4610892136860718
-0.3374877640205028
-0.10323745627872898
0.5468245277566255
-0.4560845458400821
-0.11671000760544344
-0.1302486828618459
0.5405778830503297
0.038366116497797295
0.21879357347257536
0.6746824390821824
0.3931778259684492
0.40816596100483993
0.11711869811532358
-0.1153572536746848
0.2825853105703217
0.003951040031725654
-0.337604406926266
-0.235738456117484
0.473706924572173
0.035159314503020254
0.23933477926390956
0.33765135069045465
-0.3659933136256565
-0.4206460174513331
0.08784391923504792
-0.1076484352872357
0.10667426667073225
0.45164687996722824
0.12483920435089779
0.09943706816684372
0.03695638771419142
-0.004973136133958823
0.45619517956816685
0.44571103397882106
-0.536667130368954
-0.22888561151118622
-1.3976449604940082
0.3576924193662711
-0.6495574361271674
-0.07638903947759591
0.3089175715428505
-0.5089784023765448
0.023965150945392442
-0.20025646998169302
-0.1913655780618734
-0.9073861293735147
-0.6796732670999293
-0.46047688462844405
-0.39703137042994
-0.04181755111844859
0.0784661395784655
-0.29590272671984724
0.7875099871163579
0.096542184207483
0.2985758550856612
0.5558725597850442
0.29336512550560734
0.3149278009585902
0.26119237549501456
0.36792260913272457
-0.10851412975438535
0.33410164828400285
-0.5695055795860019
-0.7205243325778425
1.0119361789959556
-0.6502610537633995
0.49246061391055745
0.10293395216192701
0.03971519340462765
-0.3976242969305537
0.3488477519432302
0.48368909935767523
0.4518283165437659
0.8374042433653205
-0.927328051042842
0.18491050094834618
0.23037706452504775
-0.18492951376845254
-0.17326002418327918
-0.256027379733173
0.7877083258276473
-0.7733464999302985
0.1468320523694123
-0.5395956214328121
-0.45133321331976434
-0.5295738447448068
0.21901942008650518
-0.0007587032080999092
-0.10256017940955195
-0.3224293492983755
0.12966440568394738
0.8371319312189928
-0.10421724900077721
-0.472252565362996
-0.5045501741832752
-0.4021551396283791
0.536682324415957
-0.13201658039080277
-0.03292241126407469
-0.638123285034937
0.34128448007415674
-0.40486682065338814
-0.3066255384708401
-0.6982902039940181
-0.312180327421404
-0.3580447950004753
-0.20411210467065044
-0.029698546906061277
1.4125863392110434
0.07986046296443512
0.03464227159906085
0.19829656407319432
0.354748677361268
0.6159606742450748
0.5610129034357828
0.0616802876479818
-0.3941623455505677
-0.6054801320384575
0.08008712986671786
-0.13201264355395156
-0.5783315143461002
0.9457941665895826
-0.6503947463606949
-0.1765319625150382
-1.0923693525367817
-0.4431519182055513
0.32793127899404173
-0.3169993253085909
-0.07579209498150032
-0.9033608999193505
0.0446069215404742
-0.002370093288092583
0.8181938034205559
1.4637197104541642
-0.7349411532300346
0.7210196465603764
-0.31938978714216115
0.18328477433303053
-0.4486452884582504
0.2020996129673433
-0.5783491085258561
-0.5878464410601236
-1.0717966096098044
0.04766563778359238
0.23702821536266766
0.8373601287405951
-0.02076549964537852
-0.07640490658372923
-0.5843515414752805
0.024819377959838095
-0.17044264506642978
-0.4717334011598202
0.5951242027831569
0.22880357011461505
0.6153652826168111
0.3885557499037683
0.3882030046073931
-0.33446463407805227
-0.008174066175836537
-0.6666979208065361
0.33351107981007777
1.1888774756475236
-0.32957436368212206
0.4768171441076994
-0.694749154029867
-0.04648300818927471
-0.04036658234959713
0.2776187423168547
0.829583056308857
0.546968242181241
-0.11226564561526593
0.36863722908252394
0.5265936416290323
-0.008897771869552235
0.7145568409216204
-0.8696604130518572
0.551455755905776
-0.6438955380697639
0.741869358652801
-0.2155068453743687
0.9777529442955175
0.37344151680590876
0.3495357913410792
0.953653431695215
-0.9781738270824187
-0.07094081652110464
-0.5330461035403139
-0.0846437527586697
0.32457351686291963
-0.22017914446945594
-0.7150963300341303
-0.4710695140620131
-0.583338001482437
-1.6778043571313896
-0.7418989166916851
0.026288116820435477
0.03914476863408454
0.4126232553192542
-0.4688967898832647
-0.3983213389008015
0.322599089524802
-0.2511566957515082
0.04545217808299154
-0.6197849787985615
-0.828767517978743
-0.4084876157846792
-0.30440855463603156
-0.9936545730737256
-0.6403894454510388
-0.7805403028255475
-1.0638715446709353
-0.8207798210744955
0.22132637367755337
0.12850394372226928
-0.8762321158609823
0.19993056355405184
0.8252792080770246
-0.4237784204531563
-0.3510931258198641
-0.29595087949807475
-0.3170184941880912
0.42258084709591864
0.12881990486396308
0.4603019184347471
-0.35195832175967207
-0.287552894635642
-0.44854352640569295
0.40024885979073593
0.781247363568508
0.6647312071649497
0.16742999449659104
0.28892680602265153
-0.5648181563152341
0.174443745953004
-0.21585407997576125
0.20722284774441754
0.051061619120256065
0.2774073408582856
0.18744071856873476
0.14692685897587904
-0.54379050890126
-0.7195853897379991
0.28028218176150677
0.4391264108846241
-0.009971056547035157
0.07798407824363647
-0.9048132430328456
-0.9128575174952996
0.3867941296407241
-0.4022719011038495
-0.1281879111130269
0.14062742923400898
0.0644663020302137
0.22724384983033824
0.8926287250398405
0.2781200344516862
-0.21089371806774881
0.26375659634002685
0.6218037296110969
0.7659510244724808
0.6990249244450865
-0.1352082447433375
-0.298708577649573
-0.7271784633499584
0.28660876364240584
0.9767980965500748
1.0513567687414005
0.5239109339670919
-0.34198756839191474
0.47995737712553094
-0.5848767270625562
0.18265099928376852
-0.15505299247908402
-1.0450227378089225
0.2120940358011343
0.33507457172476696
-0.29696866845708436
-0.2836759942698646
0.6199072913839554
-0.009204654728241803
-0.972956066799667
-0.08759983043850532
0.3497306938851087
-0.2795823880756221
0.40998035974445635
-0.15288408015366164
-0.3276836866053808
-0.1388716126811393
0.6004510702524363
-0.3991675880076298
0.3205438616055198
0.8096345062115201
-0.0905383954927576
0.6072260256759308
0.6201958078611358
0.16495484872519625
0.06058750640269123
0.6029645797463866
0.20754172391288733
-0.004960702397342916
-0.2537504108382842
-0.29520014623281315
-0.7105002512642649
0.2396097998655528
-0.21262004608661675
-0.8768565463914284
0.42513757498851457
0.3304900663469992
0.5919173763803208
-0.030881759696271143
-0.13835335805881233
0.11392920602267699
-0.4855625573202051
0.3724511155314342
-0.15096411720553787
-0.028722459513080938
0.39100101718208
-0.438909791087358
0.5039377027781113
0.8353284294547925
0.30429989921721573
-0.19478654097542902
0.03986705152000507
0.8058508442758956
-0.3263791125915751
-0.5173410215718054
-0.21271431248339945
-0.3130082889917152
0.6250984716107073
-0.5921504354641458
0.9346803573360449
0.06707398663527143
-0.3098587598048577
0.7069565630731555
0.5984218880121217
0.228831449140518
0.5921206517174731
-0.17851696074437637
0.9109174658937513
0.03645170816826769
-0.477492321107233
0.5568861804676656
-0.10524931444349639
-0.6259082747703963
0.14112071653435448
0.257600156405911
-0.043179430129103503
0.34453273141620444
-0.033561499488445744
0.34610386024012935
-0.29898768948648946
-0.03111967313394091
-0.5852453933365456
-0.8764125266088502
0.17234931262845798
0.33270091924349443
-1.069367404472726
-0.727015622601826
0.14461754253246167
-1.112585711711903
1.0849632995336638
-0.29757184616295823
0.3420808085449676
0.09665668831011583
0.8096803752421395
-0.09467274672995157
-0.24196031427186337
0.1621557121698895
0.6803679418631966
0.6170027045387583
0.9236898524918904
-0.5931698509854296
-0.27701166379961356
-0.15548337604881074
-0.16447697970664424
0.11461036848196914
-0.7573604011000709
-0.4362161266091633
0.33443036746537497
0.3770895610654991
0.16114960865646275
0.30825166411739485
-0.3471847835205565
0.08597601488921397
-0.10255462396334492
0.13188583177954016
-0.031070471010339516
-0.002548395197174364
0.2646309527517773
-0.14163781994186836
0.4063598129911248
0.37296821239758515
0.7175848512061829
-0.2507414344209117
0.5640785680730387
-0.18323415667056264
-0.5437219537437011
-0.2013629816460797
-0.11311347949400453
0.46691713175825
0.6406474066681426
-0.6770879673360723
1.1346008762731052
0.13573389310100173
-0.6299711766825079
0.1315245599575885
-0.47594251939832766
0.7532821521082712
0.5395172320218372
-0.4297646119629107
0.6803510184991377
-0.16206511260059672
0.4539293499964898
-0.09773704624275116
-0.28722132103125686
-0.08372047708107182
0.5269787175265662
0.10197125029408378
-0.7040100058921981
-0.08886630915344812
0.16131918153003788
0.7359174927814489
-0.36240273098339204
0.7386771826032849
0.20107522879062112
-0.5018078347052831
-0.00851701787909088
-0.5557838529997186
-0.5582359862699374
0.7403512562315531
-0.7935509021718187
-1.1072283941640297
0.07791480070589422
-0.3713923435950297
-0.14118215114072147
-0.24878623333747876
0.6411941721374017
0.15144833894686116
0.4303510489604877
-0.4001529665239386
-0.33822459379761993
-0.34161963277441104
0.08040468664374117
-0.3973331120902148
0.32124671684395145
-0.36453743906590896
0.053905863086214076
-0.3896932175722311
-0.9038789494556693
-0.26082646540887994
-0.15587296027016218
0.2748339680115039
0.3663565662018131
1.1025643361099593
-0.5243095003648227
0.4945976881085993
0.47186083509864135
-0.5632144774093969
0.5628039725268786
0.5598574024934159
-0.6218822521494295
-0.14375142093405427
-0.02717349804585888
0.4690368775205764
-0.1716600692599542
0.31589173308273555
0.42288432564117173
0.8440556160965531
0.1842873988758435
0.45499407430783484
-0.005149445476761718
-0.3278943274562332
0.4298059598797322
0.12364638005734739
-0.2989424942572983
-0.466458783617098
0.10026688591097598
0.06793478715233962
0.13342646063984487
0.6268148317743449
-0.44094893263191576
-0.27695440428383955
0.2665455097482385
0.6088252359308733
1.0148118086997622
-1.0841366541227309
-0.2036949710876355
-0.7758193797316887
0.39938836104644637
-0.7214672933265323
-0.43072454678943595
-0.7420894460709659
0.24474281385880636
0.11437772071971565
1.214682008618181
-0.24012083256255431
-0.01900764952295565
0.15252138504640103
-0.1119669207977683
0.21974706420128748
0.2058225296803721
-0.08887862533040711
0.4367194313065835
-0.1975442623425349
0.3751635345664796
1.0153654918900892
-0.0423951299574364
-0.0446120231494367
0.471976311812222
-0.6452536118031704
0.40106072160839373
0.02527797645906884
-0.23865334343379221
-0.10153571508312095
0.07302330812593978
-0.3153303004161313
0.5460989596886775
-0.19436417532548994
0.20002440889939296
-0.44650069794635666
0.5638031950274426
0.15209892869344546
0.34942663024986104
-1.0221507814425104
-0.29835697535049904
0.43277703097961145
-0.07232623155395033
0.6746442219590741
-0.16774407137295155
0.43642992149043913
-0.11373161655457331
-0.18425386680012706
0.6709520749006997
0.5932502985589121
0.24040646858685333
-0.0054521390970497996
-0.6514471784973047
-0.10938056928245449
-0.26009415391591334
-0.14481690664598126
0.697833973319635
-0.9449629300165376
-0.4120218200915047
0.827984482437922
0.5888859938425068
0.2765562407111291
-0.03245398399333135
-0.6051054451794776
0.7187996564120558
-0.016406464790040133
0.27369993099553164
0.7705037682601493
1.0686510355839196
-0.19959704262351802
0.5014510759290911
-0.6078812365381331
0.11945985820424197
-0.4167015345222185
-0.38792786332751555
-0.5201141528177997
0.795929094474398
-0.0006069897737318811
0.5759538314323491
-0.6676427427756381
-0.11590089182244026
-1.0190681448023917
-0.23618940771184785
0.7734571462350234
0.11825949298849363
-1.1475667490377517
0.11186069998074852
-0.7569892901850214
0.1583303175699301
0.8159322499321668
0.050393852120024424
0.11550774669692317
-0.42471691753878615
0.40926119487537377
0.6665048486959516
0.449342123418143
0.4594649189808265
-0.4905774495483364
0.6190683684679424
0.2261995049320786
-0.19865192644715146
0.11501769469749633
0.12422772505039531
0.6079806364231896
0.4243723534317902
0.41160261884194865
1.040648653190635
-0.21257069137704257
0.043933360899810855
0.17748927828508118
0.03479124478634225
-0.18790276945047882
-0.3108325483619279
-0.06645823550253893
-0.3303312832052563
-0.3625457516680824
0.6899572048829932
0.2282071551975758
-0.22121381880086236
-0.3720977322413989
0.07601718316430404
-0.3919857001475206
0.36681845974714794
0.023482805877200655
0.0020037623306765288
0.2919731191086933
0.2970369169190521
0.4146135618305693
0.5016340307061224
-0.47283598405476307
-0.46071150616572365
-0.7668622775932019
-0.3308659627376766
-0.2974842122712213
-0.43213815299084707
0.9271248101893467
0.09952391105695126
-0.3089779699521807
0.125088781840372
0.09543560667632683
-0.03114494636326631
0.505947207613077
0.08660346950102418
-0.09971148014908045
0.3712650758071844
-0.40756090255804595
0.20686449777378693
0.3221741996709862
0.389095704484391
0.14687552832203757
-1.4564035897653702
0.30145478670996007
0.3325089649363431
-0.3266290312894239
-0.7980520401795304
-0.8944138229870813
0.1021000088893561
0.34206657146554575
-0.2672486443343222
0.1786153466804138
-0.08881615237515197
0.09504765867020591
-0.01266200397428984
-0.5561145474754592
1.192238549703792
0.43761309521369424
-0.14813730407513076
0.006442687231986143
-0.5630697460240904
-0.28831587837454165
-0.24497498646419924
0.05427859280781578
-0.12380238518924501
-0.4017909611041869
-0.6869331085793781
0.16402469036753214
-0.37098445489040605
0.42321796144438606
0.25732742542339915
-0.46228349408644454
-0.4663432172006219
-1.1332765176743993
0.05164419293904659
-0.2180324493395469
0.7228499647460869
-1.2180928371003095
0.21048668643489488
-0.4330024668079213
-0.8423263420857461
-0.49047283103773953
0.4175495336138121
-1.1240742150432415
-0.34857913666872703
0.014062623441234566
0.11514765323443428
0.0778741469699755
0.37492594774027005
-0.4538631309239094
0.3859039951170831
1.2638806519498778
-0.012501956550729285
-0.1745340056479533
-0.4658014433807649
-0.18028555479298095
-0.7442529411565074
1.0644319392986497
-0.21248412536008773
0.31387254109419055
-0.004390939113479365
0.268718481817174
-0.7326969681394652
0.6225242062294838
0.09988875934647037
0.5171003754321701
0.3999284041424629
-0.32944767306713685
0.6023163785559456
-1.018264838934857
-0.1427972719738632
-0.6878024242549884
0.19843400815978632
0.6197910151290819
0.22866263320592
-0.06495666942990674
0.7242992421503589
0.7464342654688849
-0.5311033204552903
0.15777207971082394
-0.02104221705041116
0.2748010827139263
-0.062103850552875685
-0.7773843482187823
0.5210742552141499
-0.6113356089916844
-0.4546071505313381
0.8926929299297337
-0.23518598634349677
-0.3280289099647494
0.2651156944819719
0.5350753142890263
1.020232022159004
0.14388441964312143
0.4388242355373657
-0.29246262892670816
-0.13967632189024956
-0.23090492307161373
0.4325092055746804
0.1058195394944147
-0.25558993412864106
0.011281113264388444
0.0434374626534723
-0.08401038209859524
-0.5977593646822135
-0.7884201836888759
0.05593532667737637
0.10588262509152828
-0.5835165748745428
-0.7966032880602107
0.13050056154847245
0.3811086186761529
-0.3174315027385102
0.24583428360297155
0.8001863399851357
-0.9659990292965772
0.03397468368993514
-0.08164466867170424
-0.45654062925089245
0.20311087009794174
0.5416012638791871
-0.00643657956864246
0.41209466814468415
-0.44383461112246103
0.15107439294741537
0.35914985539911926
0.8144956446979832
-0.11006288512319048
-1.451152635610404
-0.795758023782426
0.30818646488196516
0.08479436312594996
-0.581308320504928
-0.05443552723750087
-0.3053361959303324
0.2943471490254107
-0.18069555646886282
0.5032198085037691
0.6011332604761476
-0.8305509384852362
0.0824806531754892
-0.5258957725375177
-0.1363106566305469
-0.6755535815132492
1.2349665622749382
