-1.2333403442728876
0.13297740311694217
0.3804652596546128
-0.22451325407396544
0.8045153980213499
-0.5208668431609713
-0.3479343530320155
-0.1435116508842436
-0.14153580932877638
-0.10502867160145063
-0.015473207418137782
-0.14997605536499295
0.32327674050372557
-0.1389778815151161
-0.1649680994876715
0.38272858689378203
-0.34706541997359464
0.291631304919146
-0.12470082644783277
0.3378483271858865
0.43652087607992013
0.8039152639225098
-0.8780726700646219
-0.16637357471136302
-0.2174969682203923
-0.27276456026572615
-0.1164874395728978
0.5370605025697366
0.1682436413471814
0.07887536379268784
0.08776133628947562
-0.3352272321479413
-0.016681418709318767
-0.3116584837461717
-1.1678530087401813
0.31022955151372433
0.4194114902644139
-0.9085722526452348
-0.6854425785138722
0.227180087595016
0.002529829991575756
-0.2885237935097446
0.49378853211186274
0.223381674638716
0.287555222074776
0.6185377872222455
-0.8924710202977939
-0.36565730056417073
-0.5330087599562451
0.5064384922362324
0.24057835029787988
0.0899836382834119
-0.01507557659036124
-0.6676233665269043
-0.15472205421550447
0.4516037164691447
-0.07524644804467213
0.5494499019016035
0.27895026218695823
-0.4732519301518041
0.7247602749410117
-0.12479012082127615
0.5163202109318615
0.299281319565658
-0.5743456932529559
0.33172217496547274
-0.02262055575157038
-0.04840173095753791
-0.04886785905743973
0.8530465405971195
-1.1116243389942464
-1.7570934536011364
-0.7816821540291851
-0.26977947127181023
0.3989513217801812
-0.5286415151318516
-0.06708496289556976
0.004303463490883871
-0.5237773441463942
0.09399343964402052
-0.19543338177193453
-0.22878574831699997
-0.010806582092595215
-0.44295678423338014
-0.10768329456087121
0.19801908145459776
-0.34630370171194425
0.4479490254351382
0.9861275732951352
0.641959931836411
-0.6432295021140649
-0.502088881861738
-0.060125851518112255
0.3484898662451195
0.42938277153872667
0.5618101114845465
0.20441849637905063
-0.8115672789049228
0.33555171750358237
-0.1676689968196586
0.3610924136697117
0.03486217641013504
0.3651626054072728
0.8773584077881281
0.4458760341265006
0.29162847640547657
0.3787284515233088
-0.5233201004892022
0.1150314254857879
-0.9729122958656357
-0.9575026717623506
0.8008375918446213
0.4444279041287188
-0.2498071331664002
0.43201902669358067
0.18863833454169668
-0.3015953023712399
0.42397142183779635
-0.10368897881086393
0.65311504155368
-0.4297221208282366
-0.049537576764393715
0.8927173114405561
-0.21755528612152977
0.3420759402850253
-0.10366018688766283
-0.34314848704699424
0.2526214268032009
0.0710021187614146
0.3825215500637871
0.47023184935873646
0.5008988760371064
-0.3441765147176794
0.03805891104692782
-0.4066687293488009
-0.48070829949418914
-0.5288395228065182
0.5811157616293485
-1.0230866529274045
0.388382641339184
0.9621440402279946
0.9902201894339673
-0.3647909006064623
-0.24093710957128442
-0.14547191621304295
0.14440931190253625
-1.065277003067613
-0.7781838772894032
-0.5851247217220373
-0.0204320405835066
-0.8201008268720534
-0.5220271794619467
0.08779045556602919
-0.23787878573747323
0.2956436517368506
0.8712305672064049
0.22045366783172032
1.1072560273813552
-0.5765655495772873
-0.04640629152056544
0.5026154519256665
-0.5844224250326908
-0.2872554583074891
-0.8452013416037479
-0.5273860899264875
-0.40879370598114206
-0.4357363512233246
0.1941352011609439
0.1167037080213585
-0.35927635946900277
-1.0059383408101024
-0.030192687663105927
-0.3238023439423196
0.33786454595849924
-0.8942913118459522
-0.6234312335172151
-0.5962328820659183
-0.3390536950324376
0.08161372002433653
-0.19651605410785003
-0.14811037736916138
-1.2025551703008182
-0.16648626881819184
-0.6685517103985752
-1.1470819519281472
0.24126194817191468
1.1956176233403193
1.3886187579300688
0.12203404913308673
-0.6905722304788976
-0.15475510801198805
0.004582023352623201
-0.14958942944845624
-0.20418870653803672
0.08353017642015384
0.038762558006645784
0.07722696559136742
0.237718962073497
0.22818364141138608
0.586661184582396
-0.1360890497119371
-0.10200140131833349
-0.18818179213891986
0.048656479319107375
0.5575821711259077
0.04070998017892462
0.7130313144100154
0.15488239070793525
-0.006639883181668408
0.4616728553722178
0.8233370033802914
0.7613206701835492
0.3023589770321005
0.033008688469419185
-0.06564534462448217
-0.12934544111147192
-0.2535949618494193
-0.21837159556921718
-0.21247612592588105
-0.15956673605492616
-0.24441646671390882
-0.5520885592881355
0.13062424272434833
0.06192378332338598
-0.2844445267058484
0.2747211855107533
0.17868790340697355
0.3114744656176424
-0.10273163620202456
-0.3792267579950416
1.5906933689553882
0.9288169692414869
-0.2454333520773561
-0.8452864260421971
-0.41797846025082824
0.18363393781379728
-1.2789588741493074
0.28920144308319107
-0.049688309576868615
-0.4203012751493261
-0.36950243131039856
-0.052039770457648106
0.418368617906702
-0.6619009941522247
-0.7192421073610182
1.0324471151622459
0.8542574845910846
0.5470267946706578
0.12782610275868772
-0.23283168765589737
-0.2759118523847713
-0.3165904216740124
-0.7190871258130921
0.03715105143421103
0.4420059984319252
-0.7354868393012722
-0.44381722957894976
0.16472647806313967
-0.08375508433956469
-0.07934300224874331
-0.1322484690054368
0.14492790901841635
-0.5150425468072699
0.42771401453939245
0.6472684158565828
0.416351189105335
-0.5236526548339231
1.0385089721309917
-1.1180758661957029
-0.02200841298829063
-0.013164217957736042
-1.0920021745843462
-0.10646957622067825
0.3585908895745555
0.018733729029295276
0.2087733435760995
0.9231837268848977
-0.09777514622032922
-0.7283938729716262
0.2782407728861197
0.28353954459865777
0.07806321627820348
0.9091360066274946
0.28891829171460104
0.32472230611308434
-0.16770865473888358
-0.9749971141154137
0.2430971307112872
-0.46370308074556105
-0.17941931693088106
0.9270546045700615
0.6911457477438608
-0.12429191147330995
0.6624685424481334
-0.841584251767682
-0.36675901559615937
0.9338043041627455
0.8491764109977299
-0.5063831223287081
-0.21411750308256255
-0.16309762876415165
0.026527340144459843
0.5395453425159118
-0.004147472357154817
0.3626895932247761
-0.09148047990623205
0.8556104154611346
0.4645867201783168
0.2515424184118254
-1.0199698544528562
0.20529312551452739
0.5152618737330326
0.30774027781814617
-0.06520537225512653
0.3024853658289709
-0.04078544503457396
0.348285344428878
0.20538193680625588
-0.13864919152843225
-0.19482182793054162
-0.28172869746545
-0.3817153298565895
0.4967106077035353
0.42847830906436385
0.8526344284091002
0.5777482190483466
0.4352327186668423
1.4233291335866192
-0.021637915909965593
0.1402026230596015
-0.05534987404014844
-0.5119716753985043
-0.7400121260146952
-0.3584853289941021
-1.492816138929292
-0.35265422265447893
-0.08957549970201287
-0.765438717962968
0.18468923189570438
-0.6976604021609327
-0.5444351322161725
-0.2551954904498413
0.04973593042891713
-1.0257763190841478
0.2827453703275556
-0.08111238832070208
0.4385642014197759
-0.5783372497589437
0.011372528197205956
0.34481523951996795
0.11342459076508585
0.14473547752307037
0.5763012757465128
0.6745190373992324
-0.10561203220438846
0.32472818895363437
-0.18954069884124203
-0.35697810489504705
0.8039250756816616
1.1034223761164335
-0.21364390526498328
-0.4911066077859339
0.49128534585204914
1.1739861478945293
0.08693391554003
-0.5054559701669877
0.6516747394181567
-0.5591154261576834
-0.10921139154472029
-0.3225054036846444
-0.6076646424986737
0.3921822830632133
0.17890477529192042
1.4295849516725274
0.6738007722813958
-0.12330074961512101
-0.43463610722620527
-0.19884174067008095
-0.17040481312116298
0.08530522572768968
-0.6893642204896159
0.20302425200457944
0.7089556014699946
0.4837747958081818
0.7034713187268687
-0.028956508126506776
-0.06770603091385552
0.23006095612584743
0.34417817540161694
0.041409665398132796
0.20130030104995147
0.19427417326470348
0.16443328300389704
0.050305663860638825
-1.0166574743288004
0.7494451340415232
-0.29197260728117236
0.1681997361880535
-0.7603952647044879
-0.4576809904341996
0.03213084510454657
-0.29258939554344787
0.4686997715701007
-0.3612095808036702
0.5793946361932655
-0.09004364646000569
-0.366645914084406
0.009519661409116548
-0.57787178649486
-0.5772321336335555
0.5177988425827886
0.3543985014441457
-0.26617002413213975
-0.029783388461546285
0.1926284872587607
-0.11932205082625563
0.4437871273720482
0.15730764902323746
0.2190622269737437
0.10360222600622261
0.023497169670193267
-0.2731464501847773
0.00953591430426543
-0.6695633352827891
0.0017762100213264227
-0.3722182774146022
-0.1540835645710695
0.19523412143431831
-0.5906981022386081
0.6296115270864465
-0.17604528600533362
0.3704595733433572
0.0876370564405675
-0.09324105764423427
-0.3305912456817182
0.24158346368646996
-0.41483804500019217
-0.8155526535594184
-0.24064222461192986
-0.012536889495184588
0.23628951402877146
0.3865604756090019
-0.05403633583812286
0.6661467055023752
-0.14051502091025678
-0.735213271566002
0.6318243976423309
0.32224987780416825
0.38931944751516806
0.8080653449971507
-0.022314099933180346
-0.5003523559374241
-0.3200607697496377
0.38749489888600547
-0.16902127626497856
-0.3685692424656468
0.15817398887430295
-0.3395798445824318
0.25694117352003254
0.674082921813179
0.1089654598292973
0.07664597914324814
0.40127117154040765
0.6348140583058053
1.090688830885403
0.051353091198272915
-0.815712348513911
-0.053225627365596426
-0.526911033135621
-0.2288364833993513
0.1578432559147039
-0.0722941369329639
-0.15958383901872336
-0.38834088244275156
-0.8961110334173906
-0.5009059100575601
-0.6392780400125118
-0.5373400558894017
0.4377386593994599
-0.19385625528572326
0.2623784518837204
-0.8460824781047498
0.254754213317644
-0.15145845468811894
0.018765993275552173
-0.546760085173825
0.20623325983539395
0.3974297501427113
0.3529081730905966
0.03379243299593194
0.06831933324078455
-0.04415925295536148
-0.051246775509391405
0.7152414653315304
0.3515402063832909
0.4123247077858858
0.7066763156159949
0.34039122627622465
1.0190306235173565
-0.3425176199483768
-0.28506648000322127
-0.149404019623673
-0.2217106978547866
0.006488304875375422
-1.6753985957766266
-0.7720868287541591
0.19688356382319064
-0.5222306005892298
0.7078174579409002
-0.36667683732557516
0.3592699827704504
0.3863783702685257
1.0154381053438057
-0.9264558033411939
-0.34565055183928006
0.04779089027668469
0.16233800578435847
0.37850032233294073
1.049520981774475
-0.1967194913777966
-0.03163395304609212
0.48712751500123525
-0.18720529402928054
0.3227891537462217
-0.7088391184562615
0.17675747188525473
0.3529912168484474
-0.22798422789079914
-0.5291604146786939
0.5408881613512616
0.39715832094850917
-0.5369432052363742
1.1864236467279468
-0.3305226836048039
0.4557443629306386
-0.1765619834204013
0.06496414188560391
-0.5197464919445173
-0.5625904488889623
-0.41208195099349454
0.19547081605984346
0.2028719654426023
0.21176318374642475
-0.024462212042191393
-0.3077066602156536
0.21685053914530117
0.32040801437537075
-0.8620983228798734
-0.3819116619798864
-0.6779008232508794
0.06904391072708158
-0.5975845757920989
0.2793035416676102
-0.43203234177853533
0.09286626965727898
0.22730893679287648
0.3966756224963989
0.47445271832804015
-0.7424370911971497
-0.45280160837279076
0.5289855919121039
1.0464991269831638
-0.3334685370630364
-0.5754475706784767
-0.15311204068625933
0.3980154374436622
-0.4016582776922415
-1.263378689186795
0.07892250014835421
0.023806270236870177
-0.11481840270256499
0.2033148105031581
0.4986030866855426
-0.10925610951363293
-0.23022725106724698
0.4125833352065811
0.2486479776336489
-0.3111038440001342
0.3551028039033299
0.8745546932520215
0.636733622834297
-0.6361848852170692
0.28163145880705154
0.2970439435089659
-0.7974365577198147
0.9631106145776374
-0.33796739371638895
0.12548004411499125
0.6600888075575884
0.4680972903792105
-0.5335270156649182
-0.7317619463904543
0.7791874440471938
-0.14304310100584958
-0.0614686037642185
-0.12122016446391651
0.1198989031886631
-0.012432543350755474
0.01166860422489983
-0.5107798608208587
-0.11369864310403646
0.24714252685820745
-0.47190414462638536
-0.04037615593983941
0.049831742829831126
0.7348335373842976
-0.32014549720969576
0.12086660320226442
-0.1610315531321486
-0.5841208273592711
0.49256087480516453
-0.14229446244963734
0.09848611484312385
0.4119086859759623
-0.06471630621645483
-0.5584457516502795
-0.7428138546833021
0.06696790573037131
-1.0749340522394866
-0.4699518148124409
0.6868875222253709
-0.545360274264221
-0.0032153086367868824
0.4143825749896896
0.4974231354461456
-0.27859827710998525
0.28966651063323207
0.36494996848326305
-0.5867309705510647
0.29886424892079555
0.3525376176361042
0.14689010742009212
-0.04637276921735462
-0.38186405509923954
1.1018243438376991
0.07446756942244259
-0.11513336034836559
-0.3872874782009247
-0.2151571494455686
-0.8448283314850175
0.3424888151981464
-0.3854803570948073
0.37637639087450336
-1.3750904952351803
-0.15274291449421326
0.6307111171884058
1.019287833570617
-0.19921521372041273
0.3544685809619449
0.1343205892899836
0.24445759665233305
-0.35369245849253067
0.3017741706159342
0.36993681825598906
0.09732018185801182
0.41407590789606763
-1.2619519962055052
0.24762999021801116
0.8109020574312875
0.15842374161976336
-0.061456357421415246
1.0601997081036743
0.606211708263632
-0.46622332658419335
-0.6109825488264086
0.5318538078290125
0.6213386694917504
-0.1619112653530567
-0.25505805715822577
0.38088550861938314
-0.00195108630224109
0.1493231393455328
-0.1082639296168541
-1.2788187065819618
-0.07842773313938682
0.27013318968893063
-0.38549625033175067
-0.22978667555190951
-0.10133166417105176
-0.047274299068194685
-0.6330261548512094
0.04489332157321242
0.4385098156456161
-0.25315839798975465
-0.6015838519210683
0.6063119623638125
-0.7011580429088295
-0.6825285346233966
-0.44936613940613795
0.3081251866470005
-0.04674407249897516
0.6232163758834912
0.22779952574610307
-0.09378663705342838
-0.30881945682698364
-0.6303499482319279
0.013575064557625052
0.24694113511465593
0.21417519319216405
0.5190604170897695
-0.11376625458384247
1.1142341281503076
0.4663726247389207
0.1398475605867642
-0.08512854214207814
0.8205368100462411
0.28391871194686363
0.7577772132168142
0.5034895601243912
0.25311313863793466
0.3658871650729758
-0.7996789207929461
0.4314900625646996
-0.9283562285110694
-0.800464219631116
-0.45124879779318655
0.3230935727320501
0.878890680417007
0.4691057080192441
0.3139087635970821
0.1698061790503158
0.1048209545954299
-0.6884338448725537
0.12906323621849883
1.1932989833226932
-0.3572205994173063
0.4089888789355486
0.4210670944540352
0.20807556921912027
0.3187082357792461
0.9639303624698877
0.2533781889570138
-1.2667906676681318
0.2587847716002942
0.1861496464822552
-0.9861208105729519
0.13387228588128167
-0.3992913165108024
-0.5040891145365891
0.5574167348139357
-0.09293586937107817
-0.7562097262604119
0.939612859436189
-0.4828370270098409
-0.011674195397915704
-0.3868734023914001
-0.6220056326646385
-0.4823066903191557
0.4213182522470308
-0.14017966798659875
0.2045868069484866
0.1692641277624012
0.4517284757842927
0.6700472658376158
-0.22398809469780878
-0.3286264492403124
-0.33909908765892427
0.5267159678754647
1.1255852871859326
-0.5908113475894138
-1.0655781868207852
0.39121211991830956
-0.8731361304212053
0.005037777472763656
0.21860084782606146
-0.33382973930160653
0.8274064730486086
0.32190676497892917
1.2403330184228323
0.45138857654019504
0.046335695748143835
-0.8147086642427777
0.8988608191070109
0.46745291540686185
0.4834084889464842
0.19205002522178066
1.2980543793991814
0.05367154343748292
-0.6872633482631304
-0.19136908655826926
-0.18979405402835445
-0.35207200538197464
1.1174207794370192
1.4698933648356998
0.4725021855181936
0.4409487711229457
0.6711398788523144
-0.09416670856554664
0.4842629990851779
-0.36573229443464605
0.4295312673855076
-0.26626055348277233
-0.7679284053483499
-0.7720871743307479
-0.7583262529440368
-0.7777273564977676
-0.21856827890505787
0.4270953003603612
0.6272604775460386
-0.49990533556081995
0.5194599451798216
0.35791628174116413
-0.17482036340239474
0.5393939349485429
-0.03497477642395865
-0.4913198361974032
-1.0051843406918959
-0.0419136364425735
-0.4612030221096544
0.35059905825766724
0.09258736131077656
-0.4861914602376796
-0.21038733441189253
0.5514917627181242
0.21984138116646385
-0.45832769626359443
-1.1605249242556734
-0.6407451932019743
0.5818194053458707
1.084961974549265
-0.17184655364693663
0.19904924349636274
-0.46541175961985504
0.13841652822519177
-0.1532367466291317
0.011354436705869029
-0.5025732225274707
0.4611099266265403
0.022478412483033252
0.13819555916983503
-0.07148022146475042
0.3859846760135729
-0.6386667023959584
0.17246140134903423
-0.4577430008392549
-1.1562212547071142
-0.7012672505868313
0.1808095114992326
0.11941880873691832
-0.07984616840572321
1.2020885023035788
-0.08590202838070289
0.09161593938363072
-0.30958301955273776
-0.35650936155252394
0.384258265474177
-1.0472045912190446
0.2348040174683368
-0.616011210557175
0.2250062020665122
-0.5932139301185265
0.03295497092577972
-0.525267334526893
0.3422205178075096
0.5171631122557315
-0.6136474403861439
0.18222036874059153
-0.5592811050183647
0.6417536314266137
0.3773035993010426
0.8291200510626363
0.236146572311083
0.5172857304605858
-0.6693845456533705
-0.5049678467147686
-0.08272148130904985
-0.4377781842145317
0.5335824920902591
0.2689589203768638
-0.20857265338925624
1.4406973569942014
-0.009899427622741753
0.4580199205098633
-0.17107328650676532
0.3908273830418842
-0.09970094027722731
-0.0388424006441583
-0.12850842806191892
0.06663821209752072
0.29573946424046055
-0.20987952578854618
-0.22735145205172452
-0.00804948788967144
0.7960276689669468
-0.26446340332323776
-0.041534355749748696
0.48962775580995627
-0.08753899447902333
-0.4733127886940758
-0.331696338909816
-0.7430165676251028
-0.495737750996376
0.6795620039548715
-0.026637306995580166
0.3268808031377568
-0.20110085440215378
-0.17143805251783356
0.6867132337780171
0.5211480772773421
0.0884640090244201
-0.540877216954571
-0.1686367055859873
-0.5254588310041802
-0.9971938459212392
-0.748339778080918
-0.3014117975274593
0.4575148833656344
0.5892932198349952
0.4514592624886392
-1.0223517298322
-0.5453350537965403
-0.5369097646765295
0.18400589583103877
-0.0724070804234256
-0.287131557212065
-0.08422017419379765
0.9515680204682166
-0.24055735268491604
0.37145311095160183
0.06568878745932775
-0.6704778854065023
-0.8419174273328627
0.3124839991771901
1.6323983061596208
-0.4314790746365893
0.06674293453552785
0.5952601665735935
-0.8816126784338943
-0.7944335512068164
0.5195492005531697
-0.18463981871386115
-0.21551344224805588
-0.6799736606297844
0.2284072347601747
0.11220140538150158
0.2006566741565418
0.0297423575619169
0.7029273792928983
0.8084695575536119
-0.27554764052374614
-0.6175647201332618
-0.22486739326203348
-0.021887902685299634
-0.005439239899551362
0.5372213009608939
0.8095359802073646
-0.35156611733479953
-0.1326686457583892
0.4692559267169385
-0.6178090309478038
0.5764010812730725
0.24190132277472745
0.6542060693639178
1.2073634579347183
0.2815920536244074
-0.007827722132360729
1.028196372305841
0.7732491092042114
-0.866873965289869
0.09355366222477388
-0.2898078121695615
0.2954956758975377
-0.3264749554992971
-0.004221220477269697
-0.38795628554687805
-1.4107398048360997
0.44550786515822327
-0.7262512447992627
0.978073665703529
-0.5352370463187496
-0.021252632601715074
1.5747609123649646
0.25231069435234876
-0.7790751902174117
-0.051388034672327554
-0.018062637028114704
0.8077944700351366
-1.676816733589895
-0.01762342197553542
0.6903008964368657
-0.08930686948909165
0.14024763189347125
-0.7664515372924029
-0.501406415940123
-0.07201986003040084
-0.5643041565357632
-1.1271626985347465
-0.31265651694666863
0.4268325789855617
1.0833492366893953
0.5719423184260203
-0.7608224833887955
-0.43035341620145245
-0.06880550261331136
0.27156286570994154
0.4957005273809328
0.8881384979937675
0.8751476825187776
-0.1695895145069318
0.2573101789472411
-1.2191603014926797
0.27337187423627585
-0.00023202766867311156
0.5237794946210814
0.39908573321618473
-0.04027981636078563
-0.029688810436451715
-0.3365919401464
-0.8345225460988634
0.19740446400283976
-0.0016539043964300538
-0.2197176678480162
-0.7702476904642825
0.7713437941198095
0.7797612967505589
0.11571528702542484
-0.49530240803314435
0.06517050880516892
0.23110384693074745
-0.11329430819916103
-0.1780433424539128
0.00514954752028164
0.09948236264941843
-0.9210099409418819
-0.33550284293215327
-0.0021718289905229057
0.27832467921876225
-0.6550114078605435
1.5949512986847072
1.0386680073518875
0.6029666866754269
0.43406931198430504
-0.2549808354793227
0.7874906424639202
0.15740651760393376
-0.0463862432735028
0.9864388257355702
0.6098124677139276
-1.0068168036420322
-0.3144430613942983
-0.17761061454812646
-0.32217957559411264
0.17226348122898782
0.1931279254337936
-0.09285239675908119
-0.5460651916428226
0.4923379938429224
-0.494021781463004
0.4219086591470984
-0.40014635202542864
0.6144263795447024
0.07365261501299764
0.45152366958476814
-0.204093419541839
1.1695622496201903
0.2528120001371974
0.04641681138194141
-0.23620529501060164
-0.438155005220165
-0.3422516230885665
0.127501728881323
-0.829140953466908
-0.11504532218128265
0.954524979984857
-0.9481044000120573
0.2710142722805688
0.8945892926885401
0.19090354016550803
-0.091169478722211
0.17169299315902833
-0.30240021667502265
-0.5152218597344087
1.11050565044289
0.24622816067120545
-0.8202491901004176
-0.7801646579681426
-0.13395635973339032
-0.6398383809712443
-0.04866472828938517
0.06841327545841176
0.17120802092573464
0.15601914435087058
-0.19945686043944394
-0.14850840871770143
-0.8696444912112056
-0.6625898401866117
-0.1883587130042173
0.11659126887119493
0.21890094212654837
0.27873221787172614
0.39625449125055157
-0.35954955566723407
0.7784303309042312
-0.3036123272501612
-1.112955114704402
-0.41539450685242885
-0.11283432980721426
-0.36492112650745756
1.1797549222689498
-0.42033353210365854
-0.21449679485038442
0.479305883700521
0.710811638720451
0.3992848600202715
-0.24103227321305468
0.20690371184479844
0.442066363455227
0.25248107943600273
-0.2895529457299197
0.5247698620047921
-0.2043128993861364
-1.0478747713959133
0.06169807811293231
-0.22932315548918947
0.4209836065897471
-0.6637756834951237
-0.1943484567926466
-1.2571617410206972
-0.23291553935160061
-0.5782792651903235
0.4666375087185204
0.46423673556248113
0.9481143471968849
0.41493376966210044
-0.27839275760900534
-0.7573389030405411
0.40570318411773876
0.1346801337783446
0.4095815957949249
0.2035216765632972
-0.7803699644639405
0.46247995433550276
0.12454640662394471
-0.10569128862897817
0.4976989770740321
0.7616951909875671
-1.2018612306535128
-0.3445959588517945
-0.029391983283031154
0.6805005659069937
-0.16520851064480457
-0.05818579393781796
0.7904555991560767
-0.18776377044227072
0.7719491990025916
0.20212690247550044
-0.26516174026082
-0.47119835546346434
0.22259756381096613
1.090565598315608
0.3458907536346746
0.03792722428548708
0.23608710966628021
-0.4585526213018698
-0.2003265506800094
0.1764312673413484
0.7491827336721186
0.35299777178175007
0.15672803932537957
-1.0008214683200045
0.5892316652690668
-0.527397818266204
-0.09821394408910229
-0.22511616502506165
-0.2106231954406924
0.3961363139015521
0.45847984675428793
-0.35178855698678185
0.5131132337259283
-0.13259987832944983
1.045443615648004
0.6101132639001117
-0.004633070842598066
0.24868993163067907
-0.026302302570582164
0.11654348621854138
-0.3140859366454815
0.3016822129781146
-0.09236713878804001
0.6804346886771955
0.3198094128950031
1.0304877018578285
-0.16708267550627243
0.15018247219905834
0.6769994664251406
-0.10743139555630526
-0.040332154722799954
0.00905778728145687
0.5870331491917993
-0.41898400196313057
-0.15779641920048096
-0.7405019307956532
-0.03614005096241068
0.15539312131333624
0.022163769423407
-0.2835895705767978
-0.2104320422806104
0.270946381062342
-0.5085046746642503
-0.12901621070543837
-0.14168088358603756
0.3337417212808752
1.0782926619131716
0.9757284752843707
-0.025211737592328975
0.4576574412908517
0.9907549434060262
0.017401156681581122
0.25565512480548974
-0.3881776752576086
0.028233554553747434
-0.8295097660254148
0.41419778221316267
-0.6248809328164654
-0.18515013968502397
1.411272460620666
-0.9351002317383865
-0.11335563877640169
0.8876501198224934
-0.31457846540716666
-0.9562439663539595
0.10916727534496314
-0.7416566231116567
0.07085564776461069
-0.2623216542952148
0.17639765509212516
0.003081904912577603
0.11977647211935909
-0.5879661205419794
-0.899551828665652
-0.6957798885570607
0.45307122551132206
-0.08288330627292226
0.40108908430272777
-0.160413392350188
-0.3206323405006812
0.5799293415886152
-0.7483043136553893
-0.048633005407170755
-0.1512455854375337
0.2130307928864571
0.1344337245856474
-0.9123233254448876
0.9650748779884344
0.4459812173753553
-0.9479208389876465
-0.0501618926461582
0.6828372692468773
0.6947861635238621
-0.8324618061380937
-0.3927273463338042
-0.48914996778851005
0.6169357342852712
0.766377909560227
-0.5916774840091584
-0.2947991759962102
0.07485320461604454
0.08262052576949118
-0.23275735156553243
0.35657258107219936
-0.6972939865886478
-0.23917942362946565
0.16008901745128862
-0.46998346023036447
-0.18363721310530798
1.042615186583959
0.04827751746360635
-0.1169216688516297
-0.3236816926619143
-0.23805628575548296
-0.21354940229050293
-0.11007615719095516
0.16309017266660308
-0.064990482796189
0.2992763657757714
-0.03920565570261302
0.37847710542233454
0.36215817799091
-0.8850280860808785
0.14727891296557633
0.6027598533548328
0.4027981965227088
-0.7560003952949345
0.13464473490767473
0.10359904557380643
-0.10375707975035978
0.0068832188372891555
0.07312551011836711
0.9204509112145971
0.013013182509022331
-0.13028330767910343
-0.7139259208893268
0.28884132417898517
-0.3378835807719515
0.7822398412703134
-0.21583096672427865
-0.4209890842677408
0.09779518101809305
-0.034765324033592164
0.12959409655470908
0.21440541936391175
-0.14125647846297457
-0.527233799536393
-0.15773309207642663
-0.4716288103189782
0.009717430002682617
0.0672160329683083
-0.4582182165382769
0.48007052712120096
-1.0311522049702675
0.3050707578811037
-0.09140918488175884
-1.3881237466499687
0.008780554815256655
-0.004694004801466856
0.24076769480921167
-0.8339809194499788
0.22606683695157462
-0.028491375714195293
0.34742798693399324
-0.11194716291570443
1.114504831418142
-0.1759404457857278
0.5288245138628183
-0.9319198172340556
0.5242988512034724
-0.3757905970162236
-0.7997117176519939
0.9135594149074063
0.16343568454156698
-0.0027025886884835164
-0.2130272046762078
0.008692918701472263
0.3950377427943083
0.25318791863012896
-0.15796467929032662
0.530501875805263
0.23792721473675377
-0.04203754947607201
0.08744421139989944
1.2469516505866356
-0.55618376673801
-0.5068444719814126
0.2812963205080915
-0.2039128237399179
0.2839474404522946
-0.3215590652840398
0.4063827658504078
-1.0158847284860464
0.23085194808419854
-0.9016156797093156
-0.18189345764381004
0.49267803692099327
0.29665345470166227
0.01876570179760974
0.8936688724480998
-0.4918120943622731
-0.5919149474660337
-0.6993222453221692
-0.16929631428524045
0.12743596376264066
0.7690037845964042
0.5728602300806325
-0.21870363877839188
0.3461365175563604
0.5439455462403214
-0.931906214731588
0.003594889920322481
-0.021832844261810366
-0.09994994176678067
0.9909548180911817
-0.051171438498091894
-0.3362392904880711
-0.3045166493001849
0.07154381784467678
-0.2605360062239161
0.24696241799926372
-0.3242414754004895
0.6382712536178878
0.04480626605104918
0.021407699694535334
-0.02447121342946916
-0.6882480363262031
-0.43883257651636337
0.6457247318095511
-0.5742134773393933
-0.7335789206118994
-0.3084790028822212
-0.9143544511011441
-0.13827966876347153
0.08003983907753401
-0.9433717766487613
-0.05159669547389331
-1.0089948004706488
-0.31522201009764
-0.06242849515506163
0.02992870495713973
0.33138149761548075
-0.4701947095416593
-0.020255344181877837
0.42877052518272385
-0.3779295022820882
0.24712597009676177
-0.15296326172050137
0.1919134858171903
0.0527870581718468
0.6558236761183011
-0.5968261381631762
-0.4294228910652646
0.19628448975806004
-0.20626580696526742
0.385821845463888
-0.37801483930687113
0.23536737407964878
0.17950387406340912
-1.5829610390296538
0.18166992143240554
-0.10925777039043463
-0.5585189986684193
0.41273304786810366
-0.8661611916830766
-0.08073770002409718
-0.3856260464519755
0.17867921580495943
0.06474358183934968
-1.1924367906381543
0.034293492679023714
-0.30063988045118584
0.3133456262532111
-0.3676989024442521
0.06111180992451061
-0.692248917235463
0.19893953712052334
0.4636135434098187
0.22606986956032651
-0.7345793651388375
-0.31060866487179906
0.4474481852852909
-0.04012950232468361
-0.5959775286447335
-0.27242714791096656
1.146410061591675
-0.27890558063612286
-0.1640826684552979
0.2603557692078316
-0.49923669107787466
-0.03340810077397761
-0.49022285831138657
-1.0004459541319664
-0.6866078758286818
0.30165678758956094
0.11161015006950925
0.5935225058483248
-0.4007883697640365
-0.6763389767596384
-0.2571174287369486
-0.5248860210368445
-0.009766866661445463
-0.06192194711472385
0.21998501149464977
-0.06926252603575922
0.19443777531954892
-0.28673671074839013
-0.6026901231796811
-0.32885433909913286
-0.24057738235574141
0.5586422164639799
0.11314660747958291
-0.6213539200874985
-0.0653232754638889
-0.3944620861521485
0.21394694464752573
0.19129621304599848
-0.2830683079654754
0.015678479783990208
0.24370274364103137
-0.6899873848594454
0.40011827842252373
-0.29918066557933515
0.13325642400476134
-0.7382391536331894
0.5872737919804127
0.784952743126473
0.3784445481247025
-0.053785854911658236
0.02228816686326403
0.3601786807117087
-0.2743492776549659
0.46291284548938655
0.9577210067894786
-0.17376244902748528
1.2789848185112696
-0.0034476910587045804
0.19283979083611152
0.0681496300888411
0.4798201721678942
-0.5378098109603787
-0.08288088306163234
-0.6757732270463348
0.05280178557218536
0.17291881747727705
-0.3360247720398247
0.4898956373427412
-0.019324775175781135
-0.29386851762766464
0.7687584757037832
1.0079218347137422
0.1279605266391565
0.2801616404294557
-0.44447028433560315
-0.6118814258942269
-0.7564492177574204
0.14424851634770086
-0.04469941382232675
0.02455597894009561
0.41114564559499794
-0.059692843489033
-0.24235067540175434
0.5680559717715441
-0.22898454509245642
-0.8774401646928773
0.9775316071571195
-0.9189977463953699
-0.3187239959878881
0.3291783922280984
-0.021650664725761055
0.011204052447476248
-0.5441147149949912
0.8605066225629938
0.08246556293959402
0.15407031157624823
0.6017057604777732
0.2565786137611663
-0.16274431924190344
0.30242414970999504
0.00853610633489813
-0.7924950499664447
-0.5182298260911447
0.09681851100936655
-0.03505963449615155
-0.1713642431699088
0.2744189414546756
-0.32889890149934187
-0.21586192895723152
0.7008959838839453
-0.21516254320452932
0.39219248258062234
0.4133853654331151
0.1415786819081087
0.38070372470669805
0.04670264204826639
0.24402517099365842
-0.803098508269751
0.791354430685544
-0.15721812622372333
0.32490868007464163
0.5443484484458024
0.2122085512511447
-0.5622382671491452
-0.011018225203315184
0.09083979522258917
0.018898394774200328
0.005579196682722016
-0.7736113493930653
0.37746348865681933
0.5456856172418435
-0.45450362399106015
-0.8606821191568939
-0.9336530358914179
0.5730193479031572
0.752920811079005
-0.06235284845619173
-0.3082589468537935
0.5507356854053883
-0.6196080707828827
0.7339046393637675
0.5675822669355431
-0.3372802933068282
0.09899059357615603
0.1314445982927436
-1.043975000032782
-0.6739072941866147
0.5196140945376848
-0.14582376860929774
0.20351398894367753
0.5442085480210173
0.6190097086135576
-0.4601976698357718
0.35094454585103396
0.19994462660454912
0.9313807005564375
0.24007709395934423
0.8187444122739468
-0.9001961348353534
0.3763669230731147
-0.3068430159232163
-0.6523415395282887
-0.09010965428451774
-0.025044949999241273
-0.2634719757793422
-0.11947468604209718
-0.7131491869380947
0.17528442835965719
-0.3727309477542933
-0.4049280401415655
-0.2535630725961693
0.4150320280068861
-0.44381606088138875
-0.06606497198941487
0.934316016233497
-0.4631936559664924
-0.23139991321477232
0.5834232373282624
0.28652500020720334
-0.2850279807747046
-0.6287965699948358
1.0474670064402194
-0.3319591250570891
0.3555256182704491
-0.24488655053939112
0.3605085459545032
0.3040336608812381
-0.1966749601000552
-0.12135905827285208
-0.014638924192926681
-1.0683799828974405
0.6016020263979082
0.2175866005137391
-0.3050205592423724
0.23709964962728639
-1.0170568124223311
-1.0137327406824532
0.9938662778916856
-0.2334158107893821
-0.5539713644647095
0.3949363897792756
0.07788137029495149
-1.2203584842418986
-0.4064594018290561
0.5546937965373303
0.6897717661341995
0.33406310304850445
0.16055569394878885
0.3702564331721566
0.5668116322653122
0.25902857467408097
-0.2668728567553132
-0.47194805233658277
-0.31654084325669457
-0.6137744304980511
0.2242182744940377
0.5667511294078128
0.4078693957370479
-0.5774416962930694
0.06550902371064334
-0.07268493608391027
-0.8519273456979523
0.2414941791996254
-0.5082046920644749
0.02268062616080896
-0.9055731022260808
0.587137897947505
-0.6056538135056783
0.5942062230449358
-0.09570530748883323
-0.40212093104847313
1.0259843751067268
-0.7181553064766729
0.9038090491985282
-0.4558797095234953
-0.9745813679056412
0.3046863118900878
0.40894621310595874
-0.008576489269246219
-0.08264796871958492
0.5683109896822274
-0.555508469523732
-0.6538668406739098
0.06069701263566191
-0.26697590413039296
1.1702269943494195
-0.42216743705819054
0.5410184998852786
1.022264871088955
0.5529258613572443
-0.3224046563616192
0.9389116288129746
0.7305911025902093
-0.6300689899480644
-1.0797561328366487
-0.03944774581720803
0.0906371092722562
-0.44327903889601256
-0.1412331379911062
0.18804667897101007
-0.30077053727297665
0.1785113831229212
-0.06141481145975229
0.782811853177199
0.007886901361715284
-0.08320009818180259
-0.1243692115133697
-0.16818156857965322
0.16576356880842316
0.8064543988039244
-0.38330046208018703
0.1663457357280938
-0.07089973369257752
0.13095298746399373
-0.11624174739938684
-0.07976129352275557
-0.012075030987917302
-0.044597306688749186
-0.4179283982459936
-0.43212507661218286
0.526958112315977
-0.46730941423700617
0.8079543334211772
-0.3292448815169814
0.16380409929193898
-0.7193639659519698
-0.3401498379564554
-0.20936483795474334
0.6939025680394724
0.06283624094349698
-0.07315674931957926
0.07473998681732232
-0.35396091634287363
0.33415880764859207
-0.7261886778110302
-0.4484672933933635
0.16304601293521806
0.2734680636663547
-0.39194753041524494
-0.275729881349352
0.2737018715533396
-0.38748328776890134
0.4664769268887419
0.603633099789531
0.24140600621318656
0.43279091924737123
-0.4596535979291245
-0.7099806247751085
-0.040468195013344026
0.359227600794345
-0.5909504948125976
0.09498790423981907
-0.36217102430897363
0.8772463007785116
-0.54014445539793
-0.2746911239447997
-1.0153975546060932
-0.15363654188106668
0.09006639206562002
0.7408971370695702
-0.42458674222569937
0.1343671714280903
0.2511461087753345
-0.17009351747777227
-0.0022120297466394724
-0.14729598338022473
1.0145617128417959
-0.18268318736931716
0.38413161449027455
-0.7222858262743109
0.34277343122992093
-0.9178926111717786
0.40767057586957844
-0.4345721419935119
0.6833314106655971
0.4884939761880173
0.9636729386915457
0.4613026298273734
-0.36081312937384175
0.513265310980892
0.022895073992464432
0.00010836423542123015
0.5747130225282707
-0.5157595526200642
0.221806354935267
-0.6356964512994698
-0.672586311207545
-0.22956199244518322
1.5218285326320327
-0.5418173246477637
-0.33251060280863143
0.2486892618381883
-0.10220476974293267
0.03494202684711602
-0.40237750498815394
-0.8362043548921059
-0.585832846009839
0.9233189153510939
-0.4110303611211151
0.36882752158384235
-0.31136652849727453
0.2675778817266982
0.41254418228532297
-0.44065188167704944
0.6342873475468828
0.4245690115511086
-0.1175363671431571
0.9098108864436354
-0.1339328512991902
-0.5627738890150359
-0.33126066611608834
1.029706395734798
0.026942371994345293
0.29190056067029446
-1.1265918570228908
0.38695563646510844
-0.23385619261976195
0.13347083053934075
0.3757342349648451
0.37970556789853566
0.7304620434481516
0.03967808445152868
-0.4366075626484811
-0.04891807520846977
-0.07092745157520763
0.20030575668377326
0.507958981743706
0.4742688529090679
-0.8893034688154097
-0.825206467183805
0.09831365009905654
0.057445489263044505
0.4819030063270155
-0.08975764520203995
-0.4875768513821741
0.30045315206592726
0.10026627349355771
-0.16631260352273447
0.37974604910977444
-0.18352964995411392
-0.1333029227137232
0.7600189688035168
-0.4395677091724946
0.7092138223590415
0.18069885793063514
0.6924073415196694
-0.36751837087474043
-0.28225007017367915
0.020189543253910473
-0.03676794129026579
0.324475905749441
0.3628397927795644
-0.24096600482774877
-0.024268927079531162
-0.47598488996635485
-0.4134821928546965
0.3452147497048741
0.7973942890672491
0.043793865647992425
-0.3544378995016202
-0.6149395730343169
-0.328910640356442
-0.7380550391445028
-0.5699710916084191
-0.2546997268430541
0.49183884628432756
-0.01840329236436957
-0.2830650916320028
-0.4982949893488328
0.18370737268353926
-0.01585485392867217
-0.2677412441395509
0.29144995305243154
-0.4710936575693478
-0.6643857783135609
-0.08924861656103396
-0.09076121397765376
-0.14496995548382982
-0.018814867376723367
0.7915067573288371
0.41850047394455875
0.2833267678242234
-0.31456684029133675
-0.7037389384152296
-0.5728727986505666
0.03954773681433423
0.33823225677654545
-0.0855785304397361
0.2552645601990391
0.7115239010241159
-0.13915891630487293
0.47763846632963075
0.20287038316304548
0.7931812659536384
-1.216231729950249
-0.4043368772976332
-0.5573723114480591
1.1385764449410372
-0.7501197386497203
0.4618647793007761
0.5698332463916762
0.004864767976428758
-0.10074132696866203
-0.6121034851556132
-0.10835261782693185
-1.0253917880250203
-0.11534045730215978
-0.5410888172688215
-0.13816408570159996
0.7146725533855371
0.12545091771269384
0.6283203946163474
0.6013757168585876
-0.3108964992993442
0.012082538921731875
0.27148300101665607
0.3520388730718296
0.10371911371023505
-0.8366942846634154
-0.43104303002498445
0.4353439094353386
0.10903136141956525
-0.2769222841384984
0.5845699917424393
-0.1907160882274515
-0.24639030259092407
1.1670145442503803
-0.15534714412944867
-0.30225710154239016
0.3495897110805834
-0.6021827934494101
0.17792236769264166
0.2253218322733612
0.32158418752448364
-0.4451432550504596
-0.20783917714259434
-0.10328673382076596
0.6634207865685848
0.9032651486302251
-0.7832167389937937
0.5115627679653985
-0.22399227819927553
0.4289182058365174
-0.36233293018889523
-0.0795146609209971
-1.2579686899655422
-0.33942659676463
-0.0960677000919354
-0.39815098190084797
0.09450906182995931
0.48379494001667905
-0.1334632479820315
-0.12869165089229356
0.20758259817039376
-0.7424781926858186
0.5829668526305546
0.8029493343710623
0.046269317464812325
-0.2759416789748225
0.45114059484669455
-0.5403818384870556
-0.4204873597708485
0.5445146269816695
0.21715580322952074
-0.10136859975325238
-0.4222475683153107
-1.073677568895996
1.1681645076366671
-0.08499713304858832
-0.29174330061420417
-0.0639220196700694
-1.3202259918453711
-0.8864497036872749
0.08918047375741299
-0.5122523569126965
0.5377505382789598
0.3003770734963698
-0.48462381197935217
0.41369991004446194
-0.030955117158093723
0.2944853954144975
0.30148030061691133
-0.4036998532576612
0.05028707761835814
0.317390966772937
-0.2740466525953182
-0.7452460531750855
-0.6034167215310225
0.6025230106430973
-0.5694010987768398
1.0638749762362236
-0.5086637954906793
0.24485071157455346
-0.8647783513924602
-0.5387121931956147
-0.2844485623854481
-0.026193535733357566
-0.2021292154316735
0.13766416360873576
-0.6071061181163847
-0.1860500776038607
0.07438109228859399
-0.824299343184615
-0.555467150821289
-0.23953643349927703
0.04727325277775023
-0.45922062180985523
-0.17456457129944886
0.1894456135065947
-0.05992217519378279
-1.0406522005574703
0.5001605915498881
0.2670060204262443
0.5020869410597496
0.6961632336658955
-1.0046883170116456
0.23604855413370307
-0.10492957148508007
-0.8837935140061385
0.1581205462999866
-0.060419789454848376
0.08442047525356537
-1.3190069207606756
0.3560230855397183
0.09293541194156284
0.2196205165802105
0.05885854510079782
0.29181791009181873
0.18912971432862896
0.6327029183789731
-0.09874711282972984
-1.411126353373647
0.4852378626715374
0.451698504113656
-0.23187087968843023
-1.0327876225857624
1.050612882916682
-0.35385217727290713
-0.04349944990486788
-0.15197920797202252
-0.4746536725437294
0.5047831036418184
-0.3253823220337449
0.08754860273609912
0.02075241938442729
-0.17060005428190633
-0.5178479141797993
-0.11656996639230831
-0.43659126712524643
0.6650032540870153
-0.01266058847097819
0.3921124733638485
-0.4422920812125427
0.011777989466747121
-0.04607810431943576
-0.08577404413724073
0.15052043361917888
-0.4477786089945301
0.2818912672894561
-0.2287487476440458
-0.247199348389051
0.3505726872864531
0.26932498488130646
-0.3547803970057682
0.23049520983062444
-0.27115228655368717
0.08641844442352613
0.5598526061293757
0.16234358937869958
0.17196070432113408
-0.26484537683806797
-0.36150716866664284
0.031081579123073272
-0.03892021006423031
-0.6817684546012871
0.1781599186847036
-0.30235333818637095
-0.6417188436049001
-0.6104535517524045
0.034984881353807014
-0.17580921821877668
-0.5762522925589023
-1.3357123361962842
0.09324620241930391
0.2541071821622584
0.5391049130842083
0.000771016186205535
-0.9149888771133308
-1.0218848566398062
-0.07932845797744086
0.5574366459169141
-0.292432070215584
-0.4734915055126919
0.30813921924032717
-1.1396060280765803
-0.08751310405648835
-0.5719477001103881
0.2140455325344456
-0.7478290352787225
-0.5497109403882577
0.18923582184563684
0.2537188032126773
-0.2080829213802832
0.18486443578874115
-0.0478815512814188
0.4540917219730198
0.5689159908876024
0.3580412029590778
-0.002941799493515692
-0.6988570519420167
0.20453833101610985
0.5780091500231441
-0.4590423111382595
0.49640143099159767
-0.7932968339750524
-0.18013013889759788
-0.05891370983780516
-0.041329692137438936
1.2679173108286086
0.3431549536136507
0.623571358129016
-0.13803203352161986
-0.03004207769710689
0.1358003330221774
0.6251228409069939
0.13420817405926627
0.3231353830117084
-0.44583488602654997
-0.4470947725272783
1.2304630307193039
0.6325239141116765
0.7995944854308671
0.016856788695498205
0.10185144228279878
-0.3900101002785502
-0.5508229075271457
-0.452586411819393
0.2530097146481423
-0.304706780033598
0.15018996916198638
-0.6524052350771298
0.7638003279911466
-0.2966763383904552
0.8928503158064547
0.387963568495863
-0.632286062551053
0.9565391545906126
0.8023172524828679
0.13928745233108147
-0.1684722955044626
0.8929324787640941
-0.05065110326899597
-0.04268895115908193
0.31177572265901443
0.6160289058549465
0.2192963426910859
-0.845483306513236
0.7160047266365936
-0.10367576920759523
-1.361276341374836
-0.019587401928583336
0.835039668786345
-0.09014638374660862
-0.62103010780692
0.2937512324703877
0.11169500190610396
-0.4339691982583095
0.36695764331043945
0.8327536522540075
0.7738834380318689
0.24131081886554473
1.1965399176572789
-0.6786226001228556
-0.11041347763270393
-0.2882273982297616
-0.45159236264386426
0.722577139382709
-0.43494903535828355
0.0696403513489158
0.84514696509451
0.4666176768547227
0.6488818385761647
0.017568234513549667
-0.2924060555644337
-0.5898645509879012
0.02211073949935237
-0.41329978267919587
0.420510546158909
-0.23390893849523228
0.6449014131505119
-0.03142178656044741
-0.788388554712799
0.09284333713280865
0.30464719091242665
0.7078639084774501
-0.10192431398505394
0.18537873685937978
-0.4060800457636428
-1.4060820523844426
0.007431725961487248
0.2221999661176996
-0.08811150191117034
-0.12352074657457998
-0.40425049224421655
0.22789983501766128
-0.05997165301478477
-0.36262301410670095
0.36094762527293267
-0.2967740289609984
0.1055662729945534
0.02865350780289275
1.3054856713157506
0.37097577532990506
0.1332531554306351
0.5594018727323735
-0.550210540857638
-0.40409729717894005
0.08122709738924316
0.38555545418863757
0.8631357611841154
0.08627443137099591
-1.0613361843557938
0.4263114298056994
-0.3424066414429243
0.11557932251211117
0.04596965110066927
-1.1819902008509007
-0.17259117754186334
-0.7262568965344921
0.0010953677058482495
-0.5034499717376466
-1.0570745289308379
-0.19891857676223937
0.11868091812694352
-1.0273488119076586
-0.31799820627170927
0.5353501967198194
0.03854289027631822
0.6250242631893528
0.38850887532809586
1.1003230127487074
-0.3026346503027061
-0.08321256389567826
-0.10372495679186489
0.3674653495040604
0.2955955742465263
-0.7979233928493933
0.5380266781580194
-0.05322845110803507
-0.4795837988935355
-0.04725104723181464
-0.2672472033389262
-0.8154115015763767
0.14756053093882784
0.20052405063604883
-0.1463261108320345
0.5503196488562107
-0.2822292006054914
0.18577115940359085
0.39844401678272395
-0.7863722529593273
0.5888681727688343
0.7985451784003497
0.37551122837457307
0.27204027106697004
-0.15251944611937243
-0.015171056818716257
-0.05030595613535471
0.13046551286742167
-0.02611698057643987
-0.11341561590714241
0.38662948782732415
0.4320012930948076
-0.4695803476858721
-0.1817902637620308
0.578582833631592
0.4341720795655978
0.5129488271177529
-0.6039655678886513
0.23424853379017316
0.26335791457334917
0.46871295942899527
0.6237565693756529
-0.37726572493720595
0.8622850174563069
1.1237380864846114
-0.5739529016316985
-0.2700188996978679
0.3647718343814352
0.2642658144574813
0.7603518356633479
-1.1053005211663283
0.24482683331803792
0.3206015246990038
0.16359428074589688
-0.09832603207951117
0.14890073512653218
0.2893818391260023
-0.7179335389484647
-1.202883891546537
0.6840471893075517
0.4779626370995154
-0.7790518544617826
-0.7356195724714825
0.5904769744057308
-0.4362640851240199
-0.10242794188592332
0.4436396988386816
-0.09012297974434859
0.4657791733720452
0.6748255637875343
0.1701334636395723
-0.31277218267228435
0.20302144916553802
0.4953279001681039
-1.1839666354193068
-0.13857898423559836
-0.1804904252316124
-0.37094658695854354
-1.534913369673846
-0.7697913265930069
0.3938384602456468
0.16175134295952423
-0.1413509171535487
-0.5204228831575023
-0.17943480077510457
-0.5258740889915903
0.21458272314220056
0.6391185396750491
-0.10710325258401637
-0.48527373191730383
0.014328233273869477
-0.10753691305388233
-0.6459042778523074
0.35891303156699667
-0.564907732874403
-0.17503347490227436
0.10131936430938306
-0.2912150313884128
0.07645123387424187
0.017069359345595492
-1.0995037723679124
0.13976264661754473
-0.5679498663094257
-0.17226866869182214
0.4144261500743748
-0.272438877173336
0.8536450575171468
0.18470376938045113
-0.0947264380655086
-0.32647431799012083
0.2704205242248588
0.054564183079554435
0.2347012441453292
-0.42985601713711974
-0.10310947023681612
0.3285923142688092
-0.09789715845745543
-0.5849271715751028
-0.8285967081285792
0.11051562163170209
-0.31725213474984376
-0.05154662354496991
0.3632989983175094
-0.578305887674404
0.24890403186666185
-0.13893633761316584
-0.9119782789178493
0.09533786804326835
0.024546064679956018
0.5269022833111984
-0.28122168501286343
-0.16903261507385914
0.5286752380070392
-0.16645653746557312
-0.25539440780866207
0.5955274565677995
0.1270077354235043
0.21385673453824533
0.19377314054624822
0.6900793716642782
-0.0029640478885739284
-0.12154426564603835
0.33463567343753836
0.276637079452236
-0.07205116245672656
-0.2063451315647521
-0.5568177761903208
-0.4136154426902095
-0.021995097412640465
0.5835564827523928
0.05587630849585899
0.08163465098921668
0.20569485193364342
0.1456177211166911
-0.33617408150499806
0.11027349769217326
-0.3125068385296799
0.36030995559289636
0.24182997170674725
0.5710477113687656
0.10494976691538002
0.08379677085859857
-0.0910491665602537
-0.8550270616934622
0.23019309296714122
0.18094693697885872
-0.3815757218306042
0.06395776887167244
-1.5394762869491623
-0.7197007308333745
0.3353815524430772
0.33430701890866166
-0.03335427575687072
-0.7148029197052574
-0.3248508132981726
-0.34238809186711966
-0.9677869194942136
0.46928132458655364
-0.3597232927958812
-0.4173830951116792
0.310250877746908
0.31789426670194576
-0.08019851795253773
-0.6020099231095845
-0.10204306389659708
0.27478941339699914
0.14793782083848406
0.07948827097415243
1.083730091486003
-0.3548767383411505
0.026675173643444877
0.4155274161468802
-0.16144855435897718
-0.21860173593407228
-0.0296027056590298
-0.5306297343431107
-0.7114364571721105
-1.658386493148801
-0.638442894538647
-0.05381609600851204
-0.22510875658834492
0.2522036769929633
0.5024736382466332
-0.69543352155078
0.5088448183584813
0.20594686309798185
0.7036527770420754
0.23604156754601624
0.5905096789644854
0.19683658233751788
-0.33617521811660067
-0.13237134506712775
-0.4910720849170666
-0.3543907451640653
-0.48319077727692183
-0.13552190170038816
0.3298384759369041
-0.6174774840200645
0.293334835136284
-0.32917057136813693
-0.4225609377429998
0.49042957784277963
0.500603501668975
0.7606619580650634
-0.579728832126321
0.009454732769559477
0.05508177810915668
-0.2686115483595036
-0.5170477081604613
-1.0412045918066275
0.2990730722622923
-0.47388365066870547
0.3005790235200542
0.5397783061408554
-0.6469414459252082
0.4012878182771443
0.2384408491653384
-0.3847696630047638
0.8216969727257114
-0.19442908259355793
-0.2544404607227416
0.3035202403442926
-0.08403825142607356
0.11697784008971637
-0.4121294431284263
0.8506471173441228
0.5449809004043693
0.09806637621629723
-0.3349185577017327
-0.19589729153872637
0.798395743390148
-0.18430107509934698
-0.4928238114476297
-0.10681864764640958
-0.17670979705941006
-0.2637665083078396
-0.7863164610715341
-0.5061711050212756
0.6169260245496551
-0.4039673409451142
0.8643633550014984
-0.4562830760425001
0.16432140487124036
-0.11094845445459602
0.2087055795388769
0.29084588097466857
-0.12276248473645054
0.3768324678793968
-0.06550481692772579
-0.6195268945202342
0.38963778644056185
-0.26547916486858053
-0.41537012301413184
-0.1376548933442341
0.11104686359536585
1.2419003940312914
0.10043838030903457
-0.23784705313289936
-0.3050896141252817
0.8381595928258768
-0.4863304897815915
-0.5448180866942903
0.08330239249120445
0.0011876411413312687
0.55288243639545
0.5010507568733871
-0.11434236422451231
-0.6272931164012249
0.37189392823995016
0.530515058245368
-0.27682633388410305
0.19040914819847715
0.9859656143948105
0.7226659060877163
0.7086428636495983
-0.08563684211051628
-0.3924190458130342
-0.13524268454127863
-1.0319996294915859
-0.5049321372592823
-0.6702847442387477
-0.1648043124865523
0.37828881339104287
0.7863673296863198
0.23444059630584124
0.41446395047836726
0.18105923583883335
0.23565134500625928
-0.316740922608414
0.8410908493351625
-0.4007766675621044
0.04644506531688762
0.2314771464236423
0.2288984413926133
0.24138245206369732
0.49495566172654587
-0.7909012798831883
0.05631789416341206
0.7234189945990644
0.7100110810321362
0.7134152720223762
-0.07353563339663241
0.6960202902886005
-0.1785104276028308
0.8446326689914916
-0.27106399023679395
0.6614167500041674
-0.0926887198670462
0.47765871926910575
1.0405807559486706
0.025849587391995252
0.07418612373785723
0.022424200185605266
0.10516887383829926
-0.4262246858604925
-0.09145804675548429
-0.1263986749755239
-0.04451889516493318
1.1890365996973635
-0.5574886401669163
-0.6117557102919358
-0.43362925534394164
-0.15680333201318733
0.1703451076345286
-0.9303766280497244
-0.08239553367953874
-0.08362115838356075
-1.248970965075179
0.23671284082033456
0.44830285099323813
0.40570520024128687
0.6218897660251472
-0.09195310101648475
-0.3387130387634461
0.08607217115294784
0.4426584097827105
-0.045345575196095604
0.25322369237649983
-0.02267500770636918
-0.7633644644204906
0.41925778072387615
-0.6456199503035356
0.4074909263722623
-0.8204864506578187
-0.22262607400859308
-0.7549327297749981
-0.5229286440814135
-0.42425056504121383
-0.19488792429069554
0.11073343436073264
-0.03146229414382286
-0.6787354265910585
0.30046032768770126
-0.26096937595285
0.008513209660748209
0.4325190610864078
-0.2931949870011442
-0.22896697606960933
0.5055342626390796
0.6072438397918674
0.12941292475923913
0.4039352664598964
1.2074095942148444
-0.991557441706369
0.037567168401170095
0.7693519437180804
-0.0028036118966680646
0.3536798766857762
1.0042470097015086
-0.6910277534655789
-0.26435044136556524
0.2829328588251287
0.5950704841739264
0.7324305119599114
0.033367895007743585
0.35930048861344877
0.6891848712460885
0.25834699500347785
-0.7492829709519256
-0.10638065829935328
0.28973973847257645
0.02348849494382313
-1.154511965906717
0.5141341260649631
0.6196038993211469
-0.48559790145470383
-0.11547565077141536
0.8181212350351157
0.5474011041802243
-0.23099191030512498
0.3750158785554757
0.02947651669224949
-0.03699129354942173
-0.7761012627509124
1.227416348177655
-0.3601619604655459
1.0727288360998304
0.3184220875178248
0.5201429002730501
0.7600867676645351
-0.41963517380858595
0.6471478240119687
-0.1080795617774977
0.6581482919767724
-1.0486933838029902
-0.04969868223920493
0.6446537226634182
-0.8076878121538628
-0.1529611127378662
-0.024469535074119437
-0.15997933649673546
0.5053676481993242
0.08862925929990471
0.07304449161035709
0.15964863022116038
-0.1500332115814479
-0.1353100894351157
-0.7364633055476947
-0.018112572006087208
0.25231112897040875
-0.09174947412605139
-0.21036900345766318
-0.09845927969075541
-0.23622532703139887
-0.21295545586962084
0.042797190472395004
0.06862584712124338
-0.7859804252872862
-0.27896446168461847
0.3003764975483709
0.03429227927177855
-0.8653448302100112
0.67415106625139
0.24610571573154383
0.006905024532701747
-0.02319135352491097
-0.36475215994183496
0.09844539940604546
-0.2535291471521982
-0.9749547985063298
0.2788067705153967
0.4212968580209671
-1.1345601036225668
-0.2515413015050897
0.765654328093684
0.16975590103070368
0.5027084368836514
-1.0265166150603549
0.7532373092149918
0.08079401738128068
-0.038369259059387865
-0.4419544474395167
-0.6728359316188912
0.31796282869578407
0.6148059954417249
-0.39180822963827944
0.03940958165714995
0.08787128973337924
0.7531179017557045
0.3513830573469486
0.2807108165650893
-0.6309385081888677
-0.5852919120681217
0.4582007556637759
-0.05781340513717045
-0.6928432090388748
-0.09333218537707434
-0.1478426288487696
-0.1145779809949339
-0.42334948680525936
0.20636994316685348
-0.06549532589442493
0.1117196846023757
0.06327395259378166
0.5736923104410798
0.6227756398022719
0.19550222109775472
0.17062618458204934
0.4696094493829839
0.3322858472597524
0.31766817603185377
-0.3601071195662805
0.09866502128282437
-0.8951460755291781
0.2039481870640468
0.909329364061458
0.1998004632287136
0.20074935990032178
-0.48766973522507756
-0.29655454849429835
-0.4062721371348664
-0.06566560994275901
-0.11605012638833564
0.0630220945564053
0.3076435853496201
-0.4522036362736857
0.5047039949347201
-0.18273130404641635
0.142323243097616
0.13983632806609558
0.3555112838700156
-0.06461755745330429
0.2857004137787132
-0.4662439242146153
0.1873473008126115
0.04160544602145906
-0.26960462463461965
0.5010323298990174
0.6478425128957697
0.20355610505412514
0.17215435891662434
-0.32794826065857924
0.3923482349298123
0.543399011943159
0.19388312254045562
-0.2665988294028803
-0.42040539186893033
-1.1971474945857647
0.05317636563027315
0.3353518311023569
0.471632257439586
-0.20787943742771214
-0.44151640997340086
0.30506118726891385
-0.23505526649533806
0.31736418681735284
0.17475734599764292
-0.02487009832566653
0.25451912685590156
-0.7464545924237701
0.07549877020356269
-0.050160800882760946
0.13092571476837567
-0.07417540515487123
0.14574269913018875
-0.4339394966763126
0.07551959048507546
0.36385355064043884
0.2219913122424273
0.5543979707913355
0.557956742845316
-0.16591499023627135
-0.7271333799784445
0.46896443658035264
0.0010673024836130043
1.0213865040466275
-0.42250470788136646
-0.12582395975073526
0.47236684444287036
-0.3355835939375858
0.22202858719929705
0.38009677405383563
0.15273157332945722
0.5597933105705729
-0.10188451588353435
0.954745864362737
0.2897787639107181
0.6372866793531865
0.6210169236266272
0.31286456897590414
0.47837474360742915
-0.3405460721256124
-0.37818660975705903
-0.05838851693045711
-0.11366541223555422
0.42070123364132
0.14317945307824206
0.43343152675389146
-0.11423212811980105
0.022826323854635393
0.49208920184192306
0.42476507722800455
0.4228954559725553
-0.6948198277377886
-0.39201920383187056
0.3410532852390326
-0.24622281473400037
0.596381236461888
-0.02359127005627156
0.8805674204878702
0.17560568219184444
-0.129865850496349
0.357811001455652
-0.9252953299216172
0.13408005433949055
0.578160238315668
0.5438834873326931
-0.20260386411751302
0.5300520915593392
0.6745241012541807
0.32104258704700356
0.2140130093699965
-0.057498942634046264
-0.36550342124043234
0.2669714931144865
-0.2977376164712467
-0.25314750447344836
0.4428425833785222
-0.29143754859375365
-0.172547539199009
-0.5906328881500319
-0.2593595699381276
1.0430375693793317
0.5832026071707462
-0.31832760043632385
1.470387751932479
-0.5490663683262141
0.27696426933465007
0.4165435674164859
-0.7646835904300006
-0.48946815680863975
-0.5829499376830152
-0.5073559795164725
0.8055105879817512
0.09600757425952827
0.019421569067303218
0.27534560204725467
0.8051057373345611
-0.30139256131777437
-0.08282480230915444
0.10171228589979453
0.013324770004262151
-0.14600594334298184
0.07101047057029318
0.46538398929362296
-0.3594943666164169
0.28195341929820317
-0.7817818801362457
-0.7491148476269338
0.49413675648610944
-0.3961099764621359
0.7101162073065238
0.8673010463985357
-1.2430726177416933
0.6164412590572477
-0.19288397503627636
0.006405132327451362
-0.5213234530973736
0.14894728083711464
0.3851638195155551
-0.8933511269611764
0.21234049860290236
0.3710034272338801
1.2884950962019208
-0.8822236460314703
-0.04283073236518838
-0.07235907319964043
0.02031091172252121
-0.20911631327565158
-0.17050163242901722
-0.0017100255783617044
-0.48173200737621297
-0.1475005506505507
0.018077970029544397
0.4493183101641344
-0.03448668567677741
-0.07437214193833376
0.04706154375172877
-0.39230796242990623
-0.28146268551976167
-0.7080299093424061
0.2520551824833794
-1.0003692493267293
0.6182941143886223
-0.04176417244798974
-0.23277363868583562
0.4241693825383344
0.08490097512584875
0.5471325512221196
-0.8197928381298052
-0.4229529324857922
-0.01246560540860522
0.08689505066560281
0.22467923542017548
0.4944269834635613
-0.5810595011946678
-0.25158599285560185
-0.2235731584738967
0.31113411200454927
0.4257190310889236
0.6345353586802955
0.2886506942561481
0.2881104949701909
-0.4501429979592703
0.05862585205496383
0.016596440191996416
0.30102783035370345
-0.9800174627733244
-0.06660899449422182
-0.6738117693293315
-0.5907870548582517
0.7043426058755584
0.08734976659678306
0.23500565047601857
-0.45207068120771843
0.6141516038883432
0.3002190534614101
0.664144592371815
-0.866371745616713
0.34297972103748875
0.06068084944191499
0.3356631126437008
-0.4790524272836767
-0.02135156059198741
0.6371890992754302
0.532468984062821
0.08193605888503712
0.8676104404981323
0.01607491239125234
-0.20693497530148433
0.4786186733379342
-0.4146305008585228
0.4852218304230885
0.2998555616565346
-0.5243029103726449
-0.45283547011737685
0.13937111240752095
-0.22503536787505427
-0.14607788172356337
0.5275007081978736
0.08469038438547428
-0.7422780463468504
-0.47937418005976123
0.11600575873962905
0.02479871275572693
-0.49663725288224353
-0.020518501650289966
0.19278950703342684
-0.1028413397923555
-0.776975884034073
0.14055586083114166
-0.2469236213295999
-0.25736918587459595
-0.3926200478281112
-0.15877413921037634
-0.1777102288288767
-0.4666150296280573
-0.38654062872395484
0.012910659312270594
0.9057834689858562
-0.3414242068488863
-0.024014841562587513
-0.16813348668423866
0.24196930757112498
0.15476066143076833
-0.17368701034214415
-0.5053453476269896
0.27771192069536876
0.8079160538841152
-0.5002179361116565
0.13385283594984135
-1.2721134661346836
0.6358520702771706
0.7624964220315387
0.11108137877459676
-0.8404199209604806
-0.7499745969280637
0.1423577008384356
-0.02555234027265702
0.8198614263692358
0.780065430443094
-0.47376904368064354
0.35280238331169755
-0.11599754162264077
0.0050763920729307134
0.7882576038889759
-0.3099264596627899
-0.1132295834282134
-0.5332464959131099
-0.23805465496659717
0.1621967093535495
-0.874584276620694
0.0725638584338555
-0.362970808329118
0.2725972781449975
-0.3593985387544729
0.3359938459855367
0.01729744849708601
-0.10737361140166451
0.18777217959467513
-0.5147319165699638
0.5275894486315457
-0.26489626340776523
-0.6843872467331521
0.029392825635692843
0.9004864849246376
-0.3325613710424797
0.02528375055296129
0.7784504021013006
0.44920455810673937
-0.36964562845835747
0.1873611265550089
0.012107373429031825
-0.4587515682636681
-0.30744778357106384
0.23078346788513546
-0.1088723292355621
0.07716341510518468
0.14166755800641978
-1.0278979260388188
0.8621366718942812
-0.6445109512742183
-0.9745584005091168
-0.387786204862577
0.3650910339283119
0.6369694553125188
-0.1166029047481663
0.291705410754417
0.32054066578411744
0.6285952931252642
0.6831852690822849
-0.0016650027780632012
0.7330396035875906
0.8787751562560744
0.08472789935843303
0.5098810639615617
-0.16709064933286163
0.10342490037780698
-0.7056830196243461
0.05804107236703781
0.8672345387170205
0.04768737059151745
0.1888725593443658
-0.20368798137607874
0.6710016665536805
-0.45100236372957025
0.461070936799245
0.055692926136078284
-0.20726417301852743
-1.2911478253623336
-0.6544535303814234
0.07295346403473141
-0.3180644242149769
0.8883757481469697
-1.1878388412623742
0.7417364124931912
-0.13038707299989125
0.5576433692459619
-0.24664904294210058
0.48688792589356034
0.13322913166991823
0.6085511955593816
0.02454014698022436
-0.4358533430998496
-0.2825120130285559
-1.1731792910684133
-0.3515302363814101
-0.03776802936207398
-0.14875590341952236
-0.1540671584326893
-0.9349170532657503
-0.03253600906846376
-0.8898492375629594
-0.5153672622080254
0.860424617705135
-0.13724620523751538
0.022848937997748623
-0.11034653348888793
0.6830256249178026
-0.47551099568276867
0.47634110009988556
0.2879794844146418
0.6774425430348857
-0.4720503841500098
-0.6283409240411743
-0.31443851679286555
-0.2778773948975859
0.7157490834280688
-0.5864420291335055
-0.507974475947012
-0.18505165461001782
-0.20940918866132244
-0.24185335284825635
0.24824164131136178
0.3851143563015287
-0.6226900435547704
-0.4042573966626373
-0.25975717098265205
-0.1234337797526902
0.25081228744483225
0.37368716890660336
0.395077382914091
0.19341632764378522
-1.2652431833986113
-0.5623102431294136
0.6855654395718427
0.4451862737805514
-0.20063822790714558
-0.8760000288060854
-0.17755878255245874
0.4305707210795436
0.5930245515093687
-0.45340791830758836
0.426160999909728
1.0416937314410328
0.055886444538421294
0.6677654403523791
-0.3068699076716373
-0.1475344761201993
-0.2924561846139337
-0.33470809653397277
-0.1455087164039125
0.0507167976192053
0.25975523177366444
0.3711661475134776
-0.7079196005144939
-0.5837120652761322
0.09805027660303162
0.0848769821899456
-0.13969684561967557
-0.21877821529149905
0.7129230866869989
0.022587843472187098
0.5976019856282748
0.21982551156907468
0.16643990754623528
-0.959343383720161
-0.5911638523334725
-1.2977120082689046
-1.1759971825040587
-0.3038689129829125
0.4882179270481193
0.02943350652132137
-0.7334200714598315
-0.04773013187161153
-0.13280078027783926
0.1935715048082366
0.7010316772430772
-0.2511416083951733
-0.20193695270152628
0.1875308143472878
0.6706089406029222
0.07410983058462432
0.5642431502382051
-1.2095250991558706
0.14732122099291434
-0.5770822482868545
0.13071365475798968
0.6004532415821774
-0.5033814670236494
-0.19065530798731137
-0.6982052413616031
-0.03142252103565654
-0.5568582159802042
0.2533430676436882
-0.8788511397975808
0.4586126669612906
-0.3449096170696877
-0.4271341451055821
0.8067387080938262
0.09990761935057
-0.11455935827924214
0.3173011186195802
0.7961309429211337
-0.1519683615533885
0.22051565054872435
0.06514489200285978
0.876669696611222
-0.29559250483822436
-0.35616396639281184
-0.09254031412847809
-0.16118797989122566
0.06975819406207392
-0.48326892666704374
-0.2878535868045194
0.23325543233843415
0.6546611680440836
-1.0796844417227676
-0.03743413219794726
-0.4457049334335147
0.022760011185912792
-0.6970822243992044
-0.9493363189965783
0.09597324832834837
-1.0496517130421954
0.45750358358824245
0.2312030694644348
0.3899692217112115
-0.3533459321792568
-0.3317071731633074
0.4377983886660941
0.07602363111729153
0.0596419146142343
-0.2798747109378523
0.4743650933121472
-0.21534073828256559
-0.29158131909525414
0.2504586099947652
0.7431738010583656
0.21513953800708543
0.32985590640992435
-1.0665120315737642
-0.1465469087814243
-0.2799366399459949
-0.1227006065040867
-0.29520545485780675
-0.3644009402923417
-0.06434470074648707
0.1528945148204267
-0.14893093402297192
-0.03267937863289835
0.010063765677596422
-0.6049385857425872
0.03180915188358726
-0.43759958908125896
-0.5302935856020565
-0.11856527153316875
0.19362140748581244
-0.5819676346239244
-0.6604629449784392
0.2423875909768847
1.0422487216397942
-0.07698393730754043
-0.3126407790395477
1.1771731749247438
-0.05416565846620692
0.6443939069729199
-0.39249980489658737
0.12833913035370859
-1.1612918520218516
0.9356806162840041
0.3727049531858087
-0.25495306353211933
0.9046012239950915
-0.554348031070823
0.7931196798273239
0.5605449578401444
0.044719743368200754
-0.48051002737916143
0.2987437019685225
-0.3410859347511799
-0.09209583871644764
0.9178278805077756
-0.0815318310178959
-0.13158882698040972
-0.3990516159311109
-0.009489792698135257
-0.38704329688104805
0.46409301403433395
0.5203400974386515
0.5567165323542184
0.6037654660733216
-0.018320626211724415
-0.16852425836793108
0.07189570687641704
-0.532607465871
-0.44638359815695583
0.11908664618769055
-0.052807597761902844
0.8261617415697913
-0.2501013409491948
-0.3076791577033256
0.3762659827602498
-0.03676969032143963
-0.020544484330899254
0.27530265567137996
-0.32106948246587086
-0.19655554257202762
0.5639524880555086
0.5242161797619752
0.09919051652528708
-0.26511629225798233
0.2725664942333746
-0.21041716268734836
0.5905562280850349
-0.30215371658826984
0.1893784093502613
-0.015585926616291624
-0.07083040911510247
0.37611080311686446
-0.5549575728612849
0.3565299711197395
0.600258977162095
1.2180890364301589
-0.689074860811467
-0.519002238140011
-1.1460743221861727
-0.8803371304274705
-0.821006239559153
0.21361149240213487
-0.8226674015215574
-0.4802247799142244
-0.06391181913430229
-0.3963678823181895
-0.27779861337108236
-0.13261898582374132
-0.18604384117466918
0.9052995010024083
-0.5232766378542903
-0.6267221557303579
0.013102088543226448
-0.3254907135105903
-0.027003396312675808
1.5907956006146233
-0.3235461358654258
-0.09496258615812962
-0.21658153991307352
-0.6802600957334599
-0.49786655792822543
-0.792803337249972
0.06463884026439111
0.312043499534485
-0.27131202942589994
0.0975564883947585
-0.16380108840755345
-0.015868588860326598
0.16028426829822537
-0.08642379780792456
0.7292022503697112
0.4733206996656772
-0.2931927103088535
0.6922729799912849
0.16952384199230525
0.15427722563580237
0.7149099344767119
-0.01315634974401205
0.5192211593483379
-0.3298409950434944
-0.15729668534280228
0.49037203297764803
0.004402976361365593
0.27138237928654235
0.2562551145193472
-0.3813300183427327
0.4428227825048275
0.6211917323973345
0.5762170290425059
0.46826500814458627
-0.599724968637713
-0.964181892456044
0.486756259263157
-0.18873363727559797
0.6959637683552077
1.3650481870964637
-0.3174492369609639
1.157383145516248
-0.3782398555454258
0.18631903631999158
-0.5993174815483453
-0.54908923807584
0.039523101466625896
-0.2348772616788785
-0.16475535597170415
0.3902854625138159
-0.5978774523455713
-0.5863164748547971
0.42243451531826876
-0.3150540697879508
-0.111638717196251
0.6447728767029854
0.09158058484466025
0.9790364288169132
0.4364624262607133
-0.21118022954954915
0.16361664211173466
0.19851466406176918
-0.9874884587311875
-0.7829830468527232
-0.7184282601297742
0.1159637683768054
-0.16502324937941612
-0.2851644531811963
1.0730494020148642
0.8940342721940483
-0.4476219373180796
-0.09707665214526229
0.09969307909973886
-0.7119441191019585
-0.24169964545905867
0.02590378214626355
-0.28706440675105244
-0.05895228605654351
0.5973727526159462
0.6523301376403238
-0.1400667592110601
0.02410431117471422
-0.14360862239502561
-0.2218552176906644
-0.09050321873772998
-0.17371050151375036
0.754997134659216
0.329872469649637
0.18064163917750944
-0.05779093255873308
-0.11275887499288638
0.17422741559710747
0.432904341794362
0.182140003577151
1.6809037962523292
-1.0300595127175927
-0.47614582863303695
-0.7360213348342993
-0.9486443129085789
-0.49255774682999987
0.213580444266617
0.6368297355862164
-0.1055663853866297
-0.23503125882409123
0.2139720197442247
-0.28533423384366674
0.35819473130965696
0.17252672617316284
-0.8634007273577599
0.14198487901152107
-0.24000004691098742
-0.10716419897007401
0.16134440813883702
0.2939299658414202
-0.4886712440590374
0.5421658190601666
0.3220397257553012
-0.293221958971033
-0.8046825401338594
0.05069836667857248
-0.5875156220513138
0.260070694044258
-0.031247267289370623
0.22259824215842003
-0.15331592986685427
-0.8430332195669639
0.33277947794937063
-0.1843036844728989
-0.05054343944711221
0.34238461617394467
-0.5288539607264042
1.2813440171827946
-0.7620448659552524
-0.09334191381518815
0.5306276299624857
-0.290196922537158
0.0037347101988865375
0.5146948767726895
-0.5311008678986628
0.6234985648331629
0.22368563580769618
0.355190465054188
-0.4356011475587217
-0.17636614343649507
0.35119299502570517
0.151548193137951
0.13697066253143378
-1.1269465673923456
-0.4547329854869879
-0.023262132804807847
-0.44460692935980944
0.2652747488056069
-0.45630070994960376
-0.16611374810032797
0.1646649813070188
1.1271366335440103
-0.6214659032083892
-0.03345811844032926
1.3486526351942452
-0.5142357534306866
0.5458450838385318
0.586735565067203
-0.06499289728785308
-0.27900093824532063
0.8454634745375985
0.43618572998318794
-0.12085987568802257
-0.0896259070362548
0.7548181580589945
1.0669272490994743
-0.12592719791275248
-0.11918243207776427
-0.5657512262245484
0.11390783584238633
1.0185399540738151
-0.04833553428880312
0.22404614476281082
0.4721728839475326
0.33383975156257084
-0.5332054286466731
-0.3400696292999095
-1.043724698776551
0.34368779751163
-0.3079700335130941
0.2671249824419066
-0.09761097156795724
0.5495214380077532
-0.21982179029882648
-0.016141970026044675
-0.40818614767089517
-0.12723392023045313
-0.1336620085091764
0.7870978389636732
0.34495548158635364
-0.4193020286728329
0.04592605461585878
-0.10773851388680686
0.6661684330776428
0.5648412929823793
-0.7563868361252942
1.014155306633207
-0.006498142915972524
-0.7882806887150404
0.2903485952308275
0.012609971880000355
-0.6546277277454681
-0.20229083275352425
-0.38740465837573257
-0.5983757436382964
-0.05278942649901778
0.15371030841915886
0.17453614755335203
0.9817488912879195
-0.7134593059465242
-0.1853613033757197
0.19755048039413822
-0.10733980286293138
-0.05597740200730204
0.45354134061445633
-0.2293169407017152
0.6775878254451385
0.18976189654925926
0.17376027866466764
0.0309973036911198
-0.18256258442569004
0.6148126497171341
0.3506190882245536
0.46973157745330946
-0.24000060296322184
0.43944280305328853
0.6703260761180053
-0.31063275777937865
0.372314190729872
0.4305586590610484
-0.47414016594524094
-0.14169361750104914
0.5733251254358444
-0.48024965089023575
-0.688507921583678
-0.38806747858374324
0.27862797917264853
0.20887615326291045
0.9153082957759556
-0.5407963962998745
1.011468666132669
0.5466939221486773
-0.18322173072461762
-0.1001224321885191
-0.6139227046830771
0.29783786302696386
0.007136009516200887
-0.6691375119174238
-0.2149316011034229
0.3004967730284917
-0.19227737045560914
-0.19245312422926594
-0.24096569214708102
-0.6298161793089337
0.37446993244713983
1.1506155518550978
-0.015448696837815705
0.09191275631057708
0.08039781103015153
0.5562921032093898
0.23680523307027335
-0.457948219957143
-0.38268841939473836
-0.017926014005595733
-0.2639984058607494
-0.6164963978489952
-0.11351054460695692
-0.5112273355899696
-0.284780229628695
-0.253426326487325
-0.27970435546663486
0.2968311520497656
0.03396394990892054
-0.12855583466761722
-0.3378063299362801
0.11516142708357768
1.2113191679388233
0.5123564304170964
-0.5293004167211318
0.3688139495095277
1.0677968273985188
-0.2129534403418955
-0.5257565543816028
0.6029429655691195
0.03352381434167669
0.24930342300393576
0.5405653862568527
0.9079631727101971
-0.8065431420380462
0.2625023227485424
-0.18324096134983767
0.5841954516027419
0.39337198236535903
-0.3461935129931029
-0.6751376811834874
1.1999955962996363
-0.5836007053955797
-0.48190451109211463
0.3471588720199946
-0.5079388694493271
0.8296824267959523
-0.6844851565295571
-0.07522865507400923
0.8479432751024231
0.7655258975438084
-0.0926606889751626
-0.6747964783824327
-0.1538574621643461
-0.9053352596867217
0.60957816565396
-0.28352552442681067
0.5875722664413773
-0.08290162117248426
-0.3089712821516735
0.2935576307581128
-0.022196446552907926
0.48613497000777356
0.7469652498835466
0.03822734322336359
0.4753321383629503
0.29245626090659593
0.14859207733097043
0.004900051805751267
-0.5916836312414012
0.02062025002181379
-0.6303038172202557
-0.23640434063412527
-0.48327082131958443
0.600848505508228
-0.0074429225271443415
-0.32159147167261903
0.026241861237764064
-0.455996957221395
-1.221269500613597
0.06520990311926643
-0.03642421663092043
0.02034768738627354
0.39295831103386264
0.48568108017303724
0.8247637018935944
-0.4474693339529353
0.26558161168293803
0.14037608963309356
0.5665680672844754
-0.12925508685342704
0.34063764484730585
0.5261881473345524
-0.08190014542224064
0.41743105570838235
-0.292867952264065
0.09694254593171732
-0.559324257356579
-0.4494107197236509
-0.10753557072797158
-0.055261710168947493
0.9832715405774726
-0.36850893996620093
-0.806246670748383
0.21949630744386353
-0.6998098878473177
0.02147127128577271
-0.8876854309725667
0.5584958306544006
0.3123742143150247
-0.2818001284641646
0.7733325339722317
-0.1460977606926648
0.49681032777810286
0.03433976677206499
-0.2308265976615981
0.5463631524956184
-0.332136062993759
0.37595976197152553
0.512238392718905
-0.36917889845123436
-0.03518396982485062
0.18753988982538145
-0.628329917022955
-0.07753931908981594
-0.9592922366556687
0.6299733950801872
-0.20057536203200912
-0.6302477540797762
-0.8376224803527427
-0.5424724978372033
-0.26215267089206173
0.6683664944953706
-0.2724539272389008
-0.06141847029222391
0.3016595406145566
-0.721001564180402
-0.7071031829243212
1.274938278521861
0.33171938270007084
-0.32126841354734403
-0.7398266646205638
-0.13190211897254833
0.5148431128694789
0.2731338972838436
-0.715467103877744
0.6499591468881668
0.46798261025580234
0.08202711485780546
0.40883691629944235
0.11857584494026324
-0.2642095200946233
-0.27755979666403396
-0.8438025228154615
-0.24808863848373605
-0.5711684973378338
0.3159135568095296
0.08559544837216111
0.31236507952881437
-0.35247057939116316
-0.0035767361394679134
-0.5989458817902719
0.31879924584743735
0.5447907118513458
0.21117467234034595
-0.02522981725208053
-0.8372969545039005
0.5873337710408075
0.031168720540947114
-0.43493990858648857
-0.09384934753374433
0.3603438708649455
-0.380880787533434
0.28921900945450757
-0.8133053827653487
-0.6367961846020097
0.39664610389267135
0.11469971614773009
-1.1932667703943853
-0.10282955525827421
0.015200839871347157
0.23466678611667918
0.3719055441224197
0.4827935374060309
0.7951380651285244
0.22705193460373047
-0.7297702654962612
0.024637869174469258
0.7715475403870765
-0.3333917566606076
0.2927282146406946
0.8705545513824952
0.014796126708354375
-0.7182574217107097
0.6132762750849926
0.6919356032872659
-0.16140502645995594
-0.4338455128747719
-1.0475483458997308
-0.43797244112276157
-0.045838927878071915
0.14340386456249143
-0.6565903003895202
0.5931146922737615
-0.9162508661608441
0.038698092673387176
-0.11831596269494551
-0.01837282393538595
0.3749870952561601
0.08964723670476578
0.25627289316922364
0.3378942022887336
0.5106273913882253
0.5615292033591935
1.1824457372629782
-0.1435410549661771
-0.39510618775290635
-0.4607662044561613
0.12019002660858794
-0.47547561920150505
0.362671772000694
0.009943374984086806
0.19375309762635992
0.5470228905728781
-0.7174903482510439
-0.6271243275079419
0.27405060535845055
-0.3106846957302239
0.6119914540036215
0.24074778761772164
-0.0444600444125614
1.0506714165050317
-0.02825908470388781
0.24598773445245445
0.9549208887133472
0.3833392121084407
-0.19794648219755856
0.3810189310944143
0.026033855772200812
0.41682969190367675
-0.3057600932492436
-0.45514052017250284
0.10648872698026532
0.0729486293724464
0.4828471371705244
-0.08272767850066377
-0.03801453246493919
-0.11186157207988809
0.2988482364434846
0.4330443526907431
1.4645091448407626
0.46627153675087524
-0.04127447556086643
-0.6213158604649224
0.1491521211082509
0.6301277971582306
0.7756740443440678
-0.6607435196717778
-0.19300200927052313
0.7403927168185364
-0.44952115205301796
0.23437964852953552
0.23537213632576115
-0.050987305978326875
0.40317527545914156
-1.1750229099540683
-0.10053495546518035
-0.3320184074270913
-0.21313762420014215
0.40705488552907043
0.4235238111935833
-0.2843251309986397
0.27859823073836265
-0.11591315271744172
-0.5681600741732962
0.007161339099958604
-0.25993854282969064
1.058553987633823
0.23179430201554269
-0.5594988480111096
0.014057160676143692
0.24646744829278125
-0.534220197462068
0.06701320802822618
-0.08274198006359061
0.03556813572211876
0.390987775432777
-0.3870385859709886
0.9777438720815809
-0.41485596977011896
-0.2684567251010226
-0.5355087636068091
0.790929042463219
0.352006640251765
-0.16815382728169062
0.384574823283033
0.21819941254709127
0.42352215150041034
-0.44385095804214375
0.3930792582648902
0.02109306060832085
0.49239084886252604
-0.772406111706267
-0.062444558414955866
-0.10812288975074018
0.24869683723776806
-0.09409832250262706
-0.7894735201420647
-0.7721307137116108
-0.8761298925699451
-0.3718359258793359
-0.6390696987617219
-0.07558614052894772
-0.0021368922152527102
0.6487450408726138
1.0624552584046307
-0.957830736392156
-0.17961634949871888
-0.4034631172667738
0.27409776287800913
-0.7835618807905896
-0.47529696416091494
0.14216478190108792
-1.273733085146554
-1.1162539209065532
0.09329331042718936
-0.1198357162900642
0.5529446351617168
0.0905357823110259
-0.7130507713152182
0.8420106516390149
-0.14703353361712843
-0.5727174537851629
-0.3000389280754358
-0.025331137799369487
-0.5064466690645127
0.6665736955235907
0.2869604696883884
-1.0476759226597032
-0.3202062559131643
0.018922353258946083
-0.3767962168193721
0.08651945146067347
-0.023340203159864147
-0.09352969179231507
-0.26612328140167185
0.1664773532527101
0.4983973804479034
0.4288738043777194
0.3448637473246477
-0.041136171808375414
0.07094131391024935
-0.4172827845988687
1.952496889679653
-0.7638051171029757
-0.6602831985723361
-0.5292124825300004
0.016645235709516478
-0.4883320111099978
-0.1688720595775818
0.42170561942573803
0.8082426403135481
0.014418547133811667
0.12415026714133816
-0.2330181238411632
-0.18248282458452547
-0.624270177775313
0.47168568595515376
-0.37989548246484833
-0.29682242350371807
0.2019370132438995
0.5239891663068285
-0.042336725523555906
-0.03337772797478779
0.5052627202307403
-0.021613957814371133
-0.09674052207645313
-0.28820494787423395
-0.1776602571533935
0.21895621044981764
-0.08406090810330716
0.27689713033478097
-0.06145306019355278
0.3912847079732211
-0.273916783057176
0.4110511677701509
-0.24631454834499528
0.8086490141781917
0.987110599950218
-0.554756637256919
0.5874678272166038
-0.182181805279507
-0.48607148526155575
-0.24763512346787672
0.6199632237124392
0.11689432900280669
-0.16272752510990543
0.3601855591039933
-0.015370018098507066
-0.582910269373751
0.5199916862725017
-0.23986272500631567
-0.81608604099434
0.28173287707080197
0.7386059201726546
-0.6548295578523727
1.5288735952637615
0.1372330967958774
-0.24930197434319235
-0.2857776212127745
-0.16966090537763387
-0.2948683055267634
-0.5900081620080164
-0.2028078484097964
-0.32582703324116263
0.3298571467677373
0.29474448666217035
-0.05676729992514322
0.08090198534901066
0.3161004462196534
-0.6505125330050191
-0.05335873225197003
1.1783030393898581
1.0619063488494425
0.5742070574933704
0.09262991889601907
-0.394867565573958
-0.9316668166447384
-0.4859396327685961
0.12278751529197454
0.2684477916823706
-0.8606554444262178
-0.39796901518713174
-0.8302101904398489
-0.05650667138787689
0.6911894801896633
-0.16119143421495044
-0.24584242262359243
-0.4678755745628235
1.2380358664141518
0.0502775413462695
-0.15597795111287202
0.08779962308159857
-0.17300925211213528
0.6339292365929345
-0.5499378836706064
-0.5001474576255975
0.017351648849228664
-0.8295796803266882
-0.43344786814843894
1.2067523545914256
-0.4410386260961283
0.35198528290435865
0.46618330007808134
-0.22896800384253072
0.04137305369979075
-0.4618799847348312
0.07719115719289302
-0.649501655881032
0.33430005626872533
0.7572301317597336
-0.902281193769463
-0.1569702194588312
0.5206702233663698
0.566557168177918
0.5867014025546842
0.0689583393670367
0.2194488479564904
-0.5530435197852394
0.35130397481360365
-0.24020686597827787
0.36174591327893585
-0.4661394096605727
0.2768398096130158
-0.3611196568003908
0.14567110777912895
0.732551586419487
0.055953201657332294
0.26799166626215626
0.46131332338138803
-0.21387259329172623
-0.01478087767897503
-0.05735170178097374
-0.4857983136869111
0.2721530725731076
0.03754751926903568
0.22397048302832034
0.056017026942087385
-0.313904945204545
-0.3997664308066121
-0.9492733235745011
-0.4343615415371953
-0.436994688931681
0.5618987594552867
0.3453750496663769
0.08059968651658087
-0.5458039153495217
0.0034907121860142994
-0.6454122764659331
-0.4362735573680662
-0.44260262361205993
-0.43484834569979086
-1.029477816150855
-0.7096784253732168
-0.25153714534134836
0.47222023176560635
-0.4792341106562346
-0.3403736364909315
-0.12198839066172677
0.03241018719463486
1.0089151535595173
-0.6092895863622636
0.6477761453284148
-1.1390439113303379
-0.42509758575319867
-0.5964592657762554
0.21522930284892797
1.1015631484880744
-0.450259958527326
-0.4954068786331767
0.15329275044101784
-0.17981592895000367
0.11277155395646785
0.5316162272271576
-0.22805869969578474
-0.5535972768279279
-0.6645816779233336
-0.17128153000441854
0.023490541481472924
-0.4696046497328021
0.9758009290236774
-0.13350347012042094
0.8343273009539047
0.36139724956142216
-0.5107620253834821
-0.012400921348506948
-0.5017389407698085
0.08563831936239974
-0.4841858714418291
0.1079723418024966
-0.6103473788982332
0.4124045332343514
0.8070778625320243
-0.9865502753445353
-0.18490376227505056
1.0807272953778781
-0.33941106088259254
0.5144340718094229
-0.5633408754626248
0.03301432529755389
0.03922268569994966
-0.6048622643933195
0.1815489498178373
0.7510328316837449
0.09037874803468007
-0.4822331438159978
0.3119120440255485
0.7293137642403222
0.4399636767169393
0.036430354806983506
0.14755125446412826
-0.13965478218266605
-0.5461689168997627
-0.7432139557516295
0.3382614443004917
0.8860897545810869
-0.6129310609447854
1.373102707298285
0.03374447504294577
0.040700740972184235
-1.1109249415093514
-0.02095766730540826
0.5501350494775382
0.2285707253891584
-0.34837774133519406
0.7240710256308706
-0.0901977898749695
0.8115869447470431
-0.25089438173071354
-0.5919898861731124
0.18046948239856273
0.8849227725673927
0.6098676580317267
-0.11725417798056702
-0.0060909506273313955
-0.5403570997363247
-0.8988825057254985
-0.5419945124324561
0.5894271635782372
-0.3502439408807305
-0.25254460130944095
-0.35035622520791865
0.6785238654591869
0.1945065352384241
0.24966578216961913
0.47543672122878905
-0.23134489331458272
-0.8758787036956338
0.49611323509726357
-0.5167355438169589
0.23761962529647296
0.14319567188871793
0.5502425127569714
-0.9525116722033345
0.5780586903093182
-0.6228509232125307
-0.962799615998474
0.7757925341674535
0.01549134917355697
-0.22192998144990395
-0.39088691655401725
0.3593911358087536
-0.32156283159785876
-0.6313395862393018
-0.7233143336784833
-0.774443632425907
0.8503325409589186
-0.8765189532709169
0.8390611447982189
0.6091599737952682
0.24392190918111906
0.3178362724767861
-0.6100943259136864
-0.1967678195781806
-0.7130101264206745
0.41719934345251314
0.06663612497663494
-0.9019770516631141
0.6143748745502282
-0.6524984024265489
0.8923934708417098
-0.7941828942689743
-0.01978255115936592
-0.16987368958168308
-0.18545108772621327
-0.3590046038336217
-0.641528207229246
-0.5228352299230724
-0.614560048767932
-0.656438595714289
0.023938812811941487
-0.12221305674758484
-0.3517036843815154
-0.20627232880033203
0.3157998820356377
-0.11772708150435575
0.8616539353487536
0.6106673183607705
0.006259274657855767
-0.5163112570464703
0.27242721823409305
-0.6186715300649795
0.2850513034821987
0.7109829273476078
0.657936631109025
-0.010198193726228523
0.3423087642762929
0.5937859061069912
0.09631564386314323
0.23538611199287657
-0.7999292983207555
-0.7293927135119402
0.49819332711421294
-0.11277251448864299
0.6716393168888815
-0.001435076926503251
-0.3079701111353436
-0.23801178128046702
0.23710965637620282
-0.4300438257940891
0.08131074785949768
-0.6978056703098153
-0.30185502023747346
0.08323115836660219
-0.003904451398231594
0.7579081481586122
-0.3211752086597205
-0.0749262039721734
0.7717152462911554
-0.24100835045988023
0.2901774352699598
0.0639194660863978
0.5874508754621107
-0.9161216878923376
-0.3210900908557073
-0.7635449293867324
0.25594350455033255
0.019913897205863507
-0.5101969192530746
0.09902787094976011
-0.3622001562370294
-0.25431097756541426
0.1699920945280915
-0.9310672408145422
0.5774016902816373
0.35497199135885626
-0.8840377804446388
-0.8254963473770428
-0.05819725780764093
-0.684683988373793
0.04206642985988495
0.0065602580520429
-0.3557549015834042
0.3768291108863855
-1.0893968398262228
0.6301554172593964
-0.43198990836707524
-0.5665023477944506
0.5266635316060044
-0.9801205457473652
-0.2803200597584827
1.308761108128942
0.05283442483903572
0.43047501388001774
0.5150380940754994
-1.1340303700907255
0.17585719306545106
0.07072471604026549
0.1521637409899253
-0.4601129816230194
0.3565953008573883
0.14931554297303098
0.0439819488790521
-0.6084201460071037
-0.006241155218826021
-0.4197140459877297
-0.3256136060939013
0.04865249369309763
-0.0789430331957107
0.6034960970222559
0.21382630958349208
-0.6629183242374821
-0.31089044030990454
-1.0361014967288713
0.9912714498262334
-0.7624987083716843
0.5779114815539312
-0.3861458141707812
0.3526549168206925
0.4065390831450146
-1.1851331020618228
-0.7831820592925457
0.5112558503503103
0.2628739104770071
-0.2716392244992631
1.241012911141457
-0.16507803177834424
0.005951285688434319
-0.1840824679411254
-0.10932865536769633
-0.23756989868492379
-0.06980607837130712
0.11109764074877494
-0.1295229264516906
0.12220253656497237
-0.6504101481559059
0.0520602841108951
0.28772266472663394
-0.5678683825972602
-1.091778636502898
0.3495835688753011
0.1264675217304745
-0.7346382425456979
0.4282493721477094
-0.4203840204609566
0.15560491465458062
0.4674034842176069
-0.46605054743671526
0.10153506402714824
0.509712396335208
-0.2713933920596163
-0.03741288834130672
0.4680840698998488
-0.10887984645380291
-0.36978814308620866
0.22652230851761063
0.9879965763473398
-0.055456117325018484
0.5143673715754447
0.3356914157863513
0.5333829779567055
-0.7013797218086816
1.107466480560417
0.2574083576616386
-0.16302715300358966
0.31236143187641197
0.48419791696200276
-0.8808208434813324
0.15245690119040833
-0.5877747498338511
0.130482938065119
0.1747953021751657
-0.23564921398252348
0.16359901957310474
0.5529745146108538
0.9084993531150584
-0.7626061472933545
-0.3365822885448397
0.5633066238732621
-0.4220366732354518
-0.4357549922490836
0.013246365924729706
0.191372309110877
-0.21080102124600453
-1.0887643741395359
0.108429790601053
-0.6032472261921961
-0.13128094994715894
0.2990788836779636
0.28688604450745725
-0.0025877105407173806
0.15329725269488256
-0.10929644286890032
0.2721515595662164
0.052619602923443705
-0.1934576761912284
0.22952147833937414
-0.06624528191618217
-0.23053142378103011
0.9297625373823096
0.162391790631456
0.5853321033725454
-0.153259161031102
0.4285235497099932
0.8196110802008999
0.17268686034824055
0.03733895706833982
1.6391574346983244
-0.5634573131418948
-0.8128753115122003
-0.5766895500307779
1.0316139676227327
0.14787939131664135
0.05630638260208152
0.14390394089272002
0.7113180754793735
0.2713835685736902
0.02139245553566463
0.6604687053337612
-0.4288042721816825
0.34274421730107957
0.38752626472143953
-0.17593199479179472
0.06257010463595945
-0.09851339153796201
0.5851739833255061
-0.05579836014987682
-0.7479164086342084
0.10269198779541722
0.3531536854049031
0.24851732558005843
0.20436094833278332
-0.723232040956411
0.22213027480740138
-0.26463770356533917
0.11965360272244983
0.3174858499530265
-0.1449590263298507
-0.14527940538326015
0.7224120597796458
0.6552225228264287
0.09950006059591243
0.215745610619401
-0.09586453170715671
0.23603645630902614
-0.16901013440923993
-0.4296501153623588
-0.7811946151602915
0.14851665016960763
0.09391998867763399
-0.2554195376279625
0.5565455935310353
-0.16929467683706206
-0.05645505434503609
0.5416273506283998
-0.21792942494789636
-0.5819479043434976
0.5217252761095529
0.1599053191378941
0.688156654152508
-0.11682926530816923
0.238376980882276
-1.064781283780333
-0.5046961120636088
-0.2985755478858026
0.11094772920349091
0.10202812248073535
-0.19270383127423296
-1.4035077909040643
-0.10162016634972175
0.40892985273846616
0.11416258450792933
0.3517680459878832
-0.6820536271406912
0.3696648161629915
-0.19024253626968787
0.19717456856581828
0.7870686434253528
-0.2297262576347848
1.0566264390858624
0.4375363308042652
0.6232799722408046
-0.1282927866791793
-0.23509440677872026
-0.5224023237917755
0.27973257858749706
0.057550203606854936
-0.05173028250112278
-0.11198974681185096
0.2800790344158294
0.156386907028701
-0.0942076123237998
1.0044028481286038
0.8929829804617536
-0.18423332885721458
-0.6390252717920426
0.5553410037896187
0.25958323749223416
-0.16500409112966716
-0.370097337880466
-0.7694401250206879
-0.6432389482708174
-1.0427850384106523
0.24739569445276607
0.22537350897196193
0.4030786291237138
-0.22006101644443476
0.5601677696761844
0.3347755451959748
0.25647284834221284
-0.04365737795693876
-0.05615439782894829
-0.15895816336951119
0.05189692586728593
-0.2811480793205908
0.3577481278912666
-0.510069824340623
0.20071552268993959
-0.15784555559363295
-0.02571016202083667
-0.2385374945206239
0.6233291512884068
-0.21932907272525842
-0.4360543130914885
0.6108637487833647
0.5858028774184283
0.6133143903070309
0.5303321607236661
-0.3537584528830681
-0.2776311698157469
-0.1388045278558483
0.9183150410383245
-0.5073159151290756
-0.08090973521172946
-1.0318690877779721
0.6448425035349252
0.2090960626155009
-0.01608353326721508
0.03096035145946257
0.1710907347092337
-0.5210195842521322
0.3465050068215511
-0.32542222314103564
-0.21724581902397513
0.18505656093248254
-0.5699913930315151
0.5434688074807306
0.8509875773737712
0.3862162681381282
0.5020942632985629
0.19328089663498854
-0.3118122526038527
0.3246915727216997
-0.5723569326353262
-1.079986848376741
-0.6323967816184899
0.5097453844157509
-0.6818904377350005
-0.38063637446883364
-0.2059828902312953
-0.14682310471162205
-0.32613418134230615
-0.1260922499368269
0.4545355690013086
0.5671703894225907
-0.4134656211124582
-1.497110948562282
0.0002476577588240302
0.00678141944107552
-0.08171582528237023
0.7366426620592744
-0.006300298079427804
0.012262827980747688
0.3883416938446754
-0.41196773013973076
-0.4495829988429681
0.1400794635741765
0.7334004248391132
-0.22052573447679544
-0.12421978561292332
-0.13525917810628352
-0.5159752374222754
-0.14344766570220832
0.6843542035185625
-0.5538281076849707
-0.022632950003391095
-0.002712545366812136
-0.6522429632857649
0.3038007167651206
-1.0263115445821713
-0.8258336934370445
-0.3040691495742976
0.17642488910861895
-0.5728659139705988
-0.1258305482870857
-0.12960794479872534
-0.3174914457667182
-0.2380143257647626
-0.8772341230863393
-0.17646909961439924
0.4930525821002372
0.30073824248140274
0.3031652742679413
-0.01719178709196386
-0.13588602883276774
0.16966507634346145
-1.0644390715874983
-0.39561949520816314
-0.5022362976083607
-0.3594457193650912
-0.17538418294469452
-0.39713401303159984
-0.22636960951934323
0.30961510375105555
-0.10599189379389236
-0.3437456301460361
-0.6391331868599873
0.3184286366409156
-0.4059398809927299
-0.18155270488588515
-0.24152263573942415
-0.16086786427292013
-0.02068194831805868
-0.040700120771026284
0.7809196848889427
0.9793610221871828
-0.0012017936588980167
0.19686817846924137
0.2234789098444959
0.019708499036781076
0.19314778210113256
-0.8707395092473196
0.013702990748771694
-0.16768821073768328
0.6991724879507465
0.49797846197151613
0.9417794524562942
0.4772794010615781
0.5406882135723433
-0.35835809944857744
0.6348785800354934
0.27925379102117687
0.31369682918683
0.5343586335518301
0.47470239954604904
0.536068827945413
0.5524192402422061
1.0883699907683404
0.15872435550798922
0.36698137848953677
-1.141852773496542
-0.7567001545313243
0.1637103612765729
0.4038983829489767
-0.14925433433024665
-0.43394500730519325
0.42173344065837143
-0.16987168053610913
-0.32570426041310213
-0.29196813054880083
0.01007380612846958
-0.40123368037245966
0.9310436712531802
0.03396207639369084
0.20098244471227117
-0.14772739836954046
0.045952564951245556
0.37006351568328333
-0.2021279947875045
0.6339297242603689
0.03925247444530533
-0.04311747734675862
0.251415354676554
0.40197157720953136
-0.8637290201631047
-0.737213289008655
-0.042668247638543294
0.3244945116906142
0.10255455436347531
0.22015536067023833
0.709651362352754
-0.005913980353358446
0.03797764824468657
0.040873525182676625
0.10287305503939058
-0.13852685630541267
-0.31285946350255406
-0.049956308654328124
0.16014830922159778
-0.25850573589912873
0.6951727166785036
0.044253073517353796
-0.5226662545984051
0.015806461527327304
0.47346812067656796
-0.2486304634184061
0.6746717890128031
0.1877901175549724
-0.11412542367176945
0.05121864800677841
-0.23208432669584145
0.11445592508954688
0.25137268788430356
-0.38792078013717235
0.05009224812937012
-0.3926591850544337
-0.7562587214482678
0.568933158421805
-0.5206140351075927
-0.2121480564674564
0.13507744676443048
-0.14784901093240085
-0.051569518718433266
-0.3335369286614631
-1.1573715534043516
0.04535549900215463
-0.7678418452724367
0.41910702235637787
0.11617387444116382
-0.3306491091525877
0.5068626290952345
-0.700461126773538
-0.17732196540997014
-0.48413712068234177
-0.10099683165483497
1.1196065869237966
0.4375237708902109
0.4097513797506733
-0.08125768653310224
-0.03851992519651515
0.17128185986895295
1.1650055845178235
0.6384613411936415
0.161533218667737
-0.41593299536242573
0.5474020467674103
0.45427023121008286
-0.06391733495867187
-0.009155797256753553
-0.045899533837873666
0.160265450783018
-0.3136594761755963
0.41271952053464095
0.4700635617160557
-0.23018084469429007
-0.21554550695945274
-0.7804425684783514
0.0333569833791551
-1.4229825012968433
0.9504221759488993
-0.15447455772424432
0.32642739142006144
-0.5524460187415872
0.3804912561294296
0.16256171519660287
0.24488308565875616
-0.4243076632183988
1.5444425294404232
-0.8584014551655862
0.7127239436853015
0.32175922630329473
0.7075900999928797
0.20831216219906099
-0.31937502955663494
0.4399969343601114
0.0006297139273474014
-0.17510624030041402
0.032409602493919124
-0.4930241962978837
-0.028381485107672345
-0.9286445651330721
-0.48530393929663496
-0.7866633219900473
0.3433467606160898
-0.18239995460862066
0.47264193722987463
-0.20463554782853707
-0.1122645405935276
0.6330597465010522
0.6440227006712081
1.2018068115015674
-0.15823246275767233
0.360693029564325
0.2865293684501108
0.4491324450585542
-0.30357205129140546
-0.15173632857104055
0.1571078416689699
-0.541864351087434
0.32498749939925076
0.2533952533424229
0.17557145406308153
-0.5917333190506732
0.4929819629411028
0.11474912715272986
0.28590152175218425
-0.42169210928603634
-0.014113571269149942
0.04527973934835335
-0.20521363067706225
0.028119909823210124
-0.18964924207103026
-0.5213734609708953
0.4194056124975333
0.20505728822045585
-0.7476896697382469
-0.1510121251372301
-0.3164757840369434
-0.27524174269037754
-0.22196050211526355
0.684270337503115
0.18314010493625715
-0.2535577513317556
-0.037836480059309424
1.118604405720529
-0.442814957239288
-0.32405016184744856
-0.13025703125578184
-0.30664540176827415
0.4649922213435292
0.34537409560832716
0.22271775462568477
-0.0658988468254743
0.23674526687280512
0.2567598104020559
-0.043108227761124336
0.6482783871886065
0.2271062029262184
-0.09801139284338624
0.043784265594882465
-0.16302664121810415
-0.44338842505851955
0.3832340949561971
0.1222546437054508
-0.9404522372646801
-0.2807054864451971
0.15514863240329715
0.10329319349891171
0.49618848239653257
0.3829713941045836
-0.4382008405086335
-0.6752996147836303
0.16331848772259366
-0.724324162766811
-0.09867986397624351
0.09295003581157794
0.23762627638544576
0.2780931563681092
-0.3413829992554924
0.40510692010848903
0.13313503285361583
-0.1479973337527379
0.14288359601604264
-0.11397271339138866
-0.346655643514172
-0.22690179963951093
-0.10689902666980997
-0.2531529815860375
-0.35484367082042423
0.6288004511152218
0.41256461024713037
0.6732485930052539
0.4286944865530045
-0.21413371087347027
-0.46630316412727435
0.890203968734485
-0.9188376142149233
0.07516059061497798
0.39096204100442467
-0.0847728418832881
-0.21961754923979918
0.34471558395743007
1.1085514213381744
0.5453884510167601
-0.254863884879204
-0.9062162005201413
0.04664858170500544
-0.42018306159801533
0.16318195034169683
-0.39563985348718755
0.18822543625554686
-0.31638024085631555
-0.6933818095442713
0.30465810588201314
-0.4780765916998588
0.381966402093825
-0.12817178553991082
-0.5611148914729203
-0.08779328716449643
0.29101375643994765
-0.1440240636659655
-0.9763965318117273
0.6283937936243991
0.18785321133525273
0.8588282500211126
0.40059591509536735
0.5531572333516279
0.7289926180478423
0.9123380693449112
-0.2710427633247622
0.7798569160529335
0.6150966174491342
-0.36032071556689943
-0.051279426256533533
0.6859758009482636
-0.14388956886930004
0.46128423427388604
0.16548946352396757
-0.2539037370928669
-0.5042336388897704
0.011662482397874032
-0.19446641668655018
0.2736817085306614
-0.21155422144405517
-0.032567141292631274
-0.0666251993247089
-0.7791033809171769
-0.7628054499761078
-0.8140765997976892
-0.15986719843407718
0.2726154847922128
-0.042449654561580875
-0.13421877983276068
0.20906630516524277
0.05777611923383507
1.188220657880041
0.09572027973268345
-0.1802625026299353
-0.29452713209463105
0.08883308497600295
-0.09217880704624966
-0.812006221536962
0.5143200291155592
-0.11514665741858675
0.3842491164636332
0.7073322847076475
0.5311431935071974
-0.3227641038781172
0.14705633935375273
-0.8669961037034929
-0.0708645719293826
0.6972319105736812
0.42955682642762794
0.9527199266561444
-0.7983678520857742
0.47588847269715906
0.3329692651139529
-0.6598489698607249
0.4452723732778894
-1.1338367122336284
0.9511959925003853
0.742447246670527
0.3131280359540633
0.8508313508432901
-0.04938877532885118
-0.36596559682516827
0.8204163565065964
-0.1997904626879299
-0.2904063872312278
-0.6649720734085616
-0.030011254322638396
0.13018433675783117
0.7557722120089458
0.1955398824965463
-0.43256681115753276
-0.7022925658472202
-0.43308252116554335
-0.3681514779724108
0.15940205898624513
-0.6110014263718903
0.7069963472936008
0.36386176591357705
0.3945730169899511
0.09025966314572474
-0.8951300985899147
-0.7926977231130732
-0.13217704777160635
0.785237592094359
0.07632135772319273
0.060585661004886146
-0.4674012801284604
0.2779729066355839
-0.44341809611136784
-0.03725374605518392
-0.4533439077701277
-0.24487337245010155
-0.4307923336377872
