0.34090542886323993
-1.647387681783867
-0.8914712222876375
0.1738232313921219
-1.0248198632566639
0.3511704287928144
1.9506891954169336
1.77402770984075
1.5134897269788934
1.8687600728978309
0.8257432153130595
-0.7291795615646695
-0.13572010560068118
1.1149587970621144
1.5942776046779168
0.8546588676456712
0.8750763741076346
-0.25196830711321627
-0.4390259309247546
0.8657806470419486
-2.1056835928801787
-0.7799691624902024
-0.3284481216563804
-0.4806138532107665
-0.5101739244502393
1.0146993146348542
0.9670531907660767
-0.15530985061222402
-0.5028481569239949
0.3860148032443823
-1.6421286118623093
-0.7829838396071056
-0.5561553718506924
-0.04086816357190397
0.3988628514375046
-1.0992913814943903
0.36421177480717976
-0.18624322092251266
-1.033733032675895
0.5424948404309899
1.2820617263487282
-1.6082914573657634
-0.5797295549555757
2.237086839681341
-0.5719956071671536
-0.4403783587894331
-0.27961609296674717
0.634451586784448
2.0326533182534225
0.7815270020690197
1.7013973760035395
-0.2903530597540651
-0.6391838031784086
0.5446075477741017
-0.5833556318410327
-0.2760376346164675
-1.1335502689724262
-0.14586114854915214
-0.34510037981908703
0.5776965331060475
-0.3294558574315755
1.1320786383322354
1.1408103978629591
0.19553559299283174
-0.1835925227280694
-0.3573479844061067
0.4779445371451357
-0.6413378234242189
0.5987268246867397
1.6903718514598678
-0.9523145008602225
0.6560870702389943
-2.1118483298393187
-0.06656319272007549
0.5420360151026782
0.33329609574393887
0.9411442049682206
-0.8763535200983902
2.420864388788104
1.7421366722431464
-1.5706062229228195
0.487256744191132
-0.3908290452594142
0.4025203125175201
0.2536563799155322
-0.6149810466885924
-0.28103608556013887
0.14191758222900985
0.7807334469276522
1.0726527076393095
-0.06867858590330124
0.1561759029949935
-1.389260247032372
-0.45611261584390306
-0.03977235625547884
-0.7159645480891452
-0.31922709381625525
0.33720970084370705
-1.0426857886746643
-0.5205694051486907
0.38579498165493903
0.21470806164771084
1.5286345532985446
-0.5005534827684281
1.6992586486368881
-0.030756955224575666
0.2947806547578387
1.0947552384160555
-0.194724195295012
0.4932206838306282
-0.42867487345922534
0.026206270197345116
0.20078380894289405
0.8050840575265124
-0.09871643678100853
0.2375806889716724
-0.17449136070375018
0.32087316487230827
0.1821556621294449
-1.2264318045735458
2.4297272829433254
0.8450831747826966
1.0878774929412733
1.1288179434106569
-0.4738762975686975
0.3020666496442677
-0.3102644227784207
-0.9199263468095248
1.3984583180524714
0.5492551662446201
0.200991107414067
-1.7740933922283295
-0.3332224614494679
-0.6133608247209446
-0.8239454397353494
0.3126015682768005
1.4560400800842976
-0.7944080665166507
0.12569328422312187
-1.6864460836272706
0.19058211916237774
-1.2413029220258576
-0.6728277223097494
-0.31001886396745687
-0.9432202620338046
1.1390959929126336
0.18332174656309647
-1.2282182362004734
-1.598156797346086
0.6533619637002465
0.8234318682066292
-1.3531774761669015
-1.2388509460009747
-0.3176969326644714
1.1069574581222488
-0.7510299661122957
0.2019735330876229
0.5781319947521336
1.1548945987738264
-0.6927548338095215
0.06776732463003969
-1.660860847131318
0.5870515922232092
0.9276021902286979
0.28212070429910807
0.9326342376535315
-0.2730581835715079
0.30491312324298225
-0.2742893841624632
-0.8759199552557413
2.192248029593866
2.322721981321073
-0.9958629171502092
-1.6275346736860539
1.0243022904746069
0.26798031307826536
-0.8343900976208372
0.29910980166984674
-0.5256576259371528
1.4226118791129738
0.8863728390821414
0.06073354598768832
-0.6514109657636602
-0.7945062980069875
0.35624808936454627
-0.5266875602723289
0.9179985958537384
-0.07687867206898756
-0.42589076444656726
0.6554212727220808
0.4428975948363829
-0.6509765628693973
-2.924779870225964
0.42503417814630773
-0.8149070390635981
-0.8358106244175254
-0.22492371417123275
1.616914673571474
0.7453298610578816
0.8560617218147255
-0.8757824872356024
0.5580798794060895
1.1193873889459567
-0.24539107952239864
-0.5923423879845273
1.1877324075640747
-0.4475796103165841
1.9352042593890502
0.4304347919604471
-0.03426605370979041
-0.6202780275484089
-0.5986372575353542
-2.17794730840726
-1.7111995060211818
-1.9873910501549057
0.7135485688626216
0.506665789453897
-0.19067127760775313
0.3632850182057698
-1.2828370304244765
-1.2158642976266245
0.747813332447535
0.1583526287250677
-1.2449242749228073
1.542576885908551
-0.7528549916062617
0.17631232561700627
-0.006898964953560682
-0.2496101057542241
-1.6684232115166773
0.39302406427708053
-0.9926173539946959
0.08320959643247616
0.35813594229269713
0.5372206505524765
-1.8266131310826852
0.22353582629626126
2.7905163118329144
-0.5150461706045735
0.9202781555790625
0.20018360126902324
-0.06864863444107444
-0.2727330743454103
0.45483376730379166
0.6403199105692433
1.1592314219449118
0.8459213285508513
-0.223965178604381
-0.09499915925786512
0.7268755729747904
1.8606983284219583
1.1096305096952999
1.4696697944588895
-0.13573792433468967
0.7121831252530946
0.6741833477862025
0.6753502345796338
0.96788404009793
1.3706703192470246
-1.6315661960324417
-0.0802963980269622
-0.3549801414336514
0.9090594424588241
1.5636250304954602
1.7200164978828303
-0.6397556127272379
-0.22959694177998458
0.7725443066594561
-0.2926960569068079
1.1925607234381308
0.05396567573037969
-0.8537382396659565
0.6808565588681235
0.4576941365254795
1.0099928571334422
-1.8373021389765742
-0.822749729028077
-1.486758680409599
1.2229176600206564
0.033829355420050305
1.2760391254867351
1.4454010499552603
0.1178536264558745
0.7985763857999965
1.0749946010194678
1.855375577841129
1.1175845829024493
1.2923395538703648
-0.0303060238421613
-0.1734621835272962
-0.08687551365129087
-0.6654518955372457
0.45944006214645816
0.6919752340009072
0.26944562281539863
-0.8981909207089229
0.44499376725985396
0.38318650850208924
0.2490390224041757
-0.6536905140916044
0.7180514802074487
0.2893717766221374
-0.7299235540662381
1.189403607701438
1.046776869944155
-1.042326164313756
1.7384962589150796
0.30665769054669645
-1.1883970036756375
-0.2610617070472809
0.9975854035456779
-0.24324583487080928
-0.22939706249742853
-0.08470402047722383
-0.009908392757908766
-0.6003627532095063
0.7689810405543702
2.4952874135943044
-2.7722662357516
1.2359432526004983
-0.02552379895639101
-2.0862983859187185
-0.14877321482348005
-0.2877117537558493
-0.3313486603457487
-0.9189986697919692
0.4175193428048205
1.8443482460033522
0.7710383028501969
0.7212311842288409
-0.5723934029898627
-0.38872649747977106
1.7982129584684499
1.2871088724536677
-1.6743883352930096
0.16301063463157628
-0.9372728432260057
2.452918172193026
1.4654389539281882
-1.2854154867060557
0.29648005071155364
-1.3523242276565943
-1.1012714124033816
-0.7115864354852264
0.06902650239686947
-0.472268736587526
-1.025498420223349
-1.2684736364075704
-1.1366027494386652
0.6750735806831667
-1.1476522710016264
1.7789048867952602
0.5676920489877465
-0.9037588929519926
0.1574358710707222
0.37374496835568893
1.6080023317807006
1.2610504359982047
-0.5691446992537503
-0.8464363866910725
1.2117088932183315
-1.2903955864446068
0.8818766234174762
-1.482106132281915
0.041427275173127776
-0.5292072646761476
1.139378599530292
1.1949096317752559
-0.2166924214415401
-0.9768055399038487
0.06329944198258758
-0.8560925771721393
0.8138198730816631
-0.7652469424485311
-0.3627798776518813
0.1530650835708794
0.5941837290691636
0.4586584402653818
-0.5895606097288976
1.1921872193580347
0.3021835266804803
0.42898888393903295
-0.16946669013349036
-0.7777315353605032
0.24795481291868166
-1.0155745834742684
-1.3112724557368272
1.498798726768042
0.5748440816887728
0.7594215203986552
1.3717671755491316
0.8830285308904205
-0.3000932418560922
-1.480719444931955
0.6035268252663101
-1.8333805995465313
-0.21099937487023612
-0.815432289439328
-0.11837496689313498
-0.026527848054126224
0.8532935482192212
0.465562296298079
-0.5306130866322065
-1.3631259110675324
-0.3417953360901488
-0.8633524295888075
0.3423139155781928
1.2867012772019937
0.3638099014809087
0.14413556935139926
0.10805365617115692
-1.2313924202665831
0.7749880222003271
-0.23771712876245427
1.1287977590248528
0.9835189937678206
1.0075546301599556
2.073417543135153
0.5946933159099579
-0.5541475308065615
-0.33100582115502875
1.4188246590198799
0.1768264059587581
1.5558610882268704
-0.2001994730120078
0.03311290866286852
1.1933317677115243
0.15579834867238063
-1.1393793405586212
0.4029894664903959
-0.5403073628534097
0.20814967229477072
-1.3402801872867234
0.07579963531612816
1.0082067288893126
-0.4100437619871885
-0.720144989226591
0.2616799279434374
0.581457193525719
0.6042894504038887
0.3642641595359102
0.6137610125373103
-0.989555953941297
-1.1223358723511776
-0.2052775274020789
-1.3668661649301876
0.6391961477236899
0.861840369765065
-1.5366920227698828
0.23613083014899253
1.2435440595923994
0.28181244787248116
1.2130014777448195
-1.1344786222106427
0.23998135232402001
1.9771214616181578
-0.19618650736431553
0.1578629878139445
0.014121288848099378
0.7722783213849027
-0.5073389451840518
-1.6317543692201228
-0.4025509755825278
1.606860925049732
-2.0078169565957795
0.3662350243296568
-0.05864806683137497
0.4812485913598067
-1.081828026510155
-0.41410145778521384
-1.6069411747479596
-0.6830861378075987
1.2913774864024685
1.178902189512704
0.32940691632654984
0.8606229137001604
0.13526265718864455
1.0616062400635957
0.7252970752178006
-0.3363372825857483
-0.33633361039320575
1.3146024857435512
-0.7681665995735449
0.1882676727961639
1.0907917802358964
0.03956705764848448
-0.29292748754809406
-0.26239613574761844
-0.7365003787342912
0.13278089948475405
0.46420166199298263
-0.4660910012781886
0.7336706723692159
1.814106296761061
2.1409691996715994
-2.879851136702754
0.5208208531392543
-0.24194508057736006
0.6473591390822908
-1.7571076559613128
1.337950558280848
-1.0519488349157233
-0.27251342115721966
-2.0787047990228067
0.8422898967827903
0.0481885783163724
1.165545999449539
-0.10077644320897947
-1.135454800810972
0.22884534109763216
0.12713983117988747
0.02562279399862337
-0.9984527484312331
0.22837305487157863
2.5004804470398176
0.8500533644220927
0.6494133838204886
0.2460822324945712
0.23623208906532095
-0.38450533818936616
0.049485049972584516
0.800526228928188
-0.39405277583889897
-0.042282274653569485
1.6977644754041823
1.3333719554279462
0.7564652617049477
1.715581730480201
0.6391256182570768
1.0507257702998887
-0.9364890223167657
-0.11766974745634928
-0.9732801997306899
-0.9121461247779601
-0.6488115565998549
-0.7222885948799469
-0.33782792609665196
1.0081014993742898
0.9423702888660443
-0.5018163203058916
-0.1842896097557067
-0.14850955156896345
-1.012713627023613
1.1877646345946455
-0.3370761330736072
0.45400471729063524
1.1258108156334117
-1.762823398621542
0.022329368163077828
-1.223493100390943
1.0785793303196713
0.5348369668889614
-0.26750819958228156
1.4104238718953281
1.0906264284459875
-0.6301516644380181
-1.6909095521362136
0.3812364251696518
-1.3286725121400385
-1.1451368676243028
-0.9251760282751644
-1.8416747648140388
0.9714446200249655
1.428094561450541
0.21040350720649803
-0.034521244822026904
0.670321987200805
0.576722737810237
0.28104557697773686
2.440358772756374
-0.2558909632123849
0.3709104148832918
-1.24195252036651
-0.6988811222598904
0.3437392036734774
0.9451468691163082
-1.8212445929551018
1.3710367503378067
0.4024895983939694
1.1894526308398852
0.4648011711885296
-0.037897851430083174
-0.702788395438572
1.0233143149083828
0.243393448133529
-1.4782129780864186
-1.6461707915122572
-0.868347744379638
-1.7142883980515964
-0.18395756337542302
0.3446211821726254
-0.29867497068346377
-2.151267922880316
1.3409834520610575
-1.0563347401270584
-1.4055261354484578
-0.17441757114981848
0.2541209285028082
0.43965538853318575
-0.834647835951616
-1.2730967025372435
-0.8824357102969149
1.2467942236201586
0.3815378348482839
-0.464599275892982
-0.5994276607743213
-0.02007899099615565
-1.58657260660204
-0.08088402266185046
0.16773063505740865
1.5091399428580683
0.11589493276509163
0.5066278454648071
-0.32692920092173217
-0.8569260594300323
-0.19527832599175776
0.8662924742618401
-0.5446659018628612
-0.18696549154510733
0.16066713169556665
1.0320349183633712
-0.732156286026092
0.40312176463768434
1.6782083016764413
-1.5085243338482504
-0.015449614520910256
-1.0734869993053442
-0.7600847218365456
-0.3463466577643418
-0.7286488774792828
-0.0011955370435005816
0.5609044066886316
1.234424042446728
-1.1003145325617563
0.02799535889344862
-1.124565321190562
0.40332061787438167
-1.079946486355729
0.23398065606528415
-0.764322102797193
0.4046537348762898
2.024676977558361
-1.1677604387268363
-1.6682411764612868
0.4906738163295598
0.6055257095912037
-0.23585038650306928
-0.1730865283067609
-0.5192914982688736
-1.3365198574259853
0.3807953415591939
-2.2588387260224594
-1.7977603661720791
-1.4035841574586518
2.3522619611713833
0.979991799286664
0.3938583536544239
-0.4649614719800514
0.6067882586836756
1.0499312007488952
0.1883597096889036
-0.04551293688272312
-1.6295019960654793
0.37903726160290496
0.2876867396695847
0.3697000128547532
-0.5658223074933715
-1.251548840032175
0.5974663592693781
-0.251594786317504
1.5907221088232473
0.20305909357054758
0.8806673035906931
2.1895838447027955
-1.6362694272974374
1.878793878027174
-0.29731553663923976
-0.39768952637944915
0.010052573684156157
-0.05352897412355134
-0.2901345067593515
0.7548405775466951
-1.1062264126631498
0.8309677122757397
0.5086217964511281
2.1108188295989057
1.03760854880794
0.8346920955228523
0.32546175133844324
1.1192956721981664
-1.2822611668447679
-1.1051434321328766
1.1812867505028313
-0.008267903494900503
1.0232097246628433
0.5188383144720627
0.8902372478353997
0.39757420878396876
1.7711000186710963
0.12890014084299095
-0.40666582276482044
0.1723213412203861
-1.855951321095377
1.0281023145892323
0.026263258101371076
-0.7704697463982342
0.01887716229900499
-0.7754757056730861
0.9340783822489399
0.28940650544629043
0.4885432065916073
0.05653307278344527
-2.7710094009302253
0.9810161689937213
-0.8535823551200512
0.11016039203785077
-0.7768646944624253
1.2687766713073005
-1.0774269072966294
-0.8081533574692239
-0.8781092046744736
-1.1000591044369956
0.6064671267543503
-0.44348720846401457
0.7817077127082261
-0.7612263637534122
0.9274358230007318
0.5029430475534639
0.09466088066188971
-0.8415571878783146
-1.5898538732866723
-0.11591943322132608
-1.1444106101079294
0.6521942078105392
-0.8966324479028982
-0.14390452781086194
0.6968630179242113
0.8567353245166007
0.25967294679515474
-1.2643904794564145
0.07450562638513752
-0.44509568520942583
-0.693329366669716
0.08462035665537848
-0.3890815100041686
0.5828062479896694
-0.447177787669389
1.5003304909175352
0.0858620659533042
0.06595734009714152
-0.37088486858227854
0.3715277063522687
-0.11512569419241911
1.5684315520216514
0.9136220352583326
-0.31493604411475307
-1.535915124692932
-1.458775494340662
-0.5686224790922966
0.24654104042152303
-1.934548897234345
-0.5306392754145532
-1.7787805891975739
-0.48110208135866
-0.546636558890021
-0.10378711814422259
1.1992612913890763
0.8518141498821514
-0.6832725213720856
2.012898644609174
1.2670806909789887
-0.5397463476283564
0.8983787336265058
0.5117183299187479
0.10758101831211178
-1.051785106223992
-0.8172892075354408
0.5455295018388792
-0.4993421646611944
-0.6834223469139511
0.39144873140655145
1.6556206352011422
0.48658855381275556
1.25809438855786
0.5368620429110686
-0.01758652519620632
-1.6282239194432897
-0.3343497184387569
-0.388870172018443
-0.24163400560449477
1.7055181487196909
-0.4458250122115289
-2.251114284671212
1.5566399485436782
-0.057272612027742725
0.10787327621892923
0.6243847381701041
0.36712631024333864
-0.12507530830023805
-0.7701995327767395
-0.2218792141172547
-1.3848421958363968
-0.158831620976557
-0.8595816453733223
0.9653150355095594
0.5854738646666909
0.7268089043776254
2.0836327034591275
-0.33988549549625735
0.030948823565661532
-0.41920658574130915
0.7391843689954465
0.964794711417541
-2.285234317032642
-0.3791355866364612
1.0355415540714183
0.03998578831871821
-0.3959674425539604
0.08055581139235544
0.9454646795492406
-0.9027001050020208
-0.012579909280951318
0.034636537490477404
-0.47776431647679807
-0.28877513688883427
-1.0815201077375036
2.569948624629948
-0.13912732295133023
-0.407161211698957
-0.10414164191758174
-1.010991656075514
0.2290682382949063
-0.16081889085153805
0.043589570361571406
0.4403178163070369
-0.4499681354443458
-1.0467937265187366
-0.8572390717935829
-1.2813052392851303
-1.2023949347488478
0.9796638890929736
1.5458559571902053
1.11576896387079
-0.0010866198874229793
-0.2803648890444247
-0.789095109244986
0.976812137393614
-0.9736867619921616
0.07260278283176372
0.3208645820100057
0.2326312173686479
1.7396953410322895
0.06987019166629332
-0.624133054379092
0.25486070236800695
0.05455466927712732
0.19988290656338065
-0.29389237043116867
0.4195931654953599
0.5304743646409206
0.43992817194106804
0.7698659598014418
0.8351367793624531
1.2291929532367785
-1.2828567770943096
-0.5365579889372354
0.015227835468997752
0.656732749313955
0.5696382332529175
1.1050929471524684
-1.1563467237319711
0.3428761347764304
0.7243140968834716
0.17951408660558638
-0.8438416539255902
-1.1970725489248484
-0.10868029944944455
1.1768538067528158
0.3901709740354991
-1.5887673693396058
-1.047177723822034
-0.6226384380925872
0.7342372065301083
-1.0042329279271538
-0.04089417344620794
0.01498690211619752
1.8477906036794496
-0.6367517865422337
-1.615941525201413
-1.7876371186421074
0.9028448038244573
0.5182281686888878
2.343427573197036
-1.1400058171333143
0.6283420615699886
0.2724578226176185
1.9222628127331731
1.0401724357381357
0.9924876541536805
0.5586555836027773
-0.035745075414562816
-0.6418857321048664
0.48254417970861724
0.3441469061853401
0.8691312726078516
0.32493097538068855
1.0889755982477538
-0.2825185938753972
-0.06094778342773027
0.16826300551985623
0.5850394913868225
1.3089756930123106
0.862031897837064
1.1347268986492907
-0.9259979163073498
-0.01952246360601939
-0.16529192243901275
-0.5744024963784689
1.2717286192969042
0.5023461928365878
-0.7963049274219667
1.9209876091158131
0.9285517722363538
-1.2228809178490787
-1.757101101895544
-0.4152517517593146
2.0229527183768248
-0.601566119670921
-0.5517147597216522
-1.0522669596637975
0.07777504503119524
-0.9697379408163935
0.8813465746109119
1.4671742000236538
0.014042526221845542
0.19283785008304904
-0.824036465136277
0.04034627151174058
-1.747079381432331
-0.44511995410939814
1.881649142292428
-0.673915106340453
-1.3020241254696223
0.7727085971472253
1.3505206957249762
1.471665171796038
0.8791980551885951
-0.7545792196122633
1.559579010016615
-0.6946902937215236
0.0182408943836172
0.9350745088316336
-0.02050092557777204
0.8112601252101188
1.383010755080937
0.12835532387475967
-0.25985155692159595
-0.02511648609374434
1.2591955813642963
1.4200062894228656
-0.28600260674050326
-0.20550658610637101
-0.6580354281997047
-0.1333039347300301
1.278801454304767
-0.7589274305278912
0.550431916963717
-1.3880657967020507
0.5127566445681826
-0.4014680700042842
-1.076552294984237
-1.5319273519160417
-0.3862411500900337
0.39695451404887877
0.5873677286917599
-0.8086527626160855
0.5677388485093511
-0.44181627464355683
1.1477498882757313
0.6951230878153737
-0.8794807764399526
0.11977854313220683
-0.452486850098764
-0.9423352471262031
0.3768814128615145
0.3484335210052343
-1.1559508647676373
-1.3085057398833855
-0.2019328383652236
-0.13951061775445306
0.014447202509894563
3.0576828268407477
0.24320325110796145
-1.4186499000602364
-1.075609063341792
0.33349322885772537
0.7366102078851405
0.1361595874892902
-0.631908920635579
-0.3432326676657378
0.13906156006904885
-1.5252195429456115
0.9530420173640615
0.26769679941381924
0.3031136950242356
0.39756479133817035
1.2011718470306354
0.011203211777989275
0.3637877952472408
-1.2391415701022728
0.7999722459633223
0.022119443423058317
0.3591648717169472
1.1616037398286994
0.39250405749854345
1.0129075842090631
0.8943265903576589
1.1168233943809271
-0.9875461186304437
0.6293761548662887
-1.6100758855764634
0.7383009197177379
-1.7400383433822013
0.8522329825614646
0.751742684278796
-1.4427448671765715
-0.06655344610656311
-0.30149678093300303
0.979389259434598
-0.5976117763491728
0.6729932403770895
0.5076617541625285
-0.3754500732931944
-0.10911602141873589
1.5069698031740377
0.7500886226288949
-0.5651755087581357
-0.030712730630329945
-0.9878845379917062
0.5400965602025
-0.24962468116105063
0.18175933033977693
-0.48968620324079715
-0.9161122881820052
-0.7368034892304556
0.8958298033380594
0.369792598087931
0.4319587545497784
0.11772793955866995
-0.9216144764162292
0.8444636594690059
-0.11536876659591297
0.1627854722094163
0.6862256726749845
-1.828362767819812
2.1615532768282493
0.39990571018156695
0.5894236124287505
-0.36872396277184705
-0.25263719845293575
-0.15637014729174026
1.0067601060285207
-2.08293801384247
1.3810460986498145
-1.6063261092401535
1.4521161807318155
-0.33269716756480616
0.9371075949955368
0.4095995111910975
-1.3564511485692097
0.9473724597445536
0.04514419201009767
2.1751970285327697
0.06667547371324906
2.2220528008585534
-1.405549125629649
-0.446955110227767
-0.22786995176541527
1.0487527845186473
0.6980118151372268
1.2696939116150856
0.32542565936522466
-1.2118339283469957
0.2163912425488781
0.2189325745032487
1.5066904024270946
1.138996836826258
1.4915439744984542
-0.5525140913756816
1.5234026540371703
0.4985371879877065
0.36852619424870114
-0.08178581799478157
0.26558530506845346
2.271757659950248
-0.3310749180876337
0.038940513813327554
0.044913184964131575
1.0889645650945081
1.5558769143005562
1.502559897002469
0.029683369463666565
0.7154703916150813
0.4385474323850503
1.0203358996244982
-0.402130927080257
-0.08096477335752719
0.5484539537597112
-0.8059970765323967
-0.24566148231748586
0.729573954586812
-0.47015992342489094
0.6188095858350071
-0.3451279887503256
-1.320887222526415
0.4723542442563192
1.1588639616360878
-0.39112136304872613
0.4975141688131415
0.5776390666566197
0.6328683468237397
0.504334855102932
1.0246203068839064
-0.4187046280137177
-0.8464041765569454
-0.22126344102661932
0.5936893561719256
0.7464728167291503
-0.8933016796080564
-0.3446748671914892
2.1933309442390896
-0.48936408762737615
-0.2108606461243004
0.07711293364213609
-0.24683587825625344
-0.08501991642852219
-0.30651963243475
0.229070556470573
0.2081304749819871
-0.3470972774026776
1.3711793499323155
0.3786637322745933
0.5989331535107814
0.9571869136908684
0.23367303222003133
0.0416989198256128
-0.5041454282554919
-0.3280063348201728
-1.7647080813703486
-0.5323048976541789
0.9307083773429936
0.8879711316281675
0.8594640922060777
0.969242952055924
-0.008477173715203568
1.116018064624649
1.212497841656526
-0.6361973075101629
0.7112163012603755
0.052523854565509454
-0.3154591535836014
-1.4274883323946677
1.2485993017067871
-0.5562445599699058
-1.1381181340894138
-0.689052701796632
-0.5393806889994263
1.7039237604983495
0.6477671885885262
-0.5061410566927094
-0.051526213482068484
0.7827466809800494
0.6133130941841837
0.2657669930467154
-0.5104754326859494
0.18442066186539563
0.320383129877619
0.19303573138453178
0.4326333460884736
0.680575568304648
1.0479756896236423
0.7463389601548449
-0.4506051285811502
-0.7290736642923725
-0.3996754000783514
0.5449457907477847
2.3549443465011195
0.9030337499080549
0.38476638567437743
-0.7503023143582108
-1.3217217697922032
-0.5871960008244324
-2.5251075957976217
1.8149972275973865
-0.4642586395872744
0.616510369865199
-0.505321996177455
1.475556530724141
-0.5946183884201091
0.36013269590995683
0.4745319727054917
-0.48216134932211363
0.28188532208733463
-1.1802883509441888
0.6041826543610895
-1.6612202059544716
-0.8250470006021481
-0.1687199613955987
-2.6312826572028905
0.46044656609928086
-1.558379233205901
-0.6669147758807633
0.7319606455527384
0.17695897414831685
2.2575537761671267
-0.1629119557652473
1.001246259986196
-1.4245320844091274
-0.7192195172274876
-1.400760101528486
-0.01313528972979408
-1.6068550595798434
-1.032081743974073
-0.28667680218619146
1.3183656590368187
-2.310987340438948
0.6423311194862296
-0.8671500552167906
-0.7921211987355177
0.06752412831490803
0.7523062042802635
-0.43976925932955824
0.4867236759130446
-0.5759050971931621
-0.5817363206980276
0.10082975596740872
-0.5576467173809794
1.0369263217235927
0.90278164741017
-0.8945183978566258
-1.703504375110781
-0.309458699060401
-0.6750534611635717
-0.01633587024244776
0.13514500551796926
-0.2601124414419788
-0.32091363003795037
0.005172600290406892
-0.05069496130050122
1.5279593929365616
0.6571624443104902
-0.1105888450904155
1.0124315613856658
0.34497469548726184
-1.481525359972252
0.1465635494152489
0.7306798326357313
0.1774427858363358
-0.07501823301588517
1.0123563980536507
0.08358490324908509
-0.16421420784173835
1.6926308966082704
0.6444682744657964
1.0885350387182247
0.047321977920774305
-1.6908588907880469
-2.442874133870441
-1.5921513151371895
-0.4514583178937595
0.6777749828655494
-0.7386386344492681
-0.00923262774907635
-0.5336870737759435
0.7796159757856034
0.8358244356239755
0.9509419937218421
-0.24668108184071563
-1.1781979595554652
-0.60234657754257
-0.9776546229566836
-0.2691773712613156
0.7455841799298192
-0.026150515531500954
-0.31518486876357094
0.12393263258134779
0.3779071627553802
-0.10386928762015218
1.2044111385522762
0.43028772651641134
-0.8916857628609023
0.25377286223522333
-1.5070810598701687
-0.030286299602992672
-0.6560025963547702
-0.4761241789874383
-1.1010775698676007
0.8210232786831009
0.9611207226211421
0.1013867620230311
-1.536560651553215
0.23953843852300172
0.29990433573623165
-0.21774833936379956
-0.9205197740352193
1.2256193895697196
-1.2790543084263226
0.47803104299650767
0.6387665715272091
1.6881406915418093
0.17673498305769259
0.05279202239185743
1.90508370888145
-1.9765968256649085
-0.5785265393194217
0.0855743608927777
-0.08369562190030022
-1.2697465943710315
0.4138032786410668
0.755757136608143
-0.11133652701620098
0.4185201401428193
0.18515242458879877
0.1031478928398578
0.844188735050523
1.0148899601639694
-1.2970750630909773
0.4147375249508873
2.2561213794455313
-0.2723287871504958
-0.5037770119494718
-1.1339033068088167
-0.6611349315701036
0.23503577995286595
-0.7235337910731947
-0.12114779832715411
-0.5522898986323985
1.7738001455623678
2.691957743295357
-0.1604057465253423
-1.1815009948362585
-0.6722415104051672
-0.8145267262582548
0.3839138700856321
2.341701210065655
0.4815183294630861
0.9921622691594638
-0.14620681396330173
-0.9238766489130235
0.7881301619072493
-0.03617981123030497
-0.5673958626143197
-2.5284658739304353
-1.0592377586040824
-0.9788243544113023
1.4094862290129626
0.01153657278073314
-0.31520112707098663
-0.2816818554647825
1.1444782821296462
0.8995025276359234
0.027530145780562655
1.0317353935768327
-1.256785635566513
-0.5145838254760985
0.3873785397680664
-0.33799972269535045
-0.5356620560456111
1.1929607278054797
0.2945437819883333
-0.6031560270316789
0.8466588386256542
0.895978107281395
-1.1039026411730761
0.2268946907399117
-1.0048156979023921
1.1342109012472776
-0.16138116267356722
0.3067809700238057
-0.3641823217964183
0.6080822838079831
-0.3147295302038578
1.4576906573126638
1.5310845247420575
-0.18011864736135272
1.0922444387052004
-0.03931240080519682
-0.1907128702575709
-0.02216605451285736
-0.23878059042832006
-0.8845537206194265
0.17513381895598845
-0.21134929777039801
1.7644778080839045
0.85982661827293
0.3880118307354139
1.5926917660666202
1.427337514567138
-0.4237178146947319
0.8328941280930494
-0.38893764066856773
-1.0249128038057636
-0.1949965318416163
-0.39921992800826067
-0.6745377684517347
0.2927758115309328
0.7774926715780017
-0.04769433226376113
-1.761008448006316
0.6154926575445322
-0.2547708403277584
-0.9407040333549752
0.9913066027931744
-0.5006619422472128
-0.5061981002134982
-0.6510665967743351
1.0970193989636972
-0.3927938483936476
1.0462362964270553
-0.42622564967496707
1.5089587153991095
-1.0596131374173463
-1.5855830236525223
-1.8298473221204274
0.7811413654487454
-0.4437322737131937
-0.2500626863838768
-0.0765272713091949
-0.8086590012139572
-0.29643159707048955
-0.8812112634292893
1.0893035366967625
-0.5251405852241412
0.021189353627102614
1.6084159624277607
0.16006528108141693
-0.11642954032948291
1.2716986638926815
1.6135608873403309
0.517052106809641
0.3209595051918971
-0.7643204998694925
0.3399311562196917
0.557006911435032
0.6779014223081448
0.1593055201350948
-0.24573519563682078
0.720445006990601
1.9263467906289478
-0.5638215143571956
0.21842089247761587
1.4012050034123227
-0.17020072572968536
0.14700855103669963
1.5765535270317446
1.784995641124358
0.21941844927448195
0.05868032214824814
-0.9961939494192683
-2.223573347678714
-0.8091381260191728
0.5538353725588708
-0.641555447430719
0.5428987684147873
-1.0561725617316944
-1.0360311584713682
1.1891449931527376
-1.2966758248716244
-0.9990985148574885
0.7469276682856258
-0.07402542117130367
-1.1425303078505011
0.12387305348119607
-0.06637796203623658
-0.6603878664279911
-1.0134131913567597
0.8515803199757755
0.864676091550562
-0.022140568498247526
0.07474746661717363
-0.991690433362834
-0.8776266519909139
0.03666162903579856
0.9276310432532917
-0.556569681228404
-1.272212507315223
-0.6188769046832904
0.5105230618316415
0.27137811016923935
1.1646883390580818
-0.3356507068480409
-1.603817581553957
0.1366883625139762
-0.32754723240852845
0.886738544826226
-0.7049973441062001
1.6083986902809726
0.7109370724803852
-2.0193777073275054
-0.10002302570823679
1.1542193294860636
-0.19761863894933152
0.09746302906005003
-0.5661374337717933
1.347174513173822
0.35079618254369993
0.22461356010031097
-0.5093907907588608
0.8054488073384668
0.9859096753786173
-1.0022848813624599
-0.6840435453494558
0.8141305982708679
-0.1547270757639187
0.23633718826998817
-0.8686257413334817
-0.6012763967964974
-1.476499957828874
-1.0653456677239945
-0.7945131155728531
-0.34836001127680616
0.21182006233794226
-2.1791507315611263
1.1374497526853415
-0.6344695306864637
0.9864759577134172
-0.3557371879760329
-0.14082952783248245
-1.4615082565897604
-1.3179583300201159
-0.8385770589390295
0.16720850294137407
-0.7897902020673236
1.7017087756558444
-0.00682844186299586
1.1392874432098503
-1.8332312453113877
-0.7030076054830194
1.0486293190744342
0.4278884037841687
-0.5445921465115985
1.7896221114551507
-0.4900916561526066
-1.076284112011376
0.8080408067561209
-0.5712530657546593
1.4207279412007994
2.065487464284483
0.9627020823795542
0.7420928484255784
0.3176140935573089
-0.2724118616919612
-1.5078201465412606
-1.1420342821479732
0.880743198772299
-0.8683681520073743
-0.1423379322595057
0.7124730069207593
1.5729843314800585
0.7298625694313554
-1.2241822627641898
-1.4064319307679287
0.8957859438822762
-0.6108441309351956
-0.4603483320302557
0.12412082883794218
-0.5509467198040957
-0.5166757188874378
-0.16065153559056566
1.3541787409670605
-0.48620295118165635
-0.7286141868544525
1.0417796208770347
-1.3770565830866264
1.7975042503049887
-0.36692063359834476
0.25624587521098896
0.27491054362641665
-1.0945092332882356
0.32186761125294416
1.0691219419260864
0.7153647824555013
0.05637563105904447
-0.14801324489821877
-0.12934442388767675
1.5237423459842434
0.8288825386542148
1.2283520263328802
0.19992324639328013
0.34376701512047947
-1.5965818989264458
-1.231546775890594
-1.8233963826106918
-1.0242589236485458
-2.097828451460485
-1.059946661852927
-0.6297767739916106
-0.4420289156229076
0.44718187897506284
0.23554875903159073
0.9520098991201236
0.7410247867815151
0.02503829680989572
-0.4749054015248414
-0.2720128444880964
1.1588863056516645
-1.149939020411148
-0.8664438396651434
0.8562475983026658
0.6154380113112254
0.669098429965955
-1.3615974561943336
-0.8920377575561125
-2.3153573255356754
0.38549650713886463
-0.34786757048409334
0.2801799303804121
1.3932510314906343
-1.0907714911394484
-0.8505478462359599
-0.8782964848356012
0.18269650589449532
0.004131541779803016
-1.3651116700633479
-0.3756891623438722
0.6935926382350054
0.8407742882983343
1.0791542489030643
-0.31657310629177055
-1.4615658329065142
1.954507542180658
-0.6051008162468211
-0.079613965197051
0.8332980169652502
0.24963909253717786
-0.5342114108775103
-0.09217334514617863
0.5870773417064674
-0.8709127054865474
0.7939830446571592
-0.4857691951457883
0.051880047885213554
0.08256158276955272
1.2258210535324516
-0.5462592706642814
0.6410038009537495
-0.14529904686378903
1.2925737706130231
-0.1513281868578319
0.3342649129771161
0.14615022588229187
-0.7379616198215967
0.08722329267985496
-0.08266413800113448
1.2326054144809375
0.1535462577752118
1.314371545871988
1.3292238812100408
-0.2731407555929787
0.6330756709112164
-0.8258789948386361
-0.7556355554780451
1.5217063313956483
-0.23186991979270166
-1.1519097261976043
-1.0834272165254903
1.5190801610622244
0.6193371860064532
0.9107975764582701
-1.3440773775256587
-0.047863251859636705
-0.320046233212381
1.3132666643052464
-1.2638475553931092
-1.1889255913582155
-0.11139764333193242
0.5743736109977208
-0.0731489622168222
-0.06620130973719038
1.8355005321222844
1.5569398886599883
-0.5918976219310381
0.34112256320477014
1.0319378023874386
-0.2330310824909873
-1.5417905108544354
-0.09681460053541069
1.0382774302801117
0.8657874431194006
-1.2881942283644612
0.21508855982958086
-1.4470797346273012
1.868704806405144
0.6851679292006332
-0.24714081103616514
0.5281621237827616
-0.43157916315731293
-0.1336611818871205
0.6581133584842382
-0.03850894721361395
0.4645676544886561
-0.5097194810383872
1.427219961647992
0.9713240821619362
-0.14268017030986388
-0.0007056153528934017
-0.34210951410690954
1.3607635160564302
-0.3396861787460914
-0.6731878364967686
-0.21718512643502785
0.7357327547332047
1.2380559372867872
-0.7227802382309951
-1.481309455080155
-0.0621132872190564
0.8858373049170865
1.120251304588359
1.1553633461805053
0.31785746142932225
-0.16410600187688595
-0.604955653024666
-0.6662243810441146
2.2463022733480247
0.6519134989248216
-1.5215474108441418
-0.8365553411974455
0.5762912415836408
-1.0333991285306419
0.44813838004597484
0.7600329186439579
-0.17702933360531348
-0.6211582847363506
-0.4713608698474513
0.973859591317372
1.200798059729695
0.12990883991775318
0.3284113278944083
-0.9943744650735356
-0.6276281302545156
0.38576893647057375
-0.561549754926828
0.6783100861643395
0.7373645338126428
0.5446727548917423
-1.783282018859119
0.6066868379892583
-1.5282515130295242
-0.042711114879165235
-0.3613565029540464
-0.3444791858414755
0.1945719762088101
-0.10720670571849168
0.6163104677628906
0.4377058103111099
-0.4035299562344269
-1.0042844937818187
0.311307366172307
-0.9017499880096458
-0.46392361281333727
0.3288204461000661
-0.09066392367127785
-0.448330990644781
0.8789046096533968
-1.2042165406524614
-0.3782668968597166
0.019887744747489666
0.6964401713504408
0.07586652368291003
-0.5966785228801521
-0.03362715826220976
0.810545687917186
0.17326578157371905
0.25279220757873844
1.37075060459467
-1.0282480866467516
-0.5063625537497631
1.646290122244829
-0.029546531823523126
-2.059988533797952
-0.5207366351203762
-1.1177020086289937
-0.2394075885808634
-0.21028743999337696
-0.10191259559045796
0.3106590027187625
-2.711754412367383
0.6251390674372925
0.9061363035644464
1.4915480524213747
0.35977974704316534
0.9447438045630804
-0.7407024686769959
-1.5418759953434003
2.205007312206293
-0.3307424310365689
1.259867031074648
0.4802494358724657
-1.325707388550934
-0.9410838485602719
-0.07500024430650543
-0.20513344343421291
-1.7431340470589998
-0.2053860334317485
-0.7517217675993266
-1.0283061708847365
-0.29679961232653573
-0.34032857846318443
0.8363816121729684
-1.283448054505495
0.07154462273087836
0.6576762921070657
-1.0111929922892475
0.29775044318749316
-1.4398554519592353
-0.012255008117442068
-0.5830345937499849
0.8818070439534207
-0.12254717566067201
-0.4920669184302463
-0.09728611189225453
0.17447372782772821
1.166559577050511
-1.1042257133828033
0.5966230045579786
-0.5527319830554218
1.802891422215255
1.2993495598948799
0.4684275958626188
1.0758919670264118
0.10317460230901038
0.21716774873041067
-0.21469254996397516
1.062975473605862
-0.41761715813302225
-0.35699715929007336
-0.44790481699289053
0.6852885166067576
-1.6852593178049613
-1.1010282127346978
1.5855281939729378
-0.1142702620920998
-0.06899968570466536
-0.005022352515028361
-1.4497195032780192
0.3676392384896744
0.0013999914684219017
0.1124309410608487
-0.22531419281162993
0.029669910662476817
0.16232875602368013
-0.10616104941465608
-1.1787123421294399
1.158690156328993
0.7392899523867628
-1.7711428437609755
-1.6804018971492232
1.3060520671778113
0.9285204904818449
1.2009276706614307
0.3257710629969578
-1.0367821291039658
0.2706116730381535
0.09183402056451645
-0.2844262115750392
1.0374910254800125
0.350769259509633
1.2641935830221671
0.9554941229603096
1.2503121566818591
1.6985405387452497
-0.8392700249134616
0.8480452684351605
1.1451132898848893
0.09875575962904992
0.17517745973586407
0.23395364411996294
0.4465079931738122
-1.283432195695783
0.8441554583226102
-0.599333965544474
1.7670208388839832
0.14765369369109838
-1.5536304520674586
1.5020420506066263
0.7858673772611073
0.2884182816574331
0.4948227903490157
-0.7391957395600399
-1.4672542962687114
-0.9241223217135545
0.30101044774869085
1.272055471938112
0.491152242493168
-0.6564057802082897
-0.4776502108961625
0.35592620877463427
-0.04319278537646709
-1.2884830247130485
-1.0846951454771814
0.6688168141541806
-0.30027031928949993
0.6995129688646275
-1.2014606736201559
0.9492937861716289
0.6959508620297541
-1.567413097177971
-1.5241982777365932
0.7064655140224163
-0.31607793595927297
-1.0628436115294282
-0.34302888623037076
-1.1292787163239106
-0.38914870777144217
-1.3844611556801631
-0.10811157745341674
-0.11724297739186917
0.14072616613126465
-0.6400921455186425
-1.467954279223929
-0.7199987826155718
0.8983741911831316
-1.3032721543402455
-0.3814062946119969
-0.5309735795833911
0.6718156414579216
-0.05569007211888807
0.7007363275282905
-1.377836204265487
0.712531600502653
2.1340353594147947
-0.3801374005651399
-0.10806701898777082
0.8829923148966347
-0.23249782352462295
-1.3627123999315298
-1.084495863555889
1.3148695807688822
0.8216235332010009
-0.39956824978243716
0.024621266145133158
0.7878570956712563
-0.2195582106530587
0.35647091606529724
-1.6811264335032525
-0.7193572365979586
0.5671558915558926
1.2741630043671182
0.34818267424180893
-0.9361301704840864
1.4338941419511086
-0.34355346616725235
-1.7255159773190805
0.08636253847170017
-0.5327486985484299
-1.7302384684706351
0.10800765826322384
0.01629291145093037
1.9340071022784056
-0.8324910386369236
0.1602647815076655
-0.4199955979214288
-0.4946487010916796
-0.623273317561656
-1.0670335484180677
1.721210419776062
-0.45581463397612887
1.4723345490238862
0.4581355451742842
0.16673911727825874
-0.2849208757194305
1.4409046786458575
-2.1102350981554623
1.986612486442325
0.6563655753367216
0.5229841620438316
-1.5740751944081548
-1.2960763326694473
0.7030843612080234
-0.6567166617393035
0.8217033538350604
0.11234859585109608
-0.5474602061302698
0.0681230314700858
0.506005239953375
0.5566109831754336
0.8194047847326164
-0.23260058323198607
0.872754514687934
1.504368282851363
-0.5890140786426524
-0.5181146249178162
0.02641363134651087
0.37204073333775123
-1.826273201984947
-0.5692682924675495
-1.0612585424205545
-1.4507770774795516
-0.04275255906283401
1.1626438146506568
-0.7613003945791955
0.5855182354685531
-1.010687525451404
0.36398947798063863
-0.9352448263313743
1.079387424297956
0.4656177245649543
0.7602808360144406
-1.81772730263683
0.30770565917086634
1.0757581323226544
-1.6482797983299657
-0.19846468744191134
0.16517580746294555
0.352228988158533
-0.34535031305221525
0.42735523878086046
0.3035802830328551
0.09467798781404063
0.22994857343911515
-0.012674965936917304
0.7530237208895774
0.15241179562942078
-1.0240699398658788
0.27507807346352
1.9187136057045941
0.11858723355832299
-1.2088600572819324
-2.176745844653472
1.35662893408288
-1.0545769053470435
1.567665777646555
-0.5526927433876089
0.5856951375406281
-0.7467946790024456
0.41849833549506843
-0.5497073125416851
0.9061911082119674
0.5378595396272603
0.7870462834238139
-0.5739534303147333
-0.6790620210169259
-0.9841958642799296
0.6787583863816032
2.0409760320143344
-1.529863823906602
0.8726571873617754
0.3756102173090564
2.6326160602149624
0.8103821204583923
1.1282027653769997
-0.21478841400846335
-0.21473061332861357
-0.013141266735127943
0.7079633715742111
0.7619854871970937
-0.5909703893180586
-1.9612443966340372
2.1470728031439
-2.3018244727317834
0.9312395027325789
-0.15484706846192814
1.1157698407994556
0.5460353108634484
0.09867893685419254
1.0105071699099997
1.2343529369193194
0.8723858051965451
-1.1727944127023884
0.3484554203993856
-0.8965181555686826
1.0366304139898528
0.6021594553712244
0.29099307113816664
0.06979486963183157
1.3367132030491526
-0.43031187773171803
-0.7554096723206785
-0.9616806418740314
2.564358135172027
0.5515100727637432
-0.408538058310724
0.347291377153478
-1.3574001634436883
-0.6777322713627132
-1.1416595747364875
0.43111181850923547
0.8722973930694888
-0.46738140707669046
-0.6272924123325414
-1.1084538835457418
-1.4788505191701957
1.4324830092019274
-0.37301838925181824
-1.5083738576600871
1.6659540316154215
0.14748795201096757
-1.589279408953983
0.6774025277425345
-1.6475460284921821
0.6829473316104131
2.678621724210239
-1.661272024761552
-0.7854281778144129
0.0631250179740202
0.5959167415776394
0.283977015085686
-0.38618434943199786
-0.25326728058496006
-0.23448817360198804
-0.6832122126571836
-0.8156217216599269
0.41246283528858735
-1.2212549172965463
0.5407886138474828
1.0947648279720283
1.779488637245342
0.5896257574850098
0.810908957383587
0.0691152816479701
-1.3775193273306232
-1.5643178402989568
-0.8981839480221229
-1.2724188270478267
-0.246775456722441
-0.007615281985971223
0.13166559895881708
-0.27992264656566174
-0.9340510030519302
-0.6595456533646389
0.31796895771388073
-0.10575370907500131
-0.5918000748091437
3.049606502770826
0.4207504421030583
0.48283871575531234
-1.0880515938815838
0.7861521714323028
0.19268449711023508
0.7818660785819005
-0.7090122020349389
-0.18182601377771962
0.41897689152035017
-0.7120980553849204
0.6468702768556583
-0.9568399669202499
-0.8285326688668015
0.8214199700391389
1.384415772507075
0.25317035584884395
0.2904261092244263
-0.34382501119655573
-1.0048039675363285
0.5633547703542772
-0.3755521292324917
0.5755666207767082
2.0050659757088636
0.022057695037340008
-0.7009755468912221
-1.5021418148348518
-0.472495133172688
0.5715663004857676
-0.9625186240198421
-3.364775953426289
-0.6664138110980202
0.7715876280609204
-0.6111372530308093
-0.8902663218232267
-0.25910995369194784
-0.6437659526258144
-0.6079508461788055
0.36064707995705614
0.19257779221141816
0.4448898099122959
-0.5902941041049384
0.15798009105442906
-1.0800102628654655
0.34890981833454804
0.2124449098478558
-1.4109851436088143
-1.3054337212226215
0.5549014040904645
-1.2711599210414763
0.0652936667957213
-1.1930106512547507
-0.5189479203736627
0.9893595819312804
1.0042253838654898
0.7124682837535556
1.4223497495953001
0.7700083785748706
-0.1086734676605893
-0.1282220751502592
-0.10607427638971334
-1.04930108072338
-1.6331437575832346
-0.25065517732988174
-0.3208649097839026
0.5118555154686456
0.7643000820542023
0.3358269667403646
-1.013736438895368
1.551566844856378
-1.0891724495504274
0.6002688727960487
-0.17265514721363057
-2.9327629185408277
-0.2646375521295023
-1.1246963666031202
-1.041145649080225
-2.252126169136214
0.25002754714421055
0.596552542211374
0.13688734470247554
0.6725385655814239
0.07970088049014548
-1.1717344217556007
1.2364484216433735
1.838706413970349
1.4694806832874985
-1.166523659119795
0.9560893296579451
-0.3439624163989331
0.7855467094369222
-0.6805463125864625
-0.3631852885367528
-0.7713437604033955
-0.6510050511552727
-0.11487378933214465
-0.47984983455701113
-0.07113491197528687
-0.7366255459074439
0.10896035069367621
0.5378583725032227
1.68270563070739
-0.5320386797552337
-0.11518501343384976
-0.09907641492987607
-0.8525216964158377
1.052847614522241
0.15072700373623255
-0.28937043349715696
0.7146992952463557
-0.9848174930799793
-0.8421565775407887
0.5339259432374386
0.8019700321775214
1.0524525757324434
0.8305198116012013
-0.10041609747472491
0.3549588269286248
0.3472926408882862
-0.09310024067921444
0.5612045344208847
0.1564634082129433
-1.7087045377210526
-0.5501000298852899
0.11168553032423717
0.2549660726377495
0.97593430163847
-1.0634222214036841
0.02207725960258823
-1.0089802497677935
1.1258853389750807
-0.8643772204512448
-0.8687581567761439
0.624121162665056
0.7412700077357293
-0.5403875034737322
-1.6983402783730528
0.10282177569756334
1.5907062030006252
3.1457673997630704
-1.1978268455671288
0.933149603459617
1.8115714251238715
0.41725768799538676
-0.43214533316364423
-0.5811778898473192
-0.3298578467475211
2.856605616270384
-0.2485651578498832
0.7078059820456308
-0.8087292370638983
-0.20677946597384683
1.0180874865626675
0.42185396675219267
-0.5336431277446843
0.7732916746276071
-0.9004232606152776
-0.8644538870377766
-0.15975893407944497
0.24156194415338939
-0.04193044801084944
0.6086253363926044
0.9497188493592275
2.086993929001653
-2.383944508595397
-0.7815705302813891
-1.4728642861690349
-0.7609358514372937
-0.6932162897929761
1.4767726198453928
-0.06011215760799685
-0.1983809983695103
-0.13823612404212174
0.25017144468859875
-0.9169441322803074
2.1532538391917506
-0.8783925264462142
1.6372883062598906
-1.0162018338013812
-1.3306614237367504
-0.13927530486752515
-0.03611729539836539
1.134803380816482
-1.2180062241366916
0.8418654528793404
0.5062667952323994
-1.149981298850513
0.7608741869860388
0.3121889053336878
0.21635304250461365
-0.12637020431959536
-0.32235060891609457
1.3628009564479813
0.2910292882722232
-0.9124410438199833
-0.1339653458780498
0.49340285619111335
-1.1809441576436286
-1.103687867868947
0.06714064837260025
-1.3670211795374982
-0.8179343140646115
0.38800132461478437
-0.4543315550807311
-0.09893918798718218
2.1264129045284426
-1.1351206176311657
0.10292648117572034
0.22678450819226462
-0.3781314320107776
0.5495961087668226
-1.103744061002514
-0.21536051200670392
-0.9257294567456147
0.6335571751685705
-0.05653917488513513
-0.40905662951117727
-1.088566595106585
-0.19200120278256105
-0.6493020601403714
-0.03944482202162558
-0.3368640124469169
0.06850247830824874
-0.23182161771523213
1.6737122245796645
0.642189724288845
-0.5686289006324943
-0.10682187883074162
-1.518011925944766
-0.41814475825190917
-0.6033233138687175
1.4999193460793032
0.12872934675373765
1.4220180158066356
0.10396161272563134
0.5882092256194399
-1.4447894406593598
0.5250445475369999
0.3905900085871859
-1.0736461956204688
0.9471223999452039
0.19914069058627132
0.7640904909562578
1.6658829189649769
0.661101622357197
-1.0598179820034992
-0.2986075943226481
0.7086724596861271
1.8355588794101079
0.07360085208119277
-0.11921416550204611
0.6333164109149105
-1.2730268553422799
0.23661849966690116
0.16596401596657584
0.23008979707666627
-0.7940548102496763
-0.13973233774577418
-1.838370842705321
0.6032550607693091
-0.3260007423918823
0.09330645300924477
1.2992642164280483
-0.31756993332775024
1.5091108692702722
-0.06748778152867174
0.3513639017134206
-0.22468579734219585
0.6454176616800934
-0.46204599050784834
-0.8205056434657632
0.26502095109724755
-1.127152960557609
-0.9704795536419254
-0.6098169100779762
0.3111540501672053
-1.1381653795478293
1.124395388334905
-1.5050669880687344
0.6372348558693521
-0.17509966578108926
0.4390627743134796
0.9592695996907182
-1.1026331439405814
1.0290267949819243
-0.39129022976162675
0.27112196177020403
0.06353548475952447
-0.19703764837632554
-0.47216291680420736
-1.2210578551120843
-0.2925694284622781
0.2179223815144246
-0.35276411713937267
0.7828746628103367
-0.8066689528381437
-0.18661265560154122
-1.9306061819836846
0.321441838750007
0.9164911612722719
0.6592298490285379
-0.9761643316001272
-1.3598811438439644
-1.0019025264587813
-0.17989284341886247
-0.023508056339796884
0.5667635773546074
2.70206189153144
0.3678006634945525
0.16793992884033637
-0.5295889758516779
-0.7922913075181391
0.3735634957770476
-0.26532109285311845
0.823228268298783
-0.07110449343338021
0.7924434156089006
0.42718963027652657
0.12761112815611986
-0.5780289394531803
1.1767429981833755
0.034088045493962105
1.001291822916025
0.5769051737081072
-0.24060826823492554
0.18110212236317394
-0.9809431931180039
0.6477836826098291
-0.2099568474926472
0.06687912277376967
0.33964022050008
-1.1097764079607269
1.187937179294621
-0.03949488923693105
-2.232889816171837
-0.25914174133908474
0.29690392862007087
-0.10195986199141993
-0.8127607635098485
1.2193672316931492
-0.08726561240928266
0.7107711404905138
-0.8593026781699477
0.7809168370254284
-0.01312045007615703
0.06633899672460464
0.8891527520271746
-0.7786199839168322
1.0585739224467203
0.44368197785251073
0.5033043457100108
-0.7404780933656696
-0.564233642318627
1.2244886151769054
-0.5025867585635035
0.7755530807392517
-0.7226362319675433
-0.4128969334560923
0.24731703514100808
-0.2975864595103373
0.864906411158247
-0.00214472683638732
0.8930198619612996
0.18654455874120254
-2.2937101629908296
0.44451519963272623
-0.05469579163804228
-1.6018499616864381
0.6307572485447183
-0.06796197472375638
0.2315614528042253
1.3547830269848502
1.1204150842959228
0.7557459482543927
0.6866404737375292
0.586074513966732
-1.5209076658735405
0.03559661411952253
-0.5190040175243781
0.07288103071968788
0.2518016201252486
-1.1995642950346974
0.0011330168264036544
-0.5985544292676991
-1.523917751087739
1.25797794364284
0.07263913021925135
0.6455202222713626
0.8151951337749362
-0.16913732942606322
0.05941909823327679
-0.38038191112757774
-1.8280091494300692
0.8946370729149015
0.9480128601207148
-0.9436699994903409
-0.9682507064016733
-2.3647158672109287
1.6199735877319186
-0.6902424015927137
0.5603192130809728
1.3767680126496478
-0.3856985516120861
0.6905799389683713
-0.47477619359563306
-0.557083273821981
1.0263282393562796
-1.7551239875846938
-1.3104563964654832
0.8342146968798352
-0.18021314673258132
-0.27000598682310023
0.03957659095709826
-0.04582432213585083
0.3223203958936434
0.13811912247503544
-0.458128558208064
-0.9762213470797465
0.5268358280683793
0.8103826124507199
-0.08208174346221728
-0.04966426614839642
-1.5062135213488683
0.91822844476604
1.5003243163093316
1.2907357444176244
-0.11990632436843277
0.24395209338264784
0.8787621037977587
1.3298678279961405
-0.06917390902872989
-0.4484453042723783
2.0902246841188603
0.19715903796294393
0.5781606947377282
-0.5590737502230867
-0.36486993674507356
0.43126273790815145
0.7923113163475259
0.14399418318435236
0.5545899463790779
0.3209298799296991
0.3718339684997809
-1.5892862412050544
-0.6694342733587766
-0.29141782903431945
1.3227224710675438
-1.6428080795787283
-1.5675977207972842
1.0724284426431838
0.34625716923501954
0.17126734400073185
-1.019609194185392
0.8055519264622076
-1.3676555938219213
-0.03909524288640617
-0.7027788318105227
-0.2609004253416472
1.1023896682568046
-1.8289294651237995
-0.8035559069215208
0.2534077002615992
1.446816695087178
-0.8263931187129074
0.8243075185051094
1.3370455452374268
-0.40458885685465923
1.1021793801272406
0.19247988839475078
0.4226512810003549
-1.2520003308759402
0.30510570885309934
0.15293932051191053
0.06930860255426781
0.7844268178844329
0.38939412399249307
2.1183144411530104
-1.37551047496796
0.5505422327199354
-0.36862182129961274
-0.5458313933296604
0.172087026451483
1.1651785466718543
0.5248264307987622
0.7986228040383776
-0.5120303848995664
1.0204108961298717
-1.2693214109415245
0.703087769253744
-1.1978061816990067
-1.0068647177966108
-0.10021196057221798
0.4245233593514305
-0.9836767635778203
-0.3753469985200979
0.5413104296428023
-0.8896835565687914
-0.5008835084984855
0.1777993452298307
1.0540305408556172
0.6462152689678206
1.0533260060766763
0.8708585535706135
-1.3595645947034438
-0.24149577021930663
0.08736644638239521
-0.4557664948448264
2.066651933869161
-0.4509383870997844
-2.4221928551768555
0.4610531667032186
-0.8460971735537348
0.3225089372820602
-0.767779288105088
-0.5173492258541651
0.6157699172858502
0.5465616418479866
-0.1554225163131621
1.0995894047084394
1.0205282591576117
-2.4964247587467128
0.3665234875773265
-0.7669778356745174
-0.5507426872412555
-0.5100784609340636
-2.9635760880285678
-0.553238183853916
0.7442615319652702
0.9430950308778985
-0.9914803566515089
0.126540386823556
-0.3569535991978323
-0.5020922737689941
-0.09632057131960647
-2.2063482608636438
0.2109259594857314
0.8311410957100176
-0.5244168651933836
1.551515125403509
-0.5922610821339817
0.1607847012950511
0.7150639609251108
-0.13951112917928787
-1.9577002634016305
0.19550193334131175
-0.1515536378664022
-1.4026857755567623
-0.5155204018458621
0.7444910921371353
0.4822962299083394
-0.6445165582646186
-1.3339290004658944
0.06938763066451625
-0.04900939421184081
-0.20263311579370852
-0.8763062007674995
-1.162869683042672
0.7667048048095995
0.613005493970388
0.14523816273185103
1.9627990360383358
0.858499312663499
0.5233594706978684
-0.6236928699367463
-1.1513229375994545
-1.3094525388109775
-0.32995600641541634
-0.20297478479145892
-1.0370719726064372
-0.22996116430962157
0.863960808644524
1.9401461402860591
0.4906470262856587
-0.5544699106771526
0.8901491151147594
0.12716418921808337
0.28290033828612776
-0.1373634491698994
1.1181381748006607
0.028944439178766324
0.22445176509399528
0.51517106710689
-0.8174257247572141
0.4180210521478472
-0.33302195114163813
0.3671307125216964
-0.5009409223208311
-0.5432525648477321
1.9844733545213966
0.18644111626821064
0.7340983598675622
0.030301238107596884
0.2611050986040073
-0.3340684427182986
-0.05741466424170437
-0.7805986631917738
-0.4472045343236412
-0.33238310108544356
-0.4130553959513162
-0.11378272238007597
-0.26901480909686204
-0.5907538635710544
-0.3347568402859502
0.25377285083508966
0.19377565375527667
1.1712518729018997
-1.7232929464058642
0.8358711802977165
2.3170368887046457
-1.6588378587897692
-0.710811291819179
0.335704894886229
-0.24975363787500995
-0.8901798763707864
0.16692732294910795
1.1834255525511161
-1.2732338222135304
-0.44398772345383974
0.5308111532601347
0.20126849386051499
-0.5533997721839122
0.48460305137181936
-0.2560330928646479
-0.5896826496052378
-0.4346816886513386
-0.8134044403430019
-1.1218976846868376
-0.26104069942685415
-1.3481621378805908
-0.2874713948646043
1.5467497126947491
1.0971593437029368
-1.4037374572886472
-0.41473262433761804
-2.243545648837245
-0.1862202293652663
-0.2905859284693141
0.6115370997081122
0.09759231393535514
-0.31637689999560403
-1.4582102478730536
0.7232017324062499
0.7899247583190865
-1.2129202510301704
0.005685660555243999
0.49004425513123184
-0.029010425251979582
-1.3785766452718065
-0.5277767102007053
1.3644998070656769
0.2623137589286478
-0.08207100792503302
-0.23428292566820957
-0.8282243499761892
-0.44634274320979256
0.11401046178475277
0.3019538675524033
-0.7148412233332699
0.11046843408300569
0.45033902955388516
0.434966535119952
0.37608929585805617
-0.39477784655339976
-0.19347816727234984
0.30564556011360533
-1.6778953768437894
-0.18044610891208443
0.8111885100052437
0.40062539330406766
0.46183505871147
-0.8554574874272648
-1.1202659557317285
-1.6435626171404936
0.3655552446007253
-0.35651501125162083
0.1809126076371098
-0.13833732137636603
0.8587856821138729
1.3670536541322051
0.03880074234621375
0.1999877132405472
0.73185472712043
-0.5283903588199079
0.3225688294084804
0.4383461526237043
-0.9320922756177474
0.48489161943212045
0.5260273765773158
0.2571421803971361
-0.10694816425133713
0.6560575163433047
-0.04696062798521973
0.4204666844491116
1.0579988006316208
-0.6919871052840779
0.8900087092340834
-1.2259431545571304
0.6647236044501601
-0.44673724920852126
-0.20440437947036605
-0.5899439966158697
-0.5372327882493938
1.1317872759311787
0.14445966116300107
0.5451154756594186
1.1103083069298458
1.0391186759573259
0.5758698472636291
0.4243468470100232
-1.3766707550634067
2.2242723152634163
0.12708074448314988
-0.7619806290195088
-0.392257364410616
0.4098263282135175
-1.134352420187412
0.13723878379458876
-0.8330358182814918
0.36683279955719406
-0.2689162779339576
-1.5398293036978006
0.6415241462310075
-0.5515304308765937
0.9224478479323788
0.44509446394386587
1.3872149785713512
-0.039383613157343345
1.7833760737101154
0.07831340906088796
0.8718582598883517
-0.8603990499952441
-0.6987144550392409
-1.2390306245758564
0.7701914577273716
-0.23319805601983243
0.7973078469340089
1.4411129135029006
0.375831396789053
-0.5537908013098701
-0.04541780153492475
-1.7671487451189059
-0.628684901060254
-0.10253730209159888
0.1570503901022448
0.7833116527108301
0.8871779958735
-0.3640370677879638
-1.2483641413961342
0.2233491472360423
-1.0374369122129434
-0.42123392044300345
-0.7384096441490406
0.5811228623538085
0.21175529311997815
0.28036125721985944
0.6812659816554241
-0.5579611545222425
-1.0297496911599358
-1.3637113723057035
-0.281998889868013
0.22735707694864962
-1.9415928576096273
-0.056613442824928695
-0.26090625789429145
-1.2643758303018122
-0.9986416000157438
1.131870273624186
0.6009839929674962
1.4355674064518904
0.36636872067055565
0.299772133432624
0.6563185270541417
-0.33834260932499505
1.7752930794354251
0.38963624377100964
-0.035441355653728635
-1.0400867948528745
-1.5545064395432935
-0.604357416858796
-1.670707175926954
1.3796911138196832
-0.2519840885221816
-0.9825119041974435
0.3230267035939701
-1.19550493193264
0.36687079034268133
1.8381880741184549
1.2586588433206183
0.993287133101735
-0.22696980778700218
-0.621454314659371
1.7273880135172504
0.967072915556662
1.0789440480766457
-0.6508315270900423
-0.7472531949919742
0.7207647664516149
-0.41068782872869924
0.8700860761583435
-0.5914355445521776
1.1415638699178825
-2.100431045514773
0.43076666990363544
1.8845792450387988
-0.08850974227145367
0.34986389052855293
0.953801577897418
0.3474257809573558
-0.47259208017309917
0.42526628108401254
0.21378381491609555
1.0351915364202693
1.5317461778489205
0.03289943165643304
-1.0363441111610552
-0.6306896473930131
-0.4043911985708969
-0.3791062678812493
-2.0209637903712654
1.8071341708755542
0.22500337826634795
0.02284150155164366
-1.9658375726101414
-0.17518322711545764
0.1879838520808606
-1.010016035893735
-0.22846110252480126
1.3209178306124123
0.3394844053290682
-1.2297642496824153
0.8758826596944135
0.6131108238040831
-0.12358974390352773
-0.057636162603153115
0.3721807906394611
0.6110755681289075
0.5733105533225368
0.3171616999326748
-1.0852962975585858
-0.9488194496335708
1.0060481932638679
0.27445112395879223
0.607336572252595
-0.972815132458064
-0.28948810761059396
0.249992831457023
1.9124547043034559
-0.2675386976619014
1.0168804177551303
-0.2948009993315099
-0.7452846027764801
0.6103998031094506
-0.5070714436423565
-0.2169783631018879
0.1947110728771329
-0.6906422283753115
0.5599781198283269
-1.5452358606711083
-1.891554302492569
0.07526788728815242
-1.7748713822337756
-0.15804597115266417
-2.2363914216080616
-0.01101520948241591
-1.1712240062125916
0.3103764544277449
-0.840770803444248
-1.0342104836939943
-0.3524489259962717
-0.37373943100786283
-1.724718607843102
-0.09037282748980788
-0.47298533984340607
0.8815875887173363
1.568290307418835
-0.5485351500021434
-1.321913512350161
0.6890290961352314
0.32104486655269
0.60291739745577
-1.7856293842963988
0.5938020538023209
-0.30047509493733504
1.0592608651003315
-0.9473632375629419
0.15805029624154984
0.5438027728639181
0.09852309675106069
0.0755134721555345
0.36583062927827853
0.1525758062826129
0.14034031495242272
-0.3408074278759845
-0.14246887683212128
1.2149545387125338
0.7261920020515538
0.8217628756156382
1.6364895940323507
0.42382673963981726
-1.378048337422527
0.04158085498423589
-0.2416130289055931
-0.42603029330959824
-0.7820457527616776
0.2761138425539667
0.2366034677286583
0.5774431830807262
0.30002401400526185
0.9054164587739908
0.7956393790700571
1.1491743221973967
-0.6185629246340332
-0.6157543599573297
-1.0640206389163795
-0.8107435082466276
-0.53472026328426
0.33375357214221496
-1.3223229216184287
0.4731745535394179
-1.5967176519534312
0.76884229191384
-0.668615001124668
1.039299423835213
0.024323882242475198
-1.0410232375177606
0.5300726484762694
0.10177176752958465
0.8656740373687892
1.716447665471477
0.2762130270406927
0.5938447905334142
-1.0266004496892387
-3.0145891661419815
-1.009338047164878
0.3554900740809993
-0.5823970748536194
-0.1993333580244894
0.042785439420301385
0.3537312570629149
-0.6960217622045286
1.5651667394887903
1.0793421809575974
1.075711809633416
1.152750852497654
-0.7357410680378594
-1.2446666999665492
-0.38330697244971995
-0.5998615055236846
0.03880141308842841
-0.29428673798511606
0.7661487626355246
0.3894426654676351
-1.2133343758984516
0.04423674441071718
-0.26193501038604444
2.036806270915332
-0.8664183900517628
-0.6477100958330196
0.09952718623944379
0.7422037370926279
-1.5347232862658713
1.559363953736782
-1.4277060590547035
2.67780032329937
1.2682943189780205
0.33167019190297753
-1.2033089203801008
0.04706416588638396
0.75385524094931
1.2147259717210945
-0.1650713098741059
0.9789796228141676
-1.8960786870150277
0.12827951300516005
0.6323072785442575
0.44677508232807894
0.21520134888442155
1.9324829576432834
1.2745447120098372
0.1228028566211492
0.4150497890078584
-1.0681930543424432
0.775197038254087
0.9071515738537976
0.6336134257765971
0.659894879656172
-0.03385568131264444
-0.6774484941479191
-0.036796740379755666
0.3218539068240947
-0.14510292123634588
0.023546219543661873
-0.34826972322205096
0.4629951896197965
0.1168850375279766
1.1620860764466638
0.5561512741529971
-0.8043587523716423
-0.10741162281919892
1.4907524190726436
-1.7866101713345608
-1.0585237880951335
-0.7374307498716043
0.5909446894854192
-1.630675335167969
0.24537141980930566
-0.8770647458096272
1.5113011803312626
-1.3816915018058196
0.051202226242261284
0.3463327693810734
-0.8760853807848143
1.079641361484487
-0.43062193669302157
-0.45323030565732314
-0.109747879046724
-0.24117955506628214
-2.445173675287528
1.1249479667311473
0.023069313483496667
-0.3124123837927369
-0.9694805321420447
-0.5367745520727667
1.1589791876427982
0.9324059327733375
-0.41755219350490996
-0.991411884470772
0.7922245402573936
-1.1068944665722902
0.7797049324660871
-0.1388043690323249
1.0724321904267928
-1.286598451815669
-0.6418493764863266
-0.02438354581767728
0.8828476833235047
-1.554569615530129
0.27583608328675935
-0.16137632549304357
-0.9507704683172657
1.2784388884596547
-0.28293842173221195
-1.4942493285388783
1.4480591927476745
0.5930624179424623
-0.7553070038926821
-0.46542200567411673
0.6594544445523092
0.04063879915090396
0.33833471744904653
-0.6707039723929015
-0.364913112888699
-0.7049648119757026
0.35276004382420917
-0.29103059754395627
-0.08785451684954437
-0.37954767024499664
1.0208061090981517
0.20830185100489373
-1.1538071428451366
-1.0539574191059482
-0.4128830006461695
-0.39547366915884474
-0.7491951153183771
0.645857445810809
-0.04436556860380906
-2.348071088318612
1.3749215513806512
-2.2130265481758373
0.0073181978769405465
-1.938471526420797
-1.2279927039611116
1.1676163275742537
-0.3666285723249926
-1.2230075126960513
0.8060523262371847
-1.3023542579399896
0.03335995604386133
-1.3065420593942407
0.2021096162651042
0.11844704729243993
-0.3858360748265165
-0.2480526916604013
-1.4004451329965626
-0.32764229274075635
-0.18257335907183217
-1.1922687138235035
0.12088670910695148
-0.6819373436590707
-0.9953281554548892
-0.5367937141266947
-0.11815586365181308
-0.30076145626109363
-0.37158623491171544
1.29333910981244
-1.460926912851182
0.3205203391383544
1.0047718829445584
0.775022640175065
-2.028983691580989
0.22077752888111307
-0.5866196989953993
-0.39088071832939053
0.1036051475810088
-0.7000159103476712
1.6969232663830502
1.2334499210575036
0.768155052076983
-2.097484098352341
0.21613837915780176
0.8148311770135988
-0.38139397189100704
-0.061389863427211096
-0.393013735377185
-1.8223718714374182
-0.8192894885404264
1.0095111647171255
0.35803014857945026
1.2382714009352744
0.1151812292193104
0.020096688946511954
-1.2578385187311547
-0.047437546802507946
-0.3868997573825281
-0.6439658886930452
-2.718799840463694
1.1472527848982172
-2.609814568068398
-0.8513325675065341
-0.7666057575217915
0.01668604919880423
-0.34526443350239877
0.6902140225910661
0.9534206458263569
-1.2101678945271652
0.6886580468765459
0.5308653760179234
0.3032703061216955
0.1152031670851611
-0.7957921187856491
-0.7351334150727236
-1.707259694776781
0.362264216253967
-0.2773098177264751
-0.32706314458032176
0.9816933093773647
-0.17778036313788573
0.7243282020865444
0.8476051946814962
-0.6701475808266998
0.27892728715172677
0.6215829206786172
0.16202205001641473
-0.9153717943587142
0.8725600573365974
-0.7455105818746066
0.555041643729262
0.4690480418536195
-1.3825520947959524
-1.6082307715625217
-0.5275036443997869
-2.1328944429810632
-1.310425005048668
0.09326206445046062
-0.5002978300760045
-0.45590867940090285
0.07879803136015329
0.7403606099670942
-1.1313830551560846
-0.5846863670097449
1.1750026392537374
0.3929001428753994
0.1741826448487006
1.6992974418697004
0.9282927103377892
0.19578578671138053
0.8742038853344063
0.685362415219965
-0.30432425829632287
-0.31598632341753075
-0.7983700322913598
0.4616727163026054
3.0019798869854313
0.08815687602273348
-0.8590007865465953
0.09650933930462621
0.5865174446238582
0.23047890045070007
-0.4381819281565871
-0.5528005646860277
0.18223214729219606
1.2228652653382488
0.09739816155785024
0.3162237071078608
0.213449437084147
0.36539434914813296
-0.49763126185244716
-0.9152569725100148
0.10780054755745672
-0.7413903007581166
0.5524798804320842
0.33303467608651444
1.3134615523928177
0.09336927010173812
0.034508291858787066
0.039321022056514526
1.0452190781854056
0.7976305858494975
-0.9673912049428249
0.3811892581794884
1.6853387600892533
0.6835221696908708
0.3035715468737781
1.9228536585373681
-1.7108519835430869
-0.573610414474931
-0.2916160024274367
0.5089735066023142
0.8364384290124185
0.4031746819261987
0.3001642037965254
0.24895657166901308
1.19052680709718
1.2497010954350727
0.48859821030647
-0.8329525148678718
0.7673312016099986
-0.4339101952658921
0.6585571320168143
0.7349624106150545
1.479711928339842
0.03370352916187658
-0.10717167803331201
-0.1167207095736642
1.6813208779355606
0.5538305855539165
-1.0125907903108697
-0.575284400149187
-0.22756671275659435
0.32845959495103927
1.3333500900456663
0.6993002497842543
-1.2993588442311517
-0.1311041019462945
0.1526419644012195
0.5283779828721377
-0.4448409900645376
0.23703077768064273
0.5410739456686788
-1.5147527424030875
-1.2007132850732198
0.541813573419958
0.6423089517716153
-1.7117637389478169
0.8724471157651618
-0.30046471339833863
0.23150071304114994
-0.16151688083448704
-0.13595609589156565
-0.5384219915815267
0.7733853275982013
0.7448138933088384
-0.1869884161765264
0.4783985930843043
-1.0491439296182383
-1.2288822750396113
-0.693386616505236
0.4732289856828909
0.4195350911544463
-1.6764467618059846
-2.171316078138216
-1.4202817672306918
-0.9142893205524092
0.16249192427403103
-0.37472638258681995
1.3192214546619803
0.5574045275045421
0.5448043957946214
0.18901164612411508
-0.5675355943658581
0.021306740414452074
0.31260028693879777
0.3390230737327109
1.15529489522506
0.39815974711377405
1.6398201291713776
1.1866469344500923
0.6425895887352254
0.776714257845426
-0.052162908016665815
0.08040227179421164
0.3836289244506759
-1.390706251815144
-0.6885965867678674
-0.16277460882193479
1.2151068866722519
0.7894586761141709
2.614946435795771
0.6762842501849796
-2.118358755273178
-0.19468995269433695
-0.443295239365256
-1.345844610695755
0.49321992638404966
-0.6295430605375841
2.5317217589928367
0.8303584009936525
-1.5042100918302423
-1.0818623881664682
-0.24074956476336062
1.160206519090627
1.1946739896500955
0.29199326110432194
1.0483478655511391
1.4045338864388013
-0.6549705088849481
-1.8001393150805103
0.21395387999190382
-0.31475987748536643
0.9805784739593695
0.9929310525332564
0.07064908938525283
-1.3348433779539441
-1.6557816053448884
1.110553724859621
0.8513497928725089
0.5301349645178333
-0.48262495255584
-0.17353317520563843
-1.0904147320289936
-0.23238470995079924
0.7843673501352681
1.3389258652321643
-0.37774741710457593
-0.16762637396818647
-1.3934837043546153
0.2479163815694722
0.3907037582686014
0.8655742559164532
0.16477732682417803
-0.5350570705387425
-1.0150170142495794
2.0024845683960617
-0.6541622946791011
-1.202643007937636
0.7273628138397368
0.19082286411505783
0.8787562214192701
0.6815885054312601
0.8861517257914344
0.13558872914885722
1.0744727598846893
-0.505656572833658
0.39180572211239656
0.5272185172927242
0.3827623874856744
-1.0193145263231325
0.25911742503178875
0.9634121069753228
-1.1065707898826185
0.23027997968571923
-1.7986334142433658
-1.3787530047934822
1.4842617335962218
0.22649138044674977
-0.589169779172333
0.5553754034342732
0.3061551013500291
-0.11265049535986221
-0.14611119073316992
-0.43853904510677755
-1.2401216714374168
-1.0708931790327672
0.15507419648098186
-0.3272313230760867
1.416005076700406
-1.5532267258720127
1.1163174681485366
1.0029801255125375
0.5353662898916196
-0.07859724954130765
-0.6200474645534637
-1.5253671686853785
1.1582669662739693
0.5452390326477502
-0.6518275401408933
0.7718143056197364
-0.10891171937472124
-1.2702915629949059
-0.8854730678253762
-0.17248764012619766
0.33806255944053154
1.2470462644940636
0.3897680226194069
-0.5233943521438296
-0.7774734044866801
1.3898449903432493
-0.6333429717478123
-0.5051458701384034
1.368856969037539
0.6304371290707018
0.007532791809822081
-0.7192063150987844
1.0203700364751103
0.8662605002600408
-0.4392087559848993
1.5110200003477854
-0.14388247649194724
-1.7926688442298868
1.6938449034470358
-1.333228624849096
-0.9447616345180804
-0.3592869649099313
-0.3555045941083941
0.7773621281356164
-0.6954765270041657
-0.5931109509189253
-0.17125450975886752
0.8843407910411857
-0.2119393084964326
0.040189145231697365
-0.25092699041108707
-1.9877187635227829
-1.889626521586944
0.7256547171746148
-0.5357416732741122
-1.2423174022968193
0.28671557498674627
-1.3027004322146354
-0.5474221075639407
-0.7717656987636217
1.6567579809511401
-0.41517331198783974
0.32970915710455967
0.5086397817483836
0.9261013695013978
1.4664033640468142
-0.3681455219584233
0.2575584160938407
1.283486801431858
0.02848135662047918
-0.4435271395954786
0.5823353729919796
0.14382185623976618
-0.5975807085546924
-0.6123046214208785
0.2575298215518347
-1.2429183585583616
-0.8333764116026968
1.0286396407811602
-0.05680582043772581
0.6310672279697777
0.2804581876991353
0.5511379378162093
-0.4561119508176857
0.28878475790455693
0.025474521711324083
-0.8128906773026086
-1.064136665704568
-1.767816942620144
-0.7289953187634937
-0.709343376971067
-0.14960966812997656
-1.459839737788929
1.8798054716138388
-1.5699175339333258
-0.05612877647298098
-1.9468231149213682
-0.3083650163292761
-0.40223411362118894
-0.1692028692676904
0.41620402196855927
1.1365786115465124
1.8847895164745063
2.0548285934271786
0.8693666667275871
0.7219378674038722
0.49666965244079186
-2.720154402036262
0.44993985832440686
1.359175005443138
0.08161420912740341
-0.818069936545562
0.6236403822774138
-0.04311197673874532
0.11882299522893428
-0.26432545866217866
-1.962301775580309
0.09029139735489788
0.3198211831543124
0.2933916725573745
-0.11168544071477218
1.5918519435646277
-0.8065071364642957
-0.43781844419351945
0.07847563723357757
-0.20476484607062403
0.9152584640000339
-0.4461223000547998
-1.59080410079058
0.8026960502346951
-1.492334066715446
1.399428443313571
-0.7495795155334951
-2.8833231879377417
-1.4722662577327665
1.0522637703781732
0.22135796561016663
-0.18600691822216886
-2.4563988393964893
0.014934794407484131
-1.5168084047019366
-0.3642529543514678
0.579212865621348
-1.3217677140791078
0.22877526827062422
1.3788398647729734
1.3104261931456815
0.6621781488504661
0.046102539665991094
0.6843387368071028
-1.3237315735873765
2.044166017330769
1.3097523595857417
-0.11045423509232316
0.015398432626645586
-0.3950000799019877
0.9754826151730767
2.039973793167226
0.0954798556354271
-0.027490797905063258
2.0587838480363487
0.6784901788091696
0.12573796181168828
0.7680512209863735
0.9032443435017183
-0.717778486178388
-1.332056699711364
-0.3499624243027972
-0.500110244459381
0.8310702494825792
1.640474317268169
0.014273180382213035
-0.2357395365451748
-0.37659878354442805
-0.16094587795731258
-0.6178868621625782
-0.12509314991730608
-0.6979521193654782
0.506423772538996
0.5135499659168796
-1.1327813031181009
-1.0111783482279375
0.07328324989862216
-0.002950488010030587
-0.005591913366244539
-0.8926342149886262
0.26457465591018803
0.9280146294119407
-0.5198474545662914
0.0487269431808616
0.5463609291121017
0.8443824791126491
-0.30343991002936677
-1.0140856971635013
-0.979039727262514
0.06439724945975
-0.33477537442916183
-0.3730080328222683
-1.1179117032694394
-2.176962743079976
-0.22483249172019398
1.5933340690952948
-0.5598929533453956
0.3198490177127805
-1.4421538213819698
0.6425508461616627
-1.1899176594529575
1.6313270254975172
0.5858129002445969
0.018649223401018378
0.1140594562089258
1.2798744228518077
0.6289025435302876
-0.4615834026796247
0.5557551035508839
0.8766383508289728
-0.1785507654616484
0.006195654524950023
0.34374116186779446
0.13873771775214386
-0.07692621052297927
-0.12427865414208344
0.6130873970859122
2.9041349757886072
1.1930444340772417
1.6512162215020958
1.4802373720371511
0.033114023353867234
1.0200013073592968
0.2838905090377963
-0.7710872711266987
-0.8920476381261465
-0.5583868490091357
-0.1720473542366093
-0.2019048169243506
-1.350572023158039
1.8943704372555519
-1.0983827946184308
-0.8017760530048814
0.2912074531980715
-0.7609870897668249
1.2604210627675392
1.204052646099207
0.5077718462873337
0.8887713959978367
0.006803751265582414
-0.6535374385999624
0.03671846904931747
0.2229970956985563
-0.19261961014409348
-0.14488982263103206
-0.3544489198785937
0.1379330501587258
0.5692939962596602
-0.5805400508035007
0.505722296334199
0.3318451952439284
-0.6104294163753552
0.22493142924215007
0.5562655295058726
0.16246140986301538
-0.7683991975805236
-0.4365315469808175
-0.03556579323052639
-0.3651857531947925
2.11271603472711
0.901629909367115
-1.4386518383082483
0.5744393011347555
-0.15635448617709913
-1.1692891868287676
0.7440492038295806
-0.5663031886733207
0.28789196369471326
-0.2851756802933082
-0.08874901725846762
0.2274613551620951
0.24694121664171953
0.6003431807434167
-0.006002666778135546
1.0479337003828544
0.501312154441355
-1.0424481261323653
-2.5412680333320683
-0.18573591443630227
0.48810312211468165
0.6872393204870437
0.25432977346064356
-0.5800052048880164
1.171359467430357
1.5014193759926162
0.4681067292732358
1.0996935252611935
-0.10901141218228094
0.7149450411393268
1.1017108516955698
1.0407675016268545
0.04451116854287446
0.054352041814562574
0.13123806184136821
-0.5052239278013634
0.026216501637183882
-0.648890148397601
-0.855095176226867
0.36083043420568317
0.9648818315478523
-0.18060532025377707
-0.38145879749563194
-0.11176921701102512
-0.8873050527364368
1.7871260797053774
-0.738428929882869
-0.13768822947492548
-0.7663831100953462
-0.043704258991625236
-0.923993004214505
-0.5008915239549295
0.2290596026376251
0.5530814187667783
0.1732435552397733
0.3648775430872935
0.33874990305390695
-0.4086786129537616
0.18829044401165312
-0.5519795279860095
-0.1269478177753608
1.0033764635933053
0.15539314916490254
-0.46760968686541526
0.3590049002999711
0.0052473596038822845
0.6254762054796068
-0.5527891675297265
-1.5975653961335798
-0.21626139621617885
-0.18804752290326143
0.6962100064519672
0.7489865435801849
-1.5455603578305719
0.31137776106664816
1.80687668019663
-0.2612067651497536
-0.6831134146947063
-1.6204899492199158
-0.3693063914234557
-0.7678098761249528
0.7077698894214245
0.06741655064189966
-0.15173902573867593
0.7350239706236719
-0.1994875109909955
-0.20695209165449688
0.5961663348423681
-0.36479623691710567
-0.1704600607086523
-0.6254467506960802
-0.4330910980813536
-0.09195345710020386
0.7370553345566875
-0.21882970892743903
0.10123749792410033
-5.940153881150989e-05
-0.4465914034384918
-0.20324401437422623
-0.9754544407292782
-1.0376834767141954
0.7685702174420387
0.04133206225564223
-0.812103713344594
0.30526439911821235
-0.5210246226374486
-1.296543399848999
-0.5718717656781629
-1.2448828075080731
1.2828105411113975
-0.1927045477052214
0.28044358979961836
0.9219198232913979
-0.5576155284970357
0.3929243372920465
-0.35280524162829763
0.17542699418294488
1.5375913362661884
0.5272218908959059
-0.3134919312554384
-0.6776084430491842
0.13160176600529
1.1006461929934845
-0.8602266910550638
0.11037176341082844
-0.669826805238238
0.48426475180412293
0.9331656038070333
0.20659876693893658
0.8150024722941172
-0.049265976476073614
1.3535568941046323
0.023447585575592567
-0.31986675555821953
-1.417900274121736
-1.23822055905273
-0.08094002985940485
0.30030872276766113
-0.5146038801092564
0.4293396012033299
-1.2672902249357763
0.4497846605706307
0.033112161558845166
0.5991467454853955
-0.2412830199154363
1.7793315541854826
2.2260577104928974
-1.3806922878911405
0.9542942832824083
-0.30750087542672944
1.029370431559337
0.19728211405118656
-0.3149127049207391
-0.33338368402119045
0.872992675795984
0.3340744365804059
-0.33765064650812143
0.2808698168955588
1.8606764780225908
1.240257579457829
0.19964234423751676
0.8147964119221487
-0.40929555930765954
0.1505112982610228
0.9659887217110028
-1.1988691819567778
-0.35473073272986433
-0.8466685893541376
-1.1338061344121604
0.27432286253846117
-0.3572711461103213
1.0926623914643105
-0.4135025771199019
0.058631775055421914
0.38612167222076754
1.4037491723920972
-0.18185932648944017
0.20832058837845552
-1.3764684641520868
-0.7285459133151079
-1.3623857798865535
-0.3854045212297086
-0.46657646255046636
-0.31341218835348705
0.07350449943930348
-0.07510597990215898
-2.313668117672951
-0.1890900506192213
-0.27415129193468013
-0.1943303199749249
-0.8544323392282421
-0.02457344729038835
-1.5271893111702712
0.486265426371482
0.35678757446590204
-0.7283696547759273
0.06262725846106687
0.3601041317848219
-0.6803216113287409
-1.2731909664151464
-0.21366039680631554
-0.33806111164696995
-1.1197880233171444
-1.1057527583464923
1.1819029955472327
-0.1127263209139347
-0.2064018817246115
-0.22392352066951784
0.6131477761148091
0.7449103654325708
0.005021249560196284
0.23862717353906163
0.5985041315112889
0.6077137363138887
-0.05629195449346852
0.22224383498428085
0.4468293691417776
-0.5205425378151145
1.7292088894588773
-0.7689763007901391
-1.3684752081266258
0.650939244360336
-0.05916604639400708
-0.5325128246407556
0.7836920946910493
-0.17141960443464527
-0.042202304932171114
-1.6698378262884512
1.0927044691044197
1.3829585427939668
-0.2796515522185407
-0.3136162780629883
-1.8410614357249506
1.777409940813448
0.9652697137077334
1.4067728268207453
-0.33472650587384256
0.28875821011915526
0.25196203683676593
-0.08020996372642486
-1.0578822607917113
1.1229162439914564
-0.736304293334039
1.3159248129212182
0.9688884776194173
0.7967198672781515
0.7595001390692344
1.1310726606504315
-1.3026389026625464
-0.28840224090771194
0.8732210097233094
0.9653653717772251
0.6572927000965901
0.5016635789257561
1.5425859367019608
-0.14346593389887033
-0.3582336443708459
-0.1938523091765007
0.9731990908378947
1.1801506436974527
-0.5786537784458958
-0.7693414077359129
-0.6511541775105157
1.6481703184882317
0.024882721483059783
-1.0292371502818443
-1.860148396527878
-1.147838090285525
-0.3761682608289826
0.041807283165878784
2.1580598921801766
-0.6586554126668924
-1.1597566532975403
0.2108767471281395
-1.5626382567800585
0.3804110858722558
-0.7490407414756106
-0.02239636231143005
0.6398926910267279
0.05956810086392864
0.28755112981379766
-0.11164132720358114
-0.22748695947476674
-1.6092783437908482
-0.5916520959785584
1.221770637380534
0.6151856840737833
-1.2651756918976882
0.49247590386729534
0.8085842940304019
-1.4735153197739486
-1.4869440836984607
-0.19641475739225547
0.9712032476911315
-0.14633384765573568
1.9417705819041482
-1.0054995436689398
1.3645006935225494
-0.8372925294439615
-1.2284511173624912
-0.6643642194278618
-2.056739597669103
-0.77005424045039
0.4623951004235945
0.22301062192585386
0.9760375181923969
-0.2688654492355732
-1.5019538676926387
-0.9131823198150745
0.6493947962239427
-0.4851119309657957
0.5579717196607612
-0.15863648504054872
-1.3551907087181545
-0.3554890541083574
0.31796510498249897
-0.31881101362382985
-1.4450818179238887
-0.32655974878012045
0.5944924579502688
0.349523661094938
0.36036163610590577
-0.2641684713857249
0.2969380250523271
0.06344636689285081
0.5970841599230396
-1.8133648102289714
-0.15082199885502806
-0.4545771027992453
0.6866182378902683
-0.16895118208858684
0.5867733743097546
1.0203106299483438
0.6196828652664976
1.3418659359050036
-0.25529388944855513
-0.9102313092932589
-0.16204686942130658
-0.9014054956585102
-0.2782711285447803
0.5346323150068173
0.003952130676905807
1.672023490969984
0.4084247603285356
0.030006875940267852
1.0437717481076372
-0.49026867193943896
-0.08604061293107579
-1.6004909301118024
-0.015610837046484173
-0.8119126088547651
0.4277580442388096
-0.01877041816883912
0.9726383457016416
-1.8205792571580233
0.26307574383645027
-1.4176016905842408
0.2018185262891165
-2.423906838125956
0.4595012103195079
1.0388136885993078
-0.029604123005212313
-0.2865301991435536
-0.33825780642042264
-0.321714483090671
0.5161351503984982
1.025354266393879
0.44285600911570655
0.4299824495114801
-0.44055816811599313
0.13599344510957523
0.24032197260643468
-0.03669294071383847
-0.2442028231549377
0.2844403046535769
-1.2270796568168962
1.1249337728926754
0.00849568645609583
0.44938829649772966
-0.10971387433580887
1.1868963037889666
-2.2270543429629654
2.21897413423457
0.11477341313400324
-1.745566401533857
-0.9016697025164728
0.5864136675885254
0.3458040916173636
-0.5837711218764952
1.1580692470599714
-0.2870773453906728
-0.4275655823724698
0.5374649734980802
-0.5967156177262001
-0.9589893884740961
0.5793855700047903
2.1002164055184864
0.10821510940766277
0.00921283912273646
-0.31071391435697626
-1.318950567855212
-0.9033355304126496
0.5404451764868522
1.2855425994920762
-1.5867203794997449
1.048174911985299
-0.4137108178194361
-1.3612210550211636
0.25766110661308594
-1.122159709106822
0.8125276869228165
1.1590354925462931
0.6925485673950127
0.5070194360545666
1.5393918622396334
1.7822332915125387
-1.1102243840684918
-0.9235169696859695
0.5623767714000245
-2.0565867550864345
-1.3551508781656145
0.5331140720177561
-0.7088578624844538
0.5086210031849925
0.3527021152478468
-0.21476913674789555
0.43767582921400333
2.04382975072006
0.10656414008843045
1.1830806074313018
0.1310805128460974
2.463562706996871
0.5337976677965981
-0.7445931741040269
0.38415287190827346
-0.37424279055232657
-1.0347300277311904
-1.2517371270516668
-1.070807417271377
1.3416120487368965
0.30501118003913674
-0.1334839498292376
0.24097485473740504
0.5677431070028413
0.34648353261737475
0.9198430496563668
-1.6075081046999695
-0.24499586069487927
-1.1423535139409635
-0.5455456384590549
-1.1604589557356937
-1.6706739628042322
1.1826916546364217
0.6137020914644487
-0.3521978935374458
0.8572176653940317
-0.4874977768633379
0.051931951251291186
-0.5727487370329463
-1.0167501763857887
0.651032082151203
0.44997522001188894
1.613470282510745
-0.11496693434803792
0.002103845867159504
-1.6704310263551307
0.07922083737179941
1.326802067679116
-1.1543939406730537
-1.5840456286742532
0.46829947750137874
-0.2822499788398583
-1.0315815518002338
0.3053563852295265
0.21979407782303662
0.5624512806847832
-0.45119218366721936
-2.565673688204652
1.812335205655908
0.6476479862718656
2.167067440878384
-0.8770860761713813
-1.2718396090199693
0.19138204332227238
-0.9024138731644833
0.684837605437158
1.4195908457227684
-0.8100169365655061
-1.0125418427699564
2.005627688426582
0.26145492192611797
0.35653100406063276
-0.9079080391849614
-1.0387204222165662
0.9904545099621775
-0.48383068720420164
0.5831721628855115
0.709200229686894
-0.7142090854796418
-0.7326111299512907
-0.13405692409685094
-1.0244739410095323
1.360534295651906
0.32130475186216645
-0.718363725815486
0.653814706979581
-0.18818669440739139
-0.011392612081717435
0.20754742472115273
0.3700736636822993
0.6377371379179255
0.34728078827117215
-0.9594249427661677
1.3476611462337513
-1.071362674084766
1.085893408048155
-0.2723225709009164
0.31620224884801496
-0.8994339487035128
1.4404793364549175
-0.1763623693177877
1.144221632902558
0.2633766744720518
-0.3213864827258475
0.8168655629863364
-0.526475529789823
-0.7276628248485344
0.4124533015218702
2.031367704727321
-1.915663718756445
1.1118246248786408
1.7380789977125743
-0.16195903505292253
-0.09696714623519709
2.1240040749065128
-0.28007333519742716
-1.0123307603294476
-1.089962495736718
-0.5382786505287872
-0.19155600900994824
-0.5385172948928594
-0.3005536895359052
-0.7360539162595231
-1.5200258064762393
0.6518431020605839
-0.7106361477555954
-0.9132813482617901
-0.5994706194532367
-0.5024807591224659
1.0996949243180214
-0.5448439258431694
-0.23583391893801636
-0.004434053115941028
0.6605209987647209
-1.2889896314564786
-0.5457945619192309
1.220740570982783
-0.7757059022997007
-0.19679604113666907
-0.4232269317327386
-1.4442376585742658
-0.044602635398258206
0.11442660489538795
0.8077221490442146
0.040632850085356165
1.2348445249297355
0.5517018973491696
0.9686307155546061
-0.5186920860833826
1.0609261969285901
2.2857542623676648
-0.35394538999156994
0.7045442207973374
-0.8240621001570467
0.9592755662716295
0.05377209537625133
0.6725032190188334
-1.0924600259313277
-1.2603603373391437
0.6767617871553265
0.8013501310902319
0.24404615483878944
1.5013185131050182
-1.714498544127577
-0.11996795695034657
-0.3273861181744673
0.4797419053246294
0.6628617140382034
1.1684344283545722
0.6716781490955492
0.5263122884567396
-0.16616971076193537
0.7145479286799271
1.7464211595891341
-0.38993782831651
0.4051436358304413
-0.00997975209568469
-0.9937374658562582
0.6246346586695973
-0.5479944585551451
0.13919099980392124
0.8958817229632766
-0.2463573020975732
-0.4385358500966358
-0.3278071020524362
0.11145381702502981
0.4613227680063541
-0.7136337034065943
0.5139945351071188
-1.8304177767545373
0.0385375774031701
-1.1176441575495433
0.0647923927209193
0.35341789919186806
-0.4707218161816642
0.7857226022874143
-0.7131564791468665
-0.06288180364707388
-1.8036534288294201
2.0180606328763098
-0.24637142412806476
-1.4299719990559248
-0.06486562726618038
0.18869637211717838
2.4402371132217713
0.39597375308694704
-0.006622888555385897
1.0617573527087725
0.2254250920755148
-0.1650654896202306
1.7220815902633673
-0.4922286387714308
0.7793250365771378
-0.22573716756589352
-0.13854548239194459
0.8072094627683926
-0.6194432683070019
-0.08328378881068473
-1.1609513199868955
-1.2279421880222472
-0.5581593662744678
-0.8808456178114913
-0.06421492433199183
0.12114000363002933
-0.30393899317288064
-0.3261800157674258
-0.2651531310729254
0.39949344435747897
0.22763657213877175
0.3855516899109018
1.6052537845201351
0.6266411272716639
-0.14296601970410194
-0.43336283029209605
0.8222387243077482
1.3060394159472624
-1.8678894179304901
-0.2367212178457011
-0.1768705723174025
-0.8944550011335034
0.8676481863851221
1.5167833200552403
0.6430046705727979
0.47407508797784464
0.19883091385168816
-0.5633738216081657
-0.43277098296111255
1.3736720134495242
0.6638715075286082
-0.05881010498161325
-0.9165373931908649
-0.379676829522751
-1.0632532617890034
-0.6818569593926987
1.26690733413324
2.1446423276314937
0.3116124852745994
-1.030799423005984
-0.6434621716144703
0.7620513221527572
-0.04881948192458169
1.2765179347205629
1.246737859752463
-1.7705162454748407
-1.8558072242137518
-0.4920794047724319
-0.7173245604151806
0.7712822522687404
-0.1835872699506264
0.10534145662252083
0.6748399411785133
-0.1530826874096689
-0.05615255715320297
1.0713996883611987
0.26728742285595497
0.5701299946310928
-0.32704500208508985
-0.026076327349402198
1.6748141596562849
0.5091601634638326
-0.3376122393524693
1.186497516465406
-1.616107007913571
-0.571654138223936
-0.6843773424633824
-0.5376022546736429
0.4872614378667818
-0.2347262632423603
-0.3613675620593528
-0.9503420238841966
1.8472998441133348
-1.1466465416227969
-0.30311643508912445
-0.22327548407413333
0.17541152536713875
-1.414714033762722
-1.1157398406242591
0.8623468173259331
2.094261983289495
1.107393998630792
0.47039029201595056
1.2795308148277815
0.6734441707767462
0.032881388597453376
-0.5409571548277095
0.2919213171691712
-0.5934155696278878
-2.42769128847519
-2.09982211492785
0.49474332066346427
-0.8160361391606188
1.056293795707178
-2.337495798300574
-0.49236930217950076
0.5132767117026555
-0.4846650851564688
0.8539606976370215
-0.5158034207462416
-1.6215223456083896
0.056742797940105116
-0.24244909644175694
0.11737526374067449
0.3485788335161415
0.630860468104492
-1.2471698581661004
-0.09366378097185218
-1.723237445503957
0.0803507591539038
0.13408142215017352
0.663251718355343
1.0920008871052387
0.004905704529016286
-0.08590401651230473
0.6703071712094105
-0.7439439065035862
0.36309454407810815
-0.03175959326940503
0.738201893415976
0.8326594755848553
-0.5373110325446006
0.6677962107084439
-0.28169819188502976
0.9355793144928486
-0.00406133861240171
2.1719596563195096
0.7873402098186523
0.06482581316026337
1.7683874117231957
1.1578555527897672
-1.3624878676397307
-0.06357004326268761
1.9734879181896217
0.5564958647943112
0.5602848193760145
-0.6048991259988952
-0.6518249475352502
-0.5720316267269505
1.3593123317257123
-0.44543294597288374
0.8966884893236673
0.7336939552856159
0.6291968116701275
-0.6698364265435287
0.9811153377817778
-0.09217715693709065
3.0163018552978613
-0.5299504725700878
-0.8667433904469873
0.4369050631307712
-1.6281482219681664
-0.1911139683818046
-0.10656065521918093
1.157337960086853
0.6334895437645863
0.2740194502046564
1.7910851453523473
-0.5982391519999357
0.7101516351407692
-0.16760682214691158
0.46256249153388784
-2.1349062760399744
-1.2862578685046921
-0.6410954217773708
1.7170798890352625
-0.02928086399185248
-0.613759431409851
-0.4638145296632228
0.5405394462074928
0.2930893463565863
-0.6673778416525435
1.5438135724705553
-0.05232214511966643
-0.8415012056598906
-0.9310864756104706
1.9637158446755023
0.362468791052983
0.3281312919692905
0.5935474031041492
0.01919405181532563
0.9664156511311328
0.6168627822084141
-0.3506179015316768
0.1735669040888993
1.7485023678678084
0.4266964268001522
0.6426870332551107
-0.5144931986696555
0.5364282720041218
1.2227179099219991
-1.0668080863011022
0.70442199323335
0.325744752000299
-0.5155145417095612
-0.1899325802838231
0.08672509598548539
0.5000875715852162
-1.4222863293773331
1.8271664503935514
0.2281940875503942
1.999000852121969
1.032189793972934
-0.9316937313821154
1.6121963074645649
-0.5837104168204447
0.9855642073548011
1.1256043150207704
0.3529660731401756
-0.3528786001639781
1.0269012636780963
1.0071641870590127
-1.2497224013065273
-0.8790362730064869
0.7947952144395757
0.4389836052891078
1.4066896711625438
-1.2723354499591069
0.8767230701363121
0.1281916763399028
-0.3845978187566207
-2.309452435353585
-0.5744302894119043
-0.12481022937177477
-0.42671269988185645
-0.6074361743834289
-0.19077968261247466
-0.08582038495493505
0.5719114149799865
1.7798781742927265
-1.4030984102651956
0.13463989693589673
-1.0274398577216877
0.29733751460986046
-0.9933855521306918
-0.5723629982637848
-0.9035860186401017
0.34004293788879925
1.238924844968449
-3.5054097795070427
-0.5257041517641704
0.1902897390754681
0.09969970672828027
-0.7752690093027512
-1.1787545189273452
-1.3302349382431387
-1.334732824192617
1.2391368536900846
0.5525986259578097
0.578598394824095
-1.927343518007245
1.661786682390811
0.18377818057389855
-0.211017888966556
0.579816454187121
0.6372369293237593
-0.3733354703764262
-0.8832641719761969
0.016938314527427056
-0.15928110655650252
-1.4452754471610771
-0.19002530000639256
0.1642376989181718
0.6481239225902822
-1.4392119151103697
0.5911655442329904
-1.5387387319727461
-0.8183911710526105
0.5800378884323408
-0.32832750422364154
0.621640115767496
0.9726327111176665
0.16704621398275407
1.2554349785089154
0.09117156930301806
-0.7559210023587382
-1.372160780463568
0.4772733697020083
-0.24667616586583332
-0.24095640037346805
0.8207878076125044
0.8830671026121868
-1.8071386193619294
1.6210119016101079
1.362228309709622
-0.23087777785291755
0.19740955688290035
0.5105623001607
0.3267813749734799
-0.2996708661340962
0.05236840005759458
-0.2533223880506127
0.2881467584829984
-1.0067776891733358
0.4698299576326773
0.8234256161812787
-0.6017454397212979
-0.41488245281430464
-1.289712505651943
-0.22641027452963103
-0.6835390164983659
0.6529341626351906
-0.029743636096100756
-0.23209683845076462
0.08127814318655646
-1.3464044525058807
-1.8178123277919414
0.6595578945467107
-1.204278974668461
0.9512151732303622
1.0550000142675486
-0.7310394694563069
-0.8393069140636624
0.09687733777839808
-0.8050812859282397
0.6298761390946339
0.3623373332573224
0.020191168509086976
-0.0057851186734675375
0.04635732038988355
0.24403738582626586
1.4428756897498747
-3.2329760451832343
-0.13462472870714684
0.8845294766992927
-0.6260803374660926
-0.19696904207640528
0.8195016071212095
0.8700510334119269
1.3366845688527689
-1.2820959582304123
1.1561202114377633
-0.3765525957063836
0.357748568183657
1.393336708015438
1.0140437898953383
0.18037147174143847
-0.5480555633621148
-0.6928252656777113
-1.152796660909811
-0.1895052214941016
0.4889050771478037
-0.4423715779629394
0.6010190001529857
0.6169890520809123
-1.3103671122938878
-1.0794876925059103
-0.04618806040797596
-1.1562877161512608
-0.3355916902819084
-0.07820220827916388
0.9197723561775865
-0.7086909995469319
0.35106984004104863
-0.8916064038305036
-0.9723114985333621
0.5605979094215037
-0.5756317026577975
-0.3417467856500481
0.05571076512278345
-0.34595556947417405
-0.5167328448447044
0.07309354146930284
-1.2353145668815335
-1.7414321620804682
-0.021062709062583777
0.6057220419198955
0.14186391716268998
-0.15749334770748208
-0.39870907439194825
0.7422785279353874
-0.4510712132579595
-0.23879602933288213
0.005700641679385124
-2.4409385218479276
0.8877807051798067
1.3275327218547326
-1.2804649866823101
0.7100983272586645
1.7177120643803314
-1.3979030658707519
-0.11478061563980824
0.2342723181882026
0.8339626630066486
-0.7210129118471205
-1.0378982016980065
-0.8053754406127644
1.794833558289993
-1.0016184993634973
1.1740221892468239
-0.022087632173327293
-2.5704849373988434
1.467205830315181
-1.3026010855909664
0.14490769876571283
-0.29716162405650703
-1.7248365859248858
-0.14902257264248558
-1.5643137456298015
1.3815667422717106
0.6720417897677455
-0.9493350985585827
0.5799071663100688
-0.4005974698674118
0.765626414233052
-0.7593066815029943
0.12045918695952618
1.4723218714389623
-1.4217035153943298
-1.1376287095758444
0.4827091645186986
0.5175179527636535
-1.1462766392717791
1.2975763280299284
1.4159345588004026
0.06512289258042907
-0.1281824521548819
0.15329057791134273
-0.16790818380655922
0.8956695259374584
0.3372807854784926
-0.8887455884246196
0.031003553151983526
-0.48942834840186533
1.0143667906285352
1.1307220833703413
0.8196265291670244
-0.13622423944035772
-1.0316642088597723
-0.5948329874839418
0.7533103516953987
-0.243894597363814
0.2558524315055797
-0.6630517664198405
-0.7567048963374463
0.9692847186797425
-0.7852748494057493
-1.3247656800018928
1.0397185109740543
0.22567297023990013
0.686414858661268
-0.34855289477258355
-0.48588677368985356
0.11865362705908833
0.2352574922317885
-0.39328612453919964
-0.41119512899007815
0.2217072128086972
0.6333066638947178
0.36024353847702206
-0.5154357321526843
1.5757244982246061
0.06736948708623369
-1.9748810076621408
0.2681598977094235
-0.09085538984447183
-1.2144584585615352
0.07936806436075661
-0.022588455292028298
-0.5931047639867206
-0.785399906870116
0.8472582928309391
0.4185338593108286
-0.346406691220798
-0.2450157202822017
-0.489155820359241
-0.3524842118862421
-0.9223737678350484
0.41458673983602695
0.9836740489020458
0.2934771309539971
0.8030412656021502
0.680620915947254
-0.6429360652383433
0.8060238989152335
-0.6836047255666264
-1.134272458283275
0.7266656558876996
-3.0373510250812794
0.9573068698976929
-0.061146861121028614
0.8244149220949033
0.39481640401751283
-0.06939306582879187
0.25873709045758586
-0.9567014546229218
1.1676373826870463
1.42766446810321
-1.368118449826894
1.6043299358892238
0.17878960211297246
1.6507989274142711
-0.4858302099825048
1.1940453844562544
-0.33430441581410175
0.853319288341303
-1.8536141848061771
0.09791747115688976
-0.22330449467989036
-1.015716885216723
-0.36008590619230585
0.8056988142291965
0.20971847993438858
0.5628032366550056
-0.3058787398824587
-0.1941353108492233
-1.1629914415418157
0.35939211328062093
0.7840609617807867
0.38854976315898615
-0.3390498640336292
0.07618631185811225
0.1458970607535699
1.937581175907174
0.7595774906184658
0.423732288301511
0.45993554472175496
0.7651989197039586
-0.2956605166991734
0.4924303170293338
0.2583811774213367
-0.46878230372216884
0.7283623922816265
-0.28692720431424823
-0.49424784172389424
-0.7003108444791526
1.9106935826468967
0.6554542735184045
1.2727395668621195
0.01066378742445001
2.4236171984829156
2.135061523761034
-0.33108417114316785
-0.010604422507082323
-0.11791364709776003
-0.9825528564057391
0.7412120982223752
-1.5079641793520309
0.9223027539122646
0.7145957673394174
0.5988656086412281
0.2021970560446072
0.9048635666317327
0.5202638679345243
-0.23388489439317817
-0.292878755299645
0.13487544396350093
-0.8567519075597256
0.48882329820125525
-0.7523540919815759
-0.11275178124224067
-0.6526998662581008
-1.1604008878219862
0.40537152525690356
1.4887868934321469
-0.6333795502143548
-0.3527381135398998
0.27377893688641275
0.27341597971668696
-0.44937891339905234
0.347087282840574
-0.10203959183009775
-1.4505609140569455
0.7706217518887365
1.0704325587344936
0.9013671877208782
0.010930512829871022
1.5057373381017054
0.6033973182421632
1.0330879757503522
-0.6972974920924816
0.8348704892687238
0.41632624311853866
1.465101199488298
-0.04630931058959076
0.009036117338380278
0.057386999894681934
0.9906107976110564
0.8501215594269569
0.3700152086169573
-0.9355819142282151
1.6014052456174193
-0.27432563734212956
-1.7782198184759908
0.3892355181566786
-0.15369187493603703
-0.4961936421909552
-0.2599507594561017
-1.243199079567428
-1.541716901797792
-0.8104372726591922
-1.0916648675930762
0.8867226619280656
0.6591962105183083
1.3310664417300442
0.5388776745840884
0.431865831217477
-0.368364878005772
0.3911006957473596
0.8966069269918434
-0.350744828079075
-0.6457994385287172
0.17243396277583667
0.07676071884283969
-1.3827743775469992
0.39347697450287844
1.6992142580771665
1.5131493908936735
-0.10014056609865857
0.9984508606323554
0.4002674774273138
2.314354653079821
-0.025608489277242408
-0.5068377849060738
1.043770136489834
0.39482176117802004
-1.1826825076461869
0.6993823242633538
-0.7603601858517024
-0.43339703551159525
-0.5547049622488519
-1.0900749092083304
1.3964911934134843
-2.5968975622097
0.629256829341208
1.3096138223649967
-0.025311173847194002
-0.2803613132168355
1.691040000568935
-0.05569710013996798
-0.708682466352796
-0.16290098271445072
-1.421600065854039
0.9433758583862196
-0.49333925035572446
0.7290221975992383
-0.8369543670100531
-0.8383503001916583
0.41821742965136044
0.10284882410217
-0.0438944350233218
-0.3621127677614053
-1.6112908820330731
0.23590446624382216
0.2742320846562629
2.209442234772828
0.2304209939664264
-1.1860145374310864
1.5205642771937078
-1.5716253205843715
0.26064093855226483
-2.1907049740213007
-1.7600378586236098
-0.46434896845293716
0.012272596059242746
-0.21111989714257534
-0.5880373877243015
-0.7212360318595563
-0.2441636788030941
1.9989507984721593
0.03180850259260065
-0.5271809684944175
-2.5192616037157753
-1.0656127534238407
-0.2746857605459081
-0.874283155053647
1.2962760554163302
2.426581335152027
0.6621773016338923
-1.1006216348915905
-0.7182253593127375
-0.20361994330960093
-0.3797250477240892
-1.9506586105180448
-0.3293484917627908
0.28105265272576185
1.3092975066260106
0.9987271313895723
-0.032173683633015565
-0.24187737334049075
1.1033695741498244
