0.019381503748539957
-1.1233698521409574
-1.4575087336937882
0.3502605049835782
0.2667152437261895
-1.7405944739238932
0.6870553153074179
-1.2826869566668997
0.9039387379720432
0.9323855910063111
0.9910486136833151
-0.88272743522153
-0.6366826284367272
-0.31840750270128493
-1.4385298589696003
-0.1615286139432819
0.36079723481018605
0.5585534877063633
1.3620964944756544
1.5735282396356602
-0.9143162977466034
0.23687927098245204
-0.790830801224796
-0.4064836724123704
2.0699082242311793
0.34802715859635547
0.22303455019977916
0.15424156480883802
-0.8892423660665391
-1.2518630226216525
0.36734277600689313
0.6240300801721308
0.1829033494647836
-0.14284121845842557
0.10833247830470664
0.6230649041813214
-0.5767374588650466
2.005158801649819
-0.042557634514240744
-1.0384700156400917
-1.3638796479184734
-1.0585396416172175
-0.031088433721240805
0.3043463647350387
-1.1645161148791308
-0.7692912486195117
-0.2992267758653921
-0.9331077721741197
0.8966531350271573
1.1405252932446224
1.191820717209602
-0.1288556494180341
1.8576969344886918
-0.17155141754203448
1.215967193377006
1.0508718472371519
0.19881902304332655
-1.0665159288330543
-0.0667103447794149
0.8151416825164991
-1.585866283107577
-0.3121586887268887
-0.9463019879993299
0.8448956722717648
-0.5631588546473553
0.452988587102013
-0.23173048811331143
0.09437514766381694
-0.5116294547137066
0.013720084580479625
0.9529341620533719
0.13741841453528716
-1.2490739736069492
0.4362824767040892
-0.8827589939460074
-2.19090256694203
-1.4756103299789447
0.008106372955785836
-0.8075110670597352
-1.7240773262544995
-0.4901777447974975
-0.6185069407477622
0.2444628227734035
-0.20566409752033085
0.4512438119611845
-0.9541769592824034
-0.7845388919171371
-0.06036398080017072
1.1697596057082127
-0.9818605419655978
1.2106108139200393
1.2724388165917242
0.21784598160117835
0.09044951300604842
-0.9559936377533138
0.34598743401648935
-0.6228681779170793
-0.8844630982731835
0.6617936247644293
0.4771078496845078
0.2559577257955828
0.48859251320735525
-0.2788533189100805
0.8224639775208243
0.22831720231848696
0.61601565596465
0.3691995041187081
-0.044532226416113145
0.1290017003056601
0.3023505155479933
1.334383828058675
0.19416696123812963
0.014191545832235876
0.6790787811404347
-2.0541913587868366
0.5479254681171346
0.5643954708770534
0.730567557189366
1.4972606368575236
-0.34753703814918274
0.8845172712102425
0.5413188707099161
1.8852128108018098
-0.4950979341155556
0.9519494350504535
0.10642230235414074
0.5887203458312387
-0.6389624314670576
-0.7471793746664379
1.1614995538519135
-0.45779007090291096
-0.18774962109752083
0.6493471332699434
0.16025124786870026
0.8724936587167513
-0.3305812030706977
0.23020344677839724
1.4463723799921226
-0.7441582112685382
0.9951331141951318
-0.7593364588504318
0.8798371148668201
-1.875668001135887
-0.4762422262902122
1.2308526521695629
-1.1748661636762523
0.14837087590802078
1.3483283268338233
1.4097342243164153
1.1819134645342404
0.871782684054875
1.5772694462452717
0.10649269380450686
0.34080039590900246
0.3363120067938685
-0.11517671063801277
-0.3163844772004122
-0.6372217792677453
0.6528494591439672
-0.5721416993339795
1.4263338959030056
-2.1498392197082423
-0.11587417425687385
-0.9787560051869276
1.467911108022535
0.13200489129393933
1.223025806771418
-0.40732154298802287
-0.1578264646487926
-1.789692917208074
-0.3629010519361028
0.05956233340769432
-1.226870842065122
-0.058928061598115485
-0.13398964752682163
0.4616209113665587
-1.1472348732357358
-0.28374325796780414
-0.16854919408211738
-2.420042605857149
-0.8029776687904385
1.1456458044126796
-0.012679378340277735
0.5108700344214543
1.3167790787491196
-1.0960104818411556
1.050920972543096
1.5183396580298019
-1.5237388496647197
-0.7517152900864311
0.6183258644374368
1.1849470737636412
-1.9040529814855138
-1.0860874407642334
0.037201455844587145
1.6581059562523883
1.1739704528199884
1.0750272870675244
0.5107635584327237
0.47961061597088
0.11041462688220512
0.0060867662799125415
1.5427311993088386
-0.39812466544631764
0.6410640937520268
0.3548831166011986
-0.23232298121570846
1.15950614410473
0.5079638002428019
-0.027816145116318705
-0.19835267270602017
-1.8288838386552257
-0.6544016931423093
-0.28645107565819217
0.16399838828881105
0.29350241133811855
-1.1306975460704793
-2.223549767013464
-0.7993370870462985
0.5973411242538803
-0.3664672449328032
2.0408346575867586
-0.43752542968687685
-1.2964937765857583
-0.5572349309616477
0.8411208515863582
0.6516479478613507
1.1940471231293173
2.100411235455127
-0.438175706848301
1.3180309526317955
0.6962115614155874
-0.31815623383614977
-0.599954013292278
1.402289214476056
0.9989213244364012
-0.4921692493862653
0.3195338329212247
1.701788156629362
0.9630514419789097
-0.9488257786054108
0.37881037630294134
0.3209593783404544
-0.046123038516524786
3.0814716307172856
-0.773617022515197
0.7351436781282428
1.9341219471246065
0.4777739590235807
-1.1421408288611645
-1.0412325983154402
-0.39401308049305667
-0.658255042277146
-0.8535548097033804
-0.23482470460384364
0.2756770918019598
0.04706477001677034
-1.2173090022090862
1.1230341993069293
-0.20591751560224872
-1.5892436712341411
-0.08233002997455857
0.861950737232495
-0.14976600050110342
0.7636592676399876
0.7161918653189592
-0.5742389087421039
-2.4050493613254234
-0.6618025039764934
-0.681139734876805
0.14805154571277507
1.2459869094733962
-1.1242086975685421
-0.2288793900680002
-1.1541340043574686
-0.5597257592809544
0.7423451568458748
-0.7835567236825969
-0.3569165815005104
1.8358724793499415
-0.24913078894388213
-0.037105292050431816
0.5262006490041639
0.18734584250887568
-1.2601887508623466
-0.46282512543373644
0.824003145847419
-0.2537003098278165
0.4130620429169936
0.4644505326735714
1.1557458378627348
-0.7882175228605901
0.9118763446074698
-0.03603726413642181
0.12161395017869585
1.7875442235983758
0.30589894097395204
-2.238186963464785
-0.8249966273747158
-1.386300802762063
-1.5708634252336693
-1.0061023131091473
0.11887993995555253
-1.270166903008639
-0.5257354951676013
0.4905115241272324
-0.3163582923967962
0.12894806998591818
-0.10255767556282697
0.12251951631503821
-0.35054464473398894
-0.13453381643496706
0.1546100382938103
0.9757465844087405
0.796194385893154
-0.22540849932849166
0.19479815523134333
0.875681341889247
0.42447233349630664
-0.3462436462867505
-0.7124471969335574
-0.9739957601651007
-0.7006517011470063
-0.014468820642547061
0.4576220821023443
-1.3013267861814866
-0.477419211205709
0.20216291167058265
-1.7430070261838428
0.0313848799752723
2.1287770320261354
-1.2669656098336204
0.41880285544418816
-1.7581204013629732
-2.0256567876704934
-0.3162250816324226
0.676119041560811
-0.3520343600007663
0.062450665558820256
1.062225352043526
-0.1406155268023463
-0.14973767362251425
0.4937693321555731
-0.05444136082720811
-0.06336231913515536
0.2955191669076032
-0.7029348167331735
0.1962676092149772
-0.8974328252625203
-0.21152463466561422
-1.1552762869249256
0.905247401020483
0.19760497163247578
0.5668547637388728
0.33927377595634983
0.8835328586574118
1.2015925093505564
-0.44494399524763156
-0.6507044376902485
1.004257773744611
0.5261304612151017
1.2362103312068375
0.7253573589817971
-0.5651823675782799
-0.011851014991209345
-1.0461821576745944
-0.7428331863341829
-0.602380389084853
0.16638701553156682
0.6046794701333328
-0.3883710621657928
1.975033677651846
-0.4760670557809379
-0.9440828198852802
0.6996095326361906
-2.5286074497999653
0.11676345529692644
0.6605388979302917
-0.38510826310824176
0.989261730740868
0.9727025965617856
-0.26504639845465316
-0.4767287861152729
-0.14829820996818827
0.24283728832965926
0.1308558142326804
0.19799601834107575
1.2333744582237143
1.4427817381827235
-0.5703012924855726
-1.1794004021572695
2.3219116629835552
0.9763256495219088
0.09306382898539436
-0.2662475415713038
-0.45769482270186396
-0.7723838649998609
0.9597355689225957
0.9609157800184873
-0.9400617477009542
-1.5022095515046607
0.1510362944497706
0.08197423530355263
0.212346654316796
-0.7756516050567527
0.7106338684100177
-1.5270635443309
0.5187473449708204
1.0198863300975385
0.6513171221670098
-0.8227183718434257
-1.760601586943275
0.5185570968781799
0.46610247164066404
0.41416214658558415
-0.8466371109478795
-1.81991071659324
-0.7546699003307378
-1.2527835964948801
-0.835806404340076
0.35174717918019605
-2.2824863288657697
0.0655236676872777
-0.7389780070457116
-0.08545569430910774
-0.40279292270910283
-0.3042441967200247
0.7374754700376945
-0.4508897722284909
-2.3491861748556615
-0.6104072105494448
0.12849755074235553
1.450751232853946
0.26556946996596903
-0.18798940282555202
-0.7138424667825711
-2.0137997317562806
-0.655736541025868
0.28345413800516744
-0.4025595878400609
1.2500348191761945
-0.9667635890284042
-0.2949232930947553
0.5222407966746963
-0.05405798550472552
0.27437388848916056
-0.8519914655618366
-1.423801202757316
0.06586496783761259
2.6130429159035926
2.35442690342355
-0.5956208408413725
-0.9704257656573749
-0.06501039820717318
-0.18877990920240506
0.12885304469638323
-0.11684444968219113
0.820848420892492
-0.7303973867121497
-0.8285057152881564
0.174618107117631
-0.02700324506079649
-0.5301597188678071
-0.3723719704657889
-0.2593413196569266
0.7399144253756121
-2.1054178605696108
-1.4399190570731701
-2.1684778882147233
1.39001533650562
-0.465668567980917
-0.5387374489379899
-0.14151968090637326
-0.9107157613457095
-0.3392188068026461
-0.8443063489214583
-0.6059869966213203
1.2468379634600637
-0.24441480020958464
-1.4006967280942646
2.5725887243128995
0.34675635623623086
0.5035879428495357
0.47090355671843503
1.9329341571536647
1.1749793065934455
-1.149730572709485
-1.0325913853710702
-1.045341103849736
1.0725838851243847
-0.7182208976606388
0.1112483248712463
2.2468326084105166
-1.3605738390253161
-1.365041823981954
-1.0134309105619377
-1.582584146693473
-0.29199073650854035
0.323558094225053
0.2199559226533981
0.3882246334850312
-1.3548572690909264
0.21945792369589773
-0.7484608982943622
0.16585045940130563
-0.28280414783813324
0.3425289390142729
-2.4100298526477375
-0.9166761394081054
-0.20548418435990715
-2.1529926615090904
1.2464590306762253
-0.5166154345564297
0.709766924642503
-0.6566161177683669
0.5253948017479354
-0.6752546765035277
0.3667024601877934
0.2351018449207237
-1.0184667099144813
0.292298184107732
-0.054323982783914856
-0.12813179449635023
-0.398032495192193
-0.9727457872517898
1.3628250889107443
0.966771826382106
0.011400398403995047
-0.8022204314941658
0.15485502501374301
-0.9476261618456627
0.5436414175836527
1.1006525418993658
-0.7222207131904157
-0.1089467822238439
0.6177625111860164
1.671449211005372
-0.6706248749845318
1.8966193103414557
-0.01863939666818339
0.4825948654218248
1.0560127275382765
-0.12553895250639951
1.5821460277525432
-0.6025490838199621
-0.8765361822050328
0.5475841038890333
-0.11876111527284969
1.3783619127771343
-0.6485584567182707
0.18138227715919425
0.45905423469684015
0.42702918177262067
-0.1277125172044084
-1.618719957607927
1.0732969409896127
-0.08525092989946656
0.9443585559874975
0.7500315055434933
1.1529077130907792
0.17117747653737694
0.30041725128062535
0.3087510894221183
0.6955263706819252
0.33493553572969836
-0.875455674528437
-0.22129785178719594
0.5414537793579689
-0.4194476455108605
-0.6716884248475237
0.4593011042978982
0.14821635533196728
-1.1403409747589246
-0.5492673558037097
-0.9333942942998968
-1.2013199628935631
0.5481807092538975
0.1852881290711782
0.8592211371114131
0.69559183017006
-0.5383540628509789
0.3256157869564015
-1.1955219285269107
-0.5254436913133821
-1.0767162454741428
1.0364387047380679
0.7650574641299946
0.1426290076445071
-0.08438820691870307
-0.4981503776960293
0.41818552631699596
1.2305468598642144
1.8543792963708507
-0.7481205794851762
-0.16316123010063513
-0.7968859207632301
-1.8426970092788373
-0.00913996220857222
0.7615467950786883
-2.1792611270702156
0.5789844970833996
-2.655732763162702
-1.3193207978281627
-0.7142362056035414
1.7602801889477848
0.2737457695255956
0.8538534370921623
-0.0540371485603919
0.8005606772618851
-1.5829926539269668
1.6474257397295797
0.32561396626179606
1.1787517999267043
-1.4706379331605397
-0.6256603750590537
-0.9097798849358114
1.5992387720214132
2.458866861766651
1.2522573890109738
-1.5066730573168232
-1.015721510287006
0.3767409613666317
0.2174628901252564
0.6212918169647536
0.22345354468321962
-1.1817361920961589
-1.1538206668931983
-1.1615233500607742
0.8465634960799701
1.2225016163397695
-0.7142368042138162
1.2644465762265318
0.4620975684252299
0.7654796627764332
-0.2675331485937475
-0.0975014912539709
-1.0246956578854007
0.7020146951692531
0.6860169864510482
0.9926648822701378
-0.9615511669821161
0.49994741388939473
-0.8770330236873392
0.488980923117719
-0.7835315503039338
-1.423428481026182
0.8765421316099797
-0.37655220176950377
-2.109577618136079
1.175805225521611
0.22080635729753242
-0.8086703402446751
-0.7415579547449834
1.7241336933196771
-0.6036295903785136
-1.3375528476531349
0.05812747644442234
-1.1748270063227644
0.19271743535133515
1.1817924465824277
2.042507508862972
-0.0629025199380346
0.5949485493718882
0.38547946386279514
-0.2156109168575709
-1.6263539742861906
-1.1422599269190943
-1.2386241010584431
1.1604489435799363
-1.217298976070982
0.09599132719621231
-3.214989332851557
0.03902364519547113
1.1602660895579926
0.24836932591199862
-0.5465601779394318
-0.11247203372389966
-0.4636023580764607
-1.935895367034963
-1.4929116063311678
2.425262965852519
-1.077525711714273
-0.9368844372877956
-0.7536540013478246
0.15577010236606467
-0.033635230718215205
-1.2169998004092177
0.855595248444606
-1.1738077604059056
0.07622509990296021
1.4911425369996962
1.1741139687087399
-1.3023752075598685
-0.7285027322464916
-1.1039744393440065
-0.22118703950419938
-1.1898095201006864
-1.1723979125203599
-0.1567613233128706
-0.7188543350436505
-1.0985306778219106
-1.0527929598366832
0.8810733138452207
-1.555441903361042
-1.1893424426286563
-0.632317582264751
-0.3094924998090924
-1.3580639068898592
-0.10143960983778806
-0.054481675159769836
0.9383251561194069
2.0780118200335855
-1.0631374693470108
0.6226680357741978
-0.7904565274157002
-0.7370632851237643
-1.3022544908530456
-2.119624460379319
1.1692401749256096
-0.40628170435349603
-0.6927575740246242
0.28053869645968643
-0.6216631098076416
-0.1760177474816115
0.33544248762774376
-0.6883856849097859
-0.538420094761228
0.6769904890719973
0.2661788112356247
-0.6570027057447616
-0.02840585561850972
-0.18730611908928832
-1.6368168215675691
1.6829146588909802
-0.1233303373340055
-0.1090172756270509
-1.3241077333003612
-0.3747671579883097
-1.3321589108123773
0.39954176891546195
0.6117890616273683
-0.558924369991075
1.070479564794629
-0.35862338349082235
-0.3021453018810399
-0.16157924940059243
0.2898160392615237
0.3721651693139014
-1.4014654665610418
0.3765058585701167
-1.3088217570553056
0.9696317716082167
-0.028936661723356804
2.5898794760029737
0.14349525464657675
0.584606331175215
1.4675922771196115
0.956495724156116
0.3933603314943289
-0.7050362137837123
1.8926893530129316
1.8690116159118508
-1.0619693649493391
-0.09853722994506131
-1.3319143926617534
0.3824509610466834
1.0456322434672216
1.0514036266588995
0.17761400129966096
1.8398091435317758
0.843449052400275
0.5572020689419552
0.45763368752875244
0.6501434134691965
1.0055639919778152
-2.0611864540430727
1.2641044132272263
-0.8682517266316111
-0.27070084124342364
0.8711075640871437
-0.959391156118712
-0.06185556154209793
-0.3678088265874144
0.8338356423150544
1.5743118001188494
0.3832095982053798
-0.32848909110882785
0.07662060880057349
-0.6574263931596072
1.3788556535409258
-0.038092868733174204
1.640931759225287
0.004896503386980357
-0.4351371511206978
0.48032887775113325
-0.03196378078482912
-0.923731988888224
-0.6361603700747965
-0.23689850261228013
-0.30181401813012576
-1.6291525113357337
-0.8218655380784882
-1.5050699085880177
-1.0224418968858904
-0.8089313359633894
-1.4286151807957992
0.8514871405545719
1.7716395412175832
0.1790415057142098
-0.8146572746258434
-0.11531688591293011
-0.39934335304800417
0.927964111164356
1.899366982956086
-0.7997129150093032
-1.017238828251253
0.6618191937801128
0.5589772475579647
-0.5802988380514214
-0.2845180326729438
-0.5577239658406978
-1.414333512293723
1.0710096973586822
-0.7666459531004892
0.4791502706966164
-1.0117745252278316
0.873512320031134
-0.3855066562381324
0.78959671993045
-0.379637709857748
-1.498678629458969
0.3926875252828427
0.9733361107995593
-2.0555690861839695
-0.8512039689403357
-0.9897557838219248
-1.6163343796221885
0.48520278374402875
-0.41465123852835384
1.0927077291940475
0.06676095526533206
-0.13344006370047826
-1.2603457158288591
1.4511779983128408
0.15655804126902803
-0.1803325667028764
-1.2931953220191263
0.35552806610788495
-1.110095474467305
0.033980066190621466
-1.0368525622158498
0.03985133382794427
1.100312869358181
-1.8841183169412064
-1.2394917060744695
0.7554228034825655
-0.3623056555928525
-0.019635329264340386
0.2931782513177979
0.19288752454385413
-0.09518961839026695
-0.004188484958505146
1.8136255551271878
0.399870156098992
-1.2703950359202474
-2.2640749334008716
-0.8182919986947333
-0.1549864285681459
-0.28377220734567454
0.7014148632574877
-0.959843361725618
-1.3022167360703951
0.14004264456727447
0.25440570408614027
-0.7735450163073054
-0.08454604956130098
1.0498276343569433
1.5121653668926551
-0.5434346441935106
1.9836168690678744
0.9021459754551553
-0.6533157250094036
-0.8034279291866596
-0.377249754975733
0.28471080254486464
0.6501019520699937
-1.4668177832030176
0.5890922983724117
0.5330962102629707
-0.546054634356357
0.1931179673858384
-0.28589984390297424
-0.7236664611095197
0.07349996593590406
0.39474709108104716
-1.2742235108389783
-1.4000975302767742
-0.502827375826647
-1.6622249748716451
-0.5074801401049721
-0.5594250751956202
0.41882609825939676
0.45630103612730416
0.037962895060422254
0.6902774509170754
-1.9538339390263728
-1.221966759561135
0.3811317780613608
1.6785610026823163
-0.2715110308425249
0.6622949984999065
-0.46838827717131604
0.7631755911126082
0.9793666657742734
0.7985163496510421
0.7175362685758768
0.29391552007346455
1.0300137677870604
0.13494889282082573
-0.5152039899311249
0.1923607131441354
-0.7836688207753068
-0.2240816169205386
-1.123305279188095
-1.2336290418408085
0.23185813487123832
-0.9640355987462093
-0.282700752056995
-0.10646083538439494
0.29456051658938753
-3.058694311592147
0.21280927194529986
-0.7739123242664114
0.3076743717969475
-0.9708265116650308
-0.1322878288232861
0.41283484116661534
0.7458322113839627
-0.6375025119973025
0.31530936180045177
0.032828740595423456
-0.6013075459110144
-0.7594939107341432
1.4209658575642552
0.17340477584982336
0.3560997742719363
0.12054236013623434
-0.3507941545514215
1.1002080295226768
-0.17374797589450722
1.8758183851127423
-0.8834535921060304
-1.3932945483914025
0.6271683078091626
0.5834505076682961
-0.9819800373757034
-0.29090878111849594
2.02572863443521
0.530532597145808
0.09387757048096781
-0.556193983010852
0.5779352908369318
-0.6858633673897061
-0.43842369319166724
1.3351821124664207
0.7117668417183023
-1.0718389547619442
0.44099905429232705
0.04066109635133514
1.2943408272871935
0.6876170327284431
3.1094455117347546
-0.20077755736575928
0.2917930037848637
1.1915651154756273
-1.2177178297292635
0.12171499128626151
-1.2449816726598195
0.10043265718987672
-0.47159547106463584
-0.7277960923957
0.9260006930093849
-0.2840438773885675
0.3616900284019723
0.36884621817225843
1.1910895310119267
0.047146668398303594
-0.5766919630618728
0.23617880274416464
0.35825616727132575
0.630299372472267
0.5248325597523456
0.02880739549915766
0.7027322705898962
-1.8456986826383366
-1.0949860307470034
0.5627341996724149
0.415340255663909
-1.4519625763689556
-0.5663478162541197
-0.034281412791267944
0.23395657412100965
-1.3633006880591558
0.8884314326467123
-0.6491803291733037
0.08222832047353591
1.3634751768268532
1.9371100025019292
2.175491225869007
0.26199765998325625
-3.080343428899763
-0.6152204211216807
0.22593958230998135
-0.4453502347151374
1.6653273295179212
1.0505479139262712
-0.3415228464232994
-2.1652071228600263
-1.181965140975244
-1.8659039997360742
-1.088897473033161
0.17923241854724392
-0.2616910971176631
0.6286331228122235
-1.3464879855915637
1.5279748864555565
0.5168759509322333
-0.35878736858411525
-2.011459914706582
-1.912802191400655
-0.13921715529132792
-1.2368652491257914
-0.3061072095852444
0.1495734294764174
0.42270954296150903
0.4258144834462787
-0.16394055485917847
0.7812987611854164
-0.8318615406209006
-0.05104769867156052
0.3981633107448588
0.1497673790572727
-0.24965045234656577
1.012016467037671
0.07096097033199332
0.7448496941118665
-0.3776981559965806
-1.1380810992105346
-0.3181221745141225
-1.8757222875696786
0.4396805498873709
-0.6954057999033098
1.128333872684191
0.1444848355076026
-0.7567269413810842
1.254137892385248
-0.15214144943226052
1.1208011947624865
0.127787263052303
2.804895506727387
0.8910687101949749
-1.1250082527184724
-0.6162791194025501
-1.8701109327477685
-0.12777003910166407
1.3771899830038816
-1.0868216573899898
-1.0347403455921753
-0.35846122544400477
-0.33966017050532754
1.7645563155093187
1.528002247361816
0.35212710851745477
1.267473144026406
-0.41794976554492413
-1.0633023351188575
0.22410285059626353
0.24501607511191478
-0.06014828367622348
0.4785783693807781
-1.4932924695211847
1.776099981582861
-0.29848397415423616
-1.9746751279782138
-0.6087865868461463
1.184114890508165
-1.5236019861120165
0.506121266422357
-0.25591184365300407
2.302207160950978
-1.1801186719093661
1.5274982374746975
0.07564431687369731
-0.008086055867728845
-2.208610512047628
-0.005718984028751917
-0.034228397703777176
0.0635406068776854
-0.3977663108310683
0.6015036428396154
1.0103853639109819
0.06827490363885487
-1.0854773571729626
-1.0624406968056765
-0.9487338440250745
-0.5122248567455179
0.2031426764749292
-0.8547765011611101
0.14907215153916273
-0.12995907104740634
1.0893094839294108
1.9185129546988677
-1.83747659903154
0.4810692297832204
0.5601919910312145
0.8779430024156322
-1.5344014678218456
1.2724622375842023
1.1056398941248535
0.44062926878805814
1.9859872228488182
1.4204591833030626
0.11385166935062532
0.7704258335918898
-0.10479559342541328
1.4166577412945343
0.5754271819710708
-0.33976751654336007
-1.497761887342542
-0.9908865542394396
1.20659657876747
-1.7359686278964608
-0.42376795086797914
0.9987502887783578
-0.17824459639638657
-0.6078477354394093
0.8306544554804542
-1.8814309888199487
-0.5955403407391009
0.4618224793177797
-0.08659174939938284
-1.7035841657164759
0.5908428651465202
0.7271116658009456
0.5554025239769798
0.6721867672320517
-0.27263095554094524
0.944457851767987
1.6216526184056286
0.6632249035950052
3.060618577155432
0.5126985745549361
0.8783527087691863
-0.5736119335436624
-0.6040752400502899
0.04328008772682823
-0.9965778755358404
-2.277806991535002
-0.8398046596351488
-2.2662576791209688
-0.8117895004040032
-0.36763207862954755
-0.7152125117914311
0.8555758007164079
-1.8053719705373878
0.36818573653047276
-0.4900441401531982
1.1619041577580502
-0.6576418805814299
0.39232323174151296
-1.383701380888481
-1.4747392021599777
-0.029617501616382224
-0.2574896660240926
0.7788441140000113
-0.29808795122573223
0.35199065477034575
0.003636191447964111
-0.31182332911349664
-1.0004717079670344
-0.8569320517892387
-0.7648889087271141
1.0263720879113374
0.544745023538152
1.4464419777054314
0.8231406532100255
1.2573708340908227
-1.495869986010637
-0.7576660855918338
-0.10550249063576
-0.0670854722754394
0.9044683745331551
0.29193196452247533
-0.7592739783755369
1.3739200061725612
-0.963908134026173
0.5711229839468929
0.9442171539994888
1.5458501133110247
0.13711882350981747
-0.36337881822623325
-1.3177458861181703
-0.5886891495278893
-0.01570580313934056
1.2015323175310628
0.23236352398260188
2.045094189966624
1.1630967091600772
-0.9276623729022513
-0.8135452757664026
-0.8155742712980029
1.2575344476028993
-1.0784995889348166
-0.7500726354168785
1.5175488119382476
-0.3866961158812029
0.7796164004724766
-1.4511393762889184
-1.6709645642732291
-2.088758637543871
0.17390116979802467
1.4822778742674456
-1.4841832047305987
-0.8014460152518205
-0.5712936967335897
0.10679235228555894
0.5472900335874195
0.2583071570601757
0.8596548260279786
-1.6940973886085768
-0.786022236800378
0.408801308319392
-0.4456849532278418
-1.5089123325263905
1.4296677802038538
0.9573427956261873
-0.5957652260992965
-1.8162604220343075
-2.084924889236991
-0.5619226823840885
0.5932185631943494
-1.9984149033168515
1.7084000348931456
1.4670689936497052
-1.4024568917869193
-1.8713538598856732
-1.130355374478015
-0.7531561281129706
-0.229495146613198
-1.556169700499032
0.9486130691218212
-0.027789527442692842
-0.7579497412030252
0.7540397387571778
2.0933346827002635
1.7284029286317888
-0.0440520084904797
-0.17746749159406483
0.10842273291838615
0.8326930776187469
-1.2568602359671976
0.8893037412059335
0.4434616707084452
-1.220626232303923
-0.17045778534283346
0.6402712923450673
0.4535558700680424
-0.2676100840286734
-0.36018643931220745
-2.8375229572083596
0.905220569632856
-1.2742234984936385
-1.7679355466927582
1.1846909022155945
-0.11657450780901216
-1.82643749914826
-0.573213469309181
-0.7339266967247813
-1.0043495497570096
-0.2721294535513638
-0.08516983661353586
-1.5126160681799672
0.7560793027086484
1.1345450117048677
-0.635864822889318
-0.3281102620167126
2.311073238147915
-2.4213910282149804
0.04925602190270044
1.4072389221213193
0.43327229440302556
0.5391050544309115
-0.09381669223642006
-0.8656681365564041
-1.4542141245710538
-1.2031917127253995
1.4367669656420128
0.6787285005555762
0.22358085937633082
0.8801339586294719
-0.1867124105531188
0.2567380837179796
-2.5876504135842464
0.6228397923330474
-0.30027701627841435
-1.7491917724696902
0.24222496953993494
0.05293658177757885
0.350903879002968
0.047530565512275816
0.7361532330524381
-0.8221751187105035
0.9414262192428101
1.2394777172932283
0.9492252319259643
1.1278428767821163
-0.03504192631340874
0.0221957626481712
0.5355705584178433
-0.5249400855267184
-0.16367675294593076
-0.5410337152417374
-1.2250160115019721
0.39900598580063007
0.41987199941435766
0.6070397328009837
-1.2290382843877934
1.6476690578504973
0.3839676545053791
-0.6892694726365576
-0.2692225767963417
-1.0200151901483245
-0.1704878102582829
-0.6449196755336899
0.5048636786639606
-0.006236842325204482
-1.4140754614434838
-1.4612281365249697
-0.8616384298202352
1.1769617821308294
0.13051633879784802
0.1737615335165076
0.08525358968432717
0.315118410876924
-0.22615728348952135
-1.0277281755042897
-0.042791110380204674
-0.051516315052801034
-1.5278820754143279
0.007946166504706089
-0.5008403309102321
0.4045499957388314
0.3330277362386126
-0.21406244138237557
0.23637509038076288
-2.454636968216846
0.7013490361670967
0.086377276918578
0.36023593343632127
-0.5868382318081785
-1.6290316464128298
1.3045387331044727
-0.14209014393341762
-1.8820026237849474
-1.711140146574131
-0.5613426945270749
-1.4438169463871775
2.3022080781837064
0.21827362789250807
-0.03341218158504279
0.643465874530109
-0.6204049388411331
0.19330186746356257
-1.1796588918311406
0.7291217558633982
2.8614603549379134
0.2992883084437633
0.42701782478586187
2.2115726507593774
-1.35331163065957
-0.7530486322691964
-0.8038956477887148
0.6054113603867874
-2.426360136919262
2.7998584300573843
-0.48951602104616493
1.0103821118980123
-0.5959923780924982
-1.3995735336078805
0.4082977852778742
-0.011033732219276546
1.809878576388902
-0.5484983511238373
0.3155103995075843
1.510603527526567
-0.44724360008936603
-0.19245479386050426
-1.0414755734332635
0.9356402145276453
0.6673360801611328
-2.859224539991376
-0.49447352461104566
0.08378880519772064
1.3903792959433385
1.4618529695263773
-0.6540419358951194
0.5302228005812983
-0.5064066776708697
-1.4476959093714161
-0.702277645688253
-0.4418936235922096
0.09029716388946202
1.9654747943696684
-0.685184074359134
0.10833937924635334
-0.5829460453491693
-1.0351908958722587
-1.0177033034231964
-1.007776099931408
1.1479456278342588
1.4077583862793084
-0.3020235209701485
0.4781200203196855
-1.9894816609696595
0.4846261109558445
0.7990063955559857
1.3818655898380552
-0.031089599890947662
-1.2968658428947248
2.3863100615015296
0.18650616532241132
0.3914144262384825
-0.3723587592303701
-0.9876509470948774
-1.3490069761264107
0.18360336247603828
0.3386442414955198
-1.9362476459378604
0.03626260947296131
0.6414237291910193
-0.20840713636786493
-1.0774838011910204
0.0793162081351454
-0.01682218327568788
-0.23069518566968872
0.3338715865235534
-0.5748382316705418
0.46651783620384263
0.6779968949156113
1.690669867383778
-0.7718691238406522
-2.0338371459538114
0.45177832431617576
-0.6812191041057712
0.8101425816996044
1.16749307193355
-1.539616308014793
-0.18500836247093308
-1.6970719030983632
-0.946755437009848
0.99434873858731
-0.1688138419962915
-1.4162972961448197
1.9434139838062032
-0.010354489855955756
0.22734471590529678
0.03814305243179423
-0.08193564411799145
0.4649197758978221
-0.40939683426400336
0.977270071571959
1.261248684779098
0.8316232116524506
1.2970106325991184
-1.0301613402120275
-0.9262310717972625
-2.2661822907945877
-1.358821670332785
-1.2844547931017731
-0.4933475916830349
-1.085971635177656
-0.16928107659875086
0.7122720263247543
0.8619577617484729
-0.2149548077706651
-0.08004700114574449
-0.43306469898201444
2.7684401733215447
0.6949800502712931
-1.2230688719745721
-0.7972941954849031
0.07621122538875401
1.1619210114720107
2.5565145940830716
0.5149861679185084
-0.6322659019862221
-2.325784178212317
2.3587773296406502
0.7602471806472489
-0.32593549705955394
0.10977654091710747
0.6656006550109191
-0.48878797540919405
-1.2720703185335438
-0.7220903550235049
-1.055148408401584
0.6593373577188515
-1.0808780100497504
-0.167059313626929
-0.9622111867646869
0.5165914622978508
-0.4539062411856406
0.030675702852467655
-1.3678419290483081
0.7169691333278748
-1.0171073266058193
-0.9924338047688867
1.1137582325524125
