0.6873684342190853
-1.004553640806325
-0.3921691809430595
-1.0079623566023932
-1.2400043507773222
0.2156375070212257
0.013524232817751058
0.08328885534799035
0.8155450824967323
-0.12974112942434057
-0.2677060203725753
0.26163236922102906
0.1596281742339345
0.23843821170982055
-0.269756451832179
1.5901998755381355
-0.5355629283655483
0.25585398745074445
0.4848684712372733
-0.983180665088817
-0.7861362193539897
1.3850427415158046
-0.925590038969544
-0.13551723827520143
1.2582166525786957
0.07403200609006017
0.8874660329534236
-0.0873164400970945
-0.7306550681065309
0.903209805640738
-0.4929865799505269
-1.1890556863718258
-0.024060222206692794
0.7967593331649714
0.8273849391376367
0.5090330705417565
-0.043605142785905604
-0.645353807642869
0.22457645168887153
-0.5831102907794297
-1.487606309989859
-1.1145537614173808
-1.0556462613706254
0.8595573948667558
0.7019410449342198
-1.2644331064393968
0.14803311777915507
0.36740295657663213
0.04325651702797883
0.2980514332962784
-0.028155705782780455
-1.2302522259943312
-0.995436671918812
1.4106244540281971
0.1049741171553865
-0.3892971415896446
-0.27250562406302503
0.06242199824175082
-0.913203981095804
1.34984590439396
0.6358992543967494
0.41669799728736734
-0.5045055309679758
-0.6112575038497384
-0.004667079192240915
-0.2229980517164459
0.99453900737205
-0.18418801089227627
-0.3909323086377554
1.1186121645148321
0.458467139431844
-1.0996385591268318
0.30281789664728487
0.3205960048547099
-0.40199632829786186
-1.2510037428702743
0.46747924077399416
0.08659472414762355
-0.329533353518449
-0.17902894312963857
0.3204383196837776
-1.2026532568436226
0.3873763435290666
-0.6045693114291567
-0.9823648104473868
1.724115033733982
-0.31391076188085054
-0.12026570786253271
0.8164904334525475
-1.278966269103761
0.8097331085768109
0.943344523994072
0.5551717957408074
1.0838685195298465
1.265492166756198
-0.301840948287809
0.9302301042417208
-0.17996836641024583
1.00068218639786
0.2388007545247307
0.2561951352342993
0.318030898266224
2.4747128017007993
0.39852175230465736
0.367369084532866
-1.6296144921141662
-0.5013204891168154
0.2314732788626157
0.6486254681294454
-0.9474291860095869
-0.25263225554561514
0.3277129898101535
1.407065919326513
-0.6835509164103584
1.6857022313842687
0.08787472417289374
-0.9541606291395437
-0.24368970240370036
0.17462064681936407
-0.46358001051534037
-0.09109328815781936
0.7286227149751747
0.20952077104657243
1.4705920007579332
-0.20358352412716962
-0.1925546898068185
0.5358705567651598
0.8036833649027578
0.6143984425780302
-0.4327060808837261
0.8051734132663265
0.04684475880849859
0.33333835181537047
0.665052990664601
1.2822905735556887
1.2086315385379187
-2.117126601656627
1.0778911136570402
-0.9388245985924626
0.00473133071248627
-1.3961745722654737
0.6922449377306125
0.24416403247699192
0.056926180470779575
-0.7978688768440984
0.6258682844922813
0.42560191770664646
1.1805921904963834
0.9122417167716078
0.08520346781802696
-0.015416792261336076
-0.6624035519711551
-0.5074929968563651
0.7603861959229652
0.20338166196177376
-0.9991786781370156
-1.049137609735058
-0.4220593059644558
0.7327792257275434
-1.702479059705113
-0.8119752056531695
-1.2088702470400587
-0.7485887846844634
-1.3458205674471164
0.2753557511091258
-0.359125671121971
-0.7103778371474655
-0.20222065361782304
-1.9768540716882779
-0.04920641742545634
-0.37636767852351116
-0.3479564762921602
-0.41080433382962034
-1.7082082599345232
-0.4894466793189896
0.4175930264125778
-0.5458804092135204
-1.0374324520104043
0.5185963483976852
0.32076568613159273
1.3013942756277381
-0.64605548526488
-0.1640165144544673
-0.24268078991236725
0.14498912606346306
0.4556418823888431
0.7510217162773539
-0.5614570740124787
1.2161093207332319
-0.5267160364732626
0.6714036156863294
-0.026631594885074272
0.5554996489247565
0.6030683479669153
-0.4251169367374698
1.3649191790948758
0.3670551739042137
1.4982975528938371
0.22182743922569914
1.625288635495278
-0.27318211806992126
-0.5913457460792741
-1.5788207401927223
0.5075073057893932
-0.8958902856841436
-0.13428682725043528
-0.8068066886710583
-0.20719020940874167
0.44343528377701014
-0.7839672701238884
0.3589841471816673
-1.9198093080198482
-0.20857932598266316
1.4983891938562048
-0.022563610754210983
0.8407545618426359
0.1864566767713986
0.8013314882911634
-0.2368385212586927
0.9689841627190806
-0.7187617128330311
-0.04364410813230862
-0.41127906389781294
0.222451725098053
0.29061129313751133
0.5479427011609728
0.21728822817361443
0.05200361422220105
-0.11774129684080338
0.19104525008598655
-0.8844663012920435
-0.4326330382066577
-0.2142841413124167
0.6127941179051848
-0.06888222067525185
-0.30556152625449007
-0.521275488384582
-0.44189159092847036
0.24308725533515263
-0.10598628122172135
-0.6443784628386933
1.1513792408566954
-0.8106701924133308
-0.5611030236807121
-0.353748794577726
-0.0461125266108536
1.349750441049877
-0.9514062588213532
-0.37091898074613855
-0.7448066013756521
0.37456281777932143
0.272349617554546
-1.3452572101027906
-0.4821550280740811
0.08651860120897614
-0.41449120590088856
-1.3074805353880716
0.9233064770642421
0.012455390780755277
0.47019275265524146
-0.2711918084175917
-0.4668253684811865
-0.7184548126746919
-0.060993391978559866
-0.12688775352673426
0.40156617535365163
-0.5630533661979625
-1.1349912475478725
0.27183339905456166
0.5765486091310895
0.48113456272420796
-0.05576837412245386
0.5388264974770482
0.8852107692620098
-0.5956443400524165
0.01748473810383011
-0.6751204416298777
-0.6304201613734531
-0.5239697692890134
-0.24997271312590502
0.43819630882120514
0.5014092630336567
1.4384303886913212
0.2910879064959243
-0.0387047107667962
-0.2642280332522199
1.1342055275307321
0.40028072860529507
-1.0104421437647928
-0.2569970785080216
-0.41415220267534847
0.36877124588412086
-0.46127902166420887
0.446284629992458
0.09813380004311545
-0.23006325016671691
-0.026925907641827423
-1.1524040549130086
-0.3956782748870537
0.4447335208661831
0.3247301359547417
0.19981089808935087
-0.8424134470009141
0.1509402117197265
0.6357637126288203
-0.42634134159257775
-0.9673663460076118
