-0.8802984532214355
-0.6975904193062797
0.1137236046411306
0.06414514840649099
1.111391243064675
-1.1135461552221733
0.2079310624280063
1.0821670318545134
-1.1614478193634405
-1.9686512981451376
-1.489092596383184
0.5816956605116462
-1.6161387790830906
-1.6347897461262122
-0.7784738319649231
0.25198464061205433
1.1867682916574354
-0.1417879983687525
-0.7886706916990194
1.207142927905763
-0.9603562607657747
-0.00814631470895788
-1.4805030359980538
-0.0568058090935476
-0.5329670426924664
0.6956388494017749
0.5014940856391774
-1.1670721613616866
-1.2237063519524458
0.08277978953505583
-0.17938732151494727
0.11637686423056715
-2.197524247311591
0.5371047999291895
0.5320743297051146
-0.572140292583466
-0.9194196289140012
-0.3112114267315123
-1.0263243999022247
-0.1695196818873102
2.1738823826945612
-0.10124737647161605
0.1977539544281766
0.8153582995022381
-0.11301464002027985
-0.11174751316981296
0.15749329337242873
0.18942804330134877
-0.9962520431305744
-1.0973035110380536
0.6828342843621026
0.5828701764702914
0.02574653818342354
0.9283250541809136
0.19774192647344302
-0.3329927423582283
-1.343733326014803
0.08194915054391069
-1.8333021708898132
-0.0915943284572508
1.158748816883671
-0.9272962393490879
-0.2286087401622252
0.7516643467855226
-0.6576746404045517
0.002848504199728652
0.7720628916418625
-0.8249805147321339
-0.8207492612916218
0.13386045223989132
0.29242321842472335
0.5911460368086778
-0.00811198075575903
0.0713890024817242
0.09323286108405676
0.18246626033920907
0.14725499067455522
1.1877834517540802
0.507666562348372
-0.3161895763768532
1.0176817511686904
-0.36419868822380635
-0.5025492014464754
-1.700726049413549
0.9663962700250466
-1.4722153545421302
0.6546100979848752
1.4345259039083962
-0.4847157209666339
1.7813226127142534
-0.1278617388921855
-0.5718014477997254
0.20704628534702957
0.899044485631368
-0.6094683666378502
-0.5453351912983515
0.2670769413539746
1.301605209170325
1.630989137980986
-0.7580166492564586
-1.1548155837420693
1.0073205979656288
-0.6572983890474964
0.47911810389368714
0.27108943604651664
-0.8698608714174079
0.00897157849399649
2.118075033288199
0.5274849048899326
0.10350995513790019
1.5142454231023637
0.18031178760388417
0.16703657154579143
0.020240340694026693
-0.9238831224590918
0.6662822578780644
0.17373717026858643
-1.3275457641723913
0.10181103021382967
-0.29913439863709523
0.40915583488522933
-0.07480405468685843
-0.5605836309452057
-0.2634818345060619
0.05383134631246303
-1.6289669525636932
0.39442095687162404
0.8162774513036186
-0.9680549318786209
0.8282976141087252
0.04485058186373361
-0.25823437635266816
-1.4838905183337063
-1.068999657980796
0.6267210040650801
1.0579623782403809
-0.15666995508893622
-0.04556068089789646
-0.8559129686189111
-1.0187881385303925
0.3932803926983862
1.1250267976691801
1.2391153248729512
1.1875828746327444
1.3388658757849585
-0.6544054472763896
0.5270891586601436
0.17124434754815848
-0.5855317327437939
0.8499280577607063
-0.15512482244685252
0.9758824606028482
-0.5439549257299096
0.49882887798800046
1.0374843501166948
0.07725930601893727
-0.4725055348685906
0.07866402023644743
-0.9245553157863837
-1.0302797645240396
-1.1753485389456482
-0.3315351796548305
-0.6132773309668859
-1.5509650447972965
-0.08613116283021682
1.2458146720235423
1.6570466794731278
0.7488675778675997
0.9013648326928168
0.8261223413865065
-1.2563028396459095
-0.9138787526862517
-0.3464598425058675
0.7566250257055849
0.17336790078157815
0.7532189281244113
-0.6381780215330292
1.6074873091901454
-1.4792799047726088
0.23764854396785345
0.9115114982380976
-0.06093449974686732
0.09895754659479716
-0.6230872785703735
0.4609831553159633
0.44052703219741496
-1.4886195972016076
0.4466097826028309
0.5758158969247513
-0.37548676067004483
1.375467795111412
-0.4153584773281814
-0.6522347106634174
-0.9573490613801791
0.5891486743353743
-1.3829228011631631
-0.016242146388482426
-1.7686080681178167
1.2319894306471748
-0.4991835187059467
0.09243044047421939
0.04816799436848279
0.07516761511935732
-1.74580846073371
0.1526655231106533
-0.2695406344753199
-0.5043531598030523
-1.6185800981582226
0.7994809739796225
0.6421648818376007
1.1266891067744713
0.8428899992566161
0.344846835971668
1.1308434475680067
-1.2977308284075666
-0.6793987643182862
-2.600065648907251
0.40975210794512834
0.04995474398538485
0.2879575736447354
-0.11958117211117036
-1.5500578692060458
-0.18134079586218604
-1.6256510194005538
0.297023966155346
0.2914851511376222
-1.646533506851648
-0.21645175038244524
1.1032356795463638
0.29704403870044827
-0.7463250245251964
-1.4343310865804333
-1.4292690076649734
1.0480425359360601
-0.37121050419772694
-0.9473447825830831
1.1371289427751523
-0.4333046671129839
0.9774052985843164
1.9296493844724216
-0.5568294685219853
-1.0082391441906855
1.0113460542412223
1.172253455290815
-1.3519975412716505
-0.8726509355023657
0.6932561584782394
0.7316379810031646
-0.3098905558531112
0.47602337547514445
0.21126719488162402
0.4424178840910128
-0.910480306368511
-1.456165077503146
0.616768699456321
1.0048914937481437
0.6983214989771466
0.6111265212729811
-0.6903107709742677
0.5536102886580115
-1.2489193713606164
-1.0180735974466932
2.5019917736936383
-0.1058156474608738
-1.9059105476219775
1.4526588597212389
-0.8380534032061437
0.9952248198187932
1.0099452627716767
0.6747626760861043
2.8437866529287326
-0.33622911950058176
-0.96685433885961
0.039152306950455795
0.8822864652350383
0.4907533694041747
0.5519621439827018
0.7290673381516865
0.29662232375073605
-1.053935260479243
-0.9724325489406173
-0.8117535014551244
1.46790174965618
-0.33268705668110876
-0.09790462541047315
1.329139454558526
-0.15863297918456415
-0.6874092709193296
0.7191681036226212
-0.7322590023925111
1.267410358538573
0.9250274456462501
1.6777850587535845
-0.5699054900411612
0.4868460186645352
0.0877015691183389
1.4625178092620519
-2.1943842736839256
-0.7955320829451358
-1.4024935533255367
-0.0630122063646686
-1.1434408331731583
0.0010992521686739448
-0.7866575776547676
-0.10403425451898787
-1.5102001331361636
0.5562361733406045
-2.1409752654203613
0.2080216334357392
0.5612966942390186
1.7183388332187255
1.6568366083170365
0.6532370449418452
-0.009882392593524969
-1.3762861903410533
-0.40279076843941164
-1.8987192380378852
-0.15557398114796517
0.27213876575168033
1.3726342044044058
-1.4192603595487476
0.10523638278746156
-2.2505467079239674
0.7049299985821775
1.3505242630443428
1.418194785338133
-1.5994571177299892
-0.6439644960556086
-0.2192833618779817
2.7595925372967667
0.8880492386989952
0.3987262204387507
-0.5512579960909577
-0.24286002891456326
0.6911440074519475
0.48505259194495987
-0.5327822298596109
0.0735836309298355
0.0984917809141862
1.8102909725946166
-0.2725689375914112
1.831995487434307
0.30982443694874295
-0.40898879458550774
-0.9695858772671725
0.35681799413435217
2.1964380051356307
1.017452014061279
-2.8101721059308327
0.24445072831081235
0.3961171212912989
-1.629315279846097
-1.1399284046562437
-0.9954269214046206
0.058265717568694364
1.853815451545818
0.12952217874095123
-1.8106201538396225
-1.089078618380408
-0.7392557664653775
-2.3095937130162665
-2.2853777266421216
1.3551750227481214
-1.0697350805437675
-0.09102968134150624
0.7185424203750322
1.3840670277918152
-1.8042017697776243
0.37949592211731
0.11939860436945382
-1.1048459816905074
0.2229583259765506
-0.06347869288270669
0.07109912363126891
0.36973453920632204
-0.9433454254751241
0.684240082001132
-0.9258159376492876
-0.5727146661372111
-0.7827332475073338
0.13247165093769897
1.2932667199638348
0.807998847581625
0.856518061864651
0.7884014622185385
0.17542835257460887
-0.019585893767399165
-1.7669326414913364
0.0034341018883529417
0.058254626468412174
0.05098659741963954
-0.34067652144738225
-0.07183110371701473
-0.4442799369052134
0.22919587666901112
-1.0137761641102923
-0.8040425428023075
0.3629045623383257
0.25448328075295346
-0.7511885786481277
-0.12751746459818442
0.7327518755596283
-1.084121904199558
0.318140080440708
0.8218976507606133
1.1704541583139598
-0.1698995641801644
-0.186882961122915
0.16518452836253839
0.27157890458474976
-0.21797550263676427
0.9293146847863676
-1.137970898432142
-1.7210296147021915
-0.6007947136995153
1.2503061268564304
0.1574580074115129
0.4712649955058985
-0.25285396063740917
-0.6369958613037845
-0.1636773455565831
2.6050126821898387
0.8012413353564305
0.7544699604880508
0.024118176680661546
0.12601541276496098
-0.48133838355917774
-1.8134243897958626
0.22264709696563506
-0.25417950604719153
0.1938766793204767
0.35847397940215425
0.10918402421666049
0.3265281742801316
1.0464461943864811
0.6133980394254384
-1.0577545627072384
-0.1899322976791108
0.3536846760452159
-0.7252012760753529
-1.2445236450694508
0.6010944000382809
-1.5925179088197021
-1.0820240162749923
-0.04202206225567756
-0.8907264740304123
-0.9010365892174528
0.5798644300600927
1.1061263938904995
-1.5235082948216552
-0.9424205378451574
-1.1751658866882577
0.29100663399003185
-1.240980069553903
-0.2139501706036282
0.7739850245408351
-0.9311559394647225
-0.22117008153430737
0.687393129458463
-0.6845651296995297
1.1162930919066238
-0.4066280468409018
1.3772691981647025
-0.0536351353352873
0.3811702490056149
-0.7959235264692917
0.7259818932825506
2.1230869212323427
-1.3897345223852795
-0.06534313045287482
0.9879267026026071
1.7351995961891844
-0.5855725893247752
-0.04469979278508668
-1.253130456351002
0.3113527968814731
-0.5510190683889417
1.3096449308431657
1.2597200098750625
-0.21256985320122418
-0.5725475347711763
0.7354875462115158
-0.5163096618114341
-1.430497526114042
-1.0182549802513643
0.4463081822536118
-0.8304375724460579
-0.07896629172191677
0.06710510853234208
-0.6283179240178765
-0.35124442427294056
-0.7969958264541844
0.6897991744434531
-0.6693944115654439
1.6549932223136479
-0.8416708684779286
0.16401785406610897
1.4762846899535886
-0.8520900467701008
0.6015817202328934
-0.14846756814327416
1.0336392534291572
0.19256857054828203
-1.6722139500186801
-0.21514384401646058
-0.9333221446756892
-1.0871600834871955
-0.8609679916095191
-0.5697683250652658
0.02580535521441385
-0.030422482844975007
0.6762323644777034
-1.6180210622740814
-0.8924025581762716
-0.09114164093489048
0.5447364466601781
-1.9379956035650996
-1.2914752711911928
-1.54820730073257
0.2690033878919199
0.23722729042409013
0.6814290023998077
-1.7808727371732749
0.7019562610569156
-0.3210456778918388
-0.7180466135500664
-0.1269275373936518
-2.066855438371461
-0.11971171876555181
0.5424230369326624
-0.03478970728513264
-0.46927730753166763
0.43304682793543126
-0.47452902047068524
0.17691906771344412
0.27864376366558885
0.43864405654725025
0.44177164119654155
0.5058820014352887
-0.005769177255858238
1.1234949974455557
-0.13822351637191765
-0.6529861530688948
1.4372013047497343
1.2056200352659077
0.09623685483838641
-1.209630095104967
0.8823927491302864
1.1966069427348693
1.8233880948715089
0.04335495272952411
0.7847204615986176
-0.9352516308587286
0.20948649047342546
2.000859218400014
-0.26137583777228657
-0.17294062118716058
0.12426498891415394
-0.8866054002423602
0.7424813328636697
-1.1273235847914653
1.8722813765745312
0.027728322051773363
0.8729789134685194
-0.41291540948550476
0.3540022287924131
0.6127370050457489
1.5942396916327293
-1.047728857945703
-0.5711721786695817
1.089763613633214
0.667266110878312
-0.12805030619464194
1.9760276338993907
2.2002548630810526
1.6098188701791403
-0.09000457456491706
-0.051150896151566205
-0.8436608800838252
-0.666786684628222
1.2241969066577845
-0.825142750406948
-0.42193665608353387
-1.282986941712024
1.0991510107179092
-0.9429979199235008
2.6103638210504325
-0.9449241951324415
-1.7370796677845615
1.1945192320051707
-0.5572979018350019
-0.2775183959627516
0.12424805164350905
0.18124571876446166
-1.1879342363332002
-0.8345698194951058
-0.2630127813797423
-0.3268888942803797
0.00578828886776786
2.5218845501211344
1.251896877703963
0.7264426679400864
0.16013512475474984
-0.1261531108816344
-0.39385078239706967
-0.42825311139958566
3.193994756101245
-0.20504224767838514
-0.8959146244324381
-0.7571387080256866
0.9540035005588292
-0.6943234727375962
-0.816664642745659
-0.11723120277264322
-2.0027048840435895
-0.14851566438768482
-0.9224688883305551
-1.6628750071887748
-0.001466278624211781
0.26532936582010613
-0.568050871515866
0.5069101980069082
-0.18595104163552584
0.7513163801353764
0.9770758589671754
0.01089047965139478
0.5975800551468926
0.7704792006088823
-0.4323385986837654
-0.09736283272828083
0.4892687486139896
-0.8418079559123439
0.8322728833116702
-0.6171414472181502
-0.8392688626218674
-0.02887995544735128
-0.42142988204404963
1.881864196231536
-0.5597740285431945
0.8178447033859245
0.0746269480476679
1.434520593820202
-1.1102639109824006
-0.38044832547817603
-0.15233152645498252
1.0603726225004615
1.264366656947796
0.24810594114700818
-0.40975896043654936
-1.622302977419307
-1.0200426783484247
0.07191456615520675
-1.4111535482463375
-0.8117463538475863
-0.032441428811712414
-1.1023561877217765
1.7083826089357188
-1.204708682115812
0.7264748000117436
-1.1181807875307461
-1.0144436072882113
-1.1104354560397596
-0.4613269086920368
0.7846173890284202
-1.6600934816614756
-0.24041831843859687
0.5178852193406134
0.47950352104405847
-0.4236971816542743
0.03375794300964413
-1.74495473180718
-0.11649854525827766
-0.984192450685648
-1.5937883114998224
-1.3667145320377228
-1.0850087612051742
0.28997201200774775
-1.1519081141679224
-1.4906160161644775
-2.0932010630090097
1.444519553031474
0.9946523168517178
-1.3650036353462243
-0.32613619931192284
-1.2846843031477277
-1.08604728160725
0.7358956778236821
-0.4546149378347967
0.18239345984479494
-2.139008203124475
0.16790240474437343
0.162678109983573
-0.9176102636609327
0.3903110916041055
-0.8449970457469527
0.46707077914579304
-0.7355182639893753
0.05805398525491731
-0.4839447140273071
-0.08770649873735048
-0.8893777315420037
-1.0361145736251882
1.1815348614976364
-0.09083930633530618
0.3546029358005278
-0.601429869241864
-0.2552607450196781
0.0040789642691701905
0.10650515181793196
-0.37071952783464623
-1.3795789182843752
-0.6178789952479986
-0.22230307504026559
0.25881323599025824
2.040572086623989
-1.2990984695593335
-1.150342796822877
0.06906181109152243
-1.5268933915073732
-1.0876950692538452
0.578880306459883
-0.11582296105632814
-0.5397373531433476
0.29154793616114916
1.6446677736977027
0.980353873746899
-0.31135317636995186
0.060545529191242675
-1.051207932113254
0.530717172137645
-0.485721060059763
0.6554962993425435
-0.8224228762106879
0.6986771930116666
-1.8281133823998341
0.399618933342797
-1.8670530707766035
1.697754664532276
-0.8431102873734131
-0.49996654397941814
-0.9435047443909476
-0.9636254855119081
0.41885409456832134
1.6447246770017174
-0.8737304525709524
-0.36773809687914927
0.6456725144303866
0.08876151597194365
-1.0888101895497428
0.019968293046659036
-1.1121085512479534
0.6686998634728807
-0.21515541954896394
0.23341532537231452
0.17486574210411
0.360206631308241
0.27411784619343965
0.6001826654777336
0.5022636598295293
-0.2695422214980008
-0.5199784388530748
-0.007427885401453449
0.14245065504153037
1.1165160035348016
-1.048265991305984
-0.4605592379480219
-0.9904587592965962
-1.6118665223686763
-0.3065847268517556
0.447003973061519
-2.042220876468688
0.36686620678839055
-0.222949360164181
1.333779331411356
-0.737044980639264
-0.433641170349481
0.2255557596091273
0.6953467986997797
-0.3906078332042325
-0.11925654208153236
0.3319342003777848
0.07026528966268294
-1.9115741615257877
1.5451950675322514
-1.0333892561673268
1.223864357041153
-0.03175112365224475
1.6565073529570489
-0.993573047011463
0.1945175122759221
0.6372481379555077
1.3667236271240257
-0.8314042703992973
-0.206213535150207
0.14932477291482987
-1.105167426171787
-1.9054507230802333
0.6646284952933199
0.21368982618960258
-0.5433479862430602
-0.8486964520207313
-1.8804065739467906
-1.1528541307822382
0.5731852775549747
0.961507049213336
-1.091353299148285
0.582150311016201
1.6308311879356518
0.9543528960883133
0.004951542766939876
-0.12246164509882543
-0.6484625690640153
-2.0193995597686816
0.061360721102998506
0.5285529342129134
-1.4678196573811078
-0.8636887326320781
-0.2585265452575608
-0.14771703001049613
-0.8526142731656804
-0.2900745207159603
0.536671954875778
0.30456317143483996
0.07985343110654902
-0.2621270326275324
-0.5553712980254066
0.4651400227458884
1.3425419641301355
-0.8514397110027627
0.899453738782192
-0.7194778092717159
0.04239311451526617
-0.4105149340344666
0.38598782704791545
0.5246087333308472
-0.30003425652080823
-0.13647848775961624
0.07385805404632034
-0.981592676781146
1.5333061013069447
0.33636093168104175
1.0739589632710538
1.5620350279598743
0.6329216447521616
0.0372933545785718
-1.740191904384377
1.6010580465732787
-0.8895285001956479
-0.7931276844269208
1.2929024272281144
0.21523731079703157
1.8443757583126472
0.3848103790333424
-0.27200582396880457
1.4458473729935966
-0.011623960280185003
-1.2132917504186453
-1.0556671204470924
-1.2076598812001362
0.02470863263606249
0.9681940322006911
0.7496744586755363
1.3442100268099282
-0.42555568386528325
0.45354915751202196
0.4555426031919553
1.0536269273823042
-0.427316411496327
0.684085765624965
1.309324080430985
0.4840166632653924
-1.6207679731417963
0.7915364464242775
0.5877833895847822
0.1933250868163008
0.11622805649761389
1.187394146173748e-06
0.86898433143125
-0.4161785213786573
0.7969369962774642
0.31883806003406645
-0.6474658279617121
-1.0600617009541569
0.31218964892902956
-0.5582623285228777
1.0014126586170817
-0.7625697112982703
0.7981220122182981
0.2683810871193383
-0.7091143494873325
0.2685751373059165
1.4597779687519221
-1.336718014411829
-0.3709846742624392
0.21573389584666036
-0.6389189833448718
-0.3911841166833767
1.1216220604244969
-0.8048088369800334
0.354601181929414
1.1341389245262694
0.2788398718714149
-0.2415821715845251
0.3766796943637507
0.48973298608768256
1.4715689159160705
1.2998379956101718
-0.774397290009318
0.16333629956862233
-1.145042957568111
0.4579964406004322
-0.04076011969400478
0.6957450477734366
-0.4198797911640081
-0.06827087349199618
-1.312593478033639
2.67739290574549
-0.7889137780369524
-0.13990054241217637
-0.3839323672341742
-0.2550655254182855
-0.3641653734770842
0.08065677105242369
0.12000676688661002
-1.022292449302627
-0.15968353327398155
-1.1736826876266617
0.7202411747016197
-0.7813706554887311
-0.09011949310821299
-2.729226053671564
-1.337399147684946
-1.1949441799536107
-0.8902978836410358
0.43798729883095455
-0.21952607596131363
0.26806439122754655
0.937381875211232
-1.2063091047520558
0.22442651441909134
-0.7114165987633801
1.1394666305632828
0.26369491451435956
0.5095918759944182
-0.6936333258992919
1.5202714104997908
1.0631233147492043
1.1622413077370732
-0.24943871346649396
-2.9542724195846253
2.018302854150225
0.028933108479888392
-0.020594992306431997
-1.5845181831960908
-0.9788253167403447
-1.5183415562065714
-0.16922491352069982
-0.29372661756448637
-0.15419810262904793
-0.5021365776239374
0.7977390590747777
-0.2556747521333841
2.065939477307351
0.8508656459616404
1.6229308241336953
-0.7000033568584201
1.0101939459105984
-0.7219236896344998
0.25845632299675636
-0.4869976761998044
0.8916901649459092
-1.0085344060264343
0.24183660164968535
0.2998882297992554
-1.347381820196364
1.5905926945727438
1.2204589436213102
0.2349005411781313
-0.7673109041943279
1.6835986099092697
-0.7676334338620701
-0.35354477183765903
-0.007988033076202772
-1.2224778287936242
-0.520597118888596
-1.2423675096202977
0.4305064782614362
1.0589717794718627
0.5235016222860039
0.13633829179923013
-0.24854038390753133
-0.4463958412716874
-1.8412191130561644
-1.8751864713310633
-0.12574499121210891
-2.1858498941515117
1.1946314719707918
0.6902673988004293
-0.5310208571446163
0.19574030458484626
-0.4999785999443825
0.13714912690563993
1.1204214826938708
-0.10962415606675058
0.08944160014130353
-0.7340538740980354
1.344019842799488
0.48982654465764097
1.173930416341893
-0.0008672501944690381
-1.0506491030113059
0.29860261560394386
-0.9053724496978317
0.395501705686132
-1.0518368447352133
0.34651434670571674
1.042078029550899
-0.6797009419938509
-0.14104693721000627
1.8272005448471302
1.3844225468700937
1.2709584391292554
-0.33995630769916496
0.3123600969524719
-0.7113353496308099
0.579550945901045
1.7346092524517203
0.5803522535490084
0.021384390833381617
1.8087469250245265
-1.2002039065572665
0.9339833136126756
0.1231426642082834
-0.17274222204785328
1.191159402010339
-0.07111254253816908
0.1678086046359767
1.6659553536358793
0.18964535919042425
1.6167858293524462
-0.5513835969362267
1.398614085231816
-0.7105968392455071
-0.08628399661308243
0.7334270775777936
0.29163440072827923
0.1654104198329362
0.05190560959344555
0.133612759768508
0.9722530548683228
-0.4542050678909574
0.9973462710803912
0.14357583294824305
-1.824134925341528
1.8879852128316168
1.4930840746455842
-0.5079275370888565
0.3750099130880715
-0.4552057099848427
1.196514669068132
-0.4812912684688675
0.06985710974911957
-1.8710633112788804
-0.3454826048141414
0.05178820731222028
0.036579570144782365
0.8781099122852194
-0.20509542057162922
-0.5662429784132655
0.7091966865100554
-0.5324894534444697
0.3695079368870337
-1.6774681798134223
-0.8195146934438245
-1.0920656936854585
-1.7144375792165425
-0.7817559769220905
-0.7278001936232332
-0.258409105579127
0.20951599748347127
-0.10392383549337258
0.6288199544361871
0.5133027360162339
0.2690285624460418
-0.2353520736122699
-0.06878523138457926
-0.7771260956241737
0.6959075015798234
-0.7761563531203214
0.26341020691958306
-1.5759019116366275
0.5055386124966142
-0.6417069442871555
0.1332871978282586
0.017127296837453065
0.4739790997489418
-0.6529896932922956
-1.3484248710349076
-0.36052309747838107
0.40401525156634194
0.7333669720378222
-1.2669737597925792
-0.8482812352802664
1.4256085820554871
1.6709162206754227
0.7986504417656837
-1.5898015400904884
2.386567008903221
-0.15444477526893796
0.4976832133161598
-1.1468012502760312
1.325960464712524
-0.5377903579721323
0.2884480277183273
0.2343972314435513
0.5807273982719808
-0.1674596192618903
1.36716836381221
-0.21951723716893215
0.7527581137470023
-1.362532327224299
-0.22239295832116762
-0.05355146242536651
-0.5477523043784518
1.3264144509467333
-0.8935735930855994
0.3132217928360145
0.3921554519675444
0.5718569730198062
0.43326321963332404
-1.1983725285825122
-0.4179893008907922
-1.4030726315464033
-1.0134705186998936
-0.8144516770008816
0.809948701787057
-2.5105924776171378
-0.8801897612178928
1.4383790893239121
0.9739653112806687
0.1691971872930214
-0.17057000244739606
-0.6018266684536184
-0.6563807884307864
0.062316563553538984
0.6035832929279858
0.3450600099706348
-0.4185047374512457
0.16552103828525805
2.9282325709256503
-0.4594401353524055
0.19448813208384402
1.141077965639639
-0.3712330990866738
0.31056024890090006
-0.6168301021084963
1.3132651599980218
-0.5495345952605168
-0.21654352194513982
2.154158515987837
-0.7991589767519791
-1.0198004425581964
-0.5394208791605907
-0.2541313352636889
0.7828053253846075
1.7798129927542026
1.9515345780505524
-0.07201552178319684
0.763590896578933
-1.341493053711544
-0.7613243430232604
-0.049163339764648484
-0.18124346650757334
-0.8199258237600439
-1.8931763800762338
-1.266103951949483
-1.6502020665920571
-0.02622898670245591
2.013425515999901
0.6747811396020928
0.14433632166468688
0.661632456867494
1.9867658852893286
-0.10517135589606869
1.034776025018384
0.1224398969303922
-0.4749945095830982
0.6454500402179569
-1.0768802969225226
-1.6122375848839903
0.1720749384797462
1.2032540071008266
-0.3892304194862818
0.2932707810829625
0.828835580149593
-0.3814443855502004
-0.16778149794622677
0.22921517412909043
0.02177395336955079
-0.031037655026167992
0.13182547880924847
-0.13995860542867467
-0.7147824014206262
0.2781076267440615
-1.5179152491788315
0.057144791158079355
-0.49880121955716117
0.06817174563858591
-0.5375694147246407
0.4559954001485125
0.36288018738254624
-0.6919394899392385
-0.3901025496682691
0.8097793688099767
0.39533997635253837
-0.3009204876504433
-0.7532870175352318
-1.611429509086369
0.9452896359296759
0.18191438201413856
0.5469067736610054
-0.16520953850942588
-0.1401622910714627
1.1489232178623119
0.4090288250806523
1.0154590050634305
-1.1395028297185477
0.9150205276814882
0.5124522476813617
0.1580555319818983
0.11055049937755423
-0.0866659083444036
0.3524954530107202
1.8485850003287678
-1.1125294885130033
-0.1536798876476883
0.11618263926638092
0.9524777145978457
0.1593066155624414
2.0128211438968524
0.008229583006567814
0.5036225479604464
0.10346869303413114
0.48007141193390857
-1.7642017833874974
-0.036917719580862214
1.1412162260798284
-1.408647625246838
-0.27372453315919076
-0.553789960730332
0.2681768244585103
-0.7349827557591904
-0.5780035636272884
-0.6368241480670602
-0.42281724915767077
-0.5965636083883166
-0.031251218717698315
0.5407414264227719
0.9136442484131031
-0.7242849938724591
0.8286725926302299
0.3445310225816294
-1.5717503527397512
0.10747083448423222
0.03175230174692786
-0.8189930761024874
0.6648367916381823
0.07474348025866447
-2.281989914474236
-0.6404412079492252
0.12651605487535272
0.07242250870903404
-0.036882132064966114
0.6355659978360004
-0.44298580411473115
1.3112509059064839
0.04244731117267375
-0.8413405145799218
0.625170656267966
-0.7689628207689617
0.9150564149547226
0.1382933031424966
-1.4502475283819587
0.23116504043754627
-0.5272901190466911
-0.36209528968894344
0.16592808025241346
0.7172165233891257
0.6250620335906523
0.0500125362040638
1.021805323071401
-0.9500070437375134
-0.49048894479399424
0.3318725299091805
1.0801564475582115
1.1377337800417058
0.680219973939448
0.5751352605733188
0.3555006541444717
-1.2546327842922225
0.42017984620719645
0.4046104472571101
0.8704776986827132
-0.1862479455575642
0.5128231890250499
-0.29546748143547497
0.7507461647409155
-1.290659826047864
0.33682085332986256
0.08768863458440823
-1.0461994251852096
0.1685108186515748
0.0502360445935452
1.6308569375145439
0.7555591889597478
0.6756728072439752
1.0136750090445483
0.5869815809608125
0.9046098101980258
0.39762418701252833
1.3773578073158632
1.7638810472504578
-0.804031831979014
-1.447660825368023
0.6872226824517662
-0.19589922571256918
-0.4923006638806333
1.2452137086436341
0.5155544502574892
1.8303840948719894
0.3292660178052065
0.09841071760337215
-0.46203474198884154
-0.051617297921257466
-1.3018958082339154
0.28590003924442065
-1.5706209004823266
1.0306116289854634
0.33751918847944773
0.48851833209394835
-0.561573389963619
-1.4940339585603641
1.7364591197009696
0.6632927126988934
-0.6288212889643567
0.11569384099117917
-0.4247570759220601
-0.0022208107478367545
0.38111499975970936
-0.18630159014340886
-0.8591058254947053
0.34743861206298177
0.647673909030247
1.2809986584736544
2.2591514307617073
0.5882635994792363
1.174577729984932
-0.37851507813772634
-0.5620881369755372
0.5310550711688042
-1.25350442669773
-0.2501575839361207
-0.05549862994265621
0.07731275727579376
1.1261028072269834
0.04821041988141783
-1.1101991749792006
-0.749924618813957
0.6331477579261094
-0.27651014828214066
-1.0193523654227437
0.9468378667729269
-0.9877985903695717
0.4543644413054112
-0.6048801539347859
1.2119343056217584
0.7079246792754287
-1.0569255827464956
0.5204639274175493
1.4977306756361277
0.34625144360434
1.2473588738618546
-0.34336569775096254
-0.46947773643314417
-0.9051297280805619
-0.19254548352961168
1.5815760843590558
0.2409168092059239
-0.6466374716737586
0.8222884022875683
0.627949868423077
-0.4026293054199008
-1.597789158625996
0.3221828617355569
0.17967338890286944
-0.8727539149243884
0.9574840050547628
0.3320014944301356
1.2595085284918026
0.17124973725691817
1.3706152026085903
-1.275089725362879
-0.05687623925229551
-2.0614877558830385
-0.3689830091708031
0.5520577717547737
1.533533822537513
0.6691382569403781
-0.4403177162825621
-0.36368554248197177
-0.15737483197799307
-0.7533155841203173
1.6843347849365884
1.2582276987064027
-0.7754501938932913
-0.7441358321985075
-1.2646954827885946
1.59512052421355
0.7359218147951032
0.8611326032294517
-0.847565563015781
0.21354592879578488
0.7227857097979291
1.368260927844089
-0.07314477544672028
-0.19147023856983464
0.21682355247224883
-0.3925312022552252
-0.7287722056119439
-1.5140488908688443
0.38531455468711023
0.6676925028124225
0.26848757766964243
-0.4246716098679146
0.5992648557852062
-0.8616423952874092
1.1080616200952629
0.8229168418177712
0.07302330869122153
-0.15933965383357743
0.9408254829850881
0.18001657186436337
0.19983074586730548
-0.10457957529146604
0.05144415663673746
-0.03675926061187616
0.3989172995194678
0.8283568107622677
-0.6479785808828687
-0.902445376865953
-0.39173453760359694
0.8311730746970187
-0.04511887431448022
-0.2845933733354213
-0.4290927429191156
2.1416754733158214
-1.2430535317954174
1.181568196113822
0.8386988029393622
-0.2116799120395915
-0.037889054102281744
-0.13604755591834916
0.9880405960443817
-0.04316512374173683
-3.4145693311393286
0.6320900837153562
1.2705379650854853
0.5677477189294178
-0.8020106118671496
-1.09439252450851
1.0903002867194762
1.347960253095151
0.81893562438793
-0.34163027683002656
-0.9286747953575634
1.969764753962935
-0.07375070369065578
0.7859043774455199
-0.07334813129565904
0.17186928281579644
-1.4163329786928123
1.7449994541398781
-0.711613468232504
2.98740951086769
0.5548003220645354
-0.17360875620525992
-1.3894137906435837
-2.33227599074827
-1.511394619173848
-0.39161153852315855
-0.9768402044253282
0.34317259559859303
0.6492638580766944
-0.23415326287312271
0.34679459284086506
-1.1672965625351228
-1.5933440452172334
0.5072347928525501
0.7547233875325177
-0.8480120813462054
-1.0245830506239741
1.4352688333488102
-1.7524710501335914
-0.8825278332370036
-1.0331177210634417
-0.045915822643522786
1.066395049725503
-0.8281975379707827
-1.238672635181373
1.0147669626856612
-1.7141980207421286
0.8163495592759575
-0.008960246113137171
-0.07681048207838312
-0.3285589186384455
-0.2837206610173929
1.9895892735107996
-0.07649229593196405
0.27627537357889537
-0.05840361247890613
0.23216377767464158
-0.360156676176129
-0.8070390517487818
0.4352845360564478
-1.049881513066329
-1.1053758829989735
1.5870180965402416
1.725384001487485
-0.14004806139707537
-0.27661572363112497
-0.5062696550440557
0.39941757408886913
-1.190370951424626
0.5739321432958835
1.3523330305019288
0.08658699105808032
-1.6127448247213032
-1.1498749596117737
-1.270728934721118
0.5690558002774878
0.057145010469261015
0.46517930900319504
0.9393488219302403
-0.8821023862554038
1.1021596315460975
0.34471064566781273
-0.43164495935531055
0.6081632286069715
-0.8571349905225731
-1.6157313811531853
-2.139537993589835
-0.5108128630265155
0.40671350961907876
-0.6295436780081104
-2.7021315941996544
0.16778029874319655
-1.454087703514093
-0.7152566296859534
-0.8918636415758849
0.43255791291174883
0.04555228935095984
2.295921777329076
-0.1500445069857603
-0.1976608147464679
-0.3213064123419536
1.1854384081170628
-0.4434237175311738
-0.7074332034091891
0.881576101300715
0.6338030587738325
1.0280712013800997
1.0009064404710377
0.9977346421137657
-0.1454979662880247
0.7710509986839249
1.5658870502106699
0.8315334312416749
1.0330488939394644
-1.4647794037334654
1.1264008444630234
0.20339549391881762
0.08911772160195464
0.7695639677634512
-0.5775577165646145
-0.2381071144627236
-0.6532924976118346
0.869525773746568
0.09979239640196125
1.4762578307280119
0.1606189915045355
0.31701308634865943
0.00027009303824104824
0.2988330238977368
1.4067778419578647
0.47055850036300556
-1.0043783456014526
-0.5723953894851547
-0.5446357746963245
-0.7227779840851052
-1.6144611739202757
0.36495394927539543
-0.38640943633438335
-0.42714792337246005
0.6094903264963376
0.2839217537104306
1.3082205765527135
1.4560357272378095
0.6172112036858822
-1.7243633798106086
-0.4210938360369798
-0.23474898596573304
0.009594498165420795
-0.039118086232304616
-0.7224953715462377
-1.8241729409319807
1.4714229977802953
1.176144822125886
-0.5769064719274607
-0.31768398572947154
0.025215108479297033
-0.4275965360085799
0.5587991265179055
-1.0215010670183375
-0.7774264314141457
0.43392692389274723
0.6976468261553209
0.5137177198026138
0.37599950536822246
0.7153256190423851
-0.024826516329114756
-2.098834340471317
0.09993852471131245
-0.37075191657220274
0.304737432077473
-0.5780767315755881
0.13289133080397397
0.8696681101237951
-1.763739302724104
-0.11137302540765055
-1.0057848269427325
-0.7934948009572125
-1.2482366184058349
2.6520696011244924
-0.05111291366466453
0.7688225648428628
-0.5771572925023806
-0.18716331196695257
-2.165293879050963
-0.8875885198916669
-0.04930498306818637
-1.3286790818519172
1.2052608854680624
-0.6624697249454647
-0.7998002504526147
1.0208779587228043
-0.19941744926355415
-0.798844359806291
0.2567456774842577
0.15640124010324144
1.3314658955916123
0.7187721298407725
-0.444076675619305
0.5222493272033479
1.1228407250809775
-0.003198992476201583
0.47751654407382704
0.07756192493230529
0.8650060619354191
0.44601323974244844
-0.39345823263098223
-0.46232378880338343
0.2988735007889552
-1.951280362970265
-1.3088282577569952
-0.5030309011519021
-0.3441216766326114
0.24113965251544955
1.1400454764292918
-0.9402766573458516
-0.14333082997945445
-0.6602499313177927
-0.8853714034947169
-0.15505700271914336
0.26095726117690965
0.42498388619567573
0.32902394371318977
-1.1553066559414917
0.6816299930936157
1.89300816426198
0.05454898867492816
-0.872452225821398
-1.8603515892569362
-0.8808256693805042
-0.005738393423815602
-0.07055769256386862
0.07227619447576952
-0.6501956478918233
-0.0724683638214022
0.08169517558653994
0.1388261305838274
-1.4353000519732335
0.5611370661965633
-1.1025895846348766
1.5653969743847802
0.4583513713907059
0.2588323949520943
0.2045738208096753
-0.8126421254594082
0.6406790049793748
-0.5856044434277108
0.463586132112099
-0.7469701970921576
-0.41536770859730243
0.6627718256309612
0.6722902353782165
0.9917443725742536
-0.8145040486542485
-1.30875068403494
-0.0026019222358399374
1.9000354302304865
-0.43229719722666354
-0.33196451513234826
0.05537042731553782
0.9355016131515808
0.17033016790509364
-1.4355735599401824
-0.1806783723857937
0.07568236562593972
1.1224413611393165
1.4430116904747106
-1.1529029825408592
-0.3381520195500272
-0.9654646171812411
-0.22962542174877487
-0.009957173269369984
0.9278016560320224
0.09688929537137703
0.131923690641634
0.7880504068452118
1.166222501165306
-0.10946396828482896
0.6298410206706263
0.3568742688420945
1.6493746689880429
1.0062478790678309
0.9064464485718129
0.47252069260810253
0.4559860576821185
0.9347131628940784
-0.773342475786944
-0.19788073782884685
0.7209542433603593
0.3859826911161337
1.3581560124053054
-1.0570757711451861
-0.459686439532341
0.7638624772318263
0.7888122428300816
0.5013278757015952
0.2832784794071385
0.5320762023655607
-1.0237035823832488
0.8347897817915507
0.6201923230650102
-2.3419084460347794
-0.20075530774522138
-0.6288081577364097
-0.48500534641532
-0.6641440579684807
-1.5272136122054736
-0.329039110309278
-0.17698671374831332
-1.4269695436563659
0.013594943533178916
0.9140865772307913
0.8301701882083551
0.685461950512351
-1.266509967085976
0.5737796572704045
1.0018674217008774
-0.6331695687604181
-0.0062668663783599365
-0.3973361339438271
-0.11101075757433071
-1.575790307687282
-1.2428476237097636
-0.4847529497584233
-0.5847423038638321
0.35852229963902094
-1.1905949138052359
-1.108403962903242
0.8663732673469813
0.393810935753623
1.462996030745376
1.4039693072234196
-1.4380064723272032
0.5607182935668358
-0.8270788692578049
-0.45386826994320484
0.3210042485302622
0.9736847704570879
-0.24581491932505412
0.34238676650636335
-0.709980006203778
-0.6858263252959492
-0.18050674724137294
-0.2250472225770826
-0.9667092703794399
-0.20662933850106927
-0.22213783100848777
0.8866189528941324
-1.1979190060314582
0.007800960305391569
-0.11813588322670071
1.7073370662749339
0.6092705093892928
0.21435191336306833
0.7430128505273538
0.38303425527728874
-1.2395408164702415
1.3097352883661202
-0.42183542283289643
-0.8123548551286369
0.15903976156037714
-1.497181677314697
-0.013199155967824838
1.359230203406827
-0.49702114790361596
-0.6547351512583773
1.0453022141277468
-0.3637858106327055
0.26491287726746426
-0.15175687684721773
1.3118531405882994
-0.8501265677980944
-1.098450154494431
-0.9526288431337168
1.9222716601745082
-1.2936307287409818
-1.3025128358685891
0.4889841832155103
1.4179080479283992
1.0919919484349276
-0.4229438342492725
-0.12812390089634654
-0.27800176682510774
-0.6515560464677392
0.5811567577699928
-0.17813206712734697
-1.0969676281268743
0.7388022308344238
0.27546342392740064
-2.045726900921405
0.22875752939643412
0.030636563184231663
0.11842093216028461
1.0997801941074057
0.5767439870366868
0.17166781873854478
-0.6339148704598045
1.1439886922849147
0.6148204072290598
0.3045150750577075
1.5508315707059876
-2.2624301239210594
-0.02279577632290688
0.8159763458857321
0.5000846778688334
1.294626064619698
0.9709788711855738
-1.3041969538823381
-0.24269910033932207
0.5338116572287439
-0.9429569388990184
0.05599458756520894
0.11086800282982023
0.7625482401785093
0.3524396293328375
0.4835964051315366
0.47305959642181783
-0.4557003504664505
0.22583377251229894
1.5140116169493933
-0.5047394413825317
-1.1112708417036845
-1.1912153124285285
-0.08331790135029027
-0.6295959635989828
0.6127947119684297
-0.2953310691884079
0.9083500831711745
1.411206262866612
0.8748589382975893
-0.0015958531776469297
-0.3770117687728222
0.6540864919548992
-1.2382564818404158
1.3780655951127763
0.6688581258767412
-1.4447258736453104
1.0611202227130123
0.10360941388885458
-0.17327217371738318
0.08572230459431864
0.8081783354579326
-0.29550029653940757
2.267310314753183
-0.23784323189129442
0.2740715276464585
1.6587370586285057
1.1817487566505211
0.1005003021145093
0.4080357773238622
-1.0924683450062875
0.10207317921684222
-0.5058942948204569
0.2995309551223245
-1.592314708292547
0.9334310946019209
1.063068259667258
0.3488136534892103
0.7808086850549167
-0.8024240407935077
0.49590722770969764
-0.7050995947755297
1.370871694902009
-0.5240663547554327
0.5399307078532999
-0.314613274841979
0.3202731842607354
-0.6785202053006127
1.7708729361761675
-0.7702841827994912
0.8036822326370203
0.9492877093009693
-1.9384882770758693
-1.099918956266454
-0.7672931730144621
-0.3570799682601309
0.8350285383274859
-1.623635053708951
-0.007333057849752106
1.0800933951671534
-0.6249168523277802
-0.5819400565260385
-0.443938202644278
0.2908887708016326
1.162765907088884
-1.815355045516057
0.6996003769592766
1.769738692967384
-2.2052886793189033
-0.7998862955239385
-0.09641260635456483
0.16328117515300866
0.663591384753988
-1.5066618178378244
1.3374182237595658
-0.895342273563875
1.1182812637754975
0.052930405748275344
-0.2679435247968909
-0.11689652523255353
0.7700834799336216
1.5689752419935
0.5762958269395604
-0.07520779785275666
-0.03889216920776184
-1.4013862239187689
0.3120991473370567
0.3389589117706576
0.06474711615462936
0.28440594938763425
-0.1874450323103335
1.0699643391727647
-0.6297552963003645
1.7683008664280098
-0.03196760587685801
1.975070683619627
-0.5803394928216161
0.02774337087800674
0.09441953439782019
0.18623263905864357
1.7576978504527592
-0.13212744623170894
-1.7981450560454209
-0.3165743058646444
0.09264433794474411
0.8052291114410475
0.48510360830695165
0.4317170936276772
0.659844958035393
1.0748232616435642
1.14444725947462
-0.2809775398612
-0.5590556675134712
0.13109855125411435
-1.717609845555322
0.025137022848621654
2.2590761067023104
1.5581627373222133
1.969796219672753
-0.132896931911115
0.14702209156906776
0.7131330892220101
2.1545368339185793
-0.3129004984630007
0.4270685981409328
-0.4540382719656405
1.615730163152861
-0.5598291240193235
-2.1851701891825983
1.9614302553092875
0.5950108845247073
-0.5375482640728344
1.1349406324984626
-0.5728936275460226
-0.9291637968990707
0.3201108664920802
0.12236661324061471
0.11441807636259405
-1.495331350854363
0.8516103143616964
1.3995378248134953
1.7273098514494871
-0.7917356689973252
1.1538730739535135
0.30219163674148286
1.0136419881284637
-0.7342532390560665
-0.9918226070647871
0.49366094733164084
-1.1769125993958054
1.1638285511570676
0.7542353952617793
-1.4212856323463385
1.0297293737722457
0.6704793327849528
-0.9595451365021027
-0.49684507937198163
-1.0125040800759606
-0.981249527153198
1.1307309592892882
-1.7588413596146943
-0.5801994320892783
-0.24414161894107078
1.0241849477438822
1.1920121846934602
0.2536547529996783
1.490628104305587
1.050076806561299
0.5998691101773502
-0.38692581402735665
1.1920426503274895
-1.8381482066947887
0.8930269507256396
-0.9038539862821287
1.1218715151670031
-1.5007919264697025
-0.7443385910941559
2.7740038697005587
-0.6588047338287242
1.4563733101538943
-0.39436779013078316
-0.475334062425082
0.43629974765105917
0.3768547024531086
1.2254967330663236
0.9529852065345343
0.6196047655895968
-0.23713641284919085
0.11482014502316723
0.45516275555828
-1.1682217818419207
0.0608078554985414
0.43146127744558416
-1.0250865297756646
0.9497899252107784
-0.23415371890155523
0.574854377185328
-0.2777534444950289
0.12132836996482728
-0.4236126556093765
0.7596411813918866
-0.9103642236801575
-1.1146995398070358
-0.34363534467503865
-1.0048903068760466
-0.2502203133455637
0.5681510506925488
0.10983426856200568
-1.1175156811667064
1.057459872065072
-0.8041101198353507
-0.8900638213396128
0.26596247624885855
0.839462754701136
-0.6049637012839553
1.0021895617371377
-0.4354645729065191
-0.7262775066809415
-1.8400603534396396
0.8646013084230066
-1.522400234484206
-0.6386437614721676
-0.8706188734448407
-1.5686654050670683
0.5137301872079925
-0.8803556959880495
-0.15822170146364672
-1.5362734590061173
1.1447833973854409
-1.5934626938395413
-1.2723057698651317
0.9528922922219555
1.1351387882251711
-0.204734870053212
0.6401700319084802
0.34434388495803875
-0.2577314104809123
-0.9367225555918293
-0.46275082791956357
-0.47243103908355144
1.3781194855463572
0.4471411486119747
-0.0719975196323781
-0.8960441325260686
-0.1308958263327339
0.11737042335568099
-0.5157703480307333
1.1228039962117848
0.24753831507608692
-1.2323949942429742
0.01498934443472022
0.9044524044029457
0.6635287185811036
-0.6158829862677996
0.21531176038774402
-2.1647329306974274
-1.0886781587553098
-0.41901732590423657
0.21670226445183863
-0.6335608420952343
-0.03356878810029182
1.5117125998633179
-1.1087138599105895
0.12089736974374862
1.2362328147948813
0.8953562759657403
1.108196078455709
-0.10255080980922932
-1.8265568052033692
1.7663315671458226
0.20295235621352242
-0.3807529955036247
-0.31674757653159985
1.1294781704427375
0.26507853472158
-1.332714431927105
1.7996359796547168
-0.7822788458797418
-2.2823132659635283
0.2125682751649573
-0.5856136170217554
-0.0758594784503522
-0.3440162538461882
-2.1761972526868627
-0.12733223885053943
2.122214786726059
0.5515398138637554
-0.9564024749822968
0.3432211329000367
1.7521928912754772
-0.263950230333536
1.0389208697550623
-1.1190931766694199
-0.5618236742069677
-0.64397363284156
-1.1350859415745154
1.1215610711259227
-0.38808319615939035
-0.09182811993797221
0.9413319896511401
-0.17686984093668245
1.348262821173466
0.8973004255565082
-1.3124039096901305
-0.10156123584530721
0.11224901649755326
1.4020830320270714
0.841083855336983
0.944652504673251
1.2091553283047631
1.4199333257564615
0.6979198451341451
0.7470663988282176
1.5797619577490918
0.30812553453068536
-2.4127316507017205
0.8877743544819403
-0.41213803728939963
0.6302815423041561
0.18663997927365378
1.348378831832031
-0.5666629427616191
-1.2227912483522254
1.050379536990881
0.5738036712370778
1.6787100716985497
-1.3799738036318043
-1.3395681818129135
1.6882848666279462
-0.9104572253904284
-0.6614301158355215
-0.5070756445871261
-0.06560644772456259
0.7525742623323659
-0.6320422022717221
0.16061533247529644
0.7103459896305881
-1.5547954363147487
1.4292312858575977
-1.031749215620488
-0.07180533499193037
-0.46449676496972886
-2.279552438864232
-0.35563096301988995
-0.9471820372511796
0.4997120822628129
-0.9575714100973391
1.2319997198272856
-0.948722845397177
0.9723712320494637
1.4008730596276395
1.2872015981681928
0.4392106513403089
-0.6205265425546863
0.19752305845120255
-0.463058696721175
1.1179009195458582
0.27764032351714374
0.7172099130131129
0.677088551188402
-1.4350575644221881
-0.032893817673257386
-1.610884142443434
-0.37693005984197875
0.7599477113965251
1.2369288538314798
0.532742556303918
1.8285497104960655
0.9560115686557602
-1.9370283159625836
-0.5911896994174103
-1.3467898938182417
-1.3082874669287654
-0.8459303722996101
1.1311316208569058
1.2520398354463933
0.44112362080403617
0.5676049978451783
0.06543707765217083
-1.404150511790506
-2.5520513845479913
1.8349027912039184
0.7910187367027602
-0.1599758367475049
0.5464773548350783
0.39455658699946516
-0.9666483833336921
-1.0739893394625264
0.5525170354961002
-0.9674736654221335
-1.0318519110961335
-1.488697175167203
-0.15805669250323454
-1.296841918212876
-0.3472769933827993
0.6837373370305162
0.9865190501398147
-0.14934034471056384
-1.9373303072044588
-0.4689642492327153
0.5141435833818914
1.2627541570195084
-0.034047693107911337
0.4628111308410102
0.6454848333648189
0.08615152208932558
0.295322336134616
0.5006152458387982
-1.004050821208058
-0.25283577214817743
-0.6959009024070283
1.6840325067246824
1.7102176031613279
-0.19523667358629
0.9736736281416474
-1.719090049324658
0.4849736877972918
0.8460066349291274
-2.4148020435656647
-0.6881064187568187
2.109304097023861
0.30378005941345343
0.9641544962837816
1.405247014824981
0.8269745464804299
0.021410370270280935
-0.22228405444221888
1.494907256729598
-1.8170762861082304
1.457852972784305
-0.19502162158294256
0.49268529945913686
-1.815623943642603
0.02374105198952403
-1.6655944498018311
-0.08846239903603945
1.644494953325781
0.23332800307924917
0.6825920951024367
0.26199274636269804
0.683710233122414
1.4387582152226384
-0.2708393797061138
0.2834644017873107
2.0853557992520044
0.6590357362160932
-0.4366914399701449
0.5703415306699836
0.5738185464947313
-0.16144290538340156
0.5843679310723751
-0.3021430649069905
-0.9894702631225338
-0.9124375197713931
0.6248250215757207
0.32349418074426717
1.1948937910726425
-0.5776644460188326
0.13180556111410918
0.6969503522465426
0.5245849218196792
0.984286359924148
-0.501469065220283
1.1077359760299932
-0.13422070959285937
-0.363554934538031
0.684640103486749
-1.4516778563798323
-1.1477802720382568
0.16144025787518992
0.975060606926406
-0.06975168858264674
1.3598509106620156
0.5574697158993842
-0.38897636699777727
-0.23819133020739636
-1.2008899513107494
-1.1148065600320551
-1.1797197680456941
-0.7263129595663589
0.039434441571783774
-0.344218736905813
-0.033693634996078276
-0.4028660839056868
0.4011777337654141
0.044945578549213376
-0.35263669225261324
-0.11987190161737249
-0.5273382438280354
-2.9865979021424396
1.77868387585067
-0.924247177938873
1.951562283201872
0.9480189604688822
0.21768383741623037
-1.0912872130090852
-1.4013204289781434
-0.5247648338412847
-0.52417902902011
-1.650588120571362
1.6125304404893854
0.2200510268393033
-0.8816061926003507
0.33720676481463624
1.0412336482558484
-0.07238196331615537
1.5197742689827785
0.17644285628877238
-1.127807678772622
-0.7899884726565676
0.5295079694289058
1.025635458407535
0.9289870266123187
-1.0981760441423383
0.027589542561302804
-0.505862183017782
0.4453985832611201
-0.14786776884917013
-0.2298522964502614
0.11036422524428419
0.830278472668599
2.0872774171060557
-0.68594462782375
0.7943416285115497
0.36108243442191706
-0.9748367801690423
-0.47090865320140324
-0.5907733469734261
-0.6510968239829922
1.5222330366563885
-0.8236054004906113
-0.004203795091773432
0.3743713279139832
-0.33345210279908644
-1.664396681396763
-0.6301541816903443
1.0484388329767373
0.9248363819331411
0.392930548247731
0.8820798797799999
-0.8954914096696567
-1.3723218619292759
0.6074534519505306
-0.27306118551446057
1.2462175122167554
0.19601421367930252
0.4472291604334654
0.459088666454855
-1.1588138287283398
-0.9155940727837326
-0.5082446025342867
-0.98434461855139
1.0392647111824196
-1.0155392209373721
-0.5560270844078277
0.2824217929820504
0.2756415538229742
0.9798658567625174
-0.41794926334455634
-2.1081139021982356
-0.6584959263344676
1.1572718400889643
-0.45027480921407603
-0.713861244532877
-0.41836995664305326
-0.6773555508186406
1.005425324834641
0.7913302275748486
0.4186899298577621
-1.3534931239174675
0.5040809916733904
-0.12318850413749008
-1.8340521119990814
-0.30325810872119247
0.3518539645816271
-2.243576726917976
0.4023041060525885
-0.8639970767926073
-0.7092730524659234
-0.344319330233004
-0.008115772043771514
-0.21370940583189324
0.46378632026361205
-1.0015434487607893
0.8719804877314037
1.6033354608557107
-0.18074410434899815
0.4916527821959712
0.4966184171165467
0.6846078876291501
0.3356871037810861
0.027102709239651357
-0.24131352397347608
0.44984358344552244
-1.8371393739765232
0.8486773993900981
0.439438379366997
0.8829747518391553
1.380081722981061
-0.06742299104030855
0.571827686061872
0.2008579922951652
1.0879915765053632
-1.1251984641825512
0.04844936443301018
-0.32870238400879825
0.4153738128588659
0.8542050140698312
0.1884038270543729
0.35182521717955617
0.38321501803805885
-0.57923100372419
-0.9085033662911035
-0.10219740130318355
-0.8624415681170634
0.5645738847981467
-1.4718285814494725
0.5374013782448183
-0.7575057014993758
-0.7050474693049584
0.13569038966302455
1.5173584767741062
0.14930824191708547
-0.8037391762591949
1.4867082388041832
1.3333430259684977
-0.3904309425192567
-0.8183633582589547
0.1427032888424289
