-0.020627950493284038
-0.10688637396409273
0.10741901709243902
-0.03338604804073704
0.07811558670192337
0.04473397812596945
0.3300643447045145
0.790367761661762
0.5411291986314852
-0.36549634201593795
-0.23982208824756165
0.4897056387168112
-0.4085465088337253
0.9481845597360036
-0.4117308386822196
-0.2690793553686291
-0.4915903432770813
0.2562709728476786
0.2324761798824217
0.630660651391223
0.3565247198695424
-0.530485345589471
-0.07665245326375943
-0.08417871725159058
-0.1368694812609763
-0.33118438043007503
-0.3879585039969665
-0.4543960571139586
-0.14593466165178004
-1.3313492205287794
0.5912600616603552
0.3099160520226717
-0.39024395992913313
-1.0669257360548536
0.4920415033107613
0.5251470175650829
-0.31196581685949054
-0.73600196079958
0.7595146735425962
-0.4465811091215265
-0.49527142733509777
0.19669959791018002
-0.1756496242854006
0.2661309652446593
-0.4549222072656884
0.3049595000949432
0.5139282000992651
-0.6766266401163379
0.5189774572587431
-0.03420503008112505
0.31270539660823526
0.3093985162887681
-0.13440657895490693
-0.0013360081172806501
-0.3858894597263963
0.4842634831199329
0.12744039259672402
1.0387683938527366
-0.6978421857208645
-0.1384296486006336
-0.16516817777048465
0.19379811356551138
0.517732429874677
0.6112836550683315
-0.4807556339432437
-0.11660354514865078
-0.3281226558839082
-0.06535515475852019
-0.4333171616080381
0.5927820311347378
0.3764708170189863
1.0476563301909032
0.3775644242823427
-1.1975158949595925
0.4832285697838279
-0.6096232290443102
0.6048823019342787
0.44348733477020685
-0.1805015262751963
0.013000521025142712
0.14757187912481023
0.6543460507653527
-0.889405770315851
0.24147181818281283
0.32152889412542335
-0.5553748950417023
-0.2558029088145648
0.14892516888249246
-0.37528821780768556
-0.3755360588216919
-0.2623623139282587
0.5709472801855557
0.18080558338050984
-0.07475924664082836
0.2668752818841237
0.05034090720213211
0.7942659321459133
-0.3553625391381218
-1.0590135892681394
0.22963729904482752
-0.18699720022352267
0.26476941238597157
0.037589373538989904
-0.7074786869169248
0.22901413672991822
0.03601443177187442
0.19610126043588166
0.0007320627878223684
-0.5067314380579954
-0.19685007649557937
0.27093024316241915
-0.0639808056881819
0.17432707075983797
0.8087047318635905
-0.3830281689792615
0.7532900170132839
0.18017628938011113
-0.46492697274465383
0.016428450191848742
0.5476760652489617
-0.04358673525336401
-0.4450871617659377
0.5776207300314985
-0.39958601040760827
0.8697600360541988
0.9710686614718009
-0.2080581690994607
-0.7423187688206961
0.2513113385692936
-0.1307848376964178
-0.6080586415967321
0.3014400268319748
-0.6466966759374674
0.6180586334980901
0.46865487027061115
0.32645401551678194
0.3192913438339864
0.055597712027767705
0.18833507413930073
0.10840997955186234
-0.3770300837172805
-0.6845370978487417
0.20069137666214446
-0.6355417866806264
0.5382907184223004
0.022677952418483992
0.4602013896695875
-0.5580675259678285
0.6800828212789821
0.37491469154384843
-1.0171063198781962
0.496808439476743
0.2798711376388236
-0.9016260848140865
-0.25247684624725364
0.151858340757567
0.01877867011848572
-0.31005453392542515
0.26184922488128104
0.8092561412716474
-0.039784540158608314
0.04192063700594978
-0.9154375005432118
-0.8011526103203923
-0.29001568086081736
0.35746517758686414
-0.6875290421096301
0.965560655500312
-0.0637257576900723
-0.890686296337589
-0.7276477087949172
0.7176852894217822
-0.12680029209271956
0.9584273100962272
-0.4617282996173814
-0.2832436532655421
0.039171221465297
-0.13614511092978313
-0.012895194278294941
0.07540904239479179
-0.8809767763886652
-0.2120832518424559
0.1807148149920334
-0.18814125748327643
0.09379032343724933
0.6313585663868543
-0.3713596979954418
-0.7217929320133637
-0.8693159151382408
0.7360180068117941
0.4772463926639828
0.6928359776995208
-0.6744760389396538
-0.44533728427162644
-0.12614765904108222
0.09290541767006064
0.034238074057768214
-0.026227060275310517
1.082360515799529
-0.22773862148062274
0.11795290329417349
-0.6978971392358865
-0.32724513633907476
-0.00474410494030668
-0.1963453771607347
0.5711382868810048
-0.4956449060075755
0.5283637813055716
-0.00856577029065678
0.14838393805030753
0.4802738500478421
1.1676402583417167
1.1322558940047123
0.18376730810527664
-0.5941219562301453
-0.31178451789957523
0.2533317679588426
0.32962370349168646
0.40550357525669817
-0.47288249412493266
-0.07631055888312631
-0.2825355077315491
-0.13528829276412313
0.3815532708584628
0.4474178473759175
1.0714097403128195
0.553979424734789
0.2909836464017648
-0.258488485184969
0.4157704661318615
-0.03583915026350744
-0.33059553614196435
0.048883629573533455
-0.35032179341814423
0.46821248099729346
1.116155996827199
0.4421253273184406
0.008467635710488365
0.7415973789627543
0.19028094230218584
0.3200749709928309
1.1720354508315203
0.856467604505309
-0.8705944629625115
-0.09596535525684417
-0.23101766060712936
-0.11060933334172446
-0.574395405103646
0.4981095477525499
-1.0252801573427233
0.40325652075089297
-0.33075020705624625
-0.7771655502718421
0.42886416249248493
0.9782977940635057
-0.0938906372357424
-0.14820011846016184
0.1296219915515963
-0.4563281095511676
-0.5261578070403348
-0.010471210618743107
-0.2307788969492359
-0.1979453574742096
0.6903463963876325
0.18869240132269297
0.5050140137753225
-0.2836664035914441
-0.05475938815458709
-0.11921994744431186
-0.42050974096086546
0.2217232193905954
0.005370035463685523
-0.09060711033532512
-1.3003626164426618
0.8430611683347925
-0.3652402640591413
0.5378867263744962
1.0700531130501982
-0.12044597305194102
0.12790721675899672
-0.46393977182246016
0.16841353378443333
-0.19681995874273522
0.45600146187868307
0.7069259679422261
-0.1662502315705169
0.10858833231892798
1.210250859612087
-1.3586667279631588
0.7720680717242224
0.17404367946979377
-0.41847131264797177
0.26848125168211334
0.30487531426085
0.5652168835661624
-0.5702509369071647
-1.2287606721139919
0.610889192109485
0.21470087239764024
0.531807634760466
0.35152264007899237
0.5691361534527724
-0.21787200495591064
-0.6690748783797161
-0.9035257080972775
0.30279443493716285
-0.29921532376381205
0.24896174281191294
0.18089148971199862
-0.20422559115351374
-0.40615213140105394
-0.4389635562949193
-0.3589150650142249
0.4751117451326764
0.2178737813401636
-0.3432936195394686
0.47393576118753933
-0.006023875950432439
-0.34456848624167286
-0.23823818900487823
-0.23516403823882914
-0.04175403211358214
0.01598632031873634
0.12688494758342295
-0.3302115912382353
-0.19175251151567668
-1.042439769754107
-0.6654276241171387
-0.032172961947205245
0.6583498179579855
-0.4217946577835518
0.773484005897685
-0.8119368239129605
0.35773681203777385
-0.4676368399524478
0.4192833214023788
-0.5292260538297268
0.6422137327297005
0.4097859218526607
0.10719462406132867
0.7617413602454269
-0.11713522291571558
-0.33296689660218115
-0.2755796584612374
-0.30732115350413447
0.40218376520169025
0.07225846182395827
-0.22166666402070195
0.7549969279252782
0.11314867726357332
0.1155223681348852
-0.4100007822457554
-0.3506602362526581
-0.12844688700875193
-0.6200276910413324
0.6016118115370022
-0.26928768031271083
-0.5750426033148464
0.09465826953448381
0.09070692477725754
0.03583136824924647
-0.4117151298421824
0.37498527111716295
0.4679533080456572
-0.40850161767596294
0.34636766452663875
0.5159532805465482
-0.01387989279446697
-0.09105635896764205
-0.19931252613947795
-1.0066064697669368
0.571839003343324
0.11788086781435496
-0.07679679469704001
-0.010701657505803326
-1.4120867110904414
0.4331783469332804
-0.32464744567005677
-0.7095406968629709
0.15714792332115912
-0.09030343023545592
0.9964422790313658
-0.5345745563287703
0.44914827468184976
0.1863635775061711
0.1315486868759655
0.1932767603152668
0.7431433761470414
0.5771569461223054
-0.26727487136038686
0.35229472459795963
-0.7632358154766321
0.5013347104952979
-0.29327961373127664
-0.3263942240093436
0.4897934539201349
-0.06289800475263721
0.6092898887091861
0.15498833718378488
-0.6064278668258074
-0.8719226362649455
0.12145483584999969
-0.6940847110430093
0.8912114089813353
0.1273181354624189
-0.5465137289745009
0.24895766654423046
0.5413178571913854
0.15567705148742564
0.10821089070704258
0.6005724199264904
-0.6240867018691407
0.7685248169952741
0.3456774786514635
-0.647375227166706
-0.682353530813384
-1.0107825351415956
-0.2844089225959881
-0.6098941849425628
0.1796986170221881
0.5538036173184786
-0.32553428437938686
0.11106527974446442
0.17000078318047782
0.15559167927052286
0.05742904236711513
-0.28456113990929827
0.09321052909841676
-0.3738075815114969
-0.340633811277514
0.4074571548567231
-0.22273240700328256
-0.2866145354643031
-0.6795350078098641
-0.8343570076660202
-0.8736480787548407
-0.12099386659445457
0.10437302664337805
-0.2073167763503632
0.2287829669870941
0.36437900384973676
0.4955187643588925
-1.2518481770898022
1.0915211243757628
-0.11876153252561031
0.2933885439589761
0.2208385635988382
-0.9135793676027627
-0.29110168855123186
-0.6971595540266642
-0.4669979492843296
1.031908497386316
0.06380659405237349
0.1067763343404538
0.669621262690077
-0.5776364922768791
0.912473706369911
0.22723373353128912
-0.37493260222049046
-0.04818761745467015
1.1673295734560034
-0.605289118610474
-0.9899228801637205
-0.09448822864569538
0.02584106567405829
0.029217754918864018
0.5943794607055408
-0.4696942714120162
0.13228853671904656
0.06314884502891087
1.0597566248092916
-0.10067819905133207
-0.15967264432303407
-0.10947077525077957
-0.31840604342994744
-0.7516717078960745
0.4593524328563038
0.10075142647244936
0.14589723023520146
0.24644835645805901
-0.9705620868088219
0.027632381652890448
0.5290911574523536
-0.5054903326334695
0.4142093097898293
0.3264218183432957
-0.34786209533593365
1.3010783903282912
-0.46557093815008543
0.2537728020386725
-0.37606439566541155
-0.048063784179901065
0.13337603211809024
1.041054270899463
0.27972132503745284
-0.02599707098201043
0.10056764772721341
-0.8810510236292226
-0.5815203011274852
0.36517927613611484
1.5964361671628187
-1.3630882978903769
0.23377168773433118
-0.2378384806010873
1.287871832474026
-0.05888476111967583
0.3007511695906274
-0.2564395374807377
-0.25380711393867633
0.6869477329039915
0.300072797344366
0.2280128306538057
0.03641435595239496
-0.5949345232772425
-0.3855954930171734
-0.06141529858425532
-0.8375176297820327
-0.7795390674216053
-0.19766280944239578
0.30103175349815225
0.13586026555041922
0.32456620688700816
0.29307015115636836
-0.20121875690371588
-0.36728552302992856
-0.6535786921069586
0.0739036979560969
0.4881105936977208
-1.0979188389696046
0.20091678914810085
-0.2888594537338479
1.1186751805020843
-0.8343286105260699
-0.054963758207620034
-0.4366846356971563
-0.03092929533387396
0.30380493630284705
0.5481651364716109
-0.2727369680617391
-0.5139746516819592
-0.9940215326721602
-0.015235956956422603
-0.3859763466226873
0.31252229040018176
-0.00024523988031832644
-0.38774871823291823
0.01584213917700336
-0.6530742485908456
0.09949295265982473
-0.12991822251324864
0.7445652747489204
0.5904283836625098
0.2236898512524027
0.5404101709372241
0.30152135750093934
-0.6021825460676922
0.7448480438894625
-1.1367304263020517
0.09195099113779931
0.3067024170352649
-0.0757379302625202
-0.8040032725842646
0.02013705782039088
0.026402135238114743
1.8558676181820517
-0.33411233038257016
-0.20366380784680066
-0.6700182683403264
0.5109917837956637
0.86734414215955
-0.1907770273242262
-0.024467177004207655
-0.334832943838444
-1.4095287210047165
0.6022181951204242
0.372650949417146
-0.06893954533859534
-0.3061145052859868
0.17516956358071645
0.38253787099942815
0.4573499047662174
-0.3768408318926286
-0.1274557906133174
-0.2792985144162599
-0.22930805323144168
0.4728903019342291
0.41483700638643217
0.03921204649901897
0.5212501620029726
-0.3289657930247639
-0.3574778765108441
-0.43059987256942567
0.2265841934566798
-0.5673439396278086
-0.12937746483323967
-0.3998964177245424
-0.24610957125484484
-0.340761754853702
-0.07639978595302507
0.1785117386889878
-0.3200220471740095
0.09806931664613057
0.42902802663336076
-0.5406171461393746
-0.7161850694630189
0.1974474872273656
0.8422567766136404
0.011881808670038494
-0.06769770082149223
-0.008614456263862674
-0.6602629386867976
-0.08409343403524575
-0.44918249701451946
0.3298315015699764
0.2385795017979911
-0.243487558085341
0.8452369370017522
0.46895578649418224
0.9202454456286672
0.16598703557391561
0.3104392160018725
0.059800465004694166
-0.4198782928412758
-0.9042119531622347
0.7189645511629722
0.5606754505381611
-0.09520743994278637
0.24859960131079392
1.2991726233021184
0.10643851022331657
0.32871497929800636
0.12687786061658562
-0.16997952774861935
-0.6407661748275086
-0.07351317602855505
-0.25561703232350746
0.15947090883075188
-0.29057325296221564
-0.22960881571246444
0.29501278506677203
-0.2619051910018661
-0.10582887556544392
-0.4291676043090457
-0.12257710871514457
0.20972739003223148
0.6366798332130319
-0.20805488610708944
0.8457570086775906
-0.2022873199200017
-0.24717331139074153
-0.7249879748943354
0.6858539635894325
-0.20339991979328878
0.5203877331868944
0.32743328014353207
0.58604044306399
-0.298382804419689
-0.7596488975921748
0.8875950071767711
0.41439485175806856
0.3681065895367267
-0.09402442737047237
-0.2116726840016937
0.3088441365577325
0.31092837225705633
0.4168443018162593
0.8777108217157766
-0.6683678966614175
-0.25147516546975685
-0.5286830224125946
-0.383587939099721
-0.572074842103186
0.371368806732404
-0.34708256244862024
1.1435953216349923
-0.46097791836808943
-0.12386236735453988
0.5613852229970518
-0.21994032470047284
0.5716839731499479
-0.3156395645696038
0.05213101568977685
0.6908793498660227
-0.06936418845620348
-0.12968693031308734
0.7626201979262784
1.2155118614083975
0.5182298397031253
-0.4708949267043797
0.17759486017694998
0.20776052858388444
0.41078998984899207
-0.04152412074575214
0.4080788263626839
0.5143812058450123
0.014562597578565178
-0.09191828825228598
-0.0032549109452773006
-0.0710618243204994
0.1449506191570153
0.24026791976447961
-0.16813933959599248
0.11563071105266946
-0.5544993537124397
0.6265558011643889
-0.8154795183257615
0.3928404378553254
-0.14323582484683892
-0.15234261124642998
0.1424665509524388
-0.5332152839337004
0.271213981422058
-0.28669209111181787
0.05601023326789327
0.573128150783052
0.12998263577032765
-0.4133949896419338
-1.1489211625553
0.23281487901416856
-0.8101908264880611
0.08917882460546406
0.0763833345016722
0.00011223672868307388
-0.9299286294245693
0.12592404223560044
-0.5856387497313829
0.7205804195615025
0.6120225658752692
0.06766412653887902
-0.5135139150505075
0.4330311365864084
-0.3974627035836631
0.25292303778288316
0.16667115901861415
0.2329354094770404
-0.30161230088241076
0.094605211077393
-0.11708011417444927
-0.32196134015030786
-0.14780334091874786
-0.9754457677310857
0.4453089229494976
0.17121774994731492
0.6564774404603785
-0.434799970335297
-0.1439999881509768
-0.8488931340149213
-0.4199852469511316
0.5967979610450204
0.10140187083169969
0.6603268233920605
-0.21501727624562433
-0.5106696960513067
0.272522269069534
-0.11228438980309462
-0.29469392399469496
-0.24151392446331463
-0.5933015157420825
-0.4597660633236861
0.3485610827190275
0.20333752926280096
-0.11992810561954416
0.026348621525536076
0.6047886887042666
-0.09075687377204032
-0.20593874664244427
-0.640766189260989
-0.06578438574422855
-0.359222973077602
-0.017921786339314613
-0.028924683502623262
-0.5455465589750763
0.3893689136949348
0.09844545760177625
-0.11403605145599172
0.02580979141378184
0.5701226368464926
0.15862737938054636
-0.1272056341893316
-0.10401716786549987
-0.25043051892224877
-0.20363803387919782
0.03662203587265745
-0.6816152563509359
0.11438273800745144
-0.13306577828225008
0.04509885102897983
0.36255152880318753
-0.8963192462870193
0.7874214171297796
-1.3712256277391166
-0.059433943189413446
-0.7625532474429704
-0.2399853572086401
0.7143313404367123
0.45968841417936096
0.29582062939198994
0.7177851580529564
0.6146465585274508
-0.1179116722481614
0.5425540300884756
0.20626771663523874
0.5981993130221427
-0.6587249600163491
0.050184355444563546
-0.9384841399277839
0.5622908661374499
0.818895491514909
-0.03539908245819065
-0.12688492105680652
-0.6277978931169259
-0.12440722447888031
0.23184887939978233
0.28625247340220034
-0.6239169467698308
-0.789303370106704
0.3963411646245685
-0.126249683454564
-0.3748774895378549
-0.853810973652038
-0.014129594323805367
0.2581495416022543
-1.4037177347965168
-0.8420712405589537
0.14232920388943227
-0.01701573031087378
-1.2942613480790224
-0.2443651518311937
-0.5641683634368845
0.3282815586564195
-0.5161848170421777
0.00483243811479258
-0.1873207014584041
0.7764959605057271
-0.22913912684111482
0.8509615724603514
0.34187994921918297
0.20119920355035353
-1.1177658915534878
-0.8994498844970817
0.08932202278746341
0.08974815757821433
-0.0894426749739418
-0.053308555716641386
0.7193877735834474
-0.3056249841359058
0.4118637686599636
-0.3916397404260434
-0.0884716662347505
0.4499453859537293
-0.3933788369027169
-0.335991184819629
0.0854737299695845
-0.4607440028120487
-0.21025595212045753
0.5248267477672661
-0.6457260773557916
0.4505366727813811
1.067210538857963
-0.32884495823932425
0.19495115982555275
-0.5213934533969597
-0.3208776379277407
0.23835967430579724
0.047326425701842936
-0.9411630111487678
0.056664480177072374
-0.732128169908924
0.36377068250500666
-0.18535063987121825
0.3656142885981173
0.7606625874745833
-0.4447392070898049
-0.26509271767466663
0.07509463876984968
0.10595529179646944
1.2837902786809068
0.25261289432651124
0.4744919596036442
-0.4504416618239041
0.166614207427966
0.6581376838311235
-0.6456120931482323
0.08484421194805611
0.17485219106515812
0.37660164234481
-0.36650251773371134
-1.5995928248851128
0.7931911061864667
-0.22546871868986929
0.6615974562140875
0.8518639896063445
0.24528826502074566
-0.050762238561929914
-0.08622809007890347
-0.5626808179494373
0.6050354323298885
0.11947879045231316
-0.37388974823778165
0.6119301826748584
-0.4035917469781341
0.47215555839380563
-0.08989915513389832
-0.2331705584930359
0.07183811929459619
-0.11833491072393137
0.9516597615490685
0.20347257930986945
-0.47547576847591455
-0.06460186595122795
0.4169719932880517
-1.3502993902391247
0.2744730422787385
-0.6319735473346506
0.21873338862460254
0.4711694109483249
0.2868835805769414
-0.4395783885861402
-0.7546422635622299
0.6476383420336491
-0.15216636497494285
0.31689065049176185
0.254305458275389
0.2218749633111094
-0.77615191586711
0.8567999063794914
0.012201297123547505
1.0053671012950738
0.19754102612342422
-0.3798211491160023
0.2696998982216686
1.0969048919910094
0.07511393659544138
-0.5858230699147456
0.2597731510382886
0.2622245031386614
-0.08964449252996352
1.0942275201581464
0.04468937962683828
0.31367690987564417
-0.22515612140602406
0.5154810302048495
-0.1705502553109937
-0.005855073334694469
0.1603295073552023
-0.6201764695584251
0.738933043950058
0.4564407031173703
-0.4271340039790291
0.8311123251654804
-0.009478824657731089
-0.40320306977314524
-0.6932036821749952
-0.3179167794879522
-0.4481825747174474
0.8786622267762386
-0.45902173654754336
0.44996712949516277
1.2268339536106794
0.18753125285985348
-1.5359375412927172
-0.19395736305489772
-1.2110286305505111
-0.548786097851175
-0.3537493689088198
0.08682196647810105
0.08837108006824737
0.3696574527702909
0.264413156904622
-0.05477874407146133
0.1625510146199583
0.48291614498157087
0.11754162096751863
0.5554842280084039
0.06292414560567917
0.021477375656580644
0.4827923818188
-1.0924881497757981
0.3207609964890382
0.029331801312257034
1.0051874184260376
0.2696091813306064
1.3889645822976238
-0.34893550810673607
0.8024375534053836
0.6389433363853767
-0.5740681606765208
0.049732826434389726
0.2291629169366163
0.08873495394125397
0.4623334764325241
-0.49756145545847913
-0.04748615928415617
-0.1889292587905749
1.3602966390635842
-0.16648243836846593
0.28941412623760354
-0.037323218621303375
-0.30398950470906627
0.5333523163181045
-0.07418646809553052
-0.24126777145074235
-0.5828855288099046
0.17338992780432066
0.5950122306213295
-0.25482467768505745
-0.2053151140434359
-0.13406370464271172
-0.810701946964354
-0.18444145948203375
-0.06643184185709834
-0.11190476578072622
0.17294733654422692
-0.19461805332251259
0.052898246057155644
-0.32548127836186025
-0.12809458532589507
-0.3664454514356739
0.40525016212595566
-0.5354791018817084
0.6256002702514358
0.18592332280254195
1.287850007464902
0.9542546598546288
-0.6387935241029422
0.12569451643663943
-0.10892552062859007
-0.668739805665342
0.26147099066232177
0.8734429445397727
0.07066961711674187
0.4018827392108972
-0.5760311355000962
-0.6065001411816572
-1.0124810819196808
0.11011048885009633
0.056592952515675046
-0.5129654099538572
0.11452779810659848
-0.3598728601535421
-0.010265340974019807
0.21461410261059577
-0.014942402689248874
0.4902957380137951
0.09920897263062697
-0.07391305738473078
0.20616464883411795
-0.2274299058819414
0.24125860506274543
-0.1445517628105873
0.025135636120800622
0.26713263902451156
0.1538218996413034
0.18149288595731833
0.29577641839587965
0.1507220562686762
0.5471813019892868
0.7004687437510457
-0.747657660906658
1.1469739352060475
0.37531332594706157
0.4588923183574404
-0.15483577575716637
0.5279091875168374
-0.2747198749291824
0.6523007943109103
-0.10760057445846535
-0.2935411329604043
0.38763294430343975
-0.6990356131429877
-0.48648637354252056
0.8765875594375309
1.2780148576696315
-0.13301700814823714
-0.004439698399060166
0.17021507481893594
-0.4871888757169991
0.0669392562322911
-0.7657707286925843
-0.3414207501321658
0.10615926913563155
-0.31532028967903164
0.21412990914963376
0.8166867749504938
-0.5096368997129572
-0.07333131362752231
-0.5234158383386297
0.28010045711148684
0.9366497441616061
0.04664761874354256
-0.24924940028912873
-0.9665903101074322
0.4755311710397809
-0.11389581551642856
-0.470575808511437
-0.47962700715976625
-0.3906454108954367
0.688161584401227
0.5964952007005714
-0.9446281894784858
-0.5659728992276861
-0.3266602718927168
-0.3453457452086152
-0.7517201892081318
-0.5375650750158577
1.5022903384775794
-0.892048840671626
-0.3941320767771301
0.49624225832520596
-0.2594283121002349
-0.6605317033313269
0.21272674711648204
0.5104517492469334
-0.44563247798963956
0.2114357439681995
0.6838456521337963
0.25777143956982057
0.032609940547695976
-0.004802790114152175
-1.21856528824836
-0.5984692030719041
0.0416691248161708
0.5589585681295579
-0.4912333158881053
0.14460336305605728
-0.7252289037487114
-0.3475261988532453
0.034461998249687945
0.6761423372541463
1.2045790299712766
-0.23881146817540938
0.6289451352624125
0.001981339888898627
0.35346152911827844
0.28140536485597023
-0.5819465960338015
0.2653925292517269
-0.6694336158365057
1.2194595872588048
-0.628573299309087
0.3126559344902234
-0.030064661703919165
-0.32424226964450126
1.328167908122846
-0.32181415906339994
-0.6032383866731862
0.61740373853153
0.5822481887699726
0.2794738940197864
0.2135676988668141
-0.2946409574229068
0.22205211899172259
-0.6461602697087754
0.5868372275396414
0.7453425207441648
-0.18500822567150793
-0.3813437231079442
-0.9750811141044423
0.10068285178631417
-0.30904580074551513
0.16033046364783624
1.0788080361751038
0.08103246643191728
0.0751967188861261
-0.7053172424746049
-0.11750364075595324
-0.3945861473223893
-0.386491934054011
0.048945756673535165
-0.3657237566995704
0.01817912236839097
0.16465101157938805
0.033019623100410955
0.42506057134131625
-0.004662033570410035
-0.4235368515874925
1.187049238081668
0.3484316459713627
0.919549087599435
1.0961542271747637
-0.1541096751172063
-0.1452120595457838
-0.25144759300806097
-0.408495982989115
-0.3020572643248959
0.045881223579350844
-0.6145872115070927
0.32559259198090174
-0.4456962521998581
-0.2677786050234297
-0.5433388817997871
0.05728540158968556
-0.6528023500841165
0.1579132788710182
0.5507559739255838
0.18261562204982348
0.058503510706064875
-0.30613168828100334
-0.515903306308012
-0.5749645730566051
1.2110924316194605
0.7229476152204022
0.4390528604633502
0.1720800691130078
0.34429031246338015
-0.09449161754522062
0.05594436301315782
0.02818403718998
0.16463697788029524
0.3125019053573086
-0.7021599914938629
0.19583420382453098
-0.37914748769437645
0.7970450819935768
0.14403830658576566
0.40657522421168596
-0.30163909770815794
-1.241753029406782
0.28767805644844613
0.6306124522477259
-0.432510097276822
0.29997579020769355
0.4625731233675537
-0.4078781373612515
-0.7128551564974561
0.23856690424104218
0.011584472385205824
0.5559902364107152
0.29619675292958536
-0.2196790048241485
0.7578103375702955
0.931534023874036
0.32965349397032784
-0.7029723473218003
0.45361961851460736
0.4394175691101869
-0.9963985177540848
0.3964417545048088
-0.8190632791108815
-0.3404608808657119
-0.16033072707495455
1.328791486833078
0.8644020957069303
-0.17845316623343688
0.2136854792561932
0.00432042312203338
-0.4533361458037907
-0.05768065701731592
-0.43582998938964823
0.1766552548767442
-0.6860980183927696
0.82021244491849
0.007220672162206204
-0.016842756310367163
-0.008656842238021142
-1.5286188892344603
-0.36217744787296824
0.39749761575717446
-0.3805517672675851
0.3028353869600067
-0.1287258134461312
-0.6582350661368376
-0.15510901000484986
-0.386261769231523
-0.3967681982515138
-0.04600761003774666
-0.1705561557285291
-0.41344929544167186
0.7755002074594127
-0.444274624965857
0.3187504548558955
-0.4801344485174865
0.23091416358413233
-0.2782927726438093
-0.6237959196645041
0.3647588610093946
-0.20040380077127065
0.004771091462071608
0.2938771582362606
0.2593756555669292
0.8328761416010828
-0.1820431483665945
0.16456889313194067
0.59510307101075
0.5573187153896524
0.04073331900760224
0.25539756775488054
0.008508987337385629
0.1599379737448515
-0.4179930565860762
0.1663657189435096
0.7410893442089154
-0.36911217149560827
0.607272110640475
0.5488091636582716
-1.0552607449941909
0.16759758879026448
0.058702746695841385
0.051408478985577585
-0.5843720425919322
-0.3150066080851123
-0.11607503326866803
0.5929434131618839
0.23527444783937124
-0.15513095582051825
0.11497164367326118
0.8478375924571615
0.6546214590322653
0.3166598958514891
0.8049018661845981
-0.2760090633838853
0.2633551723039521
0.1213365835450097
-0.39195520215883983
-0.27109972426676204
0.27951620157121143
-0.006459468798534346
0.5523821134228183
-0.024721728500409268
0.39623641498168216
0.16011940957086723
0.0861985869468324
0.08670506634391408
-0.12089511591447435
-0.35675847277769573
-0.5258402460623816
0.11191500616470493
-0.08841358784357387
-0.7777740845712359
-0.12837670701489537
-0.24045901154559013
0.10185787850384803
-1.0235753853770753
0.5330620965562246
-0.12610867767275122
-0.3962021863133822
-0.7415970884156814
-0.3883987511494993
0.14082423483038292
-0.3108961446514496
0.40392668967067047
0.7055629798764809
0.12814697516432955
-0.4670481736741456
-0.005287337111991312
1.0596479328691104
0.40752520914935864
0.4161484454025399
-0.18388486778223184
-0.11089952797793218
-0.5256786815626469
-0.12113866733569285
0.5286498815323922
0.5225352083636493
0.40789256728600726
0.30073128839570734
-0.2893636909321496
0.41524719466847787
0.22377837427449285
-0.6707369275378386
-0.2731521506939772
1.086806778768489
1.0078695665452049
0.5130378510176821
0.4760100669413396
-0.13450039074238074
0.7839170456344775
-0.2467870715727365
0.4581160366453192
-0.14336156642042241
-0.057912542989534174
0.5571773489673716
-0.9045215965919644
0.6084915882767925
-0.29058064565006825
-0.22217926108201655
-0.3192501587740393
0.3142999928485637
0.3657069995493238
0.09091885960813034
0.9757381065849811
0.31999320331119396
-0.5280395373048417
0.18349578201309794
0.6216551169156721
-0.596357202579941
0.5325553408019176
0.49596431877548564
0.7288693815898057
0.5430356815263866
0.1181772623565888
-0.16524849941283934
-0.1478300580995531
0.5926118407917579
0.04503909790877147
-0.5433256968310103
-0.033606229824676606
0.6147414933848304
0.6869192372391868
0.7078401825220806
-0.2119966689523029
0.5902871478993814
0.29498176905240386
-0.07900223797277196
0.2913820402886629
-0.27023655434073085
-0.7220609466079816
0.5128253862604758
-0.3127040328463544
-0.1391437664378823
0.6056311093448339
0.6196208949953952
-0.2702855749113168
-0.29501252856157884
-0.557655905375207
-0.1620320277000453
-0.6566116397386028
0.11748639527448626
-0.7295287629245186
-0.7233406576721725
-1.1139220716008338
0.427404938176147
-0.4834233393568008
0.18206605860538322
-0.04367329633493908
0.11731929086201237
0.31902846675295393
-0.14974386321451322
0.1441386640116885
-0.29927811808232513
-0.12454191022330707
-0.3699298233435867
0.36906177215665603
0.009245293160221891
0.4604127235016099
0.45234459030928453
1.1972197423435573
0.05845390293914088
0.16496219946280807
0.4836359181580355
-0.03543496418967709
-0.8342200804210114
0.016502937401954257
-0.6313564562229881
0.259037076620022
0.6612990121048957
-0.014085555530807925
-0.4762733753840888
0.1977084644394132
-0.14488303917933798
-0.4597157950412589
-0.2962227225579529
-0.29750726492414
-0.05631735023316621
0.4463356870620426
-0.5128156107410153
-0.21456026376280576
-0.2638664169553758
0.7778685349376712
0.23359585481904124
0.18935780242919045
0.6324604511441759
-0.3995224054164518
0.18389717168946457
0.054704809486163825
-0.14428844511266498
-0.9843946069937769
0.5285282693225227
-0.24537008058192777
-0.39535576319602833
-1.5155433348492608
-1.088301906750817
-0.15117488527887707
-0.6949497263558612
-1.0722019040332076
-0.7658064638068055
0.2940095642137886
0.011939001820452481
0.1927181012639514
0.04624597842383757
0.18322081452728473
0.3306502194130589
0.05758482973519482
0.030278425930993502
-1.5434726736549995
-0.2570176561372926
0.17686534012872104
0.5770491044579626
0.25095535544514014
0.5317708416430411
0.5896596571778909
0.40910724178007807
0.1446921916158103
0.3014796712791641
0.21473599780085842
0.2827701890095758
0.16022630586139483
-0.8208431900135962
0.017238614773925354
-0.48192961777580584
-0.4913874993556302
-0.046399798426197736
-0.5925944710038693
0.35459182623783814
0.24935554659814943
0.5146458332135323
-0.27831333768270117
0.8751060866674827
0.37072579555311747
-0.6323792212325299
0.1187721014282346
-0.3476892731479846
-0.16254156334348455
-0.6226841781106929
1.323999110069429
-0.2801663751344655
0.6059354023221546
-0.5519216038247227
0.5809119725412314
0.18143569938756926
0.1461773674738021
0.4601578056111532
-0.11466294634146336
-0.787208763990103
0.1428057767887627
0.44624056152405484
0.20673054681879588
-0.41438496467149266
-0.16887807535058574
0.626354033291365
-0.07307996685972998
-0.32171058124383123
-0.9479007254490426
1.57314275111639
-0.8060245483159477
0.8244750413459452
0.12158855661187533
-0.0729133914940363
0.4053048476758787
0.5053660062226589
-0.127205560712346
-0.5607402322204608
0.4765592055880635
-0.6387234602568364
-0.4948448184165988
-0.08850138032349761
-0.6163088606828158
0.23351011041143369
-0.0896751192803179
0.938866879742178
-0.39213479314541394
-0.1302420736869142
-0.119873723545672
0.3931740015765939
-0.20241717299481266
-0.6532237752711114
0.3290323174513614
0.19079725788013668
-0.8910287100598488
0.33854651941256186
-0.6283610532094966
-0.31576963283322673
0.8770059211906664
0.3727695421120192
-0.2212946524700683
-0.583568709075681
0.006837986902920992
-0.6053267194016517
-0.48873660891022463
-0.7328987951292729
0.030481845068140945
0.12978740125980118
-0.07710775138287698
1.8071603086980284
-0.9091186525597449
0.5932327646446094
0.01256361183971516
-0.25999269333081676
-0.034600196297744176
-0.8231620391782225
0.8542877665511439
-0.5613604212976867
-0.2418630006487648
-0.509235668648917
-1.418771741775704
0.26629256434010357
-0.03856788610802539
0.10604613118598591
0.14271993313182604
-0.44616365528054935
-0.034202769277513284
0.22616213108625732
-0.8840636790878115
0.19063106766518506
0.9178538527895909
0.570778889572734
-0.4160454769798523
0.5677539073387552
0.30589815878773685
0.3459431852913206
-0.10368081467574271
-0.30542810123529573
-0.24379197748244955
0.2288940668010766
0.2458874076475423
-0.39934722570125214
-0.5788952874916478
-0.037792611482500946
-0.19902178118490144
0.29399125361402123
-0.7611687598703004
-0.3652729391490916
0.43151205272380866
0.034385232926157555
0.8130131514950659
0.3055995149956668
0.12675211728921176
-0.17593534441072547
-0.515273004806266
0.39469580176158736
0.6245117135491175
-0.41753958622277093
-0.9495496504744236
0.0798620440010861
-0.3092666885745568
-0.005678688963631065
0.8579275594404062
-0.0770814459259653
-0.090441990726379
-0.7342366805927515
-0.5663134129927293
0.22641639178118766
-0.3187890791792933
-0.11993566590867165
0.3565766174293601
-0.29367807613659697
-0.7986684993223437
-0.569646862467348
0.9011291934412792
0.20774158657511219
-0.37606670081251004
-0.381080436695638
-0.144457049536374
0.2541814850770409
-0.7284896513750464
0.11322290289369526
-0.41575201481161567
0.2093026475873589
0.6261066345882277
-0.3633932311113364
0.06621086440548732
0.14979739034214318
0.18409789820729278
-0.10266965782384382
0.6655075374518546
0.5650945350780106
-0.000779515667853517
-0.026731755862040598
-0.31606228829134697
-0.3426819160815248
0.2736700077458321
-0.04864618885934569
0.036262286736271965
-0.5118276137822138
-0.37824048473204486
0.5871231027836848
0.9820562934478134
-0.11386933367786198
0.9762826995224794
0.2993502340974401
-0.8431655679087944
-0.9755350680588055
-0.5256046246701246
0.06508808705928319
0.44263082142767773
-0.10370384554121137
-1.0346638374683452
-0.7258321237871975
-0.27867165545480677
-0.38875530586030654
-0.5793039455325255
0.06552675139534116
-0.5135504508512813
0.15316131620989662
0.1131330007399618
0.10487220621399138
0.5629591892155196
0.3268369809486294
-0.33991296840481716
0.7892079736380362
-0.5617521671107066
1.106159592896039
0.48027048314874643
-0.24564226286347932
0.5231703246799667
-0.20616157510542962
-0.6845556877708069
0.1438205547855661
0.09686573910148347
-0.10734724969112788
-0.15117429197059087
-0.9567357430640533
0.8166125930318888
0.569608499072861
0.5182583631162502
0.5663769659888441
0.28247865445564224
-0.5754742256716662
-1.218136083216013
0.6800295961383873
-0.19982576530034976
0.4176229925885027
-0.11024221392701392
1.0773178956698506
0.7696364683068213
0.36250436264140257
0.45211418678270077
-0.35283430527764853
-0.3523681302468697
0.07660119638584227
0.08648618431743305
1.1017276161768796
-0.11248291666022178
-1.0177093604378122
-0.6668536131269276
-0.281607618764383
-0.6459984494018265
-0.6377411147272954
0.5508906021009288
0.11494862509781564
0.20226943196320243
-0.32909097767204626
-0.34613222084072026
-0.3347557596606214
-0.15135876005488297
-0.24849539709909368
0.5772612695620781
-0.42839615654559615
0.57241279623196
0.4883109763687638
-0.18312888907481528
-0.3506382978280925
1.067795977105014
-0.15918029532514716
-0.019947459268587812
0.3384773282113641
-0.8862092612328281
-0.03556615690429738
0.026782839288993943
-0.38872003946975864
-0.5870386363432848
0.3152694169662817
0.016318902795817603
1.3388631486899913
0.4897885786079704
-0.4600324375321432
-0.4165262771902666
0.5995407146025102
-0.1376557498589388
-0.6062583515026155
0.9836999388743988
0.4324222023176687
-0.5899543501248943
0.8490434360225042
0.6049072102284965
-0.22798665236814564
0.04736533962701353
0.06007348046004593
-0.0006180298141506071
-0.3818316753502614
0.0296744568072825
0.4950333611225886
0.4863270368263979
0.6159519286233578
0.02404171468344138
0.13990158195502483
-0.7895801667238667
0.024759763619053403
-0.5795100985847826
0.6359016461905118
-0.7678168029705215
-0.2140595642294807
-0.2617837215714298
1.2162996404531001
-0.6543381516529663
-0.12969555085533546
-0.1306534736558072
0.8267481329905257
0.7210498615760655
-0.25780317102822714
0.2550447588484269
-0.8557150063977406
0.3984027478007415
0.48394138792143293
-0.9224557006140556
0.2419344951658704
0.5430641772206811
0.5100924466300907
0.26317045417088836
0.5114743729627419
0.4998832957234392
-0.5590051657156417
0.580224757123745
0.8288243331961351
0.2160372974439398
0.43975052491682287
-0.0732048975205829
0.12923010431750492
-0.05794759402245776
-0.40911758893980743
1.1294828150514218
0.030640909420455567
-0.5140923871400594
0.0366266288500543
0.07286214220353762
0.19677514177769098
0.4948104008159622
-0.9951268905273369
-0.22449348570520467
-0.14368206340761935
0.5990881961259226
-0.12817941929347865
0.34615069521919123
-0.608496972678896
0.550000259313386
0.8172107217446224
0.0029514482895020983
-0.43792128789538753
0.7926143274641464
-0.6346657749019076
1.067548860812084
0.09118163040335919
-0.16040283775073721
-0.36501290386750224
0.17568817922439176
0.1813866471470214
-0.1519538451564823
-0.7290096532448472
0.372164628948325
0.09566673080078957
-0.04922062401583232
0.10422557928326595
-0.27283409950937426
-0.4533305301307455
-0.46823262610654925
-0.05118792548129682
0.6699910400261077
-0.6539566161844057
0.14749650903532635
0.1401233702575467
-0.5029257328539146
-0.5269309686591233
0.9440546099746063
0.9717155699681093
0.0017186234554771723
-0.10038614056896733
0.035492701036025164
-0.12202968552799306
0.05058221175240015
-0.12565906354828424
0.03739433745868975
0.19824854242000478
-0.5898357910961838
0.16733006618510052
0.3357622186751834
-0.2167515278705704
0.20691939437508855
0.517871082680474
-0.06508273209542564
1.0293294296683393
-0.06379097945694595
-0.16657523602196606
0.9986094251682746
0.11182844408918799
0.8252725203182738
0.5918740869800309
0.30461527477227446
0.3282576050322658
0.5984751236993759
0.22671054426116943
-0.6085455928968472
0.47794580404531406
-0.7799009887556462
-0.721424964449582
-0.008308112284784452
-0.25894954809371795
0.46020641028099274
0.14949072855967518
0.15531789090061732
0.12155473276404505
0.1618079436588072
-0.37794210119210614
0.2316224222717493
-0.2898709343669679
0.6001760975020576
0.4438420251967902
-0.16102617543820125
-0.004182048423747094
-0.08592013419019093
0.8982638901760205
0.3248043494660225
0.3799853668305734
0.2496580725308567
-0.5524961862291773
-0.022346775488664383
0.19232088767272676
-0.007969377615751994
-1.14598582682231
0.13126918833023732
-0.6174355172607237
-0.13063508755057826
0.715882680369268
-0.276170012794595
0.5705412280456267
1.0311736806556242
-0.4401824806728508
-0.6966870785088197
-1.080875706304912
-0.3791137943740571
0.3313693788964854
-0.3964747622704081
0.18375310380968982
-0.9759802041518918
-0.6194061561103039
0.3472587968714783
0.7948132408331643
-0.11793501746106833
0.34826452702025235
-0.2579889643410286
-0.18914751659109014
-0.011360187336591943
-0.47901342722361645
0.15140172091058257
0.030541086796113108
-0.5574337834446503
-0.42615445335954166
0.7047049861841748
-0.1517645508036086
0.4309722610559581
-0.46967726535968035
0.4858155518096174
-0.36796499187341575
-0.18865731343510048
0.3448890017555697
0.1117761867962037
0.7993123307477441
0.7499450822587459
-0.30940363721752706
0.47849856389234235
-0.4494993351615698
-0.1274016345901272
-0.38801670566740426
-0.18904719359216815
0.3703216803843556
-0.5495419882576359
0.6969730233517158
-0.21083241344678602
-0.17260979061813855
0.4300256058040406
-0.7007533086250909
0.15403112140114664
-0.06530342247820473
0.35652909384861414
-0.06897196064087657
-0.5813951560595365
0.04222206051285625
-0.7003801068265983
-0.09402771207725794
0.4771400521378303
0.5567740773397841
-0.07294709420602748
-0.5809217641667056
0.8801487825164993
-0.05133720408677789
0.02717741241053099
-0.04268226480062094
-0.7118998493031182
-0.0018726099567141774
-0.5440450578155066
0.34683494433304274
0.40395787381173487
0.44762934239420565
0.5607969922585184
0.69105626411185
0.49938420145041496
0.7148428874316243
-0.19442165597037292
0.060771201519000596
-0.2948764574622578
0.12721521613744174
0.5401295508499355
-0.3632805169419919
-0.6645502047931746
-0.11158566603426945
-0.5765369583931605
0.32309132282222564
-0.6767386690885382
0.08522728325547413
-0.01212869828327734
0.699906793590528
0.2711328137936051
-0.3132486702105139
-0.3254111206685012
-0.5027112066030727
-0.17116465454612415
-0.18570665745835485
0.16471559601967217
0.7514317845477976
0.4326981402327035
0.2396942807377892
-0.15617899026158844
0.5668412095186669
0.024176475749055678
0.21987578474271557
0.3716139461095747
-0.20611781555725076
0.24689447192678407
-0.027159200996569998
0.7430964983195337
-0.7427560670772801
-1.361611425036717
-0.08942544874423677
-0.6571243199208683
-0.38336448371968773
0.26776653024480523
-0.043045425254430406
0.43872427910115547
-0.1558745356830551
-0.3028214067016696
0.6931132459249454
-0.0709361457012216
-0.5587121409058926
-0.40234944312799614
0.03992934743908131
-0.7990062191796679
-1.348582999624772
-0.046110189516515056
-0.4818695325700895
-0.2866544762686616
-0.12343094643178329
0.2868652382636705
0.6140214812706363
0.9557673923224056
0.7678253676400896
0.6362990693353039
1.1191915485340258
0.23690215061543596
-0.7969877393540479
0.09411593896445469
0.46096321217364733
0.03129425216927174
-0.22510049314049765
-0.2615603923960164
0.6501090558686982
1.1710986701177064
-0.08542581574353976
-0.2995271479011106
0.002759551062699983
-0.5218707530981127
0.24856269757098676
0.21700903466683696
0.6020816672775351
-0.52234651327054
0.10112484759451826
0.9301190623021308
0.42494576266959605
-0.0825521636440388
-0.4155584646934638
-0.794512848394277
0.1307577202456796
-1.0066714952045763
0.10520793572763704
0.40061394308174547
0.27624810952639167
0.4269819639399962
0.0021481175535627145
0.18021789012694978
0.11489476486710967
-0.9433969893036853
-0.3571070093733145
-0.062238518136969
-1.1150988690843575
0.4007903884110484
0.5935071655455081
-1.009196985685024
0.46016620514410167
0.9145038418845657
0.41296480595105295
-0.22649383888909108
0.5573100707417792
0.2780939252095975
-0.6576831819932205
0.384639793842595
-0.36130071514337037
-0.2481143174075539
0.5201339109642978
0.1390250168944652
0.4794743033998581
-0.16669257768686085
-0.4808293603473506
1.18794917638238
-0.3730362613206375
-0.527613208842556
-0.527072097297599
-0.9762040213827922
0.2353738740350044
0.217510770298122
0.462752545492464
0.4718867007092986
0.12574231528075977
0.21891635287212427
-0.6812009633298732
-0.1724747784763766
0.35743542150259566
0.08056374738023248
0.7643539537281496
-0.47816731273989516
0.6400644142795261
-0.24877295017605475
-0.2450559392250009
-0.5644263435281257
0.0622432538668098
0.9522473569801168
0.6635898881464086
0.41446396033333377
-0.35715779922549107
-0.26496715097738344
-0.1160379546552986
-0.16557115770218744
0.2873551720554438
-1.0093194659007625
-0.18490627674214877
0.2625271300017275
-0.010446588576911858
0.960735926787737
-0.1724160249234905
-0.12876408830962138
-0.5741987269349622
-0.06991763090176892
-0.6469375326287358
0.7717399005286935
-0.12664572049497394
-0.3558453292322312
-0.4125937350864155
-0.5496235865546462
-0.5109843670958698
0.7799017195099831
0.07483871328396376
0.3113015844790986
-0.3927813700647178
-0.21171824392009328
-0.1693126318091084
0.25476952872689496
0.459980750181752
0.04186734501070988
0.06967733278792296
0.21834365491092428
0.738779667904242
-0.09239894028545201
0.777431062711762
0.016026020549868125
0.41111680192720146
0.2917772474047607
-0.3129345242622132
-0.523315827013487
-0.21513121215494452
0.7520179615124181
-0.2011861919109621
-0.0020875177942681344
-0.501394011264531
0.5719448932157362
0.49641674324996066
0.37028985394255715
-0.19972153817408186
1.2718770085925937
-0.3768826981842373
-0.40073758838201695
0.31513205014993717
-0.4376995045363879
-0.6199173612116132
0.11170931844331432
-0.2423892290947613
-0.8731492796110575
-0.7945113806357953
0.13460851957837788
-0.1959554380788374
-0.7663802047224659
0.9166714777633794
-0.26798647780729207
-0.1820923394628055
0.2190211920435513
0.14897355183488487
-0.2983856820249288
-0.1571050084816354
-0.37874720997758116
-0.06151633500126556
-0.3214026007695891
-0.6063348973550375
-0.40617997893918684
-0.8180337037740764
0.43111085545499517
0.30295801841996733
0.4735376445476625
0.21689904258185216
-0.12634528360976638
-0.638683834636212
0.1910443712861111
-0.5969919899427343
-0.9146892069397333
0.13788333273034248
0.063309804501643
-0.49309738930505737
0.06446846266960682
-0.1968176012292518
-0.07582031226620643
0.49217791683367856
0.16008811046166796
-0.17115580531057684
-0.6478517835795812
0.8872197326138752
0.5541030338475571
-0.2078478964923678
0.047595031780299
-0.11307990046517397
-0.5873868893857355
-0.27079252922184194
0.5979451940216318
0.12140174530207157
-1.1290140162105737
0.3194900210966886
-0.10108017441287517
-0.14803230768282072
-0.13950854860338505
0.043881320257985246
-0.13685179585455232
0.7075262930289965
-0.06067940568731873
-0.8120448625850759
-0.8087618711162734
-0.11382823043376947
-0.19800348326947861
0.5465219940600685
0.10245812324113898
-0.5718210665161336
0.3888970609344999
0.7205882470507353
-0.7348575470832996
0.028662359757715167
-0.16263837801749154
0.16713232470255307
-0.008011709030304261
0.18095829676546843
-0.5609233621013413
-0.1568325141359068
0.3926505442924488
-1.1893268363605551
-0.43173409299031906
-0.00990241229582664
-0.3459165106785511
0.022252681196444635
0.04933563699919624
-0.12627024232966239
0.14120859868309155
-0.5596039959792763
0.5142045652120004
-0.29328074104293506
-0.5436657618509737
0.12220305744860821
0.3763098755122503
-0.32196661328145804
-0.2991064370203587
-0.5023392944967371
0.4791805448669014
-0.28410559883933395
0.5995742517470927
0.1271966905855817
0.5249155555467355
-0.001970688722772825
0.05735062300292041
0.37225063059281965
0.798990374513374
-0.4072001935993806
-0.9862743492137155
-0.8738367014292794
0.1946002090052422
0.47540127161529194
-0.45879008889304523
-0.22931885061060608
-0.08448384319789948
0.042101747744247506
0.8274739129050495
-0.3911473294531619
-0.24511374224094035
-0.19642702674646567
0.5108707089227006
0.0877934106691263
0.5235081973621043
-0.07996838186725783
0.0029220902472260057
-1.1132169601335509
0.7423551192673741
0.33108191107017815
0.5772395586686886
-0.8281283722733445
0.05155664183489746
0.1831483576666842
-0.30793816895457643
-0.22403596908194473
0.49409613805589675
0.5474739432566577
-1.1274638335378047
-0.0636343744387225
-0.03648360097086691
0.29990659521519464
0.5958782465432287
0.2978025472569427
-0.014103799236569042
-0.006487335011825912
0.5535946410177915
0.5485055880801534
0.4371999293699209
0.7058230388315107
-0.6217089321816158
-0.6450357890051792
0.9025502997723047
0.7789987587955362
-0.3681725886844438
0.003535071690787088
-0.5103507744288194
-0.08848098868780079
-0.8470480834969122
0.38571338014757783
0.18713363880557937
-0.04834736877971242
-0.4970599642104082
0.710677465549798
1.265772417024741
0.6886801971913059
0.09750378050167571
0.8412665101834684
0.8537515595133148
-0.50183770479688
-0.3944705565753066
0.09525659202536323
0.4339693078016858
0.2508948413562783
-0.7716385974469788
-0.13442942131068483
-0.19219467196072967
0.37224440806208803
-0.29922422663959414
-0.1956907752623954
-0.3195517929896534
0.40896285156052653
-0.31096078849885933
-0.8362853116007587
0.7920713250802671
0.010632601153470828
-0.14723884642181495
-0.24917893591619616
-0.28122380457620066
0.6393899235358599
0.42506076449058805
-0.22574917768797403
0.10857293502076108
-0.13313458145792037
-0.142789721647681
-0.5047798431625259
0.21721286674460052
0.37765640171952897
0.7552224433387211
0.4315326670693064
0.6796064809339168
-0.0707883368745798
0.04094151677174729
0.02601249207318869
-0.38172985981878543
-0.07896974970882151
-0.3542069159285296
0.2660392158644107
0.10598935010725209
-0.0402090046055657
-0.21297389054496157
-0.4868279632321182
-0.49020245927593054
0.4664509812068788
-0.4260207310389841
0.4812047670182539
0.8644433110015189
0.3117761665065203
0.6313281422757444
-0.6688604020696032
0.15549034185524518
0.3802552937252718
0.1723699286453384
-0.043533608759069524
-0.158662260466457
-0.8536654955636389
0.45160219475688984
0.20160717389217286
-0.46149225244525427
-0.25376551915710976
-0.005669932627318283
-0.9145233563132547
-0.557102524028894
0.3118728523257208
0.08995206985493764
-0.16533105675862977
-0.7397625742885612
-0.12554145987780194
0.9395259501604543
0.49367178943673656
0.5527951468408512
-0.180867541521008
0.16515483145399582
-0.20467574552851214
0.46054016759247995
-0.36872963150224547
-0.7188023947112767
0.03926947208675073
-0.6806138777047435
0.7672793594282126
0.08854096289561032
0.11809129553231246
-0.45051976656550397
0.7262081454844477
-0.7535456495288881
-0.5919681956578261
0.7805472960556096
0.7094774347852971
-0.05630295644448125
-1.1467107771300304
0.11914060428041601
-0.4466655006099226
0.2848233749606007
0.8114042446571161
-0.3616379077312486
0.34298816528845855
-0.7319094768385499
-0.1476008300209352
0.3110209678231797
-0.13824650480608328
-0.20264074315482813
0.5319565395645869
0.22516155188621736
0.30316773883211773
0.3992101297374918
0.7239527668229208
0.5796197525324542
-0.16230478449034105
-0.48616164335114775
0.1937499611386332
-0.1844785323444859
0.03519741446073921
-0.5416851137328964
-0.49131228173637154
0.036383919254936885
-0.38919686590725844
0.1831347919622563
0.2107293657681341
-0.49566467822872007
0.8151481737548862
-0.8309063917000634
0.13052493196375353
-0.3003565550042504
0.2411969759621722
-0.7881669324222813
-0.006753465742285643
-0.9142236987585282
-0.10548340606175209
-0.36295894870704104
-1.2139881437962257
-0.267148785520094
-1.0273300198675852
-0.5072945122732081
0.026471979936503964
0.18904929723689162
0.6809567268746255
-0.13481054996790579
0.0180814012937821
-0.1348199086866838
-0.7892455628103541
-0.7171080483263358
-0.008045811428858199
0.3923951113802678
0.3453199337966573
0.2509193211241971
-0.5312437382395863
0.20428299461620864
-0.07035671195978974
0.7155500042339444
0.7224737831647535
1.2616969319955826
-0.959702748920622
-0.5559169270652085
-1.0886669698529057
1.7094226469234117
0.3299034462692789
-0.8052688526270129
0.5753305721311917
0.9258642681219845
0.31617910186566306
-0.07742477269167926
-0.8268497711288743
-0.3988256762020736
-0.08486324566002673
0.02326473185695166
0.28398322441818097
0.17193614467803495
-0.17079563244848148
-0.030932654113124694
0.03925404836456094
0.13082895007322884
-0.1158709613601985
0.4722940220492813
-0.08238779806522081
0.4067587025362874
0.29228736612693346
-0.3411903995815451
-0.16277618811094147
0.6126225558309281
0.03125255483126349
-0.09158862869680762
0.046575775880966064
0.2585276024076808
0.2576237272453947
0.38877504592302176
0.28476590408269
-0.31184595963895
0.0869647352320167
-0.26979425571221244
-0.23632838422245334
0.9555181183823632
-0.3578343013727254
-1.392773672811963
0.08760997881624813
-0.49620614876692243
0.16641423811019648
0.10471732726990562
0.596401710974695
-0.08054483924805399
0.22778429112152637
0.5233400548484655
-0.1274716368533602
-0.5672640706878773
-0.1889464414762807
-0.29146105800289496
0.46106901672018075
0.4090781441444008
-0.7565147991904425
0.5874228100587896
0.43868755962330813
0.40889723068742523
0.270357607996831
-0.5226224915348684
-0.5589053552982925
0.21956813096905914
-0.1407287220389884
-0.0801489660179136
0.12830307675616165
0.6521875204232089
-0.5586529144248881
0.9212419302830562
-0.5343946743998721
0.774527481936466
0.6409450565743133
-0.596210557326961
0.6635520723475088
0.6549759275533298
0.1687035422918386
0.02605328400831499
0.272481822598852
-0.01995383063859006
-0.4490996800952206
0.3907917360237823
-1.0399672004868137
-0.3631591397425696
0.9186941570225283
0.7748497268495962
0.007731955951790768
0.23714009787339743
-1.0526934062173197
-0.25334549532233913
0.36570536880221743
0.7452792985751481
-0.7029449512089375
0.15964585348777183
0.5766531297392881
-0.1376139711761447
-0.10586471172645544
0.5522758653125671
0.532149825156934
0.39518319463605883
-0.13454283684856383
0.5213006360074641
-0.7491982490834075
-1.5885625276130408
-1.1477354817151761
0.11671734418542794
-0.16453392988063148
-0.10703525716408654
0.36661646300584466
0.3863443953616763
0.5707850957524282
0.3922300677660608
0.34828588315087605
0.37168885149352704
-0.04549914832946313
0.062341376879492
0.5651427684086789
-0.1870938218801288
-0.6508425295731324
0.24326937002115015
0.5200651627725317
0.8672414409521714
0.9335032025685593
-0.32690632246102747
-0.27275731894323996
0.662705980149645
-0.13394582989014858
0.9949578013989493
0.25067846481376505
-0.5732959992516427
0.11777695209342165
-0.8810932269500722
-0.10865990103851854
-0.05599259000021274
0.11324074543814888
0.06725059271829723
0.3672408793309675
0.1842376916357969
0.027360461959509356
-0.4020895796728125
0.26186608524308036
-0.8812229233962978
0.4980430223041748
-0.346173413988516
-1.1591206938617686
0.5127946769272382
-0.25799888467645155
-0.057825299503968794
0.05820525764915343
-0.0918320332826997
0.07235010772426011
-0.18119478118180093
1.0021885080230108
0.17447678334523
0.27666566663128156
-0.8218553686651785
-0.0025832045013828298
0.3141656927864964
0.7050625915588589
-0.44769142070996715
-0.11485877739756664
0.513376590187225
-0.2903151501096731
-0.6739871914047368
0.1839854875735708
-0.5378414642681322
-0.3655441233916934
0.3148821126962307
-0.2381804197745638
0.011186366811334766
0.4726771716768622
-0.17429034605257965
-0.646136772768879
0.2038732448718681
0.06945377181700721
0.8829273333033171
-0.6225508154984472
-0.11876039160504269
-0.09724439553364188
0.6430974542951151
-0.18822472452819014
0.7457547749905051
0.26660681913111667
0.2627052464264964
-0.12875924186613302
0.12256056711290407
-0.80595420780609
0.24407918821178926
0.11364992949151648
0.16914838193749965
-0.20506147505569922
-0.36848919456615764
-0.6970367924947289
0.04156326861016655
-0.24609852395945794
-0.22889400122470216
-1.0341186092398078
0.2654114489521588
0.168575866395352
0.25874235326205147
0.6049074975783513
-0.2053951509921806
0.021797077976710266
0.19640044740195858
0.12194914013816076
0.02161115066347885
-0.607266418633916
-0.43377548456057285
1.111529679813374
-0.33258236947410236
-0.10948266335236193
1.1289547914203326
0.11810734503512837
0.09515795147196335
-0.0873871556556518
-0.4684907280075333
0.34921474818678533
-0.03304076340166216
-0.35752700965357875
0.8072967073184573
-0.14949678754827164
-0.207752961145777
1.253101215486312
-0.4460025513415573
0.02559212331034208
-0.2380776318410805
-0.10221592060386119
-0.741694748212089
-0.01268223401604852
0.2560760374160241
1.2513235062990555
-0.16390176081119218
-0.18614484464815823
0.4227881884254099
-0.0805392226320751
0.3522226407602983
-0.4806771592500353
-0.12207441224328823
-0.01824694344080824
0.09932561689276201
-0.0046437540538263045
0.1863198162421723
-0.7399184655417091
1.0087467968297286
-0.6765872163997473
-0.08335218918306868
0.45954936828301984
-0.15870471478474552
0.3835451810443402
0.04126328853566147
-0.507342627022914
-0.5720763882326906
0.3813524436882201
-0.024157441747137423
0.8805524052979654
-0.3573123079415482
0.7790403662564449
-0.14560277187238346
0.2938320806783271
0.19156194612619637
0.2800656079280759
0.6475859579030727
-0.6286757021773655
0.9197373216446041
0.12662742556436923
-0.26026486349510947
-0.4150590509841776
0.06902799576142607
-0.18884126057944106
-0.5455423624222877
0.801188546834557
0.35093084965110133
-0.046217889411147545
0.017670655554101262
0.2455929061921654
-0.2139006843593805
0.37305050570492576
0.35265553999133314
-0.5528118028497232
0.11952874008742043
0.16732855157709586
-0.8206992888028231
0.4907724026905881
0.2830120305798264
-0.28266920987852184
0.7744132458487127
-0.02601492973686606
-0.4147095308104685
0.36613167136733415
0.5662186777101071
-0.2906291218352095
0.3607777234428098
-0.5995635863429764
0.03704838202921659
-0.4916939584232912
0.11461380206031335
0.06612942736252159
-0.407752335726054
0.06400288857904961
-1.3391251771013453
0.10619034486241866
0.05968307229929223
0.1937688762996411
0.22243440185619645
0.21880814706001556
0.1910660459260647
-0.0021958196157998364
-0.39308622962405926
-1.5665173505641727
0.4894858800892038
-0.1622177153099572
0.42811983830558664
0.12514533277078305
0.49829426900622653
0.07939828890303713
0.35583098336186436
0.18618433848570287
-0.11291484996974888
0.3856639922121531
0.068948964808454
0.4036974516294312
-0.44566339991638165
0.5595615793880266
-1.3273229121791665
0.17310378444812874
0.09635407139084493
-0.6151730690774455
-0.1120323525683578
0.27769332906182725
0.6165145810073733
-0.30645036816975435
-0.5064850029854076
0.24415273847605656
-0.07095406800577171
-0.3030040396632572
-0.23769390625438158
0.9160834924127119
-0.8389289140701431
-0.515351629052089
-0.27983974474818635
0.6464242503666073
0.16438423761479887
0.6308482836402575
-0.20275508770716846
0.5429226147229367
0.004373664335344793
-0.41331990455880385
0.12620543973791998
0.22883871641650777
-0.5810719593406735
0.03852160169776423
0.10425690156767774
1.072451826432038
-0.4155700923389894
0.30945344216371545
0.1514929783159113
0.13961791956740463
0.0015587197560438526
1.0060468052556992
-0.24742794343208352
0.16343207267309035
0.6824288199943214
0.12080646441201362
-0.39968423720615354
-0.34948177018408866
-0.05281923371949768
-0.11865335928567897
0.9444664933777893
0.6139600686355675
-0.1122923689767765
0.0648075582940658
-0.006753403505898842
-0.11133930246017643
0.1904320034130329
0.14076836859812086
-1.070779769241116
0.30304010962433525
0.2793044722515276
0.24482890918094097
0.1097178453463765
0.49679075144159934
0.44344960685039386
-0.2545566631989825
0.16723027683462194
-0.36168732061218084
-0.038270497932261824
-0.6519607272462278
-0.9284245649101708
-1.1332844423264596
0.05019886896549625
-0.7910193574270099
-0.553201874396273
-0.5697421304489744
-0.42818481555258103
-0.262055171676778
0.6949724359174965
0.30697971410349423
0.24125895211689255
0.03863214072338375
-0.5931037439021427
-0.5437806262203316
0.430365860800208
-0.18828312033625974
-0.5345290691407544
-0.3824303044861256
0.1343954703015104
0.577040949569782
-0.4676466283992428
-0.4030084605101303
-0.6516544214640898
0.1827511469966323
0.3093893427631308
-0.5398530585092072
-0.18592020035466508
0.13691987528518296
0.776676518918683
-0.055184144595990525
-0.18094179184868903
0.35017119895129456
-0.3942134680598744
-0.05389133165775639
0.5190888910984889
-0.17638535127151367
0.5613366813621409
-0.11937995996731038
0.1310334296409077
-0.1194674670116291
0.6541178852111706
-0.6564477796350312
0.9006033948076497
-0.18482442994469941
-0.0979228146601834
-0.034118703276923915
-0.15472368308127193
0.6191799548828973
0.30876792067201203
0.18419353797567267
1.4268889045003434
-0.6960386616143309
-0.6556616484146885
-0.2405045651547112
-0.06969832313677327
-0.20478387927504532
-0.02167167246318017
-1.3871327972765735
-0.16642258836179036
0.19053948021136874
-0.041289007245428916
0.06251627972169606
0.40715531523933185
0.40553487476840194
0.16896237256195867
0.20500981522922668
0.37789812400722905
-0.69424784244997
-0.4936750674551393
0.2879946998900144
0.048124848266159516
-0.294189166958141
-0.2705719818952787
-0.48289807119885
-0.427797025221066
0.1790708838119875
0.8639384133814555
-0.8918400577573464
0.44735251521949027
-0.0741311362799942
-0.7017043320359695
-0.19144518889953252
0.15436584526086722
0.3802128923489442
-0.2513421513359266
0.7299116630026828
0.648225591196956
0.3804361765120397
-0.9989959938803687
0.5399325145279774
0.44550615820790485
-0.027265838361313573
-0.3627909383810169
-0.16388237629887215
-0.2538484054594692
-0.09335158629418434
-0.545080986541219
0.3428967399060935
0.09371761821634325
-0.4453464244689518
0.05765878734158161
-1.466453804974756
0.2616132118869173
-0.42501206114056594
-0.35528821135252003
0.17770926123943792
0.025256374951773575
-0.45285251622402556
0.6507085090883453
-0.7528883980664658
0.014122333300611078
0.48697608860799985
-0.3100887466364856
-0.6585331146352857
0.7952323812733614
-0.5497888528869235
-0.7191691004133727
0.10907764612812856
-0.8723719941760035
-0.59590831826482
-0.6856837616623134
0.1505648368903825
0.11696070891717264
-0.6867501780148653
-0.2703679974075544
-0.5986076702507663
0.4797682109685071
0.2524894140270796
-0.1116421963315982
-0.4710649339893549
-0.030234825813755858
0.35868033840701263
-0.3187646490957974
-0.22543039928514788
-0.4695353493638011
0.2840469516061027
-6.682040598560146e-05
0.8327402276549665
-0.06341190978485828
0.13506364277987276
0.007989115927703419
1.1795714712985674
0.14025412919843155
-0.03662748764408333
-0.017701180097714618
0.45565475899473673
-0.021794435071548254
0.3237065588652617
-0.27294188878200276
0.11732641319788448
0.22606281492091035
0.1589835967092544
0.5773357216443409
-0.4247281409874781
-0.36637006913020426
0.8943206067179121
0.6102210465149298
-0.5088491992837633
0.41321078256695754
-0.16464679735268134
-0.12967100334366913
0.4852070594902732
0.4082827640222504
0.3197199762166842
0.9578852947278949
0.5412553254933811
0.26973984064678325
1.0364643390900383
-0.1639435372996643
-0.525593806349932
-0.6933484925485787
-0.804309369237837
0.1825210726069135
-0.24876259816153
0.5712882494990644
-0.3781850432563383
0.32970282653583455
-0.3588740659833115
-0.045880257458248336
-0.25769061765933604
-0.46641859588095913
-0.011864569220176799
0.5307672257988133
-0.3504932681808346
-0.2090794242589929
-0.6145160704991817
-0.36240142943423626
0.6428597545146753
-0.7805116269571566
0.45997595840335026
-0.5332659774358847
-1.198919762354166
0.5725782441273183
0.7702597312880249
0.5762969811024002
-0.18387525396777166
-0.022767149459958273
0.08598124831658013
-0.6730213178112961
-0.10756049200537335
-0.1974754934724381
0.1996062138610806
0.5595672117403724
-0.1131034866629574
-0.5992556662252286
0.1775388488002253
0.03708247708488985
-0.5439759795757306
0.04532455124167073
-0.6238674556317056
-0.6665726153876378
-0.6714877221503106
-0.10579524770629306
0.5314057369945433
1.0987943325987468
-0.14457049334882713
-0.5540683898996359
0.06419958267213567
0.0541640491088154
-0.44260857948706467
-0.03524886369007034
-0.1492166194260899
-0.3224114488579738
-0.20041243055904476
-0.4845459831317714
0.39945277012142943
0.46424211284506445
0.1851484164950375
0.6104303675218816
-0.058267888310742005
-0.36652934692230377
-0.4051881334216836
0.19505011348841905
-0.2491479468223978
0.4759169087085628
0.1937180831376228
-0.2004310534232793
0.7023717226025434
-0.08611525183181104
-0.33370740212831
-0.6095552943965808
-0.31654257455792595
0.028408250330550812
0.3148480026103154
-0.4833271707666167
-0.11785821642074096
0.4206319178252924
0.7183462695263695
0.1939000817504133
1.0866357385074037
-0.33999146292084126
-0.4729328105438727
0.13958280416772686
0.7059122551724526
-0.5098048999786863
0.4827377196514578
0.13643238138648192
-0.8867248604412707
-0.3063680462950095
0.17347415036851105
0.24514960483059242
0.23646944312202442
0.3551135438092597
1.162258393476595
0.24215254131171168
0.05403941184700596
-0.7473325800116035
-0.997405336913209
-0.633220965534406
0.7120575856142607
0.30512086665013083
0.6639013803603464
0.6939666455533828
-0.19333822044050125
0.44159021619418626
0.19343703336525417
-0.46123085611177383
-0.1946859377989234
0.5169757137776236
-0.6399769395795166
-0.5322780485679236
0.07690094558776808
0.3933609563704384
0.49137182805627655
0.27190303920192904
0.025195499412211192
-0.47175573682209215
-0.5572860087407383
0.6570671108944834
0.42657536852164596
-0.5216362839398666
-0.6386960152213114
0.20861026299413238
0.5572182509968291
-0.8930389365067293
0.2993389559074868
-0.1408970708815596
0.20072949887181132
0.1334183005456702
-0.30309426477733054
-0.22888132854763812
-0.1661224617937327
0.28385585562678095
0.7795354120943341
-0.49095928677004846
-0.8764237069789297
0.781293655013485
0.10771024954411595
-0.17558639402768567
-0.18210746708562944
0.08709766475469702
0.2610886860018163
0.6008459691648822
-0.8944093865608881
-0.09832364106952916
0.3763669948310994
0.10318741617099889
-0.04614968337232474
0.1288021623214384
0.1908172525369718
0.3922453385102099
-0.13621393975481827
0.4741614046856108
0.16380365488267634
0.18059440807574229
0.2700794069458613
0.5584603148865019
-0.47453146841772
-0.13133719189311543
-0.017772778811610226
0.4793355482779321
-0.45730460969402753
0.03497719663198413
-0.8649597852896797
0.1980089108454463
-0.4074993163517924
-0.37370393338919267
0.25341052243227163
-0.21275277841460394
0.3441208101366645
-1.140072955897051
-0.7889196572860289
0.02674093369709643
0.425058536790178
0.5034398889461228
0.11345566036245563
0.36470316422588156
-0.024176029556397437
0.7089303779445437
0.16033498272566216
-0.282431525149625
0.3324509657680276
-0.061625550082201636
-0.6340274578738008
-0.02037566298574242
0.6948101081206997
-0.1990329391151106
1.0326654426982453
0.34081324639724003
0.1709992461102612
-0.0833753160965742
0.3438959341871951
0.8158786516123877
0.635183996326922
-0.08341927214431169
-0.44695640703482575
0.7870938808638518
0.3646016823659252
-0.5027385095882068
0.42551739699305463
0.3269387914534425
-0.09498634655014251
-0.3421568767923068
-0.5306044614793046
-0.4313424068816095
-0.5613531609134207
-0.09356455888414617
0.063464313213591
0.5044243334053117
1.397358556695139
0.08772604491955863
0.511184681753039
0.586897362010254
-0.10428231711414128
0.10410121216781028
-0.008723376243
-0.3732954172795537
0.20826462661877015
0.4816909627031827
-0.3797195969010125
-0.5985990327895352
-0.16472087859215542
0.01843958471053682
-0.9863514627599879
-0.6890358294308989
0.3435624536794841
-0.48278910420991983
0.22494555989501025
0.5104244833571614
0.19976704907463214
-0.26454654341930495
-0.6186504206373841
-0.22180523761577184
0.1406655980330473
0.09251115300006318
0.6910883225034478
-0.35171543889333046
-1.1427313905782308
-0.37567143385773516
0.5987716913078285
-0.2481944201476221
0.05473073616498563
-0.537709286890015
-0.22381147232217993
0.13009640995676974
-0.44646923974363534
-0.6738781928557984
-0.4067670472912872
0.18122060522581346
0.5637612728247903
0.47625389996732714
-0.5139794810921455
-0.06565434201322637
-1.2555307965423608
-0.10346633200242472
1.0876358836726274
0.06365916253003068
0.16098941825339835
-0.03168466927647738
-0.9011006960931038
0.25131051022887385
-0.4113718737924726
0.35679264441049136
-0.6783291100840594
0.1701886079898996
-0.3142583469340367
0.26015610516733156
0.044619194030706806
0.5266996514539846
0.2611322872704471
0.5999698396959697
0.5238359213824298
0.5885991324119855
-0.04668035831903718
-0.22289614406790942
-0.38521343268784564
0.44734967792052505
0.05220119724432324
1.2891004646414908
0.541535631336358
-0.262260872966242
0.2725227000264814
-0.20440756687020734
-0.11787999600603521
0.6013374120423549
-0.11451516979024412
-0.6955770081016509
0.125170211751712
-0.11022528188901831
-0.3286781516755825
-0.24236359415305264
-0.33013075450759805
-0.49868896390092066
0.4548935917739815
-1.0133329347441398
-0.2647307795854307
-0.3959438149248017
0.923035557396104
-0.2554937572323337
0.18528051322029707
0.05842829412930016
-0.2695929521930835
1.2053682453429395
-0.07855200692371496
-0.0706075439838485
0.4111419406544845
0.5462400928202682
0.2418258435349776
0.2712338157809031
-0.3537055953001293
-0.1555250418387584
-0.33083198019276944
0.16074699261173306
-0.8135293198403695
-0.6274910976706465
0.33455214068386796
-0.08832867250599814
-0.08194031130601818
0.6554687617003976
0.11207986605911845
-0.07467288708711278
0.5671706720015457
0.07556076322464148
-0.04385071274751676
-0.7643578970302103
-0.563487012665941
-0.4762535088464607
0.26628179146043274
0.13826595857210638
-0.06448319049513154
0.4968303663835019
-0.8913512968880574
-0.033831135837584694
0.0024394978140352963
-0.08535064447466152
0.8526497633124419
0.144289306220779
0.5813100259989075
-0.3842849446519809
0.7503968157613817
0.14383218670376477
0.3021432619967267
0.6003459367174168
1.2574474813639682
0.8811902511343765
0.0331626133855952
0.1750949997324797
-0.9460884937343734
0.08986104383742793
0.5008747347458827
0.8942601948722975
0.5253262313595761
-0.742771275569608
-0.050742815047153375
-0.11520650659006638
-0.5703979886739544
0.05566990405289915
0.1878429779483809
-0.6737589073658102
-0.0010024180563647303
3.867888442994627e-05
0.08562787793300052
-0.00624667047034292
0.8937565714946661
0.35369047775063434
-0.8143920283500433
0.12415268277510949
0.9434817307638991
-0.16875248653244923
-0.6704317751293504
-0.381049888363053
-0.3578763718691423
-0.3790485546505961
0.3468762303309576
-0.2108713849722899
-0.8549037911955462
-0.48175619948932713
-0.25360295601181243
-0.8673087125614728
-0.1623246638024426
0.30584313008457986
0.6402889897702331
-0.20334004744984452
0.4582014616619918
-0.5463177989610571
-0.2445649908613306
0.19987535591656164
-0.7143680193467378
0.09562926803161369
-0.7260769511494642
0.6875734913090984
1.4158165934571123
-0.5338625513817494
-0.030384709243151328
0.14476290268025035
0.2042441556888822
-0.30995397393766344
-0.1956018154283522
0.1302144297578919
0.40187136323403827
0.10387867190580999
0.2861776264842131
-0.7468320748073618
0.24410757095401958
0.34427702179373126
0.7760376584614842
0.3628874603076419
0.9596361272993761
0.969339010134109
0.4881944435321166
0.08537635508171774
-0.5303589526585878
0.45934893864641135
-0.2977432991788434
-0.27455318633515424
0.1946995494850472
0.06198397466413698
0.47838948125464176
0.23898446563850445
0.567022019644858
0.28938895503084955
-0.04539262841027729
-0.15605069401342334
0.3861818309525406
-0.14256858255875682
-0.214031033669413
-0.4108516817362883
-0.29127731747897684
-0.17328956967278233
0.17731613845511782
-0.19558838780287222
0.17655360737223827
-0.07335916162066991
-0.384169925256446
0.19335726325362212
-0.07114354678710148
-0.7928783227786285
0.37868776962165673
0.8725675834401418
-0.19981840371638032
0.02498569443461264
-0.13861379562648787
-0.013439048885550697
-0.07928043244224293
0.209744290741335
-0.02560274454300264
-0.44778846874749123
0.3669022999717274
0.05085112566113742
-0.8026112449063373
-0.6129667106223463
0.4584363483871867
0.6830709624087323
0.3169339096263697
0.884698052259681
-0.027367108955576085
-0.9358456480763166
1.1089386929247986
-0.11654470650576149
-0.2699448401738294
-0.10096616011733603
-0.24769498296188225
-0.4076676534677272
-0.7807868244154615
0.4729012016120434
1.065601449631518
0.07549744871538126
0.43663183199110717
0.817686964963207
0.5523148257991328
-0.054553568035041744
0.741070449535541
-0.15796088093092697
0.5123894263226616
-0.9196493009719431
-0.013344624453781987
-0.9025679177813554
-0.25146401905695626
0.546523126047414
0.005915298047969808
-1.1768086228875119
-0.5336969117078302
0.32361690800969534
-0.9192181656289381
-0.3125618997235683
-0.4742739496149292
0.5321274445152631
-1.1494729050764065
0.4417581687800769
0.08009253729290744
0.1044664466789367
0.06614571086706512
-0.24774022877726223
0.11230670864013141
-0.6414971705721648
0.4085405874927013
-0.23404010141808645
-0.9366478309510065
0.19478136674132152
0.11430056906171902
-0.12034918371450741
-0.27066735446521384
1.2189834426646586
0.39278703633403783
0.08311770518384293
-0.7139912628191374
-0.40241250938377565
-0.7599886118960595
-0.39653653099040503
-0.22483394619444813
0.7733668329681992
0.47265525260626295
0.0854157721235809
-0.5294831461811094
0.5565651076393044
-0.031006164474628006
-0.2785785295956104
-0.7102648117612285
0.42384159596900245
0.0170604341041935
-0.06322627805719121
-0.12493742991366646
-0.4604196994157722
-0.8410273737571761
0.4887589734300327
0.2498510162202804
0.8333646500827632
0.7556514738185393
0.4633805700867142
0.8464427308689032
0.10377512952341486
0.6684460522763097
0.006307489570266639
-0.7055588402492252
-0.2982811244892126
-0.8433874521088176
-0.1579144458609999
0.5120982399629056
-0.4743926802220585
-0.4239976264608508
0.0703740679233515
-0.6865823634463126
-0.0732690875025324
0.15245579990437982
0.7981283695917385
0.6084130851930942
0.4800345889184869
-0.3019749360181193
0.6420082654126003
0.12229763671894783
-0.5780642324154648
-0.5617765527186341
0.005763342366394225
0.5694275824101346
0.661726881435134
-0.004019179486010119
0.21263511579478472
1.1215119883074016
-0.24333127633795587
-0.06658337795815916
-0.0592193086855982
0.6202704920339477
-0.4462850429669758
-0.5214977891837198
0.01972368350784071
-0.2975407503122377
-0.1458801088273404
-0.20019678635642196
-0.6413075150640609
1.0135058415284213
-0.8098351890334168
0.11030666754412588
-0.14471754997454112
0.15270537855719094
0.4527255124334408
-0.9960495664150788
-0.38388160278323596
0.0654397495511155
-0.5970681658757233
-0.24768960446432575
0.33849601428633896
0.03473281431127557
-0.6660001294684679
-1.142610636440985
-0.11889885990144186
-0.4556693892273769
0.20738659340936552
-0.6523251950536363
-0.43375006708842767
0.661556667689834
-0.4191565431482814
0.5326882687511487
0.5463279832598206
0.11065104930962438
0.11561036539680744
-0.2430629443540691
-0.15125067625067184
-0.3208234540775793
-0.5362121197625351
-0.5739079550402877
-0.45318812576482936
-0.3697979333409417
-0.23074674372289095
-0.11805190511008284
0.6458758850667234
0.3421126612102845
-0.2709173703575639
0.4770247895066977
-0.3985895885239964
0.23174624419577533
-0.2553090446173494
0.5944642033334206
0.6489359761610333
0.691787718970214
-0.254199081815552
0.17067191063057596
0.9516582831652818
-1.3939621474662254
-0.32999668913874153
0.18364090225297802
-0.10769122589069507
-1.2112286428561299
-0.2943588092793917
-0.20818646033733645
-0.17902018270205938
-0.0588409239223215
-0.31645508658486154
0.6557563167112217
-0.559149680469192
0.41135505854293736
0.11274184643670723
0.09175948872296716
-0.5100665529289501
-0.1260660620079
0.008088640296661509
0.18102347553721945
-0.680135154753165
-0.5320038524380584
0.25983770717829835
0.2406499739891826
-0.05735371867369626
0.14747068201588592
0.7617473637132844
0.8841428305139114
0.024094859118753947
-0.3262602641531799
0.015826009733427404
-0.1327189204245936
0.3647742239521016
-0.6040815658068618
-0.04266533268990366
0.145304440177201
1.313912653375238
-0.19348481052500965
-0.40151878448747325
0.26062746650521595
-0.1256834448086772
0.04737959112955775
-0.1529808402158144
-0.5130659131688962
-0.3989214747054061
-0.5514796253249251
-0.42050101092564873
0.4310823409407794
0.4608344446270771
0.3767141466968765
-1.498026913629448
0.476752630512966
0.5244459495151522
0.14147621150361664
0.22593520899878908
-1.1001234015877401
0.04224666060482972
0.1302475827849112
-0.5426897470339267
-0.2886124535660505
-0.061844350051821394
0.36671610442405694
0.9141439287415897
-0.3123679203292668
-0.4291529750785276
0.5338274483110771
0.11049974499341761
-0.20389837828882895
0.4085535097619803
-1.0788614913388632
1.3223814834284973
-0.17501815907650814
0.4201430398026306
0.12636032863329105
0.8350512548560273
-0.5228252622143882
0.0034875584589331987
1.1326147839047507
0.594177078578879
0.07674676994219364
0.5931679804860652
0.26661099439206387
-0.20125899386905174
-0.07114685500663127
0.04248397936051805
-0.6186540052627962
-0.021076284454131823
0.41451480664131274
-0.30630683295490996
-0.33960310092238
0.07443785019589541
0.4562254464060377
-0.0882736320980053
-0.3381550657357133
-0.5076713473199645
0.8264722194951598
-0.3032282260416883
0.06983757434019786
-0.04884248316528489
0.17965302727540658
-0.513480197899898
0.749881925042367
0.18329478083915074
0.06550773508310553
-0.8546927854784154
-0.28130001043482245
0.5309650499136955
-0.26248375387332684
-0.10164020421806903
0.7812289461952178
0.19034171771249275
0.4186011059294815
-0.040884015384384076
1.0567427982922766
-0.31333935442659155
0.15091040254765536
0.91443703722504
0.37113150863719374
0.6128833007783581
0.10401426029407564
-0.33662241108150043
0.7757230043809911
0.3229002080970911
-0.6854451550942043
0.2995882900474317
-0.2574913784201864
0.230630779901416
-0.43828385296988404
0.5415426365881529
0.09073369305484738
-0.06596654685084731
0.6207212648488989
0.11092713317619647
0.18939397877412553
0.6011077690759782
-0.8111827116559142
-0.3061102792441471
-0.2470223742491589
-0.7291132795957291
0.1711561858967648
0.44429450321016556
-0.8804161372000312
-0.09297137204930624
1.0431891466839984
-0.3291525143619108
-1.1965124080770047
-0.23202355881099238
0.7864731467755578
-0.05544383196729366
-0.573105222402102
-0.8059375465467958
1.1144708897007958
-0.1989604262841319
-0.07647935764745692
0.07247956804579071
0.9706963146358405
1.123858017823733
-0.8860328812970379
-0.13090997244525066
0.06922917500238242
0.016401037226738413
-0.14344544412925658
-0.6130408574223634
0.1810473651931319
-0.26380622127090314
-0.3084545128547188
0.43991436507374665
0.0686900623871391
-0.7407549671448614
-0.37919445675762065
-0.9480615493169168
0.2525417511092115
-0.835745274450468
-0.04110717975595021
-0.3877611513649414
0.48544219464668664
0.10368565317399571
-0.3255095033180116
-0.028870271982170292
0.1945438051664495
0.45657774449951394
0.787790743665285
0.5910188326714017
0.32292628505060356
0.02367763179393416
0.6951012484337622
0.7893276283292414
-0.17329823223585902
-0.08654080932770648
-0.1003125267505128
-1.0465994628640658
-0.5500739916309256
0.3016103392513279
-0.3851896892736909
-0.4620340259587181
-0.5291316705458019
-0.4200448151296085
0.02802446686701826
-1.4709208158447977
-0.09660727753001591
0.9383646679502019
-0.014908586961437542
-0.6277630678062256
0.6601896260402418
0.7522082756139501
-0.3768748535535106
-0.005426226231830318
-0.2403156568997172
-0.11642323024955203
-0.043978430103727595
-0.9543217851143813
-1.0441435561811052
0.07913613995873423
-0.9955937887818324
-0.46149102384173546
-0.08953317128034077
-0.6958136166710305
-0.5533108811423735
0.5035714194155597
-0.27868885384258124
0.35328345449086845
0.01156424577841559
0.19959622877843675
0.20277839326740324
-0.2369802615647259
0.11749079354739117
0.4131796964267259
-0.3319555002942828
-0.5328689733115022
-0.37926273787026443
0.011304572032605265
0.34875915739497526
-0.2586588975557709
0.5310815483680434
-0.18903558193136527
0.2778339644312976
-0.60671672668523
-0.17240881770309788
0.041479366948878514
-0.2874682605950425
-0.4736169070058291
-0.24067667997450265
-0.7754804358693063
-0.4930812735470895
-0.3879327556202366
-0.4451200656221578
-0.24034312896633478
0.6357354022912743
-0.3893276302768668
0.03268212071683408
-0.5440513889002596
0.010236150027251256
0.11326855074188769
0.10738427597476546
-0.4126619451030282
-0.8584175641734562
-0.5166737505873218
-0.7124418340394474
0.17514099724184312
0.13676689367565167
-0.9854409485098302
-0.46408500917515455
0.5358441602724817
1.093427296776897
0.5336771942743354
0.5324538964062772
-0.40434976062024897
-0.4859540718003254
-0.009021457261662254
0.1209392299399362
0.16861304874157035
-0.36471634118358903
-0.18560493854315238
-0.03364779551419232
0.4976611475803013
-0.1351522688958931
0.03385568533296848
0.057430232626981326
0.4161588214940181
-0.8606021912131087
0.0826489328633377
-1.1360137970002866
-0.8081830216653726
0.6627126713053337
-0.34347489324255204
-0.2682377483255681
0.4476677892963576
-0.019339838363001308
0.14643007664543167
-0.08582901976261002
0.6579620044729471
-0.22551287473873402
-0.36952868015674
0.12124367823604816
-0.15983771445462946
-0.12396157327734528
-0.3591530052961537
-0.7193677326972551
0.3282140386196586
0.44741753563166675
0.18044526383664866
-0.09820888125893154
-0.25385143017274897
-0.5941035159673664
-0.23841384432961887
0.8545060339034151
0.22636059962874258
-0.528281037257597
-0.2660842251678145
-0.6768748012043995
0.46784156010985134
-0.7507849536007923
1.20901750470786
0.32040504790427726
-0.07638592679505805
-0.3286203620305633
0.08565597191071292
0.08986880358871262
0.9118359372148936
0.13957024249367517
-0.07438033677041596
0.2710425804818593
-0.4196589691755364
0.5931357700357809
0.5612123505620444
0.7192840803744899
0.01773002247708979
0.5265514730814316
-0.12230012012206305
0.3034958931254583
-0.4739999804809771
-1.3521357888931522
0.20952850075268475
-0.0033644389761124105
-1.0059846095686091
0.4011739151281834
-0.11313752813230762
-0.359997603579805
-0.5485353504440588
-0.49938917211598804
-0.14521359127342182
0.24528285211200057
-0.2653919934527167
0.5559053081807552
-0.05182769689516821
0.6910834323407483
0.8817405000964844
0.8362693317610826
-0.13797459983960556
0.9097210849126197
0.1668424192129425
1.1510158304201537
-0.7654105614092741
0.921641379802452
-0.07134333052885233
0.09729811926106205
-0.3132909183912632
-0.6895168728862054
0.051113455655484544
0.6805773232074054
-0.31819999304037194
-0.7017717713478198
-0.12002544382831971
-0.07386597678445642
-0.24683649599151805
0.9028073199347669
-0.4537619191281562
0.11484637168552489
0.5827248371336622
0.27492706778112586
0.4649649580520086
-0.36389944705556665
1.2933492999478642
0.8018836707657461
0.00721150638926573
0.5204959571486301
0.411519291953598
0.1361486744022381
-0.551144809546494
0.2473521548605697
0.7686320100016335
0.32562191472323904
0.011571682424439567
0.00996252089896568
0.3937358753899125
-0.25363365526659276
-0.4949484687355256
0.31762600976258815
0.6824214202785758
-0.6297555752812863
-1.0558317528383045
0.44563382821912356
0.7867828916953769
0.8986896647957168
-0.5808726354914564
-0.13272335572202712
0.3148608853697455
-0.25044272137317247
-0.08011227046034872
1.1886511556234753
-0.8825066061680757
-0.967821457595643
0.8125160796046391
0.36379463658562206
0.019226118962722798
0.22255039096093937
0.2592896872443626
0.6606182300058531
0.6097241097831336
0.36308119910124914
0.3735782344679531
-0.09570813317305707
0.8342572623882991
1.4867378869545465
0.31637359291315065
-0.13391887679729947
-0.3787718965402528
0.33579657489012177
-0.06381363365350468
0.052726301572866466
0.3613771441206792
0.17622014110878664
-0.12251595661795532
-0.031108678710329185
0.9447840089898325
0.5892432851509876
0.6347665512597361
-0.571658313443095
-0.33571222828669756
0.10341388204179978
0.6486299605802437
0.2175444564513028
-0.495947894826822
-0.10658300255280068
-0.013377789170721702
0.03777878013551644
-0.19723982515659566
-0.13294338797662042
0.23755012209658907
-0.34180335880491763
-0.29481762359803987
0.18674782857991384
0.2891762834336284
0.09295868460012308
0.4122775622860658
-1.1668031700323183
0.7081714819881075
-0.14244722944079627
-0.06351688838544689
0.5532965096211778
0.8534663156362199
0.6472731570198215
-0.8652577300832446
-0.8402511814483888
0.35299988404307325
0.9624889385243989
-0.5319706242322603
0.22295336179722625
-0.42684932807523834
-0.30049724066737726
0.38763381458446433
-0.049890096108740234
-0.5875876409679378
-0.9647202501709934
-0.24854231251411474
0.9564221396958954
0.35428654992613273
0.7620905662650957
-0.7460721715437499
0.5505257242207774
-1.5091214180998518
-0.09571455974442204
-0.35580492987162643
-0.007089795556499856
-0.9542204620654735
0.22143437889801804
0.8379230300048706
-0.8234041165790019
-0.41104318035148923
-0.47963409365158055
0.9539038195023648
-0.5163345940616312
-0.1151983030339023
0.571147776927214
1.353335867973806
0.13564173013615158
1.02520843886977
0.006648461052168604
-0.06809644288018313
-0.1960110815151554
-0.1019307859354834
0.04196140981644164
-0.46222214006839146
0.3573820777795705
0.7970703531676964
0.32496294205860354
0.6150679285568224
-0.7842025827480936
-0.6477993380710286
-0.49353500626403973
0.09505785646587296
-0.7178999392731333
0.8467785274577972
0.5507326267421946
-0.11875249834646731
-0.22106736201445407
-0.4004110047426852
-0.04416403093229904
-0.05502254401544138
0.6521168716533943
-0.0483524094315474
-0.31730005584913923
-0.038689051914057616
-0.5903555818287443
-0.07993674394969824
-0.5137269832536988
-0.8387889207949999
-0.3254362103458168
0.6943167808991608
-0.1779288614285433
-0.422814336992289
0.5112361159864155
-0.5813872429278337
-0.990058413669422
0.0735463867014696
0.5684639482564993
0.8373553587986924
1.1833960426145662
0.1697584986558086
-0.07116785243195792
0.13006855371744755
0.29645012053986347
0.23124377528705675
0.257647442398594
0.7412838661188761
-0.09186112705684721
-0.36971349830675293
-0.7784854455413098
0.26598575592973556
0.31279958007987274
0.009962995036856156
0.33666733744970506
1.0285833763953427
0.3053203925993806
0.023739415798726
-0.4213675697237028
0.21290065043375617
-0.5517330537100699
-0.26177756388912676
0.8751386938885778
-0.989645619647441
-0.11799295980867877
0.33194440355216753
-1.0092374083920288
0.22611159366674088
0.08274711121268087
-0.15910362182492735
0.06948929879808871
0.6503399563820482
0.7711907777300359
0.32690710970651227
0.3151326711602916
-0.18013310529869114
0.7757114963085625
-0.8431984644226004
-1.0668214384815986
0.1809471751418117
0.10048500680930854
-0.705943740080107
-0.3336501036231877
0.3283818857885836
-0.3881088689496175
0.3022116636768192
-0.16964846341847434
-0.27556135182431085
0.11284233864462076
0.6382743669942008
0.15483311417346018
-0.2783485949950369
0.2285482170901663
-0.16719279694821995
-0.2378497337156016
-0.5181174034102467
-0.5233710112781456
-0.39606938668750313
-0.13336378059679252
-0.7962686848707939
1.254888837138446
-0.41275223518277754
0.41212577832943836
-0.2945746995075115
-0.4796839083871043
0.07436145021455477
-0.04090012585701939
-0.32716563808714516
-1.0524162728196926
-0.8273921563336163
-0.4455642433479243
0.15550408844708297
-0.6623521039923941
0.44049437251898627
0.15850611369702572
-0.9557719413701276
-0.7457898720237208
0.2649330390807072
0.2501902473586496
0.2023309843679733
0.6311293246040749
-0.15081288607486956
-0.8666448196418219
-0.11891518841800161
-0.12132314862935134
0.4725638694093569
0.13723677800846593
0.01442053684726759
1.2015714197915321
-0.49798876212905785
0.40670217975392126
-0.31867652920530953
-0.24751210818912844
0.3295602697207429
-0.738011858208138
0.6401657520739756
0.11001731525782002
0.06878874061145175
0.16794083129973436
-0.44222137529238603
0.06959251898998062
-0.00018605664836050112
-0.6577947796789891
-0.41166981409025727
0.03960882226112301
-1.2135968523307719
0.6786212401790862
0.3611074896784559
-0.5454707470401959
0.21154928578399362
0.15496217027672543
0.2887137557701398
1.5668046639972113
0.28598333259562025
-1.2612465329185725
0.3757701591686792
0.20115316515606488
-0.35014011817324275
-0.6170401122504852
0.707228960453691
-0.03998573273098939
-0.04281332595291887
0.2974812608785821
0.3238195398979364
0.6178459056300324
0.17391294992460898
-0.5751503966051972
0.08960840456837073
0.415885127891859
0.17845356040436333
0.11999033289707194
-0.7860821836085268
0.1791668035626396
-0.34428129461366674
-0.41461272815776384
0.26333431159628606
0.38140009661662955
0.10584231559882248
0.10293234845833027
0.41518189251638143
0.1334767106705487
-0.5797880106006263
0.5541976647976646
-0.5683543524809125
-0.9970922371750609
0.5436960756402694
-0.30650609527671774
0.5847958382436047
0.5897477519203591
-0.054419086514306436
-0.33915768153764153
0.032532226103649094
-0.5217361078469587
-0.13629309617702975
-0.5366003914337474
0.7043979165664316
-0.6519508001505401
-0.033274263719323766
0.23747301697325363
1.0166200085765096
-1.4990438916096163
-0.6027395013463805
0.028193211766618553
-0.5499252924318733
-0.7976716162875596
0.09429997941757341
-0.23124799513292743
-0.17895162957576044
-0.4485295477296224
0.3620943995703335
-0.4806432694105901
0.2328603844453662
0.14069292139370315
-0.20673778247215246
-0.03205154988714698
0.3637225759644137
-0.4800964381583118
-0.17313993900197483
0.7102579333424587
0.0009809603881698603
-0.45081561877766063
-0.20415319161423745
0.05523895755056653
-0.20093741156391903
0.10256866322875295
-0.5602981238258026
-0.5588262349659124
0.39885757837044244
0.6558225398029244
0.5042165760712323
0.7383792469905546
0.0067261723250541805
-0.6181254014777287
0.1874876389991887
0.71376792747249
0.228665216883075
-0.16241315984410426
-0.4468553338986275
-0.39038733133313064
-0.329783862086299
0.5314119600875993
-1.007871591379732
-0.7360875185524316
-0.49715157738119975
0.8191221456813568
-0.6810345741199775
0.44611752725876735
0.4395406213628501
0.36547841689047644
0.9445708839488587
-0.49112385739302733
-0.8587909880651952
0.4038224859291598
0.13308561454631757
0.4898465463645599
0.4907795534072211
0.8981561193965788
0.8127592400111974
0.03550317560105324
0.343628958501663
0.6594171207491176
-0.6901889846440811
-0.26341552172966587
0.5012018591111793
0.14116864934631349
0.4727011681090104
-0.6086062221621017
-0.3071631886088309
0.6324408020515686
0.03580856223657054
-0.5845429823772986
-0.15458153335715752
0.4828506711689307
0.1913130313440337
-0.634683713940375
0.11251691468973689
-0.026348402138242098
-0.46576019229331556
0.20125452870357458
-0.45260600749521
-0.5146090644353748
0.005499015480601773
-0.3289000582370581
-0.15591958690698607
-0.730374269343251
-0.29831110703271013
0.6451395099716275
0.5999844470143313
0.270405562309192
0.3764966462973308
0.1556295662622436
-0.29204846658364303
0.08788552021277077
0.27077943368450896
0.12907236454585067
-0.09921071197802007
-0.5161018144799866
0.12983048429292687
0.5285795541811499
0.11766358867813356
-0.23098950100422733
-0.7182734574361479
0.17517809797802764
-0.040061943361919185
-0.8619763230214464
0.21569440984274418
-0.674469635578219
-0.4593796196623635
-0.11162958539443188
0.3220284384490996
0.41617358967016854
0.5590559527865222
1.0586309988039488
-0.9508124228746949
-0.1501375999745621
0.018592113757517764
-0.38845727724798673
-0.4001133029812218
-0.21340379009018526
-0.9305521301010287
-0.6426244289743119
0.3841562815910885
0.2629884399057392
0.7762053720096801
0.034874758019313556
-0.32373844057723594
0.3647020458389112
-0.5965593670909292
-0.25421670139273034
0.018888994071840123
-0.1369802904708225
0.048549030276249995
-0.5914424129566893
-0.29333330524058493
0.19930093573611196
0.17700802234217183
-0.07571026663936534
0.2781032548007028
0.1996627188545646
0.6070788669348759
-0.046152486111508184
0.7423919035716573
0.3416395199254747
0.009888391013986485
0.05394800246299912
-0.5406908807750195
0.39513988469680267
-0.689104783901881
-0.8854261324124806
0.754298105333326
0.7246405268327485
0.15223842960158648
-0.21371225034538727
0.3302769272212397
0.44403948774881996
0.6067669209590133
0.10924261258545964
1.0758888495646086
-0.0013556637530882445
0.7295888241289636
-0.7565345484835103
0.3099334495847954
0.28882731987411353
-0.8204591997429125
-0.7022691269785604
-0.2581252381315189
0.4752714201241318
0.0633656631439726
0.3038761569449952
0.9136908237205599
-0.5368642087600324
0.30670396835316066
0.1519751549381921
0.21945054549909876
0.41092208145728215
0.05370934113877862
-0.697074903351804
-1.1278227106278538
0.5826010526389402
0.004759447611646372
-0.02441263161093349
0.5544275267169378
0.2632851851766677
-0.1744926126200595
-0.3179278972207489
-0.9283175623223642
0.7774090868146836
-0.2629080038724126
-0.010991603987834192
-0.0034081596256973767
0.1330026935502239
-0.19935594451198674
-0.6679598547289537
-0.47454651160318123
-0.7588234010301028
-0.2935692182950055
0.6521936059138502
0.12725568862278852
0.2091638742169313
0.6391335551160573
0.8735563707929273
0.6057824136561587
0.860327756192693
0.11174288233429144
0.3617671732577304
-0.24897659590776966
0.12680854672998987
0.30628755610089425
-0.8507145507740226
-0.7895030252720783
-0.3459180168869143
1.081491728010042
-0.3979995041739158
0.9555815117490741
0.641261989967818
0.5180871861002339
0.3705142886566355
0.4336134837531835
-0.22652571820930972
0.25206944894560795
-0.17119375972940737
-1.073022980146357
0.22925244634990202
0.20977367195891128
0.09690529262205343
-1.1228824428588922
-0.38394286649283027
0.23007099860816288
0.22843947278585275
-0.9394903673054514
-0.5703811150178708
0.29989675855487796
-0.5703588708404892
-0.21004993129863542
-0.05653381621813862
-1.0819124923313723
-0.6011015965549207
0.7206641363223307
-0.10156134341582165
-0.06404661828814512
-0.6751865713466699
-0.6958665959731348
0.6027787514265583
-0.5101806650614127
0.08499921066378319
0.4058837523919795
0.18954474557995168
0.1838794122057293
0.4491852628756557
0.11958407854571132
0.7476532787482948
-0.11143615116059874
-0.6049783382811393
-0.6768784613375315
-0.37219410929551305
0.3762924095122814
1.02578056979616
0.48108253420321384
0.3364340513071068
-1.4026638768928281
0.14520891232187438
-0.17215315314788507
-1.1315007768524932
0.12203857312717573
0.12586469663617908
0.13617655188034247
0.006007802612179862
-0.38011920926710985
0.043633750277172895
0.04173243848917679
0.6370370131250749
-0.5167391982102603
-1.5222430551805353
0.09154532400796453
0.4883282982461414
0.0653590423437441
-0.521627154756078
-0.3504188935319133
-0.8660670360532232
-1.0242834194908126
-0.22372201565227412
-0.28450759534778797
0.8835786535432999
-0.0279905310756364
0.9468532966467418
0.23947011547290087
-0.7894160176697279
-0.06163768666881567
-0.491499155021073
-0.28861881109169435
0.6265426173865
-1.4762425879649825
0.7040188964638936
0.1909884864596923
0.6947099880330412
0.7250350871273579
-0.6546234194427958
0.38011585924707353
0.5625625479081657
0.8072859253185073
0.4869630962600137
-0.3145952259175195
0.8122271930159052
0.1251015004749535
0.1144261103439073
0.2560513440520176
0.3957555293454777
-0.3749364730276168
0.334373832956099
-0.24994933676464295
-0.9141429613081556
-0.5954374064525815
1.1493096764513797
-0.09136685143498888
0.05049991113905067
1.423376148921859
-0.08697806741289921
-0.6425172332085849
0.027199154799048206
-0.8651950372739593
-0.20649717172084442
-1.1477248882786584
0.700135671818753
-0.7180712165306837
0.2237723363707864
0.4653296838553368
-0.09907077405798696
0.13017576899305647
-0.23740844299255393
-0.938762357687659
-0.5766989550980983
0.5609439722357514
-0.27592530069422316
0.7393069097258309
0.7048541078999243
-0.26408314377872094
-0.5385931127293285
-0.25814727860064135
-0.6025565658448925
-0.6481883251907872
0.009897547663032098
-0.5235459585765515
1.0412845836414244
0.8369246859532369
0.38930252742629906
0.572905235697386
0.3960844115149494
-0.11226085259530985
-0.3565907490100204
-0.1313024452189029
-0.20696962050586223
0.30924019757990334
-0.38877889184560244
-0.7244292226101698
-0.058492098327854555
0.06686203076962641
0.7917945472660769
-0.10241664182668647
0.5555156459357491
-0.054196750273075564
0.8170772596969315
0.5807353238162422
0.18092654905551453
-0.8391392616680655
0.03655352676323616
-1.1656799635297257
0.7064213305141158
-0.05481080660667567
-0.5063598289446879
-0.11213801952494735
-0.29398814960996755
1.1148744092326104
0.3208145950269754
-0.35973960384518144
-0.4226973748652393
0.0005895248537678421
-0.39552791340276366
-0.2176699142197618
0.49275137110856704
-0.6223334716295342
0.22546005952854792
0.42813721538035904
0.898226589302782
-0.5116695076832103
-0.011597086918726296
-0.5605057053245783
-0.6046592714269792
0.49959798709768316
-0.1634723069855094
0.41991677464828303
0.2786760546497836
-0.35738703663448246
0.6218963278325674
-0.001210846998400835
0.5991769013628689
0.5167235952519158
-0.7702187994020985
0.11768450528020064
0.35458494135788826
0.24183046337643377
0.5417632776361803
0.42456172403955894
0.04295627450872254
-0.687087843127514
-0.35560341957650154
0.6157146214700132
-0.24767004362046832
-0.0761842234550433
0.06788213428021442
0.45618072227699147
-0.28462554452072014
0.7431085795071001
-0.8932575026096321
0.4391647846047183
-0.0035858730965741548
-0.1348988557128979
-0.4812338580749161
-0.31706021994502315
0.8982049741178446
-0.49552826075525935
1.253401297823646
-0.021852083594045335
-0.6848521920711967
0.831027916341771
1.234488126861108
0.08809134915584914
0.050961626870792434
0.0480418017277795
-0.4373661069412893
-0.006538832789658396
-0.5579626488453014
-1.275172725784372
-0.5661332566505873
0.45805885855944567
0.7257566829595016
0.27028243174755917
0.7066755749704217
-0.8946716483058853
0.24055503640666354
0.657944894058017
0.24446767258439747
0.2638378842203718
1.1769084962696468
0.03973277461170033
-0.4424263342628375
0.7028611121951126
-0.2292794416040341
0.02915372794029148
0.34017507190279483
0.0050419173640211395
0.26643167284049823
-0.5447654691269308
-0.18018454372530646
-0.11166602054392825
-0.18372076429019674
-0.4066674488126877
-0.5926404998252802
-0.74052474668033
0.7355631916033546
0.024372816643800796
0.19248355099831715
0.2527848032211214
0.5978954581257117
-0.4801995999394566
0.9556259050929582
-0.2412699518996318
0.5999394338397209
0.31988690124792174
1.0671198176435852
0.35154028876611554
-0.8302022278525008
-0.2051960212769895
0.38408750414311343
0.475389613357114
-0.11597011932911505
0.12024297462637948
1.2681673298178529
0.2082039051618767
1.0124472664229829
0.5269424700952682
0.3468060721762979
-0.31443795630845744
-0.22058127664024132
-0.3662850736606493
-1.1911273898507038
0.5399339461452222
-0.08011324163173872
-0.011035440371538849
0.33384993504280425
-0.5213360108392916
0.03656324008915671
1.1093556705561538
0.2521295808043736
-0.14836356367830095
0.4150309843221274
-0.1899910974379044
-0.394759036958442
0.27420273407004747
0.22245467634104132
0.18894476599385007
0.25398985233246396
0.5463645986116488
-0.9096973402592814
-1.4162194542171085
0.2059123370803506
0.3014054564668407
0.5291307624849886
-0.4920282230206895
-0.3351378535220454
-0.706616456351767
0.045533835746330735
-0.48527710872777
0.40129066557518517
-0.6595501986402075
-0.3087408266816488
0.19329354278677097
-0.5821292091139024
-0.5138216211479092
0.10386388620474227
0.11303516949859815
0.3008172939894263
-0.1381504591819672
-0.02390534254247484
-0.15770531770511786
-0.18638258170652
0.11966415769104784
-1.0500498104308842
0.1339407039082292
-0.5726941681303133
-0.4545437236266501
0.38255603342404737
1.4218765510105098
-0.47384523572868786
0.32373737995417656
0.2156106413530045
0.270007691893241
0.9846899268916706
-0.6847867584633709
-0.9747561204239582
-0.05999651267498541
-0.5264462769998888
0.5601087782848432
0.5125802362179807
0.40633319627126363
0.47735279350146637
-0.494240477185124
0.22450628672955603
-0.2571322272692468
-0.030691019729441528
0.03920836933404663
0.3099845152833031
-0.5700380596502296
-0.5418756107685516
-0.10229229859664861
-0.031693895604499214
0.12535642506170178
0.5343977843004856
-0.5107884094203551
-0.8590830306701559
0.69739652951133
0.5932060508548644
0.38271464629879126
0.4589160043094455
0.3329550517245578
-0.0607047254269784
0.44573830036636186
0.6668138111069567
-0.13036591139247314
0.06722400518015714
0.12381543217709709
0.6579867989344488
-0.05659146892573459
0.24409332688834434
0.43093456045689066
1.1161777397793369
0.06905230850390023
-0.9609974399301139
-0.24917098278327304
0.023187142218009896
0.6588135464147382
0.7200364457883028
-0.5436240945051717
-0.546622702006155
-0.6313305339777141
0.47153742871568977
-1.1155127337472341
-0.04792074303577226
1.4737265423958323
-0.2880682235315251
0.42557661822349696
-0.5884089102635699
-1.0108744705162742
-0.8682969055054767
-0.23662297854487546
-0.25594718350434104
-0.0032997291999095
-0.844146321145681
0.5667899084535795
0.6094755412064883
-0.3194722043894384
-0.2730363916341522
0.14386341181867887
-0.17316373270096033
-0.7214663005772145
0.14943423882914805
-0.849844391172304
-0.39800166277981963
0.901307834783341
-0.1446986101708018
-0.3682352381739725
-0.13975832169121633
0.19962386109511526
-0.4971653095357728
-0.013962762204811324
-1.1349121917968878
0.8594711673862447
0.005910027443825003
0.12900980304671936
-0.6255572472444259
-0.3982323521708809
0.5985076286948877
-0.22627070268685875
0.20224539341715758
0.5933878660825495
0.1773742440633145
0.14320071377111399
-0.0742369019025984
0.012542978927652645
0.5611412729607239
0.024850170171552374
0.24044954919902353
-0.0038567264099233917
-0.030715929665513175
-0.2623555910878368
-0.7360909934321894
1.3552472505420212
-0.6210728499660718
0.32998481621908093
-0.4828653917963182
0.834178268196385
0.3721501562231273
-0.16702226575377324
-0.4458383018600768
-0.2958964052990895
0.175601864590533
-0.37861519027833257
0.5423494216787111
0.21397830030428072
-0.026882329934760536
0.4637569585326274
0.0026331148168380475
0.8947210526173313
1.3495906295857352
-0.8230774558100526
-0.303194005779743
0.0879769100824753
-0.5498424961851692
-0.24930443881143485
-0.641926524514774
0.6041146971484587
0.2809075061696593
0.5674057054417586
-0.7432646690686788
-0.10768968766510628
0.16680322612696863
-0.24469197029117834
-0.33954443151759905
-0.16666507189803187
-0.23377456914133754
0.32470734211720365
-0.416195366085312
