0.6229821853252842
0.17367381546353586
-0.20798886984849374
0.5011894568163053
0.6767919956530623
-0.30509003832840104
-0.11684919887704616
-0.028788334551935153
0.25068027523799086
-0.8360855374878099
0.07295097349491518
-0.13221461485273625
-0.5806741207935519
0.08168381285269873
-0.09492598277492739
0.2392174542711397
-0.6711047078573535
-0.24586230435026007
0.26507377523680126
0.5411783024307045
-0.06184445620474251
-0.3666490499541068
-0.014547987372127934
-0.5817628931573982
0.3142863624883339
0.528770558240016
-0.6634852714677509
-0.02477957248040356
0.5733167218163191
-0.978855862704869
-0.3595265449565247
0.1331256279131048
-0.588627765848507
-0.5008704079684313
0.05157545253615256
0.14550459635821317
-0.12363391204289341
0.4467868770186537
-0.4558726424963173
-0.5852856798247215
0.046200647433228326
0.11416510751063862
0.2736479508032407
0.8625992152721705
0.4126734767360355
-0.8753177675835762
-0.4356262062563682
0.32515608194704704
-0.053514949900279676
0.12889127888435845
-0.22106780889809005
-0.33924117862873787
0.4685284720523981
0.5857801713737902
-0.1946569990015956
0.7373500072529716
-0.4273647575598608
-0.2158298653094702
-1.0362520201149226
-0.31133579531170147
0.4073916705198901
-0.30176225964418774
0.2379598579264953
-0.14235117821030327
-0.16181086621498683
-0.6271592183808702
-0.5277094100682336
0.6694865210377486
-0.016049840667212694
-0.03182609671524708
-0.6578677984644621
-0.5009132714077269
-0.21735835962812916
-0.45938155844858874
1.0476834486110018
0.8102631743472664
-0.09195388611557662
0.13176859128875737
0.07184669995252184
-0.357123307615218
-0.6877645589921212
0.24215516595026204
-0.5369293038153063
0.4434160848683365
0.43526023926785956
0.3642050715194805
0.1875126969261213
-0.38919129181290424
0.18432264442548257
0.19918141470517814
-0.05308690303123381
-0.12778024055366902
0.21883228175998518
0.4092394818672447
-0.21134247985923593
0.047270914151070015
-1.0953540612569284
-0.33903223671878574
-0.1647180218105113
0.5528835964926218
0.5152091273360562
0.02509458120083056
-0.23171902224754423
-0.0026512180474476755
-0.11832247818356127
-0.3231791673539307
0.3249429733557164
-0.8037091565178361
0.22863070034887542
0.3107739266423091
0.295184121047088
-0.867312181666652
0.38618856202940804
0.6534151215689004
0.5457957935946138
0.9971107888961693
0.14478484151077378
-0.14952363578147035
0.8447202914582459
0.8971758626836902
-0.08536295956591942
-0.346089495521662
-0.18449463670164493
-0.27558215023560506
-0.08792953171621266
-0.04418822773545288
-0.06305110642133172
0.6486453557499475
-0.7673151959685677
-0.2437917748175898
0.5950238209231266
0.9188664102594803
-0.7794878078107771
0.311706875731336
0.5944091978997842
-0.3225269305678303
-0.21032464821414593
0.1160212412818003
-0.1422522273399368
0.6302232190297417
0.21527368830502763
-0.10065810650323397
0.4706897785231799
-0.9491948275224968
-0.21747828124074498
0.6972196904312437
-0.45228517083938063
0.7018026202503286
0.6390299248474872
0.21453461463898804
0.38539257703147706
0.38593854180286463
0.617300137747576
-0.40240332640901744
-0.4451381589835556
0.4641042544512445
0.5641610047183109
0.17134226699872782
0.6476183441429092
-0.21754816551612224
-0.013390631734307275
0.35981534936068904
0.8263540157053735
0.2919709396747314
-0.38019008953063055
-0.5671997648668241
0.26985908111071066
-0.5844521779037337
0.28516560283538533
0.45313021969472256
0.006386456314908411
0.25466215465824604
-0.038810749202501334
0.2569416061550959
-0.02416932871894732
-0.7673353535542795
0.44778008287525095
0.6663937688372511
-0.7851776680373047
0.1424499515178452
-0.3162317850151919
-0.7284091815469597
-0.5731967227557053
0.22587451542232054
0.2685932508294826
0.07164525219370647
0.09591893377707783
-0.12157987309790688
0.789845374099942
0.4539213670314436
1.419710013705876
0.21730906876407108
0.09119360504576053
-0.2736633919600423
0.7799886593595012
0.3022502843701112
0.18929365558584016
0.007517151589622328
0.1888739131040031
-0.9032836135514424
-1.1747602054052713
0.14496326375157756
0.5500495549127858
-0.17217415108171055
-0.34674781964517043
0.012968027096988424
0.12452262192053128
-0.03729739099249985
0.13192612728258218
-0.2917895326064342
0.4280545312937326
-0.030022911765211713
-0.34914294609431024
-0.039634300429671004
-0.04009655667325019
-0.5673159949015578
0.4172586842716608
0.16962202008730307
0.1251927177382356
-0.19469065153067897
0.13480235669792917
0.8299471682051878
0.21894058159806984
0.1750051844890687
-0.4054859849729643
0.7668461116125345
-0.17746235669215563
0.5210042479445444
-0.1567522412293001
-0.3791224972742955
-0.26682980767725833
0.0246684623314635
-0.17831157953893875
0.7192765097590264
0.3044039711549055
0.5057861273054309
0.44661570689265656
-0.18051472970157478
-0.3554511796113921
0.8894541194594551
0.07378360383456653
0.39678430105952134
-0.0934356196785341
-1.2142197565110586
-0.49646807029874196
-0.030217781910824148
0.5722297139579655
-0.06463369597502162
0.016412680851668165
-0.18025820729634215
0.017759367521224215
0.097896626654047
0.5500527188282259
0.047919390478278014
-0.36120915859287805
-0.08483259185647951
0.052998234170969424
0.028973137455051323
0.43816611176219494
-1.9924048061288038
-0.23001474446946163
-0.10322664430523684
-0.6047552869760976
0.01761542870014566
0.09467807522367573
-0.4242003605863183
-0.4002912738285
0.15207659149131172
0.2365617102494427
0.2929442662602816
0.2858309043532281
-0.5708042050816209
-0.0062657116183514475
-0.2665851946357322
0.38006193471775207
-0.4481498433091418
-1.1703608275040842
-0.4274616183673785
-0.11913526275340998
-0.2870309455253835
0.21262264872034567
-0.8006202295835412
0.3844024452603436
1.3375601995576942
-0.07776156558681718
1.3824018914056952
0.2367863602983092
0.25270146398325277
0.1006979794553558
0.23650570065176602
0.3651920004705221
-0.3414005448632543
0.5890933869329449
-0.015702660275852758
-0.38672465226854036
-0.2788475491581687
0.6924849869588402
-0.32697302092703856
-0.20425120522550366
-0.07126638769978572
-0.45851940550828296
0.5162442898626959
-0.07894538643895933
-0.7958491582777807
-0.05059978510996662
-0.3292071978411041
0.23998468075388285
0.7092106551863483
0.05913091576524282
-0.3208085617458435
0.043580774679415006
0.3908312130217686
-1.004231496384434
0.08364738175390599
0.32247780335015597
-0.04618433155944598
0.4075015144749468
0.30248853523260255
0.022596316718039897
0.24492641474473126
-0.17914503900730763
0.05599999554103088
0.6986606141497959
0.08767407215187713
0.7321500501891101
-0.48643755750324746
-0.0570285810119892
-0.10344876332740208
-0.27016639505852263
0.40724999290153496
0.1388982432728705
-0.2830587223450313
0.23272914966127375
0.612238266714607
0.6295749106702636
-0.5901940452174869
0.15822714158189624
0.8022879706783828
0.4203224207627624
0.5046136907959816
0.8499838459867229
0.03077134449759111
0.021678379629753896
0.3550704426367608
0.362362364586319
-0.4051305205613879
-0.02347027873816012
-0.015419308681675943
0.4090529182686221
0.23963164736401735
-0.5172124073569666
-0.3728129401087637
0.20870602875557917
1.2320185344522905
1.128702476837825
0.08834477688804446
0.2848308164647134
-0.24853223135023506
-0.8569617686729082
-0.41153929893666175
0.16940808514864067
0.8363821237351572
0.5284350998563571
0.08901342774386702
0.18772749313107592
-0.28225163608840315
0.011546787982053585
-0.7437267727040074
-0.6173830216750485
0.5306013585373185
-0.028147514762536303
-0.4975831263046361
0.33283140794444005
0.14044498943767317
-0.5833630472853356
-0.18933010367518752
0.12416621568780714
0.0471321604746913
-0.13222737776957685
0.36688916904501334
0.3952852219186898
-0.7483750065704783
0.6447768216431177
-0.24332653102263346
-0.18698615746423158
0.5256673699221596
0.22002365954236391
0.3239987431895688
-0.3269735448164792
0.9117485459032773
-0.28879679011856496
0.12482353260696284
-1.0546644491383896
-0.29804069413059253
0.07666127965230123
0.10150304377539021
-0.46201364021293156
-0.6548645639461189
0.4234884640910787
0.3208354799069833
0.18628856988603687
0.5161708404653467
-0.01844174246419997
0.7969348081302733
0.6163173260258408
-0.4413048460992504
-0.5481642093962698
0.5308893263750278
-0.6483926889689013
-0.13884457895867802
-0.029195101788559864
0.40043596888615474
0.8499764231924392
-0.5819265221609162
0.011892482382534047
0.2791460321389367
0.004043130469199703
0.4606259838121471
0.31823090292015666
0.563548533671376
-1.206983121171614
0.1565549183877813
0.24782170208494822
0.498515091737068
-0.33592991642272146
0.18764606372425202
0.4430634971970314
0.14204016018631638
-0.37047243058801893
-0.02636650214391728
-0.0779108421381811
-0.6920627494789733
0.26382691142578907
-0.9305663928175408
0.6421954776010728
0.6882906243425806
1.0189881578025004
0.6340972340830946
0.5499432380226257
0.024141912016518705
0.4371717342338855
-0.03320294587584118
-0.5972925147292637
-0.019548520301668853
0.7981478305334887
-0.2187562454985569
0.048767951054600314
-0.06509947398560824
0.45657639335605693
-0.3440263465017542
-0.006869176954752583
-0.007438995894519182
0.00043599800048710726
-0.6315555365849501
0.4065627712907184
0.25324568783431634
1.1189020943361965
0.3008126746134234
-0.46493451626689464
-0.4970547370277598
-0.6095859800487091
-0.5453378535806997
0.06758686488477332
-0.4612013482228476
0.14390721850517352
-0.02308589418903735
0.21088110264003285
-0.5135460804989124
-0.022509342067100015
0.41969578353271336
-0.5542159841736216
0.7686024028496585
0.4601785705135985
0.1467600214981617
0.31621012256806436
-0.21971076148389135
-0.2660726026713305
-0.3530963419856286
0.6465840298391058
0.22711528439589654
0.23572489810542424
0.3859812696527053
-0.3750671644727425
-0.5434506236821388
-0.1483722980177501
-0.11581551673405602
0.41499824234533034
-0.16291873278472047
-0.18520928024691516
0.2065711817089564
-0.05970305806973921
-0.45106196215796013
-0.0377827445375863
0.7101151346016709
0.16027590027625357
-0.7512093246128306
-0.12443966214865558
0.06949313994038105
0.18743945287992475
0.4523854085629801
0.3626374471355206
-0.7602655728035933
0.13803390623632922
0.30168931998805304
-0.26655081920350343
0.1478994069098929
-0.6963995588571359
0.4021536033085602
-0.5482175244275973
-0.409486890753565
0.4384011282188714
-0.5691940834488225
0.4256212840969444
-1.3437618317444384
0.02251137497246855
-0.40468477473228087
-0.11344744375897375
-0.8521287991298934
0.008781291959666577
0.7481153457419379
-0.018762145526483146
0.09899378528057634
-1.1218329430988094
1.061183706516225
0.11255000393940447
0.4977056645223104
-0.46007530452001183
-0.3965484141525325
0.032922162320218634
0.16738039261967944
-0.5372489992391605
-0.8366961374912436
0.03791701681054198
0.025071761204876385
0.37766582585024
-0.04068461908205968
0.13218253916146452
0.21868071090661595
-0.06707279785209071
0.9126352171981698
0.0382516667996812
-0.613269397294522
-0.4625342349802146
0.9368984437458326
-0.16147672353976497
0.5267646434932232
0.04681568594952275
-0.29338506973719186
1.1390679525569027
0.6967073103050418
0.709722244293575
-0.003790547291413651
-1.021446088983858
0.2925947820446483
-0.2994981550487395
0.06218240121018599
-0.2672010225725104
0.7340270285204745
0.15731210671015686
-0.6100152530875664
0.5660604707244825
0.43169717349719133
-0.250168495167908
-0.1098948777440497
-0.08354857979501712
0.8780187569350254
-0.15795303546055844
0.2446297866387453
0.00328739295969688
0.23843723285592539
0.017806758881647157
0.06510767493335476
-0.1256150196031081
0.05201461185224153
-0.2730107112569228
0.10294176781728696
-0.34525203844641134
0.41325314636575317
1.0456358767447904
0.34978947952765777
-0.7813462588581968
0.1677606006368843
-0.18890998687006322
0.06680649111304594
0.286246628003043
-0.6076062031035518
0.2376640260546597
-0.7052918552232336
0.31554026331053675
-0.4967408250448114
0.09129957320936029
0.4980680778621807
0.3609255178027826
-0.17042439352295446
0.24862545977563671
-0.2611285383758309
0.6918219141010618
-0.3793326832603273
0.08279153866907232
-0.007709870281244131
0.669099813865002
-0.5223714719875824
-0.03070459232523634
-0.3008049934058882
-0.04940459152679869
-0.2838566211816352
0.209487844643904
-0.31985148060097013
0.21097116882397898
-0.524433847238095
-0.17400477313403068
0.4139437684322864
-0.3360833300327435
-0.9647615155904742
0.08828773203553611
-0.3814787104808063
-0.2796868504672413
-0.9956478099726833
0.5402587723030822
0.16713116120476815
0.07701442108347369
-0.11335429836936986
0.366276418315228
-0.01978747141386278
0.19201033945956394
0.5343956302524003
0.16675422132874237
-0.11161859849006683
0.09425087858381269
0.06717037535784794
0.23340054277833835
0.09706491738768333
-0.14810928807729057
0.5081860640974722
0.07105528895072015
0.5699602472761723
-0.8202824344510288
-0.43111831203177503
0.02405323229140105
0.0854631941398382
0.38411327425818975
0.19068883783562546
0.030876059017316066
0.7054796853532965
0.1162867229289236
0.02532589797603449
-0.3922553673699136
-1.052191189641387
0.3512548031009288
-0.35642859820526274
0.2632790116530066
0.8976899822151108
1.4280826300839429
-0.42776529909221567
-0.3221136872486173
0.3843658346201102
0.22315706505138683
0.904635853462896
-0.21693432708656604
-0.11370346158781773
0.24411686529919482
0.6847948666110113
0.4634696915936368
-0.6500930598030226
-0.016548288461199726
-0.5905511282963445
0.48566247310644156
0.12927693997668185
-0.3417864617474834
0.10080727240741248
0.08248140423429293
-0.17659731492924213
0.36641189967655147
-0.07226396377934462
0.6731864035591584
-0.012726595350786178
0.07271091875774023
-0.4138089051703673
-0.41703894409698583
0.19443751906122092
-0.12072919873841319
0.3364274308315635
-0.3771233695691259
-0.08603519544494638
-0.38756471267528153
-0.6124899275023061
0.8998839978954375
-0.34531323470317543
-0.9921764910652167
0.033646764041348365
0.9975553137268094
0.23259089590983154
0.2480922244344574
0.01140511139147086
0.4279345693889219
-0.21863765084552847
0.4956885221185817
0.2864263897671976
0.10925957413718415
0.39011821677005387
-0.24428026734882113
-1.0544789648978459
-0.0039009542600732167
0.10493724649400145
0.5156750106123554
0.5942077758451316
0.03387907951933846
0.5584246821339937
-0.2663504315850117
1.5868059036191582
0.409645624217649
-0.7001695728757446
0.007286229968889526
-0.5342889707002975
1.092008564041207
0.31041342688903933
0.04341189514344318
0.4493547111928728
0.4587111265693561
0.24791527492710133
-0.2920660471401694
-0.6735207515272013
-0.19660357644708776
0.07735125225745684
0.025890786223710518
-0.8843145617150632
0.21196133668202932
0.4026099632890076
0.2196741282263792
-0.2655804279164755
0.06600577516448299
-0.2367002565948934
-0.3629380737842866
-0.44078664954190017
-0.4050110763223961
-0.2978703773347986
-0.5215953432589634
-0.29044485410926413
-0.19182735790006952
0.024600598669649417
0.4330554751397032
0.09832707204597949
0.9986006503484505
0.7401679827450198
0.037192195256419716
-0.09910070784887164
-0.2145777466455685
-0.6887915925595873
0.19460881603359442
-0.0025191096570260875
-0.675729071196844
-0.1981839637995294
-0.45724843132125836
0.030608252554365726
-0.007138320479219549
0.5269572870750392
-0.2794321863025586
-0.2770934799359275
-0.051269225098315586
0.04037781668212366
0.3132581274523763
0.7573562891959077
0.16773800085097576
-0.139996588585122
0.6175424205512569
0.28283362421910957
0.39991665873411947
-0.4581789827442343
-0.2790614916633271
0.16033147048606713
-0.4658878308339977
-0.27712630256024817
0.28923760896419987
0.07634713859496196
-0.39182398634504345
-0.8266720668739961
0.06046452390879051
0.6986574948184507
0.09176918725930487
0.21604639613969204
0.11765500926603695
-0.402000159948094
-0.31547428689266327
0.0829747056027457
0.3068828372365103
0.2830545081381724
-0.05675026487304953
-0.07302533858990155
-0.7292514470423012
0.2001481979416758
-0.48690957623178766
0.2766173173066478
0.7290840907849605
0.03864241376920308
-0.591027611829095
0.03891919467818592
-1.081519821484382
-0.08827015465501674
-0.4083874311338473
0.34874169703509866
0.3178137152824084
0.1377904504763191
0.6098296403680166
0.15741022285682923
-0.49030032798447076
0.06626081624669358
-0.0664698340617033
0.19821266398677898
0.3123734817510022
-0.2663652637842985
1.2004966102669774
-0.2824492514258535
-0.6294495641890325
-0.3455772625891917
-0.0789663227937818
-0.39144565087342
0.106026968061452
-0.14225151031471248
-0.11076978249926697
-0.20717043960948825
-0.04794683317932982
0.18343545461176322
-1.0595391967256578
0.05052913994610611
0.9312611164802926
-0.6096513209590745
-0.007166088532897735
-0.027469461100782258
0.08314262504020288
-0.04141455778671722
-0.2061691983159026
0.08140331176528096
0.7115139718333553
0.6256121070755157
-0.2203268538379215
0.5433642130611157
0.4133734511920531
-0.6671343920611149
0.2442920949280502
-0.1460213867323906
-0.42773008406857654
0.9561849979096537
0.5586285958819519
0.0972648517483536
-0.17847442340039857
-0.12823626324360776
0.4878032794357332
0.8880307875144289
0.12362718890124025
0.3486106836980852
0.4586655944595373
0.8606399716271708
-0.49958866171405386
0.32609194314999407
0.9440740024306865
-0.24508297137089202
0.19382865302045654
0.14761146547384102
-0.03202141399834029
-0.3396951335273006
0.49396338393648936
-0.16722901744650268
-0.24985363221265292
0.46181251507689214
-0.1807284701440609
-0.39478796750725836
-0.5236900062731907
-0.03655693613775791
0.1508978984949258
-1.0854320477949222
0.27147504627865016
-0.9777958536175526
0.04560535314268945
-0.08710211398730973
0.28085016663631984
0.7296789422011318
-0.5608883574179769
0.519404717480106
-0.2795947009313671
0.05169546888355026
-0.15627790274174166
0.22835018043031888
-0.5259801528224746
0.32865456483827066
0.6458297318021116
0.09610977946306778
-1.8228917401104974
-0.6809423855188653
-0.8681457835499607
0.3370816782262981
0.5380521510381243
1.2787005374810383
-0.17685619909359976
0.3388103818529802
0.08351028785251342
-0.8750707806821002
-0.39187126831746794
0.12530788065239437
0.016943646806828108
0.13496984549924526
-0.12638900263137043
0.9266978436084274
-0.8293671125099187
0.4301155997677698
0.2937006670291016
0.5118215634821001
-0.5073701789321524
-0.6153107405969643
0.21863735224678044
0.3019487340688107
0.3119292350302959
0.5054513343465225
0.8951016571104581
-0.3400463314013626
-0.0332387437447609
0.03470208261939924
1.544556976116126
-0.9878170850432406
-0.2916770972296648
0.17691750005951562
-0.3668813020284828
-0.00947935874779733
0.6607989429900615
-0.04769417738263822
-0.1617214330076633
-0.5223531599721544
0.2606999373271438
-0.13291324369911148
-0.6509909218272156
0.561921163856832
0.08445055350279988
0.16885473901858386
0.2131852154567609
0.5418270527218306
0.07020998428029707
-0.15708033791054263
-0.2514704990088762
-0.10444597103801789
0.058698839858560545
-0.31481417845096576
0.4595301550937039
0.9469025288516008
-0.038536446286129684
0.5310008431901135
0.6204871551466838
-0.07234691614102381
-0.15928951192688764
0.052052603689995994
0.22948818629442388
-0.03106024088309794
-0.08598910107471419
0.060312846843094715
-0.2647851369539285
-0.14095169513990496
-0.07770372020694594
0.5189874761194279
-0.9249375966783435
0.062044615143601045
-0.87967658246921
0.6356821464408576
-0.5220737324896585
0.6756719057554809
-0.29789408645462995
0.9662250761929458
-0.7253564706258938
-1.1584873508530842
0.1856566997386548
0.4168774330095146
0.35969293866241153
-0.8868408482727199
0.34589927031357476
0.9634187086758987
0.31546926441814566
-0.014512299619904039
0.20720641515576993
1.183016945959325
0.13676315187224827
0.3802363710019114
-0.45826951432530133
-0.7885033975673277
-0.22599124101280907
0.014187311388993231
0.028486622331855598
0.08026369793528312
0.5143348589861961
-0.9431007125814862
-0.38269478142338575
-0.9753810070798413
-0.5744325324470306
-0.46079218352509954
-0.17298314593208897
0.3411172838945578
0.2249719309421192
-0.5382407174146705
0.28240719515543267
0.31892248620854013
-1.0639891973454225
0.22886299251688613
0.37698927277708116
-0.212408254495506
0.2280918327333914
0.673376205937397
0.32023109554211204
-0.08505053135457818
0.19640080631991136
0.9461076366296616
0.6823412287462366
-0.01941082657625586
0.7164499692067857
0.3121154243956438
0.5728402512257542
0.6742761824944874
-0.3338347894268093
-0.16686362958787174
1.0332494507253203
0.5342460639181491
0.22123035529348486
0.8549072320020024
-0.25153122848480114
0.6809183534268461
0.29487995357436186
0.7410553950231169
0.33103621129743166
0.488871689696339
-0.4516971825744084
0.09099313170764482
0.5721515576003626
-0.6955034004474295
1.0387761329412544
0.05557409102674563
-0.05715259230861151
0.1345398563941483
0.8581938661020629
0.7765441682905443
-0.08012588390564435
0.380988555893821
-1.0803230702252475
0.20340816429306066
-0.9831355693781823
-0.37800071005215713
0.9091506900660025
-1.255898894405103
0.42083032349892513
-0.2707365298903498
0.0753920417017628
0.21863413918937036
0.07814718795617266
-0.335424433974832
-0.3865183103960304
-0.15731718379891027
0.7633728574334642
0.3942937056476308
0.2961921593953864
0.7005840508861699
0.5948941231003471
0.7380072772237584
-0.8220485681810733
0.5249653760052397
-0.11416091718870178
-0.31013065346325436
0.11594864801681243
0.08179073770561412
0.4081373882799685
-0.1970412890124844
0.05562995799448201
0.029213715397594934
-0.18876460335087242
-0.31398600681889177
-0.6470421124672104
0.05298225626129455
-0.4580607865536598
-0.8976927577562038
-0.2708091206886243
-0.47843838271807065
0.6607727752191557
0.028298020002175742
-0.95013382738819
0.4127286256471101
0.02208229528362376
-0.7320148460876698
-0.15946734045375396
-0.22732306448676007
-0.16799413653601872
-0.045858756062731584
-1.0673604756943096
-0.3836414770187141
-0.2564416945276823
0.2862538381103815
-0.3862869285022328
-0.184283095093617
0.5258497362361956
0.1530141865686747
-0.13498891513517536
0.3175209256370852
0.11862514380724506
0.29619358061688483
0.3201948951707406
0.46720164591242036
0.4635056109581653
-0.8078908157627812
0.061440700168406824
-0.44620461066071737
0.09351448298888405
-0.7055111164131633
-0.4664265167423616
0.5751406072691545
-0.1543803201951322
0.34305944090601015
0.6197696931831793
0.7388646391648126
0.8197532169234457
-0.04301238260491082
-0.05689018301493299
0.11322736925982671
-0.2919270524951787
-0.27272575930730986
-0.16173970979985344
0.5961658480908548
-0.12697576064220775
0.372862356314274
0.36314293171471224
0.15486367953855024
0.08045301244303023
-0.18208564124850543
-0.08132642079747958
-0.10836758604059707
-0.35079006717110545
-0.44272333049777424
-0.6808459247412182
0.2909513283411453
-0.374907910978681
0.3823428365847607
-0.6400743941740541
-0.17421120962593706
-0.5993778678571619
0.23956839982158773
-0.39398748223101615
-0.17995117003220756
0.04521857122405486
0.5568004475348398
0.07725746832659104
-0.2739006994869154
0.1036734779289747
0.7493682233104934
-0.09010125711545544
0.08096372952543127
-0.41560784520984545
-0.03505920249804423
0.03466390425796645
-0.8788771700441027
0.30301250751113556
0.5462873005988116
-0.25638336796248057
-0.8371851159906109
-0.14366076805218558
0.6716118405730319
0.04319877287538531
0.5347005159133709
-0.43947804079316216
0.31561339516773496
0.07804296410606158
0.33245813721366296
0.5628953883967606
0.40553298573585
0.23371681369539166
-0.20476689875990878
-0.2409040941252502
0.05643823665215214
0.8561594054336231
0.08009984609688073
0.24305145747615892
0.3157136083348181
0.8097876220308525
-0.6872195563548805
0.841169079970035
0.3330966425110982
0.05916471770789093
-0.2566551136062259
0.3816354569230815
-0.22303790564757053
-0.33923426589112016
0.568240922808991
0.12840592289078168
-0.09549476796515549
0.31764480892644187
-0.34249861465890474
-0.0913797782628156
0.3776440466953189
0.6360154006887947
-0.8073151904012471
0.407825685645682
-0.4458795915639166
-0.5831631849498985
0.4397121282809284
0.1097809944248822
-0.2355017724611672
0.07913037612965522
0.4628899044363775
0.35542434924637517
0.4709616303135038
-0.28960550591344153
-0.9173948410441566
-0.9057564344826705
-0.40104199550625796
0.2660521871045389
-1.6932316021998095
0.15216286952331196
0.3909805234501205
-0.42061984241931794
-0.3672714749616623
0.4139607918739974
0.4135043085994872
0.0009941998477098824
-0.3505727815387764
0.5024220131690267
0.24494206211570396
0.2449322744500064
0.17909460334940575
0.5071290469270561
-0.07181653256841337
0.4299531556336144
-0.39015641524357686
-0.7640990642748677
-0.6474866129411319
-0.11504105281764071
0.29739340109137186
-0.2886113039989451
-0.6406244919303855
-0.4723462213447719
-0.5709824604128658
0.17852071416620477
0.34008232184499015
-0.3972130337033765
-0.28823836737153474
0.24782944013086924
0.6236699094808157
0.07533225883840844
-0.701755958055168
-0.04938091991744265
0.5976837656023509
0.0653656663796577
-0.08047527176210367
-0.2187831485521256
-0.24795667690426493
0.5248354932303352
-0.19882180623388804
-0.6177926023329872
0.8605273813602777
0.651272971510386
0.19387985454694062
-0.2117146811437235
-0.0009878110914309855
-0.6184809988896242
-0.7453087497363388
-0.2188570236527933
-0.20764970170947084
0.1021393847050479
-0.4860298577924648
-0.5112228304502989
-0.15618367227331365
-0.18385828725929307
0.33329858430090287
-0.5330080230750203
-0.8350216826116845
0.16878845305463175
-0.15433659639066472
-1.0944978502281633
-0.6993011062954386
-0.03525743212672587
0.32308710546213343
-0.12506442513273525
0.2978406367237423
-0.13699427171653392
1.1113806170997989
-0.01845503576704913
-0.5063487843297709
-0.7746432452990982
-0.3178002246518954
0.07214432755173694
0.1546468474876198
0.023437717948791115
0.6459536699335926
-0.4809987823981464
0.7937981617707468
-0.3528529062151788
-0.3894693448844582
0.42877275190306574
-0.7422525424862959
-0.44480870814871654
-0.44048472405317146
0.2862808155848246
0.46368765888753777
-0.4719390810044558
-0.058201516600576195
0.9447942832386308
-1.5057358441567057
0.23940682558318455
-0.08985451496875398
-0.48759213993195955
-0.2966527313721113
-0.4269600798988043
-0.18513834703230053
0.2727344103741975
-0.1298051313813707
-0.5954796606481647
1.0289333821537725
-0.8236387984285147
0.26743244817410267
0.6248258967867928
0.6154719105694971
0.046639540890002516
-0.4139429599789415
1.821279059635715
-0.4528147483977153
-0.18898918837886053
0.7948918113792854
0.16753221382182806
-0.7784007480202371
-0.11074266162020771
-0.6022599311802076
0.3728821710716095
-0.530429922750263
0.717788314521366
-0.8349370062056881
-0.28171835057389333
-0.009562543071557562
-0.5962985855111119
0.08013101346292334
-0.7440164978713414
0.15520449165344283
0.4412416429991919
0.5838573095734898
-0.2864639141122103
0.7572216408141323
0.13888846463515986
-0.3177206418942486
0.34837260756437466
0.12676393555710402
0.06103650241514785
0.3281339688796303
0.0825826135140377
0.38999480068364073
-0.8190081215727978
-0.01638547560371035
-0.6592750037676373
-0.8079644263185061
-0.063964996901035
-0.5328712286362471
-0.1749544620869392
0.06759965474861528
0.13410446571658777
0.095244029753879
-0.7864612856576059
0.3214144559858314
-0.1690416706476098
-0.3112106373972092
0.4423772945304126
-0.06397591959647693
0.38978747765851457
-0.07301158509824483
1.1716384585704145
-0.9989676990704442
-0.5374224121850066
-0.6465011373879481
-0.006375072410591673
-0.9735158552247468
0.19090771684261004
-0.5560823743322713
0.7909745057913652
0.46155855079740765
-0.06548351457146764
0.1931558544115829
-0.05671357861327491
-0.287206855860076
-0.9286815220540167
-0.21406050864466591
0.10248727281050488
0.6180319629855034
-0.49270778281215577
-0.07403824357477035
-0.06867338552450714
0.03239937979259169
-0.0658463766578617
0.029750224860784633
-0.9710063284054087
-0.2891133570759035
0.002388381667316727
0.5927152735031946
-0.36688574856908923
-0.6312494617804695
-0.6027374856350305
0.2801818948837926
0.4072594460815629
0.10029269327423876
0.7546852345243814
0.26553481009209906
-0.49865263173459146
-0.08625975336872774
-0.01809660803942396
-0.7014698069951358
0.4468853358532883
0.507870501384254
0.03173956324505227
-0.2125766480470963
-0.9825550704534425
0.3078226633942149
-0.5184926735084051
-0.5384374738446523
0.41705303828542606
-0.22775084399327242
0.18667990412626884
0.5121923717159833
0.6736794763203252
0.5492730169296127
0.017765369955259323
-0.9791947199333935
0.5706132916090961
-1.7092595016940182
-0.5885298225679448
-0.2360598090783526
0.11663686301525791
0.09981694298802783
0.03084175645066168
-0.2651169357574759
-0.8154835005917195
-0.7627332676101496
0.6815094951134174
0.2965331912609233
-0.6313121291051297
0.007965059184247645
0.672637460490407
-0.6188466780308605
0.004128740377591615
-0.48160080671812233
-0.6158186256463155
0.38138703023090054
-0.4880757305991392
0.12926176139945753
0.5041828075127994
0.634199659900294
-0.17796730875559577
-0.5716012979932709
0.2464974496063003
-0.019901525592277508
-0.1570001947504676
-0.05541985941344378
-0.1874761792057827
-0.21913498721905814
-1.0376455214705655
-0.045767410819966235
0.0552781154398058
0.16378095982450408
0.5258768466805406
0.7411110976230701
0.9278363715401334
-0.021647225832791817
-1.5245455583980683
0.9743255368913608
0.6927535540297465
0.05539184506748666
-0.4062847620930294
0.39362004704652553
0.5481816001984318
0.32043120772426825
0.3191738912211332
-0.23713165246088475
0.6886237474490869
0.20940885489466035
0.08856062350793062
-0.11813674024392228
0.02531385404538715
-0.19430561348664915
0.2987893186345932
-0.1158179883863667
0.06282023559363738
0.6244555440055144
0.78387208487203
0.10725523790419432
0.30984846259204163
0.1826355708149166
-1.2868948527402848
-0.16861455078273585
-0.6981999818455145
-0.22725546468258406
-0.7836805548879927
-0.32214411378532043
0.5452213242125304
0.6926447309608394
-0.4608460726865773
0.4552059896696715
0.5953413496517
0.5553078162708092
-0.050457675542490095
0.17599695803703985
-0.23984698954665906
0.2954549215466173
-0.4570659688912265
-0.9284591032212496
-0.15098763321595435
0.6578651767636131
-0.3634736165638048
0.11066496468419398
-0.019876982350332494
-0.22274187141574633
-0.4845163121349331
-0.8997235606629715
-0.6851477637772111
-0.6265961739158455
-0.5024830312862392
0.755818206121761
-0.9687668474194829
-0.5921217319971681
-0.22963893248389644
0.0825964387440171
-0.17497349006048746
1.4358326679487423
-0.34540465070456283
-0.8088981635204593
0.004903921706325375
0.0914564034137392
0.14550244699882825
0.015099783659525285
0.46994381918730754
0.7035801025136081
-0.5315162839604011
-0.3831137606857238
-0.13108049814586756
-0.6657925135821844
0.6808959978143073
0.1854013268730549
0.09836849110740341
-0.16276351638902403
0.48444242319397457
-0.16331307875006948
0.662796690787296
-0.693335427995861
0.48059274207957325
0.04247102532271508
-0.5336325919251284
-0.3730284747054678
0.8714514144157882
0.1811904132231246
-0.545598023540378
0.4385701993128546
0.036135037694502235
0.7875080742772116
-0.569396861682455
0.2666093809244299
-0.8266413704510437
0.6691907422609442
0.5532297616249423
-0.10529392133005011
0.3195832324918001
-0.6301215049291803
0.253265247432896
0.5720245781072266
0.2310316546756245
-0.07930522408578486
0.05823733505183733
-1.0568565527602454
0.6069534696222243
-0.15715979853141931
0.09038982787070908
0.03081330310204701
-0.7905444344941746
0.3002494273923388
-0.9034608970371187
-0.5020344382627592
0.7818464857299166
0.260515593301994
-0.10210681536791333
0.37146679104533076
-0.4200782695555926
-0.07780371554885074
0.03578541361744728
-0.18677023763305853
0.02502896039394185
-0.2359377566253647
-0.4037942618364
-0.21354271998690583
0.5699632081138851
0.6933553576293965
-0.824273920136311
-0.1460459131999924
0.8551597586958336
0.6439394820845301
0.35076037978063057
0.23130983904660815
-1.4392634870576198
0.4480817046162968
-0.6775146854890004
0.17695440077229316
0.11169179433492495
-0.04460247959046106
-0.29147001689361945
-1.5599568468505456
0.019156739801590453
-0.5961788245429926
0.16175676315870732
-0.6892255084474922
-0.5331815927794104
0.9122235261862844
0.5571732676499701
-0.12479138821242111
-0.29310710182524624
0.37724543934749605
0.17513104907190014
0.4125577887485191
1.2859220586351883
0.25071902823199416
-0.44492250377920023
-1.037575781738216
0.6136960833298399
0.3820082608726854
-0.39599539254283517
0.03149591143527931
0.8019927609940637
-0.11430811478851557
1.1659315190881976
0.24141293364702143
0.04646358635201792
-0.9421406391414086
0.4254626371202902
-0.09774524869746204
0.6432309868790185
0.5769250199658704
-0.42011505459567117
0.1939373073219298
-0.22039261529947107
0.2585508854824625
0.2932134853787903
-0.20755711034430047
-0.21334834864081598
-0.45464708812633614
-0.0632827705539049
-0.7802318633368593
-0.2654094917317184
-0.4707780579464072
0.01170813073219103
0.3745165284974613
0.346984246971242
-0.3304206378859202
0.6684609632412137
0.26834291726455767
-0.19960929189139065
0.7095930512301007
0.4467480342082129
-0.33788938042868016
1.0296265182628506
-0.5184385359199997
0.4792763918259863
0.039704435367804
0.40024087432122085
-0.12347863162225542
-0.20238167414263947
0.3978720068689844
0.0983090571114472
0.31522572740878957
-0.351698430188045
-0.11543142632432356
-0.6619882431959014
-0.1261182056311669
0.2067608461765181
-0.2596969284772802
-0.2131160572862388
-0.41502567815697866
0.7505022448565085
-0.1256831322801944
0.16834065374327672
0.638607222445905
-0.19996952823859282
-0.1333004650165509
0.8588543225894278
0.1762902639734338
0.2736135949024515
-0.15053303895531128
-0.13307367386275568
0.5289604026410669
0.9860202118475389
0.4551512593781164
0.24429128155820531
-0.3203545501034516
-0.563093773220865
-0.6554294381200058
0.25997320306185917
-0.31599182897138334
-0.32606731205369777
-0.05402662616722697
0.33757288899597115
-0.6901394162006452
-0.2723587147189034
0.4429798155632363
0.8776116108289052
-0.5481542054100612
0.14982616326849044
-0.9874455587305669
0.5222119487355337
-0.3067117337670084
0.5294563594618188
-0.7322851325855692
-0.6874235716267039
-0.2682882705931116
-0.6064571118059487
1.0890784000007803
0.4352133355473504
-0.49551161275745365
-0.24374324925753518
0.2476754411146304
-0.5040422164871745
-0.5006295410488957
0.4718524424526408
-0.16505108473607105
0.3683154150362027
0.025233609229499097
-0.46336792293153845
0.8907452975765159
0.4456752563974472
0.5820582359704528
0.25598212875273957
-0.2859846313764979
-0.00441412450722901
0.031362117998734576
-0.6024642562996047
-0.08091684497864443
0.10957823404875766
0.18604975050280292
0.014889000358022366
0.46096249576294807
-0.08793286175772284
-0.00331932710884252
0.20492020512186745
0.21215173285598168
0.9648626410429512
-0.4423980413529611
0.02909051574841718
-0.046497376920032814
0.09743003730916101
-0.560593040641178
0.45758151722438395
0.6176607914742746
0.34433270279686234
0.1470225762171419
0.8518841892334206
0.807447337638184
-0.23250707268104143
-0.2196626112807846
-0.4591379459463738
1.0329599594661951
-0.9242986153805496
-0.2063247053988436
0.26881674198021155
-0.1707642891353364
0.03192867340325027
-0.1007052772233629
0.350309753631541
-0.16791461324655407
0.5201675233552949
-0.4119291162919642
-0.14208178747346367
0.44002456874952317
-0.915024712664133
0.04143925195021266
-0.32402923694457547
-0.4119327295415516
-0.011570832645197517
-0.39298301248913914
-0.19780932072480534
0.21933489809101206
0.508364008246961
-0.2698559935322256
-0.22072573213548602
-0.8317938948164814
-0.30552497558058583
0.6386984955366255
-0.37768830987290675
-0.2831170160143793
0.16519136665184117
-0.2297010734502601
-0.3398869320526647
0.3944417061270408
-0.12809159976521603
-0.6144380931951154
0.8005207299612922
0.16104460032007062
-0.3299603941839483
-0.0076296810715634315
-0.6901865747482032
-1.1181373609157743
-0.8520931484723219
0.42586770212861763
-0.3025816277804613
0.6959879434692099
-0.054736951582908235
0.11831151162131803
0.14572232284016562
0.7597926878434267
-0.4620687259463384
-1.1626324485959736
0.4721862666377841
-0.5224148318713597
-0.3269587768728782
-0.7466086001500881
0.8854531612115516
-0.5838438692479049
0.6014210655147496
-0.13810608602431038
-0.6210267052911524
0.7648028348627869
0.6266132217141513
-0.42773394626712846
-1.0634685020857721
0.18437653660736955
-0.6758342007467045
0.3920986479335509
1.195269706024014
-0.24905849068147712
0.1723813039341804
-0.02543951386007525
-0.2560593181355063
0.3848530209846483
0.20913938403537943
0.37759317571297024
-0.3074309409470779
0.1898021405250797
0.1804353160303117
0.08570645968983949
1.2351310903637396
-0.38346565537695193
-0.10849727711591563
1.0995351717143846
-0.017023117940867777
0.16621187481667488
0.012918143394899849
-0.0627129834915603
-0.3861194624844802
0.40117760458640056
0.744230194322306
-0.49121949411339216
0.6434590675173938
0.005336666974600148
0.09836460942974186
0.5649468261057363
-0.14309987316198886
-0.19889868232923513
0.8372582021841335
0.11165206424529876
0.7915808991998579
0.11809670545400758
-0.5035379942424383
0.33013820674632105
0.6984368518944708
-0.10155066035267288
-0.31391244402081897
0.8448764122492396
0.19690125160895655
0.4289408229332713
-0.6275817080081426
0.11657885360224941
0.017046819698838724
-0.05074321415338354
-0.6959713273642845
-0.1273225830048102
-0.04584014100456071
0.15906962914163478
0.18319424870463774
-0.7521825374868817
-0.18638538060753299
0.15706371371601546
-0.6126670095924766
0.1472499156885898
0.27853728536786326
-0.31062107696652735
0.6610057422842176
0.7752215168335468
0.6138519732713583
-0.24898034069729458
-0.11129391022096295
0.037062994966751084
-0.24383738619399783
0.15957859761569174
-0.1341948226612269
0.8200749667069991
-0.23431520064355818
2.1070873439824394
-0.3557001659241923
0.41417104048118597
-0.09123012126940203
0.3127476156400916
0.10005894155546727
0.14658251966459912
0.0005596927260667138
0.08061218446500686
-0.5546560673251218
0.13150817484056748
-1.1036106022932208
-0.1152136540015293
0.9016406322351471
-0.4292384870184344
0.3289135514251769
-0.54785576211804
-0.19768396172913108
-0.5051890485289099
0.3680985399724553
-0.14030299644462052
0.1507415214739479
-0.2898379424421241
0.35366502528064797
-0.5739720183092842
-0.6469279144612874
0.03686838505317609
-0.2688111157176179
-0.14885796270288776
0.11265331374595289
-0.5327080484790231
0.20930634101978024
1.4146236551836868
-0.49027433297571266
0.12737249872960207
-0.44407828070672695
0.4136231259465052
0.3932579498421427
-0.2370354586244037
0.011231836813318893
-0.18730850715829048
-0.12722900434356735
-0.6304450094671332
-0.09209581767950548
0.5307781609490891
-0.47109703621897253
0.8194746941322766
-0.3289648666901182
-0.2661204257796234
0.08134012053876555
-0.7077664171165635
-0.5188956765772718
0.1872535126168318
0.32817204730880545
-0.40136961452145914
0.7777024725242075
-0.827655310336449
0.49712633888463376
-0.41487036107136926
-0.14390490027362707
0.18719313661620657
-0.8754473518705208
0.42099722029016384
-0.810445261475586
0.2287129125056724
0.7412774075239438
0.11241411085441122
0.8713143377392568
0.5021131871682037
0.1306242382586735
-0.14628193939990886
0.30109054084737014
-0.7684456419392306
0.6739523984343397
-0.2997107461487726
-0.18622856322079057
0.14759262566746653
0.5554427434641614
0.8808038666883049
0.002917777182993341
1.0812239365626948
-0.40495007348785417
-0.6108470239851435
-0.2464328277726036
0.14177084691900468
0.6611770025602145
-1.0431812890460737
-0.21345099896831218
0.05499895159387673
0.36856023106209457
0.23333142206184607
-0.415815861970194
0.04050408939452161
0.6223494063800947
0.07641653205094179
-0.13507302652261907
0.11671315346193957
0.2406653419753331
0.2905913232555251
-0.5622975193116768
-0.13714230684936224
-0.3988828617659136
-0.07321367417780748
0.188550646363697
-0.0640601150810759
0.2464847350089988
0.4734698998270024
0.4632716652499606
-0.18350749866237182
0.6836854510851407
-0.2805892733257527
-0.7463360583084828
0.22797707704326448
-0.8278442560314204
0.18701813570084488
0.9863337871382966
-0.3285756483694922
0.6861510489701435
-0.2687288273392017
-0.5765161461262576
-0.08606018050770499
0.24582694800647117
-0.503011825308245
0.019484185439488072
-0.5293115052275469
0.14499608106774478
-0.5628428567309606
-0.40100136377385404
0.38625929957441457
-0.7832943678249299
-0.5961086159689466
-0.42140032615316736
0.7272820493108294
-0.14069389160208354
0.7844439019030244
-0.20440545484580816
0.0717641299508613
-0.03027808559486718
-0.15669183093364544
-1.5368123313268416
-0.22911228370744752
-0.287933645364626
-0.23194969850970829
-0.22662201321251077
-0.22777037877560025
-0.33998324939943875
0.49051763915216934
0.2681876711289403
0.5378106260964627
1.1547112746335104
-0.05042317602790904
0.14719128714066032
-0.22826221927918422
-0.08408764157544277
-0.04570181057668653
0.31889999846631006
-0.3223696397937396
0.32555690698915507
0.07039836044778605
0.5101722368028216
0.3320288765158806
0.8007169680709137
-0.13684796505614033
-0.18641334364973525
-0.46494581490942694
0.24304283644978406
-0.03265030158419142
-0.013865746932675704
-0.5833165178136033
0.027142485893467395
-0.03874031302585953
0.16687479546114156
-0.19358319928908743
-0.030693056710232487
0.1038876145821993
0.800818417973773
-1.3743072165564498
-0.1860955516463054
-0.9914687929932114
0.12826177126317698
-0.4659762410578598
-0.05164631325318586
-0.6616157544316215
0.11062849019882474
0.29920894895947414
-1.2199906161237526
-0.7928752373989867
-0.24851460169182985
-0.36938093415640993
-0.30402799023434796
0.79777834075285
0.056540780355176117
-0.46416418405386695
-0.1684047735544484
0.05947993079511437
0.590047758606039
-0.352626865392305
-0.4283859435729305
-0.6661920250323592
-0.12364895737456814
0.9819681244572983
1.180713701320354
-0.4718769838612246
-0.08268597035388663
0.317372293349112
0.05152219044832093
-0.18597286623580098
0.12868454666407467
0.541834108459402
-0.7747627617693399
-0.4059066418591397
0.05490191749103837
-0.625461866779765
-0.09404026119926838
-0.5859477474968624
0.030431779638224257
-0.9728576554181688
-0.7716690998336629
0.776109471962363
0.5694422957925618
-0.124767288647776
-0.2838012926100339
-0.7353990862615701
0.13086263030531797
0.6357008524454237
-0.009569311560979643
-0.4817230901837855
-0.3512210723352372
-0.21330388406825967
-0.1886921976995622
-0.0527679224602393
0.16636522454568367
-0.27051816178941057
-0.22714013800674712
-0.44934849482259126
0.7167250230413877
0.7485584109951967
-0.5094873270792819
0.21372894013010252
0.0919591410605825
0.23961868689628305
0.2768208698149361
0.36684009666210227
-0.5138710031798369
0.2875297619995803
0.8488017262890447
-0.24515198083579626
-0.4686631689702195
-0.29914425587410653
-1.3185777176789493
-0.44178671267428143
-0.8305935094788349
0.23923348405105432
-0.9077882532863296
-0.4945716675148926
-1.2301220560723614
-2.8476609094261552e-05
-1.1584032613846273
0.07164177158649947
-0.1523569745779771
0.8127536925758576
0.5199365438529083
-1.292731206154449
0.18268070417456572
0.10303279161566017
0.17860953190835577
-0.16905230101355836
1.3288418244373512
0.07903502115876448
-0.18215829784944687
-0.49954143187299244
-0.4434925533289998
0.47084283450995174
0.5212546448415285
-0.38073138860699457
0.2824441568555651
0.02997511680879703
0.9756830342896191
0.3171783167931274
-0.7509386748223593
-0.8200022598738435
-0.6049033654515141
0.6644025157686445
-0.6336319791580458
-0.3386121864054535
0.6391960832238355
-0.3982219462828033
0.43127939597991105
-0.21781415765942017
0.7537508603728763
-0.5950302806205277
0.24125777806088608
-0.24555070657804592
-0.6302319586036187
0.8197140973485374
-0.9719193539850725
0.2790465157958626
-1.025239619437438
0.9630420853680451
-0.18266340248524615
-0.7221138340596253
0.6486877029126593
-0.38223169078801006
-0.3933790892208244
-0.3037429980728563
-0.6613047059528169
0.1653931931600018
0.8492755100190399
-0.5805152162243251
0.24511039548406793
-0.1514074501146902
-0.25741237278970985
0.2513228162280387
0.07141623426212922
-0.04512685091696453
0.33181281077873465
-0.35076271970671574
0.7460036965035045
0.7595719199260146
-0.827299423618485
0.2352853362156704
0.934836413481933
0.8685358947129291
0.6920995859882894
-0.16515649502994606
-0.7350234898611544
-0.2580599863565554
0.18485415455716353
0.41018054539013754
0.8960803285409369
0.14750704709747395
-0.1610565143160012
-0.16534172328255686
-0.4147470761940825
0.5858919689427812
-0.3469523745983761
0.7875519248465507
-0.2574380978614742
1.2805623305329206
-0.3165823821381547
0.30617543252851903
-0.3969403441519664
0.1025640641540856
-0.2775122034429536
-0.6834061077175989
0.16635916457045105
-0.7418730237799886
-0.18707809120696747
-0.24240841608838004
0.5200457524126817
-0.05059587109939293
-0.26388917662904726
0.2244266771178697
0.07440140345091262
0.05061892680512842
0.018068096595765765
-0.056086834416800305
-0.8780999990142613
0.956798862833279
-0.5883569266943722
0.10973546890779864
0.1027330305978368
-0.055442026308172535
-0.8869859563863374
0.08550763705911853
0.9298379208715852
0.11623307514678788
-0.3398657431158704
0.48307698939560545
-0.2878721897739158
-0.024320284767202202
-0.007131412525566912
-0.2355091177536787
0.06240932813865448
-0.07919580727038962
0.16854171133137116
-0.6325311396868533
0.20231904532085795
-0.4407885947884611
0.49786293864446246
-0.8392490449770281
-0.01058571353811711
0.5934535022588225
-0.005930871846245621
0.38650814067215966
-0.031375891370748955
-0.34499843368079475
0.9266391797108311
-0.10673971773789512
-0.766108500340921
0.39358985060121254
-0.16810923082064994
0.027814720397570176
-0.025852174167515108
0.46993542617727124
0.06530957689826745
-0.055682679824244616
0.05370420269945851
0.36121438143351153
0.1286697117642147
-0.28184147182086106
0.15469185738939903
-0.05059161265957144
0.09718244971618951
-0.3202181268823722
1.0707711745862836
-0.17358896302751334
0.18633145558437456
-0.3765638301976255
0.6004436482683199
0.7311136271036703
-0.3075892235916943
-0.45445651991172636
0.2237321776604411
0.0691725595503044
0.2207177588620543
0.3648839462290784
-0.12815474227924312
0.17721249758102503
-0.7073068269035427
0.04441860172094973
-0.9563966086133524
-1.1848392883829508
0.011368363684068622
0.05091701407994832
-0.39990703595929783
-0.38153260303607234
0.639472136265153
0.4394666400245594
0.2060540835890653
-0.9183415895489287
0.22756348342365265
-0.36415034799330226
0.7589291543204758
-0.723274743238708
1.0046810759444182
0.4735918121380042
0.8744335655622517
-0.14387640516597586
0.9261537975217156
0.5246252306376937
-0.965520067951751
-0.07746888067334601
-0.2891362242602042
0.4037435982569504
0.010970008868284717
-0.37388891473636315
-0.4305519442892426
-0.34146009054300497
0.19591726358949596
-0.4589743352048392
-0.48621560716215906
0.3855988347847775
0.44566241317795785
0.4456985239345964
-0.3503744883355509
-0.6748831918346575
-0.3268990763782885
0.45758675191767423
-0.39680801959846057
0.8225433073021129
-0.10344760669933896
0.4531483902630999
-0.23326402167509616
-0.1771121327143617
0.1532580639824066
0.6245810819661509
-0.6319586938573032
-0.2968661723904089
-0.16757928665617597
0.6262243724836448
-0.06444280218030986
-0.3083917414830273
-0.5627818297184471
-0.17851041825402228
-0.3710739380796569
-0.49987024422475973
-0.35118772532379827
-0.41822430154211204
-0.3747807803069824
-0.23994815949134046
0.4936411319738817
-0.11150813074084205
0.1507561785915758
0.2398482670022624
-0.7502129835802479
-0.9024711971423499
0.18515288934072413
0.36411569370706837
-0.014781004060166974
0.7524188640603623
-0.566748032167321
-0.32745370764180726
-0.14977156094643582
0.036165937230711084
0.5810666520179062
0.964768356993174
0.4004574534160376
-0.055840469656876494
0.09133495836288628
0.6428667221625044
-0.06607443556066071
-0.6043947247118744
0.8640686885642107
0.16124616097454758
-0.7217444926391686
-0.4921746807333247
-0.11031777077311093
-0.5799053266632735
0.08242716903519379
-0.7056638910161371
0.3071319327251573
0.4486941426484578
0.5351169397257489
0.3993555251179383
0.5931235271408671
-0.14886612478251332
0.16019965879477244
-0.05647850805031106
0.37720089283486913
-0.09451359846248529
-0.36508542531674015
0.1214112650895541
0.2652237487312242
-0.04323780324171965
0.0659320946868678
0.12082655704507177
1.0039214285782398
-0.8363232321264663
0.48944123282683805
-0.19925238965425437
0.5027212182057029
0.8876365302246869
-0.901393829152753
0.090622350391413
0.4865237790082165
0.43591892251530934
-0.13801625158613182
-0.3822191588220418
-0.7559528228170377
0.6171619820053703
-0.44018577426321165
0.28897999357838056
0.3824490380458915
1.004953247915454
0.2940473864871238
0.25550515736152374
-0.5669588848187646
-0.5002144279482942
-0.36683731432255134
-1.0861594441941549
-0.07058131704735816
-0.2317763677066186
-0.3935236688440755
-0.686896254522432
0.8936086514125284
0.3221218988194916
0.2346525862314668
-0.3156271016672442
0.5768040676445734
0.289984119500413
0.7966018858271877
0.47001325295635094
0.5077266166783684
0.5303606200362694
0.4959982750298808
0.3034954183059943
-0.06835531878283595
0.21554302609706763
0.4162208602361586
0.9132095641797372
-0.08895986082295125
-0.029134286940945806
0.46692691855384033
-0.7778264077343535
-0.09088349648211931
-0.38305731554717476
0.3511929299300195
0.810988109776709
0.08362501855634129
-0.20575114310535525
-0.06808533470937159
-0.5159579694207344
-0.5570740381446835
0.3825129658355268
1.346701266891292
0.2327933103913532
0.9263765604941284
0.35244952132037405
-0.8920854380625719
0.11909425637127677
-0.1297918467951705
0.04190306291901907
0.6966936898507092
-0.5163351983791318
0.35572170213839704
-0.5801106804903788
0.6433079795994553
-0.4023359836642002
0.3732171358088682
-0.17150246651958434
0.01336278913965918
0.18844737918111437
0.5525325060780948
-0.08396581281737155
0.013089694233483624
-1.004810717927602
0.6488617240358352
0.26546725088039574
0.05111525260679784
0.7603743099355935
-0.8652433373254668
0.17459595063648664
0.49432911936581336
-0.1440684969607144
-0.37552615747569734
-0.009209492635090907
-0.6710201431057427
0.8040431017605271
0.9619341374489039
0.7472524455729581
0.344423315183303
0.19276967323920072
1.0012174619357157
0.10500938459648076
0.28827165629731916
0.10746943467065319
-0.16685250557242373
0.7923825467824325
0.9013602539668419
-1.0132763344390576
-0.16625006081471944
-0.5039893306363767
0.5667000241871537
-0.683008474803903
-0.45053418727121824
-0.9043578175602044
-0.7284163639565088
0.767370974406406
0.14577936798726823
-0.5736665884163927
-0.17767009800261044
0.35610052909452217
-0.40712641258768445
0.5687266391944668
0.09564671878324649
-0.04670023633940545
-0.11453438267452955
-0.06779074500249792
0.33248238780134265
-0.30315113644990765
-0.354634759399666
-0.2069688207867643
0.02973588067153329
0.44974322551722234
0.34406455787881024
0.8695252755001216
-0.3629459222223292
-1.0409581410984687
-0.14291832655169895
0.7719473130945125
-0.11043228902615702
-0.11617912496566962
-0.2980728334950664
0.3601065409319333
-0.6302396205519313
-0.2797479980799299
0.24965900038334907
1.048117264899405
-0.008378317734758403
-0.2917723479302927
1.0658557090996705
-1.144666199658153
0.7989469518661495
-0.3543089880256096
-0.3895400402639297
-0.13508131422032607
0.2615680366838914
-0.5729236002708107
-0.16960811853669436
-0.5985562279879744
1.1812717706359013
-1.320614188456247
-0.01723440650328048
0.1416901193185853
0.2823935320232591
-0.12425558508998942
-0.19249179192726482
-0.6566073382696589
0.35412134035944604
0.8417626464959719
0.051622740538905115
-0.7690169622704862
-0.2345266280654572
-0.7768961712499611
0.4539069844396654
0.4959054381082312
0.4168736369284278
-0.7970788912701962
0.25755031113294574
0.12624158863277507
0.12305348051880996
-0.10477070145175299
-0.08806235218134426
-0.9916691728737509
0.7856944722824668
0.3133125707793106
-0.010161158590943326
-0.018632834615069212
-0.56944007126137
-0.11748688591831072
0.09420578504864818
-0.10760096781258117
-0.2572103206921426
-0.6367676164560627
0.012443354740462056
0.20560974840101018
-0.39904344650445583
-0.8088732848188762
0.3023824447675363
-1.0059348832354365
-0.6963662080822304
-0.416832516078838
-0.532813962916214
0.043057934325630424
0.5041392382428959
0.20628965117648296
0.020689502259010364
0.05883962536749702
-0.5845112342431347
-0.16052954251308602
-0.2696903217652595
0.2616326923182212
0.612747366479208
0.5637773088815438
-0.6603561668738076
-0.1376322922706269
-0.3393224352715687
0.11786879895388064
0.4407163386961796
0.07548966067217833
-0.08225439458905791
-0.20564524899215755
-0.063290282495961
-0.465231347698227
0.26228227408136784
-0.06813086939199821
0.2596607824042835
-0.8913685019798367
-0.17564236928841886
-0.07919928605938781
0.02154435258656734
-0.0357553517094749
-0.7480826819859112
-0.6505815366258824
0.004970070680000613
-0.3049703268902862
0.07065495577688367
0.08570353214887677
-0.08073921821700314
0.07710791314581464
-0.0017914291668270153
0.0049715186193298585
-1.2912230280602677
0.3678216122521725
1.044974092016574
0.11884610010026617
0.20330546607685354
0.58627069687388
-0.11603586035766186
-0.3040003835318272
0.056058202112478056
-0.34009716697020337
-0.2955415478198801
-0.8446665699362245
-0.4623058034696741
-0.17593578495489137
0.8510059120638831
0.0450468713117197
-0.2633487472598408
-0.7205983826431507
0.45811845743935986
1.2687724819275545
-0.3670604992402214
0.32485083999037395
0.44217808044242607
0.05473612671697202
-0.15743241817540296
-0.48123164992197326
0.3057272281881263
-0.4149724992717978
0.45230458758193554
0.1513445671949339
0.10268608047274287
0.1767884581152697
-0.45856527347168136
0.06630153183683542
0.12872529769830315
0.5965194218730888
-0.4439604210364551
-0.9410484598496324
-0.10384369699448495
0.6906584955816293
0.22237209009346687
0.5461103250623194
0.5853536021477118
0.43193803151691457
-0.8745663134680673
0.6604254949517147
-0.1573729656268284
-0.2880947930443639
-0.33723681351233287
-0.6681367822353772
-0.26328290406207416
1.265728144342105
0.13569819441031353
0.09919604394418899
0.3462858739822382
1.0951052240768613
-0.12047254948613678
-0.004093144361723768
-0.027329617932617217
-0.11219585473133711
0.7171760628179862
-0.14582493873026228
-0.1380000381179957
-0.036615170878067906
0.2458251688676584
0.26334021173234895
0.8117581372927453
-1.237069317543947
0.3666010060971392
-0.4348602528191255
-0.2675540172379358
0.6007328893242149
-0.5050915956709968
0.6047624745707035
0.21660542649067624
1.0502049360589354
0.10677057882734532
0.29682623603369934
0.6150670052362092
-0.1568870566831126
-0.19602503112811454
0.02686304414351998
0.10745656237844249
-0.07367051795234787
-0.5910716389494435
0.39141876308311097
0.050312835168347225
1.4170364944492517
0.4582217426523304
-0.8732337700524303
-0.04068729803852251
0.48863741975273317
-0.55181817650038
0.3372629485816733
0.6570231241299451
-0.8932375301481166
0.4318787513584547
-0.20511177429431277
0.5912476286858979
0.49386608684567385
0.3398994235657397
-0.8635938848512048
0.2660073618512817
1.2686104374614158
-0.394860346326225
0.9500948279832369
0.1803849473475837
0.12560941852949203
-0.4709897602581411
0.14869749352206027
0.4745276633900784
-0.49383809341134355
0.8025944582499108
0.10441336418366004
0.6282987590637762
-0.2205614899955531
0.6606065751924076
0.129485095464719
-0.4442762021261532
0.6018421522924804
0.09667235759099685
0.5658631026886085
0.06798913932707111
0.020278984405736833
-0.5947723528229744
-0.3739088720235195
-0.48906704957541836
0.5025849017379044
0.5971387508981003
-0.30908798551225425
0.3866188951912746
0.11422630651353555
0.2974233408150893
1.1525580156681055
0.6422163085925117
-0.9982453373263446
-0.2600137710722686
0.5314474398532466
0.6291280120718673
0.2290831354315928
-0.1594173961290327
0.4519831314334021
0.8896257333981453
-0.52084326741733
-0.06847441369202749
0.16252561251691044
0.9179176372576553
-0.2513011861310634
0.6229650826575628
-0.0852821243739384
-0.12628199268467727
-0.2093839329304418
-0.0775614096479804
-0.18260626300194702
0.0007244607016151594
0.04939229710227374
-0.19183099027657421
-0.9329664927494553
0.015880797460356377
-0.3193587962630512
-0.48375267855049675
0.07550667028678351
-0.17436926576368286
-0.21554988172018846
0.3514893327108606
-0.7377408770363195
0.7625091362655477
-0.43506460428780813
0.8210121765249212
0.15413608718290137
0.8292867895730556
0.5142825086866534
-0.5957439861698476
-0.49279201843326076
-0.07997794303631714
0.31513425341470025
-0.1393429918562593
0.7376238084508866
1.0332188794266761
-0.11285679679783654
-0.2239626502718979
0.2043585049557406
0.4307573071496225
0.5828147689654979
0.024679391310237195
0.2040093880632492
0.0021398299276854105
-0.020221766278527044
0.25131759182886954
0.5474763012625514
0.19776745193953857
-0.4202611886818853
1.000120996524053
-0.030146062300615575
-0.5378118160766335
0.6699287883903325
0.6162510886858857
0.5851508242678648
0.20092863464506058
-0.35851008411140695
0.3214742570172595
-0.8149462406084663
0.3619492722627229
0.17574479964699147
-0.3611034814318133
0.5573091865411076
-0.4725642135707395
0.23144079731812867
0.8698148160499865
0.31011560049556436
0.5453347959518675
0.2476889625899613
0.674592741672693
0.10140815545484105
-0.2959088059400848
0.6807863598340693
-0.26932982075769896
-1.1968224332585597
0.07571820047930482
-0.6527343776574287
0.3921777154923512
0.1020005094120665
1.320943051050355
0.6838315429167757
0.08894307672776378
-0.2643203531684674
0.355273475213398
-0.3105303152906687
0.07598217684933047
0.03847829296960717
0.7601407956137104
-0.18318285905506423
0.7446124857466152
0.22129841724811913
0.07700906523798479
-0.41057968449770155
-0.2472712089084363
0.34322815707491244
0.08018844804914549
0.6322210903403209
-0.1154217234562836
-0.3570189344742175
0.13496959354638272
0.1460021483081465
-0.6155368362758485
-0.44172463502423986
-0.1402950928073591
0.7771401039012761
0.04093906618926599
0.09475080077627661
0.06991553554039695
0.8577116060228402
0.016257646379535952
-0.20062869315143012
0.45626319593880565
-0.7554410661542516
0.539996012338023
-0.19353246168038302
0.2751326247115168
-1.3631706583655543
0.4876663746716932
-0.5567100559775019
-0.13234081690436975
0.3664388810163706
0.21565069823999675
-1.2082854092955067
-0.5657244336003407
0.30849843821703
-0.2545217036712416
-0.050169014159035796
-0.8760224868229435
-0.5813667508235412
0.3004234881365659
0.31763509612289276
0.6364484806242034
-0.5450113991527694
0.45792063574278974
-0.22071570814917366
0.39794141096943036
0.24227020384273945
-0.09230899092824915
0.04786005717511521
0.5461621079039597
-0.6926067118427869
0.23113368942702833
0.19511363252055156
-0.4089640408301681
-0.05660169047325414
0.055173644656991386
0.038975152001664334
0.1363682155940151
-0.6147521989523387
-0.25377491122180423
-0.21865754506449936
0.6222461442344112
-0.22725970141138843
0.15163637532729227
-0.6796252534628718
-0.2818628155298144
-0.07457500150721044
-0.26355604881714095
-0.2681954963808288
1.10329238732316
-0.4211086418782285
-0.23312157488355104
-0.8084016307587218
-0.14798343336948008
0.6782229598275881
0.42722756247049637
-0.405989040867953
0.7471552218738958
-0.9028924741828018
-0.03891558213245138
0.11401432302907236
0.537821947114029
0.028633784934809205
-0.28215150578336884
0.24913790427648444
0.236441740282832
0.21205360974131912
-0.12384468904820657
-0.2976680206220737
-0.3840784509449571
-0.08870900625925217
0.37248679777608174
-0.05984366844905014
-0.5079601477870754
-0.06818214125493152
-0.8058417852360936
0.0615858736651079
0.4625897052826794
-0.7351559512448562
-0.13873387213025884
-0.22301695594823087
0.35929237355277754
0.3697729462858582
0.2931690773971227
0.41101212585657576
0.07896613581355712
-0.8820200229524563
0.3054465073135521
0.14079490706515516
1.3091691878201552
-0.33223376752373757
0.06280597204897877
-0.4579206201067687
-0.6585283014569724
-0.11513864843072423
-0.535098142265674
0.13385629919043496
-0.8711018312207459
-1.1941912545898739
-0.39983327148988956
0.12863451768925965
-0.09935254191890214
-0.8991186840904566
-0.5972500405786956
-0.017977206825470333
0.31575299881593466
-0.088776828671905
0.6076126361267877
0.041824471173665785
0.3480647784800677
0.13088005424401875
-0.2826823069261015
-1.0534319811637964
-0.09916771650079498
-0.021531325337122435
-0.23631812966840246
0.1126193033766397
0.9912050112113953
-0.4749644864483811
-0.4967816297739341
-0.022850600434510808
-0.2319227465754453
-0.11716741392629239
0.00364258375539183
-0.15812021703194565
0.17525905534463987
0.10169381409284475
-0.30646363244221636
-0.5947573731407334
-0.00020532310277094628
-0.22660730331793752
0.014937217518567318
-0.7526687892388234
0.5432713693577993
-0.2961595805077661
0.8159848083177084
-0.5780180293190657
-0.030405349090126314
0.08604570179911614
0.7737954081963958
0.7894352081458228
-0.14374701178029847
-0.17039037329008166
0.7287062085327378
0.7370809470260739
-0.13832717169879355
-0.07343176382642091
0.4165373064895732
-0.3984394433957899
0.5992935944188738
1.1243598713751326
0.5720095033937086
0.33917048098270514
-0.2789501674872982
-0.03673929491033277
0.25210472458320543
0.6970017800806112
-0.14824766191730923
0.013579371457915075
-0.05208090549465159
0.014905488895948584
-0.8375783807153938
-0.28853875857851036
-0.17590211785527185
0.0970183571286913
-0.3872147491675514
-0.32370679915895645
0.17713756302560202
0.29530858206826205
0.5419346047460828
-0.1431531364618168
0.8979959959119729
0.7967983277647049
-0.27580953300372707
-0.10285468300049405
0.44824039949833244
-0.9144612170390118
-0.4318859478352701
0.01992902701897304
0.6599591592961744
-0.3975167089368674
0.0007988311492104846
0.4025040102303027
-0.40451672989683873
0.6706999110389644
-0.5102968862966312
0.1494567474738998
-0.016765636057050552
0.398015750203072
-1.1849673477982758
-0.7746543820427887
0.3577303665209281
0.023801045801518605
0.46797559857537824
0.6389727845512264
-0.316160934312602
0.3611100774196467
0.5210013939224197
-0.2769007199520929
-0.674522234424259
0.26465772490858697
-0.25364699720972606
0.32609957554193003
-1.1117720834063964
-0.2952220869831823
0.38263557336651355
-0.23491282845121375
0.15592709850481634
-0.4613785091151526
0.7731830724580901
0.0779081526000074
-0.23931787423083634
-0.7317806791255206
-0.9030673755359186
-0.8431976376581021
-0.8270804804919653
0.7073209728202334
0.3085478464877137
0.5273552891117498
0.36424287385981385
0.6243572222623622
-0.10017014540732258
-0.47695850158388126
0.11456786298520392
0.35433945329155786
-0.5140337734988207
-0.9816134933455101
0.6026810938551436
0.7227646238340666
-0.9058157517210829
0.7024707608958396
-0.45730565799816614
-0.013222408769781466
0.0782937390222227
0.24354389457399334
0.6762152259322999
-0.3459727847024011
-0.27778622970618533
-0.1309864309528577
0.9039181510848064
0.25190233122891875
0.24118248957427807
-0.01077045648344193
-0.5435925882021091
-0.026769618111888122
0.7304849713271686
0.4302207620568358
-0.6018471050025546
-0.1366299209849165
0.4867263863164678
0.21786232074450915
-0.6786742343566015
0.3519434963615054
0.49979958987276235
0.2689276616941265
0.2492308146410428
0.8901550312550462
1.1818318117586302
-0.01443057296096679
0.02935983109891725
0.41441104176164845
0.0497994989662647
0.028823569876262146
0.3915512729962461
0.12039687339289641
0.3017172123143072
-1.1571900626854894
-0.6964482272514231
0.4728997890590828
-0.5587990446424332
0.05108319197944194
-0.048373266724506654
0.6003965259557567
-0.4309056027534518
-0.6572308700165677
0.5644625298057548
0.07076646816069987
0.31629110509298985
-0.3127910699597323
0.05962310774317495
-0.26383866747383233
0.41322248424555397
0.3618539512445793
0.5065657584917265
0.4292599253183152
-0.34359570450276716
0.8726556813401743
-0.4131921590205713
-0.2405308283371788
-0.3841521609490926
0.5480700635110385
-0.5233819451792626
-0.6115191545678932
0.008943289114677016
0.29811231824876355
0.06106282657298102
-0.4048081156056937
-0.035792514898532614
0.17190153390443183
-0.10719073676608656
-0.6127775510916161
0.3284528500926061
0.4165266614414758
-1.0981162832665603
-0.3691490110642955
0.257652161439383
-0.43991732229240504
-0.055030215587845856
0.19275859732449957
0.034621398935299884
0.278835926714791
-0.766200317310517
1.3759534563284905
-0.6944051893051946
0.7546600913338184
0.41104855987083794
-0.36477070485402324
-0.6080471193846029
0.3958439721516095
0.30188068763379283
-0.8969518507764049
0.7997143257129722
-0.25102710186957156
-0.9494571787503425
0.7092071380604601
0.3540913883335235
-0.27824955857948463
0.06549348590859846
-0.013051727816128721
-0.9475206769285551
-0.15640379107899727
-0.5534278813944977
-0.4059236994243864
-0.28464569434945275
0.4352048893578234
0.4853038754841584
-0.09507751737402839
-0.4223955130995682
-0.11290965195957982
0.208367000524691
0.4515907106858616
-0.04570805084521694
-0.5501010765350033
-0.5734781439808403
-0.5488090818671358
-0.4561845276307589
0.26091919893891696
-0.20724483958014017
0.16506747836342375
-0.16663286124575014
0.6561243057650823
-0.792527420027473
-0.031721059241417944
-0.45883005862153825
-0.6508641898228518
0.9055818002461693
-1.3605192877277485
-0.3583604907040919
-0.07189591359310234
-0.33666903564650846
0.527360406521257
-0.14066545191439617
-0.3079276170539811
0.8648747156026517
0.6028738603446333
-0.5757372381571404
-0.6937014951977746
-0.9784604582174545
-0.13011085122194838
-0.45439928266175733
0.9866074078473613
0.5344421277412528
-0.43078792766443386
0.037111967976221655
0.6515115099044309
-0.5883973404848655
-0.9342203692585516
-0.10960224562027648
-0.4122770100483015
0.713972499276975
0.1966031000118205
0.2876173877829522
-0.2018066937918708
-0.3649507632918071
-0.12433208596241005
-0.20162655919238062
-0.2537722413701957
0.6412433912017963
0.06116023770177894
0.628294025014047
-0.26830762749995146
-0.6557937723416867
0.46285191524358493
0.046311262085053644
-0.25295261318884965
0.43732816263567986
-0.7490389396530721
-0.15107760140781815
-0.5852647260194295
0.1384742051195157
0.015572192954681836
-0.19731737123048163
0.20756810466076153
-0.032308365997936926
0.7865956987281709
0.24206012313414482
-0.5223848660534842
-0.6574621100470575
-0.0023459990168209722
-0.28923221984725345
-0.21499822704240387
0.17251936673215057
0.5726037635584681
0.7339232767973458
-0.5077822458115586
0.021152379483212313
0.52891052604451
0.7216046720617546
0.5446649967614872
0.04265315360059199
-0.4592077057531021
0.03828171097649058
-0.4592283103329446
-0.05071937049388966
0.015406375814517308
-0.5154338065963459
0.08526655645754938
-0.6035909716222743
0.29197496009536744
-0.18784602423200547
-0.09635366785234176
-0.15715509270474548
-0.088177799657298
0.7338036343883068
0.35773509435383233
0.9852552825124572
0.5793623895317346
-0.16173660803754422
-0.5840622191565279
-0.16004780039784106
0.17116462662852752
0.631872467638615
-0.2980951731302056
0.06560098769186741
-0.01936932087192805
0.5722671035163336
-0.5229100151636006
0.015479667415750692
0.1073369047645802
-0.3276852877892241
0.5338569682050055
-0.07863335988205399
0.9729926266369803
0.12782142984608527
0.3109776065258356
-0.4616473518201012
0.056199836484235634
-1.305656976105511
0.36956637679614657
-0.0554320179476442
0.3261225671040982
0.25999317291472906
-0.5888056981619357
-0.2668916887957933
-0.2788525703777304
-0.43772853966289177
-0.45087217183028033
0.28013747249569
-0.272859432828369
0.8648188676812598
0.2071803887931342
0.3275092161060416
-0.12340102209617407
1.1469007300558443
-0.19739032495978173
-0.08517673578791035
0.9647916596361178
0.5493396942126645
0.5626456385897474
0.674937259674144
0.197858931035169
0.37908821860202635
-0.45208559457058
0.42176123138898314
-0.057869346185310346
0.2777489279473518
-0.989663963358916
1.0477315171541912
0.5953106363387208
0.09803838488837072
0.24629256892410134
0.44010581536745524
0.4700332706477072
-0.5653400700330313
-0.15135461280958115
-0.8657181178266358
1.1281710074306164
1.0960662222234447
0.20353003426112182
-0.11415825388530185
0.17326941336560547
0.11833605531399431
0.7603002343265934
-0.9785151828173189
-0.1852841003641467
0.38766163982070795
-0.062349578724807925
0.2651907503391062
0.17695944896950522
-0.23050514331269556
-0.36283691835792503
0.03418520631944527
-0.3239120411654269
-0.43691975885230844
-0.1436945992296731
0.09321316127918342
0.18751589340216157
0.6336554409829842
-1.1727682700397681
0.017035549308358374
0.875015890355279
0.44403529260852553
-0.3604802729089771
-0.4269319315832211
-0.1713382266326134
0.41835640046314915
-0.010402402289982949
-0.02275784449597498
0.7503429114196276
0.5988669722181512
0.5620812202742484
-0.4854267647688556
-0.19698469295086965
0.6301265433048214
-0.6814806560100982
-0.04427461052296749
0.32756534294581335
0.12292757853018091
-0.3779226885776783
0.2871705501177694
0.2957863606872888
0.3987571759522245
-0.4884499087836088
0.17187471661951742
0.043039082912469356
0.6448447895419096
0.2351532154867698
-1.1317404389553196
1.1228097623852353
0.5167317384513788
0.08937709353125557
-0.06171809013213727
1.27151999040026
0.7680794253864901
0.07967499600915252
0.435497676109528
0.15971479868805966
-0.8447476284720918
0.8681189349560818
0.5518520373228741
0.3939287051708006
0.4748512981133192
0.5390008322348437
-0.07151456548640138
0.6122860017446713
0.3073416388251865
-0.5639399103566598
-0.3764169443652735
0.33692708229119905
0.5051478624489906
0.11534426844116154
0.11634054690062397
1.3985675862362834
-0.37227288194392166
0.18412445528581262
-0.769786056438871
0.5307103347857395
0.6813826828129463
-0.006437315860302913
-1.2990243836219266
-0.029161751032882002
0.3543049146655006
0.41585862343535457
-0.21272433693804926
0.3515437853752301
0.7359585647528496
-0.16553582068973707
-0.53335185395299
-0.38610574823084237
0.4627171030832104
0.5466127314759718
-0.6299734577493503
-0.3908057189583595
0.8097233066737812
0.5445482314429747
1.1177709622513865
1.1141078438360486
0.5678929801150563
-0.6797425150749414
-0.053145296387643565
-0.3486272262784363
0.25438394673598563
0.9109408048481965
0.2343281076862272
-0.26003181694342264
-0.12087477424269058
-0.2315581301512723
0.7899771288700965
0.9265295878615192
-0.2665681512507828
1.1371480503015583
0.018364083178908995
-0.02806583161192638
0.12385700912826428
-0.34888379175817086
-0.12186845090509138
-0.23622082339134656
0.19968659416444662
0.26080902878507756
-0.027482855384537996
1.1753231599333664
0.24647269178442352
-0.38554518061801984
0.06766629273004719
0.3568843253537394
-0.3409935390405196
0.2348658183303612
0.9478438975957446
-0.268488754047525
-0.023119159721130628
-0.44722530373319563
-0.10626914444842636
0.8219270058510254
-0.06524942142823499
-0.21594936900958664
0.5869030762560306
0.6273492958075576
-0.33856834537531083
0.29583580244763485
-0.11552729451940971
0.6281165292798322
-0.4780733340019907
0.5705921207104174
0.06283531305391798
0.3413850417688525
-0.2935304196704758
-0.931984689552314
-0.6999298810241839
-0.4452298329793919
-0.12936037812746198
-0.11329379329329947
0.19838374096692032
0.7732302782271768
0.8070961830103398
-0.5829946639568605
0.34958311796210806
-0.6965665830008216
0.42063014857910364
-0.18531052405766663
0.021982259974277458
-0.3439239631713206
0.5660189555058336
0.22674322585820275
-0.2409406912759092
0.021478476184513047
0.653272760950376
-0.6483939624360995
-0.4125170134941903
-0.2644404489904683
0.7401497524888807
-0.673112321092155
-0.043786303925396446
-0.3656785692878724
-0.1154279436079143
-0.14263198007346609
-0.9350447015027689
0.45389288048997534
-0.283262696078729
0.020122814786639423
-0.0375125309288444
0.11669587776490614
0.04652312434893417
0.13962326262905247
-0.6349069614372562
0.15588902877757294
-0.8859316280883027
0.3960535677843544
-0.7812360414366726
-0.1350622061633589
0.3879089807090138
-0.553518601106763
0.0934617764121629
0.045821803194135736
-0.05716759646088705
0.2867129915199349
-0.30958603130782636
0.5876898538373846
0.06154810178348731
0.18190581684237672
-0.22432123931053616
-0.23029651316692046
-0.05401916369951755
-0.24456235418178454
-0.6009617572892296
0.6856896256340291
-0.7782438964855038
0.27333549338949037
0.7414649546985801
-0.39594341585734405
0.06865046754640951
-0.2891295444048444
0.033699753276550504
0.14344633676034668
0.17592674454272628
-0.13035455403763613
-0.39498296976800457
1.323596407669647
-0.11712145820864371
-0.16541094526688324
0.670264099256844
-0.24381598156445908
0.41068910576358475
0.04164470985795672
0.3020022389206772
-0.8169247568793229
-0.8764450387787226
0.3317148833526588
0.48353354767846507
0.4422511285157125
0.5533393611247374
-0.20372763329772817
0.7965222269671725
-1.2480378667762049
-0.18968311019925777
-0.2859516729278216
-0.07727753477002908
0.782988924191986
0.7772293691794159
0.49554970152348915
0.03125776781973625
-0.4935360074359312
1.2364327356124736
0.39169865049648117
-0.16286084179923482
0.546659070938171
-0.04531414724336057
-0.6165078343548728
0.06778375959367629
-0.5571210909705254
-0.05949175408491345
-0.8388033097578617
0.1817698632208403
-0.4789162958801821
-0.0985543111917971
-0.14597474520734283
-0.4700596041689084
0.3768629919637464
-0.2109214599174991
0.19030312714735104
0.3745303923338321
-1.4512282864956876
-0.6339503069101355
-0.265847533259168
0.18173783384734726
-0.7285255703238378
0.08593680711872068
0.20145417546484767
-0.37882179004570915
0.24390986796165484
-0.4960526579821959
-0.23090355998446738
-0.44511844592277655
0.34870999814692877
-0.2751814446489203
-0.3758044894891792
0.7059679080358222
0.1765130268689961
-0.595484807818001
-1.2349111121263365
-0.04951460081170234
0.5690313511046432
0.09057751357917204
-0.6667053111875294
-0.07411374066918133
0.3159546951302335
-0.19501859381127898
-0.3913007308241283
-0.08771223268742917
-0.5982748864564397
-0.20607968215106598
-0.24697421678872716
0.2504676165428463
0.0029223397919137333
0.006235313737266448
0.3746405575648001
-1.1581426727028652
-0.12595181811351217
-0.15159361991613618
0.4798428093139947
0.20083798700486397
-0.6606198638560709
0.18915352153090897
-0.02336998951869136
-0.9491273875629891
-0.9852395304947268
0.4118055994241237
-0.7931650225136921
-0.846912901371373
1.1505135897350607
0.6291112266644553
-0.19457500607246409
0.8281536650276027
-0.4269540704126679
0.6615336325639791
-0.3958225089173439
0.20171190112520643
-0.33500249146808836
0.4581548636795418
0.5103409925675826
-0.5270854545598902
-0.09411099867642386
-0.5946923211316206
-0.1533051051109987
-0.13569275345926982
-0.6579909366379547
-0.679952841080394
0.34240341131381974
0.16139065305903194
-0.0062282524691735066
-0.01901251844799317
-0.6344424749118659
0.015502362856571947
0.07780097706415855
-0.10532666770132491
-0.4847365362594314
0.89150715160486
0.2549552466215252
-0.2651180046640441
-0.6953075102998774
0.21899830125610215
0.08466100615584077
0.2733998870472191
-0.3792345818671845
0.6135330894055085
-0.546670546623821
-0.1300705961433668
0.3564462066596249
-0.18214230539701495
-0.17997147449596715
0.30600068047767165
0.01165625590194877
0.9994092434391293
-0.39628591575337585
0.4249727237200429
-0.07648039678435159
-0.09092947747956846
0.046680098650446845
0.09003546872521988
-0.31264436254506456
-0.13493819229062098
0.21367588035967847
0.263002651429454
-1.1155520679563944
0.7368834557436914
-0.2925892460896808
0.6461856364994738
-0.8896598140631227
-0.20638945149696689
-0.3127472642577727
-0.5277973729474161
0.17532800750638164
-0.1257691698092399
0.2635110056408664
0.32789761323754546
-0.19115573237536526
0.165762716669965
-0.6234961362820206
0.04203377586585528
0.5841311376522415
-0.22835494793741826
0.5745566973350327
-0.6691151144532992
-0.4789690945294933
0.7927814055594608
-0.4721592408843304
0.07364509464985051
0.43729024188053345
-0.6506218237338193
0.1609989576169991
0.8197232666775865
0.08688690976148118
0.15366355472893065
-0.36851693678297986
-0.2032788281152501
-0.54156945629359
0.9891125699507823
0.34974111144100967
-0.14457528933300026
0.33345352105855075
-0.4700807460446995
-0.3720675123267714
0.8627003709202886
-0.07160522902113366
-0.06917794171741516
0.5452384427119771
-0.22874393618147762
0.8205624604126189
0.17659965188569654
0.2105778210894748
0.2918832479871602
0.5589021431868871
-0.2089062450988096
0.05805516824371102
0.010133200187709301
-0.08729526980970981
-1.0417101753346891
-0.2957501904579926
-0.2019498314661442
-0.21611505461954164
-1.1690185503389883
0.9455233519733737
0.47749573260048866
-0.6341234044331392
0.40666898520254646
0.6861433946329503
-0.018950078313831407
-0.9156654352392102
0.6567429066195026
-0.582047271212776
-1.1697248204804989
0.3332696781921682
0.10232441527698863
-0.13083719435913715
0.20526023185239736
0.10845294247131348
-0.011608065725381131
0.2905789453812446
0.22568412145346736
-0.13877433622874316
0.5179937428901111
0.8239434346614639
-0.2174319013028537
0.4504166409112264
-0.13720493968888822
-0.10862599728889424
0.09392323877985927
0.08740965123556908
-0.3847950832623819
0.7213347499447319
0.3060607628356115
-0.17871491677806536
-0.4637576197822813
0.21178603927046613
-0.7943917743913917
-0.7072066115922987
0.3242148266377863
0.22271286642839674
-0.4607531989705655
-0.05256131572506443
-0.6711309253304307
0.8234127254841942
0.0395315631009205
0.17681884017885255
-0.11830873887590534
-1.0532753983005363
-0.8419111929286993
-0.09457736333745918
0.17649983591691126
-0.5704042826553133
-0.5339138663787572
-0.33388218814897636
0.31920257483701964
-1.1107676455547473
0.5554415340210513
-0.1743159058275265
-0.2153485051340557
0.2153017557342813
0.4837859072223806
0.028176856110214473
-0.27344140464619365
-0.3209283002418057
0.1841062829052687
-0.5052167228825897
-0.31794118949824685
0.35697910612377415
0.21083676945404523
0.29300409540193306
-0.05443228070576632
0.588335910664573
-0.10822868592590025
-0.5066337369700908
0.17051907319472356
-0.7130406487123783
-0.2871215496271763
-0.7779548156978286
-0.020237834982311347
-0.029983662281030925
-0.6421659922209847
-0.8629258352245561
0.3568884918313971
-0.31356746082335835
-0.14034493743805013
1.1686989207573524
0.0852756038399669
0.1649390174298091
0.3322747328576794
0.08832183086824376
0.38697763332817947
1.330549252530971
-0.9652154371136483
-0.4243008988588208
0.005821022626572527
0.5239841530704733
0.05681012139044589
0.3052738689649397
-0.15017171749313393
0.4269806608486128
-0.6948687360495628
0.15519256842309823
-0.08208619075374077
-0.17287897471107974
0.15074949269298846
-0.4848690637770753
-0.7182388712906338
0.4867638934039688
0.27949281244674423
-0.5606984103754636
0.610082769669105
0.12066475236773679
-0.9786957145056534
-0.5030167006883878
0.361896541279745
-0.016527557085923336
-0.45888485679929486
-0.17799368541650487
-0.4195942557269443
-0.17603060967415748
0.1786421834917981
-0.009305350187918181
0.15854873625443366
0.3452364756267824
-1.1496518775644835
-0.09764448534843358
-1.2391163328295975
0.8840571736018592
0.32248299368336153
-0.2090192955513947
0.020647538394096762
0.255953244444886
-0.38934770543451663
-0.10480538251353026
0.18188793871528047
0.45130627904178017
-0.43265757001546185
-0.01960563818674722
0.3001279951970649
-0.2876620800692588
-0.21579188482317102
-0.3867610112901929
0.30023889835924195
0.687101157986794
0.5552533646324167
-0.35683783286899196
-0.37469333529645416
0.18430106030503793
-0.1525693381490349
0.666813967441303
0.3459926982277191
0.19697501755996916
-0.386482172149863
-0.21546794241182063
0.6170679679260145
-0.21467251320261913
0.5674982185378604
0.4775361423091908
-0.37662322519029934
-0.12924121790225082
0.28675583984797187
0.11714804926203533
-0.7985696279788683
-0.6342973244658062
-0.630397081528868
-0.01610452879403217
0.10173742911735544
-0.10915951743931644
0.5368385736862438
0.7125357852855112
0.5290606055523494
0.6890885223681332
0.6721419532579529
-0.4245444801062223
0.4291207382398052
1.1127591482944872
-0.07108653371599928
0.12498705902234197
-0.13452974451491614
-0.44795530016240026
-0.8794974748019039
-0.22778473893253465
-0.1271882385485381
-0.1496956923239357
-0.5985146014889248
0.33594771300770965
0.8242676365373213
-0.474730584992656
-0.07855942758598942
-0.11730056146657726
0.25113089356278095
-0.22774489360560157
-0.2262164607163596
-0.8743960625549401
-0.2855222485209914
-0.04311439191913623
0.24382575621947103
-0.21873954301798032
0.5377098780375968
0.987127381998251
0.06630742344643435
0.29631180635366366
-0.08355235447457811
-0.14760975571459486
0.6660859635936052
0.13293942514800902
-0.5749309892200936
-0.01776920093480028
0.9476360312986394
-0.6348478914845588
-0.1517433045985865
0.4808394410022858
0.14821724985889068
0.4259008495220414
0.23205214510731126
-0.11310560226432656
-0.3695454599503796
0.30415669806814866
0.010716236205304791
0.7790660557906681
0.3583644431789578
0.9739017715473319
0.13033585325021824
0.2974542394353577
-0.21479143819627236
-0.5975977411873189
0.5199452977138599
-0.48374313965285126
0.10839150529248907
-0.16826593946235963
-0.3518000273785711
0.05266025149803016
0.20234138209224453
-0.0013392480718976182
-0.09458195627869194
0.39492132383778433
0.04626516670493195
0.5013563407084517
-0.010887373772688759
-1.1054120758117536
-0.17730612756703132
0.3332872013445689
0.6094655913472459
0.664944187194777
0.26095630261525765
0.10893678728703068
0.6796495669568925
0.46935007854366156
-0.07370273539378785
-0.005177538540896896
-0.6265807429262757
0.17630909068804085
-0.6155765691072338
-0.3635636607640291
-0.11136541910691773
1.2758170589880242
-0.30150157761480145
-0.4469074240598108
0.6013582566137146
-0.767225818642739
-0.15814298256665865
0.12950990212024446
-0.19668569452276033
0.521805605912174
-0.5452230632656991
-0.388141491367439
0.008211640887052134
0.23053613171102308
-0.010242896122518679
-0.3877853609483629
0.24013877103001016
0.24943417661902456
-0.4125439807245055
-0.3558702800293776
-0.16331358240265595
0.5521390813076977
-0.0935348048004026
-0.5730906518764171
-0.4308698189864556
-0.34919610474285545
-0.4296777790393921
0.3401234414975704
-1.1687973461767847
0.038929805196230474
-0.4631526355527466
0.01538929652607834
0.5388497305262261
-0.18621512761189513
0.2960539176455834
-0.6270012313633003
0.17720271451426853
-0.23180869536462392
0.17547736535878442
-0.20284863090985591
0.7714915341148454
0.6726958781027574
-1.08331766374629
0.012987255026953984
-0.41129322547179087
0.2751601647521833
0.12279039422494034
0.0047298039937166015
-0.20147006780433255
-0.191881929587138
0.4670546347845276
0.0570013162899603
-0.20641988093467295
0.10424011744079677
-0.22543702185000236
0.29851563541582565
0.1686514531086126
0.5551384337346925
0.06170877905836628
0.09813144869294356
-0.35510767516804354
-0.20584318564235882
0.3148890197473029
0.3730545902142377
0.38096444098316384
0.2942599369518362
-0.1815213350085532
0.17787525188287043
-0.7317843345362377
-0.7092983134183393
0.4128079875695362
-0.273598241749652
0.5951182685174164
0.9843866428804041
-0.290355881809812
-0.9935593658171649
-0.02371852891099735
1.1680633857209934
0.5338687940322057
0.20347270008854804
-0.2870511227809888
-0.16275889762628737
0.6314048675130004
0.11018894895455628
0.3430456664087817
-0.5764966925718363
1.1121517292472252
-0.8929796241325274
-0.05849090606890984
0.23188050774734187
0.139436444169447
0.4766030394899205
0.12850877263128185
0.18052587134598858
0.0752913866611351
-0.6940038840342114
0.8493514274467125
-0.2632140030292334
0.2506662870542502
0.8274712587628175
-0.1319202897650529
0.4593169361887398
-0.3805838514703565
-0.39698785974222817
0.2713850977442155
0.2824929448792126
-0.2681423568495801
0.5646678425155517
0.49256376105125577
-0.5370244142919495
-0.30978962821940004
0.4787546915445913
0.231271895836077
0.40585483103161274
0.5314861215233516
-0.2832251689088374
0.11188969657310399
0.08896827374433157
0.6864472691296277
0.7890440561403366
0.016046201047868643
-0.5258807725101992
-0.1905301223882445
0.5519830977053966
1.1087197519343532
-0.798277565084809
-1.0222645010981446
0.7249311174660549
0.01797757410699323
0.020030106835865816
0.20223700333762892
-0.5529700095110017
0.2416372121761016
0.6559532671620315
-0.16220367325678026
0.6588060345164307
-1.123051419308429
-0.5406523464990818
-0.41923568892910595
0.6358886871003957
-0.6374479151741737
-0.13459680034119456
-0.4313428132027592
0.35677133148581874
0.28578136296859397
-0.35941056632596186
0.7486765005381412
0.28391130080885485
0.6844182630006023
-0.0784259020513701
0.3854289866883421
0.637944237064832
0.16255336380576646
0.66407153040477
-0.08248622634060433
0.5647764561364689
0.0899111699767002
0.694047105470666
0.48663088605089105
0.33192771880431327
-0.6331076554883365
-0.24169589701845862
0.2732564918647704
-0.40634571053333157
-0.014682316687897986
1.3125369765583432
-0.09962075387618959
-0.43739207440174166
0.09676531600159909
0.008985748619417897
0.20306127364691726
-0.4628018450615117
0.6716630213521425
-0.05304016684657963
-0.36535398729944024
-0.1578758919372326
-0.32801969239442996
0.22539372963291993
-0.1813959805593097
-0.6009480279325503
-0.08354670789559532
0.5006273550740851
0.7947223038045323
0.5868408320844357
0.3142463113731082
0.5474760444566634
0.5692512104114249
-0.08766286489294949
-0.6259125080323206
0.5830787223274027
0.11449288814825592
0.4381575119164154
-0.5065404481110376
0.14738213619113918
-0.27672295854962414
-0.03696098611807808
0.9178976630603821
-0.3097375190903403
-0.23832806439927617
0.3536379775509512
-0.6167228583319895
0.663104608983354
0.471238322158456
0.3561694115799428
0.3518550878574712
-0.8963335283290258
-0.37169298179935856
-0.3695631194722952
-0.007348803318290326
-0.5196328488408358
0.2594311516121349
0.6845255549960828
0.5811965739487714
0.07542430384214877
0.2942942304862834
-0.580100879670584
-0.3244213159084894
0.17961996499455152
0.21447688594131262
-0.08131747319172884
-0.41386909725897436
0.02582432158743815
0.008473802921528153
-0.061485895395821215
-0.038150864762175045
0.006960478241084069
-0.35168712821551285
-0.43131818724618076
-0.42581252648203144
0.5753325470179431
0.31444779662799344
-0.3513287642341397
0.08635929366620729
0.12477271118601836
-0.2380032145567932
-0.363701278014549
-0.7446784062536782
0.0855182742507827
0.02679796011822766
0.5342869526300055
0.6231632396204233
0.23140077680066398
-0.3584664560840493
-0.9855083861545353
0.15726292963829724
0.2621536696323833
0.03144744519457101
0.30946255273107315
-0.4881848137060413
0.10786290432904014
0.10384103955605346
-0.07900446734498853
0.006892244785317391
0.16418856614006178
-0.7039966268589716
0.12126890851466628
0.27791571589205827
-0.062090674934385956
0.029599900000133458
-0.01146800525478132
0.6210384859464656
0.22709040117211765
-0.6687458838878151
-0.516639276529027
0.41980980429724235
0.41075781016972945
-0.20347946664144606
0.43929169988873384
-1.0260473550501041
0.7929346647964653
0.7713730184179145
-0.05223196608017692
0.22565874054859758
-0.28902158077106765
-0.792729537186138
-0.5467601434908763
0.3909154862863001
-0.4555676046576436
-0.38207241458319763
-0.3790530048877816
-0.4229962433641638
0.6745453692253531
0.18915195229199913
-0.0224060544601368
0.7096041936252606
0.04183266800173697
-0.02059913708751568
0.22035765954701267
-0.9986415889301207
-0.5780310498807749
-0.28599739301820665
-1.2349074589095788
-0.7419423045715335
0.8836430801177733
-0.14668286440865821
0.40610565930666925
0.6806635682749843
0.23443641687256442
-0.4163762801480392
0.5091036210266885
-0.2883824343832201
-0.5632959482836762
0.5590850262781808
-0.007961569816378647
0.4688474388844179
-0.38087723992073236
-0.050483613361252996
-0.013043115091102977
0.09327245944514267
-0.5681761853707721
0.8293086254344766
-0.5896552629879656
0.8651731816911191
-0.5975886543940676
-0.18806047757434655
0.17454076355708045
-0.3892280844419997
0.48986878325999716
-0.24455199291970756
0.3661172268156921
-0.29966733014016333
0.3821484846542499
-0.4244118921285294
-0.6053553670444723
0.9452082136614172
-0.9179999278626291
0.8105004785689762
-0.4489656612111059
-0.6697241989685107
0.4184566830869134
1.109366011237577
-0.2989150981232161
-0.4457791608616866
0.0117766195706074
-0.8119991556881881
-0.3155527373250739
-0.16908664668195095
-1.3015848448369498
0.27607362613890907
-0.3838607294977245
-0.5429270223799857
0.8016410881245059
0.18549919027084785
-0.10837720745552568
-0.34322434497274984
-0.6360554536444429
-0.35052126559856245
-0.010040985063975869
0.9948380052028859
0.5198908877449695
-0.7154577486401342
-0.5012189784100376
0.07021247673643416
0.8994855087272822
0.4617221735286329
-0.6667911481730665
0.06729476075783546
0.3762508859422287
-0.34338800523780094
0.0016836695127534934
-0.7252463539677404
-0.3604765791076884
0.4535161498238116
0.28491478853876306
-0.23302174040152734
1.529338428537212
0.22142352393503684
-0.45901204076923474
1.0789990775259852
-0.31376909640421
0.10808783192245586
-0.18438496620801403
-0.8740812752436612
-0.40851917466890914
-0.061908062831514774
-1.1325831104722321
0.14482776629851696
-0.24218781990410113
-0.05896317663788412
-0.42100306717536146
-0.12391447386472561
0.08311400689576945
-0.34070226795045644
-0.039913469981785264
0.28111494677239535
-0.21678752338203972
0.16643892742404004
0.603587463611064
-0.2880980195618407
0.9765167630042995
0.0019648085926913667
-1.035395297992825
0.2740297957980037
-0.14380734334469664
-0.9775951019309551
0.0778969660038201
-0.4575375679574176
-0.39143072186962374
0.21916859249020784
-0.5668510224255905
-0.16983123321894336
0.37837617806342067
-1.0253831376175087
-0.06761411524464939
-0.7207090139155607
0.5119614957636288
-0.5371263254131553
-0.20219727274523103
-0.14772028698507803
0.055534627543515354
-0.5479460767502369
-0.37200222355923757
-0.3608674976646178
-0.49118087115812376
-0.24241748632879243
0.6878982665936983
-0.9996470461866555
0.6285582382785517
-0.023553386923738318
-0.08580162588231352
0.7049230175106905
0.7828882268715603
-0.5762550999960003
-0.9787217157398133
-0.17926832767043588
-0.00944179146079454
0.22344314174022703
-0.053405494417200695
-0.15923324507627665
-0.409263663529129
-0.7332513713629285
0.4551993475945858
0.775283818204832
0.7919965491973205
-0.05489343825627659
-0.7890576398582385
0.7071977641854909
-0.8782887942303854
0.5454404809779076
-0.11039746162244336
0.19762128488324074
1.3035502772740344
-0.26987555948330133
-0.42050843203543997
0.1706811571615743
-0.5752925205384566
1.1421803491656881
0.059411578660664696
-0.2093924708533622
0.3903150476008713
0.3713608733554562
0.4868074803362275
-0.08808683255843125
0.22857096975243477
0.40669864311530235
0.06393853029256792
0.35508613752070195
-0.5146164677361039
0.4423077072850579
0.40140416630310133
0.40315021558130326
-0.1653144083086918
0.729223475782112
0.7857246739116165
-0.37119239150819444
-0.6232272503381736
-0.8399520625754994
0.20201156174102397
-0.09365594726411924
0.8599423513016138
-0.5244553950033561
-1.6530890294207499
-0.5278055946797645
0.29256579828713736
0.2953278927916082
-0.3642179396893598
0.5248876941075096
-0.8078878686929419
0.6365487485373719
-0.11583638549046336
-0.6696153280769525
0.2422474436525269
-1.0422600349114945
-0.25682601125643223
0.6414021403839474
-0.0011402548251383047
-0.989187607289092
-0.10030102929950067
-0.5513236851230593
-0.5019299460865179
0.01435804403921549
-0.5000459148806439
-0.24617270137171107
0.14616344158099925
0.5959586794623661
0.2485953108829024
-0.3671490738424564
0.5924482009010499
0.25987829693814346
1.458938305128527
-0.9346448368102074
0.2696323786940437
-0.3202796282091494
0.44459194253384177
0.2507591448443718
-0.31708556608560273
-0.2484055663266629
-0.2005562419598354
1.1003727227055204
-0.6077582881510192
1.0709085223580823
-0.6445940986587352
-1.2547895480570201
0.0706064553544039
-0.3790432732806279
-0.38803524674583734
0.3543952040845856
0.0534505651345896
-0.497078557397989
-0.3370956713917986
0.09201068664666104
0.3912692486913837
0.021431866978526365
0.0035468544743353066
-0.013577298474045736
-0.12406935980003653
0.3492563846743834
0.28320435883927975
-0.1659843808939727
0.03867161184866509
0.15100633396687388
0.5457290195554759
-0.5801289139323571
0.18591380545887717
-0.6767642430186736
0.4427186467722434
0.6810595655912448
-0.7238899968461647
0.3643418779112683
0.3730466018141483
1.2080949489775976
-0.252790861719661
0.28734652438342934
-0.13342116670778553
0.16485773994806646
-1.0750070827617997
-0.0217425557133159
0.40379860878515467
0.712653379234272
1.5101597216726774
0.6802026188224866
0.499032919795007
-0.24912923975854737
0.11921312436432237
-0.2959390600968554
0.9839315381687246
0.6848002056031338
0.46851416959524994
-0.35859172044831755
-0.17314447542033054
0.10041521920659244
-0.10628220308246637
0.03359826775928691
0.9263637609108765
0.12392088944714148
0.428734735214377
-0.4105006142856398
0.11235354774374463
-0.40528278924184613
0.16708960321613353
-0.43746376827845057
0.24961324231788778
-0.3403253741040263
0.13132102152625985
0.2374479339786858
0.23026643586792153
0.29297677247407655
0.7491190916972936
0.45075075546261634
-0.5586164555552274
0.5925363221207985
-0.040024311918308755
0.2514781487521906
0.7177357912674776
0.6750494658314345
-0.36923373832407863
0.6835910365809535
-0.389978293413168
-0.6044258059011934
-0.4535703503208572
-0.04116722766672811
0.5003710143264957
0.2136217023031059
-0.15701042277934726
0.3197847846646874
0.7396243926076279
0.37741735568035717
0.8023587306784893
-0.05405407997836076
-0.6560240341179251
-0.3884724510658403
0.11538521065273516
0.038348591819136905
-0.28856983229273686
-0.052281716466564244
1.0489234891049535
1.0194365887751922
-0.3227534400240871
-0.26446057305512805
0.34967506589872993
-0.8173155500566517
0.08309948839503978
-0.10628205718674433
0.1026865007731504
-0.3494260616004337
8.450390826680828e-06
0.8527667500408207
0.1275555388156993
-0.17231238900983725
-0.3300179078899177
0.36310946894382456
-0.2421260137401189
0.24541874543537237
-0.664144450192975
-0.7085594860621921
-0.6625899518303268
-0.06324716760256788
-0.4203872474959446
-0.8346749410325901
0.5435877225000951
0.14763968522438928
-0.2168461368157874
-0.024882834880046008
0.6409915533047423
0.6901078531868687
0.09473499841606298
-0.30706516591331284
1.0849579483435319
0.13429072639217904
-0.0949192720887335
-0.9867301969885277
-0.2905743407756193
-0.48534751133111137
-0.05832640443568441
-0.32432318442795477
-0.24183291453450875
-0.28417334665334854
-0.2398201133786207
-0.2023031378616888
0.09024480148181484
0.552949811989209
-0.3528006620575847
-0.10191180353250787
0.3893437543555615
-0.32370112674095297
0.38876020042224274
-0.5244260841308135
0.0177086421578859
-0.8353491862935541
0.0008760710042101435
0.31484907645034804
-0.4670209316705358
-0.773576805872236
-0.4690636823348622
0.19943789283822325
-0.16932197843877603
0.13100486222419253
0.4987744988310824
-0.13449426090162891
0.8772132364825275
-0.06207878404780163
-0.20309324494083003
0.4834599418164239
0.008658263905643475
0.20126038887643627
0.11005925270696898
0.2511260791857583
0.4335900318879277
0.05795156994030908
0.36183959589671943
-0.23831568971280273
-0.7420529194692332
-0.36428368857517524
-0.5690737719465415
-0.1675499800971619
-0.2613965962797404
0.6277568840604788
0.11181770475515972
-0.4848122579074678
0.784974535011775
-0.08937448519214825
-0.4110133921079237
0.5379059072864288
-0.1062752414171981
-0.04301417912217543
-0.582978077939847
-0.042250876261809144
0.7338022028308876
0.2939193268136215
0.5100534128733726
-0.7046075557598429
0.1924853702815597
-0.05995360392635249
-0.02810440435462817
-0.5678904494680233
0.19605113736998095
0.4328838162600733
0.05178846395968521
0.28450954086978864
0.060186910634111024
-0.13563853706427853
0.30473545791636397
-0.7461454890097937
0.37194508669658455
0.0898282035800712
0.10756897061198414
0.9846780173722567
-0.38765152676459047
-0.47695434243707496
-0.7467458279521048
0.1829845658601443
0.18749609446442872
0.18109717113784893
1.0453450808892129
-0.18716643538417058
1.0314020794855376
-0.4816277274168732
-0.461550704006251
0.7652050918828376
-0.23775648568646157
0.12185722800805672
0.412300117457456
0.8497859078120363
0.893078214911534
0.33197187862476263
0.05629887500888565
0.205111724783213
-0.6083980128517095
-1.0256769748764003
0.27569404993533436
0.5225835589704502
0.20147405130378762
-0.644991825028157
0.23346934621695112
0.13393655661617188
-0.07649458847656831
-0.14847909321302305
-0.3534173105996677
-0.5491093020145447
-0.023760371973399676
-0.08519350952777816
-0.08944380156316642
0.2596522390615098
-0.4328649953320344
0.06325175835293317
0.9305256613471652
-0.2282411503491891
0.23911251311040055
-0.8315782260099112
-0.034038338466052864
0.36259775902830854
-0.1746247026491931
-0.712757888359842
1.1750767162642433
0.7545733206911933
-0.7403469335107116
1.11556843917447
-0.02021873468955866
0.33908033428224793
0.4894387616656557
0.186701004365477
-0.24786938144862256
0.7478235772574251
-0.7669525869387047
0.29920540847161675
0.5037189516444335
-0.034855294170334374
0.916907123956308
0.22600169851688848
0.21786720810307506
-0.3232323040761312
0.6016310388260008
0.4580275659092138
-0.6463102552992115
-0.1526798011008882
0.64449195363599
0.5192229018956637
0.27407460983971843
0.19306154339033685
-0.1082914305366111
-0.40117597545450245
-0.7994430659944745
-0.5148218240909324
-0.21351100735254322
-0.6596175825755465
0.06464370870393767
-0.7284365957002913
0.5440485292986579
0.2671346892425308
0.027394249782738404
-0.4804819980575589
-0.09375241259553915
-0.5211445226110233
0.3502204323254033
0.7986127627686014
-0.024118782757456065
-0.19041025647193757
-0.4944161384383519
0.38558962127530694
-1.0113459201945476
-0.45026336486104346
0.3152263055682662
0.015765493009811747
0.6775301364838846
0.23233715232240013
-0.27360624541875267
0.6625466463058292
-0.8723972191091591
0.40955639593870996
-0.4063297763246242
-1.3448406493092397
0.3200613354565063
0.6573815315047828
0.10901808443815986
-0.008143945371805447
-0.18295715362448392
-0.3090540585827505
0.6830077036223332
0.1854542314202101
-0.10772666151071576
0.02889730852721045
0.6207775568612723
-0.6278003746277011
-0.1980803033427667
-0.23176313855280412
-0.8486572869223806
-0.6636814622095961
-0.3336342909677258
-0.24536023178298721
-0.33914219319118744
-0.11977940537312252
-1.1009990375151648
0.510630487259606
0.4122186349691091
0.14301668084543856
0.45745728772127514
-0.24934355740619993
0.31511634154261925
-0.7796164515485724
0.8509439972557737
-0.08634076902006194
0.5222589233905663
-0.17175259575670182
-0.1286685890604304
0.23060223478745356
0.6472494105324144
-0.9764778827959805
-0.13024130603476944
0.45710848724750797
-0.8014111760417355
0.11925245400237397
-0.48727007542886636
0.07504450036008195
0.7424349625096
0.36754412237725154
-0.24666217691809855
-1.157459190517085
-0.052834636818643685
0.2358429615217509
-0.3157145673498823
0.6137080923538747
-0.41263274750042983
0.18080564068792773
-0.1235576145811469
-0.3937300265571835
-1.021855925358235
-0.2231457555641183
-0.4874259038145327
0.06461502239799273
0.07551877894136969
0.19222182589067163
-0.28542262031692195
0.9807802396292581
0.33335703925833593
0.04078742336928971
0.897035136340666
0.015517819261966223
0.21625955443719116
1.340067129767141
0.03564847870939922
-0.6156256542379054
-0.6149485926379071
0.5882782462841939
-0.6020980026255801
-0.11513343113972417
-0.04511965832093696
0.2495417918701648
0.30146916960409703
-0.17021167350782304
0.0904185760810248
-0.19689649877289403
-0.33347521851138606
-0.02777392740225713
-0.6124207926713159
-0.03688266603495444
-0.2431670333416853
-0.31038944064908136
-0.3401888070383212
-0.05220085651591841
-0.24594862439373882
-0.27842842148846836
-0.07347851227367644
-0.01900334719879412
0.04315614470619631
0.36034759910468694
0.06899400467045919
0.17389050910672
-0.0803156834557201
0.2428606052023546
0.44818009603326486
-0.3657639784474007
0.7305130968318573
-0.17984889637723928
-0.7364770000160745
0.09119723833007028
-0.3017017437920111
-0.19755473663008874
1.2011214559441146
-0.08101091265211394
-0.6622090527728557
0.8096614331875475
0.15172025126411193
-0.8116202449471523
-0.276126077152223
-0.5220912955080964
-0.3691531235115043
0.14298545915104252
-0.11843574983603726
0.7147054984161837
0.4420129702867438
0.08960548138822516
0.36971008812073325
-1.0009455247558012
-0.5052055512479845
0.13512726610177286
-0.2138829094554716
