1.6689972633720391
0.3239948462599421
-0.3451503396925127
2.7284187314723414
-0.7605387069287248
1.9286301233725451
0.7369719538127124
1.6144207471308456
-0.5863540192938376
-1.0210426639312904
1.4942835632487343
1.3423501598377623
-2.8976183889637808
1.1909640990127512
-2.8703078810707847
-0.2738162754638487
-0.9345345140740107
-1.6887722542054193
-0.1706932800999459
-1.5541955779426762
3.0140436509992883
-0.40953418469898184
2.8845600129007343
-1.6488663120179325
0.431263268759992
1.5629293312943564
1.3080891889810702
1.5758873731079523
-2.410681772466372
-1.4268924473741467
-0.7657177087241784
-0.7903130189437483
1.3733946250669737
0.6917350094867873
-0.5800050221067978
0.46099475510513377
0.11221330850777217
-0.6877491294648865
0.8602817317003519
-1.032729485500886
-1.4809823779738578
0.9904852859633932
-0.47771188958075356
-0.7870748144508939
1.36170929868385
-0.8509158521288662
0.6789458599750717
-0.7951404866784029
-0.3518760954849408
-0.307734598731475
-0.34795353348148905
-1.1721138693116782
0.6518885236799195
1.7596280591984546
-0.7760887031932966
0.7049868002889599
-0.5251420925303885
-0.1530550188164742
-1.9972811801112065
0.16754232269267685
-0.6100645195259955
0.38523565761011525
0.5720995348788194
0.11963938455278145
-1.9165737579334483
1.483771282246234
-0.7036583463249364
-0.21904885089939335
2.6422479043348743
-0.3090554897601547
-0.8019642626115812
1.046696453077449
0.41677124812410415
-0.1927858870814111
1.8014362836184015
0.4285964725299105
-2.7961854942446154
0.32434955629531137
-0.32835418456911497
2.9867117680660247
-1.610638923550053
-1.5107751960759799
-0.7435987223230103
-0.8361403910057739
2.8955755707903896
0.16069756695940307
-0.18716184707972672
-1.273457579066829
-0.0640801090750289
1.031046986567283
0.49467763521513985
0.07594456426026717
-1.5847951646156755
0.10100070757771643
-0.34045319959025744
2.722829937865865
0.40297561925878744
-0.6477979445621028
0.16194514005467653
-1.201204956962645
2.675080811242503
0.14783643923356637
-0.9993830437538449
-0.11110798200548348
0.06346467063750849
0.17269259701867645
-0.07806774770524165
-0.4534442878498994
1.940376653012104
0.13205409061818554
-1.837545052906131
0.7190335759362982
-1.9743409791521391
0.758871276996078
-1.0886968323711048
0.23016683148544997
-0.6675734889744389
-1.6046855326475242
0.40573699615363457
1.0190765625430247
0.3911555349829363
1.6559543333537325
-0.9078925085877191
-3.3782120270889853
2.2753343635353542
1.0796574188913322
-1.9564215157554998
1.327075562061653
0.09461566328708135
-0.2262328175630235
-0.9451443479252141
-2.32367216071766
-0.8074646133106194
0.07963728268151293
1.4907875190614952
0.19601681135085042
-0.12619807145096115
-1.2474904619917373
1.0624530339399056
-0.4627631213820895
1.3323589760670131
-1.3028326038406006
-0.6754386494202209
1.4932257489805134
-1.4538791984963095
1.0481891807190304
-0.03023006826410482
-1.4571878373429168
-0.35837163066056865
0.39220446983437784
2.786121275535588
1.666620120760499
-0.5269567707046413
-0.7044176046935349
-0.3540567505245158
0.029021111625126605
-0.5898127643310558
0.2461763437777098
-1.1914626749397628
0.2505198744426861
1.2883701692414216
0.37598671696844654
-0.41875187405913106
-0.6184945004480839
-0.006484501250400565
0.9753547994339511
2.0065898013868426
0.9609683228001187
-1.6943478953899138
-0.6360479954030938
0.19057510744452888
0.9151960219034556
0.11791609241651407
-0.8188686648853034
-1.2681611741947696
2.040684381357979
-1.6757377274543803
-0.7269865392874726
2.7466349094676623
-1.3032933279410657
-0.3533690850125444
-1.0750959149218429
-0.3923742117345605
-1.0515708737554477
-0.9486366263432554
1.666460649959709
-0.17684383070033752
0.840606252285121
-0.9521620658669407
-1.2632923562561476
2.9761693396414697
1.1650813430903617
1.2240929145092556
1.100540082536512
0.12691392546312397
-0.6718474062046198
0.476277954107675
0.08082547536661966
-0.5507303719727936
0.36115738927679236
0.03186289423422886
-1.0094092046287049
0.7511125255869443
1.9910528629760083
0.23257521986124585
-0.5636486772750435
0.2769734388811693
1.4013462779632377
-0.6366760154768916
0.5775250994184541
-1.4547354567770148
0.3162836217369937
-0.29892562822716195
0.2930246701074359
-0.4273090152033769
-2.7483759730168957
-1.193511130899586
-0.07863839923964355
0.13194177512697924
-0.9853742476841532
-1.595594750843351
-0.06547209604081905
1.0340704333540942
0.3747264371043349
2.0987344327956947
1.2747146559641012
-2.625190504120004
1.0304455790719922
-0.01828986404802374
1.792532906413725
-0.7049937826558131
-0.14432737292301667
1.3453450360043062
0.40040685274280374
3.2408245358358205
1.3983332152413634
1.3714673917020095
-1.6833105363474274
-0.3386112625764089
0.9925541469592525
-0.5052269790042248
-0.0749366025525641
-0.8713587182975819
-0.35803978368240624
0.7537260410981991
0.55069385339827
2.7305496146283805
1.8199474431155345
-1.4310566332556853
1.3014065118364635
-0.24466526990598356
2.4415264663140666
0.6400597229981215
0.36427513277250057
0.0372540809565976
-0.39651113784910436
-0.19519927936284995
1.082625318270066
-0.10006356102388586
0.23323857564431
-0.24421852159263546
-1.1273591166989358
0.012280703592634001
-0.9004318290534851
1.1790434327274417
-1.3186736551939262
1.2508295642169691
0.5287357005774198
-0.5734946460629639
1.1950207988264352
-0.6910327268503397
0.6822756480548393
0.3468170306826482
-0.2896081301605237
-1.2807275910004325
-0.3623421457027373
0.2697858022776928
1.339004932609473
0.7440105836536214
-0.7932204588713421
-0.08127940164485303
-0.572305380815906
1.023245843959779
0.9448149713724832
0.36653997220839585
-1.2318649701869138
-0.07322880469865778
-0.02288424893001645
-0.011651462136515356
-0.04611788886777202
0.23992317695755105
1.3589077516611614
-0.5136607236118751
0.9887243416821876
0.71063342991964
-1.8211157427773115
1.472392444595379
0.49656679344480475
0.07694350354933199
-2.0850290609748066
-0.037109621539867604
-1.3547323119749028
0.5059762575431622
-1.1638228507750452
-0.1216864875956361
-0.359454823587102
0.708922272172237
-0.28920822831457704
0.5469232748220069
-0.22214239343593006
-1.0189676960201104
-1.2780534327970612
-0.05290933392750924
1.1095814298765343
-0.17124908764513347
0.8129090758403419
-1.0714994232733488
0.8688756102430704
0.0669328257317684
0.737157212891646
1.7344688265907262
1.665888392102975
1.4259775261392715
-1.2750457832249613
0.9086652069867969
0.0009124553371020472
0.09171821086021448
0.3475758206147873
1.38135823666947
1.2485187276121392
0.3588138416992629
0.32345054703849274
-0.11988357109577114
2.3103458922985407
-0.13679392228510423
0.25149898482271493
0.31620395133969237
0.7644532721167381
1.932490345240328
-0.5857362068740312
-2.073209795617548
0.49418433027108655
-0.29510848198423645
0.7254210033933114
-2.0059245250131212
-0.4980744715013954
-0.965569450240114
-0.7508089988488498
1.1497068692887682
0.30196885740124163
-0.6708680208259222
-2.0746624609728386
-1.9503575900902026
-0.4792216497975047
0.02268386700543057
1.3972399914425286
0.3395079073691725
0.24615480682355173
0.17959298947177427
-0.5267212881595236
1.2841094144905587
0.1468530912038834
0.3037621491204442
0.2905809981054449
-2.0239195935840884
-0.5283052848808905
0.20255388176735933
-1.0473215597008985
0.27146766726322424
1.2044419989922641
-0.4376262242702664
-1.155704583008783
1.0025958159899089
-0.2678662565372973
-0.13219693853588543
0.014533718573963392
0.6368011493785233
0.7137123849878473
2.0342951122638238
-0.7154613170418536
2.2717511860229305
1.7054429301372718
-0.15426852010213365
2.8013214506035435
0.1599792125480891
0.7495375167001044
-0.648684500623544
-0.6031966063369041
0.7049926265198069
-1.1894348742802237
-1.1294338832202877
0.8109979095113553
-0.07977398360966592
0.4903429413677842
1.0524228466556016
-0.11930459970250734
2.0450266424338
-0.26258481366090547
-0.38447290248004634
1.5233486317165648
0.22605971029591415
-1.233064910027603
0.27974816511739364
0.5888698920356095
0.4287558184682467
-1.4637809856471067
-1.789464028695322
0.9989298348644591
0.033378381502922216
-0.9709508629151771
0.09920407435804157
0.1558996675221344
-1.7074326387576708
0.29190130534171027
0.22370300156257283
-0.9700170807979037
-1.1841064974495863
-1.2527510727155584
0.5675740538880407
0.5998429736241748
0.44372495430589487
-1.8208319713582939
-0.32790235788633254
-2.6841163592094865
0.21472893989314384
1.474605317950198
0.4780012572430848
0.055750873467587336
0.7118505227466684
2.1145097843941296
-0.8612907323198706
1.6285856660169489
2.587937342437389
0.35386649656490027
-1.2239795052860072
-0.030050662383952487
-0.5611875031280456
1.94130352083065
-0.7683331989520743
-0.8562855171011867
0.5871950899154579
-1.9998573588455462
-0.8334897172608708
-0.9499149150603111
-0.07637451430137729
0.785677328054958
-0.7050470590473559
0.44477324107257266
1.04546113888222
1.5011161212883328
1.0235066653976648
0.42927497602592096
0.16839608728583622
1.1362030348656942
-0.5361876473176181
-1.4637198386996584
0.2738212267008383
-0.6687622342001742
-0.3582630354923249
-1.1253174819499097
-0.3350257446871246
-0.195742221088972
-1.1565751597172143
-2.4923601243450695
1.9408044491286822
-0.9662688843513765
0.9392124130821145
0.63718123749052
-0.5580077646745212
0.0681248862703904
-1.3981694653986234
-0.7550143321244441
-0.469591766548435
1.2190568769604038
-0.7410965043980511
-0.9534769156695584
1.5390853219326668
1.2621889817560423
1.2369358759672628
-1.4242345863387709
-0.4687357967835919
1.3100534789283291
-1.2302005320523954
-0.38424580113081097
-2.2078982503055125
2.0820159947940677
0.2985434786394815
-0.23846041041647303
-2.175233954595868
0.8043448462483401
-0.7861712052911711
-0.5074220459319021
0.3444573226986017
2.364939781549454
-1.0204666513458736
-0.8849336455830332
-0.37250509299484247
-0.1267728500762668
3.4189959990281356
-0.6635754336476648
-0.12515909647125456
-0.3183370267645298
-0.4432241154103118
0.38331714984753273
-0.1303210312876869
-0.2993921885408368
1.2916464847598883
-2.0339238279914307
-1.2255019683302568
0.004142978480675463
-0.5399144388432918
0.6242668730656344
-0.21141846853304092
-0.3603871814052409
-0.30460461522630655
-0.0018571083402590949
1.318520847673172
-1.9671437953628554
2.472893934506531
-0.19884967969347367
-1.0495308915595492
0.7982321653203951
0.4139368348154071
-0.28953601109410954
-0.179259228815648
1.6660019330125027
-1.2891473043034223
-0.40194842344926895
0.2291478702795713
0.6978697403235181
0.25532771937675913
-0.28089528936311764
-0.8531102244996167
0.6284066048547071
-0.7096509275864782
0.2469233559813594
2.481709866840557
1.4018956553398223
-0.13208307554039586
-0.9552357884420297
-1.3657613634249153
-0.5860351048327003
-1.0653365965106179
-0.6580366565219123
0.07627426893233463
0.006040305762877396
0.6891264543766118
1.3222667429641102
1.8944316462224706
0.0004577265005616393
-1.6675787699336477
-2.2407245289707163
-2.5846850767726117
-0.13904167762482716
-1.1653780254227044
0.9232510618677754
1.403125038946122
-0.8655683150892538
-1.5600017374098543
0.015704070253689806
-1.1771282601075315
-1.9830410992414715
0.057883755092977385
-0.67105190065218
1.1255690221406436
-2.0753479915573836
-0.6160374511708876
-0.7031491969636485
0.054662896034265884
0.3904353809068823
-1.1754635602853174
0.9707042746828198
0.18994347927821828
-0.559670404476232
-0.4713495818114638
-0.2045129725522941
-1.4486780694285921
-0.43562370801879746
0.6117395478022505
0.6270637964966909
-2.255972591589444
-0.6097550659618985
-2.2738875982038564
-0.543982835674594
-1.0142837550050057
1.3669343899613466
-0.5361818033909563
-1.8782872429429103
0.42752897815895186
3.016416970221509
0.08117644951405123
-1.6651577257392622
1.642461940090361
-0.17116417377803542
0.1848529517280379
0.7993588775218115
-0.9259669564914955
-0.16505065155083748
1.6002772054221455
0.6989739496089873
1.2477644212537706
-0.05227514154939798
-0.5907011707756595
1.6566249082488287
0.7880180703559079
-0.0016766870807619627
1.6087677390292865
1.1182323426898026
1.243877180158865
-1.2836734264727823
0.7073813954494111
-1.0148451683162503
-0.3103259842223761
-2.103754338322294
0.944477175942206
1.1017290116062213
0.8713146461556055
3.0641484070168516
0.011263283159048454
-0.698545517647148
2.4874198257747824
0.6942099400379437
1.2714611403626337
1.0143318408911162
0.27544286147396313
1.1675991817721039
1.791595777962646
1.2486989290635986
-0.9225148293283936
2.041172506289845
-0.7494409234733832
-0.5664131692863763
-1.886409232937147
0.46725822702540015
2.4479915596716926
-1.1967563020577008
-0.001168326437714251
-2.618491412249635
-1.4406663176652912
-1.212686140649076
1.4349540128723999
1.2634821300136176
0.3511900074341987
1.7571413215600402
2.306512752756042
-2.015473499400337
-2.0358006758167804
-1.07326576222599
0.6054852075979084
-2.0277124865884377
0.19677232558913893
0.03866620851285124
-0.22090381710314289
0.36071699739552743
0.7995302882508033
-0.4751239359061801
0.6332438885153995
0.8553480193814499
-1.3067548693836568
2.0288673445975656
0.6651676423285696
2.5635337153785844
0.5939162166738795
0.41600858457851975
0.15348911080544686
0.18872091052033546
-0.9507620337878455
0.6836747957455424
-0.4664960719953416
2.8974654274150478
-0.6814855355136218
1.9358212523684875
0.4551176621003311
0.15616995942587641
-0.9751219391855017
1.784196171679357
-0.3942524120571451
-0.1009884880995168
-0.14967749008161943
-1.3987872916625248
0.08396558119958497
1.1701287484779201
-0.0249276366533066
-0.7619813423643244
-1.4938408012888766
-1.2096604060545753
-0.36519059308414237
0.5241637873753264
0.8312013055975298
-0.8434478490161035
0.4681663589857177
1.6964455400077443
0.3253778612342394
1.394908773243033
0.7030801934126547
-0.48577081845429615
1.425958084508427
-0.9680472607666785
-1.089280056672131
-0.19953215550147485
-2.0957413910533678
0.42357915266844837
1.9131445008984636
0.34987422771158583
0.14260507742118833
0.24532671844670095
0.6236077476602848
0.7256508479448737
-1.3800549658195596
0.4764811399468482
0.05556605561099988
-0.191746926347696
-0.5636561636998281
1.2481315280525163
-1.1655691627361158
-1.935792511617162
1.4485049353680364
-1.467535299616315
1.125118975553995
0.20847877238136614
1.7336791787102108
2.724891971738531
0.22033499014080765
-0.6103284875423071
2.3198133259590787
-0.804454626202706
1.3168886062169607
-1.4062681302689712
1.1279759785540766
0.688547219204983
0.7894825139638338
0.05922504445024912
0.014213204688735326
-0.661463921834451
-0.6696653357343159
1.4712521462377217
2.3080261845958767
-1.3135125075111538
-0.02267337477641873
2.8938556411628036
1.0475981491409714
0.6545148186539129
-1.1182728086089666
-0.2878046237894337
0.6703742485787255
0.7104245099173974
1.7676460966179135
-0.028728954069084267
2.1561945507375344
-0.683683839062889
-1.0105788533665458
-0.6725112188092665
-0.26874975688626923
1.9349196721586879
2.3910043152626765
-0.17683539888791178
2.1048945814642757
-1.2824637157602568
2.1167782612213637
-0.025561164911675316
-0.4399288566941092
0.13927717617256183
1.58695140311054
1.2418923902249044
-0.06506720988006354
0.06967900738762214
-0.5400692557918763
-0.04466962401026703
-0.9724053435975809
0.6680124739744222
-1.6081822730118511
-1.6944874300503985
-0.13595583950828294
-1.2086830070318961
0.14976445706745506
-1.4874190903594777
0.7175720892918528
0.27328024798996536
-1.2841004298082133
-0.6573811871536002
0.911473433108756
1.0138259783972843
-0.61327534235235
0.5271420232280952
-1.9707041410428308
-1.8136104710809522
1.0000808650427437
-0.2668016671779744
1.3101049745126985
-0.9306309837068545
1.6325406258986137
1.253630032340335
-1.962696795747251
-0.8568630004347313
-0.07287476566293344
-2.0577938135101124
0.41977160745663183
0.0624267351984682
-1.0778622467459664
-1.7368667002997087
-1.0096371768528107
0.4729021047108655
-2.587622496491846
-2.08839935158616
-1.1486477575072171
0.951131191115695
-0.085959144336757
-0.47799608320612574
0.40745195053366173
1.4642940851016057
0.1084578951571028
1.8855126851121184
0.5759189522452604
-1.2263876175885255
-1.916369818384275
-0.21732123414892418
-1.2559536471677037
1.331269994862338
1.2873370913650979
1.691049317940752
-0.8789073468763545
2.3868463505224122
0.4756962838348972
-0.7302850509901933
0.8197883691034668
-0.12697343950731432
-1.6482110261404228
-0.4090017229417759
-0.5444711339826469
-0.9078398346948363
0.20467873255186886
0.4928432470633751
0.0038221636209118115
1.2921069467232278
-0.6187515652961848
0.2918822590666664
-1.545323688554148
-1.8356394096474362
2.6313731977553703
-0.03055589406059779
0.1410555756088796
-1.3355162508767728
-0.16562928271707358
-0.9482933841244309
0.21406173777870618
0.6853132279495248
-1.875322210064198
0.8469942058809756
0.6065786475339361
1.668576019711793
-0.3176370391530409
-2.0746903173915157
1.01857472208951
1.3706742997115715
-1.6786982314169312
1.8256496675408884
0.052030866933750364
2.891154877865587
-0.976107145326589
0.30476469334207246
-1.159313929499161
1.288559053743837
0.9947058377277679
1.5473337331391352
-0.11040537726239913
0.026853260251704647
0.08992400101926895
1.72847673239325
1.5352859832067438
0.9892964077871909
0.989393524756506
2.2414039812873683
-1.2005717311839785
0.6697368083094595
-2.530570483324484
-2.023156395023863
1.1227338205263262
0.06294602822629414
0.7377849716826003
-0.09483423146077019
-0.42470981866707525
2.7363546419349842
-0.36857042983325444
-0.703642867716449
0.678715542299637
-1.7264256418958341
1.5261877584000645
-0.358437236377244
0.36368652084025965
0.04883999751787138
0.5724746112964589
-0.41349849907015734
2.6485426891018946
-0.7940578260300699
-0.8117967144007852
-0.28979772743817356
0.38796079487513524
0.05189052396557675
0.7310759277234636
-0.08191394827170417
-0.7838753756195443
-0.854197047387759
-0.9783042219892515
-1.279142420093684
-0.6729414325612448
-1.0465145719429576
-1.6006395879868087
1.2096219307248999
-0.6020278274060229
0.9309628172363353
1.8290372041113754
-0.007974803863166291
0.49327641734677435
-0.6615579165599348
1.094891277373149
0.7200122827717582
0.6818485422425623
2.0760460366690268
-0.7800032514392934
-0.829769940850298
0.395249452686436
0.08527673296743737
0.18470835296559196
0.19045554471129356
0.10888488173227874
-1.9931950060310946
0.7543020301016816
-0.6430934022198631
-0.5623150507202312
2.722340890325413
1.1888082779787539
-0.5548859687353915
0.33543401184703436
-0.3458577721845752
-2.149382963523746
0.02716118960295083
-1.402768477608415
-1.3792581233531802
-0.78689843232463
1.7354752073300856
0.4339056935856551
-0.699157517169559
0.9035252925954258
2.105831188038369
-1.253749584902836
-1.1192581374281727
0.714153224484519
0.5510409508171639
-1.6927878312442954
1.4837678341081726
-2.3987556788590343
-0.8209960458940425
0.9243595665003788
-0.5188460508788874
0.5514726897002376
0.8950270929537576
0.5033765942049231
0.09046134082486118
1.202154542085016
2.3666812775116846
-0.4690272087096326
-0.9261273316233709
-0.5309354597462212
0.24412558479332647
-0.6714096502596316
1.173939606348701
-1.0839317139429983
1.3876533669496824
-0.5812349520903219
-0.682072820943619
4.65451979936798
0.23516303204411262
-2.737589355565787
0.3391229544174349
-2.0669685636900654
-1.0625521552092276
0.459220894910667
-0.0806128020626109
-0.43781391389706414
-2.729326117533227
1.2111660511332236
-1.2647020448693702
-1.0702743666314831
0.47684321075772756
-0.9776517009723847
-0.4806441326284978
0.3332252885432429
-0.3475934974824394
-0.8737997475930512
2.68523376471453
0.7406980777654746
-1.0316318903268846
-1.2224811984810278
-0.9153928137733294
-3.5141349193909677
-1.3963189776081533
-0.9877710322097148
1.7728340674875729
1.22171528854974
-0.35295983086470084
-1.3392549170507853
-0.5916513087599895
0.33270628594602536
0.2540275124079588
0.5228314959636017
-1.1748575809685138
3.4309650750657568
-1.1545764980083715
1.3969797552869871
-1.2980752985933042
0.832322871766435
1.5733352170583506
-1.8801982872712526
1.6168245947087767
0.8581535609684694
0.7208101606790195
-0.14106062317239637
-1.2122377937013014
-1.437206665762567
-0.7630086060523911
1.425208978007214
0.7748924912455568
-0.2997938614791519
0.9131603258921346
-0.7907669531377703
1.2311179601399802
-1.2834122499187481
-0.3920978025142029
-0.13823212845477456
0.2848773075120854
-0.7300243365973231
0.8661530144394093
-1.6641274269436201
0.5787234537954334
1.0040273939511053
-2.152153531034828
0.24698374468110051
-0.43879721464556154
-0.18171646506727746
0.09427939379832406
0.009914497063517214
1.8592470785271202
1.7585891953745707
-1.8363986818176412
-1.8620359421379589
-2.396056923591176
0.0356620826861882
0.5917879736325393
0.32481474574053004
-2.0178689108138816
-0.6403161974865561
0.8484778075599201
0.5290073112386997
0.13446257528186512
0.5953153626315959
0.9352923875546801
0.05023806387572616
-1.8053990023239856
2.346095005825813
2.114403649639936
1.2421718305116505
-0.9637055028832534
-0.13806671826038985
2.5850362915643137
-0.3956361091899674
0.9030067695838555
-0.22576691555150805
0.9567816422278409
-0.4460532329922199
0.09981543682477612
0.993347234230731
-0.7950283472923227
-1.1324592512860894
0.6065123364450697
2.4872813719630416
0.9503391955880263
-0.26766728254253236
-0.34516966354422773
-0.0097330658026476
1.268513452117157
1.0805720795074678
-1.0292237840568232
0.8369643769477106
-0.4332343320512029
1.0284935754910614
-0.38439069083011435
0.039248110829342764
-1.404078463075046
-0.24751094041483368
-0.009938533769289215
1.3202314589002457
1.1216438739962762
-1.1396754148430257
-1.344386806414064
-1.3676764684536553
0.13826075900375345
-1.4675626517635596
0.3122016090444596
-0.16772686907280449
0.14438346280904957
0.3884332572760944
-1.4000952269313616
-0.8833166413789459
0.6626356785398865
0.013738660965752991
0.41643207330637777
1.2820025965865351
-1.0526915723113943
-0.8119797641741847
0.8980848033985325
-1.4523199590840015
0.031480924544741606
-1.1519960059894236
1.1402856979052247
0.574060496114031
0.3590207663212594
-0.2907573530917867
2.192262359539058
0.7153245464583038
0.05131138506239741
0.9966068365303965
-0.8620866141970587
0.2641742842551187
-0.2375639588051757
-0.5831450619680482
-1.8264714813048877
1.0833418012169618
0.39034801544330006
-1.3525050194421162
-1.0771535189293193
0.11099193866645252
0.6206897396953878
1.745582541254199
-0.8744025590338442
0.776054458029748
2.0915126639059105
0.05026500892271177
1.8759160562197394
-1.1003386129233372
1.6625879562024521
-0.03754883069263332
-0.8143228831845866
-0.20800704243586648
1.6420326066422755
-1.114432812850814
-1.1304084158857208
0.2248394094859856
-0.4327705588574816
1.631266591933329
-0.4505678928882948
-0.06571245418902505
0.3820980555310709
1.9790590314386547
1.6467070260354564
0.24343476566169836
0.483460162762979
-0.8508734768939502
-0.41868458156077126
1.2357251487136902
-0.016966416684602692
0.02854253885778263
0.060260402910182115
0.44877102076873854
-0.9389964146169849
0.4222827472711705
-2.4365898369680457
-0.8062027222388561
0.5572026053269041
-0.30506486940045874
-0.10563661979992699
2.029615004308099
-0.9755076384314263
-0.3249654430702163
-0.3380123549160617
4.001902385616018
-0.19070948128552645
0.9296633476896117
1.2080004432808256
-2.1589277656265065
-0.16443331942176126
2.2350551524313467
-0.5170520703976352
1.172869891587994
-1.5216406773510198
-1.263845894915619
-0.46522056710009885
-0.4129764503116025
0.024279933607108423
1.3002059984531193
0.006636466258526236
1.2463781400937342
-1.0321778072239347
0.9912870523428753
-0.09056220941147308
0.6376283468019506
1.5537783028645484
0.012687907149518729
0.26384473281436427
-2.39270261385951
-0.31761434017690776
0.06100772542850946
-0.6732364359081248
-2.1089376905819432
-1.1514788847331499
0.6793205057456567
-1.6682730944843864
-1.5612521080008988
0.24882337217681538
0.16979850162135504
0.6034284626627698
1.5401534686743739
0.849115826657046
-1.8254822594590627
-1.992958179130819
1.357270694614692
1.735436198496613
0.1054020888456137
-0.7557135791218247
1.2217987469628235
-2.0333288358651855
0.7662576222203571
0.9483346443854389
1.243655596213851
-0.45683857488727675
0.34926180590350625
0.31470062987367625
-1.100765884001104
-0.060778440060792964
-0.7264963765482239
1.5731314808905843
-0.5007738873604954
-0.742182035488422
-0.21740123923782242
-1.4510905660731213
0.13372140970176205
0.35252790830231623
-0.9420559228450702
-1.5158596453509476
1.2513561897892918
0.9965284606342575
0.7580634250521798
2.0873629387696937
-1.6806171631116116
-1.4135312365619597
-0.2728100978460223
-0.04199134100820967
-0.5772495906413267
2.7047577607083233
0.14097619216317026
-2.3571882436502136
0.27632575620548616
1.262940688565844
3.6260479123107325
0.794121285831836
-0.34897789996213247
0.1990996246332455
0.08386330513252394
-0.584647148823725
2.0529286750639955
-2.1173850322100534
-0.5539987347371407
-1.1241689621945292
0.3722966919247743
0.19901679632267905
1.6164672647392666
1.066619348472488
0.5511780760826138
0.4442702847107675
-0.556558189045927
-0.04581714589537971
1.0448603911748837
0.6587755593637608
1.6904069274908058
0.9456776253626237
-0.6494666084659904
1.7245919459509302
0.20290425748501809
3.221212007855489
-0.4447466400791061
-0.8792753615012828
-0.5288228638356824
0.4084507249385856
3.0668713747064826
-1.2512666105692076
0.277413095134701
0.11847693748372122
-1.3275773479251498
-1.588453616989066
-0.893214849634316
-0.21101016598766686
0.6079203223154587
-1.4490054275624484
-0.6061576456893871
-0.39273564676579564
1.292919816970918
3.7786792627051424
0.69162915884282
0.6567744605428331
1.5299277030922624
1.7297962640174966
1.257520043393316
-0.5986302276267861
-0.35398721680284906
-0.117483156469194
-0.05470263666549169
0.3718133895341246
-1.7268962528699654
-0.6124085728375739
1.2138088665316902
-0.033309027596608365
-1.087319482962014
0.9086843879371111
-1.1407127749691686
1.7614982094334297
-0.3961093460049656
-0.41738442021730454
0.1231209707751858
0.44766444091665186
1.6836536183086324
-0.48084025391707647
0.4344438711025054
0.8820873409752169
1.9988792826057626
0.9588409776733784
0.49679700733746823
0.8734498621565605
-0.44399657141643134
-0.036562545860801654
1.1233313665184026
-0.9961721076661425
-1.826921348683065
-0.04513182214962297
1.076276615568359
-0.34766502198133087
-0.12748902927372008
-2.3998402177527574
-1.8037042477723746
-0.8709313389990974
1.5993360431892434
-1.1932875415042101
1.4585355338269779
2.483228199270463
1.3785155693124458
0.13406610807308478
-0.9222649539992218
-1.894580873457067
-1.0924546839493383
-0.2138808409421542
1.0587647453432654
0.7601545589587047
-1.3063244089411252
0.4551622384972616
2.402109986260735
-1.1260050026489488
0.6082492431775908
2.052936315290663
1.457126646930467
-0.6008349525817014
-2.4050246568432794
1.4980956272212855
0.7006608492017511
-0.5767876882788205
0.9293325154562917
0.6221003494801045
1.3509814014168737
-1.624038750237721
-0.40055183172346887
-0.37056000137300193
-0.15002545495776465
0.44314951867748054
-0.15329229062326966
-0.1655020215946888
2.145922887981794
-0.08359110307403333
-0.8246692237726947
-0.8348456092790497
1.6618636283810306
-0.3351418602670786
-0.4641249171654683
1.0220189275637885
-0.6109358439729019
-2.36582568085166
-1.0327689035761107
-2.240467741177052
-1.4418768520804275
1.7426186221061162
0.9875011399385769
-1.1078396473232588
-0.7543249635880657
1.7914877067244115
0.02298706205452178
1.0470601994638258
-1.2561177494699118
1.6152327886294542
0.6940504196289005
0.29380101097261685
4.02659524701696
-0.23311697275348675
0.7853597901796352
-0.19036439428369278
-0.9546027447839726
-1.4941997197115997
1.646227603092695
-2.236279024339775
1.8652155554757606
0.1843993923498741
-0.965270911888964
0.7785920390887753
-0.7746839783402306
0.0751619176562267
1.8355117226702018
0.40844098299449116
0.7124802925516591
1.2260928482644424
-0.19820009358295598
-2.891295622199534
0.16284108323727647
0.596436316583023
-0.949088504552033
-1.1127663409154647
1.8978632953773522
-0.5402888538321691
1.324277407953117
-0.26006889261540045
-2.126876675591021
-1.0986453369927434
0.9973747533417929
1.142270749498453
0.20360590142164742
0.5901343595014672
0.018618053072892105
0.0075047922146183055
1.241706386095779
-1.2693212400250753
-2.8784220710710406
0.09223878178366052
-1.0402458523668643
-0.6115261601608606
0.47013405211654163
-0.34151237688359287
1.947410708254374
2.4918872333072954
-0.6559699978251253
1.7375567241432683
1.3373159187693835
0.08502526129813953
-1.1272371988761298
-1.6689613099007778
-0.7509811239240641
-0.5126843643285272
0.5989369919168535
1.6670034699853942
0.13866501511788865
-0.04218498400412653
2.1296807360034755
-0.08978196544874417
-2.2370180566993354
0.07334756830389094
0.9500427930663912
1.2258313221970423
-1.0029688493537967
-0.7692103680451885
0.9190757054360772
2.3124518675414025
0.19326650920184468
-0.028559227798180986
1.7798872196507487
0.2993877670898403
0.09718670128644141
-0.6779382106623786
0.7115593211942141
1.1230955241418077
0.14371104866433304
1.635214863542864
-0.6854548768956882
-0.08604659795384795
1.9621944234837716
0.1726104611060515
1.989871445926783
0.5487166021450455
0.5518317941403548
0.18395255831887272
1.3827173346075696
-0.7834547095740159
2.500384002085252
-1.5053107608962348
-1.7230210034298339
0.5386442733217154
-0.2310066598314009
-0.5855493587816045
-0.09780071482286379
-1.655531002349964
-0.47301072373639585
-1.9802107824396686
-0.6885077273317295
1.0605857060138915
0.22689366560727764
0.26318657995731476
-0.1560182954824748
-1.6725807298701274
-0.21862320322991435
-0.8541928501629537
-0.4638786353712917
0.05459634877736604
-0.36254161602383517
0.08486370172170488
-0.46381434387410514
0.36307579201831086
-0.21529293207617062
1.114248373772445
-1.1541266264610561
0.6718023755765121
0.9271014180882495
-0.3286046886479017
0.5246344602189089
1.4972542191492275
-0.9983716566714994
-1.3397419179149264
-0.5500393498163801
-0.43379890033979346
1.8066849129869034
-1.8997405549455655
-1.7821355966116164
-0.3852659061513386
1.318579346669726
0.3178372621549538
0.6375684291851103
-1.8635307914748231
0.1844603095187466
0.3069287922995505
0.07329984569084402
-2.863652613046824
-1.452976768059127
-0.4843230832505526
-1.2829805578985745
0.2517055541223471
-1.5423561765606995
-0.10167915172251984
-0.9205626936169428
-1.028773085174373
-0.18266636195359326
1.337540430418563
0.6195857489304191
-0.10600723750398933
0.5491916450832539
0.7592622111052068
0.47698800338031055
-1.4215164548932897
-0.5925964972194534
2.198739568704394
-0.02991607411074465
0.7427317918154133
0.9560584409046883
-0.570566875866631
-0.20560042217264934
-0.330138927922698
0.24189044165431822
-1.0888519653704132
0.04623733589366208
-1.0632944550043277
-0.41399155643860863
-0.3200235351425466
0.19995780928436047
0.8064761426849264
-1.7426070226091077
0.5216280644159528
