0.031545324368988936
0.6825633692715444
0.04936352144258421
-0.3360549435785207
0.6683191762036094
1.4566529911147845
0.14492078594405045
-0.26404363863845837
0.9949093773084579
-0.8217330829921652
1.2646623431201487
0.22041197080329095
-0.8330890558538333
-0.8505129391324924
1.263732537487496
0.05079835786665587
0.0339968611089016
1.3244908120409025
0.3456605727134937
0.4078917576671328
0.17431549715851496
0.09910182918404775
0.8352545544348212
0.9195009284871352
-0.47582497599812346
-1.0934979942460243
-1.0131696109377466
1.9863957653384987
0.867283345284087
1.0037606351561754
-0.22887583236794984
-0.4499648083755521
0.21627342002691605
0.12594739740777072
-0.9619000656534507
-0.23666700719703934
-0.1585693501861466
1.97612665956003
-0.11785226103940671
-0.8297060520093816
2.159538826762933
-0.9102502827253574
-0.9591890107587145
-0.6839546594554791
0.10668784973374515
0.3183582714369352
0.034277733421029966
-0.5922768589286702
0.049151603592659465
0.1989262948347317
-0.1695625964640117
-1.2778096568176458
-0.9743384316610677
1.146355833023605
-0.31222426741693254
-0.7725619130489527
0.6361147874109117
-0.5583821071976206
0.5009035819491445
0.18297205201615052
0.8020800058519739
0.5616809905423059
0.3826653359007507
-0.15424905214700563
-0.9186381670952345
0.040540207932851235
1.1904967115629026
-0.11086216157926951
0.6600319723512743
-0.2007380665729464
0.1940786925190431
-0.4411107035625828
-0.31994920629829565
-0.46035854100138834
-1.500590198615801
-0.7636012117585835
-1.3536789246217351
-0.24532110713261412
-1.8950772231524389
0.5318971692258316
-0.4553519389234333
0.9878459649958493
0.40488784964831476
0.1828162092874693
-0.5818849103094985
-2.186172027070403
-0.525595310947477
-0.028111999073709315
-0.25985250322063136
1.0605310542348905
-0.16600222678770635
0.9300597559782702
0.08237072882484925
0.24992326341624993
0.19334875958080328
1.0269469024640918
-0.1542585550073482
0.4068097904624993
-0.01565125582400967
0.5786465131012757
-0.07752946548039702
-0.6323933510138431
1.4805596551010818
-0.42949353713438376
0.6173083834622057
0.8436169756675918
-0.4079423612407589
0.23130210292310566
0.5940890225213108
1.406816815932408
-0.10936319561942404
-0.5609749878931722
-0.5203437282282161
0.31923989049946744
-0.7196125601566115
0.5764348084933032
-0.25279673869777647
1.2541292506332817
1.0270184099118875
0.1102600763197375
0.8234841157447595
-0.41766348921020324
-0.58779001620872
0.42937135906567536
-1.3183762583978023
-2.1195232896945053
0.6794449736473333
0.2345263231978683
0.8389995346480774
-0.10007146715461254
-0.12634924004099699
-0.7700016698525001
-0.6622185832137669
0.49151637410678645
-0.2542135252529427
-0.44032622893145773
-0.6882972769072347
-0.4135313881836785
-0.2880339441462089
0.504670527117128
0.7454929213501584
-0.11462621143293619
-0.3832806568999295
-0.3916187196489179
1.5439637204906669
0.5759244955318076
-0.21591909035507706
0.9957143464459008
0.4731194869148265
-1.7713974376204442
0.9903635724176976
-0.6666445893644297
0.44197440387783404
0.17637692265414592
0.5810566506491307
0.2475084507989127
0.4471793976237183
-0.3752736516400905
-1.1290792491963673
0.7663764411208583
-0.20229733381754583
0.31860437122820306
-0.02146318483536483
0.5910818047530221
0.892492558369997
-1.2460184365270273
-1.2370968527062254
-0.20431564502695607
0.221270799128914
-0.33449178560659854
-0.49935863037235345
0.42801663788553024
0.534987524076441
-1.074005237668692
-0.6534406018704368
0.8269078882740499
0.08116135141530378
0.812540231500661
0.44560136336123357
0.7837501256542119
-1.1881225968122817
0.3322040886339736
0.875526732116235
-0.9068901056757154
0.14479415047637456
-0.45681725205372425
0.6767808218525607
-0.43712617141289334
0.4372396325558592
0.7099566230449934
0.7039732143910096
-0.48449653574764456
-0.18549229967540054
0.6087405122563079
-0.9378029814947123
0.1360506438784382
-0.7952255789955258
-0.14084718285052655
0.9047330942400145
0.07575790267389633
0.31982630067973206
0.4076651573587532
0.4936715135656054
0.344167222532737
1.8112118297226585
-0.25992633316722125
-0.3420997248731702
-0.5569222700162177
-0.4963170030189197
0.09489700172690953
-0.11163373464006487
1.3712788513150822
-0.4614935589223356
-0.4939413483678876
1.2372782031717449
-0.807324097069253
-0.43361975842771555
-0.4574540710029466
0.9523740401498868
0.41781767875516285
-0.979320098760897
-0.5024681598685239
0.048190402139591894
0.39057304266278053
0.6659976943896272
-0.3342464285958643
0.4159504440246782
-0.35106898402630304
0.29151812928739185
0.16887084552020076
0.6928622874147071
-1.9335554190193078
-0.7391780103231791
0.14848937516755242
0.24410915754419157
-1.3303527286745074
1.0557391798098832
-0.9376567994675218
0.31976591970578516
-0.2744398748465543
0.18369046792394494
0.13756327772661822
-0.7966920100921543
-0.9985682633905415
-1.200264241628554
-1.2016319847137933
0.018540207300475564
-0.0554168929776348
0.5044275868929416
-0.3153640283459947
0.8990081753393968
0.09565354731658113
0.27123349905279714
0.4045796758679386
1.737280847430185
-0.11731225453654429
-2.279357489583429
-0.5692487422406444
-0.054848513562240915
-0.32327116842307274
-0.5394872688014404
-0.5665922485296678
-0.04246597244370942
-0.3136935297893564
1.2593697143254876
1.0631343362953172
0.7067133384409963
0.5723650385613251
0.9814027236540237
-0.05110923158489644
-2.0472602591886906
-0.9487227638339633
0.5288278991099942
0.36876998934430927
0.3843836999606899
-0.013741263034428325
0.9411927962685114
-1.668704896102531
-0.07346910193145274
1.8173945586089288
-0.1801470850678928
1.4226839002781797
-0.03605142148729379
0.6604629880883883
-0.2660395915883714
-1.4911107302075433
1.3527356306218776
-0.09053509672172205
0.8689377537213716
-0.26325572106944134
0.4831275630954028
-0.7363897718256379
0.013249142970670702
0.7779557274340481
-0.1909728381087658
-1.0570683176197135
-0.24207521944354576
-0.4072790796195125
-0.5005686874194789
0.24114599833908498
0.316537190639556
1.1768963710338436
-0.16000728386950308
0.05539223346554667
1.2723120757128037
0.26739571064722223
1.5672235522747429
0.8003698961611323
-0.19070296872973078
-0.15933841785827185
-0.11854393387064399
-0.20608349681133334
-0.5984404979366176
0.5577945492295727
-1.2542951917749865
0.07927137453728877
-1.002370463446086
-0.36941046826669793
0.8824522488953442
0.2505053401865822
0.20890545088714232
-0.3141387541261063
-0.2102003785707797
1.2097680951689453
-0.18942166453696757
2.389187045312139
0.1914923712031209
0.8176220088269319
-0.7560982946958287
-0.10660064907141863
0.5271113426909749
-0.9188658466332421
-1.1010743120719106
-1.1853411347952565
-0.27255514374217754
-0.07237968179110259
1.5334663413885765
0.35004884276865017
0.6887185522170399
-0.33101373864154365
-0.6033499487376268
0.7734616899132103
0.6407381936139555
0.07217376699644851
0.45733445314068527
-0.32130404265021945
0.24404907240675658
0.034709639806745796
-0.8341906144675626
-0.8784499213389394
-0.711567717632429
-1.8736461548704337
0.29537652997653624
0.38630643140674364
1.0106281364554466
-0.07555059492824792
-1.137797949979577
1.0222477300039745
-0.13181565644965423
0.8140582327224399
0.8786193999976589
0.5129466241368533
0.5966567350824271
-0.5562460100681568
0.3298713931497074
0.48388025547282526
-1.275931242820934
-0.35487256655525345
1.5943547918918082
0.5174645137156408
-0.1763632846796902
-0.445122432243321
0.5331682443044183
-2.118129623735959
-0.4892774531727364
0.4648924412703889
-0.19268241058497138
1.1701279389114052
0.3818295219039374
0.09558418724657099
-0.5353697086970526
1.4127135917598626
-0.765057181346867
-0.17601460295406152
-0.6424664539792853
-0.10137848518989777
0.2961590602482981
-0.980589745057746
-0.7094504239608092
0.15354686662800854
0.9562343638426057
-0.9462731209053455
0.4354897177954661
-0.1902700190131472
-0.8717159084972601
0.16328344440109005
-1.5542354946152845
0.7594938463131825
-0.04240667037305151
0.39840620240203295
0.5187666415885657
0.025441601037900496
0.3651003315887775
0.30405939537205673
-0.7622329372135227
0.18085171562946456
-0.2843554800618016
-0.19624173835722514
-0.03170729882873097
0.874823237842111
0.2565502740322439
-0.3151271773748137
-0.13371429459790074
0.8645835985663047
0.5729016322027368
-0.7737162734147933
-0.6325152164684187
-0.39064911093048826
0.18273965795577723
-0.8239749177212823
-0.5200700897382128
0.8628989616083165
0.0815821587340069
-0.45703262722221905
-0.6966221416072506
-0.6621614216826328
0.040630897825195245
0.2938487281907307
0.7350618633570953
-1.552054041810677
-0.7422562719069384
-0.4293577694190883
0.009441204183112228
-1.2744392021550155
-1.2947028738457949
-0.9295186638739625
-0.8588445027105045
1.3930424570134687
0.8079731781214039
-0.8160255830004715
-0.706305951457096
-0.6268428274457567
0.5130510999760058
0.04866493317463369
0.46474073304778724
0.6279440148574811
-0.13030958595788994
0.5268348890546098
0.1545424180680991
1.0110118681488327
1.1203996828294702
-0.35760815355785947
0.3344110634015047
0.5740485077908087
0.1400557842426965
-0.22104860957893768
0.20765363183724445
-0.6672690874230378
-2.236354931895109
-0.07667982113491029
0.6905972554685014
0.34649216107534697
0.1693175424245622
-0.9270166684092787
1.7368985003205604
1.129438773299838
0.18178124827214426
-0.8417232614894113
-0.5239462093348508
0.06580483530603115
1.6025944792419355
-0.07817132792946033
-0.4338181294169296
0.9179898690521704
0.28524846672658644
-0.029647264086538616
1.2687410350774735
0.6684819582454952
-0.45038671353030363
-0.6152672939249548
0.36071583925776374
-0.9361941796369223
0.7451973463524018
1.351788226706443
-0.7672996560221802
0.7511519739479251
0.05413745302974615
0.3895001213191661
-0.9811123886919972
0.6352857758932366
-0.22343647907284978
-0.22248848985056657
0.017265687626718762
0.12198465526998525
0.34468112626367314
0.08889491604775732
1.5708430353576506
-0.592740887161765
-0.289821662274661
0.3990534143929655
0.2694912697824818
-0.7532431021383299
0.7173110977028487
-0.4173194693185016
-0.35354756861778946
1.2980212964107702
0.38616284941798384
0.3584216962758166
0.4361444205664454
0.5485811357751212
-1.2100915839181887
0.7309633486549998
0.1029022763508283
-1.498332717185103
0.010437271577118643
2.1659343957156416
0.6223742599372621
0.04183554774115053
0.8089649355951726
-1.2061096225919616
1.4039847005092183
0.9762311671591996
0.6912861539860986
0.5825917022635616
-0.876631461281484
1.3831826642048288
-0.15626131203595467
0.3453507607158461
-0.2235304998298147
-1.0128736184697817
0.650879591357723
0.44184252379667455
0.4058248265767035
0.37175942490910496
-0.5992941041431886
1.3655665070276592
0.5069262544534596
-1.1338081812838703
0.5684006666551524
-1.6683733667385403
-0.08426102189160911
0.9523239962654587
-0.4824698496119828
-0.6419580898873997
-0.46815053610568097
-0.08308514668955537
-0.8224775950912091
0.06557055246237753
-0.7244423269717422
-0.1735885738435443
-0.0052480480528760975
0.4410094300650816
0.10881237078448647
0.04966604751497605
-0.47975526075598773
0.44862806983035686
0.1907954531461469
1.7532131655558167
-0.5654868369738876
-0.9048643443880845
-0.8138817737509676
0.7848839630193882
-0.40099128176170307
0.9627178103230987
-1.2462800481868925
-0.2602290824058841
-1.0153528091878374
-0.6031541453117538
1.6595414649674058
0.29792573629340235
-1.397246858158884
0.40399253475967695
-0.18364759838016162
0.06090921991086601
0.8772714120093921
-1.106214450673215
0.40016005524225595
0.4566456646172117
0.05918199577022465
-0.865651786857027
-0.11546794286060724
-0.03747827346273491
1.5861676815964416
0.2378377498034338
-1.7960185628513154
-0.5605912284661806
0.5363831450961872
0.07891983631681349
0.15528801995651442
-0.11352403118344437
0.7598800420921298
2.522893024837524
-1.012430047990763
0.48249975907756437
0.9782274874089008
0.4806258138980231
0.5489997003238132
-0.7472627530217308
-0.03520233186191139
0.3331591926948454
-0.2074801436721252
0.382568620137435
-0.7915038502693966
-1.4380381392734938
1.3545667698709938
-0.1371133117431983
-0.9275079396254488
-1.3773334287176155
-0.2622808755890926
-0.005461757016290036
-0.06454033002833764
-0.1141898486141604
-0.8583411494812017
0.24265807043961876
0.5259926969731807
0.31062150979069014
0.7712821522621882
-0.47565998282151023
0.2812616276952406
0.15573138595096514
0.8088270936463013
-0.45214415094586335
-0.19636757384724468
-0.15952740086653439
1.9940480197465345
-0.40535409478801493
0.8476036723425937
-0.9507152333637472
-0.6379559273003692
1.090724111147177
-0.1844751007096872
0.0857556142200768
0.548610970157542
0.39082980151835744
-0.44021730685604593
0.3404599056691373
0.8451089413161859
0.5676073085887687
0.21933499010974133
0.24969164935175037
-0.4074448944583096
1.2279163629319139
0.9108736093058546
-0.38012790315860623
0.5496538787255152
0.1974423873062096
0.6511510424162168
0.5211274904179659
0.7102188779105506
1.1328329255284642
0.48103572562543906
0.26814722274407427
0.05594192191987524
0.14333459304309337
-1.1637986627822994
-0.9640281363215981
1.1320337867946397
0.5688334725006283
-1.203510700523971
-0.16766281864934907
0.7145216214940456
1.1507901375123564
1.0812871122091878
-1.7163785672500376
0.2799557102999304
-0.07809529599382364
0.2058312314478575
-0.5156372903733837
-0.11249835751796168
0.6151157250315369
2.691904997920405
0.18888948587190987
-0.44009287018212345
2.0836741683855426
1.2893714673253143
-0.843026742213407
-1.304604418910361
-1.686166758196144
0.17495964513858184
-0.9836016471706693
-0.4827601558411392
1.6749415422075247
0.7245607497719083
-0.7715617887680235
-0.36501238842528627
0.9633333675156823
-0.46441451797194994
-0.30459429772615576
0.44357281787272584
-2.0918094292879603
-0.771595202462633
-0.2220458941781242
-0.2592272394058261
-1.5536904681416819
-0.42833392445498153
-0.08752268648636086
0.20888873367924155
0.3239309225152218
0.03076721295928912
0.7392671980093091
-1.5186879826102606
0.7777531710800285
0.21208735451256594
1.354831258093993
-0.5039629504126679
0.02147110840503469
0.18103249141618677
0.6899973087204612
-0.2729406595831903
0.4598056431511418
0.23171200644511014
0.9204293320552157
-0.3880733599105056
0.4593883015637275
-0.9386038091434008
0.6795403075573845
0.2014265685957818
-0.35458890737955895
1.0275536671263255
1.038837484729602
-0.043595057626265865
1.028209674862687
-1.6550637906314776
0.2702410197991456
0.059207958400858074
-0.24819406647229258
0.6590279092370652
0.1340697915134198
-0.6241192510469603
-0.6341213206878006
-1.2371414522625703
-0.8783454548212167
-0.7851337462266365
0.0854344163868076
1.738191012275398
-0.11257936356032648
-0.9139676213036555
0.957691408362189
-0.41343481837412527
-0.2903260931920386
-0.6234599235493602
-0.34627019604471543
-0.40021519416617213
0.0866102991231848
-0.11446743890795674
-0.034034601670035025
1.4147116737393794
0.9428157309601093
-0.4191244940811716
0.07269007471736433
0.10854500433676775
0.25654906653974857
-0.16252207574020788
-0.7784167018521408
1.3059036384375136
-0.1881549867043903
-0.2047109693046494
-1.651940491504176
-0.8403095245276373
0.034358263574811976
-0.6004062301270006
-0.5281550182718354
-0.9205760412444363
-0.04625670442699911
0.6442455283522731
-0.0648733599602478
-0.0270381107846695
-0.7342865809983767
0.9033824480139212
-0.559271565327599
0.22101318995120595
-1.4875952416585059
1.1446072716333913
-0.9501361709439122
-0.3852806308231006
-0.5728883223055324
0.42219193405602373
0.42331601234382793
0.9136446391549453
-0.35167309795297047
-1.9817811642808052
1.0605319123797314
-0.04175836828689512
-0.7727672435339602
0.01695339632004511
1.13151143507783
-0.3504694174003672
0.15850154331074628
-0.05104158013382876
-0.9181067831495555
1.2565441393646153
-1.9013718075642012
-0.18867536641602042
-0.6477320292061715
-0.964738797868238
-0.9953830256238975
0.025325220025674056
-0.2366294438064806
0.2173932247092475
0.11192266959015784
-0.9216491241024437
0.2532598482429382
-0.6837723901293615
-0.5976219501414968
-0.37590458582752034
-0.2304563891239489
1.5318866720507973
-0.04168286622443451
0.3169398634692018
0.6742056523421042
0.7098022656557199
-0.03620380672040638
1.339167657544266
0.4322459953955429
-0.12778303474475344
0.3214515913052409
0.033115566749917724
-0.4189876456028233
0.5146996797717669
0.2397536963130399
-0.6903337895313503
1.1251558083140618
1.4751226100071075
-0.47703274625885694
0.013151202243476046
1.0096911964591593
-1.0958989881986314
0.6778092945161962
0.14361185800691745
-0.10895239380460958
-0.2916129039560939
-0.2294221109091901
0.17705803869826953
-0.3148525050393104
-0.4975496754127496
-0.6772659215049417
0.011045059461458229
-0.2523690366583119
-1.421107284585813
-1.3378558650826156
1.0417906690564314
0.28147050904676624
-0.03827943479692775
0.740096911836168
0.1528110850408348
0.8866174427733362
-0.335225238865422
-0.2377177672678344
1.4062645511610026
-0.2600087032888519
-0.3300124445694492
-0.70412333296067
0.4033180350309541
-0.013084629386979907
0.1712431773488448
-0.09977880196013625
-1.5996110402998325
0.4172360838452549
0.16256182309770606
-1.0875314364166702
-0.5478114338147343
-0.9054124561313552
-0.2844275785571665
0.3520933297312814
-0.3030972023778532
0.9111320178069198
-0.08781950580192147
-1.002981457187483
0.7396908346027934
-0.3842804930476576
1.195400071515651
-0.4038995176985803
-0.12542902160335057
-0.49941978836879775
1.1124987193270144
-0.4867306663149048
-0.5873856999919252
-0.2788468848815926
-0.012595423786103066
1.17305067900927
0.4381866793098814
-0.4553711819017965
0.12882167432682828
-0.31765965854117173
0.5398331432161463
1.1919348212034255
-0.32235618348908807
-0.6052026853603634
0.5651778474643646
-0.9001875586390374
1.5459183321626218
0.6788430488750811
-0.9351461692181722
-1.1252826819396857
-0.23675001576044374
-0.6327582658615435
-0.7623457691244152
0.09195598223937335
0.6721134797498288
1.2259217372568294
-0.2498771038681883
-0.7379190071343533
-0.3968786420805561
-0.2677210865674081
-0.6352099798186496
-0.5601282313266697
0.25377638249974566
0.7120007319529342
-1.9451922161591084
-0.6699378217654497
0.11702611858285772
-0.04593329386815198
-0.24038513741953788
1.4062693749590367
-0.7182567113287732
1.0261620416465072
-0.4545707860258812
-1.2991554792066853
0.8776083814271994
-1.063458490495114
-0.9600631236367252
0.6232886630579182
2.479553973905258
-0.5903342859716825
-0.3040498109869312
-0.3404128423883569
0.44713290128502586
0.5718991633741465
0.5808826897878175
1.0492186518448017
-0.7299330347554942
0.11073713368025334
0.8042128711478135
0.6971603702415717
-0.00259021671526094
-0.026061912846261106
1.3019556815891349
-0.45045912322531756
0.8970221840794486
0.09142550610973066
-1.820957845801213
-0.23379288577600077
-0.04709662696211725
-0.7876997987647568
1.014017799551035
1.4390070090714926
-1.4124487138732353
0.2588984219145641
0.25976789041214543
0.386064379687973
0.7100134772131783
-0.7150709858233955
-0.10599886732773427
-0.27733469808998135
1.5553776714474914
0.7832368632358468
-0.3054054140645671
-1.1035773745033688
0.389677735506929
-1.5262858412035794
-0.4928460330050424
-0.8410969709295049
0.03893019548718331
0.07034475657412417
-0.521313989446866
-0.20869096212558713
-0.6698498039466078
0.5744378342101328
1.981684661046629
-1.5559140889384118
-0.6912621273323598
0.813626407823346
-0.08929197910987408
-0.446515501538356
0.8547326330163544
0.4944110438540764
-1.036720760330853
-0.14119776690025498
-0.06697024228718831
-0.666413773151711
0.08575169036861574
0.11816307263162779
0.13564407736249678
-0.5782402072731333
-0.211957538159963
-0.4876527151683393
-0.8997449548277711
-0.21727051475938294
1.4006395960821012
0.2260932654958031
-0.340256400827642
-2.5267458805942624
0.5715035288746172
-0.8527996835062099
-1.1602556510798436
-0.5109074786455311
0.06490652281691231
-0.9204764274555757
0.2486613024666086
-0.9032658824670565
0.9513096644997491
0.04231805398265081
0.18226979922024567
0.248103204130923
-1.0578216395169864
-0.03595774817496822
-1.7157026328212566
-0.7040571632596051
-0.670896108024025
0.20850526349026055
0.07330253057071467
-1.0931144272025748
-0.28871755836620194
0.020107877636759586
-0.5247908396324902
-0.6806318335011579
0.47855616977492943
1.3150600591827848
0.2518563407979162
-0.4056763185664676
0.7184515606630149
0.5784174454069542
-1.7099131293077034
-0.38623106043581745
-1.379213310748237
-1.128207451958054
0.8689460690360234
0.06887960127290525
0.3627494075049953
-1.3223836395765827
0.15953840110440698
-0.8374023200819826
1.2524551223945322
0.06888097683188321
-0.3052624275517775
0.64016305277859
0.5499262692890492
-0.6694955547074029
-0.3566013775629493
0.681184878348242
-0.04513726944839247
-0.1650612914540217
-0.3591885396686841
2.2828966278138685
0.5615250038218167
-0.15898604072683176
0.9482386922832213
-0.25135346095924993
1.2871719961184813
-0.23337589933899178
-0.9147536445757275
-0.6821722356799632
0.23931705945668696
-0.6025388489220741
1.11106912045206
-0.8271233285114362
0.8128367811719605
-0.559308134880564
-1.003561996991338
0.8156736100211934
0.7678892394727024
0.21082682726151553
-1.3956522512740466
-0.014187843374324105
0.9032276238706461
0.20393074233321618
0.24818598076989498
0.5418948105495143
-0.043995758093812176
0.06471170981128105
0.5657136483390418
0.8194095388565356
-0.7904460388155643
0.3705387335646432
-0.62134231096729
-0.8283531999076194
-0.7789394031508508
-0.7922989697855642
-1.0501085536525832
-0.10244784803373008
0.3952157778344717
0.8363645462943635
-1.5891796087631724
0.6689830275608041
-0.3513579824756251
0.6716378919204522
-0.29720262968685723
0.7234747329642388
-0.3423288866495364
-0.06640963307982195
-0.6525385771679706
-0.2760411482885379
0.884454088892927
-1.147984111203478
-0.3081314147920358
-1.0842011792869162
-0.6679620256435298
0.7042374980242443
-0.33779102807338607
-0.8878592922492998
-0.5410782166981031
0.2151722792399701
0.411947133647876
1.1757103594045184
0.7578976443519411
0.4822626586443136
-0.11108865664030937
-0.20629053695374924
0.15944396133559752
0.5640032236792647
0.5213598905928849
-1.160962144290121
-1.1729273299715728
1.3927186310804158
-0.6915511387106666
-0.0500207602561234
-1.630870062275785
1.743496234761885
0.27267115585589763
-0.6957526292405453
-0.42820997620487156
0.4359797186010548
0.0046560155149058535
-0.9353914828129021
-0.24920450169565883
1.1634358543195433
0.0532954132289295
0.17718123703572086
0.3599759197186525
-0.15314346578530125
-0.4767423949591099
-0.3551271853423167
-1.0217701699741442
-0.45642950916862685
-0.09559809080552956
-1.1340476650899471
-0.5471048818084818
0.339255266779939
-1.3390901589945614
-0.8159384486285484
-0.6457916610293959
0.21186117709257285
1.200258487692777
-0.8167050052409766
1.5142780447788844
-1.3869646341179003
-0.5097479448306216
-0.21149927026573023
0.489871344842276
0.8751785197811401
0.7083137297444763
0.1288792127291284
0.3749599880930638
0.7277505428794422
-0.13024036365533753
0.030359534975317723
0.5528875103757668
2.7211527092309757
1.069092284174907
0.33607086188599206
0.7850110448824007
-0.11560844681300328
-0.11896437298694014
0.27386906664838473
-0.3458311445571447
1.1759633845154034
0.17301703462939894
-0.49483609947891166
-0.36156017415331426
0.2151307651735618
-0.06792605677422753
-0.6297771272638982
1.7961691827502837
-0.28648567269415454
-0.7224224452495591
-0.0016436462227504833
0.5220899708057953
1.001426902723332
0.6575063276720385
-0.06024169298750842
-0.28004583117036785
-0.6955458678304516
1.7192904883648412
1.6571229391473103
-0.8777009122724925
-0.4200040166913368
-0.6177499563536872
-0.750472517870885
-0.6929942345295906
0.7899446808225239
-0.19373993656100785
0.42165684961623934
0.025385790038158093
-0.761592625108797
0.12859822731796977
0.4591190218325567
0.4014678505298883
-0.6354935705803567
-0.6760512542340269
-0.05278859662620816
0.36694971054049075
0.05441843852965861
-1.595955529228291
-1.0787871673592495
-0.7447792073038975
-0.35057907595356114
1.5672697541156477
0.750268429039868
0.16979331439840875
-0.15054615858979914
0.3070137781399976
1.6216867726453943
1.399842814266849
1.0236910401199442
0.1989321933566714
1.3207631724211408
0.6440184393943393
0.9563535453897871
0.6957663246591922
0.6199360729309241
-0.05734378766224668
0.7440811736286734
0.16714363371969987
-0.1300187358656454
-0.2366697704915202
1.1674730797954598
0.6390104319951873
0.2851821053812209
-0.9575273593738797
1.4881917523281074
1.1185642792254928
-1.2517898200765278
0.8243998317860108
0.2684651116099904
-0.6245948399686911
-0.901123821307203
-0.6253750111970701
-0.485087522259621
0.1435322731795572
-0.33274956171304043
-0.7583299133373382
0.549009730376187
0.20385126148129068
0.6701176119588723
0.1646973763596811
-0.13605231165346263
-1.5195633474642563
-0.17863062599044593
-1.2302379937072059
-0.8305302300153063
0.6619703590158352
0.28804394238655084
0.7893622418545752
-0.3728337970298306
-0.46420147194662975
-0.13184746116913976
-0.31258291378654035
0.27355503509339385
0.5743681656140031
-2.088854648102677
-0.020386965711588823
0.07474802956819121
-1.5683738697420988
-0.5941121080672309
-0.1856269206847343
0.10501570638720549
-0.14627030320495127
-0.3832779176204879
0.3649789550499478
-0.013073350983353937
1.0327483589133093
-0.6187688270520968
0.6092136595067548
-0.685951774242962
0.8950290946071631
0.3405783369972958
1.8765318544894771
-0.6103624641939471
-1.207751495617451
-1.9666893477511636
1.2530657595890429
-0.022624056206288712
1.2548518330454341
-0.26219493479708456
-2.4346597233990472
0.5797956519403783
0.3357151597689475
-1.4372929402705963
-0.5973291379560959
0.3786832490563431
0.7515857477341574
0.6823645774253855
0.03928176843824649
1.5047421892535964
0.1534377446604231
-1.0871069429614382
-0.23313684144569755
-0.37239359134360994
0.9634079072010429
-0.4561359153682506
-0.6066222000176203
0.055599939537800847
-0.004360759003270077
-0.6471504644455169
0.3594122227740193
-0.6129751016001079
-0.978137100754148
1.0195820915803213
-1.1395988584952572
-0.0015111073127093977
0.4694712384080202
1.1443040986318391
0.7335846399954074
0.28122446511375726
0.7675021825463386
-1.5384080455069165
-1.0921370473975072
1.0002183929073134
0.14058475840670032
0.16700520567721083
-0.8220479207759059
-1.759521298554183
0.1475100523056594
0.49440311499726164
-0.8452314177922601
0.5086118173015726
0.4743372013057114
-0.7008867117790862
-0.9938190564197333
1.274919824128726
-0.9917663346030766
-0.20989400531753144
-0.6322041210357705
-0.2033356800959188
0.9829437701417059
0.8226661454534744
-0.5372834430364082
-0.23290751163899248
0.0828216065741369
-0.6459944966964881
0.12032895367912844
-0.27921216749310407
-0.05477217011021714
-0.14465586946303804
2.0144224874060797
-0.8665588672948403
-0.0899059210088193
-0.7390179114950326
0.13962089499218466
0.8745128751182599
-0.7959069837269127
-0.18577989399466588
-1.286898450140823
0.06823049488216759
0.1417702428149769
0.7938061142337441
-0.712529696519368
-0.04006649067752549
0.4438214006012505
-0.8418021291891788
0.6764061852018934
0.03927987955318779
0.7522083605816923
0.5423070068382146
1.2896101140938008
-0.25403039848274667
0.9248291879420023
-1.8786532759582455
0.6586762935115743
0.2328682537424127
-1.4083318731037013
-0.6662631965277225
2.057213626783911
-1.5377476967278387
-0.10650490855709394
0.11117374141438296
0.9818708494364353
0.9557087140410091
-0.5898479072539569
0.08282727844945767
0.8720108757369924
-2.0300936816611586
0.616729257713049
1.157712635528663
-0.5392916827040006
-1.01026859411997
-0.5453150740911168
1.2184814455614241
1.7004064495470692
-0.9838051962880292
-1.053233108700592
-0.5709792735988077
0.09328482752401056
0.39519309063355573
-0.6636552168027643
-0.4665430255849764
1.2433634920557164
-0.9626319626812834
0.6088454263345241
-0.1992879580613093
-0.7198535910186199
0.10051671521392631
-0.5895004732122613
-0.2901891292342167
0.15012736983016703
0.7035329560128448
0.4506591804233506
1.3237385044682934
0.7015275637908593
0.7910223559668972
-0.7602338603936358
-0.6467903444121467
0.49525046504557185
-1.0049388830648684
0.6011498385146685
-0.08967569451710566
0.19636249827198424
1.276422414306081
-0.8163440839154036
0.20655035524892815
1.7539076615524745
-0.5333064291304669
0.7250449276487958
0.8812958270529054
-0.9179662473945214
0.4833958210196752
0.35264800794638457
-0.4957571197784878
-0.713431563697503
-1.489784083316223
-0.7405426495514282
0.13648297697817252
1.0230293189647768
-0.30671637382509487
-1.4185568994706468
0.716314116246815
0.40641895407847173
0.8087720432887411
-0.5438179690882183
-0.22544276605651323
-0.13818308687405156
0.3783500183876991
-0.2683953822339902
0.13012654814989633
-0.184300394028596
0.0792225751964768
-0.1934338453553054
-0.3721313212776478
-0.31866325057414474
-0.03747847304128653
0.2287212921094203
0.5534279923728751
0.29695134785179716
-0.3800248351018267
1.8131797439956014
-0.7870671798422966
1.0349392671130024
-0.012104053282066873
-1.0327027526045205
0.610524796473459
-0.7025745698385513
0.35526827540654693
-1.3798377644684388
0.40798480893882105
-0.8417657066924229
-1.0623484670383658
1.0508298649684222
-0.3874480643786582
-0.32492004120863854
-0.12340609976654399
-0.1836257355482096
-0.10518037020511206
0.26268508067916174
0.12582074660877773
0.4576485211472844
-1.4915627761463917
0.5160627845243894
-0.47560761387769385
-0.12477640854628314
0.5689144541729811
-0.19740787425024586
-0.5569024341544535
0.005722278551220927
0.17431772778364274
-1.1393367271739125
-0.11034815752343996
2.2248796840704443
0.40610461361584876
-0.04836748162107685
0.5590056822615017
0.1737369483099047
-0.20482244184935955
-0.15728240633823456
0.4209340126989457
1.1999473919369625
-1.278000355786228
-1.9590396401469685
1.3613917451261877
-0.35170679146505596
0.6015779976129347
-0.6199884872017923
-0.6760506260343615
1.1315607482601489
0.23116830461065
-0.1897586672481322
-1.4548565126331416
-0.9497703382293018
0.9879759568822574
0.003547487266231164
1.169550558371847
0.303256623087218
-0.34979031536381966
1.1866997302545417
-1.1545914430556934
-0.06036157576199319
0.5218944050382773
0.21005743793768672
-0.059779700047658924
-0.2128211710746516
0.13043671151022307
0.8813612565224118
0.004529963083292288
0.37745266167947567
1.0213143524543666
-0.36314521648275855
-1.0863828164866198
-0.6113808790001573
-2.1091239615183857
-1.0641078155657877
1.068339043513205
0.026009255553226918
-0.7264541292783446
-0.2040784040867078
-0.8444558543752159
0.8169398709821319
-0.4941779257382147
0.4514806500543148
-0.4353311706462677
0.589897867072462
0.5131458504396617
-0.6065151497612451
-0.1653900223193003
-0.4545891217459665
-2.796249308907063
-0.6849965041581834
-0.2972110501633958
0.053191196130360885
0.5544702830722049
-0.05628392881442576
0.56580316775614
2.256813541943977
-0.3099649466081553
-2.2259807740595834
-0.6537384811943868
-1.1911598502601284
1.5918358798197931
-1.0554877664540798
1.2350309569002196
-0.17316543403011464
-0.05236071622264271
1.2558767667146202
0.3597364502044835
-0.2019272294972298
-0.00447593525021156
0.7201624282779407
0.08366030480728498
0.8370075122209839
0.18543926075233014
-0.799541500536624
-0.08653825724815628
-0.3453167715290535
-0.930564692732712
-0.2714462127160729
0.6225180723233348
0.5494550465530529
-1.0073448922271577
-0.22572954346986435
0.18429227807619275
-0.658789985328639
2.2192058491232487
0.06773248020412259
1.038558442304275
0.4579282064748317
0.380833619736599
-0.3610786318249895
-0.77910691128582
-0.4240985020845379
0.04377159176274192
-0.11923430374273938
-1.0536484586216481
0.5890615229391801
-0.06662001771787714
-1.1095695731900383
-0.011316291409036408
0.03713428933392399
0.42451556899288034
0.3531541782935975
-0.0010892357741313918
0.3557470455785105
-0.4580404133161917
-1.7226915322615959
0.6773867477070689
0.4795692765058974
0.022342413688769547
-1.5187325372008489
0.06932848096242367
0.043423615671655424
1.0639628800333352
0.29394636161973453
0.06386981590507192
-0.7148857988973133
1.2327324556488488
-1.0065684276899938
0.29743345410823796
-0.551871391294348
0.7589789665624265
-0.38091496813863956
-0.3703583965837037
0.560277320030776
-0.41106712160360237
-0.018061101408388514
0.43149363896759063
0.35932362972825116
0.25516088868617093
-1.0735425011738864
-1.088650353693442
-0.37435712411100264
-0.7841212450807511
-0.6939805029976214
0.9195111896435162
-0.7872718661714471
-0.6395679235362335
0.4587116868453942
-1.281162674005217
0.9221568539003654
-0.8103917699649856
-0.0524066197600076
-0.5505741297293627
0.8510486233818728
0.5354629970064378
-1.0049681033654663
0.1524707658929993
-0.4346190605985078
0.05112344242293504
-0.5748576525016629
-1.1882556942679479
-0.09742542064082238
-1.1046979447086314
-1.9793584492287888
0.4920766558021476
-0.7710537750761218
0.9179382010562623
-0.18772831118096847
-1.3524401048791606
-0.6124262627479777
0.35823283229369757
-0.19307027781850933
0.45032943521275254
0.7099555191784246
-1.070403133128078
0.33478404105275794
-1.3481658790574438
-0.3892023724977063
0.6381289146408573
0.22977364110803455
0.38341774051811695
-0.3862291319299396
0.40817948097942913
1.7036429011388712
0.7970625588537164
0.6316266849520761
-0.14122110619390604
-0.9638626403898363
-1.1685989704052635
0.9061427310006096
-0.8687242182551272
0.2619891496872142
0.38762961996149636
0.9871678963240911
-1.0720738192396404
-1.3868317039788216
-0.1827320006980112
0.31114756952176786
0.8323117358127037
-0.548604237823391
1.391181502435301
-0.5497579276643334
0.9479712443053232
-1.0008951082108335
0.588426079577479
0.06948393206931816
0.6124768468896258
-0.5155125505283724
-0.6268399663468465
1.1575252495592385
0.8144596754271063
-0.5582463930243027
0.22743766099679236
-0.21995047712529397
-0.4055523831541399
-0.7860716322583116
-0.9236102633651442
-0.7321597225463493
-0.002530957181414051
0.27817441891751993
0.19937443310856398
-0.02762525006994941
0.4409274146537059
0.32645233613038477
0.006227759147648254
-0.03337287764395502
-0.9233027966719239
-0.5735272357505097
0.5096847970546645
0.3838060395552674
-1.2208276642668765
0.8635205744011778
-0.16014662323765982
0.4580352837322591
0.9852634953589545
0.40530898572663154
-0.09765874891345233
-0.840783212127365
-0.44598292106736054
0.6147334830157325
0.6924529226025091
0.6073201058477008
0.8495444169696963
0.1995678038437746
-0.6191379502167885
0.2208536986389462
0.9996738276684203
0.10878150726286229
-0.4134748191770917
-0.3317382269527911
-0.02212020473744944
-1.1284863603756137
0.9805009932486277
-2.1600327129815713
-0.6463852344380063
-0.061022998886360216
-1.0472282256271799
-0.028568507259819964
0.5504332925455495
-0.8343974693739431
-0.6357695386102806
0.3704355847880364
-0.7504717088469555
0.25428484080670055
-0.8211480654207097
0.2434323121602367
1.5720541309201044
0.4835407560864856
-0.4894114031411576
-0.38591297067911445
-0.016031652793868173
-1.3064575300279317
-0.6874940240802042
-0.29647037163557444
0.005259616414732604
-0.016733354264143685
-1.7829844528520127
1.2315936301384691
-0.5188286473627146
0.006118160112887794
-1.7403662321310185
-1.7305161641401217
-0.6256009724673465
-1.104906623311948
0.4062372703485451
-0.7038472900431259
-0.5543296042730157
-1.8613128725375494
-0.8302270591255599
-0.14419309092089452
1.052969056393235
2.0927003809860603
0.3889456519295358
0.1506040918322042
-0.1352256443050538
-1.2403328309059982
-0.3837505209028237
0.039921983209680656
0.7639136975660037
-0.6591626127054376
-0.8688158319117948
1.2834342714157185
0.4776199284423951
0.5662389784198809
0.5286155155853204
-0.007196940778783745
1.5913444800240875
0.2109202271031825
0.12777786970370675
-1.0686045875537367
-0.3704912516714572
-0.05459994207287787
-0.9901746056796558
0.23403624602984238
-1.6242834364852898
-0.000903303181395157
-0.8246933319069295
-0.9335598177805433
-0.9337833239575746
-1.0177076368150528
0.2820427646820358
-0.4472237054715595
