-0.18679111425307918
-0.405347011643652
0.03158849344435612
1.1823336309277397
-0.11656766873327655
0.5854355257567679
0.00981473750415828
-0.8495419080323521
-0.005625756183234558
0.5732093547723993
0.2276413729031148
0.526920599262795
-0.14377851285334173
-1.2200326347456187
0.1369156841900679
-0.020728153621871845
0.10603598212863685
-0.2244097608413909
-0.035923447420007026
0.2647418403970376
0.17115011695469684
0.9320030622580687
0.8228358179394237
0.2871960253675351
-1.4512957405905753
0.3319350663186209
1.1387159482222753
0.028693144588547426
0.36187893757425726
0.1133733674467332
0.028732429743411704
-0.24297650009440697
-0.4555716129221484
0.1143385578378089
-0.4231662205062224
-0.035669312878568914
-0.4595233743585968
-0.17683396320439249
0.06990419624986309
0.7204160458980848
1.0129690732123637
0.3953570417013206
-0.5092135555307442
1.5531326636457188
0.41007824671400395
-0.7308591420322379
0.7939456073185732
1.801484276938949
0.3435010284414148
-0.20456450484720473
-0.7746677535765402
-0.25830109671731993
0.009838158175133118
-0.8575760914149003
-0.12210929562678632
-0.652965647813814
0.014268566480246523
0.1789349912351584
-0.03796917676978862
-0.06101138756504848
-0.3630664264431696
-0.011498150813446517
-0.18233997138720287
-0.672136065689022
0.9606739051422211
0.2077177167741895
0.8048707033081494
-0.19905565912167714
0.05393468026783558
0.4480585815098076
-0.12683726921409424
-0.186932444530383
0.945014519706098
-0.23168728108248507
-0.0692718139612449
0.1819460462119165
-0.4423331573046213
-0.17507092126273066
-0.2097520876383715
1.4597892624875042
-0.6201045033523931
-1.605637207554617
-0.02226517231733809
-0.5834000140273311
0.03039525360143708
-0.06261696798622744
0.36606833649280046
-0.8058321609877427
-0.154358263916947
0.18143951134670916
-0.3449138169853396
0.8328891023905575
-0.6085819646728383
-0.1634473007141296
-0.4767218172896986
0.37690450784336466
-1.156468066861766
-0.30146817044982877
-0.03157478797737761
-0.08845512869976675
-0.7440006919038343
-0.10231911603555419
-0.15713988419025995
-0.18811726068076437
-0.278296349070095
-0.017741450827018574
-0.013018458852327853
0.035513268963612094
-0.3120348745503994
0.12085231967937787
-0.2563247414395924
0.33118920732379786
-0.06342854231566276
-0.018655486950350835
0.07262069376239981
0.3177534791630189
0.057509957747364185
-0.09097581915100145
-1.7868684946171935
-0.023229835910228765
-0.527984877128769
0.5427045391842132
-0.6445555033193135
0.39687900240957574
-0.3594539760568361
0.4195644834876151
-0.8611442199874632
0.3533888894552183
-0.029072622963910513
-0.24896787867594514
0.09411628038274682
0.06867975829371695
-1.0694585600275157
-0.1491466764146396
-0.03612945791852515
0.05480346891789165
-0.05119096216451415
-0.6727726955174514
-1.566496299023822
-0.2569031128053445
0.1940743862696887
-0.041030459264234355
0.03971549720217716
-0.8640036570817775
-0.47702370152671375
0.00449783190702205
0.09073466816785451
0.2173415894978383
-0.9366971213940858
0.4152481134022039
-0.7870299735813991
-1.2921386478517949
-0.5327441195676448
-0.10753545452849639
0.11991772660148199
0.24194657223115526
-0.018028347882605635
-1.0647722949462237
-0.33569876727893005
0.12058534646121581
1.2416370745920071
0.005323984124378296
0.400465975736941
0.019214845454494763
-1.025285950313249
0.0223636213047666
-0.07598635239649791
0.02335220314463112
0.6556289426322177
-0.09915816616416143
0.09954719935091078
-1.0450392821896888
0.008282705895661348
-0.0728589665993748
0.25827674768983394
0.002612502204567329
0.5164562404156454
0.25028502652230433
-0.08555630690376574
0.49190115243413707
0.5617919135099814
0.6670235902339077
-0.06903880642495178
0.6799683369605607
-0.09050074390420138
-0.7695233052050215
0.2076162147274017
0.00424926898688278
0.20722469468879165
-0.11517684027087574
-0.12513775062036472
-1.0253738154121188
-0.43425335244364777
0.1856030567503934
-1.9428373690107572
0.1563646606497854
0.6059608403926294
-0.9238633083303857
0.6748641051604007
-0.36772667515761265
0.12261870392394002
-0.49025917224836846
1.3851475231701391
-0.10227875284684652
0.18790174539368684
-0.17215158882369225
0.6387868744336982
1.2788385192452367
0.019591847091695282
1.2284476020778683
0.10501087235345154
0.06118005089846172
0.0649140001575882
0.12060584423811771
0.2450849690530548
-1.8746501961783917
0.0997596385273871
0.9642831469493646
-0.01777872601088767
-0.06151808214861785
0.05852728560034587
0.038461557642359506
-0.08379028899501854
-0.03212082626259901
0.92955972058513
-1.072421837367288
0.8479297020514543
-0.025954608435717792
0.12936705770597662
0.8244166355313501
-0.33531522837721905
0.35065916545290804
0.07837999411995242
-0.33246124990553705
0.08604460748837642
0.21922473770870607
-0.1785063149260089
0.43686642488878297
0.5460584003826247
0.8403485076348963
0.7784387867273571
-0.05011773597547837
-0.027978337288401153
0.16027380713835307
-0.2495457185260446
0.11269743371293649
0.10544753576326343
0.07183699283999427
-0.3197430017832958
-0.2982539446023957
0.37694983468450943
0.0004177017665001786
0.006703228218820359
-0.29506864339221617
-0.0019593496629479604
-0.28256332995166694
-1.1998160133700186
-1.178826724770388
-0.6879884623291509
0.0019361840074695802
0.037586449682907856
0.6855343888364177
0.6317766213574013
0.593930512478451
0.7190431376657174
-0.1822024959193794
-0.6063734997172444
-0.3871173651130309
0.25395356264527635
0.36720198383535413
0.495082304997248
0.3714904548850838
-0.16177025941342024
0.4525756046370843
-0.2970207329738124
-1.0273469472501646
-0.5377457432836018
-1.1338000493411957
-0.2897360601363831
0.032007052050489704
0.7012471012119539
-0.5902089557777687
-0.576016459470332
0.07630563310969846
0.15094276975982804
0.00339988747177633
0.739185400966414
0.8441657099889721
-1.2931704889242275
0.03559455062688603
0.1043831353084132
-0.20327545721670995
0.13857360248654244
0.49668831657116125
-0.7009857356018784
0.3108464007783205
-0.2277338395356758
0.16902445174971786
-0.13680250561738894
0.06288969299064402
0.004168879327094699
0.02335051618470292
0.2549924627730978
0.04946279090028481
0.31272723248338724
0.5021652756638036
0.15044254416319053
0.3983118235782943
0.04697665131989363
0.029484352112004338
-0.0628593681157535
-0.08095821420865884
-0.1258803012335966
0.16581792233128564
0.22115220669695734
0.22602410893154962
-0.04468153598730983
-0.9892273847945441
0.6454886902854053
0.1543051753559235
-0.002670741048567783
0.6719432454159443
-0.1687636579605706
-0.05082645939023744
-0.02472839422303721
0.14435670857055513
-0.010616856268283351
-1.2273105822976238
-0.05589834024853789
-1.2931746661405559
-0.17107441450153188
0.10357202475629931
0.08613845161140062
0.050730364212627416
-0.2603524697726845
-0.40102137159009077
0.36954969123082493
0.4706432964318453
-0.7863107488684822
-0.0699188739130194
0.23001243802469387
0.06969599016058271
-0.7684108059073451
-1.444096439520695
0.18247106104633737
0.04236563357669237
-0.7295160611907275
-0.05692855411334134
0.025578803594502562
0.028305667020296858
0.04059461805082688
-0.13824508865976876
0.10938965125061013
-0.03849551423483923
0.6879277550485062
0.48205805279457015
0.20028620766236946
0.725819730851057
-0.15621030804034194
-0.9549121443211549
0.03574025103435107
-0.24621575885859212
0.4062432704444345
0.34692978493210763
0.015769946934946866
0.31583394201957365
0.05417486121446278
0.19664610890746226
-0.0031864948698492645
-0.20710108903043534
0.07575910503375814
0.24279513565855482
-0.3102867226299927
0.12940907806383123
0.06393927605638662
0.7641121279146228
-0.13301095766517396
-0.13366467225105585
0.3740934694349534
0.2517738925273242
-0.35886888585516585
0.0015403836327150873
-0.1780904965176657
-0.48852854986949623
-0.023030950615366082
-0.7321194830959854
0.014057283172643589
-0.23563697098066527
0.586440408698559
-0.9304306657183377
-0.005735067127856074
0.7014268658459085
-0.24697546130633868
-0.23653583147164525
0.03163848190729721
-0.31979564652309367
-0.21100044499403675
0.6432444596555428
1.1348269826491035
0.13631128533476303
0.03838691831085752
-0.7956792765856018
-1.1681886278694227
-0.27175780136647176
0.1082351273997978
-0.5204051066550822
0.9043184100165091
-0.14696473409915972
0.06546614647122452
-0.3916213615563947
-0.2462910796073081
0.09491761570014341
0.22065718300850795
0.23533444226818998
-0.7668327877730168
0.3888329544198116
-0.16772232877530463
-0.1004324785667265
-0.0017248135557682352
0.19341076310350905
0.006308452035502305
-0.015142068751635037
0.09689680465424151
-0.42714377266590214
-0.08018113569497305
-0.9525241371113365
1.5610221997826375
-0.31142341460999456
-0.4085529821727706
-0.8997743208204703
0.1104033353191306
0.1892577605596867
0.8758817432212137
-0.03266095397774
-0.023331787520067548
0.7830655800654769
-0.845877005048403
0.2442047415434043
0.14279665727978347
-1.3639700829769208
0.0785114268683468
0.18600375314589102
-0.8757958617768096
0.2887107799051984
0.20893900254132167
-1.8148821627397187
-0.7202956692988821
-0.41682430646627533
0.0367771802513196
0.011635903589993606
0.10478800180618028
-0.22188087985486526
1.048994287080553
0.7269069955322183
0.7498062497874977
-0.9227259705928449
-0.3092935270339597
0.401767781272889
0.5791285273145692
-1.7490876960158475
1.3481770364455958
0.22313003385688177
0.18864986939718423
0.1463793124651931
0.0374737551384656
0.1643044302106276
0.5102330155132384
0.23793311379030999
0.04638343431992968
-0.5810982721487664
0.2733874086697572
-0.0012425105045192708
-0.20421453431282066
-0.21728220217391997
-0.1645495057410376
0.607052100489913
-0.02156351876103995
0.3870121576870861
0.2385611025001512
-0.12832073240498687
1.3512454802531633
0.8483547310141126
1.1260601072119876
1.1753552227348147
0.10328350967381644
-1.1316140851888485
0.34254368980044964
0.3401267405563004
-0.3073743096046577
-0.25863102650252756
-0.12005340554130789
0.7202035253291947
0.14206436331135686
0.17168700845957258
-0.07316664777576573
-1.0949749443186467
-0.9482212628205647
1.596373273445267
-0.0758325745887507
0.3851591502098561
-0.01745752638421669
0.2382598665706019
0.8458412787792828
-0.2438173986959561
0.12158314036281268
0.8784836784413677
-0.21615240316205148
-0.26748949939553024
-0.0651803801409371
-0.04898763503569736
-0.03241627339123421
0.10071279764800663
0.016802355987370534
0.4535767803899892
-0.3226035142258265
-0.7976341968794824
-0.48285511359029015
-0.01354958734729669
-0.10061812675466587
0.5313746992207288
-0.17151674340480158
0.1811420872225403
-0.8476074559887161
0.3356025913282517
1.114977683306881
-0.028888743579897926
-0.27027956464349395
0.40876102292780586
-0.5093114400523416
0.026351832192658027
-0.03996358828222787
0.4580696546612189
-0.8163514781935459
0.8829273390011723
0.5785105501636739
-0.009103147620080151
0.6138737694993134
-0.6666976421304907
0.06729387110761952
-0.08056430498382737
-0.9305135639122737
0.03296910201176503
0.250445128815068
-0.01766085507777448
0.40680349560158896
0.06824957275525345
-0.2656566346295517
-0.010163560754297725
0.020322880507985083
-0.2817037338510412
0.41714121291186146
-0.43230066640339826
0.3011997386443992
0.5906152757438586
-0.25912839531138926
-0.10466601285013982
0.6327497706483766
0.06032328179636188
0.28852573333461495
-0.188556687160773
-0.8568271382537032
-0.021807414381171352
0.2242378433143471
0.25915979124445304
0.8143247730108085
-0.5197068370190892
0.30964619725031095
0.37003598058800824
-0.3583311883356071
0.06804881626966688
-0.87979517257222
-0.14198917054686894
-1.255370262680733
-0.7635843339036109
-0.7603704747925758
-0.7843003752453308
0.3026024029344505
0.23389057890722814
0.557481957115976
-0.716592018550624
-0.02853213833400896
-0.023073624683430945
0.021943547118548002
-0.37567560820670115
0.03690296241876842
0.31792402223170535
-0.5876205820988813
-0.06329532781801073
0.1952193095343876
0.6455142085820615
-0.4714233881853269
-0.8061661830109442
0.4526966878652081
0.11870657860935878
-0.14717803260830076
0.4275442762020116
-0.681261154269797
0.6979712229748517
-0.00013784462587239856
0.3126862283810576
-0.39397455692357863
0.15782479781116285
-1.7726940150978365
-0.7324073538667017
0.04216948459675023
-0.06019793167657115
-0.6242770521486894
0.4780542256844016
0.05617291769131593
0.5131937867422661
0.03308987412063191
-0.09564089363696639
0.0011588730354817976
-0.8475289518247289
-0.2789724536698527
0.015717587777134702
-0.206924346361018
0.14527690881454786
0.2835608001962668
-1.1072709594983952
0.3387816429329881
0.9831053191809785
0.5382623844527638
0.028915772008465068
-0.1550060492839525
0.2596720376206052
-0.7248364571149212
-0.5887636982004725
-0.0038473964698841553
0.18325543818120119
-0.7090478281397034
-0.06608405050430828
-0.12494372084190561
-1.1285240837561314
0.6780416065114316
0.8425323072099341
0.8039709998181601
-1.1506500617475253
0.5099429261161467
-0.34704097786518945
0.0732492720536756
-0.1214187690487431
0.08611401133574503
-0.6593073938837162
-0.2672650759704733
0.07891026790406475
0.09672217586424879
0.2842297818785605
0.7719306641385643
0.29788523672665984
0.23447343012727076
0.04754004169782774
0.14361890964630789
-0.6899283389405724
0.0398100711012038
0.9298473132270226
-0.9978254305279715
0.312046353904044
0.6495951331536469
-0.6618647474329604
0.04066867381780732
-0.5878394437650056
-0.4217840973952057
0.2905328004355622
-0.04539759109296382
0.004792098917630106
0.5246607624727888
0.21196688285871187
0.5907425857742609
0.04218526508663727
0.7277855327462328
0.31028228126989477
0.6372191821047607
0.35798067970955083
0.051418551046617966
0.151010383663569
-0.052272389799225036
-1.4329771062719483
1.4819692002823779
0.7927660485485604
-0.28496643413698763
0.5731723811307692
0.17690460158996235
-0.7436248828429104
0.02193200613879627
-0.09970178658631303
0.22172288554935582
0.44406460092907263
0.015962066683796704
0.35408352483033967
-0.32340802941444313
-1.040853105949878
-0.7553367294547689
-0.6704082407422277
0.44142401328983255
-0.09706611368575618
-1.1421052126200841
-0.15232330128606109
1.2455017224004248
0.34370248844426504
-0.011159624748884323
-0.17051806429081023
-1.3105952011328563
0.6090769522042121
0.5401515921749307
-0.06371735041924054
-0.5889564822557494
0.017473295319761294
0.045390455722941696
0.013483264309514041
-0.1512551080975355
0.6297080758460625
-0.6277652193339079
0.004287355551433198
-0.1298483419312798
-0.048639097932099064
-0.02975435227447458
-0.06029803811628981
0.6504130710456817
-0.011773212803634917
-1.1132205471805308
-0.3707693221389607
1.231637696384993
-0.18642656652903764
-0.028669583942031663
-0.037996207798779935
0.6959247621769906
-0.9732661554020139
0.06225383585165724
-0.050441104524093026
0.7583170007532449
0.1371764256428533
1.0068977458540842
0.2120800027803483
-0.9076769270185601
0.013585201078432738
-0.1296478878995277
-0.45418038261099714
-0.002419575801463362
0.04298009977152549
0.8496060669110804
0.9678847476704808
-0.2947322745781895
0.8575819107372755
-0.47830911866413744
-0.07515488183979341
-0.0365382669681816
0.829819925376877
-0.49307600866306744
-0.9733566921458717
-0.0008574002594976433
-0.03553065715548427
0.9285563544138228
1.6419355507700018
0.32800019688945725
-0.18846146738235067
0.044031839902036754
-0.9778954407686665
0.1171581991759488
0.30123602475363287
-0.7045500714251628
-0.9331741652897817
-0.0847881678826864
-0.5459554885337677
-0.011742823778549303
0.44588213101026813
-1.1505443057563365
0.11910965118823487
-0.08477282041044187
0.20044257584463157
0.4933888832743111
0.005414279167917269
-0.04404518798414993
-0.18111124775337534
-1.2616316197903603
0.32354287986155933
-0.09934458826713223
0.2173663673441434
0.4227550890558376
0.4895757808837724
0.0014571738181365958
-0.8808792889746231
-0.11691099909396711
-0.03903993064992906
0.25132122469944607
-0.3267473871082106
0.1444418920865092
0.16015881952115144
0.11381489663981445
-0.09157949254994979
-0.926998083469608
0.08499066796925743
-2.101121297976062
1.7543520810107753
-0.3607188202052198
-0.0687609782928049
-1.032661584238032
0.20369696084307246
0.9000235686390234
-0.05834432864356608
0.5234864648090868
-0.32023727739931435
0.1798670698068499
-0.06836775285537645
-0.02308419136536446
0.30350109384163715
0.05018740743153338
0.5656313323329695
0.5034752773944318
0.02482003036895485
0.04819324891571377
-0.8552754204051484
0.0208839156154341
0.06722683071090163
-0.11443628158949834
-0.08111474744019263
0.020585620558146406
0.9329345629613068
0.8181131075016634
0.021432972144832373
0.2205911686664765
-0.008489455917065151
0.2586837251757403
0.4596015427702458
0.22874832139183177
-0.3749107053201828
0.5068819717487296
0.3522197215682687
0.27572536379165113
0.9263214303414632
-0.2384118329023516
0.33939082861885844
0.026514285986416444
0.11421443055033181
0.13352040628920844
-0.4019071940353327
-0.03578339862585261
-0.44130058503104785
0.011138687498404163
1.302801181081516
0.43961835270589333
1.8316107988258647
0.1761590289064475
0.2794087182120014
-1.1715644636893914
0.13872238980428134
-0.03800993463908421
-0.012132664577553007
-0.7636478519320368
-0.3753623243326712
0.09283567079715445
0.16615986907728078
-0.19243350157407732
0.6112424421530772
0.06295991955499793
0.2933756993949126
-0.12851840237324896
-0.9173283969630253
-0.5672300259266226
-0.020529360795325968
0.37279318983429566
-0.44627016595173835
-0.2997642637364185
0.016802171007779497
0.41952358974608217
0.3313495626326489
-1.2005671414156525
-0.6558233424234567
0.4525962749262384
-0.2156078440989874
0.0963807702852551
-0.010757533104006269
0.12376918084488842
0.09702281824811836
-0.2112275210342077
-0.555114822968368
-0.1528143992253938
0.1633691300901548
0.5614930544173631
-0.23138398806587213
0.18706087081511175
0.5698611520000958
-0.3566351831700305
-1.4264304984351348
0.1956399545583456
0.26307442589460733
-0.4938222164336732
0.25470129571723
0.7143934758612289
0.20267112072597762
0.06916132768634385
0.11665151166405566
0.48366641150112233
-0.055900215044673046
0.09337865254755692
-0.2415919334982348
-0.6428509705517823
-0.7341266512351713
-0.9768709150871638
-0.5128519073219499
0.03759366855196415
-0.005987487358399692
-0.2729161584171114
1.4711673805873977
-0.5536614904181081
0.5803172188982401
0.8928609164287794
0.0021603737581990163
0.7075211507901698
0.04584944655760459
1.1009597013496062
-0.17436049382722169
-0.3881888047727388
0.4575930167919641
-0.7782552277139473
0.3392500022181773
-0.2673589741594325
-0.2422808364152038
-0.01645418030460341
0.09534563510048784
-0.2677215834930825
0.6520897041263
0.04432777836222467
-0.24846515106098732
2.3522585375402594
0.27309011251171184
-0.018572603602515652
0.0660595452795305
2.04379555485674
-0.30862297580665343
0.7895436861017393
-0.16232551780201632
0.10710622700149679
-0.1296419095704432
-0.40551034489048715
-0.2931001883251585
-0.35272216864731265
0.745965934384434
-0.02845235153876396
-0.016226931128615476
-0.13601580893259277
0.2000120276991547
-0.04830112083346227
0.5085199786646776
-0.025145355414863093
1.8037153992060166
-0.8230344622703204
-0.4757667390273748
-0.11654090969692787
0.00038657261916157136
0.5298283018898999
1.9500658659058523
0.5142123793033729
0.427266336937454
0.21242187901023432
-0.5468881212237893
0.24542277667198126
-0.19664109926945447
-0.5160562054754928
0.22261478389953757
-0.0009344908959198629
-0.033173483683358096
0.10001434252044764
-0.028061111828213213
-0.10012477763827479
0.016351811581433777
-0.053534563285160736
0.048781560582625255
0.8232698538647313
0.0869925733501738
0.17864020833658023
-0.4149228040826142
0.09686173302771034
0.05788805729401488
0.25592385602914397
-0.0900292897408656
-1.2837673807884076
0.0015470720136730493
-0.6644373622459641
0.27745075545277126
-0.06654760513330427
-1.275951124012755
-0.2594130593257378
-0.41813438387354407
0.18333439065336113
0.32217068059337245
0.6831349939957289
0.020812120222198697
0.1306181355377802
0.07231946721220645
-0.16266801324347416
-0.05960331480574818
0.017085180071591752
1.7333033917446181
-0.3027828223010336
-0.9937779912777986
-0.510596613098733
-0.5255244733442009
0.28426604020086355
-0.24605252860477564
-0.24279797260898986
-0.8391244966776942
0.09386997900529293
-0.8338249202646089
-0.20351958671611042
-0.0437889374981775
-0.10661580470955848
-0.22169979182243918
0.31270549229317757
0.13076144634846024
-0.0019816877164144913
0.4177170797684825
-0.24723920152310064
-0.08468437313645596
-0.5533371596589605
-0.24457030455565418
0.049601202444821545
0.7391442025207614
0.9133466771254453
-0.2971442913004196
-0.05312782396806144
-0.00022218468813093307
0.586687517044622
0.37399644826658807
2.1805863924278652
-0.03289594602191042
0.06715111559383381
0.5780478954268637
0.11637252267537475
-0.08745821745327308
-0.5442007365677075
-0.24428048960166515
-0.1350715166785261
1.322615244739187
0.2032319575957896
0.05643714726707719
-0.053831761356685374
0.7898148922091651
-0.26043946147936303
0.2015893707990889
-0.41224592526754456
0.43485876489742825
0.003951784883590336
-0.0047678124547853
0.10157651663419254
-0.028583895054061746
0.3255424004547067
-0.30317601043563985
0.9755791860553328
-0.33751390699891404
0.028650102712049413
-0.3393524500705053
-0.6193724221743595
-0.37632620483680534
-0.04786659716012883
0.8763542547307387
-0.4757412555919704
1.073022076489103
-0.25255700662752995
-0.6489150954162978
-0.014139956703995009
-0.0925983104920866
-0.3064670755304751
-0.01950648623218392
0.0517859897784567
-0.510936553898296
0.005689618794935479
-0.2323442114741273
0.5196392643901554
0.5441853460315791
-0.47689979102095936
0.19547833276843066
-0.883530661631603
0.2313540557838198
0.0017892519437304663
-2.446406636356168
0.23938127026557796
0.23704272627213482
-0.445827729929124
-0.12297640807668904
-0.01062351577981105
-0.07614203823065419
0.0024926884798190494
0.134702836652914
-0.11956523099664577
-0.12444589552321739
0.6949068715509149
-0.44300499229373
-0.13118106963966922
0.5259331713256186
1.1478007521722087
-1.082093427843101
-0.7477945823279544
-0.5556971562987396
1.6083760808423708
-0.02381259367091293
-0.011779395160287287
0.009197269674915517
0.4941956005834608
0.4775588743784675
0.21347362936184067
0.6589425511096789
0.16506917646050515
-0.27899968032092837
0.4119823160361618
0.18348536522745726
0.13891167318174102
0.3764410062520991
-0.03538374342589146
-0.2135164513051567
0.27227337505914123
-0.06605941470964152
-0.009005005785697035
0.06821519073730647
-0.2785565702564564
-0.1691258115645695
-0.03793041015866383
0.04068758002222441
0.26449799372935884
-0.007095247872970196
0.1645232740675615
1.603295523747019
0.6706547699168106
-0.3006629303494524
0.4337414434771622
0.09313642329823163
0.12635011027913834
-0.01945621978056804
0.20148042039653355
-0.18257591670854337
-0.3084928884919288
0.14362019165223536
-0.2554346327372068
-0.6428800431555893
-0.028788257022814887
0.6127660341790403
0.23889750962411269
0.11170303503135882
0.04835226808393815
1.4772470294528397
0.5291372153850696
-0.04485629268683256
-0.6827597430860838
-0.5698747509379827
0.8936886873285521
-0.26032379692439395
0.14778302386764733
0.5526370859394392
-0.7267916935168249
-0.14145959055798846
-0.12198271443872226
2.5884635326889067
0.921494196338914
-0.054889568178346726
1.0165277012827123
-0.9604156183359176
0.35751743361710103
0.7722672181695075
0.3079556052313391
0.8138476641504724
-0.05450569354076828
0.34972851616268624
-0.006304768086381794
-1.2878370896359337
0.8249547546256378
0.07349245794325962
0.2864951214590164
0.2491264017044788
0.3478951157738756
-0.42553428083597417
-1.0082256553107594
0.8222097415444306
0.0003112107004099273
0.20276132559053092
-0.9108549954339931
-0.6090905171324039
0.0012594733491083376
-0.41258006454669555
-0.049847232314298176
0.24978888362002072
0.02531841246461021
0.19766723079303913
-0.31210614216471033
-0.3199601359165371
0.014636496093920166
0.11110928766687851
0.1365450209211275
0.1116871190179779
-0.04947863994072528
-0.04097554724117992
1.0443014318343766
1.8612213790859136
0.5250628347750157
-0.030036815590213314
-0.03763224812904219
0.028631447372431767
0.1272348879513976
-0.007083709693404527
-0.18158875825481383
-0.21402983816455673
-0.9975055977906054
-0.4280423371434435
-0.4371161926177947
0.8034035694514163
-0.08544735736733852
-0.1841259464790647
0.10773373141633102
0.3574367324594328
-0.2529564077949969
-0.1993487315514063
-0.16597708543848502
0.5595490276919944
-0.33121945589784085
0.24669298216583627
0.2878339071153358
-0.5609859429015424
0.10651549717765386
-1.1685159318682938
0.2593944325198382
-0.38370726250377635
-1.3875561857519385
-0.12322642465435305
0.020238295336664106
0.2912236700494159
-0.17215943167254621
-0.5035765455880364
-0.006227641130127974
-0.25359885732444304
-0.11599186731997163
-0.016893692542331962
0.09549921815313507
0.17848261193926834
0.11988774141121872
0.9422069717228199
-0.034842801179779
0.16722688498139834
-1.3163532040865227
0.4258648925950387
0.21707668735764088
-0.3834168252470252
0.10978240175956043
-0.297900353270881
-0.39508714683319895
-0.9934751403265757
0.38557452221761174
0.03541616158818576
-0.12932398337635778
0.06933991002999458
-0.5566071125328083
-0.030304617858535957
0.6998690872228095
0.5588707584850707
0.029283038584472506
0.31727739054954945
0.35656721771247507
0.15180495550777207
-0.08492864015057179
-0.09726798472017072
0.1308063930183381
-0.18395213005643363
0.20342551132681475
-1.8261405763447178
-0.1445186804253918
0.10851765615478647
-0.4597185087664168
-0.3686795461150936
-0.09729991554210853
-0.728106149632439
0.10047691742089646
-0.5474413680227636
-0.09983947124195558
-0.1438756355160418
-0.5063184343569054
0.32930587890242086
0.33541283379229997
-0.9527215257830338
-0.021712128427232767
-0.07696646429582617
-0.0008161423201922138
0.48999469202803914
0.34323565823288116
0.8077271828194864
-0.02267951238333
0.8550820181104148
-0.12673823786882724
0.09620401021469543
-0.990428613027345
0.5459452385369067
-0.14316975893178657
0.5485656825830355
0.06921649755369462
-0.6800034089243185
0.29141168180906096
0.38937165900180454
-0.06226036593452046
-0.06685336827092742
0.0010335502054528167
-1.1313160829627544
-1.3934708334998345
-1.3908736338613543
0.47219986366607897
0.6061720112948605
0.1847529172046089
0.2585848587830068
0.30849165270820184
1.087192796175086
0.1805411064716779
-0.32797662081008794
-0.32020081512316817
-0.0005978939210593639
-0.2282194242419883
0.26138481613279224
-0.7205850122446292
-0.3952495732354312
-0.1735229560393207
-0.25003988257125764
0.31477265362992657
0.4139693748753458
-0.06077612877542348
-1.2978011906984102
-0.744687703019226
-0.29844016687627517
-0.886648246185457
-0.42773808165949845
0.5672226071018622
0.1895230007216896
0.44245771502341824
-0.3881387012184629
0.8290194217242666
-0.07038431010675587
-0.4964344084941475
-0.3004477612369627
0.07043713338241603
0.6130338014205242
0.34890612584285063
-0.8388743088759603
0.017595444759822956
0.21336946038287613
-0.509426025825099
0.14894991397837246
-0.32914535642474313
0.38084323912210216
-0.18919774711566809
0.18510661575537268
0.0774654434536731
-0.15927509165351933
1.6101955611549217
0.09210543105526846
0.12217959412908917
-0.6017179132300577
-0.32732805928279074
-0.19839516041642666
-0.24149764105576962
0.37628697412370493
0.047494920625568295
0.8242513566363538
-1.4478027890367067
-1.0574554143963555
0.5085297037752953
-0.5992925910726077
-0.12043002725900734
-0.05526315783576914
-0.059002156905432625
0.1474640380401345
-0.25681417408393703
-0.03580808370644751
0.41132115906229905
-0.19225409617063724
-0.11461288396867225
-0.30558244452759276
-0.06955629565524167
0.2058577778003109
0.670510341252955
-1.4927850483916791
0.034745002892752806
0.11080955728477551
1.0771457066124335
1.1941185637004519
-1.227601905959712
-0.07124893112808511
0.5336822840965724
-1.6221296566940535
-0.5348819164973189
-0.004017079441833907
0.09235596496397211
-0.27110638113004076
-1.110849169110642
-0.1998119874661969
0.6741791237148451
0.24981323428416907
1.0666080954620691
0.605390552737627
-0.005663376558616348
-0.059303595338073105
0.3957230831112977
-0.12289557268357319
-0.8328712071939027
-0.6746691910700885
-0.19762407358708317
-0.006969336930071636
0.35091107500072904
0.32050625197741306
-0.41928115958077067
-0.04031295354230337
0.251158767025252
0.22016143494635437
-0.5107632056318325
-0.2075225304074813
1.2254903225956006
0.5305825408221385
0.5056994539318391
0.02368701742843568
-0.8184448468092865
-0.380946686238894
-0.22580113705249233
0.49868400680007896
-0.18243842767412183
-0.9372278627940394
-0.012955425962707774
-1.1752150740509133
1.7867540691965826
-1.0112377887339965
0.06541580802806549
-0.21343151073402586
0.3146723379646244
-0.3833948699663019
-0.06464130421241303
0.6745235061675205
0.3331477055617244
0.1303093061167114
-0.4453203002955308
-0.4954320727930186
0.6600605988597678
-0.4675688803021284
1.3777593410907174
1.1741024809881913
0.05058852951826787
0.2458276640173806
-0.7123864231012985
0.1900454872704326
0.09530080650512256
-0.1803918248136903
-0.06998969884477854
-0.40247797234162846
-0.8408420613968343
-0.7162424641820161
-0.30178285268258664
-0.32432823281666506
-0.16342813587636842
-0.3754255063035718
0.027923816837444295
1.0228054257622865
0.015841683204071307
-0.8293172040871969
0.3692187216927852
-1.173573452765415
-0.1361739451267117
0.007898984234103202
0.029457452439241482
0.15488947736882658
0.11820994886174938
-0.17950550892434447
0.08960203096598848
0.40055313162191786
-0.12601372464545804
-0.08502929382070322
-0.15777164757376344
2.066507528075892
0.20004440046791983
-0.11012941861034678
0.0028131927927093066
-0.4647956242196162
0.028297971839480747
-1.3956322198532913
0.7535248575169167
-0.18485476704924886
-0.06213996774130453
0.2650421076338811
-0.22891014220102465
-0.02843779580254752
0.4503282758649916
-0.8540666270849618
-1.1515784147210795
-0.8246065929656861
0.42250049514980687
0.5459335557717796
0.2982455286971435
-0.039523168578147035
1.1168330608503694
-0.5813100707689194
-0.44204726181077686
-0.13579772571129445
-0.621149481291687
0.9552452377964659
0.32695932870615635
-0.04247660784875437
-0.15686767263805337
0.21703778939829338
-0.8201888289880909
0.0006484430023713658
-1.3971217284174826
0.1416409636806517
1.1920385857944826
0.13937646595440079
-0.8571994813387328
0.004078003755939941
0.12287420322853682
-0.4671893595421648
-0.12110436305433256
-0.140820270816677
0.15157907537170232
0.11002287523007628
0.0005755196620128975
-0.2039818362668053
-0.06086060981039515
0.004020545480667552
0.20960622672839263
0.17666426749985645
-0.3154140757117069
0.015322064181808068
0.6163026305938588
0.9500294839731831
-0.3624202405062143
0.5376738729309446
0.529934506099303
1.7818282568223507
-0.07041257908592224
0.9350094770083625
0.28610203563742265
0.27530298273465
1.0550784167755463
0.29704284611779846
-1.0759860923720055
-0.17851613148564555
-0.06767266450814054
0.31142177412349586
-0.20509401246546757
1.1049392537559097
0.02826265107652808
0.5129543301053254
-0.20002803014268386
0.07012030454589371
-0.011208020455159767
-0.8172402922517465
0.10210036261755247
0.1106554257975055
-0.32432418969135357
-0.1895341912162736
0.06536401306581802
1.0742755848570138
1.1674925659447852
1.2325672572632569
0.12774632111282538
0.12365152732409677
-0.022917972585448188
-0.7660097974823104
1.1281407045216123
0.14598321124063066
-0.01130795265134624
0.5603396365110561
0.08636257183273044
-0.4794323892311612
-0.01799452028100151
0.6546965110184724
-0.2956082807771013
-1.0783948954782654
-0.05281224574003374
-1.4024589782253691
-0.14397784027909102
0.6730763574835019
0.006536072878726649
-0.03357633441800711
0.10478746259390939
-0.06281806442279252
-0.2671227220239325
0.2750365077103349
-0.8607930747603707
1.0656329894497096
0.009901730438479488
0.35681428842574603
-0.21755277328881806
0.9476411145084858
-0.1452781682111916
0.5778212640043847
-1.057261337423419
0.17263001049236298
-0.21272613350883254
0.2960776852329004
0.7494313572097173
0.3174660465708868
0.6152818663523827
-0.41660479329254335
0.24152701790965808
-0.5073025354614361
0.17045719580236926
0.9744638522319798
0.00442074069067819
-0.1876945490795529
0.05936643740800623
0.3343705501688017
0.11043863716224668
-0.047340328163168875
0.23411521442032532
0.5344167297304334
0.23381910311134924
0.4106899207468192
-0.06746052835892748
-0.054608460679404246
0.16390301132731638
1.212476281680999
-0.09791774931854784
0.5939310685025435
-0.0027144875655701834
0.2536450340754588
0.30979160179889487
0.013690933358646563
0.21681501804992795
0.7296376982556079
-0.09068325844685783
0.9317932769156416
-0.7973753771715124
-0.10104370134077614
-0.18865613778649606
0.8160467035209332
1.709373110056593
0.7877713252110733
0.08747465752859257
0.3383312399408395
0.09253201292350212
-0.46921941105449166
-0.16596545348152902
-0.16466282883303818
0.014652309297488822
-0.7060851205635967
-0.06856924349312014
0.7150838647390545
-0.0854271718821358
0.782165838022575
-0.31104441125436644
-0.48600762053017327
0.06268552696483523
0.199973668706005
0.49671002046902935
-0.04874757833456406
-0.03483266381539878
0.16844450789746968
1.0097103104578031
-0.034020449845649
0.29370285589348555
0.4505323602213324
1.5127178123992797
-0.4506701313955417
-0.011024766747300194
-0.3818051514449885
-0.24787125631090548
-0.18395233114521292
-0.6042450841426339
-0.7814399567009999
-1.1913561483562156
0.35480115847267246
0.40769414393407366
0.7592757422197267
-0.32951553841095693
0.14119357529552132
-0.25132717281915845
-0.2884357880070913
1.437387049289374
-0.24858171601148077
0.995622178766866
0.1231354046837346
0.37848008569569724
-1.0246928279905145
0.06794562344188823
-0.6735177313586849
0.02696238136732755
0.0311958625171374
-0.25884615955207296
0.5247896276280077
-0.4902545236227762
0.0086291842832266
0.007686202536704388
-0.09404103519137562
-0.3653261171796922
-0.6085139337719463
0.1795355295664135
0.3289238594463567
-0.5689797909070768
-0.3196415415375674
-0.8693076357133034
-0.08416156706731738
-0.14361885428890805
-0.09242915112074127
-0.07277026912986195
0.7010925435000379
-0.0036570549167046123
0.053778519083408784
-0.5911345196716236
-0.3328060059878368
0.02099727851543292
-0.0649470609877975
-0.2962075397090947
0.5574121190481609
-0.02791095932250947
-0.23139862383563076
-0.11135122882378372
0.0008412133438931774
0.5556803388773347
0.17165414601805143
0.521522408391699
0.07713415386768922
-0.31757538289090775
-0.33157970771891726
-0.32489277846771675
0.0015289261764707455
-0.46780574937895936
1.389502871255423
0.9260944665200684
-0.22184438789234692
0.04729947817368541
0.2803567528902375
-1.0779356077452469
0.24861909452864964
0.4188022832489896
-0.9664539850727009
0.3137999698157756
-0.05983202790300186
-0.015242515896626264
-1.2327998692107354
-0.2142371519480307
-0.11684305697693693
-0.6785101912046293
-0.5772528599000147
-0.14466417790266203
0.28214690928715386
-0.04236615232965286
-0.028616765501805877
-0.17245024062929057
0.21248223713213746
-1.338305776001509
0.13227577517274014
0.08330070550183721
-1.1114161210895668
-0.7689038599247052
-0.06439444715498889
-0.05857885475589325
0.4659895714580522
0.04754034802759464
0.7066616442741497
0.8108848259328293
0.06886505251895383
0.5164723463526099
0.029896831411376557
-0.22218114638525488
0.38122860848381857
-0.4205144769300578
0.24970708211406775
-0.10783571209882264
-0.25979909025204684
-0.552416450528244
-0.06303666601698012
0.4190046918314944
-0.45767931311079985
0.0848766931754057
0.03898688655853365
0.13667108303397055
0.10782047810980892
0.6305794665081605
-0.24598229993677853
-0.047782647175637766
0.01685495958075903
-0.4040261094508932
0.01292231181876716
0.05265144074714407
-0.5749190816953323
-0.4040238626243438
-1.038178690344575
1.3617938214721186
1.3868306894970868
0.39470434419887124
-0.18494875112629727
-0.21033512243175798
-0.011676671024028322
0.40979668170171285
0.0022146428348325344
-0.05395562110731717
0.5446547683999585
-0.07981785795181205
0.7294775154894526
-0.48041809034149624
0.11499003278848657
0.06941582739022631
0.6107624140244536
-0.15954383199650038
-0.05072006201062633
-0.30750860895613225
0.31728090946609055
-0.021693550971540135
1.5370152164950133
0.10429238023425098
-0.8537396977069516
0.2501312231739508
0.23871659030635103
-0.24268427818951147
0.36501274493076813
0.7256544950392388
0.5617230861709008
0.14472938508338407
0.06534534835547867
0.0034917025484334915
-0.02731017689364995
-0.25865709728474073
-0.9488339085548005
0.0008950141865825041
-0.06300848071026376
0.49259684707198026
0.011690512996569258
-0.10475040673426257
-0.1831116381037954
-0.016904913905823663
-0.283522121031047
0.2749526733397941
-0.0494954607197341
0.06076345836456067
-0.012761192493419346
-0.10438846582236873
-0.0528571395778754
0.7843825100678997
-0.577574559453418
0.1074787510852867
-0.012578661461082871
-0.40914065041716924
-0.4655479237642897
0.09021874620087769
-0.817223287914513
-0.059913747590831574
0.22462944429337162
0.4444578798344838
0.4972107681851747
-0.26501479703694264
0.4950859598000487
0.3159681867591057
-0.06154260281237312
-0.09148568769794735
0.005381672279032707
-0.14926044575433173
-0.08852860383099416
0.08351448120879999
0.01929668231578641
0.09969524703864655
-0.034529618210874816
0.744250095662032
1.2900547989789466
-0.9282630160022218
-0.04902077840680537
-0.019405005867930283
-0.7117597486874273
0.0735950924215847
0.1446905827425819
1.4484843819942856
0.022712442106196492
0.08683589658552958
-0.2139471507751985
0.7733956450760178
-0.3370619056614442
2.7681327786037246
0.031407491261390565
0.5017893529288501
0.06948332398402277
-0.02059400169725442
0.2447484342284125
0.11499428989109457
-1.0129887581115233
-0.5658644502951063
-0.9446803366030417
0.22913638515072945
1.063957381010296
-0.3168580389281643
-0.011980469660642756
0.015110582532695885
1.2324676508423484
-0.27991884686099155
0.08062551258110599
0.03759501762831476
-0.027265256969805092
0.3183855527346883
0.18705177928706113
-0.9483862391717606
1.0561703089704064
-0.02657441118756317
-0.5163177174584977
-1.5318439916087978
0.37031182269207435
0.3303027630324152
0.022792271285108075
-0.2591192365547049
0.016457680418363402
0.3263169328106319
-0.9576847270368214
0.04448079822249243
-0.5214274080784119
-0.010529976083618699
0.42065974202505596
-0.28867676727769453
0.2884295882377067
-0.6695155869884638
0.09884523518860255
-0.2147751722406923
1.4813057420629816
-1.1148311993943139
0.024650797307731665
0.3528510078914275
-0.7503268354939241
-0.4979023660419503
-0.4785426999015808
0.023762079731437596
-0.1384077247419581
-0.06576028826407301
-0.17296639382013684
-0.02135923038876783
-0.13227904293404025
0.12842740681517448
1.349940321895884
-0.21275542458921579
0.6369166622984528
0.2460494356317024
0.03772196559300859
-0.34116453892284854
1.7585112506904292
0.22004221584600667
-0.019465822960732855
-0.09874495032282793
0.479099368345009
0.1874737311632494
1.5655203586856732
-0.3432877602070639
0.24418368224053041
-0.1660101562637074
-0.5410455009236971
0.0005812307207351134
0.3065013529263068
-0.14217822903419516
0.12421731170370154
-0.1059230878348416
0.027125391208690352
-0.2197322719986871
-0.4235347643530904
-0.4239411571875216
-0.1622780097959784
0.07693970470545149
-0.14276140426668407
-0.33543572413628425
-0.3502634008939254
0.05502443793452323
0.5324530519013512
0.4666647060731282
0.10465118401181378
-0.4208274228194856
-0.462314502230624
-0.2608680011959891
-0.16326971020776987
2.446338145891227
0.206192189713284
0.7623421767310666
-0.24098545266559643
0.7376209711970368
-0.6515998018476178
-0.3982995199004119
-0.027855293863129103
0.029635756050603746
-4.886662492021601e-05
-0.7556532338596003
0.19226974082897552
-0.08086651363131424
-0.5283620061512316
0.08705666053708862
0.04715264201190226
-0.8575102701142461
-0.04616671644934616
0.02449127120861843
-0.0394282307246647
-0.5346298509247599
2.89670068985097
1.1400363614880036
-0.035269423286514806
-0.1331464656046981
-0.17973009077044705
-0.3222175399030941
0.22080686768531763
1.0376622247635503
0.009128231580573798
-0.013148179440194375
0.4949929167287038
-0.04998339752413684
0.735153093458484
-0.1955380961109443
-0.06431056500324607
-0.09267917587225795
-0.19671736674099868
-0.4382852941905509
-0.683081328429341
-0.151349786371749
0.15005326520916903
0.5403903664262566
-0.3205662325118836
0.1441463114699286
0.007392989371712889
-0.07838663840565513
-0.0014738450580794164
-0.2477981427077886
-0.26555103233679916
0.41438867371890664
-0.364693539984641
0.03704140129957925
-0.3896039882486531
-0.01833726806958888
0.22814575319608107
0.5141041068976827
-0.7731339039535116
-0.09980730168398867
-0.2177834208510004
-0.5169539447067476
-0.010678915247883025
0.4646101453882855
-0.11661644293456755
-0.4559465049276291
-0.042961979612509714
-0.43739130060011644
-0.599078692337148
0.8341859440913163
0.04260017214087545
-0.2583981197864513
-0.14552054487636742
0.41298694920931645
-0.08441078180583333
1.4328447440227043
-0.3385859412362801
-0.06821026796810511
-0.359614966166337
0.10336639476652827
-0.47600056939197893
0.035130476891768694
-0.2503770949239192
0.00027844136408330695
-1.2626052492247828
0.07442013409561243
-0.004787544297073733
-0.2088617441828033
0.21676200371468
-0.057945021475719054
-4.3951606460617734e-05
-0.014595865156660396
0.05458796806949726
-0.01609908823259135
0.3048426159663085
-0.03019335567584568
0.008666596501652331
0.5437592062868154
-0.6812022268691125
1.1248617587970908
0.22611425883688574
1.1440589754613693
0.1409379945913574
1.855702364083727
0.3356907142160416
0.18998824782124848
0.03921899010499209
-0.13827227225853497
-0.038186030448215225
0.015414376447697312
-0.46350967165458024
0.9920858912063758
-0.1782305059542543
-0.03409387986669933
0.04172923460144402
-0.2806757778120422
0.20781647582352125
-1.1644150993231182
-0.055133865251283935
1.5231207577117734
0.16104538183001527
-0.032063890363268496
-0.011861330071703475
-0.22121015947164338
0.00617667133006791
0.12864080359438193
0.09879183241139579
0.14477066280230563
0.43138868253655815
-0.3926006359434498
-0.014737451340075236
-0.1714851554173541
-0.1829666966255572
-0.0709663110360746
-0.038749841063876966
-0.055815325700977275
0.02105369956453599
-0.718718451575272
-1.7419186204675237
0.09092395075774386
-0.4026872284472235
0.026960001633893893
1.9837297804611735
-0.1909018121894285
-0.4211692347909339
-0.13236591587505633
0.02789344654546879
-0.31671903227073506
0.11323158606668259
1.3213681402246116
-0.7961009732526588
0.0214874621957898
0.020612677856214328
0.45047443029922885
0.3276562196971439
-0.45106499233738817
-0.31891264694726607
0.39215452541940427
-0.17914492579434005
0.1267641355363178
-0.0783630416648607
0.4056437114795327
-0.34382844297400483
-0.4885432663511308
0.821279804253471
0.024009480718738395
-0.46444580299829086
0.0789664160442262
-0.09751593622489202
-0.20451925996683507
0.5815576488390154
-0.12481958323733039
0.3405080380167558
0.2610967807817542
0.5143942229454399
0.01012096677160169
0.7852884761833622
-0.2068951240984961
-0.05611501797204292
0.3892075058043411
-0.23315453464404237
-0.003973704458003883
0.040171651285060804
0.1255328763696612
0.24187856711534722
-1.7254879561400875
0.08692851585165508
-0.04859083041197062
-0.6195395966320886
-0.7454119120767676
0.556036852521141
-0.19613510938524298
0.7433612818609711
0.8035861739575941
-0.33401707096917804
-0.6587689435316073
-1.5996067004128154
0.32218464006278175
0.7581838416022343
-0.07162949880039335
-0.009716832311795633
-0.04606900482033024
-1.577976660120446
-0.2192606333994299
0.21464540278212116
-0.8725285821636135
0.010636990088623741
-0.006176886689139759
-0.22778403585776846
-0.5263705676548635
0.008111941517979906
-0.0679404233482824
-0.8810663685323773
0.4107293901834804
-1.0527754323431193
0.4404707828986777
0.33657490087637404
-1.5343200490274889
-0.2365455661896465
-0.6552642222437876
0.7502522631354837
-0.9385083129634062
0.0381892593303142
-0.14888810617581114
0.1642892491113963
0.9826216436467047
-0.07547994558496812
-0.04056906485915081
0.08424728659108333
-0.04413469704216865
0.11935083548109791
-0.388630384322022
0.4387851660094692
0.06726198383224737
-0.6001069512932282
-0.36025486932877093
-0.604338710368051
-1.3362894269597
-0.232294468357032
0.3800166481818857
0.15066573403606542
-0.040237366033251835
-0.6317925169932196
0.29194623665159325
0.13168092160476239
-0.5298515702085635
0.033767285913866435
0.3954927958658997
-0.3412546351605731
0.14825018462111458
-1.6761932930522085
-0.0938995528115505
0.6682715063738093
-0.058833003775323287
1.0712424914494199
-0.3030396509427434
0.40975344930770885
-0.23927959445279717
0.3992570871312594
0.33531158435720976
-0.15572981641072076
0.724773713252313
0.21895688040318959
-0.2053243467769786
-0.3489869745689987
0.018236067954358497
-0.7036217615252769
-0.1428605789073947
0.14719364520241734
0.5838051884550728
-0.010692132187563048
-0.3373621889248599
0.0911074958484184
0.29941232167152587
0.12325290957153064
-0.504991494429374
0.10328217401459681
0.10966673178292485
0.026054966547196516
-0.2254454336525103
0.0768393305521127
-0.1368853805743895
-0.21059052511490228
-0.17345498088314107
-0.2987497865362095
0.06982377739741295
-0.8514607188418938
-1.2391630838095007
-0.8061450477618727
0.26493105026436314
0.4673956536686347
0.0005548653796729628
0.7526351230617008
0.012773239729891039
-0.033665564378909246
0.022022901579364533
0.02764535242117867
-0.02796116858103664
0.9461330674020361
-0.08427165065153502
-1.5948103701844707
-0.1342719721780626
-0.3836240564589138
-0.557892200159287
0.09510475434681336
0.8623394481603485
0.14718237739713833
-0.18431040903849727
0.563533993663847
-0.0601510963021756
-0.03830366520570119
0.7130203187870098
0.1195943510149733
-0.293781699100813
0.21502183767076954
-0.7564279159508839
-0.7632778149646458
0.3184138079582529
0.05362654454933933
0.28816141109688675
0.005325945327405791
0.08109452365095891
0.0030457516849718026
0.8763491713054123
0.03819286574770813
0.17443690830915967
0.45582043975129205
0.07871662973860635
0.9089818269417119
0.21804302026086236
-0.28024219110091986
0.5088798641881689
-0.4315265804323813
-1.2600747012177265
-0.6736210176920072
0.13149946850084518
0.023104969925050293
1.2773462382471688
-0.21210043777427345
0.6439155395104142
0.01932392052939543
0.5212359368078022
-0.28347799789079564
-0.31334864319769246
0.48023295913772795
0.5280464703783522
-0.7676614050047886
0.007189208690616289
0.8206238944386746
0.1635310448662601
0.010898298162298837
-0.09529183464879466
0.25363350941659274
-1.3303289218455028
0.32725972431298916
0.12769038035944014
0.1921090444155468
0.02053624551942605
0.027141049860859596
0.24199349065484327
-0.08734070057687839
0.6583913681302814
0.39886094151906004
-2.1069877133204264
0.007658592801034748
0.02238071339065031
0.12454756527442584
-0.14654623521270022
-0.22407093284589039
-0.01088708229546575
0.6362766145600507
0.15783467026976528
0.24672497757868336
-0.33371204295872203
1.4157950181229073
-0.49791683556380817
0.6169438997832878
0.6437989846706973
0.05293432389056338
-0.3855960688091811
-0.24339709514024507
-0.005232743468688864
0.156690368011521
0.3532046956879909
-0.09127385363690517
-0.08088379005092874
0.7534111659930324
-0.3378257378906502
-0.48598706167884814
-0.11676294362970868
0.5210038986768023
0.9991557158320601
0.4966701115658776
-1.0002419988027749
0.0009637604915871521
0.13697928042409568
0.8049441873877019
0.07193539012171474
-0.6977451188198408
-0.2396185211480631
0.12469346416427551
-0.16232882802484655
-0.7276592964969972
-1.2766174445658147
0.00864552732269026
-0.08762782657260737
-0.14314446789957574
0.3948424544380233
-0.06777097343325024
0.2649623487873083
-0.20578006715655037
0.4779701644229309
-0.2139136639942416
0.154643607297173
0.05763326111295866
-0.3958995585544567
0.2108089435264811
-0.3440050262011366
-0.7146933546057683
-0.00972167086236596
-0.3549321780513139
1.0401021747125083
-0.3349668280569159
0.007731695459422847
0.8561071761599789
0.0665979041841894
0.40098831752990094
0.09080867237612053
0.150374421241157
-0.9642854636518166
0.7420343452546769
0.004941781642235259
1.2101921045350517
0.0319010409177718
-0.047442499572579705
-0.7177410214225399
0.0083759127453605
-0.5401773594372976
-0.12953669871098109
-0.12629670246518723
0.10344591330559395
-0.042688991755202944
0.9047227743807792
0.8229225590155531
0.00855294186603847
-1.1977782248387023
0.05942059341147258
-0.12147274598900012
-0.5418273655852303
-0.035808093646809674
0.10559702200920162
0.137700011346683
-0.0027612828176925546
0.5743927740070758
0.5181592381342947
-1.7244003529353547
-0.08454144025463964
-0.07569533740154266
-0.7475342832838562
0.8629969088924151
-0.5898989818834708
-0.016122350987319747
0.8285077878401643
-0.2270345901553584
0.22353359079151527
-0.11232695770389596
-0.004946952246363326
-0.5475859450251364
0.8837555363513544
-0.4149320662359329
-0.11492296859516622
0.8922584655388341
0.13898680910158542
0.1320132470781392
-0.6332875812288493
-0.446100676657639
-1.1547423468191897
-0.2949957486067275
-0.617845989142369
1.7121326924912053
-0.5891560290038405
-0.05612558449674408
0.04153116878840855
0.030045270208274563
0.18168071429906943
0.14181941693679817
-0.36408155064580294
-0.2361044613750351
1.279033557484229
-0.5802834335331422
0.008056834527080546
0.05360554671586081
0.16767100843413846
-1.4040733192294996
-0.34868328329219517
-1.3831071496197314
-0.006175949756237929
-1.3126310712216203
-0.2106652864891562
0.2326042945429539
0.3652692433571262
0.8729813740536628
-0.9882195500440869
0.1982143241944
-0.47681988888247573
0.03707216150084398
-0.016570783497023317
-0.6030531558837309
0.9861957985701887
0.37160377431637615
0.2216757003088983
-0.8987286990111717
-0.19017452171184476
-0.7209227219561416
0.0005645610153777212
0.6156098788165824
-0.04203386728675509
-0.6910595672249212
0.3047800617698293
0.4215309811523777
0.24498546463743762
0.4367158181246052
0.46744227767096924
0.10163953276468207
0.5486124689353945
0.24081643580745798
0.6937660921381168
0.8907581515705871
0.863743026287573
0.03686209509428452
-0.728528032180318
-0.5380093559531196
-0.29296474706533693
-0.4381644771499369
0.4058965413416345
0.8293044816793668
-0.5815076542516019
-0.09891130304457169
-0.7477374892597114
0.14406719753319613
-0.5686337741717826
-0.22811066161100496
0.09132136620721591
-0.22791336219415245
0.21392153979438133
0.4563582285701457
-0.04505861006617372
0.7096900847586753
-0.37796956786359887
0.43501260827988386
-0.17858976332306614
-2.7680178558696356
1.2270469265570925
-0.7623490527644
0.02290570578253884
0.6152387569555278
0.013503523906238036
0.12993641636414763
-0.10369773492784312
0.9480863051606416
-0.5794957062017245
0.2873759690598103
-1.270292616294186
-0.09237849309242543
0.4412960781257268
0.6988849555017029
0.39344678867120775
0.3651248418337307
0.02702570430570519
0.08852103475134615
-0.07891713925709667
0.007918739623805213
0.13054274820416362
-0.5938385366739547
0.32289641979997935
0.05320171648710539
0.11030289993910046
-0.06716054435138989
0.1478420576655448
0.010392181306492644
-0.017417768413240067
0.5792757184569515
-0.07417994745859695
0.45376868518053387
-0.659620488827627
0.10227449454623769
-0.18734588959055146
0.3202208646497508
0.08730554082634558
-0.36222596358305925
0.7850861398357281
1.2091337827905044
-0.3343643260845963
0.20655271766939143
0.3312543097173899
0.40626060904200784
-0.05795963958711496
0.3832625162416341
-0.13644041966896073
-0.0177857809292465
-0.31391516370364814
0.07387545124796253
0.683589950750018
-0.014003495265079486
-0.11735435878044619
0.9307462508954297
-0.09101818716820226
0.2265759717738771
0.6629036319592334
0.14712071400508844
0.1666130235071046
0.1410405628041146
0.13448327099080465
-0.07867243766226965
-0.04021447970020527
-0.5250083057217843
-0.03749255036248464
-1.1116660009200554
0.2502300884638209
-0.12113149518045
0.040234291722023995
-0.22202281802592105
0.4377695512443484
0.12795588738877198
-2.475312758474357
1.354072790133172
1.2010214137226078
-0.31898346923292453
-0.8154884775461062
-1.1853204057442424
0.13143811938029046
0.3711348213356748
-0.07098528430181145
-0.10263721608378996
-0.37216844820483425
1.0889099602419923
-0.045713005177697594
-0.35465468874816986
0.013947512252994556
-0.09871815815030874
-0.09893585543757703
-0.043245994048423254
0.7432488084448671
0.5672554824961255
0.30435709504793873
0.06710698422592737
-0.21257099468135643
0.019429945894685142
-0.2764469452285163
-0.8124360137874757
1.7222983379268493
0.04987192783161633
-0.8973629376263963
0.08314781412911375
-0.9745942676887059
-1.7901988458605396
-0.12013202955122143
-1.1547247159197982
0.23143872033110643
0.10867736716449405
0.16207422504715233
-0.04362273401307444
0.018905010683441623
-0.3109356879004607
-0.8983926382690554
0.11549523747608097
0.4978745650383002
-0.07695029013421151
-0.4020230957787803
0.08205131368701984
0.16591587993273657
1.2136005436827275
1.2978777395114682
0.1454315209369807
-0.1900130175611932
-0.4568691944879721
1.0681393680292746
0.11935064751843645
0.3059004162939502
0.25060598779928417
0.5615833646131065
0.2360848508614139
1.0813447725471714
0.017234419447391524
0.18474357213732662
0.053790148241730125
0.07879455980728142
-0.499856511833102
-0.19414093321078116
1.6080220642101972
0.27163740665600844
1.8873090736728166
-0.42619369654169864
-0.543241072392381
-0.35434451473382617
0.05370099987065972
-0.2660987857296147
-0.11757092769649982
-0.7022620457594997
-0.28505135462262765
-0.06440978551338351
0.31762658607258437
-0.568502498374848
0.37710087472097836
-1.1817647210878672
0.19553218893936264
-0.2611053871433596
-1.566489198652542
0.0974274981385347
0.0874434231160571
-0.5093492975305438
0.006146187345001203
0.3591481499272026
1.294771330292684
0.32168585644159964
0.5931650121730061
0.13542293241300626
0.02033338888977023
-0.6909297796047974
-0.48925480737075877
0.04901597603854537
0.08183488591052311
-1.3120851228704915
-1.3913815707563277
-0.6405275388898396
0.4493792715469896
-0.0398735118838323
-0.6457146781014471
-0.01989028745552716
0.14538674976572136
-0.13916008738022756
0.516841826420015
0.05488494418128313
0.39238874076018004
-0.09229593635368209
0.49024416382560804
0.2774083921648787
-0.26542987507057714
-0.35261830933850374
0.08690763911673528
0.2631211900188308
0.022337529203756982
0.7936119800735788
0.0710890440196699
1.6791150025255508
-0.36904529126921354
0.007742449108720854
-0.2922606038233926
0.502761376964996
-0.3719009175185438
0.17433542279674313
-0.221095030866463
0.21521641803455085
-0.15127544021403544
0.2903024663283864
0.6621393566236086
-0.503223149960333
-0.1905830313626535
-0.15436678979693583
-0.7104376145773336
0.5494044573845764
-0.3085532806921843
-0.15726545342704912
0.02999184371012925
0.4425478297848606
0.01956754211218942
0.5501403665826903
-0.12046833734638386
0.05398079475556571
-0.1410882047139207
-0.15354320721009998
-0.1477150484808856
-0.036546257630799446
-0.12981933772899792
-0.07191748387468791
0.06298233450146688
0.8909213329575246
1.2180563486346732
-1.5438539456972546
0.1043304604725352
0.19464243998725614
0.033390789344217846
-1.1683467383331545
-0.7933589301088296
-0.5088569754638359
-0.3357130967798854
0.29511573868389157
0.19281228360316816
0.39264190485227324
-1.295944418156557
0.3531676711424261
0.030534004972619964
-0.4122809728017145
-1.0038846729661315
-0.3893129162933004
0.4279765535136888
-0.3099448906161488
2.4396331093317105
-0.5151294609881831
0.26117443748022445
-0.20689662899176825
-0.6635332896437529
-0.36712868225180695
0.2347992405212678
-0.35274398046431815
0.8966115533873921
-0.12841614469590476
-0.898914477917055
0.009672995236846255
0.12527879732168656
0.13955163339663432
0.5625026512064091
-0.24080769564221202
-0.0017069998503547181
0.17694596350660263
-0.3855429370900627
0.8214116783761164
0.34564004435263085
-0.004303393352902019
-0.3941804929874992
1.2247689748608372
1.1658808900148587
0.4194639732400153
-0.09548444540948495
0.5496677485315925
0.19859717015254258
-1.0877894809254967
0.05229496716600796
0.6206964437852479
0.3295165775625294
-0.5473370739517347
-1.2775425531525533
0.2168058182550991
-0.4931523675491848
0.10077396386175967
-0.0018780242596521705
0.7481064448469009
-0.8507406390863408
-0.009158118382939506
0.34573223378080264
0.015660794941525898
-0.000771380472996376
0.39729399987220776
-0.3653761828302092
0.2136287534960586
0.17791008211158438
0.20961370125233172
-0.6905357344599836
0.9044083036793158
-0.2749887679704659
-2.0781394742436383
0.068227036903836
0.927387607907365
-0.015244370646338254
-0.27493826150418593
0.4686180331165789
0.7694020385532403
-0.6713253782788844
0.13907664424395258
-0.06383818136368247
-0.13607499562999642
0.5368605312096215
-1.1965519753493572
-2.0356001479305363
1.3700478539751508
-0.20917787068691202
0.02259342732179232
-1.467839438960977
-0.09448678219843448
0.613584301229898
1.1195679661699642
-0.03991654668069612
-0.09914847348558793
0.014851872458782715
-0.4062581468802652
0.5275259634187517
-0.14284380163867186
0.816983028706913
-0.4608769669743207
-1.09222953640371
0.508971680192936
-0.5660101965616736
0.5560173605299001
0.5138924816300432
0.1395778258743582
0.06116796218650692
0.09070892173674384
-0.45735743580831384
0.009329642779845966
0.6060673952099807
0.09899293085835752
-0.05296111919811213
-0.37661268042054585
0.24633686623867354
0.1387635786150163
-0.8875089710668639
0.06903865910873408
0.03449472877771624
-0.40679749996932557
0.010770793208461006
-0.033113219776110966
-0.22755329190084217
-0.06318887566931611
-0.11029592864245899
-0.36132904554409373
-0.5176044268800569
0.5454037610661454
-0.4001126736877116
-2.855766694460909
-0.7033372317750259
-0.61456277496573
7.573976113867504e-05
0.5678936401885197
0.03718988097902819
-0.4974318536225889
0.06631456073972782
-0.11927476172808484
-0.2303206660615088
0.015954886049769426
0.41110348772636424
0.0005834921644854937
0.022663036652781535
-0.0232981198039427
-0.8062887523191176
0.6122541905820073
-1.3611927465147642
0.8043435884301863
-0.19155407380450754
0.9939974063225344
-1.6755455850278085
0.0016574161144004152
-0.18893864655337073
-0.7495472995672912
-0.054882933650952766
-0.014661580832397091
0.6044439256680508
0.2832579352020696
-0.06669248565422332
0.08439369824928926
-0.3388841095273109
-0.46762829951669643
-0.13709060230892678
-0.27247993579708485
0.5909151960182938
-0.1852988028730501
1.1843415580402257
-0.03870954672577169
0.10298890371510692
-0.05246031112372191
0.012568666621732966
0.15570793958650173
-1.2107519287437778
-1.043077603986272
-0.3869137422263978
-0.014448255580226626
-0.5524167388240823
0.1793261052962232
0.24934459497748535
-0.44186677153421267
0.026846830152962076
-0.3500471729665483
0.1761377258481575
0.4232086077229189
0.36760872616194457
-0.043537101292700824
0.08339700029197038
0.03423821851509226
0.5110545173323426
0.09347064862773831
-0.20833442202447455
-0.09483634958632052
-0.16214500353911857
-0.1141875798569717
-0.09008599246682078
-0.04675144389160546
1.7728906634345036
-1.1504894610481833
0.16850886328694706
0.2641532920071981
0.21354871953154725
-0.10833271949925466
-1.4631639705419661
-0.3457754211194814
-0.23896909733907448
0.4221662641757979
0.0724240761868358
0.2488915777917441
0.2362017535726499
-0.26080705834426504
0.1362208607649958
-0.038283664265158446
-0.06189415029386886
0.24391475733846488
-0.140059756901953
-0.4946962102819174
0.27659499898857687
-0.289382143195667
0.16359234661306915
0.28972075792850427
0.3388501387280001
-0.002298763694453917
-0.690733746809272
-0.07529661841488655
0.1322605401219473
1.429298688929136
0.10205392709925984
0.04723593830085681
-0.3046537307029068
-0.09293967202847407
-0.7958801887621672
0.22301692270621082
-0.15389346099588694
0.5385486159357722
-0.2267919860757543
1.6315663762683603
-1.3459529181966683
-0.5230857849068357
0.0446780179280269
-0.8003167935090346
0.15381375089985821
-1.0796360271771226
-0.5002994631141955
-0.3584575163901831
0.2706471135218935
1.2341115704375258
-0.872302080861301
0.8757990175578754
-0.27554721011938116
-0.016563807867908294
-0.3313087403222737
0.21696718267882106
-1.0917665760766169
-0.13410989137928578
0.5695908630444176
0.14095552319590973
0.004464219562841409
0.4472431519826323
-0.38984951724498224
0.02522690378581064
0.3785124570966348
0.7457499428647077
0.004351766617334017
-0.08195175502415278
0.9580923089669258
-0.03464630102988356
0.2794810851275689
0.6249513208701702
0.03837759351404957
-0.036469638380208065
-0.8608140074387501
-0.7802808778791728
-0.06958466180127242
0.34994586990499005
-1.0264177806548918
1.1313751641841516
-0.46459200684312585
0.16794540232403465
-0.278427581034072
0.5169656568644222
0.08838244581185595
-0.2285400663306338
0.300091616720528
-0.0719546708656281
-0.4358581143127022
0.7889251746485938
0.10218194441009887
-0.10943069603872638
0.3794233480075641
0.3592016119942603
-0.22685600381682947
-0.4174292809586069
0.011944259389404382
-0.0004295938256201439
-0.7626282002851418
-0.02791298567305355
-0.05304001393176329
0.9598999896420182
-0.13740786938871907
-0.2992258007734887
-0.02980352036243062
0.07779522822853298
0.01862310537550884
0.33308182081748366
0.0031206337807137543
1.2117525340726896
-0.24101630969458585
-0.19003370786715323
-0.5929676885942166
-0.16860260784269407
0.3596635065407371
0.015126583126828566
0.13215143477852725
-0.021050403313247174
-0.23510492674445155
0.40256279543598616
-0.1764032724789377
-0.2505592760049986
-0.4919548123163688
0.13867015789375825
-0.24206235996923972
-0.03276225405481498
-0.09315851175559484
0.36244084655150005
0.49151260258076734
1.6002747499939622
-0.1571013553091581
-0.06654681411002672
-0.5571260238427366
0.582507515214748
-0.5215728693713171
-0.33211688862954775
0.5149626822928922
-0.6181487657662521
-0.038704970904585564
0.810829239486869
-0.018408669513482162
0.10197842530284196
-0.12441016633438409
2.1050601270761087
0.029426193021079867
-0.5480641496543096
-0.502892585901975
-0.08956742443583136
1.5187668857978096
0.07185717113860737
-0.8003668593022887
0.000992240063828558
-0.5194721216894127
0.8056967720226482
0.07487591116716791
-1.547338257744566
-1.0860956040466092
-0.24016658976211352
1.7221562684176097
-0.36115797460621557
0.2762321666023933
0.5829944924816699
-0.013452011119957882
0.10447297074819435
-0.1324111372222921
-0.11060026092050082
0.056802208518741265
-0.36606082299710546
0.10614478345352801
0.6109632709090003
0.22321533367406546
-0.21861031335473424
-0.002881631424164032
0.525340377210825
-0.01335592756888372
-0.683821768959892
-0.3136296900386931
-0.09486960850182335
-0.12013741001772571
0.5586746631915742
-0.4774625302326819
0.4166576996509586
-0.27317972341785224
0.6312710008074582
0.09153218014698689
-0.0002979647706198821
0.4446532849902447
0.0581863050156823
0.19821780409446754
-0.3781983609298221
0.5792327802866473
0.06958588079120435
0.12589093957970862
0.428061297746565
-1.3280739075781722
0.5293887626942311
0.0002159084886876532
0.04176427527791467
-0.1658419360275985
-0.2470733721667583
0.48604444822434767
0.9918539340216733
-0.004215000181326553
-0.13393555633002865
-0.11001056972437954
-0.16943558075296375
-0.21218206478713278
0.12255415555134883
0.2634841378384815
0.22195327348441218
0.44650930881435985
0.31525413891683335
-0.01705028937690153
-0.36180759790314787
0.09219230163699971
-0.42444963743865677
0.06472077506451233
-0.955301591899394
-0.1856603576319077
0.7987376637683883
-0.023641317470583942
-0.09278534376567082
-0.5118307217737517
0.15258000761973137
-0.1350291314403749
-0.00011142637802244351
0.01070787812264018
-0.07271460000102692
-1.324834070396688
0.009111352130346424
-0.1872511774466609
0.3319798601483926
0.5397673337407147
-1.6418820123830073
0.5549813982728132
-0.06220185614850863
-0.03630343007550223
-1.4146519276928553
0.09599292549454742
-0.2817209554045356
0.09151240622839923
-0.4857789494021165
-0.1530226062937591
0.037771459201061744
-0.15013247345003836
-0.02093162271900193
-0.14984175404553868
0.07851212091360667
0.1096353246031746
-0.7783748264799708
-0.11055180535501331
-0.0500227571829333
0.6385887619437464
0.7344890422360095
-1.1867669034933215
0.24910154657485753
-0.5652873914192822
0.00694190509614072
0.6977552944853542
-0.975336805602896
0.22681767051821072
-0.030023558245318202
0.4988158497836122
0.02420040826207538
-0.6612751912515169
0.7818194518113776
0.16869342070992788
-0.5576020852628696
0.2850217556135033
-0.5391319511383627
0.34099259980562285
0.12910512526536622
0.2805653052760523
0.7896483595603058
1.1122775370029596
0.04414882930016523
-1.147010408678979
0.2389055618349068
0.46799894482899507
-0.040795590557419034
-0.06281644442883644
-0.17691884866480592
-0.8282147520481361
0.1483335408562557
0.5164370133391836
-0.7185081992513199
-0.3759703745105471
0.4424599146717263
-0.2212180179254714
-0.6504065182938981
-0.13900848772395924
0.14060823276461862
-0.9218969975477848
-0.011329172256571372
-1.8913687177035925
0.37737894933763955
0.004349184113836061
-0.049938644129779254
-0.1090959607823298
-1.884473702429214
0.1795482183439742
1.098102796640435
-0.21824286333203774
0.3697187780554476
1.8050598412190473
1.2150029332271817
0.006356315287615438
-0.6949259461342066
0.32513133389282334
-1.2472204759827554
-0.0520685105389454
-0.0005854170688487672
-0.16266141972924045
-1.548942045282236
0.5957004871701075
0.2789830889807325
0.5431234431963051
-0.7035655499739181
-0.39376861703458443
0.013315256330939546
-0.3337738138598796
0.19386985957801975
-0.05554783336339566
-0.29682566844566755
-0.9040118425110947
0.0023937089223474584
0.32967258550082457
-0.4787741246980831
-1.5456733223819796
-0.06698225516231447
0.13324391525076662
0.4187873422416873
-0.08075653837294966
0.0032118547924073195
-0.04836295661689277
-0.0028056102122601934
0.7017194701676719
-0.32393313998971945
-0.9262621994377631
0.1781763604510985
-0.13442119361645394
0.529730318724114
-0.12130056185671903
-0.10700590416591867
-0.12990312474590537
-0.019843020363176166
-0.23466357773169166
-0.6769369772630639
0.0053776101490575195
-0.057801874434658035
-0.07825873978590979
-0.39951714625968626
0.047478980959835035
0.04078363858745393
-0.1989713890940763
-0.052815132260492954
0.9183621574491395
-0.6988026284893089
0.47901207315144473
-0.37168699239549996
0.07552528682524134
0.4349814726446977
-0.4729501714331414
-0.11431903169376217
0.43916744752438297
0.10710884109418525
0.12022653462917601
0.03488848010097389
-0.2983166361587744
-0.47593493374271006
-0.9574439102983229
0.3188793720874039
-1.027929118588499
-1.0714146180903759
-0.012352710349574898
0.271230094279622
-0.02551121250153227
-1.2433299308427557
-0.1502286638531488
-0.2530471220438535
-0.0066788106833490955
0.6140672662995355
0.730930073201725
-0.4834915009766499
0.0011447161182330282
-0.20277212081487192
0.47365674258776685
-0.4095019734958419
-0.12796610343131634
0.18045413592911835
0.7263084483255047
0.0584134377668604
-0.05600467378486666
-0.03021925543500072
-0.02954926662478468
-1.4373735264521112
0.04000628886873622
0.13670740058669054
1.8186855065977594
0.03450709655578664
0.011420613658347857
1.0560620026108956
-0.012769538123580207
-0.36819076930904676
-0.5363579022569254
-0.2731992042343433
0.529823842439065
-0.6543834148658116
0.008818518058888516
-0.3538218158610066
-0.1949001550553904
-0.00010182803878682513
-0.2539776942676725
0.0019665498800881527
-0.33521811013700464
-1.1489406689310955
-0.4088070406424762
-1.5805652925269607
-1.9752230472596346
-0.666851863586333
-0.8727318986958102
0.2699612215190694
0.4542922293403291
-0.5402369086993354
0.5636567901186502
0.45880848892152043
-1.0570605027255153
-0.4880557500249847
-0.3568160672621273
-0.03967483595841947
-0.24413195075215818
-0.6773238313192135
0.8697106197778013
-0.9968076709702548
-0.36920345996220916
-0.7461573546056143
-0.3094510675824373
0.16466365954938622
0.09274880830770468
0.08002577972925201
0.031157284625856027
0.3061046660505599
0.035435825403409886
0.24108309281311277
-0.45864875933228044
-0.5213432600527541
-0.7402595682478978
0.8015453181308039
-0.024748985492562704
-0.33220312896469295
-0.3011483464577198
0.044704070842132994
-0.6077177434365224
0.3996240597425808
-0.6375404924089823
1.3293136985551521
0.4016141528109354
0.05275789231387901
0.008542304554453244
0.3686293411532211
-0.3581300642004299
-0.9624458456684595
0.640228376690586
0.12327508194474245
0.4957244720097538
-0.03397126472110039
1.0157194116034896
1.0991094976834646
0.027042397780202843
-0.3317182860499195
-0.8991265703620418
0.04811605797178192
-0.4091420913733142
-0.708829110480689
0.017518121438896563
-0.6564873772064337
-0.4596064641175433
-0.017200020285740546
0.21868868829241958
-0.005794177728053907
1.0342292043169237
-0.16648811685143333
1.3726451519750815
0.36116994414183384
0.03485422329660097
-1.1408803480752912
-0.01218297255840285
0.10291442160685249
-0.4815011448325545
0.38376585936476676
-0.12076374546936663
0.1712410377840831
0.1874599509594434
0.27927075226353343
-0.10256460320952666
0.09686253456495
0.06145421033601762
0.5251880556548597
0.19203227950501658
-0.07493899127987731
0.1124113645564631
0.278866882849178
-0.9182618070115152
-0.19125244502847505
0.00204828839229622
0.12655459485623882
0.0005629151982994817
1.581242647901818
0.013912341605603852
0.10938101774536681
-0.5389858571910376
0.2806650351572275
-0.3396623074322165
-0.6159687703355586
-0.23508242516667865
0.5223307683030382
-0.15407506348855995
-0.2638301508520454
0.11105503072465908
-0.003574830266303164
-0.0234842727120092
0.2962128548806888
-0.3227651161145087
0.2741494559830355
0.013421551607944919
0.04306798391543753
-0.4411187268470948
0.15755588724934075
-0.3474219896170777
0.005541517206689738
0.33739006836462526
0.6315753546911158
-0.004672930494800448
1.166824559733386
0.4151423870241792
0.9241460348854459
0.15003149259642154
1.3823101167991514
-0.6198860123313306
-0.09354374481496712
-0.08066493768192062
-0.3763093102599325
0.3444289896040052
-0.06015304985484995
-0.4279388844163177
0.693299395390952
0.4843330008636653
-0.11292262530304596
-0.32899235478108385
-0.3453501455149771
0.12954025931611454
0.007044313061758702
0.20224362532120077
0.007262451245395145
1.019204393762572
-0.169891859477977
1.6756561921076698
-0.629744129701467
0.6813266418519163
-0.02057174432159148
-0.05168889695078432
-0.7442261742176849
0.9257067182653455
-0.05363936325197264
-0.5566247137761029
-0.5757723707855588
0.10294142455583619
0.3023190893748961
0.16318730777249676
0.25328174809553905
0.09887683525040719
0.105785562869555
0.5589586555737894
0.9167196853202998
-0.0017811058230296905
1.0188748425897827
-0.36727941014601717
0.038139235408811874
-0.26566104727952294
-0.8167599314242996
0.5213042821311632
0.003205604533646242
-0.2544311625236917
-1.458950210044004
0.07211950079095225
0.1762111552176854
0.8448867549356831
-0.09110554748452748
-0.4087126707023244
-0.2331726732676998
-0.9223610293778657
1.1730783101575974
0.32557392833470933
0.472965902961778
-0.29223758094391167
-0.2013323826206343
-0.10285059930255759
-1.4797247916043297
-0.29616841278902195
0.26259752740878356
-0.8549397647399405
0.21981950565182118
-0.5601278749736455
0.09760688956358911
-1.4292927263483166
-0.39563779510252345
-0.47851431394525196
0.982299279650243
-0.4489314015160735
0.23020380611906205
-0.026620097444290673
0.01330262825144401
-0.8818703218179422
-0.8061490887606412
0.07722870270669659
0.2993358949468532
0.00830674901254412
0.016021797445769852
-0.18995009362250115
0.06173144903917941
0.062321912322853536
0.1306744270225762
0.04440382746959156
0.09896123612753492
-0.21323131048020094
0.5396910129083136
0.11161182412576111
-0.1320653330526061
-0.47212764153515474
-0.9878396655085027
-0.3451197050726915
-0.4599971164004946
0.09477815172654366
-0.4729926303037671
-1.1800709969500478
0.369437120884061
0.4953311153211077
-0.8027844360489215
0.23760646745056874
1.2792327227643303
-0.6506931786839203
0.05134800039095458
0.7020464599166718
1.5029291725727472
-0.9673096061043776
0.07962360143031492
0.018270269690526215
0.7916039518491722
0.07970654819863443
-0.10716298343957255
0.3118634529234646
-0.2495928386467591
0.5942924984598288
0.2254271597932217
-0.484099739631789
0.2519768406222684
-0.6927281683885252
-0.09751243433842366
0.2596625960561431
-0.23788632025964873
-0.4157661030733816
0.2612091924989739
0.9085627957185914
-0.6212786162348943
-0.1928751801210279
0.2807545218638505
-0.9890876345339656
-0.75959976772113
-0.2015049298288054
-0.30234634937533567
-0.2411369709183287
0.317615681631395
-0.467243336165622
0.23086233648386378
0.44940321231956554
0.01045279165328034
0.14924502180180826
-0.03926477583895743
-0.9629267752512419
-0.015832976641962936
-0.30334787673725483
0.07958930592991541
-0.002179951179810048
0.22228124469438584
0.24581838770548012
0.2017041309486588
0.5628304563974071
1.127384409474378
-0.11990290007699121
-0.14879999742550903
0.19765746559443503
0.31358192603835133
-0.15850990785539856
-0.8641954576549505
-0.6209447826338121
-0.984009184405961
-0.05745824431777796
1.3184385724106102
-0.9290619198542063
0.48899309097073573
-0.21872554509614187
0.9256881340204535
-2.1441207327177247
-0.14642665467865365
-0.11188541292620587
0.9366064604934177
0.19561763440485333
-0.17914991724833837
0.4226735970007722
0.8899578076202103
-1.2798285465917658
0.42966291543608914
0.7917978556685324
0.4477787151497498
0.5806392282527677
-1.3479843986643603
-0.9791784201010582
-2.084609747213858
-0.3812586044769433
-0.2875729767391029
-0.28205111558084334
-0.27293111260676106
1.8933795021808317
-0.3278802476130772
-0.2562882405310244
-0.007668657426028473
-0.40980603016342215
0.09018643070467139
0.41166785528560085
-0.5668417832335693
0.0964883137698437
1.084554060736627
0.5348299057200605
-0.004872338439720544
-0.6498835189290788
-0.44980832789511777
-0.05803762291765105
0.6700686194337202
-0.3261822056189716
0.47240091654969896
0.9805510187572124
1.0433236991864787
1.2113754782100445
-0.1966659186311073
-0.020049614774845397
0.02242097971434846
0.14165478065622233
0.09424006893583256
-0.10489271045131573
-0.8730944774754563
0.008426446193371975
-0.014323644925560645
-0.24571769986639203
-0.07019784321162598
-1.163645815494757
0.07941265872293503
-2.442929906844575
-0.009816478398111693
-0.0951396331807999
-0.0070699454016400955
-0.028237726968911463
0.023607013671068083
-0.43748434730624663
0.2051567739797592
0.4142495683221543
0.19928095154773603
-0.007216599003747717
-1.0654337885910348
0.7881175138500822
0.06995199757198592
-0.30037946691740025
0.1005942091707781
0.259456579461083
-0.5853585142947126
-0.008689012248311591
-0.21725423996156737
-0.10109835285551137
-0.07265999960644944
0.2567193303257145
-0.6222233815344504
1.544410806049355
0.0021904283186653844
0.04095000585850574
0.3249752526739849
-0.19266520704083795
0.7734316840879116
-0.1275386705758224
-0.22721171328223091
-0.27343064976283943
0.06719411197262798
-0.30539426699045186
-0.37117724830257715
0.2136528528594502
0.6556566111683083
0.46997897567304847
-1.6265545754891584
0.6910213638552682
-0.09741677748481177
-0.040843568833028
-0.82824588331425
0.0028363844449668016
-0.05441141549274653
0.9151412474828303
1.1813470820947243
-0.02375584146777322
-0.6093855443677357
0.15873219523215445
0.019070168034414678
0.3393433669531898
0.5372604899847274
-0.1850367427635407
-0.40519507496850543
0.15208838003185088
-0.3388918357818053
-0.25942164166785003
-0.13742528961592626
-0.2169722845634808
-0.13892019062784972
-0.12032621129570899
0.030406615225143444
-0.006029917534267982
0.11559287197795881
0.04931574891135865
-1.1909943892273753
0.11520418508602709
0.012610954536923378
-0.7842905581850842
-0.5810924176849833
0.4268426746226712
-1.641637547011366
0.013152973434064956
-0.5204708776474031
0.5131274962730139
1.004442583619522
0.2791522024300883
0.011931001950311496
1.0115635547077177
0.21077534759839098
0.6643559818402033
-1.0321579032276909
-0.04122287717632517
0.0023743056554894402
0.7114384201970069
-0.2734790706108548
0.5588246589038385
-0.07568297781545465
0.19254426047591128
0.2245316969535547
-0.06880554511222227
0.014553461949704933
0.025404798896195374
-0.4472456771487489
0.24430275471218468
-0.031207025131653226
-0.5263434281981267
0.09940422167197908
-0.32024567047469576
0.026433842942657538
-1.1004408767802396
-0.24110611546766056
0.0044089248610731935
0.991238827078039
0.050220001852979194
-0.48517806761961146
-1.3703559270755539
0.39014916683369727
-0.3046588407367906
0.5726887851798341
-0.02683012096699205
-0.06341254472795625
0.010799737413727176
-0.3678125018932516
0.0037921033092550003
-0.18991629091166998
0.07487523841091466
-0.32885251682706323
-0.8084980408161552
-0.901829266753354
-0.487570746380063
-0.04229180208918871
-0.46599977546200616
-0.37252153352969897
0.03209661201902096
0.4340253130945789
0.55581613321448
0.0992109580033832
-0.024763480685416287
0.07002816650618812
0.5298759735699028
-0.841502379652416
-0.6941075689065827
-0.7079209189330723
-0.37138313515522736
0.05519797391803927
0.033489381158737536
-0.004024544465386813
-0.07865127638171149
-0.27829084715946384
-0.0913080800033985
-0.12927388530817666
0.211156273170936
-1.2696698812248812
0.006426812437280774
-0.6343151778798701
-0.148612127434733
-1.2189469592654847
0.7529434422310212
-1.263942010612443
0.5419753761248542
0.36835203653476556
0.11780920019761044
0.04936411261775239
0.007458869453641488
0.5661458902779105
-0.19782442932328592
-0.12446709589179861
0.3094453023127359
0.15510784870640754
-0.02276186112553478
0.2954307258435299
0.03929317224252743
-0.126066472662646
0.11516637133133216
0.5355712738620825
0.0611725101320177
0.06256069660716365
-0.16154391784040412
-1.0173781030034426
0.007049433789044487
-0.19259432269498877
-0.4059586891547569
-0.3811901407379801
-0.16208067278415178
0.10909028018013137
1.4109559967712237
-0.8070075641433488
-0.06230396594278355
-0.6854834997527134
-0.2034333368638456
-0.05708458250305796
-0.5843575613523817
0.7419662079758325
-0.03375234048007331
-0.4008508103220262
0.12305177762178408
-0.028147831736927108
-0.1744653575208381
1.164103833856948
-0.8787144268429311
0.0303280586008689
0.002373609922616248
0.36570061748809746
-0.4164085320649332
-0.05892813003031349
-0.1927849412549336
0.5359679440529751
0.14520253358193252
0.006221309411963041
-0.2896374538864422
-0.0032536603926762333
1.1345691649300516
0.06902455985691738
-0.0006731512753565906
1.8954247706093534
-0.6436775113553507
-0.33662721461488265
0.6045653211931215
-0.3362408468681023
0.9585335287180977
-0.8188122764990091
-0.05718576578321671
0.1679748494450923
0.51317473622305
0.5280053722480267
0.05773579589840774
-1.3431128085396762
0.1386844790927906
0.246668058589205
-0.5575211034548802
-0.5637073863313357
0.6157783138762434
0.4876625521236157
-1.246341528276265
0.005524481854319387
0.5573519527158568
-1.1084645449028798
0.019831741421022196
-0.03350470516794719
-0.39133818151833727
0.20331181328572642
-0.25184476425618446
0.3115162700941043
-0.8200966875798342
-0.5461080468330002
-0.40074637255911283
0.5169222068948216
-0.08028026328319648
0.07967140949407435
-0.9473854111574759
0.36239293990497135
0.007078314130148316
0.652513411473002
0.006109437548986431
-0.6105294434863753
-0.5048579578323523
0.004914943578525758
0.093537306144777
0.4821408544356994
-0.03927866632117836
-0.12856908584226795
1.2725629486668455
0.11472766037669622
-0.17532912543257584
0.20094151623391884
-0.7049144995091394
-0.010481335315427241
-0.5285291292874527
0.83138001670666
-0.41650043502265877
-0.09491224220667248
0.5322779591265043
1.0237497738138943
-1.177178853293898
0.001906053414551576
-0.3297174284816328
0.714740965574546
-0.0016338093353578163
-0.030099680994723918
0.4746239566406456
-0.313299925312075
0.19916824721536905
2.171176959065373
-0.08581805266335236
0.31894643771941583
0.11831060061963472
0.12227735598677564
-0.4494765488560215
0.11098570945333153
1.2544721015355256
0.12733630682581243
0.005968861628961718
0.26006415389484977
0.11791620537425097
0.029298768760737157
0.5090604865872902
-0.051949483888681196
-0.12828317727029345
-0.047985898583374195
0.14858458729664387
0.41212691776580856
-0.5788689184770321
-0.14089249720944846
0.12084381180009184
-0.18255085637102797
0.5175561982129603
-1.1208433199857433
0.3100920016230845
-0.058197834891347715
1.8832792172536224
0.22182825095956926
-0.029212257573222704
0.21528125233436737
0.06968527332502648
0.7069600414947477
-0.3485502015990492
-0.27652216176029243
-0.02422347367846394
-0.022529928123732577
-0.2826258185878037
1.560013416987052
0.010681678063077862
0.600469731594408
0.01840853936047556
-1.3717228924239662
0.2697215744819873
-0.6240747459471371
0.05197852084847667
0.6431028988145117
0.005239446221619924
-0.30420037428485447
0.67595618543755
0.5406730163344314
-0.2564636980576592
-0.1328464849906349
0.019284752221358392
-0.3567420257415329
0.17404464917427948
0.06736727715370451
0.019251704472756596
-0.024726364974497542
1.1270743016081841
0.012446531445195207
-0.25467688196142046
-0.10510404539609933
-0.5093607267913163
-0.08640424340600322
-0.013111736233074683
0.9986930184799343
-0.40736717762004265
0.6560228231220798
0.11282949386391271
0.23479592275139982
-0.5011233183954442
-0.6095375932484746
1.1993586057503114
-0.05694810946283105
-0.2085096125394775
-0.6188382655637236
0.2550272898802858
-0.24805815847186197
-0.13400467228796034
0.20528518831174658
0.1000826682743204
-0.018926228370533437
-0.23421691395697392
0.19181539086237995
-0.617884736153452
1.2947650874259278
-0.0026675716398822887
-0.577291343822528
-0.16642761399953013
0.34800094128004466
-0.4077779317950567
-1.4489284641871778
0.06810547136941268
-0.8523823178520649
-0.5051523814294158
-1.4106436093582175
-0.6914017667672984
0.08428342083245063
-0.036808285311685736
0.12961005967467415
-0.28206747384541964
-0.5607920715440055
0.2314440191858478
-0.1957260274075816
-0.32454722948512477
0.029175939436278667
0.15449085585305394
0.017779259180629704
-0.32200655146962415
-0.1702800159259013
0.49109600272666404
-0.7407755921116054
0.07907872013591356
0.26121541142210997
0.053507027673992485
0.06769012697415486
-0.43975375329933364
0.10693242863602906
-0.8048549292497736
0.5178345093984907
-0.43480047423761126
0.028440757257736163
0.2181750309632365
1.3180919153089747
0.38959906714207754
0.029607285166935608
-0.27326008657532125
0.3762322366559619
-0.49844855845397606
0.32404108003462456
0.06190877612927534
0.07291722479344366
0.8964715772111677
-0.024469926694525374
0.09520995600540093
-0.7910487213075226
-0.28583251991837527
-0.20413976564860511
-0.04792708856023996
0.413837270351239
-0.06994665709213688
-0.475713000504856
-0.3149251794203079
-0.9975044378559526
0.25431367169386015
1.0756304011996374
1.4776221054139502
0.007615786392445088
-0.12996513289926773
-0.12115626340534148
0.06418746486043522
1.0804861606979859
-0.7359653587873173
0.3539796453707118
-0.6260566040239729
0.317562883876385
-0.8561752852521746
-0.15346905286055346
-0.014106726532681333
-1.0148044365756037
0.1391747803482165
0.5585213443805606
-0.5485771161008925
0.3106625601524365
0.009208852227012959
-1.0342109965224686
-1.8869673336222765
-0.002472661790004337
-0.028828037471741584
-0.2544872058809329
0.7313042387323508
0.16176182404084694
-0.7176735520430909
-0.6290135838047956
-0.42228727505649083
0.32466958903925747
-0.04703078413065256
-0.26776195896676275
-0.13946130232104992
-0.31604107922517616
0.1714206105790064
0.19796648457209662
0.672918323545454
-0.06150764663039898
1.094589737680081
0.7654178445319915
-0.1359795286744486
-1.8939679727391343
1.5832634574466478
-0.6572761671495219
0.23439979408713238
0.8328565767750361
1.5876059958403637
0.3870665122213867
-1.8527720605455005
-0.14564961063230247
1.0008274048172374
0.046345316103808556
0.16423262310772074
-0.09366288552835961
0.15534269727633718
-0.1496289397494764
0.05466555609638175
-0.13143622652646927
-0.11904964776877498
-0.2895274629018687
-0.5224818473858831
0.3596538416507026
0.27934017951361934
-0.23504068548906065
-0.6338348532017339
0.6366648049870277
-0.03092492790108623
-0.3699907835306536
2.348551786258745
0.013027318008221473
0.3912746780161736
-0.17800650234879398
0.005684685024696031
0.5317362751804563
-1.4177172456923794
-1.1049868256402062
0.08918882577346775
0.3906765571137635
-0.33069914125866906
-0.14823730800802556
-0.4323033089319695
-1.6488342272901555
-0.0772092856979481
-0.37406674016625246
-0.05141502661136157
0.4185180494705351
0.6590633700504107
0.021578844197797493
-0.8654581399589278
-0.9588805850579228
-0.2636279380742826
0.1564736178772725
-0.6904813808220212
0.48645227315594836
-0.1762521348372671
0.5853298336268197
-0.03384372077771968
0.9231079301679562
-0.0697337903914976
-0.9483472772280463
0.03050231243785639
0.009688398008386055
-0.2385833288592005
0.07321598673025685
0.2308790423764039
0.12987589663463112
0.2531481335899874
-0.3726072516117801
-0.0739481738519984
0.4379065364235353
-0.28974728781019726
0.11967428035514706
-0.0003205105981413544
0.9670446065031314
-0.005942456186593947
0.9206657262897664
-0.04795840664107869
0.6557545149573584
-0.5118123356479242
-0.015879058927484778
-0.4548364473959672
-1.3467742653320167
-0.8946302796017022
-0.2888169755589735
-0.13465218497937614
-0.02618664545920811
-0.2730084762516784
-1.030288059962052
-0.7531361539983378
1.0144197919790439
0.0167637457612452
-0.3109530993538871
0.06263471440028062
-0.058351698497412334
0.04174721292578155
0.003527306807554994
-0.029125587660829007
0.7266437053095468
-0.13884887775049715
-0.19359034550843576
0.6863089606837807
-0.0004004349984020103
-0.6796024450397351
-0.7874951881859945
-0.39334285402614017
0.019081853632553113
0.16596744521700693
0.046896838966268756
-0.14369037420560543
0.10990709810355323
0.5594624480327791
-0.10358439835567146
-1.146465135883142
-0.40399464592315776
-0.19864441818186387
0.19586905453705267
-0.39160837363587053
-0.06979530608103408
0.01985079766231307
1.3044924107177673
0.003151294663086212
-0.21448238907154207
0.15181551224291143
-0.3404119805386347
-0.3839692825352184
0.019840871901971795
0.41118624413492966
-0.006203028198358538
-0.036853784183367364
-0.6496800009170873
1.0705534506127332
0.09050409498930592
1.2911731585197292
0.12493693849890727
-0.25575307153570453
-0.750562093203854
-0.04784786766604875
0.12750119905182616
-0.21261473933689418
-0.8186606441298796
0.04673442491720054
-0.6414127378237353
0.1297426571187614
-1.1791108957606613
-0.2935744316366898
-0.7130742191397889
-0.14413385532411385
0.6189354323110444
0.6619713383040667
-0.526619365851484
-0.011900412562698285
-0.414844699576687
1.3867610703474589
-0.17465698936969923
0.02760072622405342
-0.29621576911786907
0.7367561306252989
1.5195681361796096
-0.11984105206418266
0.1265577499118846
-0.06143146570664221
-0.29964063115895107
-0.3156514512831877
-0.015664819788788146
0.08661040481818444
0.044314298330113966
-0.4325237533538941
0.031932404892779646
-0.06472069239091652
-0.6246469834955367
-0.07000961289249694
-0.7672504714021104
0.0218505818018301
0.1144664063051956
1.2460006320155177
-0.8840607689794789
0.051698797748290656
-0.025695613203301555
0.2112764638784566
-0.39258004039644867
-0.3688856894190512
-0.620875740024538
-1.8424504872296186
-0.710233570983483
0.13229813335114177
0.05539209401864033
-0.4424343445150416
0.3416042898942322
0.34484170099682443
-0.08756890760830482
0.13515572747857701
-0.17065225325170758
-0.2300139331649338
-0.12765886626607054
-0.25191309805537476
-0.13170291320864697
-1.0744684380576301
1.662662946410256
1.0760270575221016
-0.464552849708316
0.22213832488156943
0.27029915187744163
0.06187418297164296
-0.06534035005654659
-0.38806764994659665
-0.2984385975198419
-0.04535655531190229
0.09058065410860552
-1.80057363057036
0.4641458138499996
-0.005602063472556304
0.2234897264231015
-0.9542328314785145
-1.7363168981659398
-0.4556782741544117
1.0242914673887287
0.3110383719496895
-1.4313026763133163
0.8920751500325004
0.010684262756030646
0.01390583618910898
-0.023168087529553343
-0.13523315226694813
-0.7412135725388007
-1.166693182166325
0.12435339070713225
0.5501300420547777
1.50133422732265
0.6888969789584458
0.17934184191600658
-1.2774746668497539
-0.03944033928128529
0.3788120926852745
0.16504935328140263
-0.6173180317024313
-0.7756970433007648
0.3303181349623285
0.03624319120364516
0.001329733706531405
-0.0364273231572031
0.018619877154382992
-0.004162106071037326
0.5580170545514237
0.12052316314185788
0.2227235690175819
-0.055438137705229894
1.26949619386881
1.0895795773774062
0.2808909538864066
0.15091442162410046
0.5059267318538619
0.06983605496964078
-0.1035960056889952
1.3409348433409025
-0.07985868003326223
-0.46365452986932254
-0.3423466122616954
0.8794624681895469
0.21054536842497154
0.1332040401088209
0.7107122871993863
0.16431833730709408
-1.1768310808730882
-0.6466036016801767
-0.3807431572307598
-0.26863701354724046
-0.05647898341167498
0.47080116090663415
-0.37720667590708634
0.01935623021549993
0.20781589554143934
-0.2556830748246526
-0.9440954569888871
0.37885756896157263
-0.2430833949499058
-0.720316881763163
-0.22935765726867635
0.15681798761252905
0.7900894805546064
1.188740996605912
-0.0586385695867189
-0.554495488576744
0.29646778635361964
0.9926038560828407
1.8649085743806664
-0.4291755828216063
0.2624780632263857
-1.3403885787146512
-0.3248454588726161
2.1439804628730554
1.026197615475594
0.7031859958970477
-0.03862367527911108
-1.1233309224750303
0.5536695246667578
-0.560833674490796
0.03806366143670247
-0.8098755307354546
0.0904203269333267
-0.15650318105695993
-0.04975603049666491
0.03661894771914547
-0.06451187547164897
0.09029285514257657
-0.426276756281136
0.46379470922230137
0.00028254152859932884
0.8026666849339652
-0.4073834652777031
-0.12086128999450556
0.6264916742021274
0.25463133194551824
0.03373105366221913
0.4394752977671559
0.33766131430035773
-0.13818538683129017
0.33495981817801745
0.42608116317646444
-0.008559444970773902
-0.46661991818525833
1.108735447076046
-0.5314896741519014
-0.952004371448805
0.5562358532476185
0.04057657819262724
-0.03021547623149219
-0.47971507741713754
-0.22742170113490362
0.0217275804420082
-0.1020672712501766
0.04073598088279782
1.826844935036993
0.17371191581635484
0.11925609446159165
0.14437686047271128
-0.306120665918639
0.20327534052112117
-0.8906313377959705
-0.4098928170732063
0.15014440264181514
0.1729872500177395
-0.521023581061918
1.1296994662138165
-0.2466160607401699
0.0005207020168510867
-0.12418009394076099
0.1527233358079061
0.06139847486649934
-0.06177932728660433
0.16292694650097775
-0.0012192385408451073
0.14680135916317272
0.12656810894665207
0.34871790399140057
-0.18742439388720217
-0.2370780944299537
0.33667271514038133
0.5524391145949771
-0.08979252538261226
0.0036847473393021974
0.9078316756498098
-0.3917386950435846
-0.8650741319369837
-0.41349635367297216
1.1329051243020918
-0.12297105751615317
-0.006588306029175644
-0.27992208888881853
-1.0001345627432479
0.0002444935931810701
0.1034310805262815
-0.6145391335968894
-0.10829104670595471
-1.6669707521013284
0.17889066859083064
-0.007007063218345093
-1.11090599209679
-0.2603829951382534
0.7483876299077923
0.022628710589915963
-0.7139311019446891
-0.5811671862264493
0.7116858884427498
-0.3397435194282373
-0.036699686622249664
0.41483327474176207
0.6203649878432945
0.6428229575609524
0.12204862266080095
1.0438285037659516
1.0530640881920708
-0.19931873896909766
0.8910361216791713
-0.6214966732943059
0.27799531543633915
-0.0243448155143685
0.16673572361956257
0.00822842316229536
-0.03315570599429707
0.7131818483965943
-0.9889777123837183
0.6164914831271614
-0.027988136418407236
0.10080667798275468
-0.29269183320348846
0.19336553172138216
-0.19816116855550894
0.29811017753872854
-0.26378809254063945
-0.04427411550407616
0.5268480249179539
-0.009231276928343853
0.5344741474572547
0.19034970179643965
0.644859909547796
0.059877094726119025
0.0013337769111461584
-0.024287217463494784
0.3081298366728922
0.6173902032974877
-0.7041611687876221
-0.08286822855142269
-0.40010234354228047
0.33670404033702306
-0.4663916352970558
0.4632150528584462
0.003223127131796586
-0.1391630881228628
0.08058677103343236
0.4453504557365522
0.01730825203958708
-0.10430781011971604
-2.763462143729393
-0.19378018370267447
0.5339817234711733
-0.22476868818525592
-1.2210238853624733
0.14736757021411664
0.8412079429356047
-0.018660164147698322
-0.09566774887740162
-0.5989647849737851
-0.06580753505719288
-0.1552804681103598
-0.26260329407038246
0.004141808143334527
-0.6758342797122475
-0.20516977446188764
-0.4129414627094519
-0.3826224489029606
0.6352401975248632
-0.01659896523409281
0.46383204892881613
0.031577064266921036
-0.23110097439903562
-0.12790150235807193
0.52902292468786
0.1446020661231279
-0.1085719869372065
-0.6813199155426417
-0.34423772285679455
-0.24788379867540575
-0.7776390969629403
1.4192446057819315
0.32114901724346423
0.35897567997766716
-0.5793116148956055
-0.0940397682681578
-0.03948997749914439
0.04469373012683109
0.3550322246429146
-1.2919915590219635
0.4954448206422962
-0.5073796279483072
-0.41253521936907483
0.3443068996654474
-0.4541301529092781
0.057756958385693544
-1.9727475807544432
-0.5837594055786515
-0.7639651451619611
-0.6878472826344442
-0.16608572778260441
-0.6042346825690721
-0.0283376950374832
-0.2615693290144562
0.006394366931644816
-0.05143336260007975
-0.2151944583818021
-1.0238978808450396
-0.8265108796104448
0.6382330819578381
-0.10915274302257849
0.6624935800589496
-0.5709779817627347
-0.0046241293207711955
0.1326162544454176
-0.26563490449325833
0.04885519853321148
-1.5919718974878199
-0.051051570271012064
0.1363444247953533
0.5053217470293535
-0.035020494598903384
-0.4301931659730393
-0.9862393530951286
0.4533342457471993
0.05170769672838773
-0.06525633495722585
0.18071628755282795
0.17274909156892942
-1.5444792426084148
-0.5472694163746517
-0.056310137012772155
-0.21586313830073914
-0.6410028036989941
-0.02784963445368969
-0.13624860324236218
0.08689115969676733
0.09422915222015325
0.9016191081714475
0.24516216329624257
-0.29688156995817916
0.3524275887263665
-0.47698956505942963
0.13316446038004665
0.026364161094666976
0.026741440125440396
-1.1536829664832564
-0.6348471487210573
-0.3085812695830541
-0.05385031442494316
1.7124142482042917
-0.79657576127482
-0.2456595782526401
-0.2272531139031462
0.4619839350981422
-0.30026100461105565
0.09144559185645888
-0.13463919910481312
0.036218277212752094
0.20824849348987856
-0.45081547370311725
-0.1713781007441253
-0.009024606970906937
0.07855902652426461
-0.06529882753034856
-0.013067801874304013
0.050453024582586284
-0.22122563298397194
-0.4442643335795625
-1.2717997735829734
-0.5428172478916504
-0.46708380785046716
0.1961715988348549
-0.33661220593000135
-0.4576720802182333
-1.0714756564774937
1.0056378217214672
-1.1412125918468259
0.16396827546415613
0.2572074092578542
0.3588607302715473
-0.2177104735011763
-0.10093084593316634
-0.12050397474462035
0.5499425455006882
-0.023172167428931457
-0.7446700376773782
0.7294406316163896
-0.07251915095126707
-0.03506482325117959
0.5961896151202755
0.34877383646627075
0.5156805176077683
-0.057371289525682934
0.039484391435020354
0.24480214574625334
0.08052052159555192
-0.0422282880178828
0.30912770803389994
-0.10703939029679985
-0.08332999891134889
-0.3213263280288825
-0.5595599775683573
-0.6016902062047809
-0.8194562618473875
0.20549553785220326
-0.3361396041530483
0.044083238542493394
0.012784582999107633
-0.7136574832341903
-0.13199352781788287
-0.02325387619452625
0.003833757564476928
0.008098095103652907
0.05256336492577183
0.17029614430320006
0.4651242349732043
0.3579395606464461
0.060165396166917406
0.3546790806323496
0.318307712628379
-0.7708749527316312
0.33235083276778565
1.0939096736755287
0.3774890489151692
0.006966541229973822
0.8384352811197245
-0.0610156513106514
-0.10125152963705708
1.2228781307156966
-0.49627357989313553
0.0531098244874255
-0.005778003592339487
-0.6958097014802462
0.4627664759307791
-1.2090733438474885
0.30379330792393966
0.042264507047456594
-1.1351586933085525
-0.049987741270874166
-0.24250268171620307
-0.04803532726900805
0.09894868541802689
0.2218231018253041
0.1162738075048576
-0.23424310657889147
0.255270162972147
0.10582034754462188
-0.8868519185267725
0.034721451379494894
-0.21012714803121887
0.0004386083308378728
0.23724708754942933
0.27154644215716917
-0.06483894848180347
0.03048186268394685
0.0436496693573171
0.2940897705521092
-0.4082145679357776
-0.06515303916506036
0.20024743848428714
-0.33531417397669144
-0.3041253849939611
0.6443432920609841
-0.07728802029369156
-0.44983439065795483
-0.12080356784959981
0.020952980039425816
-0.23310829370974412
-0.3970197308166992
-1.7929433524506915
-0.2937799321840171
-0.12547719055017018
-0.3573968901216327
1.017659128914223
0.07153287224750017
0.22500802383759558
0.1419336062864712
-0.7973028120764762
0.32193522510104194
0.7331190997606789
-0.2610890474193568
0.21956364344926516
-0.39156974897260804
-0.02259912045006223
-0.6046577661592606
-0.5750434135593817
0.14414544658600226
0.13007049885137245
-0.00802365403615309
0.003389632109800518
-0.5866610650262466
-0.04416459113949622
-0.04064420127436604
-1.0563064275169982
0.17985815035940617
0.017749291716978748
0.571075155958399
1.4064819133289006
0.08180743275647079
0.7963742976816122
-0.15725757785946715
-0.8615918281937608
0.5850378569375836
0.6255690627122446
-0.26177298650226216
0.570295721065229
0.1287532369822432
-1.308990848866733
0.39174995617376224
0.27309752978656693
-0.661026915094238
0.2976456837327134
-0.6246972353877014
0.06389212556276942
0.5246064913533112
0.46455151067348344
-0.0024114021506523816
-0.463458816402259
-0.6862744860488668
0.06026542849012701
-0.7437944038172061
1.074654836973365
0.3728486269268157
-0.43164251645403445
-0.19230311859247107
0.2632980744934493
0.10467709925855372
0.6828624494024267
1.163779931126825
-0.07240860604160106
-0.25150429198394225
-0.24738932371744185
-0.23386251108149314
-1.1189119603583488
-0.0845666466687992
-0.0624795523361025
0.6538894692508974
1.6184329406540425
0.8030103655721149
-0.12345920707952539
0.5714262361651055
0.1499454003520515
0.038086221951128825
0.2725924904793776
0.41900197265973427
0.3443739779089678
0.4731597434208305
0.09487605555004881
-0.46237528746083023
-1.3378303306444266
1.509995228578829
-0.31224003479256773
0.3598428542111451
0.013373369154374792
-0.048773146285206646
-0.4959328847436825
0.07263675531689207
0.08720909423431537
-0.8195606219858012
-1.2807706620122399
-0.4911150653803635
-0.12254956570286749
-0.895202250009755
0.07367238987065472
1.405789946463693
0.2714957634643794
-0.8889216505132975
0.10736869692109817
-0.04257805323884137
-0.006620723249840657
0.4947327917833468
-0.21264552836013648
-0.6924736635779499
0.013868957408342002
-0.1589330302074707
-0.18468995615938863
-0.2979831165424784
0.5400915349692783
-0.04964931840471949
-0.31022586610288305
0.02351032958702287
0.7130797083480783
-0.5788688436961716
0.8533556967717395
0.1515520114526927
0.09251472392730975
0.19183944828293378
0.004046090932936647
0.4057054316134082
0.26943800505355475
-0.9464334264231308
-0.03790250605258514
-0.761960203805296
-0.02209975155961934
0.6433798943605444
0.20534705648535673
0.5303510851335193
0.33529056041029137
0.030320911781924215
-0.6851466664358979
-0.7141861566001595
-0.20128512995029663
0.25748315144419753
-0.10107622359054097
0.7205938920368136
0.4296138022525667
0.012212251312862958
-0.5689609874327539
-0.20157834038466244
0.4188067668442164
0.019542913032019254
-0.0028057424074932375
-0.054754777151896195
1.5377726900660498
0.32442755021528097
-0.08798529370570228
0.18269305106076358
0.12900933491853128
-0.3823690817806707
0.2616318662685351
0.0015840764873849195
-0.02148748720675723
-1.7750320399667125
-0.7318631050150962
0.39922033720624195
-0.18932772262992198
0.4324442224506131
-0.0033851893565329306
0.9677715694928604
0.08165106119512244
-0.086274263467508
0.21016609907781741
-1.631666696941481
-0.556546719733406
-0.46392925745956093
-0.1365078861895577
-0.29291344937049807
-0.7575344020636002
0.5081483864895006
0.08531199367007058
-0.5877863820171386
0.20136374349801153
-0.009551645562284538
0.02292705852512868
-0.06895383262205516
-1.1169855729179112
-0.23127163500077205
