0.3109684381620402
0.6305739993261291
-0.21044449583632158
0.0002333020236297001
0.36053863723667756
0.9619576008724612
0.23610124514188285
0.23676312056956716
-2.6368727923970434
1.040494081185729
0.37996569906840505
-0.587930344989346
0.04251789207984552
-2.2174461018239953
-1.3819418922313476
0.8396661444087807
0.520941455066809
0.07420775336467914
0.010956097287055433
-1.3091993124201298
0.17243831576211077
0.5430980012023123
-0.07844938300776826
-1.1363000694977694
0.12620910419094905
1.4297198923609877
-0.6238447553908825
-1.5868888596811543
0.03630357607316159
-1.0594155716594333
-1.1935227610483519
-0.7208875370854962
-0.1863250046640309
0.4789268856012433
-0.42506719053981123
0.7252780909574166
1.0242622272402562
-1.6316201459467516
0.2107737622119828
-1.420824680278446
-1.2931837514173494
-1.5951909023281932
-0.07544847748510064
-1.2837018845539956
-0.951791930960908
1.2744439918936474
1.0014667205719483
0.5425134955997186
1.4234872402835959
-0.6592118618617662
-1.2565959060795109
0.7947622132159126
0.42181749277862346
-0.06548298864841351
-0.4073730445564723
0.6385591105624678
1.091775456421468
-0.05715600434567744
-1.8153701619973794
0.7493498001088975
-0.25563649367480035
-1.0906664382664197
-0.886350875143834
-0.8872599653959896
1.5103489027614105
-0.5313941022200592
-0.7172326449349803
-1.9228143725826818
-0.30142494588068014
0.8873155162613455
0.5510524715174043
0.14557044623391396
2.4708307145498005
0.17009723750686362
1.0305382237786762
0.4200176271735191
-0.5724243499451296
-1.6201055295940747
0.5257146649225057
-0.06304628123310707
-0.8028698009667248
1.1902057266307289
0.8046766724903192
-1.072145106492452
-0.48428524927344085
-1.0529382338001878
-0.3896258167108007
-1.6593751616595296
-1.4811134797598575
-0.23288505795736064
1.8399046790820455
1.792230476358883
0.6608528194391117
-1.513405054135044
-1.4565559304705709
1.4288880981889767
-0.09984725927110333
0.9654776552165683
0.5536176037794952
1.6550567536721597
0.5757598890970138
0.7872255921052835
0.9474961044724242
0.93209375648205
2.0347863111952136
0.5112230989815846
0.08217409897591554
0.32353219791360294
-1.134328172893762
0.6977975570056909
1.5190371350501892
-1.029717618633145
-0.10387891455688861
0.33837450902483884
0.8712852298264009
-1.4069757546291801
-2.418815988239309
1.1815609614161238
0.4041120035936271
1.4721967287131772
-0.2945080709415108
-0.2018458890781109
0.1850350351992971
-1.5972798737329703
-0.929181492344222
0.9898046952654862
0.7497628165822194
0.9623389539423077
-0.22755365800327915
0.0663102200855818
1.8019576097527348
0.6295530631964408
0.8451826498599149
0.11815003307776067
-1.1658909101896788
0.5313617255490967
-1.4189696831017242
-0.5020367863060264
0.8304543440940867
-1.3570668342827648
-0.78422519211889
0.8408404289591057
-0.9897934243312245
0.7632354260954999
-1.0532699687492064
0.2069730866955985
-1.4340377459742295
-1.0382416840828221
-0.24417496185070925
-0.3861516724029558
0.5000318087062842
0.8252144016429731
0.5314390061126693
0.3516652699191882
-0.8514245321146526
0.5125012680884772
0.21470287187674073
-1.413709645767027
1.502852458142411
-0.7426708549968598
0.6211951701078866
0.6261720970514869
1.5776776136642099
-0.4608125053901112
-0.9283992390202598
-0.6033297901540712
0.2767563675636995
-0.12852029686306077
-0.7315227732866757
0.6258002797918325
0.7185342558068257
1.3504566243717182
-1.6805949508611608
0.34108810526958255
0.6699930525702025
-1.6533804621027328
-0.8224847061638716
-0.4787514267716119
-0.016964020729709955
2.3928782524588224
0.2671794936557513
-0.63469483718093
0.7453815083627184
-0.5018874936273439
0.06920043607597265
0.7086533803046611
-0.32399593247834857
-0.9329732063905145
-0.5888891751184926
1.2006572483350963
0.3218508014218394
0.5752879444764094
-0.5484706177963883
0.7541782520490133
0.033111808232621054
0.25272226149450505
1.6694461857326328
-0.09778917067633175
-0.6765075882402406
1.3242604193274659
-0.01800445336978529
-1.6040807357630422
-0.7448594605425538
0.5140486242454096
-1.0502137182049232
0.31387038477390294
-0.16738963784642608
-0.7222979503398026
-0.10558742956238157
-1.8622819611719241
0.22031772982500109
-0.2938446377254216
-1.0966126216610437
0.45858929815431676
-0.16705898843553213
1.7004519310264907
-0.3050875247470589
-0.08960216699017805
-1.2343875585928086
0.6575253372124878
-0.5327270553348917
1.1201224187148826
-0.06390500362278295
-0.3521389484189241
-1.623813388044812
-0.30540352099528567
1.090435577185474
1.7239084338952184
-1.6384865795740307
-1.0432458014993364
1.3554832990096828
0.08777534989334124
0.938974456601044
-1.2664298524190527
-0.3134566073700392
0.15911325693141354
0.22228476834232275
-0.6113422314842613
0.5086712680179457
0.10526540829568128
-0.7058826324800955
-0.6597936704585741
-1.167331239210149
0.5941532379506813
-0.6618494110655617
0.13472726040569138
1.0198634281877728
-1.3838005411423446
0.20053581242813143
-0.5910744214341561
-1.0072427226486194
-2.8796789073461158
-0.7903004005960765
0.15081832055967953
1.047674408302366
-0.41814358022426956
-1.715744262735279
-2.5949916744657324
-0.7206166673281924
1.0850550217166695
-2.0310917543342444
0.36445106093269386
1.4347814946751132
-0.6067671422490273
-0.32240503323447356
0.4931271994874208
-0.4432289504266218
-0.9373551222474459
0.5543122308602196
-0.48064604881258716
0.9771014593245146
1.4745409167807855
-0.05170155562442315
1.7996002598591416
0.14532099401853182
1.4410803614130505
-0.6836372879279853
-0.8515334708032268
2.043683786322229
-1.2489087796127198
-1.0923921690879976
2.635522850025935
1.1693087999487606
-1.5626034630398613
0.6539907414373972
-1.918814726944359
0.0894975099937515
-0.8787369184979147
0.23561161496845218
0.8669572199696554
0.6427453978881225
0.925096133235284
-0.39900939306221217
-1.2730864626148781
0.646427093465373
0.3995743021161874
1.0804998059558348
0.3111800680206026
1.9203032829138922
0.6952683201182933
0.855329399894708
-1.1309720524356084
-1.0102182081124562
-0.0651225429192279
-0.09645245196766987
0.8788360705544862
0.24175099991026372
0.7607707746402814
-2.133277725066408
-2.493435619560334
0.8054363488965086
0.8523455541615467
1.1316876060516146
-0.5985268878064124
-0.18984494062906965
-0.2546976009937862
0.5317058213903267
-0.7175295781360282
0.13230399793370656
-0.4857109687544443
0.47217148343039006
0.20424395385773164
-0.057919043147869664
0.4918918288757915
0.26420778830850666
-1.0624635087586147
-0.4329576367928261
-0.3396325551054913
2.026507641882176
0.4244510313820158
1.0012997112513582
-0.7985138038861755
-0.7051756609796249
-0.5131329086292804
-1.732947928332707
-0.3367371679846832
-0.4840188274238667
-0.6967552345866684
1.6724891491281972
-1.7772015565475303
-0.3861330233290364
1.0225718308147809
-1.0831556128451012
0.5253773707154351
0.2537899127309917
-0.6699814560803328
-0.9798075579603945
0.8909384306190905
0.2558107105863223
0.3955574117357823
0.2676405414441382
0.45049711124660613
-1.3791982241274932
-0.14167013349947014
0.8067365470589398
-0.7680933633960628
0.22633364161338954
1.3175949660500148
0.8644339639286996
0.6776685109307488
-0.14936698920804953
0.38977325666392415
0.9022843642649325
-1.6032070665239853
-1.2388417306543955
-0.8741076265156991
0.8471431001756715
0.0808486771385393
-1.6345386399723703
1.5941615821965431
-0.11748976536501184
-0.13649528670845879
-0.845543694168503
0.3137194317149698
0.07899289184942249
-0.4521974638764628
1.0002256965236027
1.2281084795699515
0.4855448088230845
0.007045658812419919
1.5164293043512034
-0.018460230020429513
-0.6673953429774186
-0.07717790406430536
0.4760426921776811
-0.23060815239725674
1.2449099039725242
0.4431956521663254
0.37223805224848183
0.0666324267245616
0.6908500106926492
0.5135158323594031
1.3912973294082325
0.31299568974623315
-0.5957783185364885
1.4556896925003184
-1.5502713625874809
1.222566652892989
0.26257126403822967
0.7048309564727742
-1.031515445098778
1.4204213858236363
-1.657693510271677
-0.6180866881112548
0.6641479701509516
-0.7691779248313259
0.40879650206074486
0.9427740206763824
0.07686881744708135
-1.394960725272527
-0.7648667386023823
-2.5006561734604356
-0.34740086955546046
-0.9032374332677418
-0.3515662214719407
-0.6419047522505081
0.4659313436708773
-1.5578542462988594
-0.10280974915118951
0.506646144980817
0.4961073508343058
-1.0330359808919471
-1.652049932042614
1.1430912445168817
1.1438533089687914
-0.6537100750908176
-0.792157082891247
-0.40105017159286926
0.16196269266726837
0.10391555996532117
0.2428596126834789
-0.32490191481232134
0.6562076884785999
0.095685490043737
-1.3655863104974029
-2.297157375968553
-0.9233860291189141
1.1492710565501487
0.9283986624251632
0.35413005986853613
-0.7167965059246647
-1.1951557161445279
0.5331994078520338
-0.14938025051815965
0.1681355327984792
-0.5882380488724644
2.44773176647771
-0.8131032790612623
2.0640177766819776
1.1301644900644434
0.26983942155011564
-0.24299107997801817
-0.38472239644209805
1.3307005974222332
1.194980076314356
1.043007582191922
0.35971187359182266
-0.4239972664629431
-0.12048216463630032
0.45291502354718194
0.7558904816758454
0.5784519063081973
-0.9991990486922149
-0.25764796875727997
-0.492371089470208
-0.2894006702638222
-0.44566804138983135
0.5550313835891336
2.0641788591029187
1.5210071074473615
0.7328894550602029
-0.34711052039796253
0.23944170868076042
-0.15338551093120706
-0.772149963088325
-0.19158719981605088
0.445298224330299
1.077027168895388
-0.5563654485426025
-0.027318117310646317
-0.2239749136264682
0.2858831881285557
-0.3256803927437455
-0.7067069610537003
-0.7320048371454198
0.6622102554856377
-0.3018283863328247
-1.2684651567780898
1.2493845061856403
1.1896308846246633
0.43123752362017786
-0.24889972056418708
-0.7566014296780478
-0.6203340900896457
-1.7056019917186973
0.2583522205919483
-0.48415173621029056
-0.09301784693486466
0.2850705975598804
0.3617934037296503
0.36556050578720933
-0.5294872350295806
1.0596901459015542
-1.2446199694019575
0.041946163869119424
1.2495363652632245
0.15585318551801014
0.4857244757013071
0.3474732037607198
-0.6895260784578058
-1.2455291311320444
0.3526441644612365
0.35404069037316677
1.1358888300486925
-0.2786409559917188
-0.33041389193879933
1.7148594977059008
0.904227780364607
-0.4845949602773502
0.28605720634092624
0.4405063529275079
0.4396107568129767
0.048299986549423024
1.320907313057627
0.5036892441238703
-0.1498476913872394
-0.05381302821542494
0.2983619108806989
0.6471583388990576
-0.7292065801495876
-0.287630899832812
-0.9357310916482013
0.3576086207672077
0.9641674387214826
0.6574025722171342
0.622165716688038
-0.513216774729318
-0.03633250991725323
1.6365453735657767
-1.383409721351685
0.798153812760764
1.96303347280836
0.29337578130468395
-0.3738735662294936
-1.0445999968131336
1.3203029326946072
0.7415491853458339
1.1145147812435756
-1.606085080902439
0.9760202434370766
1.0245758264259024
0.17225609998332764
-0.05840609808221438
-1.3680234285005664
0.5553007612260158
-1.0960307019044875
0.5866837027991427
-1.1789067582477162
0.08402824787672244
-0.9825094776972693
-0.11973172855485154
-0.05337461047898717
0.19763787931428434
0.1802297487571952
0.7822736618988186
-2.9112941823992498
-1.4189291232531844
1.6368856944238575
-1.6387666531676492
0.05015829807280331
-1.5425376269395097
-1.3967084375443326
2.3580446442374616
-0.5872172146376405
-0.3571241491958217
0.9242039367264898
0.11556453495682234
0.8355853059016322
0.14081797928436263
0.8620859019870709
0.29758767471881165
0.14467054526192336
0.5745986541891761
0.2493471174818347
-0.1010397227288135
-0.17815350501974814
1.1349703343645936
-1.1555288768514664
0.4826956859832377
0.27659884484112296
0.31138902301391086
0.6824771899936168
-0.7791947907259336
0.12928128364322472
1.3068237398964246
0.9471838416041136
-0.32335180036798317
-0.9804017069969214
-0.43288382920525
0.12134529901911989
-0.45135317912045925
-1.2051976959450252
-0.3996826353345722
-0.40446101616550945
-0.5734823385632175
-1.8231430139246039
-0.5025316600060336
0.9796180239907578
0.8360621244516081
0.343638842424304
0.452796173847031
1.198074213905411
-0.46262291018215074
-1.4498775402282609
0.7682846692682038
-0.6992142654140764
-1.2429261410133083
0.4068600346721506
0.81565247148968
-1.1287080094237587
0.5241598069818936
-0.04086827287442056
0.9450743032136727
0.4610384901809532
-0.0999802404765233
-0.57457755959354
-0.2245007152688292
1.9949170750016885
1.238843972993288
0.7050181598272316
0.13382387518691718
0.24087637082681795
0.5005649869086084
-0.2547337772392422
0.1709166809288103
0.3667856698410679
0.7399263419766392
0.015127239001379026
-0.8232261158681352
0.5938787430879704
1.0457550573289986
1.3121957106105469
1.9874684287063753
-1.1265710302858223
-0.5090487567064973
0.8198994360843521
-0.3916310215842743
0.27612274278734916
-0.655515879482848
0.06646949021156845
0.18072786352322534
0.3867481860756768
-1.0245787200257794
0.3752188121358274
0.18792918765382371
-0.9436325841463791
0.6462472400780388
0.23525170566959586
-0.2738386981437242
1.120159454939193
0.3457086112423565
-0.4734663537740525
1.1171556788944663
-0.1758058849879831
0.24662658083009986
-0.3812081605484764
-0.3035798279188489
0.07156632513219459
0.20466563388438552
0.32656377742825593
-1.4495226723070451
0.6087948890184776
-0.31526228768912967
0.7993598515883529
-0.9219039447124752
-0.6984813166883496
2.6619989180687575
0.7087061122430707
0.663248652476464
0.8153656810069995
0.3853130635142787
-1.9896694885600286
-0.03539991104710627
-0.5204238238068604
0.6790071618088163
-0.7633525038094955
0.15897160504414737
-1.7860637732075648
-0.08974020134937177
1.3397536703295774
1.1345948388808373
-0.4041708249538191
-0.7037580791112363
-0.35825966899643946
-1.3594912081060508
0.24868409275275072
0.27241280364320525
-0.6465330906341473
0.7450554992906562
0.40782769838972677
1.1583244099628662
-1.3384925471232954
-0.5948292865446885
-0.47578182752218834
1.425878871597397
-0.9883956088410708
-0.01897199990421744
1.5196880099862573
0.10781510255868398
-0.5660242690408313
0.11625750671115531
0.48476679439117654
0.7940549737941389
-2.3436430722212975
0.157839949214991
1.730199971380737
-0.4202465454033137
-0.15391654578477654
1.5186856696184035
-0.33032365433730926
-0.5071980945718517
-1.0637658304850244
-0.6586636575986549
0.33514812372200115
2.1482497625006642
1.6268709074331726
-0.26182628315511863
-0.4325699075962497
-0.48393980060573283
1.4313034993187363
-1.0542088888369063
0.15940049678474577
1.011771934106623
-2.1676809382192244
-1.9694578465993602
-0.9602864906135161
0.21867552508993582
1.1599529568094977
1.2322868817406842
0.7154883401781114
-1.187972042770068
-1.2878034540837695
-0.3579289546085656
0.3592130897775244
-0.25300373373190027
-0.6534130210210403
1.6488282873741185
0.9008285796511647
0.6310115951878957
0.18241089594773574
-2.7356627169781964
0.7129092297121311
-1.3202760305542438
0.12596867430103387
0.44873658093578905
-0.5439255359774197
0.6001068533931241
-0.5335536354329162
-0.23303584596824228
1.0841531850405932
0.02842380115760168
0.08536447484649767
-0.7425055130306236
-0.8357745088443769
0.3488406618929848
-0.11167115785433779
-0.5317587656663134
-0.759101420384876
-0.849771000922088
1.2774467460746886
-0.9204040366462641
-0.5627935483443972
-1.2141634171287412
-0.25735963388289423
0.3069528766461306
-2.2404247559676906
0.8611212859846968
-0.8619425546298214
-0.2525588713073903
-1.7160451136829926
-1.0160321272154484
-1.5355182972438004
1.5162985547270817
0.6796856239025528
-0.0041313308848781455
0.16420785010299635
0.6005349712461142
0.48141458804874454
0.678103207573279
0.834022865272986
-0.37093513287578844
-0.7684636797334374
-0.2807848091731419
-0.0814090090283407
0.4817507497703848
-0.7465740207450482
0.5636652230077193
-0.1591284116349489
-1.2921612208577573
0.3429402429688596
-1.0439822816290523
0.8842773836576685
-1.0888405263608476
1.0173618685293884
-0.23147435549750994
-0.3258029376805431
-0.1759551993838489
1.1255137595252036
-1.0833864142080454
-0.56352916140984
-0.27085804758980214
0.143335324388164
0.051954632794671385
-0.31234211823781477
-1.3310995144340827
-0.07770286887485339
0.007748207679887129
1.4685134134744562
-0.6733742032851766
-0.7041860592379322
-0.7217737842689604
-0.216064812446359
0.9361061948334326
-0.5470906662706974
0.2466024773324894
-0.18835665213220665
1.0825605114014327
0.5270713126270695
0.9003444393549026
1.1839259759827485
0.9720346627875537
1.3862019830289238
-0.3090596298231825
0.7735001501672512
-1.7349587364805172
-0.10608329973770507
0.9029361390381652
1.1291189461209774
-0.33695769109995843
0.7612254311399698
-1.3834532614948944
-0.7527865515660486
-3.7893760016327107
0.4859527455581696
-1.0996619211900183
0.11604395367952686
-1.2367599358410852
0.5376641030499854
-0.3154049822201198
0.15042557481601174
0.059286421750150725
-0.8381126854472831
0.13604238536887564
0.3939783649416644
0.46411529380035554
-0.2455256510078146
-0.0057845636597031675
0.07199818878701353
0.81882731478079
0.016489111121381295
1.3785383860781746
0.9084761901541307
-0.5543680163306746
-0.06356926014880909
-0.3390688503342639
-0.4712409181484477
0.44702897203673103
-0.32825367158292945
0.7079727495412738
-0.2558999560953731
0.41967578270202766
1.0328594634586012
0.24721415563107746
-0.9347926054626202
-0.9174221338230473
-1.083604275912968
-0.3173904479009023
0.160696675210622
1.0035205840484516
0.7727924300979232
0.5299920913387498
0.28556426468887763
0.7596592106594736
-0.3316945567255759
-2.349049800011316
-0.19970109073066758
2.119402162873551
-1.285192080300169
0.6654730741716375
0.11357781452538235
1.2512726918247719
-0.9644635525957694
-0.08395900830378532
0.7696883686456305
0.9107460606745743
-0.035413660092249555
-2.210971472621535
0.4455200730035244
-0.018163334936746406
0.14013993602989508
-0.07370859792225926
-0.49768287446038023
-1.2098744164985362
-0.48544048134430356
0.7194586448986724
-0.18763114438773415
0.25199579457034166
-0.3793267275519986
0.6921088517598024
0.04080606484902305
0.575050440480859
0.030735285158094088
-1.0085477907430562
-0.34607588285711166
-1.159390245593569
1.033427841129276
-0.6910292665159042
-1.567529649075917
-2.1481272092307244
-0.38876537380090326
0.6910628409018547
1.5395021976252232
-1.0353437267380967
-1.2377753634611564
0.10861721749979689
0.40992423525087307
-0.28592635878734207
0.07326178417275203
0.28102163252175516
0.3551688546918163
1.4224978829309873
0.3411512197706916
0.7095022987211765
-0.47884981364856144
0.941289932015329
-1.2541491802576648
-1.0183438272531466
-0.7606645359479867
-0.4481423356603389
-0.6234375646624611
-0.23256656784634488
0.3931697691500533
1.3105801072393108
0.33874944401610363
-0.309517628012074
0.14265837793039407
-0.2106991847473667
-0.3722937689458625
-1.0785380398645965
0.1712709171707758
1.123802493123925
-0.2164308018606942
-0.4036479892050333
2.099381004934267
-0.4367471346410547
-0.23563849846527726
0.7192157584684656
-1.697421805540517
0.03577357498188177
0.7049870219418315
-0.38448965595314105
1.0739710672896565
0.5917607882400734
0.23367991046582348
-0.8838756688761775
0.5617412233650984
-0.5524261708387149
0.0921578843060396
-1.149069170239265
-0.7434542890790702
-0.9359878230740069
-0.647811631174254
-0.5103771950341449
-0.8007044536742545
-0.6531625525368803
-0.9558022495786611
-0.05067883618801705
-0.7014852145462884
1.191327077873677
-0.08361088665467831
-1.0614177205736655
-0.6069271306565738
0.3502297064956197
-0.2854773551319931
-0.3979857482828147
1.6438378854953997
-1.5529899060066086
0.6422251512832482
1.5421627544427148
0.6345858544511371
0.7553019893790293
0.09986824076148576
0.32227484912421567
0.46128029986551566
-0.4999098171039749
-0.062024468534841504
0.9140307581672407
-0.6646595944628729
-0.13719548360151052
0.4274937043640789
-0.3352452201789894
0.1163021684887558
1.550926062156331
0.5908687110327344
0.3549798391102209
-0.3752614364211992
0.3918891252260198
0.7510302937253606
0.2748075749170359
-0.3424147039620681
-0.1307768434120764
-2.1497798888612425
-0.6033511171973666
-0.8856938231149368
-0.5816955680455217
-0.16564852789675888
1.3598954511093266
-0.014081966070111362
-0.3927690060151442
0.4498071690826324
-0.26468977883650163
0.6162236035667126
-1.1792628088727188
-1.738168878008044
0.09386124109178884
0.9375239587842403
-0.4111896661054657
0.057501027515676595
0.2641845281076591
-0.9077419378055762
0.14586351259521899
0.9118879752287894
0.06608575222877972
-1.3318941776159985
1.6329264701819433
1.0540661134166238
0.2837496338820017
-1.1226330122494756
-0.09495144596953745
0.3641458994143978
1.3142307746202495
-1.3442062916730673
-0.4124037805815208
-0.12017229815216679
0.6197762818215917
1.0952586107707603
-0.13623582173946275
-1.0745280762178608
0.9448482912235958
-1.6787792440787674
0.9012207216400463
-0.5307443980642057
0.9933122971537062
1.4096186819073606
-0.18086966869465734
0.4059800100917839
-1.179756228487645
0.3868216998338724
0.2411385479215442
0.09105974299856101
-0.3769155551166717
-0.05674515459473204
0.03742358201814641
0.2121414514040295
0.813108833531673
1.0018170477320842
-0.10104735434508438
-0.5082694926409002
-0.41232436290271524
1.0885322192869689
-0.10272846525898349
1.2229340793576726
-0.16336529700489905
-2.7339033944776077
0.8443605755339025
1.1484582168200899
-0.27480493334429923
0.9256376096465272
-0.38718091017235023
-0.6398865338086983
1.0031618716221056
1.6835682735365634
0.3595758577321171
1.067624723939627
0.8598221822293851
0.417307626810762
1.2815352552714572
1.08695197404502
-1.4009339298657204
-0.03690841852783344
-1.7823998744737284
0.5563933226016652
-0.06731255904916889
-0.3529850312488271
0.052015101544303305
1.635112421280379
0.8795502307227142
-0.9532648672855907
0.1178519656227679
0.3364192722000778
0.3702140415807311
0.18802439334083995
1.1805682576658991
-0.5780794758601945
0.685233596779029
0.6531227079318661
1.764702057934206
0.6261790257110215
0.01635989746447536
-0.36049154238471703
-1.2057928788847976
0.7781170839354633
-0.46287816670963994
-0.5153054444955689
0.9698591153362182
-0.38857097522753437
1.2219630791296516
-0.9291989464847171
0.372251408535182
0.66441350999414
0.05272942727172078
-1.573829892544084
0.04754715520749336
0.568663129983528
0.3747405668626673
-2.702808575936122
0.24760940656391406
-0.12493764510369934
-0.6768727898532834
-0.5263139941444366
0.5845214713696189
-0.06843294516170981
0.1924003873369709
2.2788279865642154
-0.5045025262735211
-0.4587393876339545
0.6347428690456219
-0.9420769234369832
0.5673185466162175
-0.838132776241563
-1.163529605479832
1.6527529543586696
1.4221371620202523
0.2264773241879945
0.8679216233463248
0.20983346697240246
-1.1123967267667074
-1.5570938139526298
0.3390333563546301
-0.7964093483049204
0.23274594425004075
0.44249311499520905
1.2882794908084862
0.35098428296526923
1.0774185626564852
-1.3790286155420093
-0.15030350519508734
0.3240298330926024
-0.9923598876767723
0.16487604469227368
-1.846968122863768
0.0454864076440715
-0.19260886725841786
1.4370772718672975
0.26330438586351773
-0.5086015257151454
-0.4447896105792644
-1.3449198818994896
2.8803523628411973
0.7363987703109904
-0.5772389295645665
0.6065496151538529
-0.539879516346416
-2.4633372587655478
-0.1402088422859513
-0.28912496368756896
-0.10398448923240006
-0.8405559444539256
-1.360225844408208
1.5016873739013392
-1.348109684591124
2.6828999956746324
0.5083009652441528
0.6507387022162469
-0.567750325341898
-1.0623291207099448
-0.08068770970453493
0.43664071969015644
0.23985497031515518
-2.0448949680800763
0.12678637220339622
0.8585620958979635
-3.097489371760795
-0.07934273149731536
0.26857275695366706
0.3401506195060925
-0.1078259381338264
0.3082952997895648
-0.848045249023488
-0.40488561373256254
-0.5941663119499094
1.3196294306944347
-1.9460054330713437
-0.43450340099709867
0.07107655234532642
-0.2767310322347579
-1.0122723260262534
0.5637152833764851
-1.8342020436176294
0.943468963321379
1.098428196330586
0.6430850176377775
0.865474914793516
0.3924968834835584
0.9148081864872424
0.7914142762477847
-0.038411175538541786
0.38464426844598876
-1.4998752661140644
1.5709531436786612
-0.5046231468794578
0.47011284594372316
-0.6480294914151046
0.5464442541247466
0.531212488178334
-0.8395281364293127
-0.5730065071895438
-0.9478550457256316
0.7943245244291599
-0.39991427013293646
-0.6244510893981483
0.5393220730442653
-0.09390180880802018
0.7162059730912324
0.02198093795584033
-0.2860017594531856
0.30729592445202575
0.41779993650887404
0.5272640702307176
0.2902723408487231
-0.07840674090816362
-1.0337620874314077
-0.3558587752618747
-1.1731279937200243
0.11780879474434525
0.2076550520796189
-0.4130048538646406
1.0847682009792585
-1.0751013194823216
0.2927435693665804
-3.155348656326927
-1.261675753289992
-0.23712081234753934
-0.02133882278265284
-1.497484220476856
1.292162149726277
0.23469699564036764
1.1565568995334539
0.6499398608194089
-0.004730869212372844
-0.8140149433149857
0.18418892974777484
0.5363239337382573
-0.6206385032773847
-0.8418847453574179
0.957596228347916
-1.8082369960922935
1.1820832064191409
-0.0062515707268745585
0.17402730041287195
1.6895145580993836
-1.159781297493695
0.44544301604720404
-0.33465337708603393
0.968619590739759
-0.5079320253077815
-0.4980468518870314
1.9699803590148872
0.41557798820838565
-1.156700217399666
0.21192819967699958
0.3884800520686677
0.35982491021582064
-1.056768002884015
0.5576160887305853
-0.30307209051713074
-0.8373940887171496
1.652649717191379
1.2355853826970202
-1.652192627359502
-0.26473491753300604
-0.26356738960056736
-0.15493890994093995
1.8220170999109553
0.5961721320591413
-0.7219023532567087
-1.0028069262603687
1.2301272400151029
1.44771620916656
0.3122163542515334
1.2836085517019507
-2.650554342801661
-1.036887970114644
-0.06058226849610637
-0.725870629384516
-1.0196277896807309
-0.5876894525074606
0.4185079240383187
0.3681981302294281
-1.2869656706967199
0.01685542209275981
-1.7840160101536127
-1.2055507360340598
1.6159638126107487
0.9784202573415914
-1.081977556741144
-0.5720780638976609
-0.5834517731417923
1.3811156542705583
0.8314355056541745
1.7023243300670554
0.2584335338536916
-1.2231269325030956
-1.3015400735470974
-0.15280266066878156
1.2127436180267623
-0.7169919618896723
0.5944452248100188
-0.2559129395039638
-1.370910409265497
-2.2271321532927955
0.6867282903977634
-0.6685142280982133
0.7850539103239769
0.5047748569861945
-0.7241579981334252
-1.0115750770979306
0.5581847511954495
0.017745655682759848
-1.5802604902768334
-0.658279656723733
1.8022623885262723
-0.15393763058978693
1.559478418194987
0.15963699115264063
-0.4527839892342498
-0.05827094102121322
0.08012160969874693
-0.20521390380558052
-0.802671037410219
1.8037891730677562
-1.3641338788817747
-0.37089960681698386
1.0769392810648726
-0.5568877298533292
-1.1693034542443907
0.24185301022408734
-0.5185119695466394
0.07190292139180776
0.1502579817212331
-0.6841879654712514
1.6884924898422304
0.23564897693049297
1.260794540356882
-2.1798803746279605
-0.7490180477674064
0.16688371971898816
1.4956996151092246
-0.9087295499578469
0.6569420656765147
-0.4086947620841932
1.9944334189162765
0.8049355652717557
-0.5646628790317544
1.0184145304941956
0.9978240440353108
0.6364676371262094
-0.7109012677609279
-1.3726520706739263
1.837395279242671
-0.918107896278396
-0.8032863983182994
-0.015676204027923357
1.0956099087214923
-0.21656046149842162
-1.4710852344087555
0.11698538083611752
-1.1410624117679533
-0.601414435440569
-0.7708289957580081
1.315899810660989
-0.2844182156294968
-1.199767103275191
-0.25695892440680823
0.3927502679782302
-0.7386311641241746
0.5690885697519891
-0.12420688955316428
1.803918562081212
-0.48527230154905165
1.3510771601544789
-1.2036971528497087
0.28190233311699336
-0.35985591738940603
0.1982822753745406
1.1549587553192966
-1.4433273379740539
1.0945790132575475
0.34294095110115447
0.16421220808221387
-1.8079497880419266
-0.865798386634008
0.22722195954605984
-1.440613244131901
0.6238487357021711
0.4380518388159754
0.7506983863396255
-0.12381346330536747
-1.0369285013862264
1.7366947233486836
-0.13167630443472567
1.2109609241303578
0.18437764738741846
1.072339807667813
-0.334818477668159
-1.0929070801592786
0.7215934146829965
0.4358942274943627
-1.6258065156264223
-2.092820933051997
0.9492480214586683
0.07476321088152901
-1.520804436577678
0.7486538628690935
-1.5275642756168804
0.295521828721056
-0.17651723159638677
0.44844467785191233
1.760798942562576
-2.0982284742320467
0.29455082684338363
-0.2680834805634199
-0.06791373103158727
-0.7557539895802752
-0.18978844570472908
-0.7441749834907432
-0.8215956583100749
-0.33672083452902507
-0.5196535578484395
0.5202849172994733
0.8028733133486614
-0.9619973035481623
-0.2850362338936272
-0.12080974030596409
0.1487860573446283
0.6551185418951992
-1.5407042556246238
0.6182456151381771
-0.401501952197132
-0.5480575185704966
0.567749608430491
0.551453724366715
-0.9725397444835001
-1.3331004209139206
0.16078784406810367
-0.26534880646233894
0.502541179817065
0.06850814621496944
0.3395801031133598
0.26399963441584684
-0.37770771715038487
0.946439384545136
2.6926621377488766
-0.37584479523154773
-1.0062267661935809
1.0826469232574698
1.0288655920183936
0.8964914577693461
-1.136121260109669
0.29033216644189436
-0.087280327246217
0.22401862343830348
0.11200294712051018
0.4571270880798876
1.005203878298132
-1.9657472048063283
1.1303473997938385
0.17428810867628264
1.3751236020609638
-2.4363363469708434
-2.702049235385327
-2.2528904738852837
-0.8479000574374362
0.30491273684722064
-0.09166892194933846
0.09974782820402955
0.6579276811097394
-0.38910654858346105
-2.135231245120421
1.1358463341840093
0.3703604172249282
-0.4403686524930828
0.25684335604138975
-0.05891404120197789
0.8799226967123656
-1.0150434246272524
-0.27933861089431744
0.6209058766456756
-1.664321735835538
1.574011215929378
0.4243989189390715
-0.12572680824780036
0.8661674603175676
0.1923896569580299
0.4856108260119847
0.5805160737093839
-0.17759939939452124
0.4832624631786887
-1.166802577628319
-0.7900248538796724
-0.12877899704239526
-1.3330583453780838
-1.7646982170289016
-0.8371784546987372
-0.476352816985235
0.5971796584338087
-1.5218258658261474
1.3533198937523887
0.23241545530875904
1.0294352355036005
0.06824858577900283
0.5897561417717013
0.858852991316496
0.9302010005649797
0.29310823248677753
-0.6075444811844157
-0.9100327426877591
2.3935474111071415
0.8595461532949079
0.7153613754226951
0.2967545459501272
1.9971480624739368
0.8440919831765752
0.5467926984866394
0.12089844357606644
0.10580413565073177
-0.7892091727466481
1.531298569826213
-1.2903306781949582
0.17857266242350536
0.7286497763834666
0.2685966864704005
-0.15817256975842436
-0.9606264803292687
0.6620143350344485
-0.6352116545195637
-0.280688145269543
-0.6529897823991377
0.8739718509965748
0.15097696900189905
-1.1073867476358707
-0.7343942853768278
0.683943360275271
1.328215069181121
0.0364160933894081
-1.9159908816493005
1.2035057918807355
-1.14245987250948
0.6963104865797464
0.17905542911634836
-0.6777746769256924
-0.827504743975192
-0.06372596895113969
-0.8821880716898749
0.7977846524325184
0.18655891346127607
-2.2252537120905767
-1.0622868207062877
1.2071336881854768
1.0422231448361492
1.131181087009562
-0.6599219359333282
-2.037071034343114
-1.0682694682595901
0.714756840560318
0.3893149763451674
-0.8327450756653663
0.6383802292539219
0.9381948268095643
-0.8159774531863458
-1.182731585069902
0.7986333099603755
-0.3717512565003098
-0.5645501392643844
-0.5092122015328487
0.0012484268795918962
-0.3553978417456477
-0.2930334945797081
-0.20226145099264473
-0.39247244530203573
-0.9026020261800956
-0.9994512606915613
-0.33810783508036074
-1.332318991906706
0.6833572113332138
-0.877404565885504
-0.22812114070431555
-1.2350992637410398
-0.7058419562636588
0.10069086422272966
-0.5445022663694197
2.0250902936954076
0.8176640869974049
-0.7017856994846294
0.08628802787596679
0.7655716965297757
-0.9878834583708992
-0.23448993956626857
0.031890203787048876
0.000536070509841835
-2.2455761042153
-0.24429978063114377
1.6706639996774377
-0.6809300602086181
1.5024739085184369
0.7831566393917836
-0.8083463714152233
-0.3511574469408836
-0.3471110100609831
-0.5320205361949348
-0.47624700442300516
-0.008823694420051154
1.7506024618051934
0.8236960308981266
0.6121949197324301
-0.9676511846813148
-0.1388569628865489
-0.12123195593474578
1.2225705562768252
0.018251063028413478
-0.3579662364972615
0.5359175596175345
1.122146612496575
-0.8815734793605972
-0.08976270900111792
-0.9360529188742321
0.16307205689058685
1.541729215980854
-0.3293538021489622
0.6983132543655941
-0.3662650006700344
-0.19885843119850188
-2.405157453666362
-0.3088224094986492
0.046317847215464614
-1.4266643806312735
-0.31917208694370564
0.6589853323191098
0.8546052387394663
1.0778899160355258
-0.4657313903030899
-1.008204505257877
1.8868743836963384
-0.31262888026013724
-0.856585630189969
-0.6068638344066881
1.3276818052566342
1.409905378296726
1.3671490804960849
0.12128163436307654
-1.4557914102396339
-0.599625811412788
0.7041450072687295
1.6151388591448606
-1.1291434670959124
-0.4147837024375251
0.7217231563272668
-0.9165168159069172
1.4070643602411617
-0.5335758285053118
-1.1959587127611824
-0.30326631499669576
1.0339934071292
-2.098552807222194
-0.8658714141423511
0.22993923091135102
-0.16809226786314102
0.9023448849884841
-0.9133339904898792
-0.4073926138841255
-1.8498425559327485
0.8988888667972345
1.4719754166448022
0.9919269065414263
1.2337415576755184
-0.05573867831735224
1.1618411236381574
0.12398295296872494
0.017839432437183625
-2.6236216402529307
0.1944219700781104
0.13803432784861572
-1.6526921259425866
-0.22451838431859505
-0.22508242847203147
-0.2764856085784372
0.5121599881121837
0.6660497309828746
0.19110418776804572
0.5853255919396991
0.0716044204081574
-0.6468211653149796
-1.4872324635507308
-0.37982277732426245
-0.5094067725124034
-0.5372914871703731
-1.3724356003080351
1.2009058921506865
0.8238373029278205
-1.0715876884491378
-1.2344706835062338
-0.3561737135814527
-0.8782301942300442
-0.700368062227029
-0.3931557498437702
-0.2942367086726694
-0.49592906085607363
0.4019258336063304
-1.5475108007762985
0.35185039912679816
-1.4929584030935759
0.8706974196804562
1.0640348401969264
-0.17220236262619032
1.2768082661667521
1.0312041851337974
1.3374581015068545
-0.6544829930023329
-1.1014909986687909
0.5406954190446307
-0.34904329624571323
0.05812023465169075
-0.0844800477169475
-1.2043746343260018
0.5488535025579232
-0.5765662621311372
0.07588004906341538
0.39633249970677037
-0.7025716581663335
-2.4907280103664355
-0.5677866615463061
0.2892538466885
0.4157488984554972
-0.5263930410036798
-0.7938744667911117
0.2936179511196957
2.771688735486096
0.21626100153453598
-1.207940289783754
0.11208879359359747
1.2094441779734049
-0.525397024470672
-1.0288065226148204
-0.11672006298750007
-0.9202117301736628
-1.9931340177440007
0.7379136507995684
0.2428215416983201
-0.6732363477318561
0.5348837883504863
-0.16350825260868873
0.8252109203763695
0.003626167747669562
0.5481111294565871
-0.22643826644147258
0.7563032535698289
-0.9642230598674446
1.7201787006280835
-0.3467067619581234
-0.7594444713815356
0.1784968875953854
-1.3886646372568097
-0.799738274588061
-1.6456065676203666
-0.2065011699551273
0.9721022554944534
-0.8052240576949676
-0.7426467190062926
-0.2829232082086077
-0.8266485008739107
-1.0700271999425603
1.4947516926044808
-0.1019758755592221
0.11827594993995283
-1.3097895503302661
-0.43550354086953535
0.8218143921161669
-0.1142634938709205
-0.576304448665405
-1.0470475794489245
1.1990750779214143
-0.8302972675265303
1.460904711456428
-1.3650406000568736
0.12067050944940105
-1.1221449832248704
0.22455408875880256
0.268622628322828
0.6422746058012854
-1.7348990500441008
-0.0410979179361156
-1.0297745097312219
1.4634019685344868
0.333210653525669
-0.8227336596546005
-0.1936805562311027
1.4592091210597333
0.4127442336666554
0.9543403977394611
-0.5704203847520126
0.7374746805332308
0.2570729420578952
0.6388039631025767
-1.7373783308708575
-0.6578609880179764
0.9093425354741371
1.8927757467359023
-1.2173502758798413
2.00033399665056
0.25518648015544154
1.198864054521629
-0.5951369001890936
-0.5483137957965638
1.643758093740316
-0.36499709454288115
-0.06329343135480764
-1.4044756138501622
0.5199114254455629
-0.34683829709845265
1.5594341152755502
-1.3614392236704251
0.03633879669641049
0.11908153293563799
0.41186066065325266
0.15906317794121352
0.22421945400476234
0.061223597547245046
0.7218596936368988
-1.751410122281011
-1.085458652193627
-0.16685020152176078
-0.12801745295520084
-1.6995725094819756
-0.22521654666527446
0.3422901058473945
0.5039057766026761
-1.0955991716303541
-0.2912516857933203
0.005923330404438362
1.6187955469296984
0.41352670055546514
-1.1693426455936122
-0.5917889506405334
0.23771446338143776
0.13238458541442244
-0.8222554608949673
0.7772389758951743
1.260966362062225
1.7398345044011718
-0.4491817910806505
-0.16704029986242308
-0.03948043152559194
-0.1137862995073402
0.4669979373028388
-1.1872678212956949
-0.7069914061163314
-0.9145975671557331
-0.8663497510856262
-0.572147776539863
1.629905485410311
-1.2072066729580895
-0.6445786457242031
0.0919488055593351
-0.6602992037328632
1.753440580136865
-1.130073499042174
0.4496184288316928
1.1341248090594598
-0.43464499650139676
0.10323949621804307
0.2726551952781444
0.04369010764237354
0.4858586445686293
-0.18747517754169968
1.546851712887953
0.20300375142428004
-0.6191452420489092
0.6616255892387161
0.8774349355465505
-0.08666135170260991
-0.6085153463117541
-1.8344888148468663
0.4879258481951242
1.6067195635095095
-0.036849170904429296
1.1696072958052957
-0.742383832746914
1.4432617477323786
1.0628404330812613
-0.24260624139816556
-1.1809185031651988
0.4877743781556432
-0.16513692424080767
0.1828418415925117
-0.5701719907758571
-1.4921944135231784
1.0632019166867277
-0.12237712274444812
0.9843539051556204
-0.11904317111715546
-0.11292303399369297
-0.7587024888454769
0.1179155668803945
0.8900850028727727
-0.5826020370018702
-0.9772947223256623
-0.3066399738092821
-0.34949995781752363
0.2520660478803828
-0.6535596801137522
-0.33030850397347233
-0.0064348089477804515
-0.9678784961795093
0.7530040641914731
-0.639782754436869
-1.1165320256826434
-1.379094619184958
-1.1777198188347333
-0.6308137278078894
0.7724574408360207
1.1978357967208861
-1.3941473964997377
0.025827395681971677
0.10315975803869826
-0.3747542671142911
-1.6938355794342876
0.7372397787040457
1.469431333600867
0.47434035725231527
1.141514937462854
0.7888263669540081
1.729576848245958
0.4094896691020907
0.30871889410609243
-1.2560613083005712
0.18281081698757887
0.2900955054143044
-0.46423732187382044
0.5026762656250832
-0.9150571802671055
0.7552242275293422
0.5836723663736485
-1.1587614690409385
0.39399227297596323
-1.8733824995789554
0.3696836374577994
-0.10139398891573434
-0.10540797402053126
1.5373193290426774
0.05881364167288697
-0.42949314392638616
-1.0737377625543616
2.1709699496874477
0.1808983589560846
0.1320572947220635
-0.7339603746643418
0.41912688535072806
0.07713304357072862
1.7395887716079053
-0.2455624066341572
0.3043828270780402
-0.7550039074451869
-0.525241807860332
-0.8829801188146176
0.4482550691740522
0.15187915253312204
-2.3344169696405976
-1.491792089041688
-1.4066023800720528
-0.9080827632647261
-1.9763750737857335
-0.28088429969766515
-0.3897894368281132
0.45330289541965935
-0.8236592359270959
0.6639670145598653
0.12924695215233745
-0.4508627674509492
-0.03779993459090647
0.30157808614150666
-0.306779690828446
0.05470593419271458
0.10562146894411517
-1.6762169665168685
0.6902515700291565
-0.4564648548031947
2.4614811725637016
-0.08303175170267187
0.007547696623606326
0.6821758785635659
-1.1973908288766941
0.2115571178920963
-0.09187301337832307
-0.22876770834294338
-0.1827891079130133
-0.2673227507447173
0.9430746296593617
-1.805158909737845
1.0314780894335163
-1.0120937852474317
1.244767597023778
0.1888739124390958
-1.3502645071393031
-0.15247493761207076
-0.2787026802525404
-0.41986959440899596
-0.18941662269905457
0.37849914024857867
0.462145440568007
-0.17604910079434166
1.0328889108080483
1.0492589411550188
1.0995891664046133
-1.3046447664331493
-1.1357907449469529
0.307618509777324
0.5022405553200768
0.5886287030063007
2.2136144909903877
1.634195759109656
0.31476002499074324
0.3256499338628597
-0.3436343263126097
-0.45262820044658153
0.41161877464775176
0.7768978723151486
0.9422734002391637
-0.50089906603072
-1.2698300836316214
-1.5928904354642577
0.4925032902736868
-1.9132452517985339
0.48469441470123636
-0.18155087395939173
0.4767081095981623
-0.8977707798906253
-1.2815265289359639
0.6570174412243565
-0.233528890770502
-1.289441431715677
0.8001609437074686
-0.26919382514987367
0.40045457832236686
2.036317417938207
0.6193639753980923
-0.25077721484865156
-0.15855578624820688
1.2490949254809747
0.6428666445979757
0.9969287151156625
-1.1056756237995065
0.3888731696374814
0.11584432432911451
-0.2410165981446234
0.14549444914763957
-1.7610934467646668
-0.21063592968685182
-0.24218196638366984
0.8289976270331051
-0.16122019361798268
1.0454963978506124
1.1495032811405883
1.421064893293865
1.3297516802298301
0.18683093301841774
-1.0753698438088537
-0.08647562342443976
0.1544823605059939
-0.5087452909820334
-0.693022650406542
-0.503447053068175
-0.1522418441452696
-0.9338332064572813
0.45509615960561944
-1.0703014794814045
1.2712882855582492
-0.9462709407107545
1.2278599975587268
-1.5700666229079268
-0.3519066834610005
-1.2717377312694755
-0.4590234911576013
-0.4585863073928761
0.04435451005891544
-0.752094956218319
0.6959289814221006
-1.8656223898366497
-0.17129756494643478
-1.1062345637837812
0.3514746822075729
-0.9959219656390019
0.13171950584796102
-0.4049583159959246
-1.1831381835763417
0.08777664589394063
-0.14771879804506083
-0.7259930902701252
1.705745488769888
-0.041748960010050185
0.48287011255656553
0.5950593596063283
-0.8842634318310935
-0.7063743838226435
-0.5247250139450926
-0.5250552115778021
-1.2421056020951287
0.9942422307174014
-1.8500816936578126
0.037604962840038
0.502591220613076
1.41690812363024
0.5553978557598211
-0.895663000955305
0.24688512398888574
1.3931357032547067
0.04066000086954222
0.2693639253085105
-0.7388957737535659
-0.699661950834082
0.100322230573886
0.5817831303437527
-1.1367823040001623
0.3643031468633494
0.8906955455943897
0.5516834780476609
0.2209250595848289
0.32260690278933746
-1.0922076254796589
1.683814641970537
-1.8351324977058494
0.44386156683882116
1.0320946201581307
-0.6555159033628698
-0.5356603402619373
-0.3052268481067617
-1.0187458937873295
-0.5790463435468529
0.6166201423962416
-0.18420405918892352
0.11731605784629112
-0.37045068055620783
1.3498478744931246
0.0958639332815415
-0.8404189180395194
-0.32756342944504935
-0.7753872798918924
-1.3377894944393798
-0.0018199173795131474
-0.579228612695023
-0.3824684488260081
0.3088735345598859
0.6767693983520355
1.2428313378580602
0.09727449915075123
0.47922191246342083
-0.5687494435813104
1.560131529681186
0.13779048240189418
-1.2493955410193982
-0.3024512448956027
-0.3563644422946088
-0.4533571380820219
-0.1526099545057967
1.8913816459588895
0.20931668119545468
-0.1261656908173501
0.23626024099067236
0.4894797346025744
-1.0578700097119247
0.8091417746034371
0.6760427440849713
1.3273327283060903
0.6413953241686332
-0.7698345302023226
0.32756955117785336
0.5435802000171372
-1.1916113010357785
-0.7199061602575836
0.5915888019601533
-0.9685580252433349
-1.329739480820887
0.5329918568886927
-0.03537230556252002
-0.17227100379631022
-0.06279647272136124
0.08792422847251369
0.7232687506525084
-0.9615742083311711
-1.113488345377377
0.03189040285665512
-1.8107412188272896
-0.10637159887943792
0.6458991174688097
-0.7007785182038435
-0.34179456361565375
0.874922450338391
1.1983759540975716
-0.625223261475405
1.5882343073982512
0.015274740988870938
0.04973583127757555
1.0694592628136528
-1.2637904274937068
0.6613664093014866
-0.11076809266038412
-0.09341876002821492
0.21133210387772283
-0.36394077164281824
-0.41184631011394135
0.6316701317273963
-0.6917094380861275
0.8827414342377686
-1.1651383547674319
-0.08733049786020172
-0.15147926688243607
-0.35934749254679393
0.9666523077604301
-0.16097465137856948
-0.6121869644109776
-0.08914419669958312
0.5932190308513208
-0.47663590880897727
1.0332616536790027
0.82721385466275
0.6507340627761353
0.1746617989877069
-1.0310348337295594
1.1984331651699303
0.16669629992242446
-0.08540705133218124
-1.1941250379026758
-1.1558144781693913
-0.580120320600641
1.5444661324789966
-0.8045421557030469
0.289722235098768
1.598697295359213
0.28982873297910516
-0.4624475084974261
-0.9546791141422191
-0.06708298363819132
1.446726627656818
1.1154649704523902
-0.19492442773485982
-0.398971993843727
-1.5410311515940154
0.28018901991865963
-1.0731093078128078
0.7618681093931666
-1.1298469098284525
0.4812556177107136
-0.6147107517243864
0.7727637284378543
1.044053473471038
1.1231714498916054
2.0200349985535597
1.049317265144581
-0.22683757954146178
1.0355767142485228
0.20028717463488144
0.24122977117226557
-1.0760434687919187
-0.07734948860698138
-0.6419347994993396
-0.0010056022993018554
0.31003501260467325
-1.2456334779083487
-0.15003569468693634
-0.24401246293908851
0.635409784243889
0.4809356791085875
0.29834499529069003
-0.72958918619543
0.5216536772798777
-0.5487495938911188
-0.3090404591393865
-0.7006573586879123
-0.6206398009106966
-1.8369484927518074
-0.07602401876377668
1.4469818352228294
1.309477675973993
0.14079789329446718
0.7414754295046498
-1.013690915131978
-1.1026230247991649
0.4689905376371223
-0.554217902608137
0.3142610489079136
-0.8528516968208817
0.32734090590654563
-0.5880399871139105
-0.773171874737916
0.5344114410386092
-2.345962036598619
0.7001482104996717
0.3536413850289949
-0.0846730757847175
1.0395900075504965
0.5953962343424593
-0.17505731804900987
0.7781457051294306
0.9339118963616981
-1.2674503002922406
-0.02501264823744953
1.4883493862219288
-0.4884196082516464
-0.40566389647288054
-1.1028490157238888
-0.3893719699054392
1.066465273444971
-1.8210094044830998
0.5704339097661817
-0.5393487005282842
-1.4658502017997244
1.0925380645612741
0.7976250795905231
0.7999380932043292
-0.3997836447882186
-0.7023840615026217
0.19164166944932984
-1.3208367648467776
-0.3215694200419081
0.4055926271335723
-0.48735089784499186
1.136394414815094
-1.3495796762167982
-0.7495203115367279
-2.3921176848144525
0.6059743233151482
0.23045119224293037
-0.6061614732829399
-0.5754917765040249
0.09219109274737894
-1.8228537866676957
-1.0937965666988283
-0.6437403293444544
-0.9706128822662425
0.663872574740219
0.047655789306569996
-1.7636013198924114
-0.6657475675066941
-0.2894223917821227
-0.6090151628724133
-0.7496546326767205
0.5497726441873901
1.4389136063608043
0.451973993281082
-0.04134305498523305
-0.38971630967539067
0.898297210546444
-1.1724573426226192
0.8979929076376146
-1.2623106676751736
-0.14577310358452067
-0.7493285466587675
-2.2951062327864653
-0.2758057396374035
-1.416028814098532
0.10113581839753893
-0.8511899096105322
0.26393905672366963
-1.4934122871596232
0.5904788885822052
0.7336578790606709
0.1405270917464977
0.784597379428706
-1.5047795290880595
0.9428983388631103
0.4147393317976597
1.9860521004614142
-0.8352343806366025
-0.9779130174099184
1.1022348267990019
0.35577070056873483
-0.3483457308405815
-0.719379099229904
-1.397120545480893
-1.828202103591615
2.610478860803924
0.5907806292279256
0.4961617293865549
-0.055203552939032854
0.6454262832657299
-1.553667172419543
0.8352428831087352
-0.03772046307376306
-0.6298182640867224
1.4044766117604737
-0.7141294693565645
0.11955901506167184
0.9551078773270527
-0.02250844300974124
0.24701500714030397
-0.5668465628281986
-2.4649430942082025
0.3197333863618142
0.3128511778578733
-0.45127831597157
0.24300860469293506
0.020016333689964694
-0.14174558450797575
0.20406587769485712
-0.38183315231230397
1.2034815953642823
1.7181753104153237
0.09958240254584601
0.8768317377777398
-0.21040229491710702
0.239548511603523
-1.0126909228975511
-0.5354391504574103
1.7712422820651361
-0.19148107094998784
-0.4515966278155214
0.7448871561483463
-0.018477017662378054
0.990040312733519
-0.035803585638762236
-0.17257273095203207
-0.36909822731504244
0.9721307094157974
1.6952300113592127
0.882393627531055
0.5190055193815218
-0.006954874779738551
-0.9695105675528258
-0.7290865721160864
-1.2947348062497512
1.1696908753112625
-0.2882301809578718
0.0773511482654563
-0.7137022996729774
1.9864153136579015
-1.200495584651422
0.3298916590806767
-0.5299676629460832
0.9976835030020315
0.596195806982547
1.7027894527513683
0.0787038654351343
-0.5785168679914747
-0.3564193775477206
0.16700973360220395
0.5469054434583169
1.3843816303219703
0.6869159380952304
-0.3357090412472149
-0.9217387131639946
0.09707441385188252
-1.7004910763582353
-0.48461291731272316
0.08103820378645415
0.19451321286668086
-0.26873872739406035
0.8156968974981849
-0.36914176123710496
0.008194421489791381
0.4528063068621739
1.0084480981889339
-0.3332460815544892
-1.126425945671001
0.3211056178203159
-0.45845021135395986
-0.21385752364950655
0.04914276639896342
1.1289726788161054
-0.6911235813402605
0.07556773988600585
0.11484145184642322
-0.34167952953035263
-1.1298006074427696
-1.1149255489193195
0.4960527894699035
-0.9245129677204453
-0.24202058191534404
0.052341570838958656
-0.167428167441662
0.32452152010581703
0.6591872961032168
0.877445670790417
0.2204483507788383
-0.32833263432784443
1.1826559682098339
-0.8194798287605349
-0.46329499039244526
2.0507205580996493
1.0142394812818403
0.4587829713227878
0.47079129814220494
1.2478069891509862
-0.3395823431832513
0.45945590325571256
-0.18555007116284827
1.1144987043537689
0.3076679966016281
-1.289841164662476
0.6219819459032871
0.9145798448189
0.32604123348515807
1.2629692992217758
-1.1865636651130589
-0.014226923024579022
-0.7351263835416282
1.266042113696904
-1.3332134123711898
-0.8629160671368944
0.3257409290189265
-0.5811017104074399
-0.4620411996833105
0.8378024774523909
-0.44408326987795305
-0.10514197454774674
0.8657837993723838
-0.2983979991676701
1.6627486475711346
0.16663988057954923
0.24779569589881337
0.2701344787793409
0.23100751806226244
-1.8255741019083525
1.2068913297724115
1.4974248646719657
0.978299999071091
-0.23065952208767115
-0.06407673131238564
0.2733394728654712
-1.253889053490166
-0.5477121652654525
0.4448948136974928
-0.3260720574146505
0.7011421805862643
-0.39322003319599913
-0.6915532793544009
1.3426828562817068
0.4614430882827576
0.4813508219220797
0.16693945913638547
0.9629589884468889
-0.16864568786174994
1.0019834654439128
0.8448695329734618
0.09954247654451286
-1.1552352449533605
0.4826183777626552
0.6980530228276439
0.4361249035888293
0.6933369694946669
1.7522481182026395
0.10015042852396683
-1.6622302854657311
1.6972407164224235
-1.4169146008689868
0.7817920377491159
0.5675133307205683
1.6963387678709416
0.8933697318284555
1.8448268174411635
-1.978647493415771
0.3891777271620744
0.014930478710402123
1.6437613113152891
0.5456434738777459
-0.059184046091805775
-0.26413322151865315
0.5754788149050436
0.10982096052097062
-0.5040934288179311
-1.0411447450864348
-1.0580513108474905
2.098271776519623
-1.242805060462267
1.4865707601731564
0.18053554209339967
0.3347674262576767
-1.0924294290040706
0.6158523461647226
-1.9229688592738543
-0.9997470091246683
0.2954089803796142
-1.062943298962094
0.9508414569724355
0.27928945618779744
1.2251981556102765
0.8790169961417434
0.09189481380036457
1.4663292945507984
0.05330784537851141
1.6731837632409339
1.0666520371181336
-0.0006962977449698204
1.8233343451740847
0.4722176904261196
0.16927846349757636
-1.431826136160689
-0.22633570750843446
-0.1922703719422877
0.975173108089622
-0.4575838040303736
-0.5755173229605411
-1.0768356651962574
-0.10327330594725764
1.0723777157966021
0.3375387382140836
1.2471976314672735
-1.6726914931076113
0.4862653654539981
-0.6943668733678922
-0.5452424189384067
1.30987496296545
-0.47090169949815747
0.36194846476805626
-1.1206923070259913
-0.6925357439991291
0.3939591860846168
0.15775837218458244
1.4350910257952152
-1.7838486582083628
-2.2013337772660697
1.3063486436315916
1.2875765038457199
-0.6619641508261593
0.25420881521441197
-1.7489263304590206
0.15682470101428478
-0.5223709618323812
0.5807287087248083
0.18922640323275328
0.16138786819635037
-0.8902548910234553
-1.3061359089606752
0.6146277626211814
-0.30887447421277314
-0.9607406057851157
-0.8972857447987077
1.1696017078590275
-0.573135897282035
-0.19389145583589396
1.9005558215127045
-1.0500803854660519
-0.49741666880147006
-0.194497333202132
-0.7409580235304015
-0.3854992316711919
1.0556525937303745
-0.48802711392179954
-0.6566340171846443
1.1856269107576296
-0.6005607030548132
-0.8736413154569668
1.645967331644704
0.652706495460223
0.012025406467028099
0.6974708298396478
-0.9423575638317002
0.9607197787277236
-0.014359194194297653
-0.060147860811954224
0.9245441552875193
1.6821466659968392
1.2357522688208749
0.2916622178657307
-0.2587310060343486
0.0897403233879411
1.135627928318313
0.6975242245927991
-0.36027083857661224
-0.7656409697340922
0.38094635603999727
-0.2520852835004103
1.7447821263092114
-2.3075788569326012
0.14941203484259907
0.5688891439975686
-0.5189009873763201
-0.6462227769123059
-0.917668537963666
-2.5882550618456825
0.7950613533055492
-1.1160452974616721
0.021991980531747363
-1.0468339667644344
-0.2806103490626848
0.15743561617412716
-0.1962935543670244
1.5697070140346843
-0.9881783803819626
-0.5108825613134064
0.03236987683914028
0.20332364158866978
-0.36933196977310173
-0.37138047109549627
-0.36287963487172226
0.20658662704745792
-0.7574397025325925
-1.3581741863072136
0.3512258012040592
-1.5127997641979996
-0.3256310465287924
1.4296627435510196
0.6466737562323298
-2.3758036043829174
-1.5328117298449826
1.2467911196954797
-0.025325123490019474
0.2041791630490078
-0.6198273939668286
1.0439764600931802
-0.7351935053705426
-1.3417110287311937
1.7049233629047782
1.171269860232762
-0.5115286357380715
0.9391619861867173
0.49935668797299193
-0.4381515560311656
0.9300823004493506
0.20602738401341
1.1854277517420984
-0.29021118670217055
-0.5903449474096925
-0.5898743187263946
0.4608798516286843
0.4155748578656065
0.18813221971524516
-0.04730652545586761
-0.4384146833295409
-0.02391708091771767
0.45887077771854423
-0.22131615538504695
0.3285051524399052
1.1685728690054868
1.2323424432126933
-0.816997198874857
-0.8004707403946947
1.568675732054244
-1.2903082543499758
-0.8607534032956738
-0.5808798872415115
-0.1485467004756728
-0.36577547636214014
-1.0870295297277957
0.6600820062477005
-0.8580360749520216
-1.5341946735261016
1.0663189226309986
1.208195161717712
1.0388432236444498
0.5157951570187647
-0.8743574807843162
0.5354795270897272
-1.0038509958537536
-0.5155943272748511
0.08212505435188927
-1.4042470501075612
0.40610042643935984
0.0336678550645757
0.15592369561856848
-0.18869205337911393
0.8825888838824552
0.38178387993050916
-1.3309496856455247
0.3172250670909671
-0.31845015634576945
0.514286821305811
1.4705924993652133
-1.4554924246592744
-0.7229836652932464
-0.36466731699867566
0.7404253148362889
0.9300925229322026
-0.1459209403227032
-0.4885666085554698
-0.847619019363804
0.04618012446593375
1.1600083162670378
-0.6802593574383102
0.37038385515085737
0.38935223672401964
-0.1827915209177844
-0.10659023583920682
-1.3967286883743784
-0.30315786024861857
-1.6534032924244317
-2.318151820760179
1.2219548819484924
-1.0646693277767822
-0.07670431896919298
-0.3702035853811366
0.004782211061814312
1.426858066368229
0.08774445393602862
0.6058441561238889
-1.2312353007684471
-0.6369481970950757
-0.16584717641093805
0.13273510233388577
0.7978519808250524
1.725824984741163
0.2627127830436477
-0.24391899965878777
-0.6052230758831058
-0.42175795939270694
-0.7466749052579867
1.3991966678579069
-0.7221350000450664
-1.131301416713977
2.853230037439001
-0.3229901824040102
1.1792125059362502
1.3049662265264275
-0.5301995606762467
0.5722998029559346
-0.5315800319535764
1.9844816821648896
-0.6789552895330635
1.3468097983200367
0.5606317883935082
0.09533408678740032
-0.23576648350176144
0.36720620275711013
-0.4130988679057704
0.8778846017946742
-0.516900484158944
-1.0261011758595742
0.26804704761637604
0.2755598341804583
0.9494932396790345
-0.47868085109096387
-2.0994223116109483
-1.3185886622967598
0.01815204124705383
1.8892566809564093
-0.598084082666909
0.36301549340491135
0.5173200389908081
0.12821987821278175
-0.34846807447033185
0.060087673989047255
-0.876516454367708
-1.559458178865912
2.3006929809278516
-0.48795768671392137
0.9724184685825062
-0.24673505497297032
-1.1055767941135413
1.5734196505190496
-1.5394891051621378
0.1546767454656629
-0.9721162841753245
1.2286763952992343
0.06309541991884482
-0.8112207975190331
0.8361387134480289
-0.14993464435429366
1.1968567488918085
-1.964437765562313
-1.5626206783033492
0.7802775119892079
-0.06327200139686108
0.8176388948456432
0.3357962528843524
-2.182747342372718
0.7626895103683518
0.7287050303500193
1.2656771296063765
-0.6995517669219043
-0.5896298277132652
1.238019823825229
0.17870475305248879
-0.5718394919244403
-0.5728652164119774
0.25085638356455287
-0.20085951727451812
1.6292679324665114
0.9060836435276438
-0.20674048279221335
-0.8820636170365823
1.0915897251180795
-0.6986836766855303
0.9930106999950405
-0.8459866018843911
-2.091984836064995
-0.8818599184003678
-0.6881973327235755
-0.2008679530889872
-1.3973505149804497
0.9115884285394554
-0.9081806481742052
-0.3111814832771882
0.6611556058327607
0.4931686892666333
-0.4408583845807822
0.593945512382071
1.3956624761166827
0.22814938321065742
0.113630440726602
1.0182997827610396
0.034259381527166066
-0.5434686616581651
0.5144282237170597
0.009106575056310073
0.5917264293146347
1.9124913846774576
0.43043864162899903
-0.7033551769837753
-0.43766550863034737
-0.46186282604730594
1.4803189465790592
2.2413943635725455
1.0546215733990303
0.6995746531010397
0.1302975323377326
0.22746108667387635
-1.4456835560766563
-0.7500226747752504
0.32110030087500074
2.4251821123370165
0.8898009191679161
0.5526377896038505
-1.555286964332545
-0.1696079013367382
0.4736617699990626
-1.2558828151930201
-1.1748019443178344
-0.12557653916252515
1.153680168036932
-0.7401050074287752
-1.101663563247568
-0.5752856478839795
0.0792064199491575
1.439194353763999
1.7554818226697706
1.501912142011724
-1.3520780788307918
-1.6945192580277326
-0.27045469003015205
-0.5554537396968818
-0.07248871004247656
-0.48241086893451557
1.8974149424669178
-0.3172815699508474
-1.751286903522164
-0.9331510785880923
-1.4294557422786065
0.009277302099433282
-0.5759316966018071
0.6241255745839169
0.15674616098526784
2.014844093562173
0.07827073170043103
0.3363062673304492
-0.436545645346126
1.1409755914854454
1.1200660139860559
-0.05727511065405527
0.3835760116059266
0.1638038470224482
-1.0361172642199723
0.05096393761073237
-1.106456389217075
1.0302525596351018
0.6417519194570631
1.4335213636915496
-0.2558028253803059
-0.7273952017899086
1.1182599925605796
-0.7754892625682034
0.8803984632974404
-0.9977483554981967
0.03838024964160275
0.4168624735682688
1.4552783020744369
-1.972648952459774
1.5721128531843063
-0.004968035564626539
-0.7443040562521059
-0.6908815081169106
1.071626249587501
-0.9672411788548002
-0.08203720453086039
0.13177533478590883
-0.766348839624662
-0.798163291336952
0.6054001698482152
0.19572442978354138
-1.057410498451989
-0.4231721558926307
-1.6831233665453256
-0.9261745276412136
-0.5135675578437824
-0.628078991141815
-1.0525836318285018
-0.6167278831025015
-0.33744238112167557
-0.13927389718662603
-0.44790502784755915
0.04835791347937457
-0.1536527413609402
1.8437863639015866
0.23812119183237607
-0.0914104149439634
0.04012681507332194
0.06618431845401562
1.5121610576681332
-0.5245885193849276
-0.009231658697699457
-1.4748400933609767
-0.12035656445306625
-1.6241103943301392
0.40002419452758475
-0.561116752359761
-1.519866111396061
-0.05396146090281531
-0.39910246905828317
0.13533089002034976
-0.797327685350572
-0.07863480150452173
0.1539897078216491
-0.687103852398201
-0.37835897814368746
-0.47470188289730586
1.1551526236153313
-0.30207017200143077
0.540426149687089
0.0898970632864915
-1.3563922275555502
1.4588301940764297
0.6588859214881279
-0.5722607711865135
-0.8328238720315648
-0.24132127810122933
-0.7616614935834027
-1.1477350951792404
-0.50314588803807
0.3455563080124432
0.4674531186158601
1.3264488377692631
-0.5445204597433643
-0.7539842076379091
0.589954952441448
-0.5915505178660448
0.2327449716557625
0.1305543343553558
0.8787214687198092
-0.2192636954395432
1.321580633975164
-1.771163515945511
1.1173261287645833
1.5631660938650342
1.24743378140708
-0.4300162471468389
1.5202064881437924
1.4069024340560563
0.984529892945672
0.24198285297842315
1.4707122490180544
-0.43307748221316855
0.6367625520085183
0.5032883854959194
-2.417533965493406
0.64269196452918
2.525815214975828
-0.03040661914169629
-0.462224002602341
0.8914942555622369
0.27390685727206987
-0.5216145500571503
1.4613041429332185
-0.2785706119855729
0.5293560978807759
0.4395072140263728
-1.3282137779095629
-0.18802738855877915
0.4608310595428919
0.06504796105129917
-0.8759877597723655
-0.18581256802893012
-0.585318625389491
-0.35455423713952716
-0.16371302158555534
1.676487782876798
0.49464832997699365
-0.1830443739256017
-0.14117768198853237
-0.03756604923641238
0.7738128081930856
0.8467632932154664
1.2255586970125456
-0.08845761563515922
-0.6689458588258312
0.4589047121988195
0.28207076044863955
-0.47092417611283255
-0.0007976082912882765
0.36280451487207843
-0.2851930753895507
-0.023534947217709157
-1.211259508170799
-0.022146851906007403
0.02257358236571219
-2.065854909980634
-1.5328337166117898
0.013675518256108465
0.14678490538774902
0.8221725342613038
1.467207941508601
-0.32556430945490133
-0.012389689466425102
-0.5864615400159703
1.5238806357568264
-0.049062866923664517
1.0729387134225525
-0.6704950944771215
-0.6404569471731516
0.9208292728483853
0.8670216137924349
