-0.7586643459925632
-0.222483965510619
-0.804835049499403
0.14852476320542055
-0.040882764913487024
0.027967897849224255
-0.3987781142338709
0.04053662235270427
0.32317294525289353
-0.8093261686066998
0.18410423207623677
0.27865066963806234
-0.7272276308833038
0.34682538499906906
0.5063356479019004
-0.7275470013692117
-0.30052311697234685
0.435460648082418
0.3143770275554444
-1.2445535880615537
0.755067526167701
-0.39493793090869467
0.6866987244078678
-0.1519231219567052
0.4751448360256852
-0.06843654181598932
0.3300769689492796
-0.5992123542572709
1.1515808400992606
-0.13103666154135568
-1.1447397196979467
0.6254408040654277
-0.36407418845544726
-0.020579465741778363
-0.3545630025818699
0.399274118954467
0.12969047073787357
-0.4466551642151075
-0.2130272785111094
-0.10152056049757968
0.0033089203062689546
-0.7496337406584214
0.24038828564041742
-0.24030156824288004
-0.9099125328573728
0.8547008584393134
-0.06036579343355881
-0.22838786195907926
-0.13414874737397176
-0.052341917180490624
-0.195723641926613
-1.4663589960781813
0.5955736624874626
0.056555685274725986
-0.36853880165120123
0.7169092177653473
0.12704704233641642
-0.7123271634197609
0.42606953227137817
-0.21367227679187634
-0.6249621761340182
-0.014020005759996007
-0.42719911764038976
-0.416745856698909
0.23059183731156357
-0.41303382091796187
0.12707722551995707
0.4483604977960219
0.9370380924019595
-0.11352455677846911
0.3340562941833059
0.375264892496412
0.024907603874673653
-0.09142405329949971
1.2134110496017776
0.20618559670339204
-0.6921392247502273
0.038553608536386966
-0.7524385820713659
-0.5200518267161938
0.13371747308891974
0.4861785141143095
0.3127862787162395
-0.3844654134271379
0.15707410292023694
0.0654201387709434
0.9387535586461748
-0.1383072740258447
0.24823581054319893
-0.4973717138749674
0.32965467508157914
0.9708092984851966
0.14986801157988094
-0.26209907842816443
-0.6037368257136491
0.3373583326217666
-0.17190941828543257
-0.5001440769894329
-0.5850463610046599
0.15165849192861638
-0.25241023667705603
0.395380548966595
-0.3996339179575263
-0.3770442756849703
0.7482226104078646
0.22018341102751635
-0.7972192974286255
-0.03939651271724961
0.20332268651914753
0.15035710047634943
-0.5079558735828561
-0.6790985408100447
0.05773743457666141
0.6488102760818512
-0.48315107726670853
0.12536216979240947
0.5446564161039437
0.6123833127834747
0.7297053140362024
-0.7749194517748701
0.5728603183663394
0.4217060804207233
0.323465812125703
-1.2708640965270077
-0.6256033410650794
-1.1304721478907926
0.1472303679061242
0.4604615690865136
0.5252276134904774
-0.05974769294060152
-0.3136260450585293
-0.1805764955498206
-0.26664420175864695
-0.8398392258968328
0.37305622841359765
-0.5488951386544932
0.6084717549152455
-0.1314122169545641
0.2754847606496669
0.10087993520418344
-0.2238284047093556
-0.09863814512766429
-0.008583607897368829
-0.006459785176727957
0.2048760906070211
0.07238255580617646
-0.06880896781889088
0.26500737565829474
0.030750542086067305
-0.25162030702613447
0.2582846098526256
0.6386708455459597
-0.2217782229443564
0.02558564980264952
-0.5253700699236208
0.3550025284281007
0.537968983370586
0.8803171124434347
-0.722324747089802
-0.36546430147845843
0.1399556001218579
-1.4420925037631018
0.1830972269180365
0.16421271973577786
0.4488144151427623
-0.5476065952962031
-0.3700360999202299
-0.3447889196600026
-0.16008131643330625
0.6571165716836108
-0.729212005797601
0.3181265935557014
0.16609861771017542
-0.6034209102045415
1.0316040895011336
-0.24146542823689007
0.3498410365383587
0.5046372974175755
1.096087920139479
-0.8665978325485757
-0.658391543731265
-0.11511776225662172
-0.7123808665642267
-0.4715629373259008
0.6883167908343414
-0.24863324516600357
0.41226470300959445
0.8133501034345516
-0.135911566945927
-0.2290935992985684
0.6726485879232516
0.4200676037114738
0.4657593966338881
-0.7202471105035666
0.005743387327153038
-0.3411095963775686
-0.02159401023241968
0.3196440158108129
0.6132234364136694
0.5254002051955092
0.7342056211209098
0.8190961591634901
0.06851581491449268
-0.4921101030956596
-0.31812244958463864
0.5849903831090179
-0.5508181696219837
-0.2677072019960573
-0.4766419642348643
-0.3278496321935054
-0.3213331194832924
0.2754303042541288
0.21169367029528896
-0.5156641724705672
-0.07880513206131257
0.5535133734849943
0.024858989396111877
-0.5405196207856688
0.1878569429050664
0.40789574216306484
-1.1757764938934863
0.26574660937405614
0.3738203166897205
0.5150513959520209
-0.3192284396712645
0.4945043316366169
-0.5389985602820029
-0.2469495640647576
-1.0157675051795854
0.4574744233527027
0.1300329746980943
-0.507116028682888
0.5591255351717864
0.06868342437160677
-0.5838345879114352
0.22544668786782115
1.3503354525651583
-0.6622195161497678
0.060034716489351415
0.443772795450059
1.0927185938492225
-0.13440666682014873
-0.15562411359583903
0.3693016824964603
-0.3864996643833198
0.0836956140304166
0.30789641244208943
-0.01799528761845505
-0.3182211056865252
-0.007477645576645112
-0.14654408402599614
0.06618244470234334
-0.11992170608895676
-0.4541083818799751
-0.11965905197363033
0.9767697542225335
0.48660681522780325
-0.3538981487747136
-0.7807301925599214
0.5463853355851226
1.0155176069626526
0.24284152087157987
0.25256969239452415
-0.1911703464422332
1.4090541177204292
0.03606249215618516
-0.0898903449324814
0.11489653837779122
-0.14967704794088896
-0.23343992440476966
-0.04710582105389203
0.44486171180001
0.5469868154096207
0.4454482382092916
0.03621513281027969
0.7144610684424818
-0.15014386050941647
0.47306813025205013
-0.26038940145101047
0.7439146491205066
1.0436568992961428
-0.7330919554526615
0.3136509284760755
0.05786940055042874
0.2186047861680404
0.20458081573440762
-0.5873399979656845
-0.28729594163598277
-0.29390290306617217
0.16010953646718112
0.1576001489571864
0.2657345696372759
0.3823228540033885
0.46568545153816143
-0.08608192110507135
-0.6334849207790582
0.6768517101347197
0.173402802985483
-0.5948568439081353
-0.5979575429788687
1.5447058223832255
-0.004981930591047047
0.043629989569717545
-0.10246924978719947
-0.008624555511362568
0.10218999977786025
-0.5090565753168269
-0.19875751611240614
-0.47449707862371093
-0.6611238481627408
-0.5312879532675409
-0.5303192106845298
-0.05123002367202707
-0.227291747890506
-0.5776348114290641
0.2869433238212581
-0.1296681409719941
0.7337889976971801
0.960294489191122
-0.4525835901792976
-0.3391167437250094
0.5871122927389778
0.34378556608923433
-0.7672980395857281
1.3693136029691306
-0.19677933532709785
-0.04750419322735533
0.08539548100069282
0.008983765128679717
0.23894748284553108
-0.18168669136982296
0.1806436039570653
-0.11135523531477182
-0.253748399589989
-0.12439176497524006
-0.08694301201293798
-0.7298422014125205
0.4457798040313074
0.0016747114080463577
0.29458617789332764
0.5124705495395934
-0.29519994217876555
-0.18804916601264302
-0.08097899343570768
1.1098569518421526
-0.621571624408383
-0.09210865624531372
-0.06270727789529427
-0.37690757468253316
1.068283769777855
-0.5480954438784327
-0.16612827135181626
0.08007159251922392
0.5430931521606972
-0.2407397007530894
-0.27768544337348827
0.3638800027837225
0.809744551341416
-0.03802887167753322
-0.6669672549499689
0.24100582823116035
0.1449932165363385
0.06361439148028386
0.2810778933106447
0.5092627931836687
0.9834029086180581
-0.014230601313501533
0.8211243218028313
0.8329543409296025
-0.0769791970626437
-0.80695824076973
-0.14551087047916741
0.1748928026659466
1.115821583035865
0.16367013332509314
-0.45382339979851866
0.284365517980787
0.3512070544508905
0.7746582461482838
-0.15964706435052017
0.33531326828553715
0.29794816379662264
1.087436520925265
-0.08949005923809931
-0.38605002509529485
-0.13554889033024034
0.10263716124421629
0.2807860692931867
-1.0342418658962664
-0.4056638920831447
0.17973705473987822
-0.010299743252577792
-0.8837738400871907
0.4284916264431529
0.6500261581599549
-0.5074309572039766
0.15530318593444672
-0.04096677730614048
-0.2695350142257657
-1.0785188453347019
0.4884852690766965
0.4809500697785141
0.627279719589067
0.31125211786985985
0.2818651695721852
1.0322973834699363
-0.010324132782830401
0.4572849776664757
-0.2895070256883365
-0.9052750122613092
0.7124951626505652
0.3112588246241935
-0.9185851363149248
0.44165965242528654
0.3652011246050745
-0.7637889688905791
0.09772866660483163
-0.4818435455339871
0.8522619273467998
0.6758831576294356
0.27093046429078493
-1.239286828792345
0.3587807835172349
0.11193858148042544
-0.003692577000267693
-0.8769110236673301
-0.4416403194457673
-0.2825962448678065
0.6178993995116372
0.1626435300077204
0.07662269245186497
0.2767216619266961
0.5499603668738934
-0.06306037023392862
0.5108754474162284
-0.48769553842572894
0.6698662006082161
0.14842323092409046
-0.36116649096745457
0.9155394823175323
-0.0367851940977031
0.5071492768898227
0.6527991781570498
0.560221133492894
0.12238122065168364
-0.7877588179319107
-0.512259028062159
0.3091601921067829
1.2485190350980868
-0.2709096797809296
0.8775400382647586
0.11560736934434294
-0.5797469398106232
0.4010591720112874
-0.716256238152337
0.006029431543084454
0.6124775952516472
-0.9779583355250923
-0.2199426966030949
-0.10668674208682
0.39381628422816867
0.6668690189378569
-1.0411359360718908
1.365874563782948
-0.13693097233438975
0.37822077598599424
-0.5249424742631564
-0.5391076089900452
0.14723247904404366
-0.2993323148257429
0.8962147460105636
0.24093133786730342
-0.22165666264298348
0.35794577720998066
0.339819898878036
-0.6014974432275436
0.5533478634377721
0.7426516588602144
-0.12373558838469939
-0.9346453565030615
-0.519398283825659
0.38267066413061845
-0.1724415504333516
-0.3863443171910121
-0.3365556846690422
0.5596550593429495
0.6242337603320406
-0.2040704202037161
0.12329768573672749
0.732194858125409
0.38872294441319577
0.5491712700436797
-0.03215282645357294
0.11502084785948621
1.253817743713836
0.39484838091486923
-0.2437005370111742
-0.28074746108139775
-0.8618225739639221
-0.18423608946449857
-0.3473762394927688
0.8406010687716735
-0.11356136640508574
-0.31299613966248513
0.28547703716392736
-0.18271497661721042
-0.647253682432852
0.32861588206588405
0.4274922678713309
0.5711268565530242
0.05321884726250486
-0.13226910859033583
-0.36815815664678603
-0.2421074592386399
-0.6482516283333419
0.026928737760436312
0.1378158978168405
-1.1117701853141144
0.00930188416323523
0.20124587907998578
0.29497160908390846
0.10381574044301727
0.45967901198425276
0.17658499972125402
0.9753915639950272
0.14274761740079647
-0.3671051268434315
0.426001387088871
-0.13354772369643114
0.18780296562057028
-0.40828361959715004
-0.6813232924925409
0.8993044836041244
0.17743761553013696
-0.8722125628513195
0.3176779346613283
-0.1631170106972314
-0.04265838163673902
-0.5976493784690442
-0.5712038425491579
0.5732463682363577
-0.26765439576410904
0.0861762903827754
-0.2625990858745196
-0.29647881832093637
-0.2790287054121336
0.06797093083010125
-0.032887899246925825
-0.25321322962979675
-0.09619696162246719
-0.227880403425568
-0.3994437381135193
0.49046943353431083
-0.5682839207745473
0.2888910306546987
1.0577800170674647
0.4072671438430795
-0.6639113234521455
-0.9591298739114348
-0.5755005520171789
-0.6257464780092631
0.1587061200903795
-0.36012242832129554
0.1927843366871694
-0.33953277936174003
-0.09680952269032582
-0.128009066215429
0.5203448604836362
0.09161617232580509
0.427915727276668
-0.02166002082865691
-0.01210069037577846
0.4264516563444482
0.3346409299043733
0.4959204357555427
-0.48824127556938823
0.03157565221139744
-0.19340799340731835
0.446777043690935
0.5242079265986197
0.44351116124522205
-0.9056366409886518
-0.15725770951690224
0.29414393513215215
-0.43423675598539796
0.048377538776283036
0.14469113991005772
-0.14280995980088823
-0.14201053553226423
-0.2805677544141002
0.4345656083709526
-0.013970479757537272
-0.7686707059671414
-0.6923288272171852
-0.2947682293173745
-0.17455283637954275
0.5191592151200559
-0.5024832225562413
-0.8696697442809382
0.11506331123392337
-1.0875351378775473
-0.004936476834125042
-0.6345045179794994
0.050223919720701164
0.27597040767710823
0.16427227713553239
-0.3588872292809676
0.5804969865267811
-0.1706188820823172
-0.29250667938486735
0.4479474797798056
-0.21041076834372277
0.25366243997090226
0.06596717390551267
-0.8647927267055587
0.27921895896500926
-0.06181590643524265
0.9915518318343576
0.5548114733933008
-0.7374559496737267
-0.5383817803953781
-0.23402672131287647
-0.36327073049088665
0.3456250037630016
0.5406040658615828
0.31940365610431976
0.30687504031761476
-0.09995475257649208
-0.00014800972512755278
-0.4049297332012045
-0.3315665997678597
0.05318043877286534
-0.858388623478188
0.28228410296588674
-0.18587306391139366
-0.44123518512513626
-0.5426503900912159
0.291642810602495
0.29326800252029434
0.9149707819008656
0.4232216777415641
-0.10320683845286152
-0.561228783477793
-0.27081907567428065
0.20373512476450126
0.31562429366120215
-0.062472025997603806
1.1286424727463547
-0.49738735391714994
0.011695534836698274
-0.9483363249093845
0.8193315697057966
0.9590625100397019
0.0424267299345513
-0.31660997969421306
-0.6302255556150923
-0.295309788313469
-0.3656388410822551
0.05536679913454963
0.7238176750246008
-0.9610481458753376
-0.41690936253369804
-0.588203968752289
-1.3848931386083843
0.11878678206311173
0.3948373707541792
-0.08448899861454805
-0.011917529019919984
0.2121868011110755
0.00386663368751774
0.525378677962506
0.03789724562515367
-0.12370496691976812
0.4765076082657204
0.5581224434504596
0.7657626823042598
0.1062645470698453
0.7251806360718654
-0.07287848710393201
-0.43964657793270845
0.16079098731650132
0.11193093774205505
0.24632336351164466
0.18029154216970647
0.010535082299063154
0.7543244933843571
0.7612220760952152
0.04085748372380611
-0.1758332514193237
0.25368415392310784
0.5835111350508765
-0.5888087988353616
0.6171290014922303
-0.518555540751081
-0.007821000865120699
0.3013882017355893
0.060101577563841393
0.6600468157637663
-0.5328037660150726
0.10446848730245957
0.026427181508272276
0.5261232021042156
0.5708181017153852
0.2526329680847623
0.25314222863721597
-0.45563715715794356
0.4248552579962926
-0.2901660224605518
-0.7667496737407454
0.09855376680675369
-0.44570764960254017
-0.31134450464641833
0.048815351521442354
0.6547921754388134
0.015948387191301112
-1.0860498417411961
-0.1113421393609122
0.31560342196423524
0.6012521900051375
-1.2156548027837606
0.6324802574273408
-0.45974678498310634
0.32105615280081423
-0.1311217633075802
0.25812176821159105
0.9976704692820899
0.418991885875076
-0.007409459701367984
0.518867021367326
0.16836860668237752
-0.5824229491716199
0.17790263142643928
0.1090015691870515
0.0956330239391875
-0.31692359465333625
-0.6641211370902327
0.19000933377072693
-0.2591532104996834
0.15072517620492176
-0.05076494105114811
-0.7351782227593576
-1.3033392784864166
-0.28223867442939343
0.7084547818979879
0.1230011358236525
-0.668576395736961
-0.37651277002920347
-0.5634949053236714
-0.6426368313856932
0.8235212645962725
-0.008701634273914044
0.06634132703386733
-0.9170440454271174
-0.045827852841334255
-0.9556593334204753
0.6039585624117789
-0.24722316751466403
0.09188060959949729
0.36224112867455865
-0.45353711793946094
-0.4680556138494153
-0.8631006969202715
0.3292628686394195
0.00941876613912893
0.20869149238004905
0.4002717143154314
0.5802693476743568
0.2397127806564511
-0.8317085616708735
-0.09642664757792002
-0.10853716473280697
-0.7909811595767766
0.9759561882477599
0.12218943728284216
0.7150939438463838
0.2636268217966062
0.36221853282490585
0.4603359725939033
-0.16106298651741566
-0.7995194284468284
-0.3564209845701634
-0.6228724595273137
-0.06325265955495332
0.9683187863521346
0.13847823002718063
0.7430345840344877
-0.4853704055897646
0.3928887222275387
0.48082537849473683
-0.852559631869063
0.7437306091713672
-0.4750905802670901
-0.3848178513314771
0.2928080829906474
0.6966079098732129
0.06459726100882313
0.07611653556510678
0.6781400095972344
0.9305792217708074
0.376285918276518
-0.045361718030765615
0.12202196259906602
-0.27080524476368056
-0.051363064747535436
0.6006712814631955
-0.17905040505112402
0.8123135571802826
0.11430681476759018
-0.39936477332777787
0.39793583771036345
0.24277505913405784
-0.6286767846260229
-1.1222772842213047
0.8607945104498703
0.3816628966828495
-0.6216067264484025
-0.2871060870624489
-0.5251638430106379
0.31645444761157304
-0.07031684708537944
-0.27890847362628357
-0.22274034157404846
0.1643073820987144
0.19188881949506992
-0.006546745285748362
-0.177667330596686
0.13725033527584318
0.6599109266074953
-0.544922074339072
0.39939004833030656
0.35509011324979256
-0.351190186294587
-0.14788809311551016
-0.2845448200957283
-0.14130545346285547
0.2809710805037613
0.22440940482167865
-0.39731315203510725
0.523580592056731
0.140162104640897
-0.5875683565895505
0.4335618168531578
0.20347494907617236
0.07488367637098396
-0.18167140177531116
-0.08134981777777037
0.33522551071673945
0.41503071883346765
-0.05131569224091397
-0.27094573536190614
0.48410153466421957
-1.0333442933151522
0.6946782378935827
0.0828913120863268
0.20878978677101845
-0.09285790232055606
0.8036492473603365
0.4718157063209139
0.618561763281907
-0.1935132915239708
0.2399839202296553
-0.0035663060201960306
-0.36312547277872076
0.24344799692065325
0.5996910457635143
0.17254500342178952
-0.4910750040067419
-0.2528591501060672
0.08093465094948571
0.48761763753148474
-0.0036589255487794858
0.10840566612453865
-0.1003410763021103
0.3967189947945536
0.6998931787459054
0.06263969289997286
0.6304043747449315
-0.3019921150609399
0.13142094689102252
0.42522961394625963
-0.06540144459876954
-0.0405285359566585
0.14759112864617402
-0.5264303346051769
0.19512557075325623
-0.10340671663968425
-0.4463793511828217
-0.7657582879704918
0.16476035759448063
-0.567944644096305
-0.47413823189668486
0.46924479391422647
0.011270588745987539
0.47524775761342575
0.20472048549387634
0.2684197068776786
0.32465486106908686
-0.25597456467467533
-1.1115561338254718
0.1483680350337877
-0.13556044770823392
0.5819007625442456
-0.014803631521470446
-0.7871693568837702
-0.42930924011547267
-0.19137342549386396
-0.6480955129555096
0.5410161503968659
0.6109280973009524
0.4922847944736214
0.018870169187833487
0.3072954216425505
0.08543837363197593
0.20156095839771732
0.0460656791856357
0.17262903404757812
-0.15846025305707556
0.07207058469235776
0.44821901624577776
-0.37145767014452075
-0.8352460046713699
-0.17088265669959748
-0.4273044566147015
-0.08003037754309797
-0.4819264268205061
-0.10363323791508808
0.09528567616909273
0.12865774652196568
-0.8512725565433786
0.5259186837251217
-0.4243305382935713
0.340485184495199
1.1964212697111067
-0.4380704553007079
1.0595959784965052
-1.8045629350861458
-0.15202293013541554
-0.10790700147321201
-0.05388810865362091
0.46143852661955476
1.587081878807097
0.9171685896529893
0.029969573998605982
0.6168360434327934
-0.4016835360701584
-0.6970645157225052
0.8276237273572563
0.31200509715025526
-0.5198197182019347
-0.042993413126626676
0.41571840265315463
0.8674641308710763
1.379190636370468
0.043244802156533715
0.15329922853208514
0.6133100158249977
-0.8177123204632684
0.3720463639934222
0.08290334071125546
0.06160175268479747
-0.31530655550820413
0.5782229416321506
-0.2496659471797867
0.2754262813907081
-0.09017767688887099
-0.2525231511587128
1.1120562742283326
0.13851378828989644
0.38366026841288137
-0.04029980299152709
0.7253094188898883
0.1968582857216063
0.1962146102556066
0.12268761602856804
0.054421638426399736
0.12037033583250699
-0.3899223524593646
0.288703043041723
-0.3008420962138282
-0.18518787517719615
0.04842187348146074
-0.7671504669684651
0.29436597576809187
0.09422732148814691
-0.32623743497470914
-1.4278606723758276
-0.6418301992973682
0.6718622597892162
-0.7134761846070939
-0.46379752796931023
-0.4974314829310369
-0.42368135398189183
-0.4868061176921178
0.8577585511374184
-0.6517993504500043
-0.15350966231738264
0.40630471100097826
0.879632206548728
0.3983914715238187
-0.6415737193789608
-0.7134761251399884
-0.5837596931804416
-0.4874948413700927
-0.1437280571713614
-0.332332496607027
0.076552312135824
0.40584947170741864
0.3695785164658402
0.12160487419239772
0.4470056664191874
0.31444533985168666
-0.18548634204970094
0.09779658556919907
-0.402871092836473
-0.2760549270281008
0.6912176254885213
-0.3898441248692067
-0.9417129425869748
0.33672469841089187
0.22295777476433393
0.2531888062144543
0.45081401080421085
0.14444094690106685
0.5521073781797367
-0.22596592283694386
0.46783701762665053
0.7266432739378068
-0.061875141392581684
-0.10009323868638738
0.4156048908367692
0.6615944972723163
-0.13159992136599039
-0.8581268982536759
0.4252851339124238
0.1942787646464203
0.4539204281709648
-0.23876629992822918
-0.40205815923256405
-0.24851515721308293
0.22822686758736
-0.09579167381557709
0.3696409091633326
0.8737535799335118
-0.5825320404545897
0.18011349737176605
-0.4344705311318659
0.0659500015105051
-0.25743147886087225
-0.13076119422882765
0.05912420675070263
-0.4468498677339421
0.0830445654051449
0.09147851546347346
0.3140052137468117
-0.020990607054746244
0.46015421705233905
-0.2680846417825878
0.4700488117091337
-0.08496138135830772
-0.017712860318157754
-0.18476196063562358
-0.215234056733989
-0.07819345855855435
0.22714178461301177
-0.13114417711157866
0.1693722587138202
0.37073267429741275
0.6395734662509521
0.5561382251822458
0.05062353092181633
-0.2698825391623156
-0.30914589900701
-0.08071622132485783
0.23999869232067925
0.42410767512041564
-0.31621592865371756
0.8571613687818385
-0.13264466223239016
-0.4933523185232072
0.10701410591887286
0.567715696494106
-0.5013908205906551
0.018077684164748968
-0.1791247361767846
-0.2764407772033449
-0.2117801342271894
0.4347571805573712
0.36164035511728937
-0.797852826321519
-0.04382462917053445
0.9504601847866652
-0.3806666734712069
0.3768913521331604
0.4235292895155235
0.36542073326612734
-0.17162308302242849
-0.6052480241055261
-0.45353648423077136
0.5991813004939619
0.33310376207673564
-0.2310146562919753
0.5232649395687116
-0.4631648502465378
-0.2798964969020003
0.3481477613459665
-0.45944001363899106
-0.026936769595887634
-0.479759263890895
0.37400592315328063
0.6105614761456882
0.9386750524202219
-0.6049983822032478
0.23911918502715002
-0.20160720069946206
-0.12428163379980543
0.42831671943140914
0.532683675921556
-0.41812292913230376
0.6724823878758792
-0.04412707667400107
0.14687157188912237
0.11238276617500462
-0.33398764734052694
0.12273032473100212
0.2136492211889754
-0.6055530742869527
0.01863033203686518
-0.17108735918430024
0.006425164452851274
0.38942567991552995
0.38038172352249316
-0.5017906332022875
0.4623243835885806
-0.6404768053011588
0.6550866931469836
-0.028352283471416398
-0.3199124190220094
0.0116568597160639
0.641782309962379
-0.9969548686661174
-0.019493365294209374
0.15932571046898986
-0.03239800200402565
-0.12171897655352709
-0.30061353644236255
0.16765626328070551
-0.35174839542862
0.12282487333513001
0.45881968043507937
1.0202908009198917
0.8051840884686579
-0.05893228160985477
0.9797342685882977
1.0860144024566634
-0.5149916411564183
0.9202484623838089
-0.21834813937139733
0.390906219064257
0.17629359757773916
-0.49857283859927654
0.022951283907012145
0.4828409814988768
-0.23889341350330517
-0.20127054549156892
-0.28704527209688147
0.07541812866214508
-0.595840350853502
0.33961675397588265
0.22047382789300232
-0.4622232779705454
1.0040879979217916
0.20402645953596849
-1.171966062630695
0.3883908774088574
-0.18423449693077795
0.611851168435457
-0.21886153054314014
0.08160929727654567
-1.0874699908585306
0.38367341488979173
0.25267306682326796
0.4978437320180281
1.129417633614688
-0.4136172108647214
-0.06804993279287924
-1.0455925159771557
-0.24317177055555644
-0.38523627958439444
-0.24868652723189616
0.7753751796027761
0.014955545382414824
0.3524732042986669
-0.02085915756866863
0.27991342539157976
0.7364173573543606
-0.7102240267807028
-0.21810220700666197
0.7530999336901578
-0.3305964617734375
0.3163017059731482
-0.45963666882765314
-0.19042070995290494
0.4848565397035179
0.5313069154649371
0.40739776754329765
0.23149845151453485
0.042539575075803845
-0.1002179324378769
-0.09253860235984426
-0.7983238987323649
-0.024260536774998693
1.550304611833082
-0.33043544655217766
-0.2789676867687876
0.0694249137406224
-0.6434975666001758
0.2391954572392527
-0.04418018656034184
0.05638368475934187
-0.19751995666373123
1.051801274671586
0.3660298692372063
-0.4117041042531799
0.4704155839635828
1.2274547755792768
-0.28526444850840377
0.040669193914103494
-0.3300361537210429
-0.1333779674032361
0.44521944112529294
-0.09831885665074422
-0.08994598004166637
-0.15400634031477103
-0.06942361867580826
-0.1223053237883287
-0.1889632584594965
-0.021713900059485484
0.3238101416139588
-0.2423003193144163
-0.3454688878410018
-0.52304063278402
-0.019594965179289117
0.37350198031824927
0.0979019852051088
-0.44073273969795
-1.0683019241813563
0.08014257189035874
0.0432602730111579
-0.32857865531624436
-0.07062906874575786
0.3497311352154004
0.5192542467734057
-1.1034530936712357
0.24346955483011912
0.4306681729597086
0.36568453664782014
1.0829921403581442
0.25732028557702796
0.4840706772766379
-0.6463638243406132
-0.32830690800336076
0.32383485526946193
0.0911381509019371
0.6083747697414624
0.7114522797363473
0.567979516638864
0.39533878411253126
-0.006132221610120388
-0.7432545574381612
-0.6308943422681395
-0.24437522358334893
1.056619010716963
-0.20076956744608868
0.054229946973167395
-0.08245125364117066
0.09364658012477611
0.866904793457954
-0.20169036081544883
0.227516093024402
0.3558095198661057
-0.517714421571464
-0.422842759870141
-0.05584432549498791
0.7074765920312907
-0.4967118685759343
0.36197391487521613
0.0051222261266789144
-0.8437389489840268
-0.2625076155028741
-0.4017838984227971
-0.075529999743658
-0.04964031691940323
-0.5952440710826712
0.6208846353480305
-0.1811690825638587
-0.793094630047674
0.08895794221926917
-0.5834000011161375
-0.4716295772914032
0.35073158670999793
0.8446577891200623
-0.5744960916567671
0.6038512671168721
-0.33341120231771376
0.5432930960587435
0.15217334547531827
-0.6710926853679791
-0.2658676496172223
-0.08079300326401516
-0.21532903034671874
0.6726732774137804
-0.5752646769469729
-0.3262970209434454
0.26213509966152565
-0.8842599730357757
1.1069289568844265
-0.20432628778812514
-0.706641769032845
-0.15536530086444902
-0.037451132042919
-0.2741641207462931
-0.3228277789686711
-0.16497643350271915
0.6561587097056176
-0.8798573400619504
0.259942114131391
-0.3733974014670073
-0.3416291839735831
0.048454201244055896
0.062200930034411926
-0.7405963703466953
-0.6417223260251195
0.630016277091694
0.2900210352106998
0.13312017385422253
0.758546392928945
-0.23432825189832046
-0.010859437614661935
-0.01477293110706615
-0.7352591951265103
0.593706379912607
0.7790622469831774
-0.036744596217421245
0.14093937946128235
0.39680735469208567
-0.8086270907463458
0.6694403252711141
0.7839717014043902
0.05726616500705765
-0.8241245172247091
0.339312082937136
-0.2513312870018736
0.11483775774697418
0.28627640138440774
0.07422203244359857
-0.8254492472254323
-0.6641097429408173
0.6389017167639478
1.3549650726736906
0.4148157644848452
-0.09103188224618063
0.13831469954494477
0.06016870169821836
1.0809021032821087
0.43669427593507154
0.1839695411866582
0.0481399002836736
-0.44015434972074624
-0.7233785636797957
0.1055197663972143
0.6027801717201589
0.08184944512580317
0.675549046106974
-0.583241193067408
-0.7220781661821879
0.7236879946370056
-0.819587731643864
-0.7061379416294116
0.026092711502085794
0.6821968062363958
0.14822318886386382
0.29822274216523403
0.20587960064797997
0.7510146404727905
0.3600041087671238
-0.1904890692096052
-0.7663139815459974
-0.10547984287432485
0.0469427165023989
-0.590204062470349
0.21492890979501417
-0.8123284518844902
0.17720994079625088
-0.3895834482622836
-0.24128677296632292
-0.572600237340878
0.14410108500867305
0.037576410264232765
0.0722043097645227
-0.12222660608025518
0.3292573446340988
0.4024997221059537
0.9131320867972818
0.4683672675885776
-0.38951658262310485
-0.7323753247752505
0.24522600329445987
-0.8823797243803005
0.35866057407123025
0.8481353472299954
-1.2270068353189973
0.7711057151200268
0.002535720975190207
-0.29121685914564255
0.054809320662148955
0.0015114787682518546
-0.4452653400988291
-0.7214295785195592
-0.695718300787326
0.012679234189003812
-0.9195678179112814
-1.1066486629391576
-0.16112864547164227
0.09369296860324568
-0.08468357747201935
0.0718251546373244
0.46629065004182957
0.4610065595949794
0.3036109280119617
0.5168078850238449
0.011311687134717618
0.2519615272691162
0.5409155979613929
-1.1079598432016866
-0.8881357373506508
0.5747321359754181
0.2380338688420615
0.150747294788657
-0.2349346718051206
0.7332726841415287
-0.40305476164931514
0.5826964288423577
0.42667329630323564
0.09243174125491349
-0.25280358122716257
-0.33381132945586744
0.07978430982090065
-0.31367607359827704
-0.1830482035807734
0.06901829780423635
-0.25072863192834477
0.7100624630187572
0.23158227152854308
-0.22918000456806706
0.18407811831758508
0.40868159608418336
-0.7134003977300062
-0.6709114540699725
0.311344796123719
0.7187782976019864
0.25981415979339023
0.38635251459661196
-0.31703096039108586
0.2530756556686247
0.23804463265098022
0.43207112204989506
-0.5913036999904223
1.009125221648554
0.3549441450000107
-0.6980126608102392
-0.8028396644063867
-0.47476564581445907
-0.11365886422397627
0.591314158222989
-0.928879973194956
-0.1768851723030417
0.5148328046179967
0.8518826772171144
0.5319477784047058
0.5789302409817942
0.23663096632756908
0.7970913884369472
-0.2967451345739885
0.38322599021152604
0.8747307420004458
-0.3260746737341497
0.12747040906291987
-0.2215232242841516
1.3890009219498702
-0.33603756378742294
-0.09790252485044926
-0.4431168831160131
0.010572768814468225
-0.40599871493896544
0.19110283522104116
0.5724825238694741
0.35074594824897365
0.01697405966672241
-0.5800352892058759
0.5996843055636444
0.7303868063284122
0.1483472737351485
-0.152748976459085
0.7059400352520352
-0.2529858477981954
-0.5256353829676437
0.5321210261199932
-0.18025522599322377
-0.07599855545797858
0.41330478244495267
-0.1679471841927711
0.7565715860309402
0.09779800732095198
-0.608201303225229
-0.5289690181879666
0.40841479253960444
-0.7761673219957819
0.04986597899019059
-0.10166000088496568
-0.05556209694583345
0.18894936771043053
-0.00875512938147473
-0.5924765706052451
0.3964973766211414
0.8991078556076555
0.006439987393196199
1.1965209281545812
0.0667804429423163
-0.14529847398231518
-0.01718319853641472
-0.2830544582522956
-0.6959007182885172
-0.8014249376340327
0.26347056744485337
0.4286229714669276
0.016226798092521037
-1.176041850702023
0.17889670893001625
-0.4367308726812214
-0.3723869030437283
0.161476912626269
0.5817608628298393
0.028307217679958023
0.1393574566931983
0.6575354342086759
-0.2900720606897929
0.07121161524258166
0.4894824226082339
0.09004745501776718
0.5044240266572511
-0.012303444262887127
-0.5297575503577087
0.19270205608855917
-0.0020706103438018243
1.1942507184543147
-0.4083473899918084
-0.48789253963877094
-0.20322121814987745
-0.15062509795742743
0.4484625617036479
-0.13563126171108275
-0.6575077655122167
-1.2632118063318938
0.19554790311819967
-0.05375448352787189
0.8872155782288902
-0.4470105201980219
0.21167034117761055
-0.3396239704168949
-0.23559904130022002
-0.45084197839824813
-0.14191279987191596
0.8225993584851227
-0.4073061876155738
0.07507168446689579
-0.15856193824359605
-0.7666070380183911
0.24964606790278987
-0.0315312405528372
-0.2032953937782639
0.31460816290966087
-0.4614878630105344
-0.5636716241047981
-0.24495304393135667
-0.7885388264364078
0.9038016149865924
0.50262764656303
0.3814537585630208
-0.4408724097142984
0.4939497789557848
-0.4772820113646623
-0.13972771339353665
-0.042871572158920304
-0.2197247820989397
0.4998851304812065
-0.6292119606261276
0.28878196976815
-0.9392089463299604
0.6330459550965569
0.7941097000171228
0.0627530286069449
0.8819454229361863
0.4413173144761505
0.2972273620440038
-0.17148113287813205
0.78580792192448
-0.09692058672081694
1.0611058530208937
-0.3536071321722265
-0.6044200010492571
-0.5568505474178072
-0.6180085292452697
-0.1943515252443954
0.11449468986120791
-0.5112829413989932
0.5468719583620416
0.26934078543640827
0.65596895999131
-0.39701068140065315
-0.32128819863721525
0.30451567857064793
0.1578333386948768
-0.1992389001034853
0.16147939312401252
0.10443424229925836
-0.6389931362022552
0.7909880376218262
-0.3663113480353511
-0.3152762886152652
-0.4588667110731413
0.3523161050193924
0.26790083411455673
0.08003304745721172
0.19456458652674932
1.0188999334553623
-0.035126317226719966
0.5151683129010031
-0.13513967824145812
-0.4966448972249552
0.19915826054666108
0.10931452372834251
-1.4803571871466499
-0.6550680315200974
0.4091277135721693
-0.8099047941122397
0.08220008375003182
-0.5792388406032437
0.12749250677479504
-0.13001881844360424
0.35888201072706
0.4142002303094083
0.026260712527208997
-0.39205893251881163
0.5114206220738146
-0.0970300544473697
0.3578641447987695
0.6831028708263998
-0.4254793657671069
-0.8019459645827783
0.28443488207620965
-0.6209923832363962
1.3401049315579319
0.2148113524027823
-0.30261486739615145
-0.29672489504381966
-0.6301037313093227
-0.531146675554745
-0.6345050530577776
-0.3998784784654232
-0.6646920179755337
0.7072731281437844
0.5577290244340751
0.4145642448706114
0.1327078793576975
0.17637067009000795
1.9597371746732621
0.1792156489371036
0.13986070075501553
0.4260233846452684
-0.9225583181821085
0.6399084483274189
0.3608237880009372
-0.07684192328750308
-0.5349134945489362
-0.6552691483033217
0.2688411613797362
0.2418557978969166
0.3128373426601917
0.020603882193014914
0.010130763287338154
0.20048182525074346
-0.5137044401241063
-0.9733261621391737
-0.20470029648770754
0.47008831488591263
-0.09632015270823424
-0.046785800847112036
0.44326682011382196
0.2918272725476732
0.46194123553658767
0.18959359889345792
-0.4060773308615986
-0.2177492043069474
0.27230832236906244
0.8428120719812934
-0.5202951186072169
0.664263137051186
0.5772583622216977
0.5779707607690964
-1.1309711931668545
0.03114012486713854
-0.2827643194909386
-0.2808059644644846
0.7469512534186016
-0.11647111849520857
0.0609851487545683
-0.0203237493688406
0.3001019623934155
0.8448211523177147
-0.3616971478871016
0.6197705890525262
0.18095910067943227
0.7077956062684171
0.259864452311086
-0.2570978939691776
-0.514189645452031
-0.4261389807364622
-0.10084126880867103
0.9166347441455366
0.12823892943181664
-0.7903036795997967
0.9309858492458636
0.4088246992043655
-0.09966336085158525
-0.1857029920607045
-0.43617467241393165
0.11031116521175836
-0.24255286165295434
0.045408482333833905
-1.4852364187372478
0.38056948763819437
-0.43078309694214334
-0.46215432584229627
-1.1763386851791322
-0.03062761030408296
-1.5456734460606967
-0.06820284622266307
0.223017585540261
0.24455877758845698
-0.16089341328808276
-0.13906959343792466
0.7022502095520519
-0.5719926222082572
-0.6843531776176515
-0.6484034137024396
0.22118223750345392
-0.35069436784348673
-0.6327109971029014
0.022316826272074288
-0.42035860144813886
0.3206402457329085
-0.9236503206070996
-0.3053343997440823
-0.3231426375256152
0.313442067439155
-0.40270393099067053
0.5637519212651713
-0.2042627020637286
0.5524486653265633
0.2191458153918246
0.9287924365627824
-0.7603233436978813
0.2226400923940667
0.3489210143806468
0.2755510934821932
-0.28628125026767487
-0.844976895399876
-0.09138568252679174
0.4428055876009923
0.5306561879667886
-0.22364462128023826
0.24677706877087077
-0.5190343933576773
-0.5523162634059552
0.030866306981922213
-0.24367685803489725
-0.47060847984819865
0.1124322485585176
0.2535140223753209
-0.5710976782618996
0.3673476493369031
-0.3785771161163355
-0.680696622042579
-0.5537774749844542
0.1217541932556182
-0.30115886687749516
0.4986763210676272
-0.4214165602501671
0.15355352874226616
0.5499636777601221
-0.13718680122877175
-0.2938792042874542
-0.2698145543853031
-0.32824859533145334
-0.22894155795825052
-0.45434469625992463
0.3024161426205432
0.2247745502933962
0.12461580943281694
-0.2976438439161197
0.3227523527056535
0.28423478183606266
0.6075172831572075
0.7065411677986333
0.004086691056230953
0.2566322710397324
-0.08706520113983149
0.06400885109351771
0.0696945723889195
-0.6270505010025055
-0.13702710310879046
0.2640572831008337
-0.3902228843354088
0.5704753931911017
0.5301049673142766
0.24964884711979707
0.8566144093230864
-0.880702125415236
-0.023118371409929766
-0.11639374723310487
1.1148394152129033
0.13818438946863776
-0.47420777903018696
-0.2516894855381247
0.3573268541350154
0.025427631551744365
0.029845957288814822
-0.3936459567017561
-0.09457049341377803
1.0394726549394115
-0.3434096111197804
-0.8500533820591666
0.2704318885086968
-0.43000047472291975
0.17355807746664986
-0.056821233837336865
0.4991762172618653
-0.3437780339520064
-0.46957880674282315
0.4037075955381437
0.2582655087132557
-0.9281745194595286
-0.3034386087160367
0.25517230799943336
-0.9573395288538687
0.4930062061394843
0.2936320710215328
0.4501197384674641
0.28550391962051563
0.5226610868143122
-0.3869846528547515
0.7310894654762111
0.574677251314534
-0.2058121282977341
0.8147355153253495
-0.36238093073413985
-0.10666536918433576
-0.15956407700716868
0.19217526167543417
0.3875178473457992
-0.7749477144395986
-0.3192372745117519
0.15333489213797544
0.411297041050498
0.33878265234257227
0.4233985254114265
0.6511215409268454
-0.7970891105127333
-0.17810446902046684
-0.07888499662967566
0.07769097586856408
0.5838712439231812
-0.7939892546319957
0.0030907667392534957
0.15092307115083178
-0.31179361938605105
0.4664931275464469
0.45304239676362623
0.03654762881161969
-0.168552516652152
0.04501446997118033
-0.6199971727177617
0.10101283317687779
0.3424809468913391
-1.2684796215155105
-0.32590794342752333
-0.6912653926940467
-0.2894882685652796
-0.7739183180867794
-0.4360313160772465
0.08185617504543549
-0.5624386038094041
-0.39176692208158514
-0.2868585467518424
0.015631276684572874
-0.29461332648366234
0.28804225752008705
-0.141453726801396
-0.3747076064571469
-0.3585637077065902
-0.008158004106221072
0.27441924883305074
-0.07164102487636125
0.650201778074044
0.04400126490206901
-0.549783857354901
0.4214034824937622
0.370059013167159
0.04751739018716347
-0.27617245347353336
0.3886426718749845
-0.0584491766261664
-0.12770741077384629
0.9247281339401603
-0.35246691413520537
-0.12642754893096755
0.4158923281585064
-0.16824792520934478
0.04363346240996833
0.08633921743566568
-0.1314476650393303
-0.04338686166173523
-0.44889815542499345
-0.23904798444826686
-0.18392875232922154
-0.5000508343189061
0.13096681948370345
-0.7025151646019985
-0.15006230565763573
0.17851549777891407
-0.36226557531374687
-0.9404129981311561
0.6802316049422847
-0.03468598847947957
-0.2786200790592868
0.9808538986112217
0.528112626045102
0.15748865875597018
-0.25352669262835836
0.5406061001305325
0.19345274209642604
-0.603717837490314
0.3602661731264845
-0.2603832111221446
0.1990335679410583
-0.2521691785377645
0.6845409640373806
-0.4626162313838866
-0.02095880618155279
0.04297397588128328
-0.12369294982851092
0.09184957067524724
-0.4664684346606857
-0.334881523013428
0.48632947789542064
-0.04990072008962821
0.2649676117516429
0.30971208447859994
0.47905107607392794
-0.595367075059731
0.31977451509779353
0.6133101312192951
0.5529766299210086
0.12547654128253227
-0.31827143670888475
0.18264991667048167
0.22676830832092823
0.27610412777331733
-0.9486531630897621
0.5273714152948323
-0.1871554666951452
0.2744361227527648
-0.5199312715589449
0.48143436509638754
0.4679347366898321
-0.6734795690474639
0.27371402946196816
-0.2221290801685856
-0.1757440411574001
-0.8780696961182692
-0.46453213827244083
-1.1238519676054037
0.2218417569438453
0.35796800044934424
-0.24797295965397514
-0.12264043879354676
1.0684871426448062
-0.4444930125210094
1.162777563069918
-0.6619422993635558
0.6130141918403507
-0.21990359955791922
0.3585209000791064
-0.2780896472238242
0.03886814948044835
0.335871516018443
0.1321713196542972
0.38939372471337796
-0.3820872401808259
-0.3940597849667184
0.12744517840597305
0.1890797201288038
0.564346106501225
-0.6095066110507903
0.7437369874842835
-0.6141153598043753
0.5442833747775973
0.5894572127126235
0.662153732974132
0.37288154713023375
0.799101732071864
0.6868075301161992
0.19136203978515834
0.1331744710108177
-0.2505625659695503
0.8124702076404693
0.5356487566660944
0.40796037071917485
-0.5090881654030768
0.3415277179395801
-0.6288428517066591
-0.11795713145154381
-0.13902841211941058
0.6016356634325652
-0.8435273604570098
0.22130499343835586
-0.3525993136451562
-0.15965714410896326
-0.2121599733820006
0.7856155387209464
0.3178735589010694
-0.7058427268286926
0.14550706897078938
0.39707974575210797
-0.7052846020053336
-0.11322819474816094
-0.35619802488840024
0.14014612027681062
-0.1388839213847191
0.6196302366748685
-0.09587512055182161
-0.02129246119873194
-0.9809566267130745
-0.3037501804902234
0.04056929369146948
0.33064991641937314
-0.14701822362325842
-0.6238543992329467
1.0770899102003402
0.11691692482705056
-0.06476594867452326
0.36637804365973264
0.061283492173588645
0.4394569743569342
-0.48354295751624543
-0.7549031792902877
0.5182986644590587
-0.756535714415609
-0.794295878911653
-0.25304719773836626
0.35197246324264175
0.5865053818990396
-0.29637035425465563
-0.21947166566372805
0.09446862471777753
0.1996665968670545
0.5072071777517072
-1.3990827711698193
-0.8944547384926586
0.2584288767823163
0.18963996700778804
0.056288471275485114
-0.3302230494795479
-0.15515276457228422
-0.0027836123928143153
-0.07216512757910265
0.023702349483130353
-0.19002714211637556
0.38749806890283506
0.5402288900743077
-0.6210340780699173
-0.5817008660073852
-0.5341197784835665
-0.3637534816439004
0.6714907107378336
0.7861060299007587
0.20184626068911046
-0.17181992195937953
1.2085454291431634
0.2139285651853763
0.20407316690599225
0.4164369053533678
0.2485487773198044
0.40456460147352963
-0.9066847013740689
0.003941720171659719
-0.018066392575262456
-0.17894073690108167
-0.5025500283644352
-0.14401066140698898
0.7932148942873389
-0.14729471291536086
0.4918118897529071
0.17948178262526784
-0.3585782709516935
0.47244831486755595
-0.3201999946836819
0.4216418166566583
-0.2667200671261876
0.2947865006787249
-0.05546146613068577
0.27357370814090176
0.46363109306500494
0.034361686088750495
-0.3252069954808127
-0.5271411238274782
0.09981128895591014
-0.6494099041963255
-0.5220094328894263
1.2611405023081623
0.23728362577705794
0.21848044600487274
-0.3519013405786489
-0.25895987207762056
1.1083195129778511
-0.2904099604123964
0.33447234227637157
-0.37257240850558254
0.09315364361977768
0.09554841445213659
1.0157922973871467
-0.4191992319708659
0.8797800180886968
-0.8726521312246663
0.027446330103541323
0.7025834313289478
-0.8192107223419943
0.1595023764234784
0.10144835864994417
-0.4397177877029325
0.18062993848126999
-0.60005290832231
0.3060362960133278
0.7370382483663509
-0.01340294151865198
-0.6475756102231369
-0.5919575330046615
-0.19315818045579103
0.11965938395206792
0.09282054112754086
-0.7447189982179311
-0.13032332530157265
0.22307949340974625
-0.3003127808077372
0.021830750627943096
-0.8681917448200493
0.26187745832550907
0.15090382950800738
0.29664851020587857
-0.43899757687094837
0.23635013590816165
0.19463585953423126
-0.7271484290944994
-0.8684813096264322
0.5995690616668424
-0.37916031175647746
-0.5960351658194546
-0.3471371189981454
-0.19433310442770282
0.22576235608710785
0.7317862429562694
-0.6302811226064523
-0.3916663081180634
-0.3942515078453651
0.19107318748712357
0.10101326149997908
-0.14866586895396128
-0.543893036866667
0.00424455012458603
-0.5430270827592175
-0.5542079236523866
-0.14728372982187565
-0.32231661648141313
-1.0678156609303007
0.7171646998907196
-0.36002238388758073
0.32057886865950186
-0.15549709636308212
0.2994716499619624
-0.08217105207015937
0.3800657701319683
0.4089341704857381
0.12607998786161848
0.063186521081598
-0.8665780982979067
-0.42100862242759246
0.1459679174254578
0.1689802688364549
0.3806523441233743
-0.2438779792359138
0.0364661203231382
-0.19916873681336145
-0.3795172899880614
-0.16122267653863806
-0.28864597082718463
-0.11550866420968162
0.521379609854698
0.18161036373350062
-0.34785077260130726
-0.13139892626468466
0.0631518781324217
0.8683974237316388
-0.4953585899391106
-0.49871863304182706
0.5568897558683615
-0.6403966724606162
-0.04744170433576031
-0.3220361776995599
-0.3310854390926821
-0.16655900110935118
0.41761562167580046
0.7662549021335905
0.585379899771492
0.7259290278463439
0.6017990283910125
0.7084583588895944
-0.02610957419141182
0.016516537675034748
-0.6036028430495989
0.5784192467833414
0.014674895745495308
0.7621585206755457
-0.6860243134667243
-0.9237375006856604
1.030995752879199
-0.8779888304476187
0.12642014791352713
-0.2846636939958221
0.6483030389459515
0.21372428577210012
0.4990228008172713
0.7253615626040326
-0.522091861233357
0.3016539648734622
-0.6011083014845012
0.15391478681233933
-0.38772271104399286
-1.2073150775680233
-0.13889794276316925
-0.709193140927095
0.46787923723512154
0.8242217752929184
-0.07533120546850366
-0.8789933148515271
-0.5751844785248694
0.0889858552336169
-0.6083098685181805
0.329336783337793
0.3480531117130206
-0.3852589481892763
-0.15140550229584693
0.4044279780229129
0.04428820619399948
-0.7720579054151268
-0.29819006626251476
-0.1460080988284973
0.2388090323833557
-1.0694261671904883
-0.32624913382281356
0.35518470842253436
0.2309319974631895
-0.41784916393693733
-0.3737649483201668
-0.541226776228197
0.0029272327895362004
-0.09956450004746516
-0.9005708403902551
-0.9351538030343994
-0.49026024785760686
0.3732619725459313
-0.4329139439867018
-0.34764426247932156
-0.10874772798046409
0.6949562267893586
-0.16311669606618054
-0.20626490142458312
-0.12738036203540232
-0.5967003505970961
-0.11747766098667577
0.24745821963067
-0.1607785713521384
-0.1268490347677834
0.5551072539648625
-0.9208369351786699
-0.49249980695454065
0.35006229070604516
0.3822768098906721
-0.2406097356134974
-0.4692966699304696
-0.14700246764810038
0.0895734645528041
0.030554028279557364
0.5002203023988561
0.17914160111562677
-0.8943677856395984
-0.09419459132179228
0.7420546242970062
0.4708550809780248
0.8056364644414769
-0.5911475737773707
0.2850932895098024
-0.16358956195818522
-0.24409370295512686
-0.034986765691726984
0.028842732584840713
0.21195382083193473
0.24198456170113053
0.6317274956764564
0.5654309475167927
0.0800831213985552
-0.043857633595984616
0.42108783090219815
-0.16737875600954363
-0.6546183046094461
-0.458412450412616
0.08373322651344105
-0.023800653279372867
-0.8415760844329401
-0.546381280788558
-0.05145046265585241
0.11447511192345533
0.2564568015665674
-0.8669593271690913
0.7450430381114581
0.9530309394556584
0.5276619298250721
-0.2211063478877827
-0.19069036895024358
0.11795360243977317
-0.3741127601802476
-0.65461137531415
-0.4545947195847757
-0.06009304190550795
-0.33922425412378093
-1.0182070183719552
0.01966432978530005
0.7939426492089134
0.3808187716471207
-0.15773348322300407
-0.48323248080753634
-0.17457225652376443
0.26020145761005115
0.0011370105807502803
0.3085572289747263
-0.015105269430312875
-0.370261343249729
-0.5543939374771703
-0.2682992768884508
0.7176565718677207
-0.34769427399191877
-0.2005102955975896
-0.3097028654615963
-0.19128351529486745
-1.003287123176787
0.03499734272416685
0.02900949788586358
-0.5517963937230969
0.41876794242527143
-0.0751673276101328
0.507976490289221
-0.2830763836444495
0.03562517579382675
-1.0963537674301074
0.27037890948327303
0.35059975115646835
0.07422320323770776
-0.27105740361440234
0.215199024074068
0.6372254931794028
-0.7101171526705096
0.296814365070739
0.8685913719279134
-0.02110187124769998
-0.6807185564379882
0.12432477980044518
0.33222467518092613
-1.0954603636333582
0.4344375659921458
0.016186226813754537
-0.5364498303312925
-0.30892606590801364
-1.072237183572239
0.11081905764464668
0.41071295525664914
1.1655124334543538
0.5491434607183681
-0.3040435852822711
0.6993532805574834
0.022649073098107424
-0.2489563904910517
0.2597240076484754
-0.055997320692692316
-0.9751491237758019
-0.9571354870525289
-0.20462260513510103
0.12489126058357561
-0.23988784707856284
-0.528923188245781
0.04483276175635664
-0.17926553908485635
0.2789721338026028
-0.5112098141380876
0.08433358568508134
0.5100028564162774
0.3170908544480918
0.05064385226347671
0.10202785964641933
-0.24630500101794459
-0.29594703663315347
0.24502085049037373
0.593514327092352
0.16438306343417833
-0.40036214966255307
0.6510870057975943
-0.26223463881843323
-0.11335029048697028
-0.31474767932200226
-0.4002269179579268
0.09799128385622524
-0.025312506363486656
-0.6218525402749905
0.5461517229816228
-0.12972123046948272
-0.9126443633877578
-0.43119461078185495
0.6662516974350613
-0.2685317613830952
-0.7874840718485432
-0.28944040591677833
-0.3537283850786441
0.18700512191814397
0.3167536004855352
-0.6513589015724646
-0.2468443803010287
-1.0892902593812328
0.10675917719986804
-0.875751013307449
0.06198956210849906
0.4247590012405795
0.4214829003563561
-0.0030411685824634927
0.6326656453294679
-0.2754548445773976
-0.44683051228308035
-0.1110966237457524
0.5363388995945741
0.10849773734251639
0.45080724609195144
-0.26063870098426983
-0.25126014195233976
-0.7395969076748735
-0.20039648451663994
0.5091190907543558
-0.6393689270392986
-0.42562013211338223
0.08852665696805548
0.3323844371119688
-0.12073030831645166
-0.17026717146316703
0.09326771219887023
0.6016375331625405
0.3299707130932905
0.6322310392868611
-0.8462119182771403
-0.3263541637589932
1.0636879327440938
0.3208975968575904
-0.9750308946949158
0.039516582166737826
0.2277719868691233
-0.5481473512997613
-0.2871591691179903
-0.15696244749335936
-0.1619047965486845
-0.3892248046612432
0.558236763845888
0.37217913596832924
0.10711886434749791
0.8092956468294424
0.5266877356201773
0.27744610368873934
0.4400730315249807
-0.6674227536294594
-0.1752946353836251
0.19559481314470478
-0.26073479256032334
0.061196471064945565
-0.3228405737364032
0.480938549334523
-0.5626592793926819
-0.4222229481619723
-0.4568938026628977
0.9662776868724157
0.9787762211844488
0.16833608975357148
0.23763654273983031
-0.08189862279312016
-0.01872709007977654
0.8694184263764707
-0.8028699679282963
0.932773767310129
-0.2792813450571528
-0.5391803042963332
-0.6967901983302068
0.2995603598285018
1.098300967371973
0.3879968561070639
-0.31221630877720735
0.6509393768772374
-0.4139521408400796
-0.7780857676846533
0.2770257959528348
-0.19663680322294386
-0.03729710916742718
-0.2352294820510229
-0.4929764340063115
-0.6830903142380044
-0.20901495653269822
0.6625635256554729
0.10351870048291736
-0.09044166683956485
0.30524506870139806
0.6410775247937268
-0.3838623612043316
0.1622786551126433
-0.7045717688837746
0.4900748268799064
-1.1590349619570823
-0.10461793772719459
-0.29370212849891575
0.9619488671099335
-0.03191453000160885
1.2412459895151362
0.15601346668283148
-0.05162173152208344
0.7558978984256832
0.5326312418168851
0.12014064335060759
-0.4535029480997572
-0.24539273128803346
0.17891517414768676
-0.041124355308054916
0.7788440773700978
-0.8538085761606518
0.4452265487286319
0.32400298891041107
0.34600788364964613
-0.06632332062758613
-0.21043042866645034
-0.09201270278600727
-0.34973600464477334
0.5201926176049096
-0.1521644702206731
0.2761308882286204
0.8982536748892725
-0.3356311117947078
0.0701928842486262
-0.8300712709053837
-0.5411994699895651
-0.9410063472930617
-0.11974027359291864
0.23039739741724413
-1.0734063615888876
1.0836922444047123
-0.03995644821580483
0.3976054771596037
-0.3848417932285845
-0.6566954888593648
-0.10677229237979245
1.119079533961407
0.8953552617688205
0.2644232716877234
-1.939067375606447
0.5150805309855987
0.9792932278202829
0.2802755349518952
-0.2729303594556156
-0.013784705482284302
0.41536002424356816
-0.510501343556727
0.2181986291092621
-0.41853877406475837
-0.35147537596923295
-0.7634824986258248
-0.3853999348210222
0.5559786598507068
0.5908453314982766
-0.7681272253748014
-0.24615949228118927
-0.09378974712926674
-0.6344730031725269
0.07023405681814403
-0.8772730979498131
-0.7267912298912302
-0.07531245012926756
0.14991686031429394
-0.4429693397405308
0.2191975425029236
0.31493446840705586
-0.48708315524858714
0.2855595103942334
0.07419649981042613
-1.334030635718398
-0.09322593703131539
0.07056591100856924
0.225353341803307
-0.6516215403185317
0.531298430412423
-0.6381966619900998
-0.5870735954616739
0.24325541075794396
0.965685092699228
-0.09594070718908464
0.4414392957214318
-0.12300472155958277
-0.5560813099500113
0.07359825877441306
-0.6031218237986034
0.10430699460445142
0.9077274039382849
0.37544554339060343
-0.10216420627491889
-0.2122313252388163
0.376610716986387
0.4075082073634343
0.2547400617726583
0.33973112576056197
0.2085941465222293
0.5586531107048226
0.41880331273870525
1.00914445112881
0.2232952969195716
-0.343722264202521
0.41975338823406194
-0.05492182157982122
0.2024834436409381
0.10417305788842827
-0.4865811623028068
-1.3018796213146975
-0.2977191332755669
1.0151386276821148
0.8525790145965819
0.7804209651937144
0.883370334000407
0.4241799593438851
1.2107276752834468
0.7341500538831623
-0.4595895991189966
-0.16771818064285385
0.021938318421452933
0.540966220722365
0.5350269349113215
-0.379548751498367
0.35464695985221784
0.7935610528630362
0.026028551746355166
1.009713265144684
-0.24969332970093222
0.06439483447460623
-0.4905467646206274
-0.09613625271435222
-0.09568805683435345
-0.752684789796915
0.877155204994126
-1.184553608858616
0.3413732040379765
0.3552091585751794
-0.06620291276983294
-0.3657426543719983
0.7047580348983467
-0.14970169685560072
-0.11194258942340535
0.20509156029008332
0.23233831718180298
-0.9909190691657908
0.8480350350858923
0.5696096172687782
0.6130438576574703
-0.6271074418507483
-0.038129418677542555
0.6070379571841759
0.4373918452809847
-1.0231915231702486
-0.08430160228077846
0.0735694070107524
-0.608001944764945
-0.3006181645152146
-0.07480593650314828
-0.0045229635249978625
0.13097599927053988
-0.25069613803056584
-0.5167280275453442
1.2155476323491328
-0.34574541273715803
-0.9895686618935364
0.06651702434238256
-0.2654791587652922
-0.47068488497463773
0.5946268249920035
0.5952735576896501
1.5342222249785396
0.29027474620780874
0.6559452775846187
-0.2094414683274076
0.24512699364082507
0.23318324228482545
-0.14717864006879758
0.24153309348171167
0.6453768594438635
0.09582436075503911
0.45975400870187216
-0.19536893629425173
0.03270144090120231
0.4420739346242614
0.948631414146365
-0.24441792887307345
-0.7129715312949958
-0.3940040754139424
0.021014073716279214
0.9412605513057745
-0.26345669688136897
0.7535734404362443
-0.4848688568372464
-0.16636352011614075
0.30465212844594525
0.38869990199923476
0.3382003291041027
-0.3825308718179284
0.015212988922553006
1.3000100876188398
0.742021797490845
0.2612335058042627
-0.1482047268160432
-0.18272716788110582
0.24345173244119334
0.4859420756529532
-0.5580653786774217
-0.5177209282132401
-0.3438156542331794
-0.5351544291147126
-0.098041798227097
-0.20353425747095794
0.22682077051327088
0.003833338827294041
-0.5617611777212833
0.08787894382275632
-0.016574095001816266
0.5275397590685059
0.1921444347596964
-0.35925629157015687
0.2292741278039878
0.1315254104808698
-0.21512908893694793
-0.24993686616429797
-0.24476242231022835
0.250466909083451
-0.7266112362430522
0.1810780734665161
0.22919372905440713
-0.27875838017921334
-0.3319039375190369
-0.4446784951882981
0.07835715315571966
0.16943475033821342
-1.0421663329222384
-0.8253573230706703
-0.31463951927132255
-0.5934687556676752
0.5103572122723831
0.5399502944792385
0.609600665256819
0.49649065848365675
0.01841058152363931
-0.5149934259425016
-0.34368517758597833
-0.08556781581873714
-0.7539946025859602
-0.3387784248480896
-0.27249865750747776
-0.39705264921524946
-0.7348741394147461
0.45800162056475324
-0.15412530591443724
0.08846129915194392
0.9079588947135917
-0.13134862446383536
-0.05043471951857942
0.019902276709241815
-0.5898702038487641
0.28563923238897543
0.1602954772208489
-0.9376999346950237
0.054733340099190265
0.5854421136123502
0.13675757974912722
0.27005080417970634
-0.37973916261316576
-0.35322861620118384
-0.16178930587751322
-0.1171997081903827
0.014174741321041302
-0.34322887872901453
0.39398263504061976
0.06862089174380992
0.2672793176771071
0.5684947718471354
0.7053720518996028
0.5109134915336991
0.0453859995504936
-0.9159767096767018
0.13928501831702517
1.0407347844068338
0.04485378975666314
-0.9384698851182676
-0.7415225541300305
-0.2964771324287163
0.9479358231431234
-0.5341495624221638
0.4694098073261559
0.26533519689277146
0.21400658395863695
-0.15577960249815925
0.2114209269162053
0.0032333706628510806
0.42461406637869503
-0.6155178059705386
-0.32743440875341273
0.4378037562633446
0.7515543826972387
0.35721165359954427
-0.1874739511869272
-0.0928896659709757
-0.2846593131976426
-0.24798537509996507
0.6940552895853527
-0.19994409672859154
0.22738722395452385
0.04759274833382489
0.16678829700633904
0.061788976393221555
0.4955948405980201
-0.8218793677249986
-0.11306783363882528
-0.36167238295755183
-0.6836482459978137
-0.2990780468210477
0.026022290163223223
0.17545284998318111
-0.1213561999237324
-0.7556134128794915
0.22225219921104905
-0.2905254617232879
-0.31318015048441117
0.611644649285584
0.19852914130349933
0.3307271719793797
0.06265356096846886
0.5577513660546736
0.15483685641541506
-0.4462237197552351
-0.7640716864951875
-0.633993311067066
0.25746496151362674
0.05959695913740878
-0.36729993109121384
0.8224682793179963
0.9763965423396617
-0.08816541802656255
0.1375025035663889
0.39643456537176847
0.22095323476033563
0.9931355152584865
-0.06422923986851689
0.03299701357683719
0.38650095739023427
-0.49382787969979647
0.40410734571645884
-0.1506411130617518
-0.33708076924232355
-0.34682892941003124
-1.0834340617729405
-0.27729141756990283
0.4500285202567649
-0.37155595686768544
0.4685592439428177
-0.856834642779551
0.017581433753615025
-0.1602746169183699
0.3291682104989623
-0.38008701543257617
0.06444951433947153
0.29540897586654546
-0.39305384759202444
-0.5571967428879522
-0.12791409438085177
0.43383264892650625
-0.5150641971783932
0.41406050499131314
0.1606475132952343
-0.7026103277734386
0.8133143471439062
0.38962453520177437
-0.7610912246168591
-0.1809420218529115
-0.28755199396031195
-0.198380887047384
0.3455923896900259
-0.045816170373121516
-0.7857024367523604
-0.013203829136381736
-0.0027349695320890333
-0.40103415758148875
-0.12455163544908501
0.03417093991435838
-0.25939554495071643
0.5474193987862606
0.028082957949038503
0.5611466606376798
0.7016701301204892
0.762454640043473
0.16467690850969954
0.6169619031788016
0.38869883882362216
-0.3965358289853379
0.09455110188231987
-0.5212795815011116
0.0644931493580067
0.16200593939508082
-0.2755288451115887
-0.27680560829903406
-0.24349633715793564
-0.28207410672029104
-0.00704054640367248
0.5042418638832853
0.5053464515554461
0.11945156574967287
-0.4161293264308228
-0.11438854824569392
0.11335209766658957
-0.12672166051678505
0.6564461601815726
-0.17543244492924448
0.40193615778566644
-0.35484724461420364
0.08699590739388788
0.6573767722451663
0.5684677714855667
-0.07077995326537467
0.5084314267090376
-0.25282908164891643
-0.3469682945812812
0.13462604533674033
-0.26063731845159815
-0.25813368633782396
0.11703120137706177
-0.06264942210470983
-0.0687981503648713
0.21766456514379384
-0.8146320693966334
0.5688025631398305
0.028194013955617322
-0.007169575545463796
0.19645591944058113
0.6756900786753448
0.09879724711318964
-0.33293008356032294
0.023807892250613534
-0.22230546794454709
0.9762581450601381
-0.6370898177088063
-0.3494339546276545
-0.256817878736391
0.3244452069513185
0.10781864245578272
0.26015227114093964
-0.6027104662928685
-0.28126340242824704
-0.13980179643654664
-0.19216352712838242
0.9085123441968993
0.311334669673058
-0.3560831078078052
0.46744081653304137
-0.02443062595126417
0.6072251691775146
-0.33816604126238564
0.964431953110927
0.3414760559823536
0.4946299156729589
0.8192395924437144
-0.2375100214500559
-0.5285112436242504
0.7209695644927814
1.0009302153205317
0.08392067866200512
0.3631379468564679
-0.050574618381161625
0.1615450209928969
-0.20149485084852906
-0.1207029355088059
0.20263068186128935
-0.18357819614890997
-1.1848319367621192
-0.46125104876951045
-0.29396852116471156
-0.3577960623314948
-0.48260691900860686
-0.1095896853877695
-0.3470193440489143
-0.19558495773000364
-0.31764503160336377
-1.6502161539243356
0.5642786190921959
-0.17997254029046808
-0.5977793462700348
0.24505773421416896
0.34233861822038836
-0.7886925511170562
-0.5253855057589454
-0.5631247210824765
-0.5998538391030857
-0.5363255318416419
-0.15455166330043707
0.4477571568744707
-0.15381461099445073
0.18142670915361503
-0.2461526242891961
0.643471595360298
0.8349397549370169
-0.12968307604970042
0.4733427527101361
-0.6329948411063197
-0.17583808447410826
0.19622585066119005
-0.5031007202761106
1.257724511970909
-0.12441465916938262
1.35490327245445
0.3112361891361029
0.9399196542582087
0.10743425320333586
1.007564735651202
-0.21457923717073918
0.23084051933640634
-0.9635663255414857
0.5880958336873389
-0.273764900360852
-0.6874751239839303
-0.3235910974669711
-0.017181627278840723
-0.576211206204685
-0.17471759393920902
-0.2139878234424079
0.24270685829067884
-0.566947216871006
-0.12335586102967566
-0.1436094242981384
-0.2832767728371514
0.36903902326204974
-1.0767192399163854
0.136071271342622
0.6514089746907121
0.33056729225067905
0.42267287549803995
0.6792546392235739
0.20595421747485249
-0.5106544506031618
0.3328276479386737
0.98788291636334
0.29690877778438707
-0.010373304221523785
0.10662136474188444
0.008468089630400976
-0.14778466871384321
-0.7933397733585065
-0.034398296980114276
-0.40295684932828746
-0.28419027291996
-0.7717870578541836
0.7521861175040793
-0.3825815397921269
-0.47632981718547424
-0.15247864550524712
-0.295945209191628
-0.4078067088260121
-0.16920225133041797
0.2694073153153543
-0.3617202278421421
0.4977840271938868
0.39306913754778505
-0.269541817532838
-0.19113644780705227
0.5900213370348703
0.03650984452957065
-0.29033933428065417
0.3054323533142668
-0.06008461860013768
0.633742488795563
-0.16415104089342963
0.2650657183579342
-0.5981606514965239
0.23246341131545775
0.05587299492675042
1.0865646799168902
-0.19970815003087036
-0.13526850110455166
0.8699674626090224
0.35473113643749554
0.10492985969170696
-0.345595626877464
-1.2995940256287786
0.5258120436170863
0.2831973344859874
-0.5122570596989968
0.08800060358116553
0.3185915733041901
-0.025476118398382923
-0.48987499717743355
0.6022000107967532
0.10947854233696612
-0.16378361721930004
-0.05232013297959088
0.2556096417638979
0.14158905804260905
0.8435161463578272
-0.02170554554445039
-0.01643412609291108
-0.07306550216303873
-0.18051559990887012
-0.34251509347455744
-0.4332458349218489
-0.0869575491026334
0.29611086171360285
0.25845057832068197
0.6905474977151571
-0.6135261487371705
-0.21885648270842928
0.07952015213113885
-0.3887206384714146
0.484828252397417
0.32576928233909175
0.8463126745708595
0.8821316579805324
0.0381161304479026
-0.7011737511326884
-0.24507202922195456
0.41744584216835334
0.41459976392323095
0.4301789050465919
0.07986522260704859
0.029704936078934784
0.08357496150199266
-0.3092851954408189
0.15608254886448128
-0.2774783512121838
0.03206262306192842
-0.11920109056261667
0.26953517174113567
-0.28417050141415207
0.12920469002055707
-0.7127110960377935
-0.7706561191297334
0.1863703364568707
-0.21198721500583834
0.1888034438751038
-0.33519349931954034
-0.5475148167493266
0.9617409234067216
-0.3710741874421129
-0.5532762337834372
-0.31974916804029874
-0.3169711441287526
-0.20442786700539775
0.9384376333606798
-0.9404700291277861
-0.5948877269990607
-0.26640259410786726
-0.18132795945267616
0.6169950427041424
0.1731817207850152
0.7292180750885966
0.5988116878846442
0.3103508609307787
-0.9914385132624322
0.11947954254754589
-0.3801723313963161
0.15377434561793382
0.48805572531502484
0.5291072446896683
0.16417877562078553
-0.84213832324843
0.30691827884185346
0.23864912753622738
0.06729365138405145
-0.553719876222776
-0.7870737533866242
1.1337584260045108
-0.40165888988439574
0.550420769952461
-0.03328920581980672
-1.381604103969232
0.47010745349165745
-1.126202431132736
0.47189625025601456
-0.12933119952939043
0.32219488236731963
0.23863018309694864
0.6701193640767353
0.544040884721803
0.6022070686647565
0.4083340342782381
-0.1753198856115907
0.0266067352382642
0.46353051638266585
-0.3568662285700233
0.45457668676692536
-0.49895636623152556
-0.3154958983549226
-0.647670375902757
-0.46866309146399265
-0.3597687750200468
0.18722347449304289
-0.48714949184933914
-0.7953240250057756
0.4641045987081288
0.286643914103527
-0.7655046638634133
-0.3048693570389212
0.8465683219558392
0.16004046455773355
0.5651891279316804
-0.20223597734696228
-0.9233274983568553
-0.03877136331691718
-0.30436467926773714
0.2738534649948008
-0.563108140682431
-0.21945060520946238
0.4817509200418966
0.027509417864469497
0.4692775356707219
0.42584064047320624
0.7116890785497987
0.5679468912651272
-0.19521379018645194
-0.23330332116007568
0.6086688349036902
-0.1029149151429848
0.18912389879811145
-0.18210625422451635
-0.04825862467877297
-0.3810922631015326
-0.5970275593901534
-0.17031286557129252
0.18314084849922244
-0.8105766010195915
1.0141066361492244
0.6404262286033526
0.22658787048334092
-0.10319482492169282
-0.6728441738779856
0.33239044482114083
-0.34400047408781637
0.17715762980974903
-0.6126377589956895
-0.11237768572426807
-0.2970823787523966
-0.24216727816776587
-0.060064770106786444
0.14895246743048562
-0.334731897460464
-0.36578378008962953
0.28997525633151344
-0.6499649832623385
0.2869311652900077
-0.18188518388288344
-0.05295402547522091
0.03515635482523881
0.311265952098378
0.09625530408215426
0.2927775798267894
0.7670813498727821
0.7533604984776048
0.33772856160939846
0.1421373941051156
-0.147411916951576
-0.11211300385750807
0.5765669982661826
0.5153525866569755
-0.28644927341422105
-0.193925107738349
-0.04199188744347598
-0.6646506204023325
0.5775956919394949
-0.006332707716715818
-0.09915783113313759
-0.34747103930386825
0.2629982188597652
0.14907793267122788
-0.0009039530677616503
0.540735996496311
-0.4251781807817358
0.10215641065858513
-0.5485512637560932
-0.4427240802916206
-0.22720307237878576
1.0421789743321355
-1.104768808810018
-0.16878956372290868
-0.7047210609395883
-0.28602863231068026
0.17592322254832246
0.13066973062660672
0.6377788058864027
0.21919036494779728
0.1488869920973846
0.12298915574150811
0.3532859460649673
-0.3031399365430199
0.6143661370157671
-0.6319753257978263
-0.2370390973213044
0.28777550236418453
-0.20760435149184311
-0.6102590498621536
-0.21786918381834255
-0.05203801984586062
-0.5946099297276001
0.49695000936529554
0.5121246411353381
0.3679983318791382
0.3796309100032396
0.2900115290522673
-0.7240011175193696
0.37929730188944705
-0.47499486724656037
1.0344609925540547
0.3782181040771526
-0.08382088623726507
-0.34213305172750985
-0.6679193123095413
-0.08041873349529098
0.20021319046661548
-0.20446082641785995
0.46194956823420547
0.6524330545918597
0.14565759679066806
-0.7800747837631289
-0.1275383562968486
0.18910960005004007
-0.18549889347373597
-0.8721893191055948
-0.7383040978793852
-0.11750193137570279
1.189003863682941
-0.3612459178839886
0.7247869484334393
0.2023153245579892
0.31842058064435286
0.1776579710338073
-0.818332708018219
0.9796771848918939
0.07365241326548545
-0.04426185466546615
-0.5836961385034684
0.39686577191507616
-0.27665195463618036
0.10354873552765825
0.5306953468952137
-0.8338727887250502
0.7093752403273874
0.22396791986046008
-0.11506576660882052
0.24169714254240948
0.3042070348339808
-0.24942194039599644
-0.4572672756499098
-0.40942112850822504
0.27335529913595796
0.3864945242891383
0.19476173608629116
-0.2541179336916682
-0.12855108953849728
-0.040410550081110816
0.46365035201441873
-0.12190912475232869
-0.1125162327146177
-0.18650790253743338
-0.1851945954337767
-0.1844782992268628
0.33231459298271826
-0.4400899468796273
0.7302629738017039
0.07582346910684523
-0.1389979415595994
-1.2091681016725504
0.6998815213060656
0.23118209785761534
0.6015439416290469
-0.3886638452394979
-0.3175031514843832
0.20472946346095588
-0.9332097285011447
-0.47867090094696074
-0.10320042886118133
-0.7118515253422503
0.21561492784663017
-0.48776978717229824
-0.7668543275756219
1.3111206160056714
-0.49897082330472897
-0.069653934942767
-0.17700146145431023
0.35513491225214416
-0.05231457515352772
-0.002908675201683854
-0.14204198818839103
0.5057725224342372
-0.054774421922243625
-0.16748456817460905
1.0118752553122838
-0.538832645533915
0.15400225063505646
-0.1632456328108186
0.3878594302664887
-0.6188372074346122
-0.41263895607735873
0.3685655086096489
-1.4104800155609372
0.5410231245680458
-0.5033986927960608
0.2568380861885349
-0.5579874742094623
0.0050206297541357005
-0.5257859628284255
-0.08692609147755573
-0.21231184139685694
1.1337647540909814
-0.12236067987118812
0.25563662153639805
-0.6512466335559387
-0.1967097405791749
-0.29823266396709835
-0.10767953401741397
-0.7581615764273276
-0.7352462780153007
-0.1703461185240576
-0.5717424012213752
0.409014705375622
0.3526753521503781
-0.09795772700927541
-0.3270761544333767
-0.3155644061197651
0.18837195583493965
0.5092500281726305
0.4543781581336963
-0.48011705798720516
-0.5147848354526939
-0.9371331162694876
0.24205945053162942
-0.5294064408288525
-0.8750426635712253
-0.1369588757950088
-0.008416659386979681
-0.030334064592239193
-0.22605472946433894
-0.7491625775786668
0.2305725378752333
-0.518694840490951
0.7409049355955585
0.34864602808202927
-0.3663292621208789
0.11712017075139108
-0.309728045586233
0.06834914776337962
-0.646480226995697
-0.45410033654598914
0.6254316778966551
0.1435899629981156
-0.4386539344634584
0.7004979163997221
-0.16483060375558276
0.2554767409557073
1.3487749514075589
1.1442068094496025
-0.8631151833314739
-0.4363084841820018
0.9172216882189249
0.7789754602995085
0.38623101631296897
0.023938291632650325
-0.015352143898328226
-0.7436774204136545
-0.9233563744461619
-0.02332421052717518
0.1351314869460192
0.46618360285913657
0.029394056763511547
-0.07803374733615169
0.867609947596198
0.15232961757962937
-0.21551128570390732
-0.1394525864458971
0.16486874652131236
0.368332918377996
-0.16817851365475367
0.20905625601904732
-0.26573300370727987
0.20595681955930706
0.3557201266741871
0.08820175519079249
-0.2854414311546395
0.5556569929739045
-0.1370323294085588
-0.03776650411486001
-0.30133243649102814
0.02596593407983481
0.4500237251554594
0.928719652764652
0.5024059847424698
-0.10207896300001937
-0.5697193783621245
-0.12902613241792993
-0.038984565443892207
-0.1571622491501593
0.2908946331024976
-0.03498499082114015
0.09732775356508439
-0.826096470935607
-0.2781928895710642
-0.15559504795008544
-0.12098721891889169
1.0551373737167895
-0.25011051552779134
-0.20524699580609687
0.27546705632951124
-0.24395272957108485
0.7397391263086454
0.05771967996243401
0.13554243025019447
0.8525478282525442
0.22217974441249938
-0.04062903421503115
0.4303055703035998
0.24086758438904934
-0.2709547177907967
0.06271784632176589
-0.7047734810382398
0.03722449506249066
-0.17051726324839284
-0.3490283243463745
0.7988818485185493
0.12400498590322602
0.19761260110578036
0.02600407426904789
-0.07981303638460739
0.050236339421792946
-0.4072644779195299
-1.7346370604348877
0.25178256676018845
0.5259052764037078
-0.4344814105047147
0.5817559987890859
0.025569617637368387
-0.36267037301926314
0.11835898934188194
-0.5583808475645838
0.45117760738844975
-0.3867354423113508
0.39085915095709267
-0.32771576614255993
0.07213848932977068
-0.44621684563908454
-0.1925806604058645
0.19173445968144734
0.8422683589041877
-0.7393456185283469
0.09748661841446646
0.40008297005407967
0.9176063760147601
-0.5748480016760863
-0.5070372086486651
0.0951076891705568
0.4324734176545584
-0.07760263272578957
0.4788717691139898
0.2981223676052426
0.9897321868080614
-0.1347384200471246
-0.04623118327969644
-0.1967396156457927
-0.5366736825314299
0.04547900497632945
0.32962372045433885
-0.6749740381279274
-0.2103293759159366
-0.48801340028660156
-0.25776638219700226
0.8031102445008209
-0.2923107900163995
-0.7395223440919404
-0.8623944697530364
0.1323372007081298
-0.0975225482538875
-0.9707578878579918
0.6140130958461381
-0.531945339975675
0.23453468132960253
0.2849963298348457
-0.3313298835853853
0.1783186198430199
-0.10416715925473202
-1.2262684425722223
-0.008496894821014558
-1.596184305311264
0.08238144472387493
-0.5727506467393363
-0.2268841270751145
-0.47999924919904163
0.5819708875995602
-0.5768593485712651
0.35316082653913716
0.5998462913588997
0.09129536548591122
-0.061286933937502355
-0.026140182868094514
-0.4223874432981512
-0.17401933492511232
-0.22458122590173768
0.17272723019922756
0.5353837525250794
-0.27651003991722645
-0.8506633710318907
-0.5270593516770077
-0.35569564248433333
-0.08228875348845746
-0.29855161997069285
-0.23492681674750437
-0.15696769436654467
-0.16733027112479315
-1.0623958705906908
-0.2362351661154868
0.35513854267956496
-0.04456962145263809
-0.4011879596202653
-0.009445001682945028
0.12962111375454777
-0.24601364831255426
0.9063937583640566
-0.4094263084543504
0.00036145725999432764
0.5692578750249517
0.1354924011573757
0.4814960813440534
0.217638575977995
0.012110077460729458
0.7937418156856653
-0.26622429503870565
-0.4024304168454172
-0.2282280966583557
0.1591284547877979
-0.11915235440287145
-0.36300604852595175
0.7901261500240231
-0.1561938924772939
0.41235601462016513
0.3361804422491891
-0.37199712505598337
0.23925903927594105
-0.4720713083423688
0.13854991964069807
-0.5362353877985339
0.20533337364578919
0.012279653408323071
-0.30571720787174295
0.9437826240158358
-1.2961054226681157
0.31789731233573776
-0.2650895065747816
-0.03753174618311107
-0.5953603573959128
0.24959311708411688
-0.20152628681482168
0.03808650294425578
1.2222589028857473
0.023948147652597417
-0.005106793380999617
0.3994654594522251
-0.2719308566238698
-0.25697503613348965
-0.5833569687721571
0.8680444821349452
-0.5861729964912423
0.06147333251918379
0.107020406264338
-0.11046212451302756
0.4087056004116171
0.15489173538531392
0.2249260077086326
0.5425539644655191
-0.00391832592676605
0.6869509835360461
-0.3849380112599105
-1.1612927190485594
0.5279403767851912
0.42384843958655205
0.48423153307900574
0.1464772475414958
-0.9090514865785055
-0.0720999179118113
-0.1679260465810956
0.38109399549535716
0.3019308515780105
-0.16723069789523065
-0.6824636074825607
-0.03257699116670496
0.13804755990282644
-0.02673068040865619
0.47385501339168223
0.2952323021217045
0.02696642720925699
0.32438812948259904
-0.7571834306393266
0.05998947584590414
-0.16658801207950766
0.4675824292686055
0.37826225271485847
0.4307113243482857
0.27258438196524903
0.09161414840638088
-0.2873816809272757
-0.011049614531434312
-0.5329683150239576
0.3005820968896273
0.4290111392646872
0.15463306644378808
0.7613858489541097
-0.7408294581726818
0.8659980328506135
-0.41869350111965836
0.2926455049952607
0.3479648534260604
-0.08088570805634226
-0.07976779196801158
0.46673009249218794
0.5592549192188218
0.615111171499806
0.26369803615044896
-0.12571000756421066
0.13938911560403258
0.4128038542807298
-0.18610607903840798
-0.2796868911384835
0.14931527107875037
-0.039693665213145254
0.2131439553286888
0.004420966648182343
-0.1794371483195855
0.1960440493209727
0.028309965834549523
-0.2665029415420976
-0.5115093742427215
-0.4491443695006474
0.07361610850091313
0.7749766836358469
-0.3918494860808907
0.15528665489117965
-0.21236187768631254
0.3098832486393548
-0.7311988224921766
-1.079074376326439
0.3167365154860667
-0.24378273660553232
-0.40566038025980955
0.17631962718564959
-0.5166153687130791
-0.12556030413448394
0.1353904832643445
-0.33605629708596396
-0.0017026423891820192
-0.05811135321625964
-0.6007117591158295
-0.24289514417038569
0.12334298735194316
0.3577536063175097
-0.1179639730506641
-0.8424283966202047
-0.5524693214660644
0.28733861251283455
-0.793319161646221
-0.16048954103280447
-0.10857334816604002
0.19316627288930832
0.09429354016326688
0.3906532160957858
-0.8449379295713142
0.7239680189521605
0.589078048829028
0.1646589428369375
-0.23958592910885537
0.17538176968931343
1.2297611807446163
-0.015086632916482842
-0.4328897920602136
-0.9378936812297719
0.6035334204265683
0.6435957702216962
0.05658650214430432
0.957518805512706
-0.038172400017603775
0.8346081666039759
0.8473516677443498
-0.6775207867074718
-0.22667814731317562
-0.2864465394520351
0.2516985955871058
0.2610696103295131
-1.1047917762996855
0.03601858647173649
-0.19669969138223736
0.6500762144055813
-0.5273913804561601
0.3758375617892931
0.6481726786971798
0.4473141901058154
1.1368538302384936
0.5093918863957708
-0.6536473753396572
-0.22656782548997237
0.20524855511947263
-0.07329355936588584
-0.3288406401588369
0.6355149014440578
0.7920121614643287
0.0920027213573567
-0.1998488496385896
0.1421210318620449
0.07072713715499009
-0.37300319923836495
0.03283568121761747
-0.4279395655579135
0.14899256971666439
-0.40148421394872336
0.08343074790300514
0.12688128032676146
0.17742060086767097
0.04544502629011752
-0.023255741762647466
0.06155069937981911
-0.7034014757674215
0.2506433926355534
1.2451377507863428
0.26507890436619214
0.051572394982201994
0.19764230479994307
0.05978570959349989
0.782241266678438
-0.29019252476703333
0.1852992638067112
-0.33924334298997466
-0.20140035865556538
0.22083833861348431
0.885956848486561
0.7661271229082569
-0.3674347738909819
0.23794437474608005
0.5032549837128453
0.0045161810260403905
-0.06162626320737219
0.23784327869458097
-0.6306777093152527
0.2683093446281634
0.12312324409397525
0.43926535773712105
-0.5211883733958649
0.0934255566360602
-0.14417485673620678
0.4441342133099994
0.4483957971625276
0.28932579800439057
0.6276513064529515
-0.16226297046603833
0.07167739774106584
-1.132827341991366
0.8312336167954347
-0.11948150246008263
-0.09506677858766367
0.3536431911759937
-0.06876255551547292
0.6794892508368198
-0.3257381288624533
0.7309968353279319
-0.21873601793829225
-0.2302556990854
0.14802117908649526
-1.2911699676233872
-0.010074130820470721
-0.6780823304188772
0.5088869025479111
0.305339697676642
0.0800571302754053
-0.04255950193334315
0.32015490344169817
-0.3126644755523741
0.07172525520618264
0.043582966518875
-0.6902695058835643
0.11485879063942432
-0.8613687764328148
0.5389518008208948
0.08433731715553139
-0.07086477993167027
0.002498660108543702
-0.24154951025270047
0.5359078787873753
-0.6719121402146317
0.33691909640776785
0.14308858459903065
0.04897387273269399
0.3031691989772931
-0.49432934404627127
-0.027354421218061045
0.24239619824811076
-0.11037422436794485
-0.3046120519180316
-0.41030491541620207
0.4665186010157898
0.2143538878669629
-0.6085190068332949
0.024028809611030696
-0.06389530520325076
0.6977251348190822
-0.6755613080078459
0.5014678111864425
-0.3339790894119238
0.04852051753651757
-0.4909885487336356
0.09464683106129373
0.21956612302636358
-0.044063864047580066
0.06574581781797016
0.6548912372672318
-0.968318763524192
-0.016479132238094423
-0.5305688528135938
0.404562688104513
-0.023880841358224682
-0.36635714238113354
0.4617811071727965
-0.2421005580481635
-0.38231706608699967
-0.1775505634032144
-0.4367500555741954
-0.9452611856174619
-0.6575948842054902
0.1571876840248283
-0.20406582038086474
0.12651415419024004
-0.3910716406050946
0.4113318961420115
-0.8050085973613962
0.5882453960315787
0.514731144616165
0.5370053753524134
-1.0252324003325346
-0.0831897644075485
-0.7133288422258612
0.652320592868012
-0.5034452900896013
0.3756307333779629
0.23559548255211807
-0.2754247908634228
0.2250135347941738
0.26196431193402614
0.56120381070154
0.18540333776432988
-0.27871540000978
-0.09136888484799076
0.05437261746839807
-0.5323164294614857
0.4724387503822908
-0.17449653095266487
0.2519525467942499
-1.078085512439214
-0.5272420537723189
-0.5766806797273866
0.133763208242737
0.350114436979476
-0.5228289922132427
-0.047044604232576316
0.02048517882976454
-0.5332864722209566
0.30645734146635756
-0.49341835330817363
0.4893847378666199
-0.20149443698638758
-0.3956671470177566
-0.38091477679336827
0.38403190204923965
1.292718811392393
0.06336429508331562
-0.22362527668223994
0.13094748154904604
-0.5908892682769327
0.23139614920245152
-0.234531147912339
-0.15791771466043805
0.2584690383213082
-0.1236700759686384
0.2437706394224738
0.5137796578115269
-0.02020154536867593
0.5960966891409206
0.36920599732971143
-0.32867100140217986
-0.0658157379765049
-0.3788780593416044
1.1004668402546016
-0.44764713712187876
-0.44356374768957707
-0.7616779103292297
0.5722316005253248
-0.1141531708897809
0.73107205878749
-0.7801055865249604
-0.24370153584694015
0.3228442574858335
0.6027757260529628
0.2006485495946581
-0.2504789581299473
0.48934703358068143
0.16677548699678296
-0.9483222231415318
-0.052957571724343885
1.036290094760867
0.3285226006304624
-0.6925081312598722
-0.573682108952278
-0.29252337845582643
0.09677859754678118
0.1964729727622737
-0.6088533297327781
-0.011798216333367341
-0.32844036210042693
-0.3554916097994568
-0.3570694144960047
-0.2830184015144154
-0.836369072307416
-0.5409237230208337
0.5959725478592215
0.8794439088591767
-0.5575075374289915
-0.23464944951469313
-0.3483755946012508
0.4217001726021394
-1.2366314855916265
-0.39930301213912783
0.16009824378302148
0.35807560017421064
-0.7191838734522484
-0.1531707220690845
-0.27257973848821937
0.4628599531415102
0.028035272090105236
-0.3078225157185734
0.09944309622054094
0.4332755197225508
0.20898690585035307
-0.1809777016015071
0.5118815366139663
-0.4485675761632698
-0.06116399636497974
-0.08373649251039829
0.07348592338053944
0.018289683366367007
-0.09854507775906556
-0.08603844863215679
0.08398479663514496
0.6536420655823438
-0.6403761409813795
0.3847552131747793
0.866798350498215
-0.03150709878598086
-0.506781170627335
0.8404588725391833
-0.6285092492514324
-0.27047087450834734
0.26278306861392525
0.19177510551210117
-0.5623691108829321
-0.09337847756629929
-0.5434736776724869
-0.6269706484246804
0.3007544346341109
0.8358069560923735
-1.0368382701365642
-0.12888200976942182
-0.310409579026293
-0.0752195666068962
0.01422303842508634
-0.08100044867070662
0.6073828358109503
0.5815285472505197
0.20538393735450972
-0.42711018498960474
-0.5345902168978056
-0.6938036791233609
-0.21274853534752813
-0.14650888217203112
-0.3444665211222857
0.23730902143258284
0.0514588110749007
0.332064524710695
-0.6041812039076496
0.010359595989560062
-0.024005542024153555
0.6074306715631465
-0.6099760259328029
0.20702847871646365
0.2636971267559536
-0.38146489614671136
0.20592605262772692
-0.17296089780558593
-0.47040999237275166
-0.9996872678220469
0.0792468354410599
-0.3834071742032327
0.36481800772930023
0.51636849211776
0.05489095873025944
-0.22790646217716368
-0.15343003115287757
0.044496727506439716
-0.33457320197745266
0.038857924096689436
-0.44436681145271173
0.21921942963408403
0.6045029840166289
-0.6336304847612293
0.3164208259496576
-0.35785220049503835
0.2814337793664936
0.6710487728075941
0.8288133892360987
-0.26062563983419307
-0.6711550491713013
-0.012894822720797297
0.5649686607939303
0.028705116902541475
-0.03454831165651544
-1.09727308582165
-0.6240096567785844
-0.10374096375668344
0.20772059857943193
-0.7550630288329196
-0.43100839137002045
0.14524030853497572
0.5979137387319216
-0.2733876764238818
0.7999694474872497
0.21227344648142965
0.35433469748842383
-0.35837161761993225
0.08476505629533956
-0.06980500958222867
-0.20090392243413116
0.04632734447214234
-0.5466376130662407
-0.28070289110167557
0.7273564563197743
-0.20050194919638337
0.5217215704383262
0.1440692638638243
0.1450286715698468
-0.42016031610743315
-0.5955505239353884
0.06109175407809466
0.83259100789467
0.15203443891366186
-0.09226684334586456
0.08143847726950751
0.08092489679295359
0.539606499453113
0.6349353507510983
0.4167206105119501
-0.3955497617551077
0.8111272550461055
0.05836332732273211
0.4767901748792593
-0.10045552842955219
0.804071438097788
-0.9470543254686861
0.05469732814735659
-1.9599434679269403
0.6880178843636537
1.0193002860197826
0.536585812555694
0.1090192783915195
0.6147936814323467
-0.4642242592971965
0.4009011318312164
-0.43932378604291294
-0.38005554666291474
0.2277839278908001
1.101872870122856
-0.0626215996083157
-0.06039062817429631
0.9009787882193034
0.36460220688468276
-0.7914135257635041
0.004303567804390269
-0.29367304814461
-0.09708931906120863
-0.5891748010976204
0.10174854119896728
0.2294371489346805
0.086673915370144
-0.44929295878471254
-0.52302397498914
-0.5796495463046201
0.9521554586972798
-0.4341984336722728
0.1853880483169463
-0.5454284332873476
0.7837239349563532
-0.7517708282261435
-0.5010348204001357
-0.07011041340536708
-0.05274340828031527
-0.5113677903563959
-0.6060341733766791
0.3566011017908009
0.12350161660318067
-1.3619957912566456
-0.4378138336361864
-0.15694489551872018
1.175096362326701
0.22420041597049845
-0.01704606430778485
0.11236502176483303
-0.5714907902999055
-0.1630368585205639
0.07282684131480953
-0.1705918644356753
-0.18598152662954492
-0.7351590680127982
1.2807877081177896
0.3459903043256907
-1.2704776021825857
-0.2855356347081543
0.2992609968041389
0.31287005980746
-0.20686019777181694
-0.5541644421638939
-0.34402514493660497
-0.4530141023115142
0.39062866369378235
-0.25893342086734544
-0.44050584977241025
0.07399329801453577
-0.24774739412466967
0.23104383845474688
-0.3354113051486838
0.4394723689133495
0.16552643114549856
0.5264445091175084
0.1296516326413914
0.07583197979180162
0.11680069815509364
-0.06834615451431755
0.5329554117408579
-0.23688821702905366
-0.22105480902192778
-0.5464849160950861
0.42410116700932576
0.3055931677394661
0.7707095269919509
-0.8852271327539719
-0.46485420643046454
-0.33781795228338163
-0.32233419364684907
0.5165822103146163
0.6127654866362088
-0.26664035853783874
-0.7826660755591536
-0.0875753891412395
0.31339081083337
0.277741650717908
-0.7922963435069917
-0.3320015471492555
0.020214625422856458
0.6097273488588217
-0.23640948979234042
0.5766840962813076
-0.17813204076145303
0.5444454475658649
-0.4567784127787717
0.8673598139978935
0.8206014501709247
-0.19802937125826459
0.2037702657430067
0.567449801763862
-0.25711600205985163
-0.5507225152480067
0.6956981850253025
-0.4468849951021955
-0.28153549270480965
0.8132114541003951
-0.9742465510669014
-0.1418038508552669
-0.2796259661636767
0.5821873762942733
0.4044779808511146
-1.0623600493457073
0.3692886019204258
-0.3573185440755886
0.420518348620267
-0.1731234261021619
-0.12408122496520234
-0.7837277615935443
-0.5651116400427378
-0.3498199785472406
0.4402674952658637
-0.013588364037282061
-0.35773552030145767
-0.16550337357351286
-0.2802623605694649
0.5326864031902979
0.6155246059750402
-0.07002339285754287
-0.5240186156475166
0.08456468591075897
0.24696959979234387
0.36584891422926424
-0.7584900864125148
-0.14871216001717374
0.38940641461849007
0.1311004156441319
0.7451571870812195
-0.773515695124157
-0.4872156393414125
-0.8834018736745541
0.563720945375824
-0.6455402470912482
-0.15444919315823427
-0.5188147113601019
-0.32052434030038396
-0.2570192070026684
0.14840843978803192
-0.34656989248126974
0.2908149007679984
-0.14929055471519892
0.8085345779788587
1.2315792756670252
-0.5160578282123812
-0.021928984703250012
0.6066823592816134
-0.23627755567165096
-0.12698884572947866
-0.5834909587237344
0.5332760732573314
0.5475947176823367
-0.012139352504984501
0.025821492087909348
-0.5029828213592624
-0.3436616396312371
-0.37332460724634886
-0.3890997268939627
0.029780118551585154
0.15818264275834293
0.09543328332960291
0.0765645652077337
0.29167764364932064
-0.9523268149891275
0.7619833551062093
-0.2639541503178787
-0.2921831600259138
0.24048211157440783
0.7831758830285462
0.05178539037233872
-0.5279855536061965
-0.12257339711761857
-0.7806138598560715
0.33665713183241197
-1.0835045268377383
0.21800056708458895
-0.527472882435639
0.2357709886169419
0.12258942858521078
-0.4446233049870062
-0.004796594167514432
-0.6008874414714067
0.42856656531668047
-0.32496953244017585
0.6327871976732757
-0.09482788023617507
-0.3870788911517823
-0.9357838165148975
0.12588197625312345
0.6795278097409888
-0.3758578940896482
0.04690424543341576
-0.2939967032999773
-0.15648351037796798
0.4708468884169349
0.036457165643013684
0.5053314077423409
-0.36494799336161
-0.10944863261369814
0.116258620003061
-0.166921674005242
-0.1355552069696964
0.5534874517962678
-0.44305804126730797
0.1225201465232969
0.780320503759938
-0.5150344747222289
-0.7829430119738627
-0.28921190480777426
0.11052294837130591
-0.5721923360027215
-0.8538394545954744
0.1614364397448674
-0.912739649252872
0.15597032058221028
-0.27722860839940094
0.105155468460571
0.2736447453219547
0.6848066558040236
0.11322389625438326
-0.17929503660490953
-1.157009725794402
0.13873092400388548
-0.05631633503583323
-0.6806606887363442
0.42414300570130536
0.029183671364940704
-0.1627439542224254
-0.40605158677583864
-0.09595995878175802
0.0069409917677860054
0.06850150260633356
0.45041809920416126
-0.8392730896406757
-0.5628455961146525
0.41499001221072523
0.5890761383508862
0.06182837791826978
-0.4669340737243258
-0.14558940111993862
-0.10250782153919118
-0.06787435212018807
0.05788883175052201
0.3616565446378079
0.19487803751164226
-0.029462521675299305
0.21798979082582937
0.6623501085719259
-0.5395170379113625
-0.36376644171327427
0.5117067302200321
0.530280111279554
-0.024416058010003325
0.09846543433949712
-0.1582681764489843
-0.2519985120853874
-1.0161407971100147
0.3202840569881761
-0.31456692176294404
-0.5127091517814566
0.273772499350915
0.10210249695879962
0.2586480571341196
-0.31170569340004206
0.08148571023503218
0.05727067936168684
0.11863585872378492
0.6541140441411365
-0.17348081490192685
0.1301480215553197
-0.6768982991080879
0.1698369865626168
-0.07085843012230966
0.5292309903271004
-0.01193467579497148
-1.0182253706731357
0.1821937104490376
0.4504974227830775
0.25816718970892716
-0.24713113562081987
0.13837905970185196
0.12260851516608007
-0.28290776079555424
-0.391716479354816
-0.3212465487499297
-0.8697852807049067
-0.1855405232247889
0.39380758753159456
-0.8117873405300652
0.1677148875400901
0.5876546041046994
-0.7634727957444001
-0.2973124781708142
0.495011454068443
0.4968547555405062
0.11879359458177081
-0.6536019795694361
0.6554232084962118
0.006289118260599124
0.22565922274723238
1.0379181232228218
-0.003156941537326048
0.32274346695830114
0.0438145381565984
0.28863076573733937
-0.9436549809899771
1.377748202633463
-0.29439815868763064
-0.24408025306616482
0.7023967912449312
-0.6239858943124597
0.20937258375702367
-0.6903918620693641
0.11838463223564327
-0.4555768439472787
0.8218468381609846
0.20729498319123718
0.5713377956263122
0.9498127846714727
0.028544306725010456
0.34931804606724676
-0.18760906525706925
-0.28367655708620526
0.09262160880327308
-1.0143323750413669
0.5788287998413756
0.38595693319958896
-0.18527684037403824
0.040501998129254625
-0.06128759888774265
0.001542969709825811
-0.7047571752579301
-1.5432101025246288
-1.5385974453377276
0.29535708507060865
-0.45900744601554444
0.19394436206911217
-0.2695721515680628
-0.035375507353094963
-0.5003880533119739
-0.6525699226330705
-0.20366626563280213
0.2502297222804808
-0.6254773869336663
0.6653850888506294
0.6809797758020181
-0.48614410603211455
-0.03638722504283719
0.5636190313601844
-0.6302230266853617
-0.1976583294248571
1.3780830940371849
-0.2350863521972882
-0.18580751992682604
-0.38488711591470615
0.17381888357792613
-0.3261019574007283
-0.8623494592594837
-0.7863275592917183
0.2693156667000136
0.09444054073575942
-0.21580968501514633
-0.047060325070497844
-0.5100295119234303
-0.2975337540936732
0.38271766781266486
-0.4357627715807442
0.1743638651883183
0.2877626436891666
0.11020710044059259
-0.5493583158432541
0.5316597496720552
0.9920021858665339
-0.2197314805453232
-0.8018320169208649
-0.2488802022373312
-0.780088984098986
0.18696645994604497
0.42327254213468896
0.5022948038335298
-0.19643859521261983
-0.07312116936380023
0.4559029967077732
-0.5376988402227725
0.1261215158748127
0.8580103401046096
-0.6449286225554514
-0.4445328718948416
0.9405050815493773
-0.6184932269029285
0.022965552275263534
0.4823690775784294
-0.0738756737362584
0.5125932141384371
-0.28416675935141483
-0.6178307840719794
0.3080711635251843
-0.05165468606150412
-0.30989004055209246
-0.3938415799313911
0.5164622154283585
0.16367661369302236
0.26214147952159683
0.6353112136857193
0.2837380691427045
0.25524030412376836
0.09048840973084983
-0.3248900246674088
-0.6701011617093285
-0.3093080024252454
-1.0874201837477409
0.008736998092719397
-0.13291648070767614
-0.21068332367218914
0.26850225855507426
-0.10481313164334398
-0.3900894418902922
0.18645021169668557
0.8717471479700766
-0.6942133708512684
0.21622852422269404
-0.18449481061718115
0.03218924717330356
-0.5651893642672111
0.09421388847698038
-0.0843724020371958
-0.06430689336927758
0.4878787673029838
-0.7288818880848518
0.49756681094993116
-0.04895841555379364
-0.36340748815897655
-0.15870959463169929
-0.2208599488331589
-0.04870303791343096
-0.5312381667146059
0.13886168272926722
0.8925767122306842
0.36124137552494096
0.1885525225507122
-0.15515493486428217
0.2610050851536868
0.5017783026703523
0.7019529138974624
-0.41207548600617155
-0.04819785648409835
-0.33423748198181763
-0.006616819625596585
-0.4320730316114397
0.2220274626629834
0.07613011793311954
-0.6446883401186299
0.19702707455275068
0.48437886617440307
0.05307554458838271
-0.5243114847551423
0.47848136413217685
-0.3901472180414002
0.14891973118802634
-0.2381544967561126
0.14398809312259722
0.18185820632412822
0.1615487138774108
0.41081022919927196
0.32896892179677184
0.8099742593787551
-0.21281839626725854
-0.5544429121904565
-0.6297526257982514
-0.9962974568190044
0.2546252518869251
0.4536576285492246
0.06484128068767475
0.7258023884300602
-0.946266822147069
0.12127466985677837
0.09588240884944968
0.43542463047298335
-0.14538710184933276
0.3726520375338631
-0.1461915678359105
-0.09707743237217968
-0.35344745983758513
-0.6861451450267976
0.09042521428171962
0.7661251761701586
-0.6615922671395849
-0.02185378820061162
0.35091196934562774
0.669449066393658
-0.05648324475034539
-0.005334291348348473
0.15720943639645374
-0.595641066990654
0.7667524804300997
0.2564114906414554
0.97322911147624
0.6370541594164769
0.262863912882211
0.3035315495722349
0.11708001697581026
0.004516028428304659
0.2171797525454586
0.8721612049997033
0.26120422901398993
0.09499302473722886
-0.6738631130654776
0.34871526219762916
-1.025728532508429
-0.9087047912830678
-0.04738620325185607
-0.3103933100103146
0.5480986820236038
0.30360506965591033
-1.0652379942358623
0.6813144120265854
-0.055580796533073726
-0.922077728244764
0.10381031634952083
0.34121680959220907
0.24498111028546973
-0.10981356601254767
0.5382781704184709
0.2160824052644462
1.024293330250289
-0.33074606933129264
-0.1666887404860778
-0.11688880828775974
-0.6050424065975263
0.001100795074569073
0.6720691547711299
-0.2857009899268207
-0.32973345825609773
0.1734048333711737
0.6062476997069646
-0.18546765100574658
0.6835524948122115
0.4146981108381819
0.8313059990189084
0.3185814569412325
-0.47504908892271924
0.6195783766870921
-0.4088738834885378
-0.19439733785399232
0.6237853359800646
0.22158185685676643
-1.0158441183330045
-0.04109296572210664
0.1738080691019239
-0.40721030429614935
-0.4239809576443747
-0.1246956044908627
0.5130028879683606
0.5656546954025639
-0.845833072141278
-0.48962853479174534
0.109709112073723
-1.6605421964282636
-0.24655400070085648
-0.5460749719069026
0.20979176386178167
-0.8364303536044062
0.7691023043028038
-0.049836970591088804
0.7983883687034906
-0.0269984905682894
0.01678653344977352
0.2936939489133535
0.11287614043221299
0.4776166210266992
0.10891830702454214
-0.2806172688236191
0.3710139799793349
-0.4037790841805289
0.21845130643366772
0.2063991335356143
0.909730086614889
-0.4625759195197017
0.14120774295714072
0.5240407627831122
0.15620942813259986
-0.22970597021443415
-0.08830648649806039
1.005860496541997
-0.6299380827226614
0.18090610885345115
-0.47054474963010395
0.9400514923533728
-0.0022135565036457572
0.12511220196947062
-0.6570818123609421
0.008154139039686287
0.20984675632632102
-0.6849575487328844
-0.7043201000136605
-0.8331489980107774
0.6019297240748442
-0.8829113906853692
0.23738580745030904
0.174813246925697
0.2096295965198984
-0.18443711933807025
-0.1735158174209687
-0.7680159096098507
-0.08643502843862805
-0.202683718259217
0.1502712922362176
0.5812558670909393
-0.14665586352569226
-0.312540492404688
0.6123560680490292
0.35442364211866156
0.35096755708713373
-0.13690552193856043
0.21261847565963576
-1.1205129470457298
1.091703251977045
0.6773552111003577
-0.6505426764538087
0.10241281429646248
0.5635919862624998
-0.11478756505126726
-0.25390306895803094
-0.09514066381506726
0.09766387677193385
0.5308956744845844
-0.21531699068802557
0.08390685973731977
-0.0009656546071629777
-0.190216978990344
0.21750413866037357
-0.5010235704634995
0.4096222896791933
0.3395922949852283
-0.4192784441327163
0.1567305199036181
-0.08789920049299009
0.19211993259520127
-0.13965562102408938
-0.6124473810386363
0.5519110269356841
0.3606669938289316
0.22996771158144358
-0.38101216957021045
0.6530149324163983
-0.6972904474720604
0.37427892395214074
-0.25589656725721005
0.6075714208611802
0.7952078702357799
0.4009699598135193
-1.3085727439019386
0.451278204512921
0.2098744912048714
0.28853751794638927
-0.1573704750525009
0.6510753191251071
-0.0770998049616417
1.3966184021844064
0.2438542946442718
-0.2629839074203307
0.7009448824133091
0.3698661812450319
-0.17521995612876987
0.3149098109375295
0.7902680961006758
0.28043855568946746
0.22722794420745146
0.6621150842808379
0.25812494115364837
-0.5972556897576942
0.11228073206347643
-0.8972194837975611
-0.09076424352453609
0.018795399345126886
0.4512779358647309
-0.41318509214015336
-0.5358649402719795
-0.28405138145990694
-0.39938092306778666
0.2906866106094943
-0.4284987189753363
0.4804659458823091
0.9987936093952046
-0.673053140036462
-0.921838338701416
0.928422281945013
-0.8225104983974407
-0.9011918889965095
-0.14229662422312278
-0.21113250311022552
0.3311511052748634
0.4702282750962143
-0.4822307836027566
1.045666489260766
-0.24020053442606007
0.09337741380431608
0.4072186943229174
-0.5266984663618975
-1.222745216011092
0.11625535603923201
0.4056934369293991
-0.3864029096511103
0.26248926143874607
0.33445868702476106
-0.15279162349411335
-0.708437609302731
0.5705016945100757
-0.5707806025108488
0.29242979236060374
-0.07078554250438387
-0.1975272941170099
-1.4812064516389118
-0.13706980114684364
-0.10682676562190357
0.09469767009942864
-0.08535431446446436
0.8770994510725515
-0.28366910967888137
-0.6222075922591291
-0.9658727925070384
0.4855657856519269
0.08605043315146874
-0.0033260217245380413
0.2348877765078326
0.3215222883803404
0.7221422230993522
0.6643806044281151
0.3670180397007288
-0.47811028674871736
-0.8051240059292988
0.14248629934006807
-0.10604842213921871
0.2972590422598248
-0.23964057916109463
-0.25490623092034514
-0.08088032445317746
-0.4212705966758273
0.4330005032679886
-0.19376668692931398
-0.8723546840104495
0.28019123845425736
-0.524067460411685
-0.1799795731801509
0.11963588761715246
-0.7536274888046474
0.24260150027066407
0.02913755828927472
1.1007896065384541
-0.9087053809620184
-0.15455519005406732
0.27102758890848716
0.013139773568532081
0.2565817073429923
0.8214138617201292
0.49507993589285565
-0.5339885837425467
-0.8235785753620365
-0.9836656527624397
0.3881258949027898
-0.018944354910037882
0.06312094149927873
0.15356197845807967
0.5749204993386007
0.6537224576889885
-1.299950936029862
-0.08879605650605119
-0.009272090225460869
-0.25211213063346394
0.08396018309700866
-0.12179397623337827
0.5931023260157691
-0.4283780977969531
-0.48626091484860384
0.17942062363080158
0.3677395492222179
-0.5034356810886279
0.46923582424940014
0.03968994303837009
0.14023469344292094
0.08785321471387991
-0.10033042442329952
-0.9778735256574703
-0.1690179209953051
-0.010158435814198723
0.44761476777314296
0.07918007084023201
0.472303852395475
-0.6643786095138827
0.027685799217306836
0.3700314166675094
