-0.02393720673045252
0.061571235748290376
-0.24963824726236994
-1.5391426426925725
1.3195872115218217
-0.549498039199619
0.362134332808487
0.35825301412608646
-1.552798786745304
-0.3111322017103496
0.7814328539064634
-0.6605496348665724
0.49217767128349826
1.2124108887615102
0.42009001599299595
0.4182556691372829
-0.6330461722095375
0.7485098567221717
0.2425432664407859
0.53785193708493
0.15213021839861915
-0.656101385240452
1.1166038410597594
0.130590513615288
1.060974751085673
-0.5086284985085279
0.11385802553850337
-1.3706078897501905
0.6355181375163681
0.36272695969786856
-1.1056807538242364
1.216959571365909
1.0103249425146101
-0.18565800877907196
0.647438398473127
0.9564945840917385
-0.8842445729216193
-0.039182587982332345
-0.3642250112756273
0.16924518778863623
0.3996292762993531
-0.5302467266116432
0.5908380665338614
-0.3638313317910558
-1.390726976358427
-0.8605233145322143
-0.07525482080682352
-0.5722583728766586
0.23252704858453105
-0.022549115107135476
-0.16271458647580989
-0.31557950142741176
0.6482287449522656
1.8728460338446822
0.13543123790745426
-1.4192239473263921
0.5107840480719041
-0.7827441274292135
0.40091697425197104
-0.4909450484384086
-1.7316960604235967
-0.6805022692595162
-0.20082357180562693
-0.3380454517277819
0.8143536422892893
-0.9105436381661068
0.8889139452608948
1.041351889681933
2.0624145000490057
1.8433936858288051
-0.20176759429414015
1.3327457156224938
0.3483527388780406
0.236200981880887
-0.47216171496650394
-0.8357007325625153
1.5198751769003758
0.10065431948590625
-1.4163059082793827
-0.5399524173900202
-0.035750019302198455
0.9181705611159716
1.614340366922517
-0.34016164407713345
-0.4147507295719959
0.9340025908517127
0.8490269054702577
-0.6210072793819895
-1.1772305252487507
-0.14692317970167568
-0.28025648326473396
1.0704301214927554
-0.21916481661158166
-0.3703409221955051
0.24486156464593045
-0.018469998713588953
0.48129407446511263
1.2726928791503043
0.5531598570069577
-1.0116126075524976
-0.32080978762199797
-1.7137733656543246
-0.4170431915149322
-0.05202133012529703
0.02155107314682292
0.8250833029480569
-0.9696881115430892
0.037110965478466165
-1.8975734447309538
-0.8649411911535629
-0.6102477210797859
0.7950465099460777
-1.3933927515175772
0.15022996361603802
0.7614230910131968
-0.14795241153401584
-1.5429099521794747
0.38666597984283213
1.022647630227919
-0.8773619502930208
-1.142409749025413
0.9487475060426948
1.5426283888055727
-0.37576872857473337
1.1166930721966575
1.5022228235379362
1.4317680637930923
-0.7588035349284764
-0.09055090219102024
0.550208255669019
0.5746534098696162
0.7179374797173749
1.4393100206767782
-0.2930667984137465
-0.7688599309159101
-0.05867216715143836
0.3293553410839149
0.30259513205619265
0.5348584620015564
-0.989944922306737
-0.7648792576225186
-0.5974215445073157
-0.016228604301694663
-0.011761311097206684
0.7230011961529637
1.1665335786115159
0.30527450545327856
-0.43813283807024783
0.17255784362905716
-0.05583684270576916
-0.26399432059916655
-0.7892250564887713
-0.378969235220566
-1.1524139828737114
-0.10899626258894579
0.5083219032466885
-0.1634526885880718
0.004377945063826272
-0.052653724210470654
-0.2962297558028347
-0.5247924275899625
1.095813938918107
-0.06662411213079455
0.13381143669404677
0.3576905365675779
-0.5380849607144909
-0.48219828145515103
-1.2951693180810973
0.2855294589298588
-0.6063460733603085
0.11963727291337323
-0.46786234782827363
-0.06350501170100824
0.3122697740881466
-0.6410262855769443
-0.4577546599312051
-0.48047897838056053
-0.5064034116805132
0.6571780486680782
1.0219015446862825
-0.5515886096386613
0.0002803955419056203
-0.20653424530294373
-0.657563642072322
-1.0967434013831232
0.6431299620948028
0.22232720995916677
-1.0635859992458618
-0.11742068838607377
1.8653389063717687
-0.3418840829399592
0.672632849932103
-0.3422338598816259
-0.8448631947464131
0.23662838788392515
0.45241352348141917
-0.6593837540453248
-0.6843129786043282
-1.1871895815911755
-0.8067880882915704
-0.09594314591291664
0.26412970251512125
0.32131791179602476
0.17184253754204293
-1.9923845103936013
-1.1802896488428682
0.14835468268426932
1.826351325244025
1.5755154591614626
1.2205985718765784
-0.6018384744476482
0.1943978140976188
1.446721694739562
-0.765180573031753
-0.14136213901263645
-1.6342922632039636
-0.02923526078212161
-1.6875821430193998
-1.4483152889028128
0.11005897407408582
-1.1286695523829005
0.5341773991812692
-0.8491223138458628
0.5141171763674344
-0.7031552794913272
1.390172842352102
0.6645309977303681
0.6385528405356284
0.7162005865698791
0.9926092490942268
0.08697014203899489
1.1471115737100306
0.7251700234952647
-0.22856067848342562
-0.18984329235511355
0.1980461566857499
0.7392753122603262
-0.46159948943676143
-0.1883267558488006
0.08785820731458993
1.8335030313368845
0.10566222425043371
0.17940078485042915
0.7547117207505313
0.16471399696418032
-1.1744903422429493
-0.4614252696441351
-0.15443060937114061
-0.031589978694946175
1.7849883322463698
-1.042003504551577
1.307664994430192
0.2024663181021742
-0.6889657131883098
0.8700271024825167
0.9184201058446259
0.47713674910142134
-1.0611226839777261
-0.567201950718401
-0.24785677902616232
-0.2234139150539962
0.051110240359880654
-0.269118830316355
0.8313195218546612
0.11839056792858799
-0.13995181657344688
0.27385644272099074
0.10477441553045075
-0.04623005077510442
0.05365825677081121
-1.6827654215991052
0.834242055061902
-0.7036348610452502
-0.07626184142541126
1.1259654989441763
-0.03978483089855192
0.04629179468462738
0.2767889527790585
-0.6554719753708589
-1.2270288540949417
-1.3736923749014744
0.10768780961500612
-1.0509586665883328
-1.2119332862324153
-0.012054947545932088
1.7570867960277854
-0.9840124714658964
0.06347011723760365
-0.8971325796376817
0.1836863361496049
-1.0083206866370555
1.6796710090308395
-0.31289620493983744
1.0013437103591463
0.1265275528269974
-0.3100114212281711
-0.15256305038247703
-0.07046014378270843
0.480211407674046
-0.5616522288406349
0.546027942014327
1.1054998572078647
-0.007455022324182992
-0.3373451236618182
1.4543147376370935
0.5430104246841527
-0.5935156356673534
0.2567689900487916
-0.14962830010914385
-0.4952020208464449
0.4272205169430636
-0.4845583307342046
0.17198713768918342
-0.04367124680207546
1.1382891782476188
-0.024907975675564242
0.09771892813415535
0.15331521113620677
-0.14106186912867374
0.34294301604780436
0.19478286851804638
0.46373346161197104
-0.10454694240469531
0.47399949989581613
-0.40928765674093376
1.2415855809789134
0.8141774263335575
0.8617824741264243
0.984479166696228
1.6183871722408174
1.0297071276508816
0.7469586769860206
0.27620166799278917
-1.0073833403518853
1.4061855912372878
0.6763887710935563
-0.5226940187652784
1.0415709076668915
0.748982125237474
0.9012234086165903
0.5851596131467017
-0.38980263139442967
-0.893807001885714
1.1715465049118672
0.47774376121818196
-0.48881029091765343
0.47226070971446554
-0.6742938532700712
-0.12159901527554601
0.6513889642965494
0.8227125298768546
-0.4870899684544109
0.6016003123475031
0.59077891006741
0.06811794279220768
2.016816321633717
-0.3530645717817136
-0.6805364230496997
0.9251571002649466
0.260560723055997
-0.5885053377681796
0.16945284988344037
0.28135327093575835
-0.9057341363643194
0.4290886778801085
-0.7995283826120232
1.1575250760424545
-0.5677846214596434
0.7068067725520216
0.4604023541082023
0.21950701001112286
-0.30067358070601585
-0.41329610060387123
-1.2807054303809609
0.924314763351607
-0.7728170294218688
-0.6316957240755914
-1.0087805338840068
0.19930475274679565
0.34562640800038075
-0.4768918629510032
-0.6589222872546749
0.7012856249441185
0.39426898898575113
-0.12229714001672887
-0.19361951582084175
-0.4271392875987753
-0.012277767232849846
-0.26583727899988496
-0.21873805197586976
-0.375902849319869
-1.2375170138648244
2.0516733856100116
-1.186585047630078
-0.4699100139929676
-0.42652534147479
0.411270455140368
-0.15283534559882456
-0.13793740965154586
-1.0596032315216786
-0.45890919078291037
-0.34870874496114346
-0.5314053649957293
0.2299272402160334
0.3370738287626256
-6.272945400451202e-05
0.43808151966658404
-0.506460406266945
2.015683287634829
-0.7358128140453275
0.2700702059829052
1.5294662927266591
0.2434005320620785
-0.8627373233493534
-0.47743122476504607
-0.6995279853060246
0.42709174579078324
1.2246036098798514
1.690032811298956
0.4217514825199786
0.36126830647266667
0.6348532935238271
0.4331429386047047
-0.3986071263161335
-0.7542377138975986
0.008654878844830904
0.4623854934195123
-0.022411353334820694
0.02276286849681533
0.05511787248954514
0.7495948249586906
-0.3535308935683183
-0.5026612505611125
0.233580314082947
-0.09627255899270273
-0.5213018393747721
-1.0746999166149092
-0.0021128861129358634
1.2098416144293844
0.5240080572521291
0.9101348515008467
-0.39209413711278945
-1.0343623301420548
-1.3071551256835616
-1.3574997321237627
1.1720651656517778
0.08593130886778767
0.8702048585966837
-0.9981232858163602
0.09002740809784138
-0.8586216113307822
-1.142595507066637
-0.703591664456152
-0.8320477867169366
-0.7781598600240645
0.49682656743440434
-1.239045132644959
2.2250416318640034
-0.76061850391865
-0.33519491477553304
0.1635961642617788
-0.7645049585250108
0.19743211747309358
0.5969128093233866
-1.1532412702700643
-0.6443239297651565
-0.27289527027786675
-0.8909558430013876
-0.6600022199088521
1.100123691731507
-0.18104442466840276
-1.9399503596306729
0.5579475333044153
1.7682840194922433
1.3845389027664603
0.3452041898301452
0.1358978052326863
0.00417558163545903
0.674398477074045
-0.28213561352981564
-0.38110178829129615
0.16352660348137854
0.23074498584208306
0.6475390532396865
-0.0518026638339729
-1.4147354965102699
0.36932913640290516
0.4086923621062032
1.3269652540737513
0.15356315506005844
-0.7371284909509819
-0.9071097057371623
-1.9071643158680611
-0.26244419790083506
0.42785213046172693
-0.02138966100013286
0.8480571157194721
0.8015044908855453
-0.7926931146663883
0.41901646518352376
0.38824793845126365
-0.8862931089569595
0.37351836124794197
0.009713255689293154
1.042713070493653
-0.7124828157234165
-0.2192376080711949
0.5385106869182837
0.400972806418049
-0.6555203374327171
-0.30421422731947567
-0.1402032722241035
0.18854538281295707
1.076417579248126
-0.5605742448837545
1.231075106861209
-0.6592664459835174
-0.777291239245342
-0.606828822856945
1.1356776720874031
0.043902323666462795
-0.7165459413958473
0.49523374228224526
-0.7850891936902913
-0.23057715743793072
-0.5815736028686388
1.0712029303128048
0.9176727403749323
-0.2949396505867866
-2.1187482556880397
0.21622079574909692
-0.7765979235112023
1.6965862050238003
-0.05859957805570992
1.5192091037119908
0.722341822210935
0.1295239517556478
-0.6974643335966086
-0.8127168804022337
-0.4105351857740459
-0.6579133365013183
-0.029517449449711186
0.8531383153786332
-0.01923368233845782
-1.0751672806065091
1.7712702481050795
-0.7274347600046507
-0.6898429136881007
-0.7500314259636779
-0.41191232929248267
0.6522150621762008
0.31559268935567597
-0.30515939899540767
-0.14202895799042992
0.6403686854313034
0.6328600985032615
0.4770518617812659
-0.10539872026193989
0.8462759257833076
-0.5120943389698963
0.2663498270806804
-0.5841968453210047
-0.4338232997220733
0.28732421276263287
-0.7878497862489838
-0.32608414415273934
-0.8540724444596346
-0.21254885383314792
-0.9131588479962469
0.9173554427934613
-0.12811752161878776
1.0728664706742645
0.15585607650092792
-0.6035620949383164
-0.19595394723143275
0.5998512478746046
-0.6035016281245571
0.07178271231273853
0.18718720417574922
0.34435465808172055
0.9016711023611934
-2.0491717221345835
0.7057600039537024
-1.3105729030811024
0.5438947325793949
-1.1342197894682085
0.5641380515662353
0.7944276904801355
-0.5088255129880582
0.9910614139554819
-0.9653639991133595
2.0918475612715977
-0.1970114120822375
1.4711440185359939
-0.4530951769698336
0.9134911587122121
0.6585207931849216
0.9475020592438834
-0.5914506665652488
0.22417493510735229
0.41224713348529396
-0.21300366776135066
-0.9736522185364216
-0.5529341673320401
1.8657987415010022
0.4851434365153382
0.15679729190169941
0.057842164293238185
-0.5342095647895373
-0.7546065398477932
0.4038094676950651
-0.37649467285483623
-1.2761777079864114
1.6673911205710634
0.11139286316730501
-1.233590099457027
0.49886072373267143
-0.03486488540887933
0.5623521958791597
-0.33203902927788764
-0.10746230347863495
0.7088366225980861
0.7146188187358168
-0.5014679767144474
1.3429623962524833
-0.7636619699391591
0.21036472727076114
0.9676963184235675
0.28142236356192557
0.36031592072786117
-0.7333841532730399
0.8077260464291182
0.7360918364275529
0.30311056570986455
-0.671345950447239
1.5642640817689737
0.10917050246018595
1.2376946164095433
-0.7539755033254949
-1.4178043341384932
1.0503505212494602
1.9684162639562879
0.7561728560760602
-0.8555448487201746
0.19923635457064784
-1.895544875250851
-0.7704756652760488
1.2056124271996296
-1.1020793681570382
-0.3997379852252475
-0.21068569833160367
-0.961648165737355
0.39472879480331047
0.5339676475280248
0.34005599106141465
-0.5535511429378709
0.6618874487408613
-0.3460700905381721
-1.1739692913821291
0.5218046481121651
-0.08137784906107846
-0.40782705363336047
-0.35812028545324803
1.4408707897730477
1.2680491639805636
-1.653543633273359
-1.0643259000326135
0.25830375028542735
-0.15300068863700841
0.17163877990351328
0.7529249104246507
-1.2673104142686507
0.9786307399405416
-0.7390096125624979
-0.30036131257696513
-0.8915996838292788
-1.725224872582277
0.4984967902911538
1.091483344505546
0.7272442504816108
-0.6953214644238221
-0.07045740598819933
0.20927148471364554
-1.566714635218216
1.3091250642443464
1.9753807836534527
-0.264408754549898
-0.2621054378246063
-0.32005831903402027
0.06195827770628956
0.43430700308985404
0.18411821707668882
0.8371650073305708
1.1723981292698242
-0.25029846891740193
-1.008790801439305
-0.6712804233719901
1.573108459821283
0.3273170338296857
2.4123179539228703
-0.3681171273225789
-0.8763248518475093
-0.48082678862491657
-0.2387589352693381
-0.4614867065596534
0.10475540933703409
-0.2125776024272964
0.44275916852272107
-1.521476588779129
-0.6190784918290935
-0.4156391020177006
0.39620276465708565
-0.481038515316362
0.9103567885922401
-1.034067880952127
1.333592653116922
-0.45442207502292
-1.0272821559438374
0.5252199498808224
0.6501826880147292
1.048070931080144
-0.7575083257118341
-0.7414025080139259
-1.3174232583632208
-1.683012570960782
-0.13498104784253295
-0.7756697994952835
-1.0810460410242184
0.24049360561381594
0.6296403770569888
0.17101216670135427
0.6808692214970222
-0.9800589625158627
1.025726264806224
-0.5550758907654942
0.38956439026010936
0.07736856203200349
-1.0531650933362438
-0.494376184657963
0.5491012801340951
-1.1555555271314815
1.0591431334677908
1.2272929201284701
-0.24483127309883257
-0.5497993375382628
-0.999335476747352
0.9246065780240061
-0.3833652948990681
-0.40318205856347533
0.8359055685897044
-2.361293859761687
-1.2427169439390005
-0.26972650456298297
0.3390913057932713
0.15525674165024528
-1.242169195449055
-0.18795329163724367
1.955032075668771
0.035118192192263475
-0.31339991383114196
-0.2996133935638992
0.15341515795915184
-0.6252778589684993
-0.719897654341901
0.4479215676971437
-0.24598459262519531
-0.20733955331137122
-0.6119892556999826
-1.097003071973139
1.6551086525881977
-0.0587167939683676
0.08378297058033812
-0.01124490951794875
0.4161989696867071
0.6669268257623564
-1.1560127977712205
-0.776966592811056
0.7024532545447651
-0.3294105958728021
-0.7036644123884428
-0.36589445725107667
-1.318156680397999
1.3583710635788628
-0.4234197265175935
-1.1433337788752336
0.07179953348768175
-0.2892443805463219
-0.6776024702574961
-0.964971221136488
0.6628512434749372
0.3495150151983849
0.8313171636717998
0.8331807918759675
-0.5204000233502193
0.32674731988526495
0.5028226635532187
1.597129537962649
-0.13847106646790613
0.943537894916384
-0.36359169793050206
0.5560477613972877
-0.9898844352248466
0.9041286126912246
0.24809710350725997
-0.6487701976562112
-0.3185761337713989
0.48081555755054267
-0.0476510955238134
-0.34529653597870524
-1.0756089403296998
-0.12251503155058013
-0.5214026720591242
0.2288832047693208
0.005333991209355999
0.663230527183228
0.4783516133201272
0.5361341440869714
0.6950981853384368
-1.8099505210636173
0.010212637291818538
-0.3137053859035005
0.016397537089795744
-0.09829644818882972
0.7816089905743373
0.33628691793250687
2.7717251933497025
1.206682641061116
0.9270799942441064
-0.21516771339503482
0.17563216828185635
1.1977154751314143
0.09129652797228377
-0.2617604147327175
-0.26820691236676386
1.5146669268024553
0.18197106677080407
1.204907344361534
0.6946450102520076
1.3172058897552954
0.36428943252900536
-0.1393154527473646
0.12014523269367638
2.1422419444908867
-0.8043130696867052
0.3155630205624438
-0.7661482567264544
1.035950481732067
0.398676022931029
-0.010279252148533813
-0.20735920368775468
-0.31483895376259086
-0.5298518018828199
0.15070289528923836
-1.4251820259170351
-0.23337116456914586
0.816686385498177
0.6241751172383195
0.4330524546227689
-0.15604836570084268
-0.963354105101325
-1.1781113480983454
-0.5606628906337453
-0.25710826913756823
-0.912360297466022
-1.3367764142535643
-0.07433925965008015
0.47992966950722454
-0.05741422268267943
0.741777351095066
-0.08478338022084822
-0.6352008289579666
0.8222665415694881
0.12832333163027826
1.5042172986164517
-0.9574924560779788
-0.9382017325114604
1.088234470664149
-1.4348717508520612
-0.6516907199647808
0.9861876011546009
0.29026926239675077
-0.8605860165522623
-1.1748509907370963
0.16985468350406674
0.5103453138556289
-0.0811783396852423
0.5212382151254326
-0.3067773579300846
0.6573601820426429
1.3488455984791425
-1.0218221180886446
-0.8547462473356757
0.8962586502313719
0.1740377912678141
0.8592500482653078
-0.48699729673170733
-0.15020243775103187
0.5436080177027482
-1.0495849297980615
0.34874703114123495
0.7530014001589427
0.7977308687828666
-1.0668994587264466
0.9647143696970986
-0.20306515657005988
-0.8994073234307799
1.301919104882696
-0.9825079743959586
-0.306301404474999
-0.120336264761249
-0.9560446997121397
-0.07514866744709947
0.9821949938254608
-0.22781772830751196
0.15022053330033464
-0.12292033758345283
0.7788814144447839
-0.1514063229745898
1.3108534173846156
0.16674554214079929
0.5356214439096296
-0.0065698976105842966
-1.2228944670181396
-0.06888045628128597
1.1381267291820045
1.0194233959925307
-0.40929555157579817
-0.36317728244278713
-0.1364754417167432
-0.3727735843773289
-1.3670964725772998
-0.04120239352963234
-0.6684844856645856
-0.8075360407384122
-0.2674092772621745
-1.5417369304482862
-0.7707287988848264
-0.2129641798555524
0.7068070499530597
0.4760445788420682
0.49310781130352627
-0.06560905660926158
0.1209957924103175
0.07688681453021595
0.6888682320213768
1.6280038276301143
-0.35835710602705195
0.404572113328492
-1.2205274973167684
-0.027047798099800846
-0.014284551705939452
0.26939360420065345
-0.16707043449930534
0.5695199853532327
-1.5538914928667786
0.9562900347126427
-0.7439143313447553
0.1934559660099829
-0.4759240590882189
-0.7046771474431965
0.6445616239890819
1.0366359798642066
-0.5009788172098575
-0.1150661111297197
-0.22647856103607872
-0.6008080737278432
-0.3639759177082006
-0.27036347185130344
-0.5659787198746882
0.43450834198962685
0.3067941244903593
-1.4960401822418534
-0.07413706564494094
-0.6717326450981136
0.4733995767836053
0.045500846818937055
-0.024814049934129168
-0.05403604532781269
1.2176986816071398
0.28548282886086995
-0.5631913083143723
-0.9157559114221253
-0.8923771236207252
-0.8532431848329147
-0.19065195113910427
-0.4753442990721838
-0.26765832950603724
-1.7102933503367814
-1.5774760547265574
-0.6117296239129506
0.2568360712757536
-1.414542501469904
1.0813419780343554
1.8650794344052464
-0.9032655922359211
0.6261495585109906
1.092522587582296
-1.2874445110829398
0.9678340524184119
1.5722578462476067
-1.3021918846729856
-1.0724060472281292
0.2774759178039886
0.4925907505491657
-1.0607632281800534
0.0900652960383417
0.6184462591466984
0.200168042402744
-0.7519395317220143
0.664448916343716
0.5703152181892159
-0.86921124647623
-1.025846217839681
-0.6336786569436581
0.3430772475207551
0.7068021574496994
-1.3209128175301084
0.6643683846217526
-0.29286169359194814
0.22122111793983845
0.8554038303754027
-0.9072833111078116
-0.04330036059622144
0.29016364997221333
-0.3529650803880598
-0.9721539802984561
1.4480614402201626
-1.0305382701064527
-0.539133221369065
-0.5235878580032469
-0.16933594237510075
-0.8218722748085322
-0.12065969178622252
-0.4519233963732591
-0.5461384608850777
-0.9827089074336749
0.038677160188628656
-0.43925711791633276
0.09064879106650289
0.7150358477048414
-1.5370462853235818
0.796001536753442
-0.04984157205461348
-0.5244801203745069
-1.1096913372524129
-1.1706859236993732
0.9755587588508197
-0.8450496495710748
-0.10834644417893863
-0.11922244882521982
-0.2611540104417791
-0.3485621095465766
0.8243924884020106
0.7051735099250123
0.2894377919020303
0.8599020523426462
-0.03550614418883635
0.44178259052957514
-1.0270903935159743
-1.6424321335125882
-0.027413445434400135
-0.9655804188088332
0.16824337981642384
0.09493805357348262
-0.7311080762548936
-1.264496982009224
-0.65158334778315
1.0007067829022807
-0.39237971037328556
0.3568648906129943
0.06506700111447539
0.39741961590727337
-0.8930501344714541
1.0688061850764274
-0.6472568249280443
-0.7760700582189549
-0.6797455340702664
0.4817016580768875
1.9940767862438267
0.09664599968333237
1.4954935418960227
0.5222871528205056
1.5209288661945113
-0.11642699023247408
0.9620540050210293
0.5161340678263471
0.047245616740229535
0.586094113346142
0.46237121840767603
0.5493139726191303
-0.526329472628031
0.408613747423244
-0.6933934563708786
0.31637004714375894
-0.46025894165059233
0.25565926071963974
0.38308038115405635
0.4058731520999661
1.910792424605325
-1.1706942219646412
1.5943605662162796
-0.5243999388147994
0.33903941701980533
0.3923361460854395
0.49858029972204054
-0.39007363297957004
1.0164541121816493
0.1395527523781978
0.9198734915227297
0.09177188072291742
1.3405502446984856
0.3542855045491112
-1.0037671276830264
0.16131912494401407
0.8938927836960402
0.36414370568258
1.1011629717098121
1.0216140511901122
-0.10560925672785504
0.7905858295783005
1.4091356751741877
-0.9579990369524979
0.08254383440947743
-1.4159071196108726
-0.07865794043514868
1.312357354729237
-0.9118239086730286
-0.12276430947790123
0.2768003586697215
-0.4120364040608398
0.6018419352108448
-0.39123266265191664
1.1246241237516812
0.27628980737078296
0.06753819918093462
-0.956945336267127
-0.1618261257770776
0.7502598653214682
0.6344078310681455
-0.2129103401746108
0.6380636458698407
-0.5161014781952811
-0.07299692794607604
-0.48762918579701964
0.5959220094104448
-0.3676179567609119
-0.7744970718785521
-0.5627306233579465
-0.14739460073540928
0.20001295969732685
0.6177817711031388
-0.4738056621747192
-0.461925174519319
0.30979302915033163
-1.3386026092142183
-0.0016678008124419719
-0.028824820200503698
-0.5118862792280074
-1.667247563566362
-0.9363473798905874
0.5905398023442783
-0.1840041888582801
0.7185347572782201
-0.24494176633715692
-0.552539125271917
-0.9040569930587634
0.2098405299799601
-0.3406474209735042
1.4295210315992821
0.6247476044593061
0.2920019766395552
0.52059687036014
-0.9135579609550726
0.6043853750882509
1.0132180534259887
1.7264435411381767
0.6794755299439434
-1.3122060574826246
-0.5683483548408488
-0.19018409287806703
-0.22859684428289406
1.6661385816800993
0.881617245042998
-1.1402064580741602
0.32320935607263646
0.3873232594372489
1.2380219963287007
0.8075425629799636
1.014701940349951
-0.2629407260209803
-0.07748387370524441
-1.5964912389553816
-0.22452260105843358
0.02493167442667312
0.613340873829239
0.5509955297266096
0.2287835716378744
-0.3318039066561001
0.18594257347071616
0.2483693493875055
0.37008793189307426
0.26237290145662134
0.7247155684399519
-1.0929816459413435
-0.2168278901905182
-0.2515451734727312
0.4692073965643875
0.09269561051733971
0.19548720486530025
0.031465869372659605
0.9341198609372408
0.027640564946851964
0.11618136905089499
-0.23350646330250632
0.3849322057533049
-0.721128967668987
-1.53770712838327
-0.14175826804490022
-0.263062730528006
-0.6825920076587724
-0.5982849408931347
0.9293420398583153
0.5176407817723294
0.01121287721887676
-0.0568265707979614
0.16671526893328747
-0.01865019258322559
0.9848219624860874
-0.874700395495298
-0.03703071026911739
0.7893725502653325
-0.9991801824028309
0.42080809869269836
-0.979038208392425
1.3632915507052308
-1.7816537014237825
0.033489318868392015
0.5060305847643549
1.9512964616569852
-0.050561952757850276
-0.737690249177954
-0.0298701357552979
0.0011547716786105555
-0.18979520424803284
0.6281456303658985
1.09509736621712
1.5218600997139358
0.04979539952913935
0.3669756108403342
-0.8805068833054073
0.6168004254341197
-0.21913899596477918
-0.6887401893876075
1.3750246743756391
0.5771658590451874
0.27408066501333145
-0.5914926687211
-0.7996819230576169
-0.0540142468209218
-0.21027579983679495
0.05223973321558806
0.006779818258196235
0.4423250078635649
-0.0640032958705873
-0.355354835587508
0.11818154859825689
-0.767109016312248
0.49832542633182986
0.40595412396072406
1.0119553566658257
0.924335404911792
0.2617353284441578
0.2900150903733869
-0.4175650114404732
-0.5553783241272342
-0.8289220457212254
-0.3411660474450235
-0.17220957245868085
-2.053935456841328
-0.14274827994665013
0.006452646455113065
-1.673591212970924
-0.3991455401730499
-1.0462605882271712
0.05156210119722207
-0.004759577843521767
-0.06874026680465861
-0.31936178415264
1.0748727679116536
-0.1504428468512023
0.4697552648405326
0.4176198443240765
0.5252538814530706
-0.22734580914219893
0.9903533654317671
0.18455946780076982
-1.8306123523225422
-0.41691360594125226
-0.6261789126757799
0.32478299239750946
-0.3234409240915591
0.3841790314581302
-0.7646696994103905
1.0931716695329166
0.5080305178216219
-1.0347937111768912
-1.5696504115270797
0.48541246057424353
0.26991567183377113
0.24746275210614502
-0.3492407508490107
-0.5821317855093777
-0.18396879510392677
-0.03268419869255734
-0.14806096255646206
-1.0336076751085495
-0.49215686557874405
-0.6681137257126788
-1.1081302751026334
-0.13521016855467355
-0.2065078574880423
-0.9262518475356716
-0.14092396648777794
0.7934368426486385
-0.6420769206020832
1.6456366539821579
0.6200586985317075
-0.2823896982692146
-1.9426374504700146
0.826726892846236
2.2147593976730566
-0.18890962991485843
0.5796817224130677
0.25185432558469634
-1.5745000799024396
-2.599556569888546
1.485124496070065
0.509441944815348
-0.5686526731999496
0.289200858523576
0.04949231860434865
0.31550632038876697
0.4536961337363496
0.8175409966339822
-1.760564137647293
-0.5034365393131399
-0.7121455759748848
0.8409363427646346
-0.3610389422586609
0.8965830596506447
-0.30856582475088595
-0.29515349736373964
0.6342416334643618
1.3946112902045085
-0.20674738354833003
0.25920376064984935
-0.05968542883512751
-0.5271489055974198
-0.2963709727923583
-0.07999622429013481
0.3345428308899746
0.24740110674207055
0.20741716204490468
0.5513999164004544
0.21051032287589438
-0.25324270397260257
0.40418548210302535
1.164395153660236
-1.3044399141990282
-1.1048716167660846
-0.4884318180969499
0.3717576169878647
0.5119172576299023
0.2543480164005873
-0.4795347215469815
0.255331452456084
0.2750874929247126
-0.4722706672144501
0.07206368039903277
1.0489322236918213
0.36527836247949985
-0.7809728476959035
-0.8460453728580591
-0.3764709967899929
-0.059287657784624026
0.9456013140524198
-0.009986832643632981
-0.7781671662772732
0.6391960138353565
0.6921823972672627
0.01701299269140169
0.4460021732626706
-1.064823400781252
1.7748861426770797
-0.28906429439932235
1.2915976978923416
1.1604623446313456
0.5982127394327326
-0.24503642900467415
0.5274256102135374
-0.8089159837464144
-0.45868766945329137
-0.48553729303078297
-1.1802987963781684
-1.0238028600008398
0.3518838702483934
-0.615003038358405
1.6377609131719362
-0.17956524870057727
0.9329935607401254
-0.5428767035059002
-0.5909373502001176
-0.33175842468639344
1.794384917666537
-0.2839527697230727
-0.38706425704189995
0.747208143913668
-0.6818427794041686
-0.4147705307103124
0.5442037194822759
-1.5941484553904868
0.7142561976038018
-0.3187094261377316
0.5456269476059263
0.26204120473783643
-1.1576971084256185
0.6002574348564838
0.9104751990635148
0.8644335858956929
0.2588198815042481
0.10826557484889622
-0.35523578212632406
-1.7089012905941021
0.6401083640317473
-0.016091322313364076
0.43195443347092344
-0.524573516607961
-1.036323798775095
-1.367709122025493
0.09349792403141297
-0.14591726730072474
0.0470297974672077
-0.2903532434986607
0.7622419979219791
0.6293349970909954
-0.24412171833972549
0.17458019212871193
-0.11200625261278119
-1.084172975194595
-0.8276432785642773
-0.29806139540870363
-0.04505111130324954
0.35717360253644487
0.4278431023272291
-0.8052922811876293
-0.8555263846175198
1.4346242729501963
2.278638179192043
0.5737977433832512
0.026647375873041113
-0.07620472026303929
-1.631410856433466
-0.036028980156637636
-0.7651668966053268
0.35820299672148065
-0.970060052914154
-0.6730095964508521
0.10202312180499817
1.1978843808700956
-0.23043976917463355
-0.21632585501466706
0.21516373406108613
0.7534750799358823
-1.957861054374953
-0.9366605920681854
-0.17401807582598727
0.06353006621913286
-0.8081383785736111
-0.0878271461950092
-0.5568737920117712
0.2758195471286419
-0.3291995258083745
-0.9070008421174713
0.7858377588473318
1.6108352922705869
0.6320577609893832
-0.007529547397862997
0.5351901776706038
1.1257828200545217
-0.14526250681494132
-0.4524623967263995
-1.5497707781871484
0.01575727368303048
0.5235019136753906
-0.09798918890260333
-0.25475228108258385
1.1849124433942064
-0.5712670686387707
-0.1712489543853037
-1.3793532796576484
1.3969065697177656
-0.07754125346150754
0.5317988912382763
-0.02860289063154578
0.597514622504581
0.0072292057339317095
-0.5900012046615315
-0.49422042517825904
1.0470924717354493
-0.45387937833112996
0.3318291002770462
0.616611494658949
-0.43175523224444656
-1.3752677846232602
-0.24196635501098324
0.9499511336696627
0.33581009179239796
-0.7632568190289961
1.9027235701919831
-0.803643593507519
2.292617830874347
0.6047142041907871
-0.5573735978489646
0.7313205566577478
-0.9747601487493547
-1.1946496390310857
-0.673829478545022
-0.27553380029365687
-0.029494620938964933
-0.9782947797204724
-0.22929325497876513
1.1384777700007573
-0.9897586641689269
-0.5657974169114961
0.56013673787478
0.2108595251607374
0.18946375524313921
1.1131588534179457
-0.7625245897973341
0.6074864671602285
-0.9147495999881761
1.254088760700749
0.5448307792268688
-0.9344459738354569
-0.9377504558927982
-1.174215217215552
-0.16419641322232154
0.8045853750034504
-1.293625327152685
0.5616278857302546
-1.3778183301570697
-1.0193736827635351
0.42552871112358515
-0.12072123967257142
-0.4261921262597234
-0.7939859060429024
0.15285665220238082
1.594675452841948
-1.158533872076172
-0.44382255212972177
-0.3936628256858686
-0.2315822388639211
-0.3163021533434871
2.013095572734647
-0.8107485455059922
-0.0769698827878845
0.5305922116076032
-0.35854390170784967
0.2896334603213197
-0.9897695373887059
1.2431736482557572
0.6015728684155255
0.21848246898955487
0.25799645209485567
0.5426222387085269
0.2798483155974069
-0.09384735016924126
-1.2367696385867657
-0.6514630310335681
-0.17228661573163778
-0.56977854390231
0.4753230808393024
1.2602077797336584
0.8908588092112206
-0.15779914180319388
0.27676377604385133
-0.9880897762353764
1.499331618323366
-0.2952567937911161
-1.1627482564064757
-0.26686100179166883
1.3914801831328054
-0.578400087805379
-0.6607245234441927
-0.3384672339568524
-0.10542754581887526
-0.42690434205019523
-0.6006964263665161
-0.13592437742301344
-0.35469764045907853
-0.23304129213905656
0.2893368620884046
0.440758958640625
0.3228447326671149
1.05535406464226
0.5439458126908259
0.8553330550495503
0.8893259507131184
-0.35654293915320423
0.7029203939714461
-0.6041319377422634
-0.4641885988463106
-0.8656771764311959
-0.8458908412446864
-1.2876193507847125
0.7160185029419565
0.5280666418101928
-0.5108026852087949
0.8526852962662762
0.4904509516616435
-0.9684710253678761
-0.4370601654250683
-0.32512040510191265
-0.9209989555744026
0.841264830293784
0.16457417773695754
-0.22073494803261284
-1.2382560545473995
-0.2932692336123454
-0.4713059194720231
-2.283429936820132
-0.19010460699971202
-0.1014420071557261
0.25253085048625745
0.42390062372675713
0.769502055850271
-0.025987021304361424
-0.059899989310332816
1.1041157971440108
0.19907608786891218
-1.2067055391112882
0.7632671973737972
0.8676687238918267
1.1665355923520049
-0.1408922858055441
-1.1895889117182203
0.36876571168233085
0.16733783229243215
-0.7994102512991536
-0.19629020008224837
0.6505452513530782
0.3600993167208617
0.4099282954632686
-0.6871281696633988
-0.4248480920619274
0.49548055176043027
-1.3127542527492024
-1.6839251783098044
1.188423052477718
0.09657711492568855
0.43516644982076624
0.5499678192346733
0.7348023891752042
-0.2934604474634155
-0.7978184340968799
-0.35416417945676465
-0.8701271591106553
-0.4748396672905495
0.016496189038215703
0.6055258972760261
-0.6706801615023339
0.6795845537451684
1.5957782594014611
-1.0770332356428505
-0.366348939153836
-0.6586345910775523
-0.7766334481126909
-0.6601106095310587
0.5490949498802697
2.291461937731266
-0.13265252898402763
0.07420386956460567
0.3385179990873078
0.24985957358375777
-1.7964321008319823
0.48431370610459745
-0.18557066861111182
0.27855898167691107
0.20022244379987794
-0.8354288169564982
0.23098773337633396
0.41910183318568267
1.1335667658518633
0.4736371917121248
-0.3425183320507072
0.4469826988580765
0.48217179104999563
-0.3429673049117428
1.105178122592052
-0.07723997369909386
0.06750011654434276
-0.6569340725335906
1.083834614915693
-0.32043929066566507
-0.18209667508137797
-0.5409216967601915
-0.11957010249841846
-1.3007140096575427
1.6736574798190675
-0.16326189676507266
-0.5871157803454666
1.827233925928498
-0.17148400978365952
-0.5319272098863038
0.6723569225307581
-0.939822476484945
1.0457215626130392
0.299169707768236
0.9902763850017148
0.6400586812492273
0.920410808471305
-0.05523150542976367
0.7960827844051336
-0.05045292466096089
0.1971199776632756
0.31922004438804746
1.4847302712386143
9.658648949611992e-06
1.4354038609591442
-0.29095368999309495
1.7441132793321246
-0.4930781563746658
0.45817322369998925
-0.1449887508580674
0.3277140181766355
-0.10699638712242601
0.043671601049350244
1.0212418735596847
0.8901904383370695
0.2837219973294544
0.9833724295431983
0.08379395491585517
0.07662828432574131
0.35156490202859214
-1.08655667045065
-0.6787512475677365
-0.46168024321739387
0.9401388478878183
-0.3636325906150386
1.2807339274329914
-0.2657283240061362
-0.048640785554215915
0.09498919531220829
0.1909733871575503
-0.2170194333367847
0.9060934153007627
1.5617635931056866
0.07660560601869015
-0.28355076031773285
0.43534642066535506
0.6742331131335426
0.976102513262411
-3.0972420628848347
0.1827288992293119
-0.8222393301037436
0.5428804662091319
-1.2003598771262238
0.4045915530698571
-1.0474395103597791
-1.0516879124089427
-0.7002061649031369
0.7761915685923559
0.829124471211894
0.3050444502289976
0.385148791075816
0.09065977892069677
-0.637169638563052
-0.7409272213093476
-0.1853558468060278
1.4348011060313268
0.7335736165120602
-0.04077051263298481
0.27613126086379974
-1.0703258480296838
0.6159580317613678
-1.2188170678215136
-0.6184688141380281
-0.325797842283306
0.015090920456542693
-1.2105963549551144
-0.1451345340051748
0.14375032147479117
-0.37147272693694683
-0.2747864107899302
-1.356174297742169
-0.17262134022051806
-0.5978910847215702
-0.263230955424488
-1.0674557696552136
-1.0701980166494869
-0.4223755170044806
0.004782263142936061
-0.5037228032288973
0.4633382417753749
0.8445824108597094
-0.08241383835522001
0.000765438416383768
-1.3488530938878414
0.6808265021866622
0.35945289057709884
0.729445652715657
1.448259414767855
0.8590585350452501
0.9107449676078758
1.1722312044239847
-0.008354430633234974
-0.16708388362464066
0.4554657562874924
0.33610949102134535
0.5533108152379624
-0.07059174463001172
1.4074725936214962
-1.165077530283363
1.3980285199882176
0.3519870283392315
0.18143261786973586
-0.9726394655494754
-0.7380739609524305
-1.206607942478428
1.1783720212621558
0.2049516961561555
-1.0651707197030753
0.04492608994112246
1.0708429298430826
0.8426162748372132
-1.207611168495273
-1.0309970831600952
-1.3319601722407406
0.48007989584203387
-0.38326807819438136
-0.04149648918842119
1.643366362199823
0.225263401623858
0.9268101003806467
-0.045391630029123664
0.12812368000829658
-1.133162969617603
-0.6097935506302428
0.3871402308440473
0.08957506502359883
0.31113701680526107
-0.985360645884369
-0.25928897836888143
0.52051874512999
0.1685829478666523
-0.5260613307371724
-0.3907431141974239
0.3206670507278758
-0.42473062486490787
-0.705502281873325
0.7870994892393313
0.7069755162246849
-0.9860809464629147
-0.1419164613394241
0.05800864294572572
-0.229229149588157
-1.0696609474080208
-0.46553203960772543
-0.8057020457631842
-0.7342576564518776
0.3464128282860286
0.7486839220446198
1.4276711111112133
-0.45165057459896907
0.48765284673179266
-0.18106698282913222
0.8679894697682169
-0.7855893826950671
-0.41173981025452777
-0.21590047260380005
0.5804102544018155
-0.6174167747639057
-0.0860218704766309
0.32935120380791677
-1.0943339869413338
0.9188934305518939
-0.6915522315049938
1.0922153487221045
-0.5418866276445253
0.032186769184040606
0.38535819542810235
-0.31841052795920405
-0.9088739975771704
-1.774066999595835
-0.5408283952564777
0.8045757181059606
0.14292052995283905
-0.9623072159286592
0.9498829351110247
1.2155070805225878
-0.0804900952464197
0.7453140660061579
0.35658308483452805
-0.5717291137508569
-0.33598695486269714
0.03962763268466293
0.16838343586379928
0.3816570074303226
1.6801363936776978
0.9084791091850604
0.27836620087394043
-0.18641150609194035
0.689095976374666
-0.23158619593032653
-0.9815420848576768
-0.4622396988814321
-0.45480318292714045
-0.5643317099539746
-0.33570756720617495
0.40005448626592083
0.15251221590587552
-0.3426520911219651
0.5497725515532601
0.022846297901710583
-0.6064030330475256
1.269869381584408
0.5479695296154902
-0.8604146810562704
0.3022353003997731
-1.2005893372756535
0.783775510483697
-1.134187151095015
-0.030934834494004776
-0.04590879835721695
-0.5429231375484678
0.33756718164872856
0.9931448294727516
-0.260071482627874
-0.9878385171804519
-0.1572233006902507
0.10269316311410012
-0.9769587576658051
-0.02595212674331182
-0.4589733106132734
0.2678988063610298
-0.1612288768685803
0.6538932344663161
0.29644446441822875
-0.951883627419968
-1.0258453277487014
-0.6653953471040688
-0.4503564760748938
1.1715354723351223
-1.151269359699191
0.26107486341279607
-0.4642653642998605
0.8798964193835817
-0.46497353833963084
-0.9849365321293164
-0.8805482227170978
0.9174031849187815
1.8317180769108599
-2.0570133014819296
0.7626587015709901
-0.5850773539476203
0.24636594041404136
0.4148204986647208
-0.18076908995901775
0.49328015775728146
0.7175229861907452
1.684653296660354
0.39656232541646286
0.4303315062122012
1.0262784040339201
-2.3332396686705716
-0.6023411060120334
-0.9963048809416388
-0.8754252107863765
-1.142294488984851
-0.35108033013813666
-0.03297569474577411
0.577899522661261
-0.8458338395541075
0.3856836333305118
-1.1099759256770978
1.4631002868778715
1.6415932856301407
1.1924815628790373
-0.38076064704231005
-1.744318502408992
-0.25323964737175886
-1.670689205982546
0.04224690321981542
-0.8393144898591474
-0.347075255867212
-0.12795436350742817
0.1731083521993872
-0.8276889457530849
-0.5752516444624651
-0.5229595123427493
0.27725325208746243
1.1865637496033639
-1.462927206324032
0.9256124016617346
-0.3159634706437371
-0.3628279230741126
1.1200817348106147
0.29421596842254083
0.7298001409148633
0.589504610032501
0.7252941920873964
-0.29306645214677846
-0.676955287702238
-1.044816325540399
-0.2764736941397439
1.216180130247571
0.5193842554132445
-0.12865678497719424
0.5236224032726956
0.5113717551800191
0.31034738365134423
-1.8253375132968612
-1.2111912239881302
-0.6436281955113169
-0.3766809970408773
0.6262025226711698
0.9679434701524563
0.307257400053389
0.13081197060343963
0.6337164010873669
0.26705883379544504
-0.8931589138866872
0.8390250823809571
0.6765188153645393
-1.4272598743627427
0.42014601206326685
-0.2602183216280417
0.2167519328650937
0.13236895707501464
0.6001068251551145
-1.723666446486596
-0.4986872656421614
0.20479711845703796
-0.27959257248412694
0.5933973651677996
-0.2126074263192065
-0.06664672959427564
-0.37389818213867704
1.5590877476217218
0.024125361919374283
0.37055804906384326
0.523227381316908
0.19943556452175615
0.9788862330502854
-0.8272340637732355
0.8942602649817288
1.2330682261222268
0.5677874272130685
0.12245583634250207
-0.14938979649525197
-1.3895633424639255
0.6677695384793499
0.6544020915243751
1.4052335167156091
-0.11840050045112327
-1.157242181221369
-0.39160430978552746
-0.4772753219521963
0.03705494294780709
-0.010509131641062153
1.1917364260886054
0.5773867548327918
-0.5328508805807476
0.01507417206382633
0.8322095073085096
0.5733548106669742
0.30019041288879117
-0.4374008140325665
-1.643296328970822
-0.8056217473087557
-0.11059562475074293
-0.4417732539045558
0.2235461789472197
0.03647404107654767
-0.155934960365816
-0.25146038760237543
-0.9406145255815543
0.5467918292617517
1.4615447174784406
-0.13487097100248685
-1.4186405470154382
-1.6385012086708992
0.4937152695855809
-0.023862146098042825
-0.2238611633935335
-0.7830864347979658
-0.19897053352193084
-0.34288216856389553
0.2870780947316352
-0.1294833454137019
1.4160833816348708
1.3496039790719578
0.022391838793985208
-0.9250545527870118
1.260556319301852
0.24916844353398623
-0.81356172105936
-0.2993109336431543
-0.3332902975596061
-0.2202442816868586
1.71009552291867
0.771812695543328
1.6243737184686884
-0.0472958633902445
-1.3603036397184507
0.05258643794636531
0.002875500317437052
0.036081084433044974
-0.31766262807462575
-0.00973764476514001
-0.37888698798237413
-1.147769321759863
-0.39730631899166846
0.23258668791089288
-0.6412147037106142
-0.7313367547822835
0.0868475615186417
-0.007254722490408247
-0.43915005971995724
-1.090795946260624
0.6354873785449775
0.6350328241158811
-0.9270479902831651
0.7592226058618508
0.8743662635898826
-0.7574107358188586
0.18945582068494904
-1.1160815622900977
0.4001642279307248
0.20589748284152032
0.5689021762534706
0.9055130592825471
-0.5251107968652293
-1.746033057613536
0.7874498400887266
0.3703318618422894
1.2578763770183132
0.1698498450313244
0.28600414009221947
0.4662418359839311
-0.3160287089960013
-1.025834795213742
0.8668788229411859
1.1677416257444353
-0.2901976002523932
0.49728994794179454
-0.6838033776719864
0.8413026428450738
0.022816230207692745
1.386928897830732
0.6903052205642064
0.4469943624423101
-1.0032103067732092
0.8273952501377353
-0.3532263078753398
0.56670265528931
0.0178531190708123
0.7014533834404859
1.050097453140589
0.730336534537682
0.1334007221407979
-0.0010132625947948393
0.43678772136343147
-0.3620289191006102
1.6625819906273878
0.15807840770652565
0.796570658882196
0.35496169692402724
0.6175593648496126
0.9499068635782107
-1.319574158534623
0.20732396677370177
0.9321198932454137
2.06685895796848
-0.46509096879805
-0.5460970543375532
0.07980708676382738
-0.510609989275243
-0.21465538947473184
-0.043746279299061386
0.06974591314255003
-0.2541941517496931
-0.36247479801468807
1.4369887461082453
-0.5062117322276606
1.3402159380269987
-0.46582822440123917
0.27983240264412695
-0.7379549878765341
-0.6589982790370383
0.3105507057619365
0.5522476768561747
-0.5465130795449187
-0.09871442015378332
-1.3676249505037137
-1.0171709633000288
-0.026195694836836113
0.3256962590100014
0.08818260369767095
1.0290164833715083
0.7635384084195996
0.2086249795019584
-0.2361054473120181
0.459427789271172
-0.10063576696350873
-0.8467344349197489
0.4534482041623472
-1.3894189816258202
-0.08203634848496483
0.6068919905686267
-0.2657540281028645
0.9010958635054644
-0.8905005971136486
0.43473741404138866
0.34233456783031024
0.023223389862957855
-0.9819052272468054
-0.7664372241508798
0.5671257330159399
0.665325812262253
0.32484715769588224
-1.0670451287455627
0.1227545976408507
-0.9423224297380715
0.689300510105398
-0.20850274678561836
1.2329546016382629
-1.3470308991987663
-0.20566894238650218
-0.024002004289470302
0.0629880792972004
-1.171764326090563
-0.34410159277749297
-0.3972641278744709
0.39323782785893213
-1.1431220786101532
-0.30416467499218425
-1.2508835288887425
0.31518036188351206
0.7927618834317878
-1.1189042721556184
-0.07259159292671694
-0.511806923442377
-0.969690242295725
0.4453703774951665
1.931454943420639
0.32421003068335413
