0.396215920566962
-1.1741279679289918
-0.018400494726083516
3.5515818618824753
0.18357946347795523
1.4279271496435157
-0.8039806108413492
2.0529107698019686
-1.5798999759882408
-1.6333325883387113
2.2566115338277593
2.305282549737157
-1.7844122731911485
0.4896933121497962
-2.3385662051686125
2.816921297558623
1.8464326369473985
0.48247783461537175
-0.014273313144681388
-0.6937470518892771
3.6474100515743597
-0.7017198213029077
0.852812368316177
-1.4168504405674998
1.6061134752219757
0.93895923827747
0.6401520910642122
-0.1789224472852488
-3.001999405315788
-2.3572621629322366
-0.4920962679182497
-0.5040091846553533
-0.2638597547641812
0.920009465369222
0.7710729142470039
0.5138536909259427
-0.08484636332439367
-1.6906162148366544
1.5283988263990096
-1.9905025708169863
-0.8065245756536998
-0.49078993843145247
-0.7821370070996299
-2.1990492263195094
1.2014357345981306
0.291439954034703
2.564854547514977
1.0188821828307164
-0.011176116739653574
0.6530307769561019
0.3160542053359525
-0.8582890446279331
0.5870824378607971
1.3261518203733502
-0.5099266314536874
0.2944804643325302
-1.0870451664789704
0.8795973207487596
-2.766474426762566
2.249314572784029
-0.7982699864070983
0.16811957365562213
0.21053386835189503
-0.5532410653455783
-0.6915435566789327
0.30883988589754197
-2.8067953947346242
-1.1629744735574428
2.7722766273166517
0.10436843044433919
-1.422485395265547
1.1565086848372004
-2.4208882160738847
0.4298009608945616
2.438733425988281
1.4146532954957212
-1.304856710217953
-0.6829921710725155
0.6987560926996726
2.0279108354564865
-1.5441389704881032
-1.6547732252783245
0.4848615131020214
-2.169343383853063
2.058375877468658
-0.13240850377335456
-2.234968789963208
-0.4909984046860699
-0.9608500946062252
-0.518144270876484
-0.9058618504624447
1.0154130312933571
0.4692411740858802
-0.14647199835512997
-1.2388487030232844
2.0834045415086933
1.4193667567365724
-0.4003209569717194
1.8012408216254499
-2.3735395516779096
0.9269307456268574
0.5686627139185502
-1.1842867232870165
0.05142814103657842
0.21353581171758684
-0.5804480779461079
-1.417424532947509
-1.133274399130523
1.0015878308655257
1.7304982540609246
-2.2885687283024696
0.09938080036292046
-1.4043528132300407
1.402336284416178
-0.6364614831638352
-0.16452811721519942
-0.6049044110283607
-0.7813936454092069
0.19797641645996136
0.7603059710350669
-0.5039185304884826
2.69686422547122
-0.9628768324264443
-0.35891788569979854
1.5367713748494674
0.3442829750376796
-2.584903968249061
1.1372203317627543
2.160027124198734
0.24323368727711625
0.2532793442116793
-0.4087043225757423
-0.6719467472195737
1.314243335416804
2.114839184893734
-1.6530980412631868
1.0884264599762272
-2.4772619156720204
-0.5660990910041925
1.5104860527863515
1.0978047896264342
-1.205259354208767
-0.6354801410088153
0.9273273150282715
0.08932451065936531
0.8649107795737985
1.878526893788747
1.3154379838586734
-2.2381044042568234
0.2561693028622798
0.3747443436425406
0.6813154232384695
-0.9965716217346088
0.054109361631277664
0.6458463746961365
-0.6886538284210674
-0.8223932900280269
0.15634968607385524
-2.2800977745412117
0.132399758381487
0.2619124102471615
0.3617733174770915
2.18670830164346
-1.67651814857371
-1.6793872496421955
0.41243736064949393
1.7527890635893657
0.4837944111612169
-1.6736737888482758
-1.685331695671687
0.4196911241332105
1.3641083156581835
0.9114197758484625
-0.29928988452563166
-1.291951762874812
1.4900116869033884
2.249606857405048
-0.804190551018857
0.4611610392071069
0.674995944967905
-1.9308816362561054
0.15153697733507515
-1.6409028089551865
-0.11433210687960882
-0.11108069069951498
1.9538498322762192
-0.26381027219695585
0.10570938120558246
1.0190486811695476
-0.3439926584001252
0.6584570436332519
-0.4351496264303677
1.2603734708192418
1.2928567029597586
0.14706843802659564
-1.1431290108933378
0.9180867134092454
0.769173810854517
-0.6120252490484009
-1.4566841479677843
0.20121303805048504
-2.867694714683754
-1.1960002995080767
1.701153074543706
-0.9218834044675686
1.4067082853843176
-1.1231139436791553
-0.10883605082909326
-0.955408559272819
0.6555809518079081
-2.1778622363703803
0.08087240041368082
1.84488421723875
-1.0897385510523643
-1.8348328470432844
0.08661265043424493
-1.6718878988470949
-1.034432682257277
0.5405875838762335
-0.3339507413922559
0.3307054495671531
-0.32487088161416156
-0.8345943292250974
-0.9248602126369424
0.9094210487199572
0.4761051511347933
-1.0402529449689737
0.5323895434178263
0.910911532374705
0.2938862551427246
-0.7925821384211984
-0.9113803546815732
0.046066825350595364
1.393429608046784
3.6709201928785573
2.6498853308390506
1.0570090421164486
1.204461345928768
-0.5423843428403694
2.441811914669218
-1.5032797147204466
-0.501574227930231
-1.0812525963554098
0.19964696330406045
1.037465458228091
0.15342786983381718
2.5702887932353344
0.7213538952248952
-0.32740753576264003
0.8011921342849913
0.6638105664725373
1.3416157549931238
-0.11955352486359083
-1.1267630917433753
0.9434422114052529
-0.8144639840846648
-0.19324761448654593
1.052680372181915
-1.5963271772832899
0.8809280811042773
-0.43981981193294617
-1.4584136977609954
-0.7153909843885935
-0.27277970207248603
2.8585646970906584
-1.8565542119761762
2.310771649063803
1.41812336061692
-0.2673216612858853
1.7032642796294906
0.15376357762048476
0.26976184824380645
2.4611253959801838
0.2037419094478809
-0.3737019438096246
0.5012884367620699
2.652106385793317
0.9365400339841721
1.5389264909955749
-0.14822250475877422
0.874631106783609
0.9547576444097179
-0.6514741615468228
1.2804332379719723
-1.230321122279455
-0.2205275168682187
-0.8906366372862019
-1.2462791157591926
1.0933353504306047
-1.8212567161447197
-0.5537925925357016
0.41349716616208204
0.14176571976352437
-0.8197434492020763
1.0477437852557616
-0.5772157435127486
0.36899934566058895
0.19658951877481723
0.47531933866382453
-1.3321135986161448
-2.1202862607215107
-1.1629545052171792
0.33474840423795715
-0.8471967843116348
1.5949813801235486
3.401272822284243
0.3820270236138993
0.46576529059377253
-0.06967614730800425
0.7198982663546504
-0.1323257876098628
-1.7792766862202276
-0.6269282523910671
-0.060246491632814925
-0.005269384006892246
0.31256888217720913
0.020352053005075477
1.2195034224943462
-0.374947632128161
-0.3085413034798479
0.38349596779153994
1.1089393143753412
0.0487549574773741
-1.3196805016019957
-0.18453309740399687
1.8672907435058326
0.7417635531555056
-0.9686938917681294
0.8161822352556544
0.06620910534842761
1.509232115450673
-0.23369455933271754
1.9274839955816503
1.1816760972544853
-1.9922719872742456
0.5485268429569963
1.3105373023875713
0.7229548244705284
2.236521524826352
-0.12346320069025452
1.0014711669869514
-0.30851047364690704
1.2638731858841186
0.6097494716100906
-1.3676870337708111
0.7321389251572654
-3.7881581347836635
-1.3008800476285631
1.3198144823143458
1.346783423013822
-0.30021283525330633
-1.5399597867090513
-0.9602433102561347
0.4232024300413728
0.5857384267250587
0.6860476104414959
1.0093002320274855
-0.25211383846234686
1.1416091162619693
0.5685387340580825
-0.0649524696616296
-0.7507645213735596
0.7141157314397253
0.220492282303828
-0.18631969279869187
1.1041950690036857
-0.04730470023102362
-0.4729280291190987
-0.26483218706076117
0.7805117345501774
-0.784849369136813
-1.17393924398558
0.3835015766939869
0.1694188715125708
0.14360377252676948
-2.271299591592799
-1.2860029824184738
0.09343124165410954
2.0586236650791454
-1.7044033026127328
1.4626869090633643
1.0898366941783912
0.5402382223163774
1.2661153091785387
0.9934099650237479
-0.1559081451285067
-0.9724396360552305
1.156787895407263
1.1139961294112735
-1.1901980962826646
-2.080655525755904
2.000995124761074
0.04230614021290402
0.33857942012475956
0.6066796748258274
-0.7656922816581399
2.643785041625051
0.7234456203544138
-0.15301866517800444
0.01702101918494875
0.2144481674823748
-0.38804141474721804
0.9494605701679035
-1.03666189687674
1.5041265006157136
-0.847503739669369
-0.02094181913514903
2.3889989015473385
-1.4962945503377179
-1.6790288586511422
-0.7281835648536572
0.9500530315033067
-0.0366291823765616
0.2787825636450441
-0.8231886855399181
-2.8305140716148776
-0.34910129501431736
-1.4441429882464067
-1.0760187609890166
0.2053454707736777
0.33239005231612145
-1.7755211532613846
0.10876318003286761
-0.06999524465562712
-1.6345633816102363
1.198750068193052
0.21791113673126405
0.3709025823189802
-0.2496218413465735
1.5800153175576632
-1.209093351309963
0.6646515410401822
0.9691150554527189
-0.20757046438771976
-1.3159744577808696
-0.6731667069127708
-0.2591238513551969
0.5370014950852137
-0.38904797259964924
1.2745323768803831
-0.2442367946094052
-0.7097811194631094
-0.9969204153945735
-0.3557835080600184
1.0795532049572536
1.9020162205881328
-0.09848016009761151
0.38288756986510575
1.86331812771121
1.3641926698280653
0.36196249871373565
0.32943980294764824
-0.16040090849547528
0.10659762656956863
-1.2189356622645207
0.2417244775447871
0.12227643223325829
1.4681495916515104
-0.233154071874955
-1.6182754764664289
-0.05545909445887895
-0.4027450500065725
-0.25084516318161687
-2.4203916129332566
2.338832946935994
-0.4658591808711815
0.25815794130304226
-0.265343280011764
-0.41089400710699625
-0.7579442838510955
-2.1829872527861824
-0.33906920792309925
0.9138630401546183
1.6915326260120136
-0.3814388608816602
-0.8385551782977563
1.5127153539623484
0.7969292172080265
1.0535426938433543
-1.871205828086861
-1.248549331351767
0.5884450861728996
-2.4114015037712044
1.6070506583888995
0.31165157352547623
2.065434089892961
1.4570251273819539
1.1624483177227414
-1.666145323461349
2.0538695707692614
0.19374633856123513
-0.8223222456611359
0.3780003842432405
1.9098331551072634
-1.239302075227554
-0.12585086852892796
0.7117684809341902
-1.7825622239642467
2.098723317131699
-1.3255609663364063
0.17787435135582302
0.15834551730325475
-0.13005374324814856
0.25674287315306743
0.24875447835911513
0.02065433052614743
2.153286939982465
-1.6844145172283984
-1.2599813834448357
0.35063020210201107
-0.29578537140165007
1.7542418402107187
-1.48228858478368
-0.7808455889387901
0.4223734620939118
1.5878002734961911
-1.196559818634479
-2.137399107134076
1.903796452387391
0.022837434196553263
-0.9783591280652713
0.6951432466457974
-0.8345407225961992
-0.280035233552701
-0.10415207906915552
0.008657500636374715
-1.4765016953137107
1.5837356589491107
0.7318297158153961
0.6183795493987698
-1.2240446652010049
-0.7630376594662353
1.0531318622983998
-0.175825302956336
-0.5352749018121142
1.6301841066838385
0.6835525443010657
0.8855554025786863
0.4465590238145314
0.24520760074108705
-1.0574556532107733
-0.2270348292924293
0.11702104997155963
-2.0868260111391614
-0.02808813212966421
0.5807532966433461
0.4235684650981176
0.5961503932275166
1.0530110084606548
1.7700771570365137
0.2023037335401262
-0.8056970451412311
-0.7079288966414823
-1.3917091155764365
-0.9018797571584528
-0.3953351054003261
2.142556539128854
-0.6409607012018115
-0.9083509785166706
0.12531686114858387
-1.7773354388010998
-1.292289185997148
-0.03545949281491556
-0.07069778927513434
-0.36290710969621176
-0.9983533250368565
-0.6047084691639553
0.05489232042371506
0.1986553001482928
0.5999943360952567
0.9297702085334627
0.1981861893244981
0.2080662049303578
-1.1079753628054494
-2.6184617179716865
0.8178504334405011
-0.6674055994535719
0.48618738843306814
0.29264381019562125
-1.6730487972145571
-1.3444628964725964
0.3573811290296254
-2.441667244729322
-1.067124877885487
-0.22222534220534734
2.3707778720270385
0.2532499988881719
-3.468165432662667
0.48672167863163535
2.53810400774309
1.2213738571897839
0.36076521862742833
1.3250744583976601
-0.263626779776655
-0.9381204929476028
0.4840112561566229
-0.27742405450188456
-0.11425291704203344
0.634602085287414
-0.381712838094129
-0.05394348536633409
-0.4884128445464776
-0.27026636479456656
1.0692769473941923
0.2203960142527246
0.2589965192414615
1.9340787993048745
2.779529111390942
0.20441190976625934
-0.7247477946410172
2.208956770287868
-0.49029023407084027
0.5478768245175218
-0.8366855203125177
1.8931407606675559
0.8775329321119035
-0.1830908627785343
2.001068774099247
0.6711183754428074
0.24338521494277082
-1.1571595949099027
1.4117454025251428
0.5078672604332639
0.2479205204140041
0.6032221188371022
-0.03798673086269777
0.7653515633199043
0.6443201020167713
-3.014675841789656
3.1608351682246463
-0.5186756588601125
1.2128959244281545
-1.8312498060474844
0.14742085898040375
-1.0142709170129194
-0.7678848010983679
1.6480194873677005
-3.005365871872441
0.9768042145539839
-0.8079359320847641
1.7436581445709751
1.6684892850412263
1.4214662511486325
0.8502169078952272
0.3016063265156216
-1.5505560193531882
-2.1615981827942186
-0.45059454600900994
1.5718894849410299
-1.694860672677135
-1.5850464231901567
-0.5360762664206156
-0.46252373846562084
-1.071276266785719
0.6817237908641026
0.4264658185568826
-0.629432467187123
-1.0761107648301391
-2.3732146102481004
2.1255508180584686
0.7224946428458902
1.9442930313751963
1.9251409832710387
1.5954698035835777
0.22419087058552967
-0.37991705464919084
-1.9102241598645913
-1.530462204299148
0.12504107411549303
2.2191597820311175
-1.0998877780993639
0.721173623760228
0.9819289377228001
0.7783899738211316
1.4256690460874109
1.562789227147618
-2.746323642460534
0.3277994015206418
0.6772693152967546
0.16088630935214268
-0.951803493653067
0.5802213575172188
0.5131225748057193
0.5767320677077
-0.14605569509830185
-1.7084040388236172
0.41613905550664765
0.0511319772415208
1.8603937722076345
-1.0702894945647587
0.8721038306153728
0.5776928784682728
-0.789854306589026
0.4658140376444393
2.4983932225115515
-0.26351492814333544
1.7965411623641383
0.23153826420508078
-0.8029234087937833
0.34469906295060393
-1.417991162327656
0.2816734020264627
0.14083440902947908
0.39693052581390564
-0.656131803003543
1.0641853189656902
-0.8509133143948626
-0.35503166038691225
0.6945300698188548
1.8582591470118437
-0.43743774640798555
-0.08593410955232769
-0.3833150823714214
0.572533489631862
-0.2914607420351609
1.150043777654437
-0.5829839992698375
-0.5623180492655027
1.1534840839743181
-1.182948600860314
0.5100573396772764
2.4358012227619503
0.10247917930435135
0.8329104756875607
1.009254790240882
0.11508927474436814
1.0093665937095426
-0.5226483074156171
1.4152368096021086
-0.35006757393839916
-0.4460696970128632
-2.7247147386155257
-0.3353517937028902
0.3338500855938815
-0.3422648078685996
1.6975820142668543
1.1988858032470557
0.8992976064820424
1.4658407338125166
1.2670755782525391
-0.21449861938272463
-0.2511952298854905
-1.6756713874836602
1.0246672911345471
0.779658487202282
1.5143569961749093
0.649145168691846
-1.1454829312589148
0.5978781635879697
-1.3415752053907986
-0.5274753771914923
0.012417104854889394
-1.0015841308443263
-0.24308275617304875
-0.04030759758364755
-0.7117312384669621
-0.09351898686880333
-2.0715425980418583
0.9861882485678599
-1.0940638980379647
1.7908144652250664
-1.058470683279572
1.0089002386729562
-0.14235839686237667
0.40136992920564646
-0.3068153515187917
0.2113926183247573
1.7894408176265073
0.43622118108042307
-1.376137034844774
-1.4189181978607641
-0.8660518737606246
-0.31553581165465017
-0.5313302045492401
0.7895217691863244
-1.4941590485870486
0.5422172521689801
-0.12032003763513241
-1.6224017938561663
-0.9388920762746333
-0.9782201117720487
-1.2299915299899438
0.33522035645658
-0.18884294999212836
-1.606668546697486
-1.335475118373647
0.6364082698618605
1.8753419702910314
0.38348163854634754
-0.23501566195746115
-0.7314591832679689
1.6508524863432634
-1.2418690777668915
-0.11646712722105984
1.8580507881432586
-0.9154672633372323
0.3393783675015105
-1.0590594331804253
0.8130359646006551
-0.24748988787379922
-0.7361695855438479
0.9605193106466443
-2.1231686334425204
-1.7032415986999745
0.3029013792026892
0.1179538359463066
-0.273329297477482
-0.11532357438335299
-1.1100255009195275
0.6959829637693484
0.6449696178376813
0.5356459064524794
0.7149726879082993
2.764188024630813
-0.04395611574108771
-1.5644728460673654
-1.3820311839567028
0.4699353220059185
1.0593739436931828
2.2286085857177973
-1.1550349022538242
0.9505101328540194
1.2459595825024434
-1.946515272905217
-0.9163700308463749
-0.7984620905973365
-0.32564079986579786
1.3412800891993113
0.586520897983383
-0.3425477625479477
-0.6018518866684428
0.2808324052350608
1.288051570063081
1.8227189238530386
0.08755185507215535
-0.33713001816777943
-0.6860045972677723
-1.0904909767265039
1.7590724903709793
-0.4945940687519653
0.9463273465972283
-1.144263202271164
0.3198507334982824
0.17825485430564247
0.954132390184165
0.027798028868046498
0.06795388496311741
0.03804839505477309
-0.1928698403817275
2.2143641365109996
-0.784702829689907
-0.13178579734610346
1.7884829346997018
0.873860986344393
0.5289646411167277
0.8372686887088376
-0.6665744530212081
1.3718385840235576
-1.144986087091679
1.5343933664629317
-1.5440202071981641
-0.07941463184212882
3.111747619509914
1.3956658058116058
-0.1911669112387274
0.34213893256205996
-1.5257213949476094
1.3346765015952695
3.0318730728429406
0.9995263878367573
-1.5142750716166844
1.9976025733757448
-1.621131974042782
0.6303517549783362
-0.39466140351842094
-1.4372072187671052
-0.7665610954061621
0.5115423993734611
0.8714991716163965
-0.9317742888756765
0.430936309534072
1.4378204923904052
0.10958859279218364
-0.4596111291130914
-0.22274588303041204
-1.4012973232075017
0.8627468544019279
-1.6048939795393173
0.27990555678578255
0.3099590802785317
0.7472087868522553
1.2396093953786633
1.74297251294621
-0.41803487573129444
-1.2268869849469914
-0.23799857603165064
0.7691021991973401
-1.1123392097949876
0.7632977810386233
0.5723240440803603
-0.8955117136707336
-1.0177843458034175
0.9085943874374502
-1.4947335870335055
0.7711942682236284
0.1626277295638247
-0.1378847717586152
-0.21819367061406936
-1.38003701573635
-0.7327966280247037
0.23246745596535448
-0.681649384143766
2.2248896274443557
-1.3202382839938844
1.9754566004018952
1.0838766132470952
1.0549396532244613
1.3636853207838748
0.9040789121314172
0.0008282059432806466
-0.07679868448546917
-0.04992343197144178
1.6626518682848894
1.2131862106645839
-0.8534647060992263
-1.478201991811173
0.9286888408904421
0.9413629845769773
-0.005976096399886832
0.7861540198416858
1.8894281524598298
-1.0946141059762604
0.39888375453383473
-0.4026205610477025
-0.7516637972184871
0.08016511292234818
1.4655559016509334
0.15248708367266112
-0.15857163981473024
1.4781456450070642
-0.4737021703748125
0.553229182885089
0.6395238646851152
3.8027403942653244
-0.23577075798526065
-0.7409697641625477
1.934857455412928
-2.1134477967930883
-1.0942183501649456
2.695718930290706
-2.110237232664415
-0.8045629781210736
1.6533559593163514
0.7457991247091269
0.3284020236453235
-0.8496058758819497
-0.706887515934812
0.028022601580826395
1.5614015732454964
0.742612392798501
-0.6953637483032966
-2.8860863938674024
1.4083768411249724
-1.5752104392732211
-0.4815122703054512
-1.2240786388807352
-1.4260176070069897
1.0080256213923786
-1.6091449221793908
0.21967816633514994
2.488046257296369
0.38083957045909883
-0.7626297631085821
-0.5227874679847903
-1.729122556800243
0.21716897350833791
-0.45785122734767864
0.7368575674053974
0.8358049581132599
-1.863462027841654
2.1366622178560357
0.5011086057673326
-0.6422449341543104
1.169786382606265
-3.189015388865136
-0.6976078718358214
-0.6108838398501805
-0.5048157889074523
0.28259899588532633
0.3935753978832822
0.828073295919487
-1.4994218019439207
-0.767731468209273
1.1962484127422048
-1.2976979034735647
0.24907430727821256
0.2189317840578242
1.6091288989358126
0.1836389707831052
-0.41086993306053604
-1.061648634207637
-1.8059905422011282
-0.464200876167203
0.718752768273237
0.8210262329076734
-0.8844533234557894
1.2345932612072001
-0.4608452859547548
1.1769591529939598
0.16993164662618604
1.6852510520562838
0.3152410901068562
0.24487307375453882
2.1337622187117082
-1.30050004758751
1.0309575676313063
-0.6697297946482433
0.5906501943107977
0.10116934004096534
-1.6770409069890722
1.0721791667622795
1.3405755062680296
1.3300021926203178
-0.16540923630648202
-0.21848590480181324
0.6222997268897256
-0.383622844135506
-1.1340906521681307
1.5025401161261567
1.8937313201825756
-0.6741651931940369
2.3469132203897094
-1.3127591857178502
0.7075215569854661
1.7434824708910985
-1.3671669179654378
1.038494459979645
0.6435005678309538
0.058441117044713664
-1.9758226908967778
-0.06827061174954263
0.18503994928529366
1.495870738855269
-2.6088772362103456
-2.553081474477398
-1.9549781596920393
-0.5260432298874673
-0.8771774722384189
-0.6538578022452548
-2.188747000075222
-0.06827553514648754
2.1992230424825947
0.17711171721201446
-0.7833685393231483
1.1771517570305012
1.11686612423889
-2.1650120103764587
-1.4918474200585965
0.599791171972529
1.6620700309565972
0.8948528115998358
-1.762527480661992
0.04687390225536597
2.7528891204340313
0.4480237381680015
0.7213205484747283
-0.5794795094879985
0.9600783993418746
-1.002140391438321
1.4389862644582354
-0.30071972979268735
0.15069618746599517
-0.9309230330107456
-0.04663867178642167
2.4165029382259275
1.3709429100984438
0.47783334336019234
-0.4015927267033559
-0.695567123613118
1.679185483840851
-1.3227122604351798
-0.7083119290706691
1.641573365863966
1.0164088545375642
0.1500655253718879
-1.1563904630315687
-0.36218896800406225
-1.8763082015473809
-1.1298760539678112
0.3077451786233636
1.312885194205824
0.894060626679791
-0.6602617979900565
-1.9993608981102078
-2.0203384386782837
0.34024220917046455
-1.84860879300828
-0.4547155520842306
0.43193390974158424
0.05638172643199224
-0.14594425413558926
-2.3775813739596194
-2.0552521655766527
0.7851680906252351
0.16993416637518588
0.5633410345125692
0.17234297283420785
0.6589995748032278
-0.11421043695288702
1.0535357689205962
-1.0822678084534565
0.32213582387472917
-2.717793723712637
0.8589297997513584
-0.5818296289443279
1.5550166168001236
1.0200417309538485
1.7722880075776997
1.008932061338868
0.026661557964699156
2.166299685495538
0.6406108872644314
-0.4385308901524092
0.02026200705039885
-1.098492029684865
0.37134307681568646
0.16551421647812214
0.6485782253988329
-1.2908992400941077
-0.9897574505906289
-0.5221806960300048
-0.10546372294722604
-0.31336073183632135
-0.7717623260567257
1.1227069108414465
3.3938735180120485
1.0094525988053102
0.6085183915077467
-0.4923477295836781
0.34921802731298746
0.7830842648630745
-0.06513158163442692
-0.8856447399283986
0.7375529414149715
0.12796993102502663
-0.011435491921999871
0.9725285775469547
-0.4028466922575935
1.9961748108844717
-0.14223140710492155
1.4231440109518054
0.8864009433669547
1.7957236855068004
2.485057936118384
-0.8993706604924363
0.5276504046891541
-0.8250370711822712
0.9768043793260066
1.310750462680321
-0.8758138185819673
1.016489010479117
0.9608878856057157
1.0439141118179682
-0.6100365706702658
0.5968509410516432
-2.5455432126409097
-1.3096951720837806
-1.1091411266164506
0.7419344431073709
-0.7962241805193117
0.3326801895505671
0.27811236164774433
0.9859697331442853
-0.6803008149337585
3.555823222005576
-1.7064328522584113
0.39314678227317873
0.6055246350922845
-0.4299073722181266
0.2771956911186978
0.8756922554189307
1.021098981005017
1.0231234429415146
-1.5022545653351438
-1.4496505954112493
-0.15456134215101486
-1.472076117222909
1.5164858451347605
1.5044780902569168
-0.0012540509062533567
1.549219837879855
-1.0244251607388706
-0.6475494477724695
0.9923234244498846
0.21758544437398641
1.1474062791059265
-0.9256229530296267
0.6033526050043291
-2.199648588190588
-0.0658341342718542
-0.4949934048393542
-0.6354513138235216
-2.5665149570065546
-1.8303783242921128
-0.4862825333509121
-0.41908085785223426
-1.5676387791823476
-0.5826106048685691
-0.16882383941216905
-1.011768418851878
1.5844771010281113
1.075684256859157
-2.5760025126296644
-1.772969482311972
-0.40502678036251316
1.219200624433594
-0.260318107295877
0.24926274045001695
0.29788883626853496
-0.5391382550928585
0.5802453258063756
-0.09201259532367173
0.9694805282789862
-0.37574900232078046
-1.1951344418195817
-0.8899808230855255
0.018189891144052117
1.0208735334630943
-0.8046966887508333
1.8179670097104144
-1.3735604640328507
-0.48765684900191136
0.308042809219373
-0.18985385970587257
-1.030437993626466
0.22651483414957374
-0.4108071861719696
-0.7981340485913551
1.2427841849910382
-0.43378161357155676
0.2836375645510167
-0.011196992242484605
-2.4101944962363935
-2.403217368409889
0.14707190031136483
-0.7316381091550337
-1.5664286620161791
1.801371222317799
-0.23902714108938627
0.43493603987830853
-1.8974210703056233
-0.5910782453155449
2.245089340562661
0.16381468643407998
-2.685587563963254
1.3586749823031525
1.0735887412561143
-0.19349870882081155
1.5211915418118207
-1.496630829514577
-0.3502425122108299
-0.6772853635366116
1.6259526743791994
0.2284164945885616
1.1849605672685963
-0.1492682329299535
-1.1559540375947535
0.5337611287144113
-1.0401666104562362
-0.6732373249072121
1.476981622887933
1.307752542520901
-0.6158805739987079
-0.6013428211917778
-1.4258146246265877
0.6555701412361803
0.09016535942683734
2.1095573118329427
-1.212920758446653
-0.20161445313656207
-0.6896492666023587
0.3706524873602262
1.689335061167569
-0.9752102247675267
0.5230678898652525
-1.318557952685939
-2.8318330467019353
0.3981551134873976
-0.8382346538854053
0.18704157937557805
0.374738070833314
0.058189054274333185
-0.8637835767290571
0.44506826029891955
0.6853403263664167
2.6247437659204897
-0.08465621068237911
0.9775386566580007
-0.7699567633809399
0.12743339200385828
1.2326754971810738
0.022358678055884526
-1.2669066858522608
0.1577594640690731
-0.08533223943854473
-0.27014151876806247
-1.895129998678104
0.505493389418338
0.45766337933059764
0.5023309082296863
-0.49976621792698617
-0.8848943879272247
-0.3901595919741006
1.3108936820119244
-1.655081821400647
-0.3135712406914556
1.0063403252658056
-0.5929118634556003
0.712590580495638
0.86620934246744
0.21585126075663214
-1.4508876669190978
1.3678898155727104
-0.18928198853123043
0.5704608674917698
1.3978230878233995
-1.2539293523549868
-0.5293288470217719
-0.2776820482575664
-1.6118166464250976
-1.4690596566468912
-0.4477164993084728
0.7616604912294775
-0.930858310125505
0.09532560808766677
-1.9754517074000193
-1.3466854505881334
0.23560400630256179
-0.664734504216274
-0.25888930961770407
0.10104969063203673
2.538299105385662
1.1711532321116556
1.4468472476775873
0.06799987576680477
-1.231401452058206
-1.6446723220457287
-0.3407657609492697
1.68179554780555
1.131500413366635
-0.638887854519925
0.6560469110606895
1.443480828384801
-0.21831407782282253
0.35943691782127174
2.227920650484308
1.106442409468912
0.05709337989130525
-0.4377632730619704
1.2497706326775728
-0.34481382757389645
-1.6888235897979431
1.569568817279983
0.8906414921980197
1.66279674388566
-1.9527267607129266
1.6767773228167453
0.24805868156306704
0.7932663954219444
0.8103728635769981
-1.4853242142102943
0.18047373669574962
2.96412731247165
1.2397428622940743
-0.8512385225309868
-0.023354909495871046
0.9219914338274496
-1.5394190477135394
-1.4465723257401237
-0.48613959893469016
-0.202226101711582
-2.9406904869124944
-0.29589932526696094
-1.6551140566488163
-0.3703656237308245
1.6370325795148242
1.7188146463632559
-1.7505706592427686
-1.170886118661571
2.133860462802059
-0.3403050859982474
0.6064407946280568
-0.9305384568651037
0.01667787416773725
-0.7950649511914528
1.4123118846937097
2.7343897826729413
-0.8104572795816363
0.7718747216254725
-0.06454864595035259
-1.4516526344637404
-0.006555398387724655
1.0854958789033935
-2.636758661474132
-0.2715218339439783
0.36224363229222356
0.3343882994784767
0.3315700873070348
0.5181271187344929
1.1724395989797871
1.4623577895467998
-1.3702021269637763
0.28889798941603695
-0.808840214340878
1.4534237200592557
-1.41386939870137
-0.08013078002324103
-0.20091539587531776
-1.7022959564165896
-0.7167396507932914
2.5691169444898243
0.05935613161616632
-0.38970983503431356
0.501597535430151
-0.574371599309126
-1.8613257290544203
0.7170511986852637
0.5321613419234559
0.49991755813299293
0.9494844683777648
-1.1202974229321052
-0.16580162235907758
2.060208035693197
-0.4094437583987443
-1.871402178427359
0.2726892257220843
-2.1379399462828346
0.022965259168676505
-1.0389963342788806
0.23250297622713814
1.9888846216244875
0.8381061664916931
0.7054967233979231
1.957457444831502
-0.6363025484111701
-0.14354264343241488
-2.092243132610091
0.6660206638073274
-0.5050044201638325
-1.176361396265536
0.0915231535388848
0.8171444282180481
0.06312376090151839
0.5040523072186502
0.8498573881031384
-1.5390137451467254
0.11814186273944424
0.7140066998317087
0.04493048244753861
1.8577267916414852
1.116229922587174
-3.6472168632962756
0.02081057906010733
1.4927108573120944
0.629093768540042
0.6108098417656704
0.28599793633385046
1.236995262814494
-0.6021184685759832
-1.7068782782905094
0.3407878481027651
0.6459156782073994
0.1956291972927393
2.1429685555341176
0.04551035833153075
-0.6424071161924152
2.73101480454685
0.5586269376920623
0.8148616663702575
0.9796192993355364
0.31074205162223645
-0.4926947122090321
1.1679130046127988
0.5451474455340193
1.5292014592891272
0.07330497439683586
-1.3319032234368162
-2.345127363247333
0.1887825007533992
-0.38753446276443515
0.03256031054382211
-1.3648371356516367
0.7990766836053277
-3.6920854512054957
-1.2244518626974101
1.2899068512050855
-1.017677452077565
-0.9511113450860109
-0.1340300265374047
-1.782840648463229
0.39581657325488606
0.33344413405808004
-0.46083666779420784
1.7115331086427674
-0.9510520470111627
-0.36930873108683854
1.167057915824531
1.1455228818197276
-0.8425363090295002
0.8585019693510948
-0.3374082878085248
0.9929441452845819
-0.23875236885642875
0.2673122221787918
-0.08756995617803442
0.18538662419598528
-0.6198748648207626
-3.5083030770436006
0.0341423815876975
0.7754352496584841
2.190885927273131
-1.0502348181588883
-0.7175536403811665
-0.9648485616998059
2.238855794166147
-0.931920050699791
0.874129280294762
-0.2408547068151686
0.6453800503174254
1.4555338602700667
-1.7543151043060705
-1.9018211256850894
-0.5408784742626034
0.4095949258688539
0.2867811293647309
-0.8171414568451103
0.7327947358858712
0.8302933789571584
-3.1342563696411494
-0.38418292280053207
-1.463772291523255
1.3416281389768354
1.7998095093149034
-1.6929305012435818
-0.12835411593963042
1.2776689754067143
0.09617906447740432
-0.8474271813615493
-0.7634094724645282
1.9196063850434366
0.5651792213223766
-1.2388910377358084
1.816666060091765
-0.5836094972161883
-0.6463380431000537
-0.01838509586108343
0.703441296543826
0.65526310160239
0.6232776161968124
-1.2733201300152572
-1.0870218760129553
-1.474315290462081
2.2037419887058856
0.9559039491198776
1.2807540562331337
1.8854894643843896
