-0.5098734773734585
-0.014504788893060996
-1.6235063199436568
-0.08197765750526716
-0.852313732783436
0.8105228735757712
-0.7301519667876446
0.17476457372655274
-0.28732184721417225
-0.9469526897337408
-0.021954534598713254
-0.7130803144979646
-0.42366047813991814
-0.01889033713149995
0.16805747262768314
-1.4303716001467386
-0.39311415571949726
-2.7918306798743537
-0.3658222032181501
-0.09736048825802691
-0.7862446299877891
0.45521599125722007
-0.4207166531881574
0.2451837794425594
1.8921287599000123
-0.3569838025922075
0.9280338311755204
-2.035949143239376
-0.20761666025206893
-0.5386872275011432
-0.9054488645990092
-1.0460720724292198
0.44428163976843615
-1.1710498261323177
-0.1812704994283784
1.6156288122800453
1.3729517802655382
-0.23420478307078624
-0.8070780932414102
0.41523098837134514
-1.0300840309729717
-1.2831498184913497
-0.3749404987883953
-0.9672014629477438
-0.38407709871592777
0.11171418294729216
-0.0676819076424409
1.2298323290960977
0.770701033012824
0.5044673049536476
0.451630666960368
0.7528246931402744
-0.12633209164730072
-0.08218253829743061
-0.01033271008339203
0.1713298562162946
0.6320263432319019
-0.22285692658553197
-0.3075371788026148
0.7790903238894349
0.12044406792150676
0.9244481839771881
0.43676607258039374
-0.2474101757313363
0.1311466472775489
1.020028955333104
-1.8537173803490175
-0.3520430137860505
-1.7557572912250288
-0.8687806797808184
-0.8459935689967624
0.2525592504456228
-0.5127491542995598
2.2483214433246115
-1.2190488709030285
-0.9535094322219582
0.06920412408056979
-1.2183412812331098
0.7770938984290531
0.3869701659072388
1.6843028581092485
-0.5723691073544189
-0.4219800357568313
-0.4351029066937472
0.8437221872076686
0.5286275286270012
-0.538274296831881
1.5217032204359877
0.8825519248264768
-1.2737465770385925
0.42689454493582496
0.6267519739440077
-0.7297539581286306
0.20632494971496523
-1.0822748654114713
0.8047044815326122
-0.16911930399876068
0.23127809291097332
-0.346740238734437
-0.4195736296625969
-0.6800154958530323
0.27243865319390104
-0.9065627812099148
0.6542511414969452
-1.0618610368108705
1.9301666494531973
0.9110860452019387
0.7330069192669942
0.6461018001725287
0.46192327693820623
0.3988196173406103
-0.47925112739977194
-0.998010887165388
-0.053008827550303506
-0.045333889317472086
1.9916696385987531
-0.5790194463354321
-0.4928123937369277
-1.758614625037242
0.3767719340194791
-1.2517598247638482
0.6579977919409302
0.41821404030178494
0.20059436057036045
0.3611262080452405
0.14376609107364935
-0.2497836832328899
-2.035048818348216
1.3581450855786628
-2.0039267799556533
0.7411596751031466
-0.5438263772739834
0.3289386982606343
-0.3413098694967154
0.7051801000931217
-0.5359820797126564
0.5249310480719106
-0.30362184131973835
-1.22267586379127
-0.32767373606860833
-0.6178575931205845
-0.8273664143701137
-0.7571409403909976
-0.16491154058505975
0.30726766244028747
-1.0151021014506154
0.9197911413018617
-1.2937314306934569
1.009863153257163
3.41114998174391
1.446066797862413
0.2756246183452087
0.6554465781727652
-0.09999008010635374
0.2163155998144075
0.02295018246162132
-1.1467156077051441
-1.9365496347867475
-1.264574724482644
0.9684766909714326
-0.6193220055346788
0.6772454403952074
-0.26981467709308504
0.9739455275828487
-0.06462943211045603
-0.47939672067465705
0.5232560883432179
0.9604136078637711
0.597045249962336
-0.32805429872994435
-0.7887701631706057
0.9585799725605706
1.9650667742039245
-0.24270423346841422
1.8945338648642356
0.7725681764935537
-1.1285092947155604
-0.3108588415941229
-0.010809430328040976
0.35096213796161163
0.3452299826088261
-0.5429711190602962
1.5184200569754955
0.4435352478988334
-0.8590981631342448
0.07125045226797455
0.4896632228231629
-0.39457142314072907
-0.4346290343902844
1.6517733632535554
-1.0665669017455968
0.8153623041123969
0.6299072369695066
-0.6113841532439578
0.8718296481551617
1.6730035375936883
-0.6048707820744064
0.36561325314959964
0.9545277517613673
1.647960368537478
-0.26725545913913606
0.26556511943565847
-0.23131699700431452
0.45245404276906653
-1.057160845496723
1.0303886122365362
0.44813088974931475
-0.9421158808960985
1.4388368711433397
1.396219381226743
-0.20834592946941025
-0.48059001150720554
1.1976406865180909
1.6519411667479846
-0.3316982630172915
-0.940780862459749
-0.5703416406562205
-0.9514470494796308
0.9028831389840554
1.158477461200528
0.13493128694334294
-0.2175608146476064
-0.12006451827594608
0.684957476483302
0.8787253117018813
-0.35476016621070067
-1.4635338779384919
0.3634113633508078
0.9829796182027075
2.2756849147037905
0.6373914778069527
1.5240965527248052
0.08943884929271524
2.3145140499897034
-0.9377270937015911
0.7362776178579934
-0.8333913013355316
-1.5785885717796484
-0.4800588591775927
-0.2770867768375161
-2.784223699956592
-1.6365455231206185
0.70091033992906
0.8668094126019946
2.709412598599111
0.2656392945029014
0.5305837348334492
-1.2507920956301921
-0.7728211375764988
1.7117571868414225
1.00975198997255
-1.5370709686189408
0.01726806614604279
-1.0878762188051223
0.47538408914451713
-2.1403438782104423
-0.37289008415890235
0.07230566143064274
-2.149502269206273
-0.29622578641423636
0.3814667418759558
-0.45258169293222494
-0.4891794564872797
-0.014643259947036734
-0.4640029004566947
0.5315377383644865
0.6130777539421808
-1.862621451394682
-0.04206605996143516
-0.5912712572627697
-0.3589396788498589
-0.9293544792883929
-0.3294117271987271
0.16727035363159334
-1.0117350378821657
-1.8968598251269828
2.984581180274398
-1.734443120320504
1.571665041231027
-0.4651381611479209
1.706272188296902
1.1572097740033431
-0.1542334253745401
0.4816944415636601
0.19156653737739962
0.6797688226276893
-1.0322367798266054
0.6051052485242251
-0.6248229977790408
-1.191988398302227
-0.4393593250102852
-0.6545962395918905
0.1399970790334037
-0.07547402746309924
0.41958317651033766
2.1004649479220228
1.322158699086229
0.8944448174016925
-0.47535536360452446
1.0088166212391831
-1.7979932484644856
-0.882321189900466
-0.7587098815549088
-0.482004144603156
-0.3931778521999447
-2.0892518875866903
0.2868181644466449
1.0093666738317064
1.1886995414714048
-0.5512855802486123
-0.6150915224115506
0.764998530362198
0.1171052829152806
0.23474551470802513
-0.7416656463686891
0.5256425582197272
1.4181622612477993
0.012657114561441188
-1.0297377215866543
-1.647402768922769
2.139005241757869
0.21134418421200352
0.2801544560572306
-0.3371389956320149
-0.38809823669041965
0.40064437008155795
0.17309838071384206
-1.4685441461664015
-1.7522645137295432
-1.5706135222863744
-0.23359746296880265
-0.11756769837425451
-1.8439108771640722
0.19729104372765177
-0.051287233071576684
-0.4638516958451568
-0.6843584883834822
0.639915397059448
0.8877845819913637
1.3886435263563452
1.5090186970356931
1.4824366596174432
-0.16571597400941526
0.7344714952560225
-1.359395919569585
-0.1600816972014116
-0.15951097661185834
-0.20099048517390655
0.2343424831216865
0.5721083119919743
-1.4965882178836274
-0.08877797747401425
0.637136369646367
-1.2092279557076346
-0.8962322810561544
1.5656012410451032
-1.2348669858347823
0.9912354010261305
1.34061083397681
0.7474359183033595
-0.27971210371733907
0.7782876612896821
-0.5944665570771263
-0.27568190021956474
-0.721543886298407
1.1232016590777931
0.37908222836195876
-0.48931581356596066
-1.0842940782776236
0.08202230951771651
-0.6554827825526346
0.8540208878118039
0.7196895609632306
-0.29515520170311466
-1.5797829863856514
-0.23066263619553304
0.15427110542811268
-1.1751738517909815
-0.5066945804980569
-0.15461888679238606
1.516855710403895
0.5146231307279722
0.37027184485505826
0.4617581414825185
-1.723508388767852
0.3751498316322636
1.294250631563086
-0.9899547175736519
0.18475503457381606
-0.42031976525437964
0.8883929195214192
-0.5362173517237852
-0.7871447584534372
0.09667302312516975
0.5642749564540626
0.5102245626136483
-0.4972141485586128
-0.17678523664121118
0.4340639720688304
-0.5372118217196648
-1.1163634119916952
2.021365375989557
-1.22035214991102
-0.7512189532473204
1.0451345189521493
-0.07813640252781771
-1.6276654453180799
-0.12347951847955098
-0.42817320562289507
0.2793752564050996
-1.5105031916455847
-0.6263347502645805
0.16139214224780044
-1.1412311010529732
-0.05557273006835733
-1.3482135191799252
-0.0553308561568104
0.0771689432676915
0.9903979482667705
-0.08825748885916491
-0.1857642993711655
-1.2269866949621757
2.3688041530563053
-0.12474049104023362
-0.8838558577861958
0.2376483113082649
0.28360027394786413
-1.8375239474467648
-0.09332308603196905
0.24409763676161456
0.6020373676743155
-1.7935276820549382
-0.8079271701972986
-2.7076025590697577
-0.37359856385916834
0.29412483518943827
1.487777720274164
0.35680187745852737
0.2208912419725143
0.09588213565549894
-1.5945252728540646
1.0558838072509606
1.0153783365588607
1.7545170079655243
0.8905372122062883
0.4020014849978355
-0.7751794226334252
-0.042665681194751094
0.9059188524034539
3.1315325046902305
-0.7922011817676672
-1.3633665444119978
0.4116451432214361
-0.342191338132554
0.3593237549937106
-0.8132781438950906
0.13892780530362192
0.18214870820150314
-0.590391771258309
0.16947312613135965
0.1484081508397689
0.5861461240281238
-0.4652456535841152
0.8587594267919355
-0.5354763309165026
-0.37008947805141346
0.4392078984899516
-0.2218124486724273
0.4443666062896382
-0.8434068043139907
1.8950410194698903
0.6442877775151159
-2.016672750754702
-1.2800853576780087
