-13.399550412474934
8.13524016648843
-7.685187251289412
-14.251982502153618
19.44227717123604
-2.843802440130135
6.055500453444731
-1.897618060922825
-18.34516762971453
-10.557691751642793
-10.072292998345482
13.23341649384842
16.26007014732041
-14.240085688709408
8.402920769716061
-20.73048637342661
-3.2621536631873793
-6.225548062068076
8.890245564987818
9.339190221972004
-4.573565826627819
4.100673758112764
1.303858681119257
-12.690897848321319
10.885596000925606
-3.583063903192694
11.807252637104165
18.4860197851907
-5.624375207680117
10.998419343793367
4.326615833480648
-9.855265099991678
1.8931189465977623
-4.145140292005429
2.0360163128905833
12.721551668284945
-9.440267750193785
-4.459667454050818
-15.42385167729092
-0.7868821444265622
-7.039093278183613
-18.35330630442523
-20.048664639084638
4.172890893822591
-17.345314390403104
-0.32427883977245486
5.8770587513471355
-1.0009987972883925
-2.3649656513161768
-7.297411312653619
-2.5220458633166185
16.69824146056213
-3.3440431073743393
2.57199536753793
4.45722639684926
0.9572360852872586
12.93842470923283
-12.992013033374405
-15.490192639382725
15.02259230042247
-12.832015061367004
8.323817484449659
6.049354139513401
-17.495846045152003
-11.47680962192954
-12.938488325925382
-7.340259580608824
-1.7212238241411035
1.3611413347713397
-0.4335677647156957
-14.58477927212472
-7.967127609317864
-1.5553681842554874
-12.119214562789711
-5.2601248430321075
1.075053513952587
3.9745905605164547
14.589065306899975
13.714405291023681
-24.291838747618932
-2.155385707501401
8.562539361858564
8.823299836992858
8.328689152933856
8.341232936104163
-1.6076902343257882
-1.84869128017354
-12.130166734571816
0.7123515012255317
2.5989952402068193
8.345178266246746
-6.1340216288640725
-6.863816378694711
-10.503811488478021
21.680967125365083
-1.4206370658197325
-5.128105929196031
-10.317913672975605
-1.3798173523272115
-7.315667923884093
-6.138007065426142
3.0853926305012833
0.49347507750685143
2.180081350503048
-0.9996359495355422
7.168745281891992
10.040699743592118
8.548436965240336
8.29393738083448
5.812420131260479
-14.08885072314431
9.110713713227469
-28.171657191782796
1.5650851778266222
6.354160460680335
9.616349329300258
-13.938643724976837
6.375295369417183
2.384969312200297
-13.757568220151574
6.571887873568466
5.572770066166138
