-79.48491749248274
-49.69546797515018
-81.87555580786214
-3.1882105171728226
-51.26583616109811
69.68128873106994
-58.71264995712565
-23.65413128854958
-8.536185467400855
-32.91035094657136
82.36672062144518
38.132259407420534
56.21378344909523
53.48149927935533
23.81354537368931
5.401557537744324
-14.585569544268983
77.99469715498563
36.252992368764225
-6.880382559135358
38.36409310357971
92.05421441292276
35.2756613352901
75.15339503461666
-47.28810578824256
17.32861015222398
84.28425331806845
7.2549343325227245
11.398476862116071
20.41166000188354
30.061070335043322
-44.275260634703365
-42.11859766863566
49.04562264485281
-83.22584293830822
1.3176986065915468
-28.927472792128743
-60.94303252400578
4.627887185315656
5.996684214604498
94.91406633659275
-46.85861473465305
-5.936114861653954
-14.955082335487258
-61.13128725501718
23.88045805452468
88.43417266169917
-6.624381173743147
-50.33250551774314
13.616008022400296
-29.637857297836128
-50.33518298283505
60.53248379860918
-21.06404408273606
24.55460103601921
-12.029214321990946
5.131513507927107
4.714846602718239
22.7456387905347
23.84882206067475
-9.67013152009287
44.67317441176663
-10.429687951023878
18.957686354965666
26.742453628281243
-12.824181770512018
27.336457850747347
-21.37187410525118
-33.928282827339345
8.569039421144948
53.302961226448126
-16.630245231754266
-14.320489828296568
131.1402271528465
17.163109308715644
-28.01557884668564
19.21165202351054
39.919860622174326
-90.15340223977006
103.66255027779194
40.58448177345836
26.243779907471904
-42.90288364404295
10.181793539984637
-64.52804329592898
7.431664541662807
0.6968642050231661
-79.24205961487641
-24.508512388865366
87.28348518979863
-17.330818891924224
-22.658937963961396
-49.96512939608059
34.351840046269885
46.97805548018074
6.75939415503565
4.3470640111799845
16.917309970599735
54.8817430385009
48.43409641068203
6.910616989169025
76.89997324338765
-15.033567922945801
27.744626966550406
-29.44339351165829
-17.57884513941804
-36.836992919133934
-50.49685270665069
25.941875572895462
-72.74855128421979
-28.970956047368443
-48.04150628079495
-2.115675754572802
18.24851045838145
-11.210103537440027
3.301956561813927
94.16827897594509
77.43674441136474
-106.5440923812904
76.75293354215464
10.443921330076275
-39.3594551979223
