-92.20645332327264
-50.38560873538464
-72.84047972320745
-18.258554689949953
-61.06890704135603
97.862025441456
-55.21139040953386
-21.013751329917525
8.170219866743947
-19.805126920466677
70.28548802477786
16.1757532879613
81.3222083989433
61.46189139531373
27.01783260353061
25.474634663408168
-33.51263308812427
34.01919580617188
46.779786566023176
-0.041268205213036424
42.470078827823926
109.40637267044703
34.8053711654019
76.96070597521151
-37.99561103066506
7.449844264587094
89.05750881836356
32.462971148460625
26.578453583483476
24.714770420983424
45.3959513406895
-29.71817711697802
-53.778697335274046
32.386539048085076
-60.738330948805874
53.559268655480196
-27.810310264852404
-36.1192251597788
23.1040559703339
1.7885840578586052
85.14971335928738
-62.63429157649094
-27.911785264796762
4.882266696296302
-58.631918124003064
37.2107690069131
73.52930477827528
-28.275383505428344
-38.74444786991396
7.36808828191568
-18.989422847436643
-54.664775675640136
68.35817878220396
14.709743319213146
18.963596442307843
-24.538462588971623
25.993197721199433
-8.360715382607356
27.354772604464976
-0.4612392363605493
2.7951105695065763
78.75783185304549
-27.536893637200816
25.18666283175559
31.24397650770011
6.1530708559566305
29.369678329755303
-24.805661079803087
-53.14561658200424
-10.266015938983756
64.2758655026042
-21.744655942213672
1.1180642954296047
128.30004518087725
3.7806466047955993
11.834356535828196
64.52918035403225
62.91338238432979
-92.26986347948053
40.90333889819937
60.07497916617217
22.220104848900284
-45.14287277833401
16.388719177004177
-31.096874658927437
14.636021014195116
19.38887417498431
-81.1138745450532
-27.474859412073283
76.31549862590931
-23.34135957776676
-2.6403288621513266
-44.53880359419652
25.604266876442928
39.0206077899548
10.308941446239395
15.361216757323929
36.81228024005978
6.482543967046986
36.07235592477546
12.464628495495905
65.58849357792863
-10.861468883430605
47.257956223321024
-28.706390889500266
-27.851978696174253
-63.61097368306389
-31.716771432223727
39.17694114418554
-70.14310912464482
-0.44510844229501934
-28.769067013272558
3.6660539709959235
-2.0769366648012095
-4.619471131049934
-11.564057414055242
114.51851213331156
74.96122164059311
-108.89178907528756
58.327256412960594
35.640433751378396
-59.2262757984183
