-49.913572851037756
-17.988659221105177
-19.250662299357245
-6.812235300069383
-12.407303166624581
0.2163566918355695
-22.74557377064968
20.15875980154354
7.582767762543966
9.699744174175926
9.991549365128243
-0.5409515006961492
-4.98588845952724
15.139367707134872
-15.889493837347942
-26.569086020323223
14.11916639799222
23.85714237045795
33.71335397112434
-3.8128544663290693
4.051812979141481
-9.991144052065515
-7.797235957074847
12.745390042554545
-17.20043601843547
14.853657825850735
30.50719821991211
1.0799031330578406
0.9009461010833393
3.7708150283912794
-33.026051825463185
-19.206482321633743
-4.928756854586808
15.352712409425433
-8.876801730548426
-12.300196042636642
6.3383858293465165
14.586803956826108
13.308454754884966
3.5284357757456544
-8.380079804743328
-28.93111477955329
10.871958285753669
0.511805100512384
11.258152680566521
3.1523469411512317
0.2892083048959968
11.9989922482189
11.284510634637233
2.8490271239145106
19.393589617001478
-7.225665612547858
18.040011807444444
-0.5644863558457995
11.069236231472065
13.470571395840249
14.134003410685132
-34.38826394324442
20.56705658154597
-6.298184400560142
-5.0833925705722285
15.086037941775924
-1.0539878555519326
16.62653284181501
12.903035849713453
7.273735459321305
8.809070944837238
6.401147611539259
-8.156165178970934
-9.804329791326328
-6.137358172482002
-10.17165724197719
-34.00770698027331
6.6036049605344935
9.727265653556286
-18.358952179503564
37.16045128478916
39.48732191664471
-8.800874131340144
33.2103018430851
-16.759946520294775
11.02362516076909
9.281004771722461
3.271937468149024
-1.752639884771229
16.700098331795967
8.109178752801732
8.707713359119754
-9.874499047295338
8.817287643725154
-4.109474068962264
18.387118048694553
0.8192815128806341
11.274483862235076
17.31431812596029
17.398564331186215
-18.193875741663664
-9.414007625048916
38.820575663767514
12.865450521181709
9.9714072569575
12.176436495013313
-6.528344033894251
-14.29206307556111
-2.0758046896950493
-13.654502751274341
7.222532043169412
-6.083151375388228
0.12333087530628406
-22.866088101454668
-11.650032812814956
-2.1400859622689623
-18.198484047339324
19.019732011140825
-9.66839562920898
-7.104521752796317
20.692381120139878
46.55712705926156
13.037950783228098
15.8286631579191
-10.973538224961043
-14.753981071726503
