-58.29386362120592
-52.92652840493044
-57.28939437961063
-23.623971292149463
-43.04312565592485
67.79797186221272
-60.63565959485923
-21.263547793171263
59.41500958800976
-71.05459219819103
88.69566728615182
48.586806333417485
42.73101463000127
77.51387913975417
24.906735359133112
0.8523727146812314
0.7853168870933995
40.599719508951516
51.53541226410599
-12.854046043759046
32.91920478007593
90.76261776519937
42.8154473063768
82.06621681984117
-13.90119554468897
25.83668783120612
113.6225700745457
57.652591891634444
21.93067221057477
33.630375711532956
30.713387293899267
-40.94266149537869
-102.31884234640849
24.07328523847259
-78.90071079804417
96.69375744964812
-10.937539642815187
-39.98465486318328
46.868060783133906
13.674788704449817
84.01184160523101
-36.91310977979862
-52.841746136200584
33.02340309870994
-64.2375774516085
43.5061902201513
76.98634028063178
-50.9357947037539
-53.664691574433704
17.56190308894751
-53.88203092832824
-63.04037812671485
60.76359924312503
43.18957270779478
4.3027000820199195
-31.38614668518855
36.722045579335756
-11.710679458364487
7.658957523693093
-19.105788175169504
-4.331576861865425
128.81455285006027
-3.414821884373783
51.43543304991293
21.616488113092277
56.787300142245094
30.947078414560963
-24.879609234897767
-37.304309175203336
6.474778748425626
45.204317766353135
23.326963113938113
-29.281690722565603
149.20396750733224
32.76503366791468
10.735267812893843
37.05135911441609
49.46755872748626
-123.7255512808351
44.76288340020445
24.01015486191405
85.94307650601795
-77.6279238644135
8.158526326705763
-1.6779247181321504
54.424745030018315
16.806923497785057
-79.17229102777951
-41.659054704677516
55.20401555905717
-26.227938016521172
1.0323430364910768
-39.50286169720626
4.422241234994301
55.68822173412623
44.69588363206425
28.655328991341065
46.95061583611051
-15.028137418090326
-18.029161365581906
1.4797056266259556
100.85544206512785
-18.535903108968412
43.201248745495285
-22.55536633396407
4.24600265698788
-49.551232957804906
-54.530227129557304
15.76261348978225
-56.45069114858038
-21.232453494174145
-36.68876702630121
17.992253133384523
25.231068563574606
8.583940306344928
-27.39078666338212
38.52138634484126
108.05528788637817
-108.66395086837963
58.1562653569477
32.37476488038654
-40.431373240874635
